-4.134236564147639891e-09	-4.899612568418804835e-09	8.178836223853351164e-10	-3.527971771958208646e-09	-4.396425203645676133e-09	-4.002777239644617375e-09	-3.278247841823717585e-09	-4.768924956404718485e-09	-4.510298985388489463e-09	-3.895038613252379079e-09	-4.399520847680491248e-09	-4.451068596673670994e-09	-1.893756654156408043e-10	-2.597252352464034793e-09	-3.720209641174931031e-09	-4.036923667097950625e-10	-2.729019597640410670e-09	-2.911623134181446394e-09	-1.825400026394768717e-09	-3.247063632571980795e-09	-3.629944657092653351e-09	-3.801880769642483051e-09	-2.554018236265355484e-09	-1.182327649735613706e-09	-3.161727984383531260e-09	-7.743580062489233078e-10	3.199224620517849421e-02	-3.048078059092659099e-09	1.126532607468731043e-08	4.659391400849895865e-02	-1.470593465476554482e-09	2.532053289425775906e-09	6.337937219365460950e-02	1.738184063197686646e-01	-2.474064662787472635e-09	-2.775535996430710362e-09	-5.862712927518884922e-10	-3.897341755829259904e-09	-3.543863602282774175e-09	-2.447378099629608058e-09	-2.902409966823014934e-09	-3.020215119341584410e-09	-1.483902097302837883e-09	-3.498363395634028802e-09	-3.075448362855129171e-09	-3.634167956107643399e-09	-2.767124686413375739e-09	-2.870682774088783950e-09	-2.929998726390757811e-09	-2.796570690050514125e-10	1.831710336697121161e-02	-2.621930837443512167e-09	1.333306444947306035e-08	6.645168206802705424e-02	-8.836947010158701518e-10	3.032766422837266144e-09	6.429841200659303654e-08	5.650391210365764139e-02	-2.413459564921834827e-09	-2.525501516327707025e-09	-1.838281350781978708e-09	1.352444316036862239e-09	9.200865287408084848e-08	-1.067977253933087496e-09	2.292333269158099017e-08	3.006758200391378977e-01	9.831676155540216400e-10	6.147694445614072567e-09	6.301103440674414774e-08	3.310195273482905911e-08	-1.745581730815011274e-09	-1.662105840143353956e-09	2.304298556984898947e-10	4.813946262182226734e-09	1.846236951194517673e-08	-2.970084531941543301e-09	6.845015399849390622e-08	3.086408747486352189e-02	8.525675609940400351e-09	1.703975694219835357e-08	9.996783992670082683e-08	5.069901969114746268e-09	4.871530679434367237e-10	-7.911213614922027159e-10	-3.417258677417414492e-09	-2.545816142411927117e-09	-1.550628821906634113e-09	-3.743047455838679405e-09	-2.842960348849179163e-09	-2.067545711862659445e-09	-3.531050643881681178e-09	-3.205081908609535331e-09	-2.403144805442596054e-09	-1.343544317345429459e-09	-3.571532018998028962e-09	-4.042654697176746690e-09	-1.593876507084882392e-09	2.505006175979192253e-09	2.277112534754733203e-08	-1.419601508591549070e-09	1.319265620549246835e-08	4.158900944401005423e-08	1.518007372727908776e-09	8.416484201729839357e-09	1.012284224448096182e-01	1.101745448286890888e-01	1.913582100659515994e-08	1.295579924750131861e-09	-7.264432921292300019e-10	1.862441130282775221e-11	3.372199605897375775e-09	-5.896309190492325277e-10	5.797663476208042573e-09	6.941072088001685396e-09	8.205840647748938461e-10	2.360389799561822879e-09	5.901274969835879761e-09	2.004266312733903940e-09	-1.851707070339388675e-09	-1.885655495500116884e-09
5.341900874955557446e-09	1.792804830212758155e-09	8.264452547511377413e-09	1.416945073946131817e-09	4.052378424067364545e-09	4.497563755741319063e-09	4.485701049973499876e-09	3.753702468559503856e-09	3.049375953547587831e-09	1.854251266031658453e-09	3.517802976032271059e-09	3.271243719491224773e-09	3.199282657297552134e-08	1.209180730031091218e-08	6.911459355947149674e-09	2.811510803063174743e-08	1.287401283750572302e-08	1.148342877776174921e-08	1.707852998358698236e-08	1.219220379808722229e-08	9.487580693160520636e-09	6.302157373056736093e-09	1.734636292837132240e-08	2.614105529463730045e-08	1.586220636541301397e-08	4.552388757453483633e-08	3.304812741150119082e-02	2.994303790369658680e-08	2.445017532761126290e-07	1.259027251248535755e-02	4.094025265174467938e-08	9.071566089828828795e-08	9.418689685128717182e-02	1.737744292656666911e-01	2.482240834484849698e-08	6.982683179971972788e-08	2.273102807118351649e-08	1.818504662993778264e-08	1.826986175860110565e-08	1.569572572220105513e-08	2.485752304600592629e-08	2.501029168506757242e-08	2.359205109623798109e-08	2.354655095063119900e-08	2.402996356214723488e-08	1.642839936295284174e-08	1.807233989593572296e-08	1.957661952490216316e-08	1.960030012354074449e-08	5.179378040589311584e-08	1.477838746446939744e-02	3.862063073092572739e-08	2.472253012489289793e-07	1.048432081937360899e-01	5.572508968979055456e-08	1.302332114982233204e-07	1.129495016531120982e-03	2.830645450945594443e-02	2.851081231828786589e-08	7.918189843130070755e-08	3.080998732211110707e-08	7.011806233388456502e-08	7.661158839214714485e-07	5.813745168225129126e-08	3.628087919351669498e-07	3.104158358493964709e-01	7.909715980416863770e-08	1.731353160939363539e-07	1.793056293389282864e-05	3.727638025517384005e-07	3.711472371450257197e-08	9.113307254363405306e-08	9.285874246904514474e-08	1.279633257518164452e-07	2.322990401355282302e-07	2.930603167634123590e-07	8.544541572053961423e-07	2.567836973702168624e-02	2.079963591325467170e-07	4.120791132940805549e-07	9.112473306124611191e-06	1.063374735984685247e-07	6.610914493248203413e-08	1.155925806976844090e-07	1.038812629640366421e-08	1.177401429905616840e-08	2.228143788457596853e-08	1.056852852869574790e-08	1.870337377451767767e-08	1.986026287269639579e-08	1.357840154240688797e-08	1.572389352663291932e-08	1.851770075020591555e-08	1.523259201911124419e-08	1.204856290262515746e-08	1.712063790518924508e-08	3.022789269688717539e-08	6.845237930181481433e-08	2.551364450541095916e-07	5.795583302077543120e-08	2.036080111185314805e-07	4.257025585636382440e-07	7.872003125737440153e-08	1.638930103294434134e-07	3.133668732241071120e-02	1.698756343842951766e-01	7.110419117032643147e-08	1.355115556613796073e-07	3.762325013875985787e-08	5.889860980864929981e-08	1.257291568088546946e-07	5.024248068818094583e-08	1.542546017310799427e-07	1.848900566855625283e-07	7.414307586800644752e-08	1.145482870084563897e-07	2.242884585926318659e-07	9.003069238707101667e-08	3.651335410508848376e-08	8.085241214538731648e-08
-3.158304873291176836e-09	-4.483760602768013941e-09	2.016761439386953625e-10	-3.137211185454699498e-09	-4.022487775026387834e-09	-3.607977278003816794e-09	-4.112951812247613865e-09	-4.213920020416735607e-09	-3.153673734182140596e-09	-3.793146441533821301e-09	-3.973714330515364930e-09	-3.858658308621844421e-09	6.412893871825273327e-10	-2.346390179174236116e-09	-3.298062861096813373e-09	2.743749666400994698e-11	-2.196073222758686344e-09	-2.398394168402756209e-09	-1.570062733740646818e-09	-2.775727382437108384e-09	-3.182930787703473952e-09	-3.432010067771832396e-09	-1.902396931417417965e-09	-6.524501848700228904e-10	-2.917987381574905651e-09	2.353001996185937567e-10	3.236793544312797921e-02	-2.322599003745741318e-09	1.419322458335540610e-08	4.009524954991253859e-02	-7.932682078954625594e-10	3.568944217600791650e-09	8.354138057298879372e-02	1.646815750127814948e-01	-1.785611927534282246e-09	-1.560217089272537745e-09	-1.493003397166301487e-09	-2.259113435775965898e-09	-2.820268163518349347e-09	-1.745060634741611737e-09	-2.185346059523175801e-09	-2.281551594061267068e-09	-8.734354028930145789e-10	-2.091731326501925261e-09	-2.053726513196685452e-09	-2.647128658158580529e-09	-2.211094266152486281e-09	-2.790337000905871936e-09	-2.380668788779553733e-09	4.771631975385551574e-10	1.936431883461440032e-02	-1.768574170710478446e-09	1.635787107216325835e-08	7.779913943030664081e-02	7.119231846226167388e-11	4.848185834079048271e-09	2.310762756996418714e-07	3.944597968926043252e-02	-1.754705490899729938e-09	-1.207897405026387326e-09	-1.202530001575318103e-09	2.099550071556071028e-09	7.295728459970000887e-08	-5.005673876244859557e-11	2.715726563979130984e-08	3.068989221998219552e-01	2.310060536864711381e-09	8.959103422494261128e-09	2.540205072861798555e-07	3.568999668792442822e-08	-9.952603316227864547e-10	-1.100370024426544766e-10	1.263904644123452691e-09	5.628066965088878498e-09	1.805745139344852023e-08	-1.238259468015005315e-09	7.569622833967276999e-08	3.018046681786357849e-02	1.339209714605915649e-08	2.993745389134086433e-08	6.288955901765462472e-07	8.398043536462016312e-09	1.935739960101777962e-09	1.490803078138586090e-09	-2.733996389349260441e-09	-2.704942878637048276e-09	-1.986298954815530921e-09	-3.234393166181766027e-09	-2.329114600960389626e-09	-1.528381984225372138e-09	-3.028359709549365056e-09	-2.756383600201971303e-09	-1.948690140027102596e-09	2.715128913756236108e-11	-3.027540115839212643e-09	-3.574919125815843716e-09	-8.268283533660519799e-10	2.362355210348511108e-09	1.975291699146834495e-08	-2.602550943705951251e-10	1.496819965408120364e-08	4.101459656251995092e-08	2.493769035497314741e-09	1.003794229932556830e-08	7.630712349083088042e-02	1.293164339933129403e-01	1.481235614650664663e-08	3.319510904086721927e-09	1.091255369571167382e-10	1.010334320483718241e-09	5.745318033198672977e-09	5.200434761689234238e-10	8.137464947294236451e-09	1.189436459429242491e-08	2.396839415454561127e-09	4.447950268254839876e-09	1.053137054074013156e-08	3.792585522247627082e-09	-9.083698274576550157e-10	-3.384755185141126690e-10
-3.028834871544953514e-09	-3.843484421995736483e-09	8.460019064740329377e-10	-2.646973243295741060e-09	-3.430182780687437769e-09	-3.046851466095399190e-09	-2.556520956233106669e-09	-3.373862793993237972e-09	-3.796593381320429838e-09	-3.220974938509578917e-09	-3.180528649388584446e-09	-3.291926995942076598e-09	6.070741694623054281e-10	-2.027613498828039000e-09	-2.796738701482126092e-09	-2.590718816539939211e-10	-1.624521607017480595e-09	-1.831857169260717592e-09	-9.906654571751745817e-10	-2.233847556834135759e-09	-2.635141235240180868e-09	-2.732353861483115203e-09	-1.183735504637336746e-09	-1.342873358166675367e-09	-1.674640544345223645e-09	7.011615507716473915e-10	4.224102519487678981e-02	-1.730592930300810579e-09	1.541502288052509631e-08	2.019506777051510021e-02	-1.885555185129946720e-10	4.221980656803309214e-09	7.902334496531272789e-02	1.668359894008305810e-01	-7.709676395434882312e-10	-1.767669022682209222e-10	-1.015688296408743993e-09	-2.037259653187945340e-09	-1.745015577339755919e-09	-1.624080247271805226e-09	-1.552213793574260339e-09	-1.792393454162148795e-09	-2.233467826029494743e-10	-1.614555695505124881e-09	-1.724106948573611008e-09	-2.248602023886889204e-09	-1.747957181307032305e-09	-2.135125180648061147e-09	-1.666272820635912907e-09	1.257495310636847227e-09	8.163327795377732163e-03	-1.145345500928435784e-09	1.677162081563613668e-08	8.285495843494880552e-02	3.763041808341689879e-10	4.538308704780701740e-09	6.033365516448006916e-08	5.309289784192695177e-02	-9.700242213268714326e-10	4.136457614562877572e-10	-3.311417170167234035e-10	3.362490316887209563e-09	2.078644238335449404e-07	5.060606702866289332e-10	2.754864753819520956e-08	3.168004639461850513e-01	2.417436701471159394e-09	8.090123475697104030e-09	6.903110575004277946e-08	3.750560440271077486e-08	-9.862628159365916805e-11	1.779419003821058822e-09	4.339878311390248482e-09	7.481811891854668158e-09	2.140570632548937263e-08	-7.748693434868291078e-10	7.913103818550111660e-08	2.599138936751147280e-02	1.207350120677722404e-08	2.412696563577482087e-08	2.570053704180954988e-07	6.500546884663614942e-09	2.177606106489761599e-09	2.405819443390966391e-09	-2.309669384870379968e-09	-2.417977044877212408e-09	8.843940490794236466e-11	-2.752524609105177918e-09	-1.785344707540853510e-09	-1.199203357844640946e-09	-2.502588740382993216e-09	-2.227592083509017534e-09	-1.498193491772915035e-09	-1.089302928730929966e-09	-2.208108851717144424e-09	-2.929960324143871564e-09	1.522162241865338908e-10	3.142118886656393813e-09	2.324915589630931234e-08	2.859480340050317602e-10	1.626981694198819642e-08	4.782052707921796888e-08	2.949174683329185063e-09	1.034099308675477958e-08	8.695231222139043759e-02	1.178482774916682768e-01	5.250609084222933179e-09	3.251156983207221556e-09	1.578714817925690124e-09	2.152614561146887697e-09	7.834502706268236354e-09	6.211289879487435099e-10	9.062833303589695478e-09	1.415313336785624339e-08	2.713953731219310536e-09	4.872964395688964862e-09	1.058318822032747880e-08	4.781413121879594830e-09	2.073023250279142199e-11	1.142063063101520600e-09
-4.768391295184229657e-09	-6.233856639221782423e-09	6.540441476040155491e-10	-4.558010184090249761e-09	-5.584894403486422654e-09	-5.254797488570611921e-09	-3.989726888659178728e-09	-5.691645670929759106e-09	-6.042222028185899851e-09	-5.266122792714831822e-09	-5.501548128081446008e-09	-4.853391756090051569e-09	-1.763400911009608319e-09	-3.071869406669255231e-09	-4.608952238050519698e-09	-1.091989824851608778e-09	-3.209649258575783569e-09	-3.476831344167050601e-09	-2.524666800269032163e-09	-4.135984612401932820e-09	-4.631412561676817591e-09	-4.780264154647391303e-09	-2.846619819333099552e-09	-1.736602261658705905e-09	-3.654826298110140808e-09	-8.443048881309718999e-10	3.694532990752644880e-02	-3.686971481514655914e-09	1.523234321904816350e-08	3.508849426206001043e-02	-1.754513830125948871e-09	3.458777198758453040e-09	6.876214184876527913e-02	1.744333936368172577e-01	-2.583348930024802770e-09	-3.501920343599097282e-09	3.949380738680265853e-10	-4.217158125853508288e-09	-4.452334261074902618e-09	-3.276841736628602410e-09	-3.973334563150919566e-09	-3.852179792612709443e-09	-4.069978922917235018e-09	-3.868106075081224777e-09	-3.857815854956365875e-09	-4.708947160756756650e-09	-4.311176380041917377e-09	-3.020472608230580700e-09	-3.722018604187672889e-09	-1.694161445371195124e-10	1.255073417134026578e-02	-3.059910693359436073e-09	1.757702425540246989e-08	8.512111582782286301e-02	-9.675254882372392757e-10	4.093683418020308440e-09	8.035230803108188330e-08	5.534992792869632833e-02	-2.768171889752428884e-09	-3.036162956633283028e-09	-2.272469089888582898e-09	2.192265110263910994e-09	2.717992468860404587e-07	-9.869886102054910328e-10	2.965844350594318422e-08	3.009093404568326524e-01	1.556437661988473715e-09	8.375355936560972640e-09	9.238963121696814485e-08	4.122267152609490543e-08	-1.945561938571527747e-09	-2.046160743414483574e-09	1.499125318791593153e-09	7.782589724157799049e-09	3.021145464399008800e-08	-1.941405790737921549e-10	8.802439337491021998e-08	2.910252941600919435e-02	1.136106608162224495e-08	2.281995153883996915e-08	1.354295435248947491e-07	7.349148631622275611e-09	1.093034080044214951e-09	-5.541799862997614888e-10	-4.492732112746432103e-09	-3.597517028982585223e-09	-6.388276324998885432e-10	-4.796207165147589712e-09	-3.593156425029957303e-09	-2.844102829961764531e-09	-4.448610126834616334e-09	-4.055854735412411066e-09	-3.174691449564547694e-09	-2.173995836740310146e-09	-4.319491263074070924e-09	-4.988892396116171611e-09	-1.699840666498371257e-09	4.308177798584296126e-09	4.661079527929766993e-08	-1.381879240202451126e-09	1.649072976405619175e-08	5.095434198074908254e-08	2.115036962730780735e-09	1.092057485660961476e-08	9.255120009660583458e-02	1.091849653776783835e-01	1.273555926705784395e-08	-4.527739123968928647e-11	-9.952775623266142050e-10	1.582705309973913982e-10	4.687678846500259764e-09	-2.067783983947413691e-10	6.754753630036017413e-09	1.067884249678806128e-08	1.358330917483668565e-09	2.994240137585458546e-09	7.814252924874944849e-09	2.484155702371806513e-09	-1.868331979505846055e-09	-2.222119899891113402e-09
-8.753207626587057961e-09	-1.227117116566425503e-08	-3.489557454517520468e-10	-5.634968380202416733e-09	-1.141456690004566952e-08	-1.046856036173377763e-08	-1.021832686630352312e-08	-1.098706249301054497e-08	-1.207562352100090889e-08	-1.142894407499297485e-08	-1.171932981347580268e-08	-1.034569558819770534e-08	5.859868680797914821e-09	-4.768518974017761563e-09	-8.669698208860458249e-09	6.533347387237046087e-09	-4.637726846169009462e-09	-5.461403024476259752e-09	-3.256892396794849092e-09	-6.714807869432444623e-09	-7.907208519627399035e-09	-9.055935852211431362e-09	-3.649048133564777937e-09	1.005406521559534431e-09	-6.780197410554991101e-09	5.415933025622245854e-09	2.382343886839039665e-02	-3.581608167574425530e-09	7.976530994136027910e-08	1.669354075933309617e-02	2.591993418899090635e-09	2.132682956307780233e-08	8.027044032864992518e-02	1.981047127766144555e-01	-4.552044833648226054e-09	-4.747813559947797153e-09	-3.819355556580743890e-09	-5.017405109924694592e-09	-4.697082601216056084e-09	-2.358866762406103983e-09	-4.036805433767401909e-09	-4.057278790652673690e-09	-2.620124552132789306e-09	-1.253031267550454166e-09	-1.235451958363020066e-09	-7.544502788393838148e-09	-6.342628719372934780e-09	-1.834725795673921328e-09	-5.313455534622921483e-09	7.157866323202812272e-09	2.502268979332574958e-02	-1.489451251112425002e-09	7.797719555512316232e-08	8.958135104555266237e-02	5.994628199982317208e-09	2.624230280535262113e-08	1.363445938021461835e-06	2.660753313562654390e-02	-2.951175606599547588e-09	-3.473271803818560283e-09	-7.365624017098461514e-10	1.466791647173544285e-08	3.701723164058309244e-07	5.626670470296025808e-09	1.227419306506175864e-07	3.069221596421130571e-01	1.497414530538535668e-08	4.215335007077454538e-08	7.931973613901485021e-07	1.443413178336096923e-07	5.549337292539511599e-10	-5.726196695789189522e-11	2.035276753965577708e-08	3.330462065832419490e-08	1.017856161570748145e-07	3.655840928567058677e-08	3.408509078905823450e-07	2.787112797788970572e-02	6.298419886886448723e-08	1.225243804824035751e-07	8.082944541185418944e-07	4.396050712801629542e-08	1.295628490525600008e-08	1.486359700373668969e-08	-8.190283994392748186e-09	-6.985848003030860082e-09	8.504956841499232961e-09	-7.412785539641980913e-09	-3.992323530783997991e-09	-3.014558202463925191e-09	-7.105453810905194000e-09	-5.828822008813807077e-09	-3.767650541644517609e-09	-5.650293147812353064e-09	-7.918741753870173808e-09	-7.912575778317448673e-09	1.802483519639450096e-09	2.319007613784037037e-08	9.954461503257320987e-08	4.892507520143390321e-09	7.431242741917330998e-08	1.999036205891983011e-07	1.604841448592143622e-08	4.754887853261695623e-08	6.664437590623449592e-02	1.384533950136385971e-01	1.173997671408404108e-07	1.660884881832743863e-08	-3.989582761252073185e-09	1.178906190066481541e-08	2.811157753279518989e-08	8.976405234802140874e-09	3.670829089392058841e-08	5.144767081249112817e-08	1.295512106603807643e-08	2.178532439226096473e-08	4.150647318257814679e-08	1.969635262818418724e-08	2.032763977976065557e-10	1.690848894543818316e-09
-3.770584233086587693e-09	-5.269086039030156569e-09	-7.984148160458075307e-11	-3.902658085043016591e-09	-4.860503229472553693e-09	-4.401567078359428652e-09	-4.857718489890933907e-09	-4.692462450493161878e-09	-3.850110376055825504e-09	-4.402929457060598274e-09	-4.710180460727631850e-09	-4.536732824210154989e-09	2.048358500580122272e-10	-2.796500431423295417e-09	-4.188986961960227107e-09	-4.150610914970730465e-10	-3.058787736179564809e-09	-3.245534860211031350e-09	-2.376899166724419943e-09	-3.678500412717535258e-09	-4.101943287462393077e-09	-4.342975159975596287e-09	-2.864368382816396053e-09	-1.096551290522989761e-09	-3.292460503393459841e-09	-5.817153677620318188e-10	3.692785806927473269e-02	-3.329153640026366288e-09	1.243919389102653992e-08	2.738021532215157566e-02	-1.635650529246851552e-09	2.511645347298056998e-09	8.588461003027472729e-02	1.674852760335043267e-01	-2.451328584100318099e-09	-2.720730316857877258e-09	-1.860177127279956677e-09	-3.627775011441993314e-09	-3.354332958829484311e-09	-2.694080817830060200e-09	-3.213256646693785451e-09	-2.866589969148281689e-09	-1.696787411519687052e-09	-2.818209761843231061e-09	-2.804192590191947437e-09	-3.209152728340772253e-09	-3.338082618718549376e-09	-3.841152051689048164e-09	-3.044842113845421730e-09	-4.065694587274306394e-11	1.034915809014071153e-02	-2.776884026121917959e-09	1.400167990036338122e-08	8.631726946042518611e-02	-1.040695709554356292e-09	2.971153645613282073e-09	5.867375014057638666e-08	4.729636947677772624e-02	-2.511362612867154151e-09	-2.609394769992779719e-09	-1.879865922417597121e-09	1.379821963781944767e-09	7.316347215551286318e-08	-1.169624163804469433e-09	2.434871633199200006e-08	2.987340748431657755e-01	9.960500533029349816e-10	6.162746430442232327e-09	5.808487791269801594e-08	3.243942337988927671e-08	-1.662824632373213231e-09	-1.539798554877447270e-09	5.830762363388237670e-10	4.645958825369659974e-09	1.488628518750125960e-08	-4.171457363986181524e-09	7.479968227554423090e-08	2.955141231500904228e-02	8.344817211769766896e-09	1.638568788395434723e-08	8.461445133970536997e-08	4.555536003123260838e-09	5.515853873852535393e-10	-1.024279943044489369e-09	-3.800558287153746359e-09	-3.782029288522695915e-09	1.757358043932967301e-09	-4.054527485767225654e-09	-3.104108216958717323e-09	-2.831197001062409044e-09	-3.761813210021315503e-09	-3.490364961100834810e-09	-2.924500487922479947e-09	-3.658617970414045029e-09	-3.837469824087271056e-09	-4.336732406723628540e-09	-1.552023886680181069e-09	1.972527267501225146e-09	2.183936528005661937e-08	-1.652184977664875574e-09	1.429243339063081873e-08	4.353880173733070897e-08	1.362860206653546628e-09	8.489572017945403280e-09	8.247613365158205923e-02	1.275971873444889659e-01	1.155494234129075816e-08	1.172301272355781068e-09	-4.259195761607741603e-10	1.369475570262971392e-10	3.847871427416523693e-09	-5.913991559609058402e-10	6.570134496070902144e-09	1.019070173458608994e-08	1.301952075012038452e-09	2.739020911403537770e-09	6.992955592366311663e-09	2.441289501935658261e-09	-1.634758127541546833e-09	-1.837073250894004551e-09
-6.009978128907134461e-09	-6.330035168607494773e-09	-2.396201255515136616e-09	-5.677523734986068051e-09	-7.718502323950089519e-09	-6.964677834763063994e-09	-4.815522472887061730e-09	-8.493500264881996818e-09	-8.783049577565851860e-09	-6.258055488492173166e-09	-7.629921454291626535e-09	-6.784904838174831419e-09	2.433496033012841412e-09	-3.301740323534236694e-09	-6.278523187545077549e-09	3.404612442237650534e-09	-3.605871458585200174e-09	-4.190799887801278007e-09	-1.863236434223785097e-09	-4.954591888739417581e-09	-5.939710473664586903e-09	-6.671021939945857249e-09	-2.753943060370870241e-09	1.109833327400800436e-09	-3.773919960391583538e-09	4.527813715573309790e-09	2.942707641666858845e-02	-2.181166955163581591e-09	5.147639880117470093e-08	2.207872234046832569e-02	1.903463013555759867e-09	1.491095683669167372e-08	7.613143167551435220e-02	1.835100386715130816e-01	-8.924882908198907930e-10	-3.355084251614256685e-09	1.775269179969022788e-09	-4.759508291889460710e-09	-4.515432774801879122e-09	-1.438574968585793438e-09	-2.677604250144125104e-09	-2.668011479060756834e-09	-2.196057565007369945e-09	-2.072568871187529171e-09	-2.635394645610871070e-09	-4.510743366536433885e-09	-4.296319962212842281e-09	-2.423403017359729996e-09	-3.278953008108763718e-09	5.482883770313317854e-09	1.506157625856876202e-02	-5.977187320460195697e-10	5.426873827147471170e-08	7.289877879092875046e-02	3.860006682795453042e-09	1.719507900856667764e-08	3.356727714215689669e-07	4.968958031006210502e-02	-1.119348873781041544e-09	-2.432067824594511502e-09	2.787433316533994805e-10	1.160584672578794349e-08	6.343147672708317979e-07	4.849647131040440941e-09	8.578341395656367488e-08	3.137789375363072009e-01	9.746081807865875170e-09	2.708128219614188741e-08	2.421216891123914114e-07	1.546803685106917720e-07	1.597149202156472641e-09	8.017726357420768235e-10	1.353280574802384030e-08	2.952007941462842556e-08	8.068159238602131258e-08	2.350142240297326973e-08	2.366480655643747574e-07	2.539338067661859807e-02	4.147661205811676040e-08	7.769428389685131078e-08	4.307360862150541950e-07	3.506578509163831619e-08	1.152412378712115281e-08	1.061399940736573209e-08	-5.188076712264445145e-09	-3.726911501801261852e-09	2.465933427416672513e-09	-5.308056772174330116e-09	-3.766729093426487904e-09	-2.836203298967294375e-09	-5.333278053703954114e-09	-4.624089443196815968e-09	-3.218831365462200319e-09	-2.962062904522743692e-09	-5.269685554476335919e-09	-6.144692072297167956e-09	1.078825787501295765e-09	1.139758106685613615e-08	7.418172715086412284e-08	4.302121022796031380e-09	5.522423279960554749e-08	1.730371136693844386e-07	1.123564471339146820e-08	3.339821712864773994e-08	9.192823804297911572e-02	1.200992441340619499e-01	2.809791336988383296e-08	1.123574514815402353e-08	3.019461187781403949e-09	6.174964061858486898e-09	1.706395414967288075e-08	5.779383086106239033e-09	2.277467004175660124e-08	2.916623359016791908e-08	8.443581860896055732e-09	1.291477941262478719e-08	2.439846204677997485e-08	1.307940231143749917e-08	1.187222330026816161e-09	1.236494248553998383e-09
-5.341525246988160111e-09	-7.115087233307362927e-09	-3.170661939804840535e-10	-5.072644944325004464e-09	-6.871787914727287055e-09	-5.710731458825104170e-09	-5.944161435530986838e-09	-6.318203861720488720e-09	-7.211684421164017969e-09	-6.290178953085111090e-09	-6.804818629850248025e-09	-6.557077614041016521e-09	-1.538116395683429886e-09	-3.333216728324202292e-09	-5.713388013430100330e-09	3.491928284428806835e-10	-4.122198835219199113e-09	-4.435391744914906009e-09	-2.228405312495683064e-09	-4.959793065776460583e-09	-5.675470412841605713e-09	-5.942067561363315476e-09	-3.569131580388319593e-09	-1.287392415518362183e-09	-4.338817320980874254e-09	1.783779767505680782e-10	3.898330980172669963e-02	-4.076674631048654803e-09	2.448054190538456912e-08	1.362750073679524880e-02	-1.545710794184802707e-09	5.436812340516319569e-09	7.427681063467540812e-02	1.826879148503555983e-01	-2.426306928729939281e-09	-1.941326119115996669e-09	-1.371704737267965281e-09	-5.607897561972962999e-09	-5.043213479491064506e-09	-2.881585665653759505e-09	-3.983757479572905398e-09	-4.006165377267747708e-09	-1.099244945932566757e-09	-4.867729573889089376e-09	-4.445125747691557103e-09	-5.241724566253897797e-09	-4.142967924153256126e-09	-4.198325376528192702e-09	-3.769136029793537756e-09	1.715489356975984308e-09	3.424992962225694923e-03	-3.221751558934721948e-09	2.561431555421777155e-08	9.954234800693319285e-02	-5.075073312670664062e-10	6.626493918034920811e-09	1.262445141183417131e-07	4.221926293366029537e-02	-3.083846274492056414e-09	-1.561811729042884265e-09	-1.711949144770716995e-09	4.216971771809338055e-09	1.892803854530779286e-07	-5.330186864014337133e-10	4.294515366919839739e-08	3.054249683780013158e-01	2.926162465680113975e-09	1.244127168690668311e-08	1.335652483588303590e-07	5.240321692036993879e-08	-1.867399176802334871e-09	3.036694611948394099e-10	4.592316166210305336e-09	9.037413049735371956e-09	2.495728904844247522e-08	-3.708114150019011514e-09	1.276479318699479351e-07	2.911972841327608794e-02	1.877549170423973469e-08	3.992517235760266963e-08	5.238106794354433904e-07	9.425394045817606809e-09	2.084766146483307843e-09	2.071579069960883238e-09	-4.885036816507484032e-09	-4.046457406380084289e-09	4.741900980443948202e-10	-5.636457008132073057e-09	-4.161071118876560525e-09	-3.334188025998270755e-09	-5.263416057537986069e-09	-4.714055013059957865e-09	-3.597830046302333698e-09	-3.531329646577464877e-09	-5.259622033946994270e-09	-6.005730439630817295e-09	-1.039788041157510372e-09	4.823653385609065977e-09	4.355119882221637175e-08	-1.000209117192026648e-09	2.507753300165017370e-08	7.298814405815628730e-08	3.576419749162984070e-09	1.547901644947907999e-08	7.798208417584349961e-02	1.327096702883077961e-01	1.177213107451171972e-08	3.714604629678017177e-09	7.732905749007407064e-10	2.265814161901404896e-09	1.049431311830590078e-08	3.111830448241493360e-10	1.435295054091535442e-08	2.324962339269130554e-08	3.847900394726518911e-09	6.960012437354036112e-09	1.620018786500152323e-08	6.164419978378287606e-09	-1.817344134456962305e-09	-4.793510122780653905e-10
-1.032022256650151118e-10	-1.084589818125601597e-09	2.251359099965727107e-09	-1.608734269746978151e-09	-5.405714908826585254e-10	-4.833961752325274250e-10	-4.416979176774100921e-10	-4.252356618863252341e-10	-5.698876878762064686e-10	-9.298149970378747662e-10	-6.317954670882691467e-10	-9.314025100915762590e-10	9.934287248033220496e-09	2.418971361459105481e-09	6.155054118430490868e-10	7.631330860452918668e-09	2.626992525684055435e-09	2.149813190400267308e-09	3.921160614651169335e-09	2.155923299272217497e-09	1.287796765630131303e-09	3.391800931380755024e-10	3.938601552519224985e-09	7.306622214367476272e-09	3.332919982941881930e-09	1.266891799009593606e-08	4.236178660082188380e-02	1.093440012189929139e-08	6.905941076594563769e-08	2.565745558155525102e-02	1.078699330046555256e-08	2.605221153588049452e-08	7.318740911967572260e-02	1.693089197798098577e-01	6.535009077239130223e-09	8.339388839744472626e-09	5.076290513796587010e-09	4.078799913392248905e-09	4.594327928053999165e-09	5.208730066668419411e-09	5.945362265743543440e-09	6.075768933750998956e-09	5.652648272150295979e-09	6.203593099691401903e-09	6.566249027836035305e-09	3.340293514865222805e-09	4.666930942935473931e-09	5.331325866367272600e-09	4.741566313187069098e-09	1.642522109546687737e-08	4.144641039536821857e-03	1.350688493085591256e-08	7.426784239069925044e-08	6.677000623442384819e-02	1.317859991083556303e-08	2.881215526201125562e-08	4.293220771996341241e-07	6.672678776258690603e-02	7.188711371959950061e-09	1.033673885988530842e-08	8.138275452088749273e-09	2.238623205879397689e-08	8.712686837394207262e-07	2.281753281917503545e-08	1.102575519495452747e-07	3.147395494622188261e-01	2.038362278633987777e-08	4.241258920101103846e-08	4.778465129285155652e-07	2.123369012325879837e-07	1.063261748137003028e-08	1.503858976441028098e-08	2.534855196728266453e-08	4.006331906236784845e-08	8.807266544067327122e-08	1.377426466627066973e-07	1.608635759285872884e-07	2.862708923044296819e-02	6.904958486902883049e-08	1.400259910691261270e-07	4.072152480770792513e-06	4.173677122344815331e-08	2.096689808779723045e-08	3.050748133337890761e-08	1.866346183068214118e-09	2.313190414727672124e-09	6.910180129847750145e-09	1.769122087418823836e-09	4.172130605773253660e-09	4.532451295760125709e-09	2.357101570269411301e-09	2.999133091048773691e-09	3.889549277392490314e-09	3.147543961904187483e-09	2.132893892128304100e-09	2.447930434629164403e-09	8.417081270133861113e-09	2.284764606339588662e-08	1.208377889518137667e-07	2.185449158579219646e-08	6.934133742034097711e-08	1.730118799527968151e-07	2.172548935048016574e-08	4.784652189477488836e-08	9.482206749751574681e-02	1.136459206198259103e-01	2.340084965066717554e-08	2.594093760662096582e-08	9.070073488267956512e-09	1.691757103474509157e-08	3.571875046854617130e-08	1.677770908222399253e-08	3.865983531817898028e-08	4.912772560985532112e-08	1.849480796112436362e-08	2.672334356665941089e-08	4.475555313526508057e-08	2.572484574487078209e-08	9.913410143588584326e-09	1.432070255626694197e-08
