-3.368518256732413624e-10	-4.684041213008493629e-10	-1.054120619191799069e-10	-4.106240244866724074e-10	-4.241298374154401822e-10	-4.040102863836945574e-10	-3.868958286621220190e-10	-4.506536789037127130e-10	-4.471028051173747799e-10	-3.899839373934777440e-10	-4.350088834334418529e-10	-4.457706865325595038e-10	9.374431037269011035e-10	-3.191078252312574964e-10	-3.830379305361480065e-10	6.164546869006218741e-11	-2.913138938142156342e-10	-2.975831372590828064e-10	-1.729571089870343007e-10	-2.780945268732949573e-10	-3.231657179391382256e-10	-3.693412621788709373e-10	-2.111640545019499188e-10	-1.686129321015155202e-10	-2.048119599439355161e-10	3.830093907751323671e-10	2.347049495918824766e-02	9.496849482530678535e-10	2.213562186605544819e-09	8.132631463425164415e-09	2.056745341689481173e-10	1.030640705656849036e-09	7.108413072814995237e-02	1.619191083812083209e-01	-4.069237635209013742e-11	-4.285473665186353947e-10	-1.960420980109045525e-10	-2.614624872914628683e-10	-3.297145204611483477e-10	-2.339840672759003076e-10	-2.611025984473895998e-10	-2.722066974869431668e-10	-1.893236021346053663e-10	-2.481003972089462278e-10	-2.743418710900570213e-10	-3.489228248025487738e-10	-2.419342620249890777e-10	-3.193986324128030263e-10	-1.425063079497844198e-10	4.270144747460612249e-10	2.128879180900256768e-02	1.413480278274013174e-09	3.490432412187158695e-09	5.882364577465835909e-02	4.354811662053210584e-10	1.593657940437326441e-09	2.432536345878228243e-07	6.209446658204530872e-02	7.536052056545310102e-12	-6.600778703526181335e-11	6.978549653348151204e-11	8.410961586234817913e-10	4.421569298178693387e-08	2.153648874609619922e-09	4.527549217599621107e-09	1.903057779368462488e-01	8.607122139384315170e-10	2.391680570584526779e-09	1.364015741012443883e-07	1.292067969712899092e-08	2.023785907113498945e-10	1.774239912692539615e-10	3.741409639790079403e-10	1.288155409880627344e-09	1.067817402624280019e-08	3.591111252197667932e-09	7.029412302584343364e-09	2.654910780256178326e-01	1.941118321702713215e-09	5.277261338459258449e-09	7.303353098179909790e-03	4.120019581558770369e-09	4.414718157794050862e-10	5.357405384211916728e-10	-3.228766909217051418e-10	-1.360577851407418351e-10	-6.632446216087703966e-11	-2.496574246556355090e-10	-2.310598979063387599e-10	-1.563945080979155213e-10	-3.068306756833140748e-10	-2.758192028057419282e-10	-1.978287651223775020e-10	-1.352570731385700623e-10	-3.045758819172723592e-10	-2.951047023988727284e-10	5.163083360938964065e-11	7.994144030063564928e-10	3.606930287828328211e-09	1.226194364470298338e-09	1.851593308745530012e-09	3.123104695971709773e-09	7.935143328103670565e-10	2.000888831789079648e-09	6.012250382441632068e-02	7.809612139436163114e-02	3.887972669447691473e-10	1.555163839194502085e-08	5.843032012762226134e-11	2.376798779399389271e-10	9.839246197286392169e-10	5.714114128227401601e-10	9.945040945008895282e-10	2.416313303958187569e-09	1.752048495995561994e-10	4.791176802398475333e-10	1.496112242791744253e-09	4.793345791790202126e-10	-2.973381995127869864e-11	-8.792402963806967411e-11
-4.934299625885084388e-10	-6.282532105341291397e-10	-1.738149734190935003e-10	-5.756242909413952364e-10	-5.873000995682351495e-10	-5.274342908845566413e-10	-5.876809630312067847e-10	-5.912267702995361811e-10	-5.619853854871995139e-10	-5.857057490116610570e-10	-6.044863394171428769e-10	-6.132767304702336573e-10	1.103490012978542684e-09	-4.839534615909529461e-10	-5.913544684676229841e-10	-1.906177546682960117e-10	-4.822218715557566143e-10	-4.735652543363183631e-10	-4.381526223575646479e-10	-5.175493441276913234e-10	-5.468398046660347256e-10	-5.612238888867812735e-10	-3.599928360293594555e-10	-5.275503594379887323e-10	-4.409736524137376397e-10	-3.636589031547423132e-11	2.299756443649982746e-02	3.230787337750001946e-10	1.203974742823517071e-09	1.221306877156921704e-08	-1.698059765956327354e-10	3.952119048679745610e-10	6.642532668766211457e-02	1.643954526026667473e-01	-3.577447688110763978e-10	-4.317742627615192130e-10	-4.127111096410212919e-10	-4.650445546998666687e-10	-5.315283039018762964e-10	-4.844709475986550555e-10	-5.005028020190435902e-10	-4.924205391828142810e-10	-4.044399992618431512e-10	-4.742432655361567334e-10	-4.878865504217748386e-10	-5.595636176808024649e-10	-4.615142966848300050e-10	-5.080075594177283081e-10	-3.964688714392397324e-10	-1.526904496871471474e-11	1.932913068141998633e-02	5.709208932985626701e-10	1.796253243533926544e-09	7.967646415948501093e-02	-1.827764277894680913e-11	7.562839088196020407e-10	1.341841856564524385e-02	3.652537849511571649e-02	-3.313556682273197663e-10	-3.974088099593246330e-10	-2.642098113302056267e-10	1.661699881205623491e-10	9.462216794003991324e-09	1.141754794739861489e-09	2.727478542558948039e-09	1.944809023918449842e-01	2.732109967550135105e-10	1.292635122518570134e-09	2.175102261298471261e-07	3.842947191559896314e-09	-2.276172547341126506e-10	-2.408234677300173604e-10	-1.001206572442138801e-10	3.614121973165088651e-10	4.336666048493760828e-09	1.961931834755295648e-09	4.036564785288790757e-09	2.217621728237233192e-01	7.284030562963628835e-10	2.077614979905787519e-09	5.436115775067660444e-02	1.687486925224792311e-09	-9.562434224354201934e-11	-7.638130798442034181e-11	-5.186961662625374067e-10	-1.715591708586017910e-10	-2.844819939096439956e-10	-4.584101579480142035e-10	-4.353348775384317406e-10	-3.452125704669038673e-10	-5.097811485188033761e-10	-4.720121172342943665e-10	-3.678045009196949210e-10	-3.731991856188031687e-10	-5.039480521154186712e-10	-4.660983879437022409e-10	-2.859341061315925385e-10	9.980497859006300690e-11	1.722868124726594979e-09	5.295712870814225797e-10	1.065173504117437116e-09	2.254927091704505173e-09	2.314374548646417046e-10	1.013533801967983121e-09	1.320417928012393305e-08	1.266277642816014126e-01	-7.103148671946450582e-10	5.480899838711253511e-09	-2.936948518309611750e-10	-3.200912579847416380e-10	-1.166875012459302941e-10	-2.366611526388331699e-10	-3.308817820375999536e-11	8.676093044039856297e-10	-3.471263733652494716e-10	-3.138666975293583404e-10	6.482139762527632837e-10	-3.692791863234109970e-10	-4.024783306017720293e-10	-5.420048493539621034e-10
-2.095144003116961975e-10	-2.962506867460802385e-10	-7.631537679818748700e-11	-2.739398899804585955e-10	-2.782887320668701024e-10	-2.691289355323924589e-10	-2.662686362819371346e-10	-2.870254403747076420e-10	-2.845867838342302663e-10	-2.605212459855103848e-10	-2.815398395116089942e-10	-2.818548787644918505e-10	4.462034187699424186e-10	-2.217333429917353967e-10	-2.689541716455100331e-10	-1.393304761824426348e-10	-2.212647593004597165e-10	-2.156012969458356736e-10	-1.948035861613768929e-10	-2.391020177488323927e-10	-2.518395563109635152e-10	-2.498981881514053286e-10	-1.631412363004302223e-10	-2.352088360180626598e-10	-2.136765252361067469e-10	-7.034709732975525968e-11	2.672237119939706654e-02	1.301489812687969259e-10	6.777105387270702181e-10	3.221182993356354279e-07	-1.295187384375598201e-10	8.431074107492781525e-11	8.029242336696416904e-02	1.545767519526930478e-01	-1.742780287851957846e-10	-2.303902957795557286e-10	-2.175454494939078546e-10	-2.071650952460314438e-10	-2.673699930861255986e-10	-2.405666144857242294e-10	-2.510072354291703899e-10	-2.565599792461995670e-10	-2.035428725730761884e-10	-2.253625708446845636e-10	-2.521610960459868970e-10	-2.738005315423559647e-10	-2.080599490561856676e-10	-2.434749019727172954e-10	-1.929370735681013036e-10	-5.063411504385210238e-11	1.939930635632395456e-02	1.522916447288219010e-10	6.363230890900175157e-10	7.891590519864584430e-02	-6.696979304415113279e-11	2.227457598031549393e-10	6.389229535387854533e-08	4.097175329331631533e-02	-1.696412823520210806e-10	-2.033977453864479259e-10	-1.498682579601301637e-10	-8.508965714408280016e-12	4.726951893534422445e-09	3.538397434374945366e-10	8.995462523887089132e-10	1.983344487413063184e-01	4.482689385670688749e-11	4.223027992110098953e-10	5.729794225272412107e-08	1.622582659383198771e-09	-1.341172126289749458e-10	-1.665226723519052008e-10	-1.211007632343268856e-10	2.377559088556437776e-12	1.159496736129400160e-09	5.921274215302732620e-10	1.233838283604103416e-09	2.212937899797653707e-01	2.102066639643577216e-10	7.134179543889723241e-10	4.816574880468151021e-02	4.941913882345121416e-10	-9.095436230042037043e-11	-1.214670622834602609e-10	-2.499107759566974068e-10	-1.694821658126503273e-10	-7.591404175329930814e-11	-2.171706278687323680e-10	-2.078992266808830258e-10	-1.741441289885405804e-10	-2.431304799321474962e-10	-2.282996239603061797e-10	-1.929925284361812642e-10	-1.123836050703953553e-10	-2.262757438426691537e-10	-2.407362957440726140e-10	-1.557847434704295909e-10	-5.162200531991973961e-11	7.705180832813586649e-10	1.805282652026453391e-10	4.630170820221622655e-10	1.477565586127540414e-09	3.838362922698812664e-11	3.849089256961154328e-10	2.887886645767909904e-02	1.024481869939105338e-01	-2.485046282298931676e-10	4.360481740904307985e-11	-1.329946003462978358e-10	-1.462185016709131094e-10	9.307115821489611524e-12	-9.802128698446998221e-11	-1.841280169873931155e-11	4.777564435108068872e-10	-1.528397143353205529e-10	-1.371898016455277966e-10	3.211801397838777904e-10	-1.387583916103119790e-10	-1.842715373031398026e-10	-2.354149461695058673e-10
-3.800670003096577887e-10	-2.826451756551737948e-10	-3.425714997048291280e-10	-3.499153955022942369e-10	-3.665234473594192019e-10	-3.012049654497383521e-10	-3.743465913440185311e-10	-3.941026442204231760e-10	-3.750854791383807264e-10	-2.954645691392687558e-10	-3.935595767049100282e-10	-3.733510991096656958e-10	8.064071060132744720e-10	-3.453029868305112980e-10	-3.867396065854091022e-10	-1.785955887491287757e-10	-3.158910261681755300e-10	-3.213886812169131964e-10	-2.584108777885271846e-10	-3.273225880751217336e-10	-3.563714536504703913e-10	-3.859691921235233574e-10	-2.586519208806681821e-10	-2.014007980578219466e-10	-2.712212129744016202e-10	4.422556282937770359e-11	3.182605451911776212e-02	3.082769204253921314e-10	9.415503651426607311e-10	4.750240573521845311e-09	-5.430947572684278199e-11	3.964887632753551222e-10	6.935567087446652124e-02	1.530624956740562481e-01	-2.040353035259933046e-10	-3.964450425224253344e-10	-2.617761982982558823e-10	-2.932241318247337444e-10	-3.182470083590756832e-10	-2.935460280549916310e-10	-3.077086397641465152e-10	-3.128910093421029270e-10	-2.503145430167467674e-10	-2.756047229305418276e-10	-3.068781116501649238e-10	-3.524203761875432160e-10	-2.885040563755561808e-10	-3.434066435526708137e-10	-2.397564313104773015e-10	7.436813915606000688e-11	1.357679273824944841e-02	5.338081283622293128e-10	1.560443281065823224e-09	7.183174766571993886e-02	6.293653865690602265e-11	6.841466929970529959e-10	1.662206410936334949e-07	5.913920510375257622e-02	-1.847221294920680241e-10	-2.264200416025678044e-10	-1.242763547239956585e-10	3.087118572732705330e-10	8.836598955040924705e-08	9.615125354765544087e-10	2.207174631332035914e-09	2.114641196790668087e-01	2.868554049445321460e-10	1.072888286060343507e-09	5.404111838913013736e-08	6.624322512642126904e-09	-8.787351116538247878e-11	-1.218674946409044783e-10	9.963093208307256085e-12	4.651331527400432720e-10	8.279003320706212017e-09	1.501576372867306264e-09	3.019601588273401139e-09	2.092127725860933041e-01	6.831034976901118165e-10	1.839568219028091957e-09	4.662308962071391727e-02	1.859848219964785137e-09	1.439407308559814460e-11	1.745343489208888731e-11	-2.953704039500358457e-10	-1.730670489302062473e-10	-7.510016174008769677e-11	-2.951402397962709058e-10	-2.807610909877386611e-10	-2.187802622110784516e-10	-3.350424310320227739e-10	-3.153365587792468502e-10	-2.560824681719875601e-10	-1.536772684484823928e-10	-3.269463550376257467e-10	-2.780995232525275044e-10	-1.321023247056789075e-10	1.903140918408662668e-10	2.016871834279107847e-09	4.984129396129345892e-10	9.203525613753079789e-10	2.062825416869245735e-09	2.611777500237267743e-10	9.534979319936152368e-10	4.424642287315790068e-02	8.966128711350256075e-02	-2.118867822049873450e-10	3.382336345988201533e-09	-1.283637174910163020e-10	-1.602553021830398829e-10	4.911866334566227755e-10	-2.207585208566438755e-10	-3.227545414165280393e-10	1.137979854140124152e-09	-1.736891916276070579e-10	-2.719932615641142214e-10	4.195048188767904868e-10	-4.044349602839898580e-10	-2.299097452170745902e-10	-3.842256820223873357e-10
-1.101685570704565420e-09	-1.220196361577692442e-09	-6.134381370590072463e-11	-1.185303653548753055e-09	-1.206340590478185187e-09	-1.142917977472507159e-09	-1.165508213524193000e-09	-1.231202165919329645e-09	-1.211200884593640108e-09	-9.825533411026014334e-10	-1.215216526847300892e-09	-1.213747712194633834e-09	2.967499811605745671e-10	-6.599578633251837002e-10	-1.110150555292933429e-09	4.976263701306797798e-10	-1.073887712281947741e-09	-1.085874698638608305e-09	-8.741945192828346477e-10	-1.070944998222473615e-09	-1.113600790536294448e-09	-1.217295884998302518e-09	-1.084346018362810358e-09	-6.064436505132329501e-10	-9.035062999337657611e-10	-4.074345792471856028e-10	2.775048918965108621e-02	-1.177903463242652374e-10	9.322160632664741362e-10	6.895939293472092288e-09	-6.663111060176290311e-10	1.136509679760532954e-10	6.826177194282788407e-02	1.617729100040534440e-01	-8.170975608981503194e-10	-1.125399264088763977e-09	-5.549161616810809568e-10	-1.186479026799895093e-09	-1.137204104531592174e-09	-1.087023739514966878e-09	-1.090633950441782074e-09	-1.114793632208597126e-09	-9.238492610290231060e-10	-9.523655486544223180e-10	-9.969679286664713253e-10	-1.187452966876614878e-09	-1.131937789989419119e-09	-1.193416573361372313e-09	-8.772933045241917695e-10	-4.119703763485863024e-10	1.639358582310089171e-02	1.917826666044349713e-10	1.655441660245745822e-09	7.656710121168466832e-02	-4.626698105970731804e-10	4.938965659368737796e-10	1.605018425107463612e-07	6.089002484751127042e-02	-8.147874584485199764e-10	-9.835634548491183771e-10	-6.605227576724906705e-10	-9.237845997802343777e-11	1.004539687421891914e-07	8.275296427578979010e-10	2.523903111723015499e-09	1.920976245095458446e-01	-9.413626068301236038e-11	1.128212192092498333e-09	1.127159167124988247e-07	7.974289889356631225e-09	-6.879282017865383451e-10	-8.576820556126361555e-10	-5.259578398939431468e-10	-5.533133087453512244e-11	7.583329597397691436e-09	1.520512943563473421e-09	3.252327449050256957e-09	2.401093857923902175e-01	5.219123963539108511e-10	2.347774977220275170e-09	2.715422111388076168e-02	2.019056351664322475e-09	-5.199613461811820953e-10	-6.792440965296069473e-10	-1.099253719411688397e-09	-5.095739143894403049e-10	-5.483555903882562012e-10	-9.923621996013158523e-10	-9.529482476374207581e-10	-7.886071089117689185e-10	-1.066745587241126074e-09	-1.010934932131755263e-09	-8.636960974155500938e-10	-4.603218913231865022e-10	-1.026610883523967693e-09	-1.011982390541432674e-09	-6.251495621558723121e-10	-2.085332616273034469e-10	3.953620306055796641e-09	7.812869399921348196e-11	6.874571666978430163e-10	2.703306642973104844e-09	-1.559742626691664943e-10	8.406063144735682783e-10	5.005644025066363634e-02	7.894608752577178534e-02	-1.291965154263222228e-09	1.889816861202758743e-11	-6.267110798356812464e-10	-6.580494769776515899e-10	-1.149878499019002388e-10	-5.784547954898939556e-10	-2.829615002428548878e-10	9.252672124327093653e-10	-7.711444147620675018e-10	-6.842693688216424862e-10	1.487848817930222883e-10	-6.253010077015054285e-10	-8.563087920637953625e-10	-1.051907299916197823e-09
-7.649923910111140021e-10	-8.710334636611733007e-10	-4.745180527912042981e-11	-7.888205483520412987e-10	-8.009903779379328030e-10	-7.242951564471468954e-10	-7.633881375563978083e-10	-8.308044763945727925e-10	-8.101120383789676358e-10	-7.432064472455949216e-10	-8.338140894457487258e-10	-8.319575837466026705e-10	8.354711786785233379e-10	-5.345207713766639220e-10	-7.599991599826218068e-10	3.814494634094003961e-10	-7.373790135949394803e-10	-7.476447056684848598e-10	-6.723811169360330901e-10	-6.800504379968513896e-10	-7.157957860804564815e-10	-8.065924864071146749e-10	-6.369043679236011660e-10	-5.370150980379854502e-10	-5.864868561229648472e-10	-2.514241426756141854e-11	1.296681088761753725e-02	2.327875119685973965e-10	1.100895152000944626e-09	3.864194642309624819e-09	-2.677704609620569387e-10	4.413134509243268365e-10	6.673103360834414799e-02	1.837152263043769773e-01	-4.562681615049899219e-10	-4.910195416753441547e-10	-4.159299694922007503e-10	-5.942504277149212536e-10	-7.432725767743210798e-10	-6.640541004969445327e-10	-7.007947023158247483e-10	-7.035606588840958635e-10	-4.968113284661559852e-10	-6.571620850136617316e-10	-6.931392430774343476e-10	-7.865381211369827636e-10	-6.339396826421566409e-10	-6.868717777459520584e-10	-5.517987899908131089e-10	-8.639513737868060663e-11	3.077875822859289789e-02	6.374442901286249368e-10	2.160013049459937510e-09	7.674842335677362071e-02	2.318072002651196642e-12	1.270603392646540942e-09	1.499328631549632545e-03	3.259164182117228747e-02	-4.605597804326843873e-10	-4.461427152048921404e-10	-3.627202585967052907e-10	2.494703778084422028e-10	3.838908678343339383e-08	1.364141004390204764e-09	3.396920146400219924e-09	1.984368787029857639e-01	3.721938714666743650e-10	1.894409351684969054e-09	1.243195930347151657e-06	7.489586116038254508e-09	-3.150816249691692856e-10	-2.797702379525151820e-10	-1.531953898955196307e-10	5.875805828556601712e-10	1.014909260999258680e-08	2.340525820963413096e-09	4.915398652365836835e-09	2.095986160646004515e-01	8.758103256518944214e-10	2.570542477538970155e-09	5.497744639651798437e-02	2.779301840757467935e-09	-1.226309449904686468e-10	-8.551900737791225619e-11	-7.341784164120791069e-10	-5.477121072963256892e-10	7.263975012963868449e-11	-6.344611554741006103e-10	-5.947986689469180408e-10	-4.771705129684727839e-10	-7.019471834705717017e-10	-6.497264237032303877e-10	-5.236047456547163233e-10	-5.232829517179383123e-10	-6.962325812500142477e-10	-6.622236028744159475e-10	-3.609244311434990969e-10	1.603619573081709077e-10	2.732009196342085852e-09	5.864045107170842089e-10	1.262800948677565174e-09	2.921797065733833732e-09	3.044847463073566937e-10	1.555110441335278904e-09	2.171503402642791652e-02	1.102394938342922404e-01	-9.139740337359662627e-10	4.039718588548589099e-09	-3.437519987509349345e-10	-3.000417358605215797e-10	5.784740704980737041e-11	-8.897518213257172956e-11	1.541645635477431217e-10	8.433581798757816983e-10	-3.101201993681840129e-10	-1.651984480616139353e-10	5.054617522399483019e-10	-2.057084850929096284e-10	-4.910296864346521820e-10	-5.248531780444746208e-10
-1.005465085127989830e-09	-8.713288601678697060e-10	-4.856455497772565990e-10	-1.015188952804288442e-09	-1.062351037864075768e-09	-9.861295114864727959e-10	-9.541462612474453827e-10	-1.123989103501877897e-09	-1.108405215499898937e-09	-8.130206439849826241e-10	-1.087512208363528647e-09	-1.070168556267321257e-09	1.022216834857691099e-09	-1.103654246069802610e-09	-1.109517778322921031e-09	1.972909789664946108e-10	-9.942620918362220958e-10	-9.939478077933524383e-10	-7.911600398638630884e-10	-1.034305234813085192e-09	-1.103041261970328272e-09	-1.042089950107705793e-09	-8.404955754681706596e-10	-6.315274510458151022e-10	-9.036629239956197865e-10	-3.258419323066243112e-10	2.654200459097416295e-02	-1.188511835935086647e-11	9.586690549905269083e-10	4.723739664882448663e-09	-5.743738388808819100e-10	2.018946088322283379e-10	8.227777391742467639e-02	1.540307176038363257e-01	-7.053013261353925993e-10	-9.053105661361174584e-10	-5.546818778474235400e-10	-8.724820326314974983e-10	-9.777357697989282672e-10	-9.888012862436416221e-10	-1.008757006637341504e-09	-1.011943266777496871e-09	-8.143038850480017130e-10	-9.446537706884424499e-10	-9.794124105380870010e-10	-1.088223803541538393e-09	-9.567748361584808473e-10	-1.024074412517427373e-09	-7.967968806443660840e-10	-3.295472291335366116e-10	1.571673751142359243e-02	3.395980243846208309e-10	1.840821208512619524e-09	7.444218165280658273e-02	-3.722794690411564778e-10	5.737390462693892085e-10	2.290102739222581500e-07	5.394993518219588780e-02	-6.982345444236515253e-10	-8.183999462355063793e-10	-6.221231073519363829e-10	-1.391433024887928664e-10	1.528848084458809431e-08	1.049650291732908268e-09	2.919200079921549317e-09	1.932198516255073106e-01	-1.349766333871545383e-11	1.150117321053011682e-09	6.206555979697350827e-08	7.003207086066492231e-09	-5.419175059707530868e-10	-6.890852416422527879e-10	-4.765954360864898655e-10	-3.739793296645836625e-11	5.067989572117191875e-09	1.817293992811623120e-09	3.843745169855535262e-09	2.303730114397609663e-01	6.257346287893624609e-10	2.370498469055037596e-09	2.936027912562175907e-02	2.067688878577228973e-09	-3.517675104179398686e-10	-4.937549046010744771e-10	-7.644292567668671007e-10	-7.392029123792522989e-10	4.821617710869580730e-10	-9.776834684329932130e-10	-9.984797020902169141e-10	-9.580089127456138585e-10	-9.926447572662864702e-10	-9.910744265149535144e-10	-9.782555846906387623e-10	-8.610677183239536999e-10	-1.004402902775714622e-09	-9.921667306513176812e-10	-6.058820572961388511e-10	-2.826789883343826030e-10	2.081734819970882800e-09	2.913528573186777114e-10	9.620365084696489510e-10	2.954697830789139603e-09	-3.522643376807385955e-11	1.051213360686804555e-09	4.207929062094886014e-02	9.800792197160448915e-02	-9.831063230443305819e-10	-1.313212250605402583e-10	-5.492417010071142972e-10	-5.697969988736355136e-10	1.799033501732064524e-11	-4.007635885167747264e-10	-8.049624580485981942e-11	1.555856815918403352e-09	-6.108343415985642191e-10	-5.397944795666000161e-10	7.295004142153104164e-10	-5.506145494644830924e-10	-7.171029067645696524e-10	-9.356694512798214605e-10
-1.131892924117029166e-09	-1.185002279584468472e-09	-3.888066082742376501e-10	-1.162217014555001630e-09	-1.183455962791096770e-09	-1.132273077518343524e-09	-1.118078852540341119e-09	-1.198965504930740148e-09	-1.183183305068782737e-09	-1.127424161767417111e-09	-1.175200286907512162e-09	-1.158331327307579219e-09	2.174933294967157984e-09	-1.118396452261401046e-09	-1.198314260198242648e-09	-4.521248095935899409e-10	-1.019694512385626784e-09	-9.957109155859177838e-10	-9.483015344026618978e-10	-1.075861264477904272e-09	-1.114281815330672814e-09	-1.129076798369787699e-09	-1.032341511125796825e-09	-8.443401285124416709e-10	-8.113657366976893450e-10	-4.167491488920921454e-10	1.821069805931983462e-02	-2.520171386248717913e-10	5.346324143507608761e-10	2.821770995668147957e-09	-6.605793918714019198e-10	4.591246284122012854e-11	6.729808860591980635e-02	1.687933262613777741e-01	-8.100742173440422256e-10	-1.018215167498180467e-09	-8.878636624862005614e-10	-9.305331611345510077e-10	-1.118032448916126291e-09	-1.058333827983283524e-09	-1.114691325547162411e-09	-1.127752687554718398e-09	-8.166314171169657028e-10	-1.054007767203688183e-09	-1.076751413785029698e-09	-1.189593962892954472e-09	-9.496945238520770550e-10	-1.043777026508020537e-09	-9.155669409768398053e-10	-4.465246918208315619e-10	2.099393201581252477e-02	1.443550968083152005e-10	1.656950170765196127e-09	6.055675254371024885e-02	-4.074247587704504922e-10	7.876269184769025453e-10	1.473434391734594654e-05	5.644291594757782499e-02	-8.528101378024934538e-10	-9.680279700207348022e-10	-7.447941775288952980e-10	-1.204551138228773926e-10	1.755984312910568627e-07	7.321339327829423255e-10	2.347608899002081020e-09	2.026297056677898445e-01	-9.687595380992658375e-11	1.217075815970901144e-09	1.972068033263936381e-07	1.803572412741944902e-08	-6.971757022361931816e-10	-8.412975529269858611e-10	-6.425087886277150918e-10	-1.102430568707504048e-10	8.411958749267265617e-09	1.390515248979399753e-09	3.105102749070798661e-09	2.232952650295051411e-01	4.022633847152857754e-10	2.022564929561240173e-09	4.458433506116847578e-02	2.603565161682205245e-09	-5.468676261261268524e-10	-6.823721353178096055e-10	-1.027873812176266183e-09	-1.806796858131650022e-10	-7.884329681426519938e-10	-9.842908208016927506e-10	-9.402812491876935104e-10	-7.707991229786014655e-10	-1.057944491189123533e-09	-9.900463826497230753e-10	-7.999422014002274650e-10	-7.423383149209858294e-10	-1.019085952036865665e-09	-1.027065415121147009e-09	-7.851016290238144121e-10	-3.268129109234704522e-10	2.152686133952938429e-09	1.237063284451569096e-11	6.102792605258487426e-10	2.188610892720160684e-09	-1.621944581758849250e-10	8.837011669867041743e-10	4.743144512426193671e-02	8.974844038317381090e-02	-1.267473125451274102e-09	-1.962341549064048028e-10	-6.977622669627999555e-10	-6.319035718029672623e-10	-1.535079658080710891e-10	-4.720747882108337100e-10	-1.957550882320473610e-10	9.873700218255398004e-10	-7.135756819086514543e-10	-5.762775869974712917e-10	9.707864528231607308e-11	-4.267603549946479472e-10	-8.598073174962732871e-10	-9.386552683241092952e-10
-4.496719923554782537e-10	-3.130782897250802691e-10	-4.540998339751264290e-10	-4.224317328695751184e-10	-4.366296218063764803e-10	-3.736027459188499659e-10	-4.346844501686275551e-10	-4.797328170967723492e-10	-4.576188211992250838e-10	-4.594163714801092831e-10	-4.824159495504833023e-10	-5.088709719846493778e-10	7.589015659069708452e-10	-3.743084294152127327e-10	-4.470835054069573739e-10	-4.136986758381958742e-11	-3.067074869914558673e-10	-3.237097443374333061e-10	-1.184833779040035048e-10	-3.088151024792519577e-10	-3.735250663242929377e-10	-4.085206464605559410e-10	-4.753773469550547448e-11	-3.000189795150351940e-10	-1.775808808053313214e-10	6.271078434651114013e-10	2.637792536160770904e-02	1.298853369498791452e-09	2.712986451995592524e-09	1.299599109397188639e-08	3.888905673745774297e-10	1.484349303960521884e-09	6.168461569921437210e-02	1.671687339621257540e-01	-1.197254758065610081e-11	-2.674176227489495178e-10	-4.168664346379099273e-10	-3.482544325205158974e-10	-3.465400924695728055e-10	-2.199976579004216148e-10	-2.463349706068305836e-10	-2.574733991567947683e-10	-2.117558922009282529e-10	-2.559197966156256475e-10	-2.767436291496849106e-10	-3.710899086577578220e-10	-2.738700639455981841e-10	-3.640854632737459156e-10	-8.614135822761881241e-11	7.679954316285371077e-10	1.112468558556083467e-02	1.996973938843171945e-09	4.663359513635699091e-09	7.937303309415034980e-02	7.785173638874128803e-10	2.646360728747599847e-09	3.894388917480760999e-03	5.009833684189411718e-02	7.608784437962183890e-11	4.114726464741188511e-11	2.187675144180843888e-10	1.344177508195995471e-09	5.602337224103474372e-08	3.095758565046732589e-09	6.400393206018338505e-09	1.976276521521002361e-01	1.363670719766610792e-09	3.730924695168613843e-09	1.338952680852510169e-06	1.658042547555429021e-08	3.422595841288199208e-10	3.907573355181214525e-10	6.097644238067537463e-10	1.867978915623416891e-09	1.295769570022894861e-08	5.078716751189874715e-09	9.842296961811372432e-09	2.224358957951216020e-01	2.416874076731024537e-09	5.730168806844151018e-09	4.108187882755327119e-02	5.691610312996502601e-09	6.632172270847473877e-10	8.708736909810206039e-10	-3.381692267144005713e-10	-2.367350261589268955e-10	2.037847742948280786e-10	-2.514972851703775579e-10	-2.364505077655733995e-10	-1.703899311902981325e-10	-3.134501450152744720e-10	-2.795593811605846953e-10	-2.042238132211792724e-10	-1.944508321817262557e-10	-3.142433158809762256e-10	-3.397877315944316199e-10	2.446180856261717725e-10	1.095044552337543525e-09	5.102982676823933371e-09	1.746591734679816416e-09	2.547948391912157583e-09	4.080258727245550660e-09	1.225281483690047448e-09	3.029290001987041263e-09	3.596253711435050404e-02	1.031687778438209052e-01	1.410017649617437375e-09	2.439763330849946780e-08	2.044911523648957110e-10	-5.214467034972432105e-12	5.602864745100971630e-10	-1.073059502642967463e-10	6.468150739985918626e-11	2.276085878774205595e-09	-3.079421408973092494e-11	-2.260277410164898472e-10	2.072350541485690940e-09	-5.121133789436550627e-10	-1.349841821871066317e-10	-5.164595080202686066e-10
-5.255231683188709189e-10	-5.021519105344584510e-10	-1.820349367208417852e-10	-5.261585748192946729e-10	-5.367877576668512764e-10	-4.615365870553372108e-10	-5.302054857751428046e-10	-5.621840157026028844e-10	-5.493612986473302117e-10	-4.888112980389918493e-10	-5.590358486716684828e-10	-5.581631165261632065e-10	-1.644815054655840296e-10	-4.917409178932722715e-10	-5.213866277296858421e-10	4.338805907305408915e-10	-4.314729758609519435e-10	-4.408302619384454328e-10	-3.145190336394768081e-10	-4.783878978299425262e-10	-5.098941353409948666e-10	-5.396978114098779369e-10	-2.843095252395315259e-10	-2.467902614486241941e-10	-4.030247831410740990e-10	-7.707442577948829974e-11	3.347287838962464956e-02	1.961071611471274793e-10	9.367382275560396533e-10	6.129332138068108087e-09	-2.107738115333361471e-10	2.726621180839230177e-10	6.360433812949091437e-02	1.564831492604573659e-01	-3.411486235601522797e-10	-5.322155608821485424e-10	-2.759608710954388468e-10	-4.876015763882516769e-10	-5.022686657138493330e-10	-4.656726024856337009e-10	-4.797432033306804004e-10	-4.874314785931248215e-10	-4.316964895097915685e-10	-4.507390226568545634e-10	-4.628026674621036371e-10	-5.315661272261353076e-10	-4.617341563852682751e-10	-4.968926334326568103e-10	-3.701455814038792167e-10	-2.845063822531898659e-11	7.721827286284418598e-03	4.179192534519225196e-10	1.530664999313708830e-09	6.015395360381085854e-02	-8.718575788155674998e-11	5.274066832190008968e-10	1.190181372739241766e-07	7.108230761348328930e-02	-3.308995400972048197e-10	-3.843632476182061729e-10	-2.380739090093167803e-10	1.590460666670927297e-10	2.404922935377014891e-08	8.476444432725767357e-10	2.113784229190194873e-09	2.059742243438779374e-01	1.413350610764789598e-10	9.067272333012192983e-10	5.392528036677836015e-08	7.910347015161930248e-09	-2.284914133353141910e-10	-2.909382977562083850e-10	-1.167139476153920938e-10	2.535138645051271402e-10	4.211464873681279050e-09	1.459785719034531480e-09	3.025294615863879293e-09	2.129380989808755398e-01	5.413681514543633176e-10	1.629498935484431625e-09	5.387091250417989918e-02	1.708670574942079399e-09	-1.188408178093989952e-10	-1.417989175950580995e-10	-5.002339482093832643e-10	-2.149623492229154870e-10	-2.466424230391203152e-10	-4.394624466330931543e-10	-4.155350487808322658e-10	-3.216998095863968383e-10	-4.856309861147218809e-10	-4.551696744152874186e-10	-3.726844318821818981e-10	-2.644454260946622760e-10	-4.722608657235803844e-10	-4.327197732038137076e-10	-2.506925817169209519e-10	8.424006333019514814e-11	1.891300998408523715e-09	3.753925262027910365e-10	8.141340745315442681e-10	2.009845712451454549e-09	1.364840159150028445e-10	8.366272261875335532e-10	4.883513225968070387e-02	8.586296249600453012e-02	-6.590648888643725925e-10	3.539633274724107469e-09	-2.391564955977039382e-10	-2.727179342914368480e-10	6.043715237990753512e-11	-2.208310549106683679e-10	-4.250451943048632952e-11	6.212563516130754598e-10	-3.261428932030476183e-10	-2.933400153910084378e-10	3.351213954722437571e-10	-2.785885353601484467e-10	-3.906231739840539492e-10	-4.832588259501139016e-10
