-2.257783276317242881e-10	-2.209132062009528722e-10	-8.241637717050673375e-11	-2.342803372541726708e-10	-2.785910699780401398e-10	-2.623321380731439048e-10	-2.796363406590157863e-10	-2.856580972523279875e-10	-2.778356713136132595e-10	-2.345435756200088346e-10	-2.915814372060595427e-10	-2.689960115422257380e-10	5.060834537842747235e-10	-1.038964567672665967e-10	-2.416207968256086162e-10	-2.471644450593014729e-11	-1.590588339876764082e-10	-1.710778139058075061e-10	-5.673579318752294896e-12	-1.489876915869883643e-10	-2.039229757650669712e-10	-2.236642767446539333e-10	-8.178312387994745974e-12	-1.627264446587016082e-10	-1.081037018963089276e-10	3.083859478738426728e-10	3.171181928652858084e-02	1.443996738183189325e-09	2.750802623424790098e-09	3.584302132638998717e-02	2.326863951916549494e-10	9.134027911714220501e-10	6.643200668636783934e-02	1.734434078066669493e-01	5.538298245785851446e-11	1.288811350076302123e-10	7.484824632573694055e-11	-1.171206961752409202e-10	-1.388709770176681089e-10	-3.999792105320149702e-11	-8.512738310281051343e-11	-8.193538602509642958e-11	-7.695285690223534691e-11	-8.488618465067127964e-11	-8.887745848761661264e-11	-1.670212591828123875e-10	-8.686159460370721094e-11	-1.002659883421525626e-10	-5.031391055706137830e-11	4.020503796223373628e-10	1.804298969470167005e-02	1.666417854183094397e-09	2.787640315956011055e-09	6.642359289872643013e-02	3.443331286301447280e-10	1.040748734250839889e-09	2.256986667601633667e-08	5.704095849544062180e-02	8.798460098641164831e-11	2.127291470480181226e-10	1.148683820771521144e-10	6.941055614542583416e-10	2.917140359712854167e-08	2.664476645921107106e-09	4.361226538049107488e-09	2.871003136326178429e-01	6.816188623913677338e-10	1.659568307905010217e-09	1.871736528075944189e-08	7.340513660651288602e-09	2.304408423695897674e-10	4.032531828533286367e-10	3.896891243461382887e-10	8.871781614192807382e-10	5.276599335995712657e-09	3.168230645461647646e-09	4.465017715032253643e-09	6.354155929516674961e-02	1.333579485312988540e-09	2.834048898870335785e-09	1.701183352101410517e-07	2.047096994953469485e-09	4.161917413810131707e-10	5.518836000745265648e-10	-1.729632295204255285e-10	-1.263278114705807253e-10	2.066346697762823431e-10	-5.053287366105652442e-11	-5.528014097235262472e-11	-3.451032731944658048e-11	-1.423227403009464639e-10	-1.055281147823231312e-10	-6.315809462585554323e-11	-2.107310784221635931e-12	-1.472539668479452860e-10	-1.475402847111959039e-10	1.034161197065630796e-10	6.697462491016576929e-10	4.903450943445939418e-09	1.769834898192548932e-09	2.625717670725530526e-09	7.102184883516409510e-09	7.254508466205936990e-10	1.818365645043679619e-09	9.447143851601230713e-02	1.059485772458079456e-01	9.664621039870484350e-10	2.734152116637121257e-10	1.316352313911815348e-10	1.746652153732088868e-10	9.083840179162903053e-10	6.376465356586706219e-10	8.239917368563638385e-10	2.277704291480903090e-09	2.433641118868863816e-10	3.137265826172431713e-10	1.498546654737605332e-09	3.059262544156211571e-10	9.137147265927839338e-11	1.609457192034735201e-10
-1.562340064747622836e-09	-3.966181753436010437e-09	-1.299742370341166830e-09	-3.259058708463443310e-09	-3.676823545000747047e-09	-3.410716109428193437e-09	-3.720664661284269378e-09	-3.691715059692714049e-09	-3.405840293976505510e-09	-3.671561170954066527e-09	-3.842623780444503284e-09	-3.609001963128882105e-09	6.808385876453628300e-09	-2.710866558620776569e-09	-3.704436513456576894e-09	-1.576824395058671068e-09	-2.847405700392048112e-09	-2.970969016030072698e-09	-2.512639893725243712e-09	-2.724716259142242618e-09	-3.187674397360852309e-09	-3.364143748469136719e-09	-2.813166248336499835e-09	-1.564487065069667113e-09	-2.789339497614762305e-09	-8.792845614526001531e-12	3.263768248814864076e-02	8.182453536769601689e-09	1.899388953232833002e-08	7.439054541124657735e-03	-3.025348978794481044e-10	4.364951213064885033e-09	9.220775183898240190e-02	1.728054703715757867e-01	-2.293287627640326307e-09	-1.726619968805061763e-09	-2.116638389846443335e-09	-2.041994740619785669e-09	-2.772625008130776616e-09	-1.932215934422316871e-09	-2.240489139290063843e-09	-2.237852343058312299e-09	-1.217559588522878264e-09	-2.050039234335415064e-09	-2.241445534089807276e-09	-2.796808287587597242e-09	-2.429689205643801895e-09	-2.363371532312676089e-09	-2.378530654525484716e-09	6.723353094644743489e-10	1.452403465008490074e-02	8.351986218109251585e-09	1.568595175124091913e-08	1.065942945149516152e-01	1.148683150826707857e-09	7.931035000254003594e-09	3.004823181456733536e-04	2.830821053131256371e-02	-1.782525602660344878e-09	-9.942567556440493979e-10	-1.449025437516931460e-09	1.900754740121948444e-09	5.095682412751682760e-08	1.516156157740037639e-08	2.740419018112679518e-08	2.951292259008457819e-01	3.453124358826744956e-09	1.195126948910764979e-08	1.543512955058353378e-06	2.730361150424309682e-08	-9.646944217588994298e-10	2.085466018977485948e-10	1.002565958863530536e-09	2.830120245684857053e-09	2.376768020021518817e-08	1.951933299146373883e-08	3.733220428907815566e-08	4.331391623816994302e-02	6.836030109267286197e-09	1.704353289720608030e-08	1.901235750627715618e-02	9.831414932445865443e-09	2.713728716247756417e-10	1.074934442328306689e-09	-3.067087911056211621e-09	-2.235298238008905895e-09	2.778116317474064271e-09	-2.219275793612961417e-09	-2.251677355434193027e-09	-2.209147110177723183e-09	-2.716271651302452824e-09	-2.422861682605281940e-09	-2.344748528807106358e-09	-1.719193262522034997e-09	-3.001723875823081773e-09	-2.690881235192289650e-09	-9.144100040493485886e-10	1.694093866849289274e-09	1.961444533742762396e-08	9.055919649514865378e-09	1.473300337061631761e-08	3.959080589493273420e-08	3.240665341269627591e-09	1.101298689579977525e-08	2.124413100128422563e-02	1.664815269837926770e-01	9.550315242697993552e-09	2.026995753330592713e-09	-6.744782356276438165e-11	-1.017164008484835805e-09	-3.723045225756672573e-09	-1.101621162569470273e-09	-3.432687224552302149e-09	2.057064793682325320e-08	2.004166011040048243e-11	-1.610432445154774410e-09	8.537986796356768208e-09	-3.201527919518379926e-09	-1.449548408937525353e-09	-1.192431350087134381e-09
-5.058574352914737335e-10	-6.806421996398620192e-10	4.174661590486287137e-11	-6.871770954982533622e-10	-7.846308978506307208e-10	-7.354427740064349554e-10	-8.007765480071481302e-10	-8.245599958671735261e-10	-7.945147143598456406e-10	-7.295984628498803068e-10	-7.933231627920754906e-10	-7.516082647578253786e-10	1.545345066954705007e-09	-2.569260549794254484e-10	-6.608393182798472436e-10	-6.700894250208036253e-11	-4.338069668173227319e-10	-4.439626914142899138e-10	-3.169967635080705815e-10	-3.870482950288213783e-10	-4.925053645938183567e-10	-6.204097360075071124e-10	-2.570524170219870807e-10	6.784455280514233603e-11	-2.714259057320181050e-10	8.761368183912563748e-10	3.204094386921461923e-02	4.246226950478920191e-09	7.881860414543932111e-09	3.091036718325848240e-02	6.690895656503016232e-10	2.590692600832057955e-09	8.504846693041154260e-02	1.641432049111002101e-01	2.432390022975323271e-10	3.801466177375168505e-10	7.251243065043558431e-11	-2.429520851895829271e-10	-3.237108474199569511e-10	-2.904725781650598473e-11	-1.489059196639218967e-10	-1.487097228794088260e-10	1.874118718623401343e-10	-2.007513070628166546e-10	-1.929939299393110551e-10	-4.018858836706519612e-10	-2.632158085575692670e-10	-3.181704582042086541e-10	-1.070578457136810086e-10	1.138708629810456720e-09	1.909805397255237916e-02	4.897003466651212121e-09	8.041470303811747562e-09	7.803423838847768634e-02	1.099851607295112798e-09	3.416750126689397135e-09	2.678141956810005511e-07	3.983208898350538291e-02	3.115763461245748694e-10	6.247511297625085950e-10	3.315976663028545075e-10	1.839831957028595898e-09	4.664432602920403703e-08	7.794713043724461935e-09	1.260490156326614260e-08	2.926094017070279829e-01	2.183330654939118958e-09	5.652671182724597245e-09	3.192414089763142798e-07	1.983524570930738911e-08	7.250999580135964167e-10	1.161153676067548338e-09	1.013197402229342508e-09	2.231311959551526521e-09	1.095659101355704895e-08	1.008574416836763033e-08	1.510735876767929013e-08	5.911638608332166894e-02	4.517879693079812809e-09	1.114748187453979789e-08	5.409518217102336421e-03	6.650866827720968056e-09	1.355360630205729823e-09	1.738889389565100023e-09	-4.373152686785307026e-10	-2.789871312608683269e-10	-6.061622522375260615e-12	-8.442290970625249065e-11	-1.253992288848361561e-10	3.050932955063216850e-11	-3.857486757930500840e-10	-2.772651398324843730e-10	-8.599745007232602488e-11	3.818937123811738570e-10	-3.635804361330500557e-10	-3.426794680939279897e-10	2.788998303013933955e-10	1.594599369644700429e-09	8.900382202860461393e-09	4.749251943086530438e-09	6.643928347944792966e-09	1.459935331387562790e-08	2.071560026111663573e-09	5.122417061396791981e-09	6.846332957365706962e-02	1.252931579756825786e-01	2.445444111092615935e-09	7.781534970316045987e-10	3.835039736984826375e-10	4.083722515021754512e-10	1.832131407301584056e-09	1.328760436702661174e-09	1.684806602868019281e-09	6.979112549831234776e-09	7.999572494780428798e-10	7.790995176681940453e-10	7.137361663783059042e-09	4.624335517648009718e-10	3.731322531406649680e-10	5.350742600116252453e-10
-1.597739400632747799e-09	-8.022283026016770062e-10	-1.494286623743922906e-09	-1.116001417141953042e-09	-1.581098683370504118e-09	-1.494289696456880335e-09	-1.587216817909650201e-09	-1.737510765039504208e-09	-1.663862388417503997e-09	-1.504412796798225636e-09	-1.725995405153569326e-09	-1.386716974049232413e-09	2.758236849039951443e-09	-1.653643586240898754e-09	-1.676727305412300885e-09	-6.915920091033365747e-10	-7.378233322898603998e-10	-6.500087577324161514e-10	1.270887782665460306e-10	-1.183442051030964654e-09	-1.361504171119290211e-09	-1.544328449718649304e-09	-1.120740095136136877e-09	2.690561615351454342e-11	-7.588418899099424482e-10	1.569469951266726961e-09	4.206622067257737019e-02	8.287823958040387919e-09	1.604849104475828322e-08	1.233511472021479698e-02	9.732492984794605804e-10	4.663489944382795934e-09	8.113766786566085909e-02	1.666756585553076375e-01	7.567853129960779299e-11	-2.854847499547861733e-11	-2.915103932742514453e-10	-2.560639862201930034e-10	-8.904084600282101619e-10	-2.480816230406857551e-10	-4.819374900787041452e-10	-4.671821796961454650e-10	9.023663998700291402e-11	-4.840863146750488732e-10	-5.252778816671757377e-10	-9.555212453605875594e-10	-3.438620341993802158e-10	-7.554507255495511251e-10	-4.788045243135235706e-10	2.109173138115550624e-09	7.991898760349298164e-03	9.193163933290177533e-09	1.523384963487009749e-08	8.271474211201820803e-02	1.474502813304858619e-09	5.083682750365094375e-09	7.956940303956123835e-08	5.349761871558383203e-02	1.840234794154916067e-10	4.943719929024158760e-10	4.813000860561578016e-10	3.731819276899509247e-09	1.940308510145706220e-07	1.485186083880964001e-08	2.419013934232371508e-08	3.072765458997983035e-01	3.371460611079969785e-09	8.644012360744445161e-09	1.037856643815590796e-07	3.520634195102049277e-08	9.907414342257348711e-10	1.562139845002875876e-09	1.965102825435995980e-09	4.612684371824010660e-09	2.678660165778337896e-08	2.028982669367569903e-08	3.188271757231911978e-08	4.892496679147773087e-02	7.922395584184870933e-09	1.890549431753910753e-08	8.069335400984378639e-05	1.248971966294135200e-08	2.168317550387111282e-09	2.788914038093442826e-09	-1.061632666107704819e-09	-8.337762873298315201e-10	5.494873004329706305e-10	-5.940152380642035733e-10	-6.234391329115744489e-10	-5.888237736188370959e-10	-1.053450531720451509e-09	-8.822599381808684841e-10	-7.585335540563814964e-10	6.205380644960509372e-10	-1.039511042614638654e-09	-9.182205914017292038e-10	5.082089790300464123e-10	3.267051956908821758e-09	2.047515084852650246e-08	9.659733114474846209e-09	1.408233689353757685e-08	3.667968779471958797e-08	3.566679429948704955e-09	9.474958710821496606e-09	8.230791417825640555e-02	1.149901857602309840e-01	4.206879584012141173e-09	5.794286545977726730e-09	9.929025673815376710e-10	1.433966509924187373e-09	2.750227041324757845e-09	3.119370063631188484e-09	2.409163925299832698e-09	1.566634652402862310e-08	1.994327569577114882e-09	2.266056644329114105e-09	5.617399674621131798e-09	1.020522890833417718e-09	6.448330290654242430e-10	8.238610807496460160e-10
-6.329175704920203181e-10	-1.584322398554435400e-09	-1.481903731701983761e-09	-1.294894471373672084e-09	-1.450932317595586208e-09	-1.392306519126407865e-09	-1.453138484089998117e-09	-1.504026846977379942e-09	-1.454681928171556651e-09	-1.397715814400837180e-09	-1.464223399555574659e-09	-1.208538568167064837e-09	4.919047926413031330e-09	-1.256403455720093923e-09	-1.485298176220969525e-09	-6.460815087638730921e-10	-1.120585568006738606e-09	-1.081684501530914981e-09	-8.809881817442020700e-10	-1.007878633310355445e-09	-1.198985230908521482e-09	-1.358630764649441981e-09	-8.118544455554218932e-10	-5.309065235651921639e-10	-8.461986738271681395e-10	9.264553769824087496e-10	3.662389532749368848e-02	6.088480255850327244e-09	1.181092789969728915e-08	2.411910055553981649e-02	7.128504451170623846e-10	3.615760359962498405e-09	7.194477804910735796e-02	1.739650127525386447e-01	-3.208869126931378464e-10	4.376231478595793877e-10	-3.487407387211221271e-10	-7.224581437849854312e-10	-8.351549699885093943e-10	-4.069858873204810654e-10	-5.859779169105770017e-10	-5.840897513117995937e-10	-5.281199039077339776e-10	-6.053174690771375804e-10	-6.495064227763564940e-10	-9.719255018385594434e-10	-5.787223282741777955e-10	-7.732033728403462107e-10	-6.212516563133684567e-10	1.352876077196220336e-09	1.226136096863468354e-02	6.877785682873733266e-09	1.143957031265698722e-08	8.515094400996363333e-02	1.115863036657983746e-09	3.943647952811302240e-09	6.721581436840948757e-08	5.589309944917369294e-02	-8.690046023078472121e-11	7.619925495913296175e-10	4.489491764266553145e-11	2.603172444163906776e-09	2.143283776108180664e-07	1.118637673193530537e-08	1.829818340369718139e-08	2.866913196435394995e-01	2.584841547885477391e-09	6.689861299215686675e-09	8.059364244940382405e-08	2.744022677746447904e-08	4.930544979373376224e-10	1.544017936948382587e-09	1.250914290937221336e-09	3.483315959853055207e-09	2.789721268930717013e-08	1.339949933898817391e-08	2.131675455106291906e-08	6.324700965263294061e-02	5.184100076117235981e-09	1.116675976560250936e-08	1.417660926728930006e-06	9.121704882393334058e-09	1.419864589199209418e-09	2.251239426086038923e-09	-1.090207852490816227e-09	-5.393715276928929360e-10	1.381002502196619743e-09	-6.032008218388575310e-10	-6.148975417757318006e-10	-6.625426285982673855e-10	-9.317221808435777687e-10	-7.915506834705287502e-10	-7.605584978116384188e-10	1.293846524787634729e-10	-1.003800907327576008e-09	-9.008280460945867610e-10	1.656466684626934861e-10	3.188793729997322806e-09	2.861722964411153482e-08	7.248285053913903992e-09	1.062566718308771016e-08	2.777245054932325309e-08	2.733558277882205469e-09	7.259229760124941631e-09	8.541576889120024163e-02	1.046856297314735645e-01	3.995486025028994539e-09	-2.378280933934305176e-10	2.651752220788880117e-10	3.866609329602305792e-10	4.347340322129722672e-09	1.503782708411413310e-09	1.880992739379406029e-09	1.403473336262314654e-08	6.157651137044511011e-10	3.308738052668200406e-10	8.049399807115399228e-09	-6.976583419443527269e-11	7.285077714263212484e-11	5.573696218308512438e-10
-9.422714038438389404e-12	-8.751202443990177977e-11	5.057233692386949978e-11	-8.147327862065078691e-11	-1.190437630081143487e-10	-1.053278985987019290e-10	-1.228378578775387831e-10	-1.317104796303809050e-10	-1.291076074961500163e-10	-1.397845263482771813e-10	-1.263855355193895535e-10	-1.163792218281469396e-10	8.933163122817190674e-10	5.551186088400376061e-12	-9.171632678739740596e-11	9.525703767179101669e-11	1.315878124247868954e-11	-4.120004119116786311e-12	1.364478656982174486e-10	-6.113440932975091814e-12	-4.486413998558306215e-11	-9.464116052864128712e-11	1.330894349125837786e-10	2.427651045952774355e-11	8.663800878338937160e-11	6.406310383333496318e-10	2.356373121223089007e-02	2.370669723010132208e-09	4.369550593113097972e-09	6.986307614817015635e-03	5.005407435071192370e-10	1.348890106649869050e-09	8.293308718155441295e-02	1.977060164901201789e-01	3.156132425418329830e-10	5.043369498092997109e-10	2.950744041974871785e-10	1.080551960905544913e-10	1.012580633109949343e-10	2.422470670181740987e-10	1.928556704290281734e-10	1.931293551396146252e-10	2.248717719670661496e-10	1.836918885428926904e-10	1.836113940030510201e-10	7.397691464537330775e-11	1.434050688730036480e-10	1.426153438868881387e-10	1.440829092434747462e-10	7.021236333002216083e-10	2.476328823326287912e-02	2.553892493353673808e-09	4.020944533967154175e-09	8.957191572169979910e-02	6.891007703442925742e-10	1.695060541643882360e-09	1.262337024843633715e-07	2.711383262500057303e-02	3.498566953087298408e-10	5.991066511229655924e-10	3.415357060064572112e-10	1.061883349434473252e-09	2.252950588937467005e-08	3.832001023779289781e-09	5.981569402137720358e-09	2.943178508181083508e-01	1.130189994993683939e-09	2.574511127545877445e-09	9.724718735522697071e-08	7.981225699172779298e-09	5.186361386804305634e-10	8.361185800238396407e-10	7.270867851538949548e-10	1.576421129315099095e-09	6.630978899101607252e-09	6.338886260304154005e-09	9.789248713153191530e-09	5.769397504658260734e-02	2.445433264752018147e-09	5.979497382493998549e-09	4.924537981453279423e-04	3.776943720157914171e-09	8.724560062645694143e-10	1.230270201614646416e-09	-2.842224494537097440e-12	5.872070859319890213e-11	4.904547646659487200e-10	1.363161561230348749e-10	1.241872788689689293e-10	1.139967073282949436e-10	4.290397928410293432e-11	7.631504841394772474e-11	9.233143545472391783e-11	6.609877361587340162e-11	3.597129079820709405e-11	4.763940880970429976e-11	3.346662930702965924e-10	1.022076447177751108e-09	4.458908319261483040e-09	2.536475533918321531e-09	3.453350048080749370e-09	7.941881324074571722e-09	1.126325984269083751e-09	2.545026976490865789e-09	6.032612916994210123e-02	1.345310370356988805e-01	1.188163137064170661e-09	2.263926730764943305e-09	4.228359412649616795e-10	7.016408269584078199e-10	1.313229871418091210e-09	1.598319601465268972e-09	1.602085428127543205e-09	2.658699198084589759e-09	8.819994889352637211e-10	1.241030430496910407e-09	1.852893853335354342e-09	1.053002295496063078e-09	4.604522707108858189e-10	5.614038491630886746e-10
-8.774173213869179229e-10	-1.011114713216958268e-09	3.785363606302470918e-10	-7.432497008602055920e-10	-8.525665259657376172e-10	-8.262135787441660264e-10	-8.720902671255020808e-10	-9.406311056947590759e-10	-8.873898982967072599e-10	-9.585210535183643852e-10	-8.994449139847118195e-10	-8.275846490832895803e-10	3.793872864765562636e-09	-7.669631386049579681e-10	-9.055035581046640674e-10	-2.820686154993349407e-10	-5.675046600983591485e-10	-5.936465156602361241e-10	-3.077257235506265521e-10	-5.304942063431630694e-10	-6.726673724113758117e-10	-8.352918352245812145e-10	-4.115672033833828347e-10	-2.310658150786488797e-10	-2.791829125502407889e-10	1.299585213388450274e-09	3.668275564235853881e-02	5.946942157741853845e-09	1.121320918327505957e-08	1.756979691248203648e-02	9.860988429372159285e-10	3.480647106581978990e-09	8.861614970465322982e-02	1.671938365030007090e-01	2.725625218880942848e-10	1.217289940598362792e-09	1.432676265431591015e-10	-1.965521778771807262e-10	-3.267414428511209186e-10	8.595739126911630334e-11	-7.038263044143286941e-11	-6.344227179262571298e-11	1.282791457790439607e-10	-1.719994066331557389e-10	-1.699152260757791437e-10	-4.204975576896567180e-10	-7.860955143394499142e-11	-2.791153871260437858e-10	-3.971257873810623017e-11	1.747520027258616029e-09	1.011468046289371557e-02	6.533934563650450245e-09	1.055214142436400229e-08	8.622954965486888390e-02	1.313936622237303063e-09	3.718744894227968668e-09	5.187006558972068111e-08	4.779905636027461519e-02	4.129463567916577510e-10	1.472176611103762484e-09	5.056675913267698774e-10	2.596426220394593289e-09	5.667485946538191844e-08	1.042688640834129245e-08	1.679073795529679112e-08	2.865151276435999317e-01	2.566527557483363903e-09	6.007611297840974332e-09	5.359166396900365630e-08	2.382995047350891693e-08	9.946721381263216156e-10	2.214334605631252011e-09	1.528854949228293092e-09	3.363415124990408065e-09	1.748202323176085173e-08	1.306219164566026853e-08	2.017777657821276943e-08	5.900826996475003888e-02	5.150212533034100185e-09	1.110794696598077349e-08	3.566039588160718429e-06	8.187299265313862082e-09	1.838686728820104919e-09	2.759031813377581651e-09	-4.667022315639368999e-10	-5.317274588963140820e-11	3.990599125025921134e-10	1.798306099274773446e-12	-5.973208670568020030e-11	1.615275029444708192e-10	-4.140146137852006738e-10	-2.933620974396212901e-10	-5.631169057573751055e-11	2.803593488202302922e-10	-4.632963885320505845e-10	-3.694979134458493622e-10	5.043217724106041698e-10	2.513627293338205503e-09	1.476631628116318625e-08	7.061290874648150448e-09	1.025603966669761795e-08	2.711370016104927348e-08	2.723505969311194167e-09	6.676703245913385852e-09	7.644709974626041904e-02	1.238196524427847556e-01	3.709718352759402743e-09	1.727964612130074200e-09	6.448840425492732016e-10	8.346580288938778547e-10	2.164093610762172770e-09	2.093633996780475299e-09	1.446854087648080305e-09	1.689061304918175500e-08	1.068826188278577697e-09	6.783950306554349032e-10	6.146248032071927851e-09	-7.095131740914924033e-11	5.746234315711374508e-10	1.203145134214534795e-09
-1.015819793915698494e-09	-1.272931752834133785e-09	2.622211762161358904e-10	-1.046020610890725558e-09	-1.179421164613419381e-09	-1.135730690443898554e-09	-1.194355230992669311e-09	-1.210936542887064497e-09	-1.190275937979179211e-09	-1.247243212919017973e-09	-1.201780877560140364e-09	-1.100382580269351715e-09	3.471045422115493107e-09	-1.125481288564183080e-09	-1.189434015504996550e-09	-3.620943467513512097e-10	-8.741119283442885149e-10	-9.038172828380643009e-10	-7.306703627075972417e-10	-8.143789841662705585e-10	-9.358337894454469421e-10	-1.069812788360050609e-09	-6.843087682659063066e-10	-2.631762594501094077e-10	-6.084653001940391180e-10	7.368351044691520050e-10	2.907330427739920550e-02	4.738605889124783903e-09	9.890089463902058059e-09	1.117191626046536851e-02	4.642308462785916317e-10	2.669778649386573861e-09	7.939427408834287547e-02	1.829044080420544061e-01	-2.905481870652154506e-10	1.068308559827988930e-10	-2.971826964576285818e-10	-5.468507706046093116e-10	-6.561008897275105485e-10	-3.672053081027209657e-10	-5.227424295371952032e-10	-5.294150791510518412e-10	-3.593353613348566455e-10	-6.103314978931839698e-10	-5.360198250289967356e-10	-8.240807481100582979e-10	-6.539292538811777601e-10	-7.183790654717281027e-10	-4.777688672172897942e-10	9.792668080224333847e-10	1.474740401544148011e-02	4.991979383336842963e-09	8.680916025220758188e-09	7.306095513657295815e-02	8.259208452351961080e-10	3.075569103121079508e-09	7.880820520987572181e-08	5.022935925167210797e-02	-1.281161245224947128e-10	3.522260473705358986e-10	5.016094135670100316e-11	1.882045960598236379e-09	1.093110947753531303e-07	8.260026860273429654e-09	1.397252162841069454e-08	2.990770320286368356e-01	1.942816041458649317e-09	5.149513168895765780e-09	6.671409220212572577e-08	2.720383319485808290e-08	3.564749647293826939e-10	1.010945733483468813e-09	7.934967453786063322e-10	2.239629523396326234e-09	1.378684938833944793e-08	1.014551771571154344e-08	1.601723611202879884e-08	6.054403941663743377e-02	4.303091603208297729e-09	1.000947351934984652e-08	6.454446382561470501e-06	7.092307165426723424e-09	1.038306965271556498e-09	1.526112412922034952e-09	-7.480626384663724788e-10	-7.047145012392227746e-10	4.482404780921969042e-10	-4.504779699665814728e-10	-5.361394634551891964e-10	-2.546020959532015846e-10	-8.150833264029350942e-10	-7.249711958311863155e-10	-4.149882939098882790e-10	-1.297564827877337888e-10	-8.499396202357350246e-10	-6.895576605648513072e-10	2.625652134558753142e-10	1.673660361684451925e-09	1.141466242478297625e-08	5.494030955759849884e-09	8.450152627899050326e-09	2.367360103263813091e-08	2.003166874458587187e-09	5.471300028321184676e-09	8.446125897743450572e-02	1.153291246671509784e-01	3.019643261143651408e-09	4.292689884983015288e-10	2.631514372189363418e-10	3.055762255702478501e-10	2.209235538285463555e-09	1.798773428808083155e-09	2.255640515274549721e-09	6.871385699250233218e-09	5.525447695161637451e-10	8.615128936199463709e-10	3.852834682459163691e-09	1.166828272390468982e-09	-2.577272608497251081e-12	2.501258595107051493e-10
-8.566193506028703284e-09	-1.093250927881732572e-08	1.018964554995842062e-09	-9.153673802583985532e-09	-1.046640551567007092e-08	-9.828613486782063180e-09	-1.035037045182233167e-08	-1.050453269372038099e-08	-1.036573420770196433e-08	-1.101133568581833377e-08	-1.079347304714927308e-08	-9.724040204548000636e-09	2.784452095555082281e-08	-1.094542784863066169e-08	-1.119713423856855242e-08	-5.601452653838824811e-09	-8.986000962638985250e-09	-9.101944954339317559e-09	-7.070562780366746252e-09	-8.511710100828455088e-09	-9.591062718875462314e-09	-1.076460763163801872e-08	-6.010571355276708660e-10	-9.076337678734699985e-09	-8.147965369771639205e-09	-8.146588929409188398e-10	3.860230977186179108e-02	2.081464535581767048e-08	4.936198364429203140e-08	3.946242510457844375e-03	-2.105503083476697487e-09	9.992443840543288528e-09	7.695551145975457197e-02	1.822844053853913127e-01	-7.296297026623745208e-09	-6.869218832036733677e-09	-5.411412790484193326e-09	-6.237932692196567751e-09	-6.817725813594527763e-09	-5.947555411711444245e-09	-6.376790941515070121e-09	-6.605011529983612017e-09	-4.213253815684090609e-09	-5.964091740775347950e-09	-6.225963084595080889e-09	-8.164115606520682939e-09	-7.267159935946281983e-09	-6.116132576124246448e-09	-6.747311208883471352e-09	2.576551106720481515e-09	3.315337360505104733e-03	2.160166638171946067e-08	4.125366557863015214e-08	9.927265762873574428e-02	-3.106951669719366883e-10	1.141770254786633265e-08	2.901824532320696364e-07	4.277688943596310439e-02	-6.043877039259268102e-09	-4.431972138699837481e-09	-4.301342034415799581e-09	5.397006974883305935e-09	3.100302995807962547e-07	3.884270412032100112e-08	7.064794210033320965e-08	2.926814567478569495e-01	5.845707345864771971e-09	2.295676883153970270e-08	3.963858129827026044e-07	8.581581446986560618e-08	-3.893699473040135067e-09	-6.363865491516500240e-10	-8.217692331027191458e-10	7.283778760944274341e-09	5.857097393056754513e-08	5.261343718444508341e-08	9.448421953451536477e-08	5.950529206546688321e-02	1.944342898278871591e-08	5.208353201791069837e-08	2.472332455521705796e-04	2.743284024441373937e-08	-4.651665337908476767e-10	2.705373307479977923e-09	-8.148870099064704231e-09	-4.093953345732849167e-09	-2.537727195374028841e-09	-6.515983692672694354e-09	-7.012212986946823012e-09	-4.970474459873236759e-09	-8.679209982667977357e-09	-8.079850498670752731e-09	-6.285236180697577999e-09	-2.820036869555048411e-09	-9.138039693787949618e-09	-7.422102581085149457e-09	-2.057783609993469879e-09	5.697144507882041332e-09	7.161885421547974296e-08	2.462424349890137100e-08	3.916249565286626045e-08	1.100787624550266678e-07	6.115757356667770947e-09	2.490662219913555453e-08	7.168930854321670099e-02	1.287216184119427675e-01	3.157175327096550607e-08	2.446117998699709559e-08	1.427535015712728995e-10	-2.019179850313513399e-10	2.637935053729135927e-09	9.836783184265258934e-09	7.786827217391025722e-09	5.450759196436551227e-08	2.716178204602563900e-09	5.785172118611860365e-09	2.867488658964890808e-09	2.380147558072316156e-09	-4.386701948710137525e-09	-2.341342969434076007e-09
-6.098957425223515736e-11	-1.454642902991369591e-10	-4.452194147286123614e-11	-1.333339672670661586e-10	-1.485982491168282754e-10	-1.402024433350805129e-10	-1.483463665879308401e-10	-1.538530784923506414e-10	-1.502129485473658191e-10	-1.443973099356868350e-10	-1.502318293022406518e-10	-1.417960171472076328e-10	4.757419613100067606e-10	-1.366174472124392604e-10	-1.548471680629211288e-10	-1.125674584346312203e-10	-1.121173809382485407e-10	-1.132501596789226577e-10	-6.659572759129763065e-11	-1.251998349043066089e-10	-1.363242405263311907e-10	-1.387523290075643140e-10	-9.623415836969879397e-11	-7.483194599804092667e-11	-9.746847083243018122e-11	3.868331195315174857e-11	4.206350561284142447e-02	3.891932256984724688e-10	8.054679004969170313e-10	1.667688557582999026e-02	2.670892349589465865e-12	2.219892385151861415e-10	7.481113191483061697e-02	1.687827701288701632e-01	-4.948146208389962153e-11	6.123095375553924190e-11	-4.437558304467366849e-11	-8.246561417141483083e-11	-9.040765706457371153e-11	-6.546628654560591133e-11	-7.960312224646841000e-11	-7.907978151429377769e-11	-6.458145561696774753e-11	-7.060143808228880316e-11	-7.373994643318920378e-11	-1.042512630363227293e-10	-8.729143341572263237e-11	-7.851579126933319741e-11	-8.013978252104282317e-11	8.736705102873387793e-11	3.867506899174630308e-03	4.498705422299788891e-10	7.944873849424872150e-10	6.701648056420569932e-02	3.821495260689964833e-11	2.518080761878918354e-10	6.701657094969343219e-09	6.709933091304633168e-02	-3.983049482950038943e-11	5.632146779391016695e-11	-3.466159281800875100e-11	1.534103327457905908e-10	1.014945089235235481e-08	7.690840544061033098e-10	1.300047058730324502e-09	3.010332725271237519e-01	1.490764376856299978e-10	4.662379988150108519e-10	8.744503184449357206e-09	2.440377604952442683e-09	7.967508873614916762e-12	1.288340932929438815e-10	4.018039633392593052e-11	2.083138339276600882e-10	1.519328240584841076e-09	1.129696821316249947e-09	1.938582896213877945e-09	5.690708716435945169e-02	4.277686944276534062e-10	1.121805858880362899e-09	4.646371020531673418e-03	7.125141037597966707e-10	7.694381728608221894e-11	1.543627587630923645e-10	-1.104572966331424476e-10	-6.067661645329581792e-11	9.611810438517361902e-11	-8.852440169998436080e-11	-8.981215415555159918e-11	-8.709407322925283414e-11	-1.118295401245180657e-10	-1.010215642962541825e-10	-9.480472832373897600e-11	-4.468553946102119770e-11	-1.093111206890364052e-10	-9.967183933107363619e-11	-2.574872778841391121e-11	1.453438242731797283e-10	1.285120289883804547e-09	4.653615210506764724e-10	6.853467669034046061e-10	1.710690062682282310e-09	1.632182802090599950e-10	5.126673278708595878e-10	8.734899398539192061e-02	1.097466193885043850e-01	9.110789047990175005e-11	3.727115830342091795e-10	1.263224187619570752e-11	3.996862887068593288e-11	9.281037462034527326e-11	2.302370982130139646e-10	1.327542152971839871e-10	9.309174859903164405e-10	7.844420068164761609e-11	1.277216995098177306e-10	1.238613485670424449e-10	5.467130223862524955e-11	-1.061878307566614926e-11	2.589842797496695194e-11
