1.384533058056549861e-09	4.978471333998132000e-09	1.464368761360647751e-08	4.768298859471481275e-09	1.165041968678080831e-08	1.215872219089962427e-08	4.065696807626481941e-09	6.695890101075378384e-09	7.950497143763933875e-09	5.676839461411796390e-09	6.675116401896966777e-09	6.403727156808026169e-09	1.230203043339205016e-08	3.550673438479859710e-09	1.820826891387754099e-09	1.576751953189175992e-08	4.168925757817271501e-09	3.268017945594061985e-09	5.002262880423667496e-09	7.656287514724491399e-09	2.630129559312127355e-09	1.711003485196116355e-09	8.261979973041940688e-09	5.320579231577371728e-09	3.789400951375745761e-09	3.151065152142885804e-08	1.745440672594530257e-02	1.355495967063487816e-08	9.200421686492919953e-07	1.947336452717918510e-06	1.818541277587294440e-08	2.490441334093093844e-08	3.546120258014875265e-02	4.206281400041161217e-02	4.300604254557135533e-08	8.882334647336737860e-08	4.961809448378294710e-09	1.208219120448817033e-09	2.933654679679496319e-10	4.028696566927057709e-09	1.320897393449686035e-09	6.316704043010275188e-10	2.419973963365345579e-09	5.841977977463747010e-09	-5.525667171950031728e-11	-5.156443393658758853e-10	4.505411482126725642e-09	2.780456086932277331e-09	5.182328986742350659e-09	3.220687297622287960e-08	2.257093134179711039e-02	1.849145334500142501e-08	2.011547000991749327e-06	1.628351893586801324e-01	2.271156071858570520e-08	3.422822047314348334e-08	1.020602375007627696e-02	3.829856077933359998e-02	3.662244726612592882e-08	6.708111583794310305e-08	9.534656595135857452e-09	5.114806027311781479e-08	1.806247608501841771e-04	3.146094174298480703e-08	1.590295575514759946e-05	2.711031007594114639e-01	3.339477588288870556e-08	4.807385929092291769e-08	5.421238759650175253e-06	1.017314113493420448e-06	5.194721463788653383e-08	8.656264560922832981e-08	1.662030010711920006e-08	7.175995107868821891e-08	7.074737218770801372e-07	5.226361907905033414e-08	8.343870342124570794e-02	1.516685262251315780e-01	6.076834374529454155e-08	8.471861268909755413e-08	6.551203927075041622e-02	3.350336992075399596e-05	1.077808510619916609e-07	2.228449624159426251e-07	4.040049705902032343e-09	2.855743366624894303e-08	1.726807654553407997e-02	1.506581622702912081e-08	2.192995261126335465e-06	1.440656238184320238e-02	1.829459429134089542e-08	2.647364342998747584e-08	1.031318687168324612e-06	4.529955844052858514e-07	3.361603124889878000e-08	5.685123023467682204e-08	9.639126893604006478e-09	6.702206645386393440e-08	2.120128316454865956e-07	2.401551035232729254e-08	3.705318854526069519e-07	3.086391672031755022e-07	3.640302389758537820e-08	4.434571466430944511e-08	2.385470743556264081e-02	2.942024372648174499e-02	2.809351652012241218e-07	1.419002850043506354e-02	1.372723833298135957e-08	2.934592417133412951e-09	1.134644890322663294e-09	5.137693521909068989e-09	4.603950072400026198e-09	3.296330549198571691e-09	5.601718434714618682e-09	6.365961357754598030e-09	2.454164700662596880e-09	1.160221850952902885e-09	7.321731576235525138e-09	4.556662716432135490e-09
-4.600654283427685363e-09	-3.716692154751914988e-09	6.382704123739731984e-09	-3.194629945213628309e-09	-2.204879297742064649e-09	3.093106376827600106e-10	-3.820403716254678995e-09	-3.176351979411103060e-09	-2.543610231123067728e-09	-3.315401723409563788e-09	-3.360375811036584775e-09	-3.137497304271426617e-09	5.263245586587968065e-09	-4.190866230013166215e-09	-4.714913510764828491e-09	-1.284695609309066794e-09	-3.483588554179585970e-09	-4.353244520062073315e-09	-3.406546596792957217e-09	-2.818358321942006394e-09	-4.507284251635294589e-09	-4.715629096396253557e-09	-2.998185338646786581e-09	-3.430012096705440614e-09	-4.367069526707065606e-09	2.722833603533415833e-09	2.094151608493286312e-02	-1.255374593325997449e-09	2.399508445233175142e-07	8.194436960315548868e-07	-2.701640974042348554e-11	6.984197393484231451e-10	3.549189903462064699e-02	3.541574623223024687e-02	4.792302884954119615e-09	1.522801149710376387e-08	-4.010943032809262380e-09	-3.779610656092017853e-09	-4.309397614409314308e-09	1.171428567522110574e-09	-3.837680839664549668e-09	-4.224695354363498776e-09	-3.064169709365945307e-09	-2.314365504819998339e-09	-4.496253334280341418e-09	-4.321987670521795089e-09	-2.744480030750955451e-09	-3.164172000310355746e-09	-3.561353509903425043e-09	3.079900504418088530e-09	1.959566497692919601e-02	1.691188503358117040e-10	4.051283592366305173e-07	1.651588895379876298e-01	9.238639116323731080e-10	3.113127930938775201e-09	2.208369819041929721e-02	3.014182512854869309e-02	3.148139951755028519e-09	9.344864579590081197e-09	-1.895150231173373490e-09	7.196595050091386727e-09	7.469321934099409638e-07	3.154655098940801048e-09	3.992033470617168250e-06	2.733315581169944442e-01	3.816150891364174204e-09	6.458102544926171986e-09	2.151780712881991060e-06	1.264647154826336158e-07	6.468895184085927188e-09	1.327207547556929066e-08	-1.283738100611492564e-10	1.076292268540445633e-08	9.823892988310047467e-08	8.737593462187864929e-09	7.438751994272514712e-02	1.580253922821032164e-01	1.302061313665524526e-08	1.627199412158306603e-08	7.149634577099436838e-02	4.986030343153314160e-04	2.113911106180025560e-08	5.367862950763077403e-08	-4.039417562661529290e-09	2.031544062326010054e-09	1.763924731414010308e-02	-8.839991355423821425e-10	4.434194450592665590e-07	1.154903728925280731e-02	-3.917171052024350275e-10	8.596550943343737320e-10	3.790716657842918110e-07	7.071506917229905518e-08	3.078099580063860556e-09	7.815550097767139254e-09	-1.737838164096289942e-09	9.299501660491993322e-09	2.121276481022000893e-08	1.104568067350450467e-09	3.507693298493890602e-08	3.102147333711786119e-08	4.381094310115777765e-09	3.866620213165620553e-09	5.129613245969018753e-08	4.883960899496569280e-02	4.621157521771571467e-08	1.539369326063430403e-02	3.345600463749826943e-09	-1.282963618838160185e-09	-4.065541040789273494e-09	-2.263788813141138108e-09	-2.326053290131236568e-09	-3.104232040844239280e-09	-2.179454388243425173e-09	9.943765158471871323e-10	-3.595167738480028294e-09	-4.250311100481342103e-09	-2.521331669171684716e-09	-3.173265178787612726e-09
-2.654720449282641829e-10	2.176922759209922012e-10	1.339886394054315612e-09	1.052579734239851682e-10	4.925302139968708130e-10	4.782932718930330216e-10	-2.244470362132929147e-11	2.418953539286733591e-10	3.034188239765960269e-10	1.300479054558454369e-10	3.735777679943569172e-11	1.764891332795657081e-10	6.302280305644071662e-10	-6.871866825917833292e-11	-1.879213326583640118e-10	3.578301899530381778e-10	1.730892645952687229e-10	-4.788374351736342548e-11	1.701651351046432152e-10	1.933893822995291139e-10	-6.910952373448805554e-11	-1.822608221623930757e-10	2.543820829087314747e-10	1.057522831301138070e-10	-1.257746120573785421e-10	9.675054049952290343e-09	1.883094692368373485e-02	7.187420615147248831e-10	1.107707417161511698e-07	1.485373051388984815e-06	8.864651851953952559e-10	3.049467901975823845e-09	3.847130574239471246e-02	3.762374507142662167e-02	2.178861517760619342e-11	4.601979559647541204e-09	-6.890669347756195555e-11	-1.888408270570860701e-10	-2.921723254969683563e-10	1.708878165861156737e-10	-1.692526806746339347e-10	-2.339703981644777865e-10	-8.119111863388116187e-11	-6.338860817326993458e-11	-2.827778753103363225e-10	-2.760473032576754913e-10	-2.949209478054446697e-11	-7.284025675153000484e-11	-5.210684025497473679e-12	6.659468792543975101e-09	2.560541822709063928e-02	1.068066107191324623e-09	1.080208703742646211e-07	1.714130060671196221e-01	1.208539278327310669e-09	5.219415980637618149e-09	1.632661776269904441e-02	2.212581984210255925e-02	9.512516244993426260e-10	3.450634963948944811e-09	2.725319586280873841e-10	8.935802246619142841e-09	6.221651547008203854e-08	1.825031546835546257e-09	1.299353006861563794e-06	2.799882304153394341e-01	1.987390491155561401e-09	7.795517055477680873e-09	5.176679447427066609e-07	2.577749601642367678e-08	1.617351568274330809e-09	4.251878110569086676e-09	7.439188722676766510e-10	1.003318116833443867e-08	1.888701217264849176e-08	3.123726505580089737e-09	8.281670110863269263e-02	1.251479787154787526e-01	3.830281650603389214e-09	2.004471202522234757e-08	8.868956043683882962e-02	9.888068651555733318e-08	2.786727567253399388e-09	9.389725398604442269e-09	-1.027461984494185454e-10	5.624934195100714726e-09	1.554650091456397792e-02	7.982097356075632660e-10	1.130445033899459783e-07	1.687176851372004099e-02	8.442861179364354945e-10	2.811004300500733409e-09	3.019963848689981955e-08	5.459248180323075718e-08	6.089527046750856321e-10	3.361409439708248708e-09	2.802379261285846686e-10	2.038338845002685047e-08	8.408856193025464417e-09	1.401694771581615339e-09	2.284903553137140845e-08	2.081430019556352601e-08	2.109186492634716776e-09	7.384667947567779288e-09	5.504053165765612113e-07	5.087731989932912924e-02	2.625749640198100249e-08	9.660363677459229276e-03	7.255990678992457425e-10	-1.421201770992476678e-11	-2.233578335639078429e-10	1.253895167018945424e-10	3.826048158881659473e-11	-4.814550533605741986e-11	1.004417679403618196e-10	1.018793098036932551e-10	-1.211314094372417314e-10	-2.242314495335887648e-10	1.535789338951972953e-10	5.030348044137034889e-11
-1.420933341500572543e-10	-9.191551205441391649e-11	1.442455485086044928e-10	-9.045132660554164978e-11	9.601111074320408084e-11	1.910179607455213441e-11	-1.057811228553377084e-10	-6.978847861011356850e-11	1.495949175920570425e-11	-2.396250219732120849e-11	-6.985114080745254434e-11	-5.891203601604188114e-11	-5.760580162159068231e-11	-1.033311605100063017e-10	-1.326463012702640035e-10	-5.042021796233355074e-11	-4.009955840080418709e-11	-1.251439916875027687e-10	-5.168188457644228241e-11	-1.986678642379140871e-11	-7.968237698172747554e-11	-1.413251812150784057e-10	-3.808120122199673705e-11	-4.734388254675272344e-11	-9.007598566321315216e-11	2.705711835576656207e-10	2.212321527802670398e-02	2.848967819510584858e-11	3.765332498418507839e-09	2.577224526805983135e-09	9.480360858369383440e-11	1.413865888881047238e-10	3.133622684572421463e-02	3.662989980531244222e-02	2.771876078423779072e-10	1.128995332003073491e-09	-4.296045420432224163e-11	-1.408297451181231958e-10	-1.233519473850105557e-10	8.360849099347416281e-11	-1.267541673992493306e-10	-1.491721669323391115e-10	-1.179980956110246169e-10	-3.306502417506634529e-11	-1.598610785767990314e-10	-1.698780916172254507e-10	-4.562441893054115102e-11	-7.933822437517963479e-11	-8.631682020949355054e-11	2.380906521699677186e-10	2.073999645034587183e-02	1.120566239112264095e-10	2.662514541730328356e-08	1.849374228720507829e-01	1.524274092699326159e-10	2.887882139125433911e-10	5.706484653412751372e-03	3.258662044861408008e-02	2.310602109663372133e-10	7.484423215309495459e-10	-2.358455558396372463e-11	5.066195887599254510e-10	5.088441946470590720e-07	2.775235349673208537e-10	3.137996582507987738e-07	2.793982674657085052e-01	3.307771965460593304e-10	4.919713781996408316e-10	2.866652131095956456e-07	3.443500620031657423e-08	4.697168288310856922e-10	1.279245486006707913e-09	1.101013088554072514e-10	8.644705091781408586e-10	1.541103095636506607e-08	6.977878951298985384e-10	7.706371895047685328e-02	1.230692653322205676e-01	8.000583310171741053e-10	9.249356322204232373e-10	8.881470091583971993e-02	4.212522490314873566e-03	9.578962694449058718e-10	3.116832917973374887e-09	-1.085251965838061415e-10	1.663033544427126159e-10	1.656424847763297847e-02	5.600610645619669625e-11	3.769469902621453918e-08	9.606772190536721351e-03	8.881433481735036822e-11	1.664880890020896007e-10	2.876640874755785651e-08	7.896192342208606116e-08	2.497462567734553875e-10	9.724654527170908750e-10	2.811044881682961414e-11	1.859311095806593463e-10	1.888609447881477113e-09	1.763741847248606382e-10	3.165809067180998296e-09	2.842984310492996758e-09	3.763425977219176235e-10	3.973605399661847401e-10	2.198889236239299008e-02	3.673724847144714534e-02	2.971855079222895367e-09	8.483134624332101456e-03	8.591122620691280723e-11	-1.236227502122380077e-10	-1.477284812207543288e-10	-7.790740172564624536e-11	-5.295683932391593535e-11	-9.487245794378609954e-11	-3.142124376228998020e-11	3.107031068556536622e-12	-1.145782443744170239e-10	-1.247504196497824746e-10	-4.832728190966006796e-11	-4.712228711662606524e-11
-1.048152571698595113e-10	-5.377951295561219327e-11	2.709508362273286936e-10	-3.820822094094596403e-11	3.919008130409987638e-11	2.757117751195748002e-11	-5.907130977448616587e-11	-2.953847330656619498e-11	9.806662653293804577e-12	-2.116626027475239520e-11	-2.970071378417036412e-11	-7.547372103801104113e-12	8.715199662668669467e-11	-6.807215948253069502e-11	-9.879191233131712036e-11	2.177751909013405327e-10	-6.300102745641756359e-11	-8.173223249131561615e-11	-5.233544259521867279e-11	-5.819521665298132673e-11	-9.666156976666692226e-11	-1.086272269467379172e-10	-1.671552780142494614e-11	-4.977777249951843718e-11	-7.148321970821510775e-11	2.355206034365400677e-10	1.654274918242881059e-02	5.691199562797413247e-11	1.566117997512187295e-08	5.560280925117172573e-08	1.274429424754851620e-10	1.621954043735701475e-10	3.821222434661866729e-02	3.987908962721146283e-02	3.568061065597129452e-10	1.033054463131850845e-09	3.787808760927513465e-11	-8.265244263248958797e-11	-1.221596897021247232e-10	-3.269419601414188475e-11	-1.083603473516438628e-10	-1.229957401680532815e-10	-1.008148023779337215e-10	1.010884765919617200e-10	-1.340348572375928004e-10	-1.167893013047063979e-10	-4.503563623249126830e-11	-5.999312816040249636e-11	-5.688758060930931939e-11	2.469065156038605249e-10	1.472473842975397830e-02	1.228771202990638787e-10	2.318936523673674272e-08	1.842861015506623568e-01	1.863224709363996022e-10	2.807127290032529631e-10	3.401829401097389988e-03	3.942463104943661617e-02	2.960082668040146583e-10	7.050505508131310841e-10	-1.004946758327586671e-11	5.009553709069150825e-10	3.240708366378511427e-03	2.698965152795113126e-10	1.746528190522654277e-07	2.663239886572139059e-01	3.264076279181982104e-10	4.395790458745068533e-10	1.346208322987192425e-07	6.791071040227000571e-09	4.668261110059707085e-10	8.959702071957966810e-10	7.275622829404970201e-11	7.100602572975913711e-10	8.021547044381939170e-09	5.348766027262624665e-10	8.317261420877561373e-02	1.437612889754273371e-01	7.241309366567470092e-10	7.961094594389878358e-10	5.918828660855472018e-02	1.014481184804520188e-02	1.073257113930186783e-09	2.902178246843476985e-09	-6.766020112245397792e-11	1.944040207691671689e-10	2.375882190864724713e-02	8.128560499943375666e-11	4.341292570668942699e-08	6.473211653202636494e-03	1.162163770002741291e-10	1.836062384486007639e-10	1.722799130879321051e-08	1.051583711912814041e-08	2.896111472238621302e-10	6.977984653860011407e-10	-2.522592301096289944e-12	3.041626793424728473e-10	2.341723104944382581e-09	1.878748666360914972e-10	3.418657883951729983e-09	3.056661513232589962e-09	3.824851985711075921e-10	3.780595163551935679e-10	3.329192157174517414e-02	2.243883275963500651e-02	5.195252310267786050e-09	1.173363155613067581e-02	2.071172323709215736e-10	-6.290012647315485093e-11	-9.885026205470721433e-11	-6.715257218671537652e-11	-3.615203922973410597e-11	-6.642496335168146355e-11	-2.648960002949940830e-11	1.976455275429671639e-11	-8.556927339484775905e-11	-9.481398734593003517e-11	-5.668846035106122099e-12	-5.035730667287439596e-11
7.101225086245511922e-10	4.162603520640111694e-09	1.491032125980354924e-08	3.957749880072406211e-09	1.012288822863333152e-08	1.073786673369650635e-08	3.567778538250610165e-09	5.756155308707172225e-09	7.342408900616152923e-09	4.524501685727112643e-09	5.477081853460927449e-09	5.297298128761929455e-09	1.439521776403716230e-08	2.338304015049344920e-09	7.494938500615990554e-10	8.680700744641447736e-09	3.412176191816630780e-09	2.284669435717693949e-09	4.519270002751618632e-09	5.034055938952343901e-09	1.658496366707309522e-09	8.138477840230430286e-10	6.644715007710073813e-09	3.969815889804289419e-09	2.645398543992674770e-09	2.683019498017504695e-08	2.077426607193619268e-02	1.169609130437290053e-08	8.652862099912509478e-07	5.949028024910781639e-06	1.583103380369876670e-08	2.096210452979222127e-08	3.429275599208843339e-02	4.341969329543533818e-02	4.085566811476308326e-08	7.620540504240546027e-08	2.892888961537890312e-09	5.426326763069402408e-10	-2.213121451409609857e-10	6.545888272007498662e-09	1.561469909291174042e-09	5.639165025634414798e-10	2.215277776247770045e-09	1.670652799576364080e-09	-2.332426607684579474e-10	-9.284747182190346827e-10	2.788870678424227795e-09	1.071332828060921816e-09	3.834836651203557854e-09	2.641033619172083946e-08	2.199050634348810943e-02	1.601278806963585024e-08	1.177350021414790143e-06	1.676560968077938640e-01	1.957123522299238432e-08	2.923296917521393120e-08	1.842586314555413884e-02	2.694157517188680573e-02	3.190966516092190834e-08	5.369168469796924417e-08	7.400186909851645105e-09	3.952923976383947176e-08	5.738912821903153160e-06	2.716195304012717692e-08	7.641522876797730542e-06	2.718505499021714455e-01	2.981799466282783274e-08	4.174753844610688466e-08	6.534580428533464550e-06	3.406475707688401026e-07	4.401911153601508597e-08	6.378151398389506370e-08	1.399240459363518475e-08	6.305357265639407332e-08	4.987970240089626647e-07	4.942499083065466292e-08	6.200384737411387959e-02	1.505580932114875814e-01	5.566492843346524554e-08	7.546622819546088828e-08	6.970817039273935478e-02	1.175332053354983045e-02	1.001415841968951883e-07	1.681508452470299873e-07	2.843812824582601764e-09	2.315267408973360261e-08	1.621719435099883144e-02	1.309451655466124187e-08	1.119062417501717251e-06	1.716139315374935748e-02	1.540934198977471987e-08	2.211469834765024669e-08	3.891483103910656069e-07	2.101928476645441018e-07	2.895582957178213957e-08	4.337826179413008860e-08	7.662637746521832938e-09	6.216887347002721977e-08	1.709437349985602460e-07	2.059987627216851016e-08	3.438518448106560229e-07	3.139807625010859720e-07	3.184901808489497096e-08	3.874993963764870885e-08	9.507350841256203069e-03	3.934169478910950341e-02	5.716300073198232987e-07	1.836410167334360730e-02	1.115084891542695965e-08	1.626460364822106391e-09	4.568239246878349516e-10	4.467601529409194262e-09	3.349057194417770757e-09	2.472508214106343209e-09	3.904520685531064560e-09	7.375106211190769147e-09	1.811850531812337613e-09	6.275026022944272302e-10	6.360542206457844038e-09	3.853147168071301930e-09
-6.409455910109680935e-09	-4.157801543869986508e-09	1.830279566820266894e-08	-3.118632399865080590e-09	-3.494123758079510086e-10	-8.363836524261752126e-10	-4.503188268579943457e-09	-2.825095437824322720e-09	-1.807228871966891262e-09	-3.351191319805480592e-09	-2.655736840032189070e-09	-1.718369780447598373e-09	1.629440292078756288e-08	-5.998419580429229234e-09	-6.953603209255223623e-09	3.414255639065351845e-09	-4.823361943107440598e-09	-5.788758460749382146e-09	-4.614062206142667803e-10	-2.562641725046803001e-09	-6.423690016255464478e-09	-6.948183197272531654e-09	-2.127265923681357244e-09	-4.150852917884186322e-09	-4.826590946666650181e-09	1.430980286879914645e-08	1.990860676146277014e-02	2.502959621924660866e-09	2.930689454077695498e-07	3.307361556230537563e-07	8.628462361663303429e-09	8.466856698714546070e-09	3.291170759575005877e-02	3.762764438088563035e-02	1.770153627440785047e-08	5.488327058409118541e-08	-4.701934400986633192e-09	-5.803438535604539324e-09	-6.446047098651180674e-09	2.049637228147660367e-09	-5.542567037000310435e-09	-6.467019320184460592e-09	-5.044172226325635773e-09	3.993592625562161528e-09	-7.127271510370667328e-09	-6.839972800415585435e-09	-3.080133560322258741e-09	-3.696501679150467564e-09	-3.606429623240990304e-09	1.438765223279472798e-08	2.163875310344410760e-02	6.413759871576588492e-09	1.420714006493977539e-06	1.622053849376950130e-01	8.670099223713889487e-09	1.493593084734997884e-08	2.037382666859374747e-02	3.462635866609654889e-02	1.509921032851522614e-08	3.786455722268912717e-08	-5.442562684834265616e-10	3.009638340955806545e-08	1.008437089796850424e-04	1.464199616227528017e-08	1.666339248765179434e-05	2.683565564938481529e-01	1.670862771169194951e-08	2.414004946055745487e-08	1.636394369600687308e-06	1.043173249922790380e-06	2.710100973175799197e-08	5.979978686291530213e-08	4.356966551993702803e-09	4.108401064521322168e-08	3.927524112818691430e-07	2.846109124864227172e-08	8.366536951828040802e-02	1.530393027037720288e-01	3.820227173142825338e-08	4.171028358041258016e-08	5.152847869117622992e-02	8.289178677328076783e-03	6.263052462987707961e-08	2.183685461365839393e-07	-4.620631013834137803e-09	1.102380935718948455e-08	1.545275229110251898e-02	3.942555652859617909e-09	1.902269813105280964e-06	2.231445787384334078e-02	5.206584976900559498e-09	9.484573780359438452e-09	8.825158874912624332e-07	3.838361298905500208e-07	1.313418426257651394e-08	3.258009522882382493e-08	-1.288503778524406084e-09	1.268477573706353173e-08	1.144385586601589978e-07	1.016803976288901487e-08	1.728475942785296025e-07	1.544870998230776518e-07	2.029397456627640042e-08	2.078770317215841939e-08	2.756801071362499633e-02	2.914654959528809389e-02	2.483801900403653078e-07	1.121975045681372976e-02	1.752090535640072090e-08	-3.331162679142954289e-09	-6.770411160909803330e-09	1.053873358531555142e-09	-2.580991913444206596e-09	-4.310001328442833464e-09	-2.320347078510934251e-09	-5.982388117991627763e-10	-4.948130744475605814e-09	-6.762474069401485869e-09	-1.738853260874616208e-09	-3.979529175081622827e-09
-4.858785128404391939e-11	5.424588900867648993e-11	4.177399872829681693e-10	3.643484348220283256e-11	2.190258445957740674e-10	2.102747545081515832e-10	1.119028123465774942e-11	1.092664477310519618e-10	1.374710192732072791e-10	8.486709886450254155e-11	7.972884559420270284e-11	8.071040280023652023e-11	1.994214503680262947e-10	-7.525444343951373419e-12	-5.249911827145948157e-11	3.134690399926491231e-10	2.668237194200631018e-11	-1.510468582863855218e-11	5.942302418860355241e-11	5.350987473339348162e-11	-2.973045530045355169e-11	-5.230071258185292468e-11	1.165012396020956264e-10	4.748262887606732810e-11	4.509495353465824023e-12	7.796548466939984429e-10	2.060412753527154223e-02	2.625048313687348108e-10	2.200977121696361130e-08	7.466651081898739403e-08	4.030549915834023296e-10	7.051372973115165720e-10	3.186320345778103497e-02	3.797138814006915941e-02	9.361909413700887170e-10	2.304819298637605503e-09	1.591854203855230221e-10	-3.780886145886352152e-11	-8.173571472736051577e-11	9.941564581573020086e-11	-5.395507253104823324e-11	-7.612611292530319796e-11	-3.491108982902556849e-11	9.429886162715769867e-11	-9.329257133846251849e-11	-9.622407813324409498e-11	9.468481564238949483e-12	-7.877952221313420035e-12	3.695853213665735868e-11	7.721592990306513731e-10	1.542992418836504689e-02	3.866117037815259594e-10	3.751286918839837945e-08	1.730460038863741445e-01	4.669004623211062210e-10	1.011648126186659181e-09	1.187105255380320121e-02	3.526562229018451872e-02	7.050662176784559248e-10	1.537830798486847707e-09	1.363159416051436261e-10	1.298680681200499048e-09	6.172589772497218998e-03	7.124716647973390902e-10	2.931074483363810455e-07	2.711749904941241907e-01	7.517807562026110258e-10	1.468188307195023297e-09	1.444377453323300557e-07	4.134761903076963818e-08	1.148122245781268091e-09	2.231715172346745740e-09	3.056082177565298660e-10	1.713144406354588509e-09	9.604710115822622652e-09	1.166397703540795121e-09	7.998615245208785807e-02	1.266060830361698808e-01	1.485167654922598588e-09	2.867634088753309955e-09	7.130001549876389955e-02	1.780024607218289728e-02	2.389034710877191190e-09	5.358328453553016560e-09	1.935835787727366213e-11	6.960730920044293015e-10	1.460225787280527120e-02	3.017564256817817493e-10	4.047955908424386295e-08	1.471842564184465754e-02	3.560046519412599745e-10	7.329688099187001153e-10	2.837114946267959211e-08	7.078500434371989469e-09	6.528501846278897736e-10	1.334801033544241264e-09	1.509581473883130735e-10	1.817299955892212960e-09	4.031776804589798698e-09	5.231505932630808364e-10	1.061489541408450934e-08	9.433187192845146722e-09	8.365274364923709865e-10	1.377743196017329486e-09	2.822265417319453143e-02	2.967591496643415955e-02	1.168934080373058863e-08	1.368856902897493295e-02	1.004867062117893128e-10	-1.029142933470924521e-11	-5.600307630950162578e-11	5.775448644428529125e-11	6.942449476503278896e-11	1.696766315208513554e-11	4.144028571886945154e-11	1.283585301825770637e-10	-4.593569658341866450e-12	-4.926597170812311326e-11	1.391528531875230255e-10	4.329517347611044632e-11
-4.714403239680253679e-10	-3.663693135461485922e-10	3.009931635379406355e-11	-3.660332721585367675e-10	-7.219491307313623117e-11	2.028947850252489381e-10	-4.032395888647989673e-10	-3.688126802968855004e-10	-2.951121518975741320e-10	-3.618586252476938635e-10	-3.672931323717772609e-10	-3.526401795620261771e-10	4.804597923345621915e-10	-4.709321182813263920e-10	-4.457641237910426967e-10	-2.487064846193216787e-10	-3.971142846416830373e-10	-4.391573205678124085e-10	-4.055679324224009140e-10	-3.408403217125563925e-10	-3.664941386085186651e-10	-4.494353082060261920e-10	-3.193684303334095599e-10	-3.645376928358425904e-10	-4.718686027804823400e-10	-2.969429739236316699e-10	1.823643093339437707e-02	-2.546735576768915268e-10	1.284918362155825284e-08	3.861568618058605354e-08	-1.851692974191083701e-10	-2.088685006668991291e-10	3.649536014353427921e-02	3.849712630237131505e-02	2.045532814606233899e-10	1.031329198087772817e-09	-3.112508615920887842e-10	-4.624413377120183023e-10	-4.712718621449218046e-10	4.460125140257239568e-10	-4.945256016710374870e-10	-4.895272103240595275e-10	-4.683003102015836687e-10	1.729647920236552104e-10	-4.943988683369908088e-10	-4.621443024610457437e-10	-3.200540126858326729e-10	-3.483036747700551218e-10	-4.191715887420112250e-10	-1.255856691370479594e-10	1.210005069662845739e-02	-1.597551883322020029e-10	2.444842317453768091e-08	1.759546876911516344e-01	-1.024608245221585225e-10	-9.473898400268945716e-11	1.924793269733215267e-02	3.419332404236143791e-02	5.009506421110467436e-11	6.327409150737589413e-10	-3.587570134486691345e-10	-2.832032091516726767e-11	1.139494604431771154e-08	3.657991096863340645e-11	2.827089166449693270e-07	2.726689028558079708e-01	1.135180719724616043e-10	8.443122186252491563e-11	1.155886101714129984e-06	8.158456528793393730e-09	2.825173333371437756e-10	9.188573364517805444e-10	-2.438389908330759869e-10	2.205089622781868418e-10	4.878629330603892976e-09	3.452181536213843168e-10	8.846434735418821915e-02	1.452465061317029238e-01	7.261662356983141088e-10	8.516001365590741725e-10	6.774869537421573940e-02	2.065619740889332290e-05	1.170700873442097929e-09	4.048880170336685582e-09	-4.506471729897915370e-10	-2.452886828422895725e-10	2.553220337597813389e-02	-2.029861213203396169e-10	1.761328058924779196e-07	7.637355281809780991e-04	-1.561882489639886109e-10	-1.711344315043448796e-10	5.411866831343293162e-08	1.289245401673186668e-08	7.954859541817262441e-11	6.618760799911082271e-10	-3.114308176114425294e-10	8.300284690234272448e-10	1.408006035306911509e-09	-1.138599116923003886e-10	3.809502010123133058e-09	3.429603601139983651e-09	2.427009806020338594e-10	-1.540730589570528852e-11	1.097947237766759739e-02	4.087248184896822428e-02	1.541886587268202988e-09	1.297630008273968800e-02	8.474422798298025687e-10	-3.637700670400167696e-10	-4.937088690722847613e-10	-1.449035785373388484e-10	-3.560830339687649426e-10	-4.078628846495708326e-10	-3.050456877433897958e-10	-2.109214120368494693e-10	-4.340663739888236726e-10	-4.932248050493950697e-10	-3.757327277513433838e-10	-4.210824879678598422e-10
-9.886209993865807998e-10	-7.630335047654810627e-10	1.145129741217999913e-09	-7.126825310704797257e-10	-1.735092910290756456e-10	3.723759478381984813e-10	-8.544159807131082837e-10	-7.256441851344823196e-10	-6.862637365021507461e-10	-6.403340911348566674e-10	-7.709331737420530098e-10	-6.529324223074885244e-10	1.511371102804211204e-09	-9.514282583475315658e-10	-9.171120284615993596e-10	-6.983113335797091669e-10	-6.059587151217987346e-10	-7.131977133049915679e-10	-5.833913041594680833e-10	-7.294411654844350532e-10	-8.675402803175587637e-10	-9.224436415782908561e-10	-6.131897811691580481e-10	-6.971731371830368486e-10	-8.920412446570366664e-10	1.106097190749779906e-09	2.563168616952640061e-02	-3.844388391740987985e-10	1.929967633878801877e-07	4.172841262283314909e-03	-6.997293820509162129e-11	-1.892075658258057044e-10	2.464217143707608110e-02	3.640359306240067983e-02	-7.738194173859653585e-10	3.683538904918777339e-09	-4.430699625167960985e-10	-1.090752471357034280e-09	-1.141357515603889069e-09	6.918257185816866937e-10	-8.833091995512717606e-10	-9.859677908776058909e-10	-8.786492801458063599e-10	5.073961819869303978e-10	-1.055249410561081478e-09	-1.055077526479101999e-09	-7.007136797910195467e-10	-8.239178142354659842e-10	-8.452235662761259233e-10	3.964635126958072109e-11	1.022113420578970797e-02	-1.584216735480579082e-10	8.332522007285181222e-08	1.695174511081962709e-01	1.132245282855494821e-10	4.145638878560245968e-10	1.622206239617734677e-02	4.191693100746539391e-02	-1.289584953401434697e-10	2.369056639195941577e-09	-6.795400997203380345e-10	9.049460902910998680e-10	1.652251242679349958e-07	4.031061697248991318e-10	1.951076317767312964e-06	2.788937801567497043e-01	6.634454442051380525e-10	1.034273277276599359e-09	2.135419339171397889e-07	4.446548378065198755e-08	3.377682991686636722e-10	3.468432069464583881e-09	-3.888802387534321366e-10	9.062964494053300025e-10	1.269777094406553784e-08	1.438965980203630697e-09	7.378374733150919185e-02	1.279664522671639937e-01	2.390932736693197786e-09	1.107264423357718222e-09	8.051682265801471394e-02	1.060229392804975211e-02	6.267631013249277268e-10	9.755928518328123908e-09	-8.916235632923595829e-10	2.898342136874678859e-10	2.079039121133242560e-02	-3.233211378160987754e-10	1.135571982125312397e-07	9.066670720669117028e-03	-1.694274948390525585e-10	-2.258837456594397417e-10	1.479381127704164782e-08	1.188337424121667923e-08	-3.180927448698043161e-10	1.755259370416325877e-09	-6.182240017832169337e-10	3.536965058613159279e-09	6.258128184109103587e-09	7.976132008421625706e-11	1.692101711876825853e-08	1.461649411681310140e-08	9.393120029597125668e-10	9.539711138002444893e-10	2.797721829349236050e-02	2.859493017530125719e-02	4.078766139424988436e-09	1.307697165991263469e-02	1.054553798990891367e-09	-9.596163268807015271e-10	-1.077131743484193595e-09	6.351272053230604714e-10	-7.020902065803832425e-10	-8.136871584304162821e-10	-4.048516338304907912e-10	-2.262634996726012481e-10	-8.765172942263023368e-10	-1.004858080575994098e-09	-5.497855310022498352e-10	-7.281464382764946189e-10
