-9.864257303723897357e-11	-1.445937592215122410e-10	1.101825700490557022e-11	-1.152274527809570895e-10	-1.226683022996468912e-10	-1.154854121007483961e-10	-1.167655450847071541e-10	-1.250047710242181706e-10	-1.235194392360442301e-10	-1.191220588817663745e-10	-1.237366911897509287e-10	-1.200455559049139425e-10	6.168815062122203951e-10	-1.219675992831717991e-10	-1.368536833310128248e-10	-6.525608280083131971e-11	-9.374600692225624247e-11	-9.591673293672996095e-11	-4.815968689860521372e-11	-1.056202302336475262e-10	-1.184035207467298945e-10	-1.252565196084042678e-10	-7.807540507354223110e-11	-5.532282545731732719e-11	-3.275704443652315026e-11	2.071939478333240777e-10	1.272531879859153253e-02	3.545853532341311067e-10	6.490549785300509404e-10	1.660429044229945524e-09	1.384230614620008721e-10	4.727036785971895544e-10	5.334178144426584417e-02	1.483988986924146269e-01	4.535212667553055663e-11	5.102992315878801178e-11	-1.953617475181025717e-11	-6.933859695820410260e-11	-9.000486562273215456e-11	-6.894794505703617240e-11	-8.041488962370105285e-11	-8.070821589062306043e-11	-4.807717541158639790e-11	-6.339770220508079577e-11	-7.595183821369230916e-11	-1.047437105258789122e-10	-4.367083691420187481e-11	-5.641694526258584052e-11	-1.719431975345413018e-11	2.012269159698370814e-10	2.782723178886377380e-02	6.315113330114103226e-10	1.364504391633028140e-09	4.851847422391829950e-02	2.789894145902276129e-10	9.237199640046973477e-10	2.846850949693540658e-04	6.845388874657917788e-02	5.236866295495207306e-11	1.318636392263813792e-10	6.616629242704313991e-11	3.864991080851227644e-10	7.910835132810570184e-08	9.073231358324286933e-10	1.788628766954880527e-09	1.014844200441884225e-01	4.153146524686225375e-10	1.102639379264110512e-09	3.982242024453692598e-07	9.109744016807542062e-09	1.297594669629790750e-10	2.390710685932498551e-10	1.927262799564205462e-10	6.977807401284756576e-10	1.229680238482394303e-08	1.606822950997393857e-09	3.115885756531752681e-09	3.952352576088099534e-01	6.660600986789195676e-10	1.507847338364885881e-09	7.231665669813271136e-02	2.619746151942449402e-09	2.286064433138136300e-10	3.800754864624862830e-10	-6.687428369493824776e-11	-3.603556949583669397e-11	-7.455660040244116935e-12	-8.357229208286681833e-11	-8.736999858574388819e-11	-7.170575642583485057e-11	-9.683468970915128599e-11	-9.273983475157536323e-11	-7.777931868988589410e-11	-6.977361583521254403e-11	-9.241259613470001022e-11	-6.587548185092213572e-11	6.317142199051722103e-11	3.364594349246369290e-10	1.405309616191875674e-09	4.937103917237649090e-10	7.079139725597666463e-10	1.185549089835406345e-09	4.094578948528140476e-10	1.003261114267782008e-09	1.786455299976918293e-02	5.354830364623853339e-02	6.542784928146265926e-11	4.792987015864833098e-09	4.508271171336082728e-11	6.081560536515714217e-11	1.017042177226314128e-10	1.283357302919894281e-10	1.355541801411348961e-10	2.665749105517938278e-10	8.561590112766336222e-11	1.044082785498976439e-10	1.893614367853743950e-10	5.653950411939021287e-11	2.916177034994597017e-11	3.492633915373804606e-11
8.019931407417882418e-09	6.008707909325844100e-09	5.279143338536948301e-09	7.279056955211845162e-09	6.865771779877150061e-09	6.688690288614400755e-09	6.939041835041591947e-09	6.519137598697786467e-09	6.240570649802183778e-09	5.621357424630604010e-09	7.277158887696348256e-09	7.424220691578339401e-09	1.661778247663091235e-08	8.641560595332988536e-09	6.942118789628464588e-09	9.683994885333901712e-09	8.851377386538362303e-09	8.325514496387194702e-09	1.030784383944587956e-08	8.870766396700740966e-09	7.874977044811547166e-09	6.739591123625078000e-09	1.164681803832544323e-08	9.757961548778297824e-09	1.659400386111307720e-08	3.757808742428717302e-08	1.354377599160975186e-02	6.141745646526177751e-08	9.938954238992584506e-08	5.033382675040149044e-07	3.113371813397979592e-08	5.954081628096787403e-08	3.315599191073550361e-02	1.624065628724306320e-01	2.431743366220272264e-08	3.849067390377107403e-08	1.513329750966239049e-08	1.017336411067985770e-08	9.000366741437497595e-09	1.210334026124020101e-08	1.127769417351726040e-08	1.089066975286059519e-08	1.212581905748805241e-08	1.105705567596632411e-08	1.032951490208530221e-08	8.850172652436708101e-09	1.263789376217406420e-08	1.211620319274654852e-08	1.829079442248793937e-08	3.809901174699188044e-08	2.453936744225047178e-02	8.490311105390616438e-08	1.581789525151957078e-07	5.114807443888480520e-02	3.916329446063200065e-08	7.906588954220214364e-08	2.309948186450938926e-02	5.091424944682103326e-02	2.564972186146653604e-08	4.647665899114748036e-08	2.659445455856065255e-08	5.393386473295300283e-08	1.360245873626042242e-06	1.022826748872514468e-07	1.675829214274029822e-07	1.030050725701038561e-01	5.193400779348240527e-08	9.929441689329624822e-08	7.065743249105907533e-06	3.548321904134172054e-07	3.201782651277509172e-08	5.781831686080157713e-08	4.112031557155621835e-08	9.066454261793191382e-08	7.581394227398254221e-07	1.837364348689625088e-07	3.372311253627694023e-07	3.806858427700995362e-01	8.234319433893359045e-08	1.647978124679958651e-07	8.855585094639893684e-02	2.720967755506432636e-07	4.330761642669908389e-08	7.426198625447456729e-08	1.013419515114111398e-08	8.128401438937724707e-09	7.663002282516766425e-09	9.790635869565718619e-09	9.347207864151159588e-09	9.201769337091643426e-09	9.167252274202904835e-09	8.843932408246735545e-09	8.647508646844054951e-09	8.067940385219110338e-09	1.007814015098766208e-08	1.073284163160814287e-08	2.540654241294454627e-08	4.177600521929701659e-08	6.022703301918447686e-08	5.114833822803395275e-08	5.510656253543556997e-08	6.008325933044844657e-08	4.683919661161876405e-08	7.112342523152924394e-08	2.067835535223869242e-07	6.892975280157347118e-02	5.984669465090042506e-08	1.836750750525888452e-06	2.216392125397015726e-08	1.836338700895067789e-08	1.734605761647733236e-08	2.251239985917672113e-08	2.125932548180233573e-08	1.931519581809923205e-08	2.150274797983230744e-08	2.082293077748776184e-08	1.880264254723174154e-08	1.682477049139062948e-08	1.957406101941944134e-08	2.183800921174378394e-08
-1.685540353963521839e-10	-2.472642948733685603e-10	2.309053410895360581e-11	-1.958121940589272678e-10	-2.111053490780618410e-10	-2.006121859357487210e-10	-2.009318390089859793e-10	-2.159091680788133473e-10	-2.143732867052960943e-10	-2.142945890367031640e-10	-2.117741610685813901e-10	-2.034585281576439950e-10	9.283499802993532706e-10	-1.622890964984467952e-10	-2.250008349949600361e-10	-1.072793461603707275e-10	-1.440580454036183795e-10	-1.522943733856412781e-10	-9.231834426368211969e-11	-1.671727217131797082e-10	-1.961050573173490746e-10	-2.063914934787217581e-10	-7.521919861080024767e-11	-1.429827027430673845e-10	-4.331993783284811926e-11	3.966500161822224391e-10	1.595982390138306339e-02	7.298460457366125847e-10	1.328662868821187189e-09	2.722169231404512978e-09	2.624697238297242457e-10	8.801345962882463671e-10	5.949666619457653211e-02	1.441051652126242588e-01	1.097759574482428604e-10	1.354406261568842244e-10	-3.134166898361554157e-11	-1.181502539023674636e-10	-1.498217577136084356e-10	-1.103185722229415924e-10	-1.304268043001047959e-10	-1.365820001316297931e-10	-6.758604725647004560e-11	-1.012049185773707029e-10	-1.238955339916465102e-10	-1.790424379666410029e-10	-4.110835281771399509e-11	-1.241956932234602672e-10	-5.449035560580825299e-12	4.042499718039449437e-10	2.603523788399619496e-02	1.202506338557793281e-09	2.548416682709720304e-09	6.366821270449721237e-02	5.367620433541207116e-10	1.761454511904872649e-09	1.376331017001036381e-03	5.023598235717473270e-02	1.208388059796516561e-10	1.977977672891904992e-10	1.421713476830713460e-10	6.828486487917403380e-10	4.369890149642847874e-08	1.698277048381296404e-09	3.294438191986603748e-09	1.098670984696572955e-01	8.239291697838687606e-10	2.244226958830747858e-09	6.915466674376022624e-06	1.029364659380410709e-08	2.477796748963741694e-10	4.204876545765278423e-10	3.678836757056735795e-10	1.138542982627688024e-09	1.052388392267522240e-08	3.076631720510711406e-09	5.812965215904338285e-09	3.598106984986031431e-01	1.240057946806320717e-09	2.794151218505403302e-09	1.011874075333459022e-01	3.999950756158571685e-09	4.413055652963210058e-10	7.200330977624527650e-10	-9.133574941841734446e-11	-6.900226207927560172e-11	-4.929475623454152202e-11	-1.414016634241028748e-10	-1.499501235227578389e-10	-1.282216240203007487e-10	-1.640081997861374729e-10	-1.595336829485151451e-10	-1.387069827993141202e-10	-1.078978105888417405e-10	-1.492138689252555705e-10	-9.361559046965263643e-11	1.315635597575327824e-10	5.497112928526700833e-10	2.021054515251853457e-09	9.674506483982681459e-10	1.383454945539586270e-09	2.437639122351631137e-09	8.120711339034356741e-10	2.023472934286506458e-09	1.705972458466608525e-07	6.825016228162193721e-02	9.386805296156598522e-11	1.379482027511396793e-08	1.111822434607253000e-10	1.160446285223609930e-10	1.975622199984471004e-10	2.601378490114618137e-10	2.913752824190917649e-10	4.514631518704930567e-10	1.652608647408137423e-10	2.171838874842452773e-10	3.972443840624401038e-10	1.347745826304019823e-10	5.950520614365929553e-11	7.385497737163356605e-11
8.354153498773224587e-10	6.577125089876532601e-10	6.367094718866987675e-10	8.179700135348127929e-10	7.757333540597448550e-10	7.602591896150757714e-10	7.816615234203922631e-10	7.403397432191907257e-10	7.144627312574036531e-10	6.465915756841967807e-10	8.069145322704927787e-10	7.780355746492135568e-10	1.785705546335636681e-09	9.849314409999871558e-10	8.055727340279354190e-10	1.128253429694228431e-09	1.041052970216609686e-09	9.814803040428219779e-10	1.206463276876589292e-09	1.039266007729962951e-09	9.262195215519365832e-10	7.868094819674882280e-10	1.306875769833274422e-09	1.088784225508357639e-09	1.635106101482364681e-09	3.451609343580609885e-09	2.093707616942512909e-02	6.001647405004606332e-09	9.011488430322913224e-09	1.785513368740665958e-08	3.398150536313727319e-09	6.457409458976134046e-09	5.085568364121843127e-02	1.394590989407481219e-01	2.503768540921306362e-09	4.051295647428584284e-09	1.625426155167893857e-09	1.157052047083555840e-09	1.048818111915434482e-09	1.399156060770204805e-09	1.311194116734940121e-09	1.271531634022164565e-09	1.405468922382674785e-09	1.293493883129430808e-09	1.218375931167388573e-09	1.029343963633302689e-09	1.391155249132013242e-09	1.298255397000084756e-09	1.779409298213629584e-09	3.550868486415282386e-09	2.014693764455618638e-02	8.831147544132506507e-09	1.608751240776887529e-08	5.719509820994745503e-02	4.432541975837345719e-09	9.491494988471636131e-09	4.532387682288985427e-03	6.534817797972530817e-02	2.617001360571317746e-09	3.995004064819052350e-09	2.660958787478258496e-09	5.625743800245095709e-09	6.436674952876345702e-06	1.131739612903481728e-08	1.861641047694107937e-08	1.207573296890239734e-01	5.876243615708594802e-09	1.167256605667256277e-08	2.054486017525114237e-06	5.434663712363140395e-08	3.360206604690948360e-09	5.302246667109990400e-09	4.120687182421725942e-09	9.083328566524480242e-09	1.346897036815266319e-07	1.949822297268991598e-08	3.630571204570566804e-08	3.481413641480899379e-01	8.773854308076463679e-09	1.718064432116329444e-08	1.067467313460636474e-01	2.670865279462363007e-08	4.381006046867473569e-09	6.684906361890851071e-09	1.034448461020247303e-09	8.793005491764744121e-10	8.764933030970296197e-10	1.102476670694327502e-09	1.061222127322666123e-09	1.053650179264090446e-09	1.037151193707616867e-09	1.013297072571208818e-09	1.005124133981702671e-09	9.202837428224162095e-10	1.087006960640955224e-09	1.064394064083426904e-09	2.652074475856113429e-09	4.372050198888438493e-09	5.330365932654515162e-09	6.309786689334079823e-09	6.846208979375049004e-09	5.956068193769793845e-09	6.028318097478755082e-09	1.237747983406336513e-08	1.269902654833267959e-03	6.460103355671560632e-02	5.520742240482961141e-09	6.170432158821793494e-08	2.376834378756433646e-09	2.168220015566323364e-09	2.176959936999734068e-09	2.744556402831858175e-09	2.656962753720642619e-09	2.676832169565484194e-09	2.560836206218462653e-09	2.567742597322707595e-09	2.610749531133175071e-09	2.076630498816121579e-09	2.164487165809923065e-09	2.325108856698450794e-09
1.241540749899990211e-08	9.633422085577554973e-09	8.663332234727538116e-09	1.158490522373910625e-08	1.096424922053352270e-08	1.072442829609127033e-08	1.128099372005661345e-08	1.063742548691599575e-08	1.021889147854353598e-08	9.160849756440715470e-09	1.168577976234352956e-08	1.158313675564471191e-08	2.655571003134216117e-08	1.465474140319676669e-08	1.185907718031343591e-08	1.604595296283686135e-08	1.500254031985505392e-08	1.414712281077075878e-08	1.743772979894777359e-08	1.501358620176356404e-08	1.337747785573402319e-08	1.145381275446677222e-08	1.922306280278276096e-08	1.605228837174360261e-08	2.493038413039892117e-08	5.686875824058485929e-08	1.613696773776602394e-02	8.666910295416279531e-08	1.279145871162531560e-07	2.535294855126051812e-07	5.082128184950243459e-08	9.772276548612635868e-08	5.142302142611165222e-02	1.477517604154868491e-01	3.849662652134139110e-08	5.868742665791577356e-08	2.388357522868637970e-08	1.690228748043547658e-08	1.505104026207364800e-08	1.970909480485419207e-08	1.845028987954748740e-08	1.786197594790836746e-08	2.001579189898600912e-08	1.832264019286110621e-08	1.716754851517473615e-08	1.466740701221821430e-08	2.031277561315169785e-08	1.907963681541673366e-08	2.686239980131189288e-08	5.667762951097245062e-08	2.359925980003739834e-02	1.308768663137131358e-07	2.398492221511824147e-07	5.905575929757767711e-02	6.894680038357146294e-08	1.536272462078081736e-07	5.560081870635126197e-03	6.791277517965627064e-02	3.959106386765251234e-08	7.253890791463330216e-08	4.022572990462203771e-08	9.245069744554262359e-08	2.330493302185188814e-04	1.625135968977503805e-07	2.680172590591279789e-07	1.012930775197121019e-01	9.163966347707823193e-08	1.945120176074101294e-07	2.891108916367586502e-04	1.326918829437670778e-06	5.125996682030754188e-08	9.381698775445337581e-08	6.220602332623690885e-08	1.523819375504853929e-07	3.033482917058626984e-06	2.824614551231009261e-07	5.166402878843807291e-07	3.870446815551039088e-01	1.333387747923756328e-07	2.688479765748651068e-07	7.802910482985912777e-02	5.412305589638881261e-07	7.026509716525857185e-08	1.201029014014015403e-07	1.562644398926318872e-08	1.313754689588530692e-08	1.275407823455326949e-08	1.578470121468181673e-08	1.515284912765955315e-08	1.500877722947759100e-08	1.511538344891348900e-08	1.470026323952173226e-08	1.450385795201125385e-08	1.320771938440213455e-08	1.598954152723659324e-08	1.643003036198217221e-08	4.146364726400875776e-08	8.553282119081331052e-08	2.331950511454886201e-07	8.870100748098099556e-08	9.867239224577753268e-08	1.115798884045829592e-07	8.724880355958773999e-08	1.691539033028472329e-07	8.447374904413473481e-03	5.321164759132922251e-02	9.513845326926378349e-08	1.124170393120162248e-06	3.408568785326324626e-08	2.983004297675691324e-08	2.838496210299088514e-08	3.577755248412405066e-08	3.417000519156969540e-08	3.215758704614651365e-08	3.484661509236962514e-08	3.416430884160282381e-08	3.289364283598384745e-08	2.736196142676029341e-08	3.084245725349427908e-08	3.314485841606574458e-08
-1.784104399060124330e-10	-2.207444667863348843e-10	2.617794312232308644e-11	-1.767415821699658643e-10	-1.871842278244385450e-10	-1.729291564538261241e-10	-1.880958077987471756e-10	-1.946495031300008669e-10	-1.899739749168864089e-10	-1.939172620946770480e-10	-1.944336309388991440e-10	-1.918079794921556213e-10	8.473390226440430923e-10	-1.720416251722443705e-10	-2.132994878504307183e-10	-6.698481227755645753e-11	-1.608491558653657277e-10	-1.641954670252728359e-10	-1.364851601731895283e-10	-1.727676996578482994e-10	-1.901860904752729023e-10	-2.038631845687738971e-10	-1.320428175660911154e-10	-1.248459087869888666e-10	-6.705318412991487375e-11	2.733261977134515726e-10	3.666249535864802948e-03	5.049807033676504489e-10	1.039383269847113108e-09	4.621950233681034934e-09	1.250050374086787802e-10	5.319645325354943912e-10	3.956225543461419636e-02	1.768249853311612274e-01	2.679783768302424356e-11	-2.678086924077528134e-11	-1.967796064022441897e-11	-1.321421600106312371e-10	-1.557985649778629534e-10	-1.078985621332943854e-10	-1.263212690743147968e-10	-1.271030860071925070e-10	-1.205576575293100885e-10	-1.176262236598068026e-10	-1.147868874902208785e-10	-1.598691543769727031e-10	-1.207508230884580355e-10	-8.269117739613586653e-11	-5.671223374075717018e-11	2.254491110982673683e-10	3.581669550084360526e-02	7.814166170235691480e-10	1.694050294519914638e-09	4.975496883432433542e-02	2.246759142288096862e-10	7.393272779534704315e-10	1.610442925762958777e-02	4.165649041346772968e-02	2.952893447970584346e-11	9.250903787820409074e-11	5.045388332175994261e-11	4.610158223059431992e-10	8.678714886418381831e-08	1.139562677607121262e-09	2.231089261661626774e-09	1.091441103631016624e-01	4.232042534262882419e-10	1.089200112084708759e-09	1.663144688970688443e-07	5.817443904362903886e-09	1.186394348984105437e-10	2.220787399456147295e-10	2.221448890387706722e-10	9.178676516644362137e-10	1.789344024325711385e-08	2.069369315350029964e-09	4.072560297953920715e-09	3.623823785871709280e-01	7.808911487042382521e-10	1.766491273182797684e-09	9.505278404794534342e-02	3.246358109717342048e-09	2.675282285442272932e-10	4.267829556887086441e-10	-1.395300003618659612e-10	-5.264832865569696425e-11	-2.115556207417642130e-11	-1.280924597516987514e-10	-1.300169169390943082e-10	-1.060720405594412509e-10	-1.555318921768453842e-10	-1.471194678642325792e-10	-1.229211258586160580e-10	-1.284027563821577323e-10	-1.473117764326298042e-10	-1.313998538230099863e-10	4.637901915413585453e-11	3.825318583289138393e-10	1.391308401516423826e-09	5.975523707543864232e-10	8.647780212373492401e-10	1.395206380865926980e-09	3.988807263618383092e-10	9.210536036506394680e-10	1.315650562564996207e-08	7.003432210968699168e-02	-9.388673340760421290e-11	8.805144768023756748e-09	2.722663622347871008e-11	5.522685369855842049e-11	1.321404003428195186e-10	1.535799008262204060e-10	1.741755494658461966e-10	3.234758304906057203e-10	7.897335632828709716e-11	1.087025441002784385e-10	2.508010891357594196e-10	6.035242627650437276e-11	1.048375214351927261e-11	1.439681317933574608e-11
-3.569708969127585671e-09	-4.192474221088863211e-09	3.421138135702856815e-10	-3.398148773940310827e-09	-3.891002145146249509e-09	-3.512242594713771460e-09	-3.533310104479259638e-09	-4.032477989311472701e-09	-3.988229876338456762e-09	-3.325100633936029901e-09	-3.844407775360633457e-09	-3.700106524059115227e-09	8.985857046132141628e-09	-3.736138996587888220e-09	-4.316545265314347915e-09	3.943181728575147148e-09	-2.874010640856145212e-09	-2.888167197115362609e-09	-6.015031459482404502e-10	-2.887826120799548260e-09	-3.710530387603249021e-09	-3.738607900932158445e-09	-1.705343746075505466e-09	2.785047134433813658e-09	7.848397918007800994e-10	1.247513463293753866e-08	1.547645400810285926e-02	1.839159348888539047e-08	3.125932719063393378e-08	7.164285062964718255e-08	8.509200442671006561e-09	2.376217405550816726e-08	6.459437485167919546e-02	1.406460382330473324e-01	4.317641514531251449e-09	1.615277765107669241e-09	1.685623792134990948e-09	-8.998893741082974270e-10	-2.665932803820120018e-09	-1.277407383973754310e-09	-1.795175573441199885e-09	-1.664410307240297774e-09	2.051192390503578947e-10	-1.173019764971622365e-09	-1.761745018114554896e-09	-3.116948342887107792e-09	-7.607662492250709331e-10	-1.627981684440902168e-09	1.558215500858717323e-09	1.231006964222220657e-08	2.256346262960965202e-02	3.179676982797559856e-08	6.629281382267736855e-08	5.618735521744770700e-02	1.452749457873469737e-08	4.336647143197816131e-08	7.123526587037969267e-03	6.053418319768014144e-02	4.613726294088887530e-09	6.919306560445681340e-09	5.612120695885446126e-09	2.053891009630766653e-08	1.151221276975604903e-06	4.402381180741660120e-08	8.388565762197204549e-08	1.040941719083432887e-01	2.205789760039306151e-08	5.597768816906334905e-08	1.196446552494014924e-05	2.302481259859547564e-07	8.097355195404125337e-09	1.190147302227187478e-08	1.268596053858886320e-08	3.738843479970181460e-08	4.240357243017515475e-07	7.904111170885315896e-08	1.510099348310950156e-07	3.748466910552486486e-01	3.405638235451265006e-08	7.540052255410523832e-08	8.033464453218917833e-02	1.084136717322409427e-07	1.381182386951877326e-08	2.126528187710691068e-08	-1.604150727272548360e-09	-7.211088334797414876e-10	1.905905730277432956e-09	-2.045466501423453024e-09	-2.240026180986498608e-09	-1.611607242542626117e-09	-2.525224553499971876e-09	-2.427482505962486959e-09	-1.869397676093151295e-09	-1.929984687270742378e-09	-2.403069412181298554e-09	-1.798662198393940693e-09	5.890412992233866191e-09	2.043540610777598688e-08	8.305717137169020567e-08	3.231575615729952200e-08	4.954628564531434773e-08	9.788074453358131047e-08	2.831626276439446181e-08	8.331571340200873965e-08	1.134448705458580798e-03	7.244899626117801139e-02	4.538570678384747153e-09	3.432129043114016178e-07	4.799772310052215790e-09	5.062562717659660022e-09	6.222140517527383464e-09	8.163800700370314378e-09	8.730934300031563026e-09	1.257148397839893035e-08	6.213682775894003206e-09	7.225893481234324646e-09	1.029851561379417429e-08	4.504196220817047993e-09	3.202852703233029624e-09	3.538807680658242734e-09
-1.708663317903984996e-09	-3.890212742735919475e-09	3.697911865831809554e-09	-2.371279268081076595e-09	-3.115391797746608728e-09	-2.873624230947905010e-09	-2.582504802118651918e-09	-3.382126620372749113e-09	-3.532207362555050869e-09	-4.039456515797327988e-09	-3.029817431843104107e-09	-2.644774329702830209e-09	2.265235179084111505e-08	-2.041227582789526373e-09	-3.217741744878267462e-09	5.641236420579340373e-09	5.142779326209483319e-10	7.694776646532629781e-11	2.278952293495203640e-09	-8.110398185799589294e-10	-1.847727968887775474e-09	-1.726002953727620097e-09	1.809763512514242651e-09	2.451195594594173503e-09	6.952008050472227551e-09	3.099144862740571472e-08	8.828284518954827506e-03	4.680052049996024670e-08	8.169175742264652432e-08	2.631025978840108761e-07	2.151262148338340618e-08	5.265821974540873451e-08	4.613506713058414255e-02	1.566094604771430532e-01	1.285263764149290283e-08	2.227191167851614666e-08	7.047153168479793270e-09	1.605208535047390698e-09	-3.788463339571908758e-10	2.225899244390138949e-09	1.293881858605953647e-09	1.009076427089589017e-09	3.255420195961378728e-09	1.885383967274209575e-09	1.188035871683280877e-09	-1.053749149560186769e-09	3.735125683139342220e-09	1.828185834834649519e-09	7.478059569086167742e-09	2.757952561479301728e-08	2.593197608283853359e-02	7.198714913159503126e-08	1.479934764128368705e-07	4.071876768062034080e-02	3.009521075689515524e-08	7.500788710143862041e-08	1.398713628084952490e-02	6.042826401290152250e-02	1.307669868745905201e-08	2.325263424942909636e-08	1.684367289326914047e-08	5.347351165963840802e-08	1.390500437007880972e-04	9.886229906707127306e-08	1.903879922643222904e-07	1.136192436491357399e-01	4.446073759648182809e-08	1.004417560020137765e-07	9.473369022635840818e-06	2.119942662020521687e-06	2.087348502316361160e-08	3.528888536244193616e-08	2.959523322831417684e-08	8.326171661311992530e-08	1.391031701014643094e-06	1.631122855648368401e-07	3.135130931239572395e-07	3.628855200812523552e-01	7.007822257022715791e-08	1.481060864009209273e-07	1.011597716632356564e-01	3.579275818236205755e-07	3.147773081306619053e-08	5.091526155751033291e-08	-4.678755756163933588e-10	-6.345048622163783072e-10	2.502899963260486176e-09	3.072100225534434300e-10	-1.610897032055889681e-10	7.504494141352127669e-10	-5.420738385226575089e-10	-5.109099348820073040e-10	2.940771575921046334e-10	4.896452023557158713e-11	-3.184028484962113771e-10	1.783635861836016931e-09	1.695597391207219121e-08	4.596481629610242520e-08	1.544678956625587205e-07	6.878328614320670208e-08	1.015923762204475522e-07	1.927233072344381527e-07	5.436164639844112233e-08	1.396923541877195392e-07	2.740825518735600600e-03	6.679929609623309894e-02	2.541810573831052462e-08	6.139144308040717526e-07	1.312884167791713519e-08	1.285177701633809088e-08	1.398382113473744542e-08	1.653090258565276699e-08	1.667049238137902076e-08	2.102455782053054934e-08	1.390317143410708578e-08	1.420555226785334058e-08	1.722410964783752683e-08	1.154586659080448802e-08	9.811893576819975212e-09	1.073934040826957313e-08
2.634856991345172703e-08	2.046440078256842841e-08	2.044131356762550235e-08	2.622302670577109309e-08	2.484950621383752290e-08	2.436814448719707877e-08	2.479432529835815534e-08	2.345859961310592563e-08	2.262836041078378649e-08	2.039531819776085567e-08	2.547095696116924999e-08	2.444769710889768672e-08	5.621037861633905048e-08	3.048162329792646527e-08	2.509025221771309608e-08	3.613209587444333318e-08	3.275732284322085249e-08	3.090854647415132557e-08	3.818344716368179029e-08	3.273245368797170755e-08	2.914821110923441289e-08	2.479209345374100581e-08	4.141076158141150742e-08	3.431191699974144300e-08	4.981490145555378550e-08	9.624598196279826127e-08	1.703438662595389841e-02	1.965879666381643590e-07	2.952792129325353991e-07	6.259063615695394537e-07	1.067186363440328812e-07	1.977195240468762791e-07	3.729846666818725093e-02	1.572029926499361463e-01	8.224767014786637324e-08	1.290509696217675280e-07	4.998891162431529515e-08	3.528510426156554233e-08	3.229768431652541366e-08	4.457911582485580352e-08	4.172432996343031492e-08	4.041016135113275456e-08	4.465558079450927934e-08	4.088308837677420233e-08	3.845758830084673396e-08	3.256994176997400994e-08	4.436500063328195349e-08	4.129978027974298904e-08	5.637429091792054455e-08	1.065381421058693078e-07	1.606826291097042739e-02	2.891660446135321001e-07	5.284810359598154112e-07	5.356166767621838715e-02	1.335685280594810407e-07	2.635462300020378919e-07	2.136008108507686867e-02	5.593304472903352226e-02	8.676921076528227213e-08	1.393251386442533485e-07	8.004957094468116267e-08	1.536232542742076931e-07	1.325031250326144619e-05	3.505203576808789273e-07	5.424846122971162604e-07	1.071938937583087476e-01	1.814563757047546170e-07	3.435895701980633520e-07	1.104388831379868010e-04	1.446102338531345908e-06	1.106531843280301028e-07	1.824984507231477499e-07	1.192240976533771186e-07	2.341507695940817505e-07	1.299059584390137989e-06	6.364148320229303176e-07	1.193045981091069686e-06	3.733902877530374531e-01	2.851849503737762369e-07	5.647191825727773251e-07	8.792281730832865461e-02	8.345124248046087508e-07	1.456204328403360749e-07	2.273135233467020301e-07	3.202677032496107901e-08	2.685704846651398920e-08	2.680081692828411005e-08	3.439132597293701087e-08	3.302179045739356501e-08	3.272457323791093799e-08	3.214927169150528637e-08	3.123534499657190768e-08	3.086386544483282961e-08	2.847774671648539424e-08	3.415674153799725750e-08	3.271586652844881788e-08	8.085773943419708397e-08	1.359507472514875294e-07	1.787995452286921759e-07	2.109927705496689831e-07	2.434095867065261831e-07	2.827358733365859725e-07	1.864036203854120653e-07	3.540987477709530653e-07	4.044749741559722418e-05	7.285028236876391061e-02	2.422323744253485545e-07	2.970531782271696052e-06	7.125598532794622078e-08	6.441863485520911653e-08	6.499229877140096471e-08	8.870619730848385426e-08	8.571614551793051929e-08	8.862908508766021696e-08	8.170344884576853649e-08	8.162322808740371082e-08	8.398465981183490453e-08	6.638550818788930993e-08	6.987560971018800590e-08	7.491942719379486285e-08
4.892472539092092458e-10	3.814766246326239328e-10	3.633693567023860686e-10	4.733771875149423001e-10	4.489056186622609039e-10	4.397727363276425698e-10	4.542361721886909745e-10	4.299676157522913399e-10	4.146918532322172519e-10	3.738189125849154896e-10	4.688954174055639030e-10	4.584679715423060908e-10	1.039120898949967938e-09	5.745932460949960093e-10	4.699083763453126750e-10	6.520985262372461962e-10	6.075382971655604022e-10	5.731858152078297829e-10	7.036906627537220203e-10	6.049064558626513165e-10	5.393127009861458089e-10	4.617441739799127385e-10	7.743627421918912147e-10	6.447663395317399511e-10	9.479777088262817912e-10	2.004565393405819987e-09	2.317593431064366230e-02	3.493693541788809725e-09	5.243450121060824642e-09	1.069436639602696285e-08	1.980304254887799059e-09	3.765311256872098328e-09	4.531625321961853248e-02	1.433286961368135382e-01	1.528951582103226427e-09	2.258829440444683749e-09	9.210245663633400164e-10	6.557951921587449712e-10	5.962541958151298907e-10	7.998292388554699360e-10	7.492281469948942313e-10	7.258240419894538360e-10	8.070049946468238893e-10	7.413151964400577316e-10	6.969133223739149166e-10	5.924748216397688164e-10	8.167291444309411469e-10	7.633101076430470698e-10	1.040717363805244981e-09	2.114824142686849492e-09	1.382683891561432322e-02	5.137745010252994708e-09	9.445027653467712437e-09	4.997276379426115328e-02	2.696355921318975474e-09	5.977198488650562459e-09	1.275022071780633525e-03	7.688407940743526015e-02	1.576292163348280966e-09	2.589099648766977256e-09	1.499944018064353952e-09	3.097601508760669244e-09	4.000667489511129849e-07	6.480812007972820758e-09	1.050946579090772460e-08	1.180325565826971373e-01	3.490788674313662696e-09	7.020622221855743787e-09	1.917933343934662978e-06	8.563317983969707024e-08	2.111357517696219433e-09	3.583767867108718532e-09	2.239889532938095886e-09	4.764027294674833010e-09	4.382493749758543525e-08	1.133055219868261251e-08	2.119696135992576492e-08	3.399289801840291170e-01	5.182729288469456847e-09	1.023698686455211626e-08	1.199409628175907433e-01	2.194484700546191974e-08	2.875434125203267990e-09	4.726180290027568440e-09	5.991444335683666346e-10	5.055723693039896081e-10	4.994387654063385826e-10	6.296960407505506483e-10	6.054515050571769955e-10	6.002773385446541487e-10	5.969047990080663676e-10	5.812946402635218100e-10	5.748936055757068479e-10	5.274754559903837001e-10	6.335051450725962662e-10	6.280809432777263550e-10	1.481679786282716389e-09	2.584760456441440940e-09	3.843763158850007175e-09	3.457573052315114571e-09	3.714026100333953330e-09	3.458817260852505212e-09	3.372883266187327613e-09	6.298503256038473393e-09	6.270750565186297351e-03	6.204439416244297845e-02	3.933257767940113805e-09	5.863227991126737793e-08	1.311488853797976655e-09	1.168216579130416651e-09	1.177224391971549119e-09	1.507819470965329481e-09	1.453509614183012858e-09	1.449449127290736008e-09	1.431481191799721498e-09	1.418447477620902559e-09	1.421489697757359222e-09	1.159910936570941205e-09	1.267013581651382936e-09	1.354510738651188020e-09
