-7.220124123728311297e-10	-5.056572211375458220e-10	-1.073766393982725707e-09	-8.078911610648562651e-10	-8.164729547113591563e-10	1.143132114631440758e-10	-7.370441769530328360e-10	-8.002087298023198591e-10	-8.802744892867096936e-10	-1.208274279417796624e-09	-7.135048377031919114e-10	-6.491439521414600861e-10	2.390331914623707894e-10	-4.891156552576528465e-10	2.696163685435349705e-10	-3.060431373219566908e-10	-4.430804423305884895e-10	-5.068187408696728650e-10	-2.255369408967750350e-10	-4.999427575007377029e-10	-6.124780907066649567e-10	4.084774220032254284e-10	-2.032128798174950027e-10	-4.169974295693526453e-10	-3.163242604880960180e-10	1.164858810060790881e-02	-8.182022685742859793e-10	9.648682503383465033e-10	3.718293991022209306e-09	5.901782539278005446e-02	-4.024534029744881183e-11	1.131234150120545765e-09	1.205114649220198342e-01	-4.347629335231987294e-10	1.400516403190754634e-09	1.825190653619976691e-02	-3.181324960461901894e-10	-4.518671996031167244e-10	-6.602155394195072964e-10	-4.943759333369584343e-10	-4.577189730132358645e-10	-4.652847036337587489e-10	1.519435474407735096e-10	-6.093382987440044734e-10	-5.888831754963766266e-10	-5.645171646307994279e-10	6.664706926398764056e-11	-4.748018173932169124e-10	-1.930905529749840726e-10	1.778422040530396455e-08	-5.961891595600975612e-10	1.404010096622582707e-09	4.662276535691618661e-09	1.457136019894035295e-01	2.341336599580370918e-10	1.569224633098244309e-09	2.097065367079467995e-07	-2.330478668628664071e-10	1.048419866509226496e-09	7.146606507571847252e-09	2.124029667681447106e-10	2.739487569772909132e-08	-4.237375262654538992e-10	2.390833716762064080e-09	6.714519863434370242e-09	1.067981339894397697e-01	7.442956665509268677e-10	2.442060813334875246e-09	1.025831065985443312e-07	-1.338255359544045378e-10	1.420192862113294011e-09	5.473666355070253459e-09	5.719197579222798708e-10	9.970532014055024278e-08	1.790077388260418948e-09	4.076375189213320029e-09	1.064304293259968278e-08	4.073373742952641763e-01	1.698221175987600419e-09	4.416606958386007066e-09	2.097411674262961850e-02	8.029586896106755979e-10	2.309558213443649797e-09	7.199272987154708775e-09	-5.720435760561866236e-10	-1.272293891906920719e-11	2.786092828311487625e-09	-2.019518305334863049e-10	1.133739063470640580e-10	3.684957784928753609e-10	-4.770359888357960852e-10	6.749641871576151797e-12	8.262471571077798213e-10	3.039768955080379349e-09	7.551996063873773459e-10	1.490714847754505120e-09	3.279845839638881357e-10	1.499540218094633674e-08	-5.520770537906210324e-10	1.747398273477638450e-09	3.713565743205083001e-09	9.815649073527335849e-09	8.494146714054229630e-10	2.827325032084874390e-09	9.038471389417950322e-03	-5.902266139371372822e-10	4.326274759954800266e-09	1.007079523561342088e-01	7.312801296986196821e-10	1.198228492483372390e-09	-8.099050649168400037e-10	3.288817901115842012e-10	5.879410382550641719e-10	1.317628599878610518e-09	1.570008288030592638e-10	2.755350133267695804e-10	8.075766277917158280e-10	-5.911239358840717944e-10	3.875305385974459239e-10	5.942876877739153894e-10
-2.126888226217517359e-09	-2.287770167859757415e-09	-2.458692072796355854e-09	-2.565095648374443708e-09	-2.482320419797352718e-09	2.770907505695063583e-10	-2.434730548356057215e-09	-2.495018029173066348e-09	-1.535801343832599490e-09	-2.365490120586321318e-09	-2.217489833720593698e-09	-2.270112236940843505e-09	2.553215452177899340e-09	-2.090912640074046669e-09	3.757452899170533557e-10	-1.333331985890724253e-09	-1.647945576832890704e-09	-1.846646566255620598e-09	-1.006179150249484985e-09	-1.887693173639964011e-09	-2.171397337719745852e-09	5.119101532544072789e-10	-1.028308122890670372e-09	-1.423390206493227648e-09	-1.035589612141852735e-09	1.126278959938261173e-02	-2.134437728251576700e-09	2.337848451047508099e-09	9.878082233068383553e-09	7.055002210943704666e-02	-4.169242035159679912e-10	2.764925482416955587e-09	1.059968030305769304e-01	-1.406147922141703149e-09	3.530863317775108990e-09	1.600462619069188686e-02	-8.838970696189774433e-10	-1.205066053367955033e-09	-1.410560158568144390e-09	-1.317426527151717421e-09	-1.788194611822318249e-09	-1.772965237825358529e-09	-8.934856352764471493e-10	-1.623923722653734102e-09	-1.636879812245084214e-09	-1.292325068450934300e-09	-6.653930874047987148e-10	-1.209870965848106563e-09	-6.945562725479241762e-10	3.795169147999778073e-08	-1.369078674522912811e-09	3.513938079605262892e-09	1.239445915813936785e-08	1.438628144541645171e-01	6.028636395883052885e-10	5.083904603223346254e-09	3.057323697086289545e-03	-1.311815244182203275e-09	2.147409074927901951e-09	1.592610447460361135e-08	5.150331687703876300e-10	5.091400837538988573e-08	-7.832604966153034882e-10	6.207556412203578494e-09	1.805771712771631377e-08	1.052401257248028188e-01	1.957871648994074436e-09	7.096216992510802688e-09	8.787853635184979942e-07	-8.996046732876051447e-10	3.043264187119207390e-09	1.280726306957716689e-08	1.395679355448932222e-09	2.239438655835875391e-07	5.394495878590538813e-10	1.084591325702543647e-08	2.891687870692720370e-08	3.886326665406955594e-01	4.265129916269769667e-09	1.157829401066280371e-08	4.552984263513867869e-02	-1.597413002406607022e-09	5.689935633748889730e-09	1.942497186130463608e-08	-1.573259874481948740e-09	-3.506717597774148194e-10	3.990206875374270951e-09	-9.836274341752913062e-10	-6.534989588359930828e-10	-1.769737619388777869e-10	-1.304142440779100449e-09	-6.422928107273610763e-10	4.008965629731721995e-09	4.660366096881668165e-09	7.199758494230134503e-10	3.138575568713475701e-09	1.799396484965577155e-10	1.569784907679944585e-08	-8.489664139871792445e-10	3.234056618939695629e-09	6.639372760562918211e-09	1.315765056369656217e-08	1.572710819134534132e-09	5.228142415912816353e-09	2.768195262732286165e-08	-1.323339088828839206e-09	1.354921727165038219e-08	1.098615527686486321e-01	1.815203485557163024e-09	1.904045703560920441e-09	-1.308449296973858111e-09	8.428865037910195082e-10	1.401278683943198370e-09	5.731870104271031710e-09	6.067784116012141442e-10	7.497712973340040075e-10	4.923258556655267081e-09	-4.636012379530623965e-10	8.526278799397902964e-10	1.781060688281722552e-09
-4.077774903192966261e-10	-3.542040456117562121e-10	-4.356900060566062314e-10	-4.465369008982130777e-10	-4.222568516723783837e-10	1.486426544930894302e-10	-4.672476386275999822e-10	-4.374590201608489251e-10	-3.950324761755551646e-10	-3.565694978102319435e-10	-3.618096854006122638e-10	-3.046145602661675321e-10	9.476578039407096707e-10	-2.739013094961486749e-10	3.725882969009116163e-10	-9.283976504327369472e-11	-1.914666182496959563e-10	-2.447312312253006674e-10	-3.103862318156428672e-11	-2.273259530889902504e-10	-3.140188415548998595e-10	3.875594619435160916e-10	6.321481510000752039e-11	-1.423019893197090745e-10	1.526968450899301532e-11	1.084204280882888373e-02	1.762331211908204154e-10	1.141978270330825475e-09	3.692225035500676385e-09	8.316539319249197093e-02	1.977182204190137128e-10	1.257241132382880451e-09	1.136201498039291075e-01	6.406448786803370372e-10	1.754407640759672517e-09	5.491731456823824124e-03	1.164409933334244966e-10	-1.237589336023411014e-10	-9.339761528223585543e-11	-1.703136608861723654e-10	-1.010645068670562769e-10	-1.378817185966790216e-10	8.960841397024464946e-11	-2.462375785719772524e-10	-1.960943747517623650e-10	8.551827332715463422e-11	-1.324947751176367312e-11	5.424259929342718036e-11	1.566059020528136877e-10	2.059479435313546442e-08	4.185477100133783551e-10	1.535687692070629059e-09	4.530068626555460851e-09	1.391725246257936310e-01	5.123651334119228253e-10	1.862221147094296654e-09	8.421979738851433054e-07	9.323355220613448471e-10	1.088382317287076218e-09	5.017536604021367682e-09	5.442726201643174755e-10	2.125925217813966415e-08	9.940021244805166533e-10	2.450706927616878471e-09	6.473844072440216913e-09	1.152857191978466089e-01	1.015326434851285115e-09	2.747135808360363247e-09	3.831890860867048322e-07	1.472686356849693728e-09	1.332104149813459874e-09	3.890145125160506901e-09	8.186393070233629640e-10	2.928535867268259259e-08	1.809776881515896451e-09	3.983731833167721593e-09	1.005527596031887878e-08	3.636203893557528599e-01	1.738125222255326221e-09	4.211287039270537014e-09	6.072095922354579095e-02	1.575661083091183016e-09	2.254899521392280289e-09	6.012319351327625272e-09	-5.088745074742655231e-11	-2.152006413634041655e-10	3.628736126674820869e-11	-2.269790811275551606e-10	-2.245200954073473162e-10	-1.950672874644059201e-10	-2.214305839516309554e-10	-2.264476244788123366e-10	-6.580195534073653457e-11	3.761473002372573265e-10	-1.011885895957082235e-11	-9.110439288590298461e-12	6.254278201540451094e-10	2.402180130712324218e-08	7.615564371483439180e-10	2.438582419434443893e-09	5.882030866062078225e-09	2.529310433587427266e-08	1.293564582111616493e-09	4.311804194273534948e-09	4.956284906748356341e-04	9.722995086524579846e-10	3.918998828431287714e-09	1.075840130702620662e-01	6.517390885290314839e-10	1.505592006074626840e-09	4.391601125670497570e-10	6.415076899169757148e-10	8.709215134320008298e-10	1.382622996460590374e-09	5.229791730193911240e-10	6.084570442089670302e-10	1.110562026849756137e-09	1.005132952737540932e-09	6.224799216431160773e-10	8.143288903887122673e-10
-4.630182062387690241e-10	-6.432487838212941921e-10	-5.766694360409203614e-10	-6.944851364071827916e-10	-6.120650883178216040e-10	-5.535323075135494813e-11	-6.620757842308941804e-10	-6.604204759064306434e-10	-6.172372734827299929e-10	-5.238420936540349183e-10	-5.726815461062676162e-10	-5.392452105993724221e-10	4.834337867998117969e-10	-5.474030217959809596e-10	2.108926182507332107e-10	-3.425024160263934256e-10	-4.479343234589568386e-10	-5.003940542360119909e-10	-2.248492090941438618e-10	-4.978154786995831240e-10	-5.809276709794530247e-10	2.491702146114768388e-10	-1.545294523541191242e-10	-3.348353278300070898e-10	-2.711129377517781791e-10	1.302435677576378563e-02	-3.507091965134165283e-10	6.661597303422618396e-10	2.783910492996137583e-09	6.032512029625072131e-02	-9.963592738006932794e-11	7.893245465273277908e-10	1.173026795943377942e-01	-4.131135037695196049e-10	9.886051797177111694e-10	1.591925310372030444e-02	-2.193756874987842687e-10	-3.622171411923016965e-10	-2.987295859238081536e-10	-3.989783312832534744e-10	-3.657925259306372434e-10	-4.251302367321953242e-10	-4.824815564151602086e-10	-4.258465491169799079e-10	-3.539163498264330319e-10	-2.550684355105525073e-10	-3.078028208950140875e-10	-2.054463661239087684e-10	-2.189546334697451518e-10	8.522503432585743087e-09	-1.219612131467924348e-10	9.963096518310246056e-10	3.495940516939665481e-09	1.465624590646304737e-01	9.907219472369368759e-11	1.104101692932245281e-09	9.627387267863063903e-08	-1.392963770250916407e-10	6.912154976163780767e-10	5.008181599621825495e-09	1.710335646467296808e-10	2.198754679954029525e-08	1.417831748834772946e-10	1.779113364863778107e-09	5.165243575216630065e-09	1.266042787760286448e-01	5.601221616513681044e-10	1.737925179074257146e-09	5.080803975184927079e-08	1.004874781152368430e-10	1.008581303128981941e-09	4.116737026316494212e-09	4.503276304643087039e-10	2.308885567124568831e-07	7.934249633940165642e-10	3.061362490117999787e-09	8.091401997342452546e-09	3.706367266785692838e-01	1.241447386962229084e-09	3.261451378429947595e-09	4.655179888691169526e-02	4.411136643406008950e-11	1.669484432814151776e-09	5.668029391726410612e-09	-3.674819348832052442e-10	-4.018532650470189411e-10	3.701361184435606843e-10	-4.815447375042390259e-10	-4.380837612820091295e-10	-3.490112170267904575e-10	-5.236101504181051206e-10	-4.778993046789590857e-10	-2.635236431101883686e-10	6.213537805361935848e-10	-2.644715683122071659e-10	-3.846922669391533067e-11	3.116452440505816022e-10	1.122649933386152453e-08	6.824041740269771089e-11	1.314358083953669307e-09	3.020338438325417118e-09	8.918877936472576416e-09	5.910373670710794174e-10	2.202575116663944849e-09	8.717530894390219248e-03	-2.139263342681472377e-10	3.006100880561342943e-09	9.435531187477036452e-02	3.335046298438428108e-10	1.457832720543096431e-09	-9.690691754906539317e-11	3.085261598838043623e-10	6.000310244525841346e-10	1.595290202929867982e-09	1.173123830032323043e-10	3.084618769286492662e-10	1.115698146581017490e-09	4.205115506157680405e-10	3.341394706273861605e-10	5.871355386544899067e-10
-6.083463762445409554e-10	-8.099441895002605377e-10	-8.550268571305759733e-10	-1.024420613052064118e-09	-1.049758459821274257e-09	2.887701453663316697e-10	-8.843731374123220446e-10	-1.029484408718847205e-09	-1.083736986745787568e-09	-7.851515409699631093e-10	-9.457413279275144988e-10	-6.470371172159862984e-10	4.370177229838337025e-10	-5.208128201039596799e-10	5.665048983116635396e-10	-4.308673650218222960e-10	-5.188652958496460290e-10	-6.053367838585236859e-10	-2.657070297866871392e-10	-6.449159600658964921e-10	-7.846380446685397007e-10	4.345011592075285027e-10	-1.453441487514196080e-10	-4.941830074835265438e-10	-2.684685683085464386e-10	1.166738292290101821e-02	-2.946286931334197185e-10	1.422018469033286452e-09	5.257930845061779844e-09	5.650568026783445164e-02	2.412083776834955791e-11	1.627469609875932716e-09	1.209820798740498388e-01	-2.101410694731248222e-10	2.212784122068875527e-09	2.154274670980035541e-02	5.086666170185432228e-11	-5.408389280081629980e-10	-3.477382512573192265e-10	-5.008342608807289453e-10	-5.199674117263184482e-10	-5.628936357887408757e-10	-5.862398162780558131e-10	-5.665885972302035788e-10	-4.714823823287259716e-10	-1.217847101264281557e-10	-3.216860473449553459e-11	-2.882831045464352998e-10	-1.644310137239359136e-10	1.924201040433751794e-08	1.374593267396843116e-10	2.010585196000468727e-09	6.526028462486528722e-09	1.561743686378628537e-01	4.761547806647660241e-10	2.370290551325023256e-09	4.302731172171816616e-07	2.758100487988585467e-10	1.460718279640666835e-09	9.824249212727933156e-09	4.560345965844100479e-10	4.241811493323971851e-08	7.572001708385937028e-10	3.395911118813164294e-09	9.392631885525011205e-09	1.060974630640249688e-01	1.356827937833115478e-09	3.645589587946325663e-09	3.211818962855365703e-07	8.885207710330799973e-10	1.962491979772742511e-09	7.436106804719978283e-09	1.215539822909228074e-09	2.025537958066401688e-07	1.797768782575328848e-09	5.687603256687465209e-09	1.477847841022461115e-08	4.053214811300824283e-01	2.445583349408704807e-09	6.349732292441183508e-09	2.533296006587587926e-02	1.014950585432231561e-09	3.584321887617256023e-09	1.273430688878342457e-08	-4.253086667114468731e-10	-5.137157937660994819e-10	5.493165499467556845e-10	-6.341904160255327817e-10	-5.725708053889836341e-10	-4.824570801046293793e-10	-6.853105913521070781e-10	-6.040690630142717056e-10	-2.919809866337568824e-10	1.154450760951479341e-09	-2.160438605965546863e-10	-4.433118360731201993e-11	7.361154729580424565e-10	7.650596444999488113e-08	5.511204389550765517e-10	2.622846285498702838e-09	5.705306606289095319e-09	1.612984274721094700e-08	1.291449426932870399e-09	4.387067481313573744e-09	6.131317056197260230e-03	2.000966163942660462e-10	5.803467261248003594e-09	9.024328649098743715e-02	7.895367580742384235e-10	2.252163905726944655e-09	2.656247277059211607e-10	5.687270327764949681e-10	9.900791876668519526e-10	2.076700886635631568e-09	6.559907896971650726e-10	5.227772381210503848e-10	1.425643016878916091e-09	9.965409936705488474e-10	6.764238370309537580e-10	1.031474985588112111e-09
-2.289237815187492617e-09	-2.088257883538930589e-09	-2.184696747594164949e-09	-2.298917658639182506e-09	-2.195599511332301179e-09	2.711487792905412851e-10	-2.123543108082167159e-09	-2.176792697795348517e-09	-1.932892953077438244e-09	-2.059303555508660582e-09	-2.251176128997014145e-09	-1.854879212291343139e-09	6.038252093552617598e-10	-1.345505336264683305e-09	4.730598852128006112e-10	-1.053737780518953841e-09	-1.377154635863185111e-09	-1.550226659569643717e-09	-8.610429389801269635e-10	-1.595011579833179863e-09	-1.852551612388985408e-09	4.581159666837737328e-10	-8.028753965602734452e-10	-1.373621202439432584e-09	-1.054941127133083759e-09	1.084097999093274964e-02	-2.027594026360472707e-09	1.674385934655253281e-09	7.776899246488577836e-09	6.697470268658942127e-02	-6.226065910559116570e-10	2.020437445284964338e-09	1.132985273649218388e-01	-2.064607704876120584e-09	2.978047207465457649e-09	2.590096479912411959e-02	-3.390442517023508424e-10	-1.448234258463940518e-09	-1.233120461521020702e-09	-1.668430836794785158e-09	-1.577543422044204673e-09	-1.580541258814168382e-09	-6.729595862360817690e-10	-1.717269395635843293e-09	-1.643281374742075944e-09	-1.326295755150879472e-09	-4.459367563374558030e-10	-1.231840070643201437e-09	-7.316294558638380908e-10	4.336780104962565634e-08	-1.531075149892117404e-09	2.667481532105677964e-09	9.929391513706026894e-09	1.403614240741486441e-01	1.423952229581600504e-10	3.385060090406192086e-09	4.780340192376141813e-06	-1.818776640664994611e-09	1.364748712088208470e-09	9.811203624798424471e-09	4.501599745844239090e-10	1.157754136494986886e-07	-2.094569117675908212e-09	4.902214679545706549e-09	1.469043807335069925e-08	1.132119755240586223e-01	1.555442335925331090e-09	5.160587510061114310e-09	5.004121463450392100e-07	-1.325681438256783778e-09	2.238675976189508392e-09	9.296356086600051620e-09	1.874060554708994273e-09	1.160346499579279807e-04	9.050251268408739339e-10	8.650201863254692857e-09	2.328491892400101143e-08	3.745749778751343295e-01	3.227768690486404190e-09	9.037932209833405159e-09	4.531190311315468067e-02	1.881936029763011889e-10	4.947663030973265163e-09	1.791537785238857083e-08	-1.401173523589009702e-09	-1.283990085242014120e-09	2.439142372669303075e-09	-1.556584743385419709e-09	-1.320498567404672623e-09	-9.574125552978325970e-10	-1.843308237494773018e-09	-1.509665377411957123e-09	-7.374967608772293079e-10	2.394557110365417168e-09	-9.974080946695300383e-10	-4.183604859488506919e-10	5.809734154533891952e-10	2.862099816596938403e-08	-1.187464682672837606e-09	2.985292664017521520e-09	6.678043171724673734e-09	1.585874866443473518e-08	1.221653317548652859e-09	5.075299975443497054e-09	8.953639563629030827e-08	-1.846365079065111691e-09	9.045643284394581810e-09	1.094028187051667295e-01	1.849566182973134858e-09	3.775171736919461318e-09	-1.337896060991276834e-09	4.975590228658115527e-10	1.184130845409391398e-09	3.255818411199228442e-09	3.760625713188515619e-10	3.519698962247645843e-10	2.141529831356197784e-09	-2.220972597892070142e-10	4.858493382645441475e-10	1.128359713282689598e-09
1.961982543133729341e-11	-5.051060914845758574e-11	-5.118231691658569606e-11	-5.772432399145096280e-11	-2.181612559452600683e-12	1.706822928289836180e-11	-8.600325352245798705e-11	-6.323960112512165482e-11	-6.605469417614741453e-12	1.086532303064587212e-11	-1.872247944525073534e-11	1.207540347988602381e-11	4.957667653167694338e-10	8.068397630987277297e-11	3.739036422041738613e-10	1.295711399454071495e-10	6.959073933453619855e-11	3.941395883058000162e-11	1.943949286673268622e-10	5.367341188237330690e-11	1.991221794744326932e-12	3.677852190923892406e-10	2.180858892588994328e-10	9.298076879833276856e-11	2.116517324485892280e-10	1.103473413927933029e-02	7.094661939824367782e-10	1.028873477387975154e-09	2.798366585672447910e-09	5.489821585208513183e-02	3.741382856260304229e-10	1.066947199491106967e-09	1.310323605158452143e-01	1.053713567449428963e-09	1.275587575247450655e-09	1.615980163794531257e-02	2.679536348200274715e-10	1.913556309815453585e-10	2.343814041564123369e-10	1.482503917819401707e-10	1.671420427274238263e-10	1.537796364860981228e-10	2.646293594774128157e-10	1.010689693912194771e-10	1.162326737685787378e-10	3.150901189093987187e-10	2.957779463797060694e-10	1.903174446509874646e-10	2.914814091496572293e-10	1.072972008659243218e-08	1.027393964240495054e-09	1.280379754097737364e-09	3.310618596762147756e-09	1.453632275618453873e-01	5.477489943976611047e-10	1.412176517169581282e-09	1.440148484526765232e-07	1.488083379761058185e-09	1.028198690528333681e-09	4.776174814514214305e-09	5.380061049339749660e-10	1.458790338430378496e-08	1.573025529266219284e-09	1.883550851860025246e-09	4.614854215222594201e-09	1.085723801395389460e-01	8.855040609502992961e-10	1.966934641754593947e-09	6.399352347555334781e-08	1.950304554940411874e-09	1.330850027697168610e-09	4.227430352052410729e-09	9.116811724917300557e-10	4.637207538350740905e-08	2.269128894723834730e-09	2.923784348426034682e-09	7.044885393879264071e-09	3.984061787632341423e-01	1.479883360360112188e-09	3.369033707620664683e-09	2.264611217203836915e-02	2.080627710781890421e-09	2.233059771631248712e-09	8.084353429201409523e-09	2.011519346012444385e-10	3.939108664449389609e-11	2.629136825327825018e-10	7.372286026246093319e-11	5.264650944045803875e-11	3.429913592522198659e-11	8.393754707321495378e-11	4.960813328539992823e-11	1.673726850686629558e-11	2.915296902588709184e-10	1.908363932479099996e-10	9.383621361041718400e-11	5.668081968342847476e-10	1.129470682143144440e-08	1.335206388348055622e-09	1.572190740369203086e-09	3.090331506922721365e-09	8.832778202215834074e-09	9.262088160040286680e-10	2.311635766417141279e-09	8.925060410555279294e-03	1.529010364644816450e-09	2.655560665549627441e-09	1.029615262717075153e-01	6.237068406353742779e-10	1.123759412770750973e-09	8.762798833844664281e-10	6.552400646433000575e-10	8.036975810003402236e-10	1.100031845311347292e-09	5.034477741340189998e-10	6.293176569081136135e-10	9.228739465823322348e-10	1.226784840884705884e-09	6.909806573669729266e-10	8.415073231668724278e-10
-8.402186849292681523e-10	-8.575011363404866897e-10	-1.356731293195322074e-09	-1.313289871820588092e-09	-1.297752067115043117e-09	-4.115024158600558257e-11	-1.172314912870847787e-09	-1.341310760744950451e-09	-1.396818724940995499e-09	-1.382183090968326773e-09	-1.225260026238004800e-09	-1.012763198089958191e-09	1.198694404974941185e-09	-1.003122165322337575e-09	1.322667267205215237e-10	-6.624028790005102374e-10	-8.095134558242565442e-10	-9.069273159696487442e-10	-5.470109640361604789e-10	-9.126369750372513876e-10	-1.054931409380492045e-09	1.528338903546896057e-10	-4.125994075111196849e-10	-7.411800895702116428e-10	-5.246630353027107792e-10	9.463364644845543433e-03	-1.377602546858680362e-09	1.204168093024397479e-09	5.041714335726549057e-09	5.795491881111734106e-02	-2.445767129210484083e-10	1.400852698083584037e-09	1.169670478973506150e-01	-1.464110495896534388e-09	1.897933771696369513e-09	2.370144306330706704e-02	-3.997862868911468107e-10	-8.461640206696135847e-10	-7.826444853059490046e-10	-8.411058918091907175e-10	-7.943427932239308428e-10	-8.403015164817558359e-10	-2.264234410442471973e-11	-1.025139945977004013e-09	-9.953468152961307201e-10	-8.588028826743969085e-10	-3.345208019089623464e-10	-8.162584436739897036e-10	-4.707804154951103925e-10	1.510187857101251044e-08	-1.050769832078980278e-09	1.826242127259894810e-09	6.361740626385848253e-09	1.404165981382696493e-01	1.915563685314355285e-10	2.219674107645362925e-09	1.552500517984884841e-06	-1.359214880845419043e-09	1.049950280155586764e-09	7.497393206453030019e-09	1.200962382898275080e-10	2.945584339663626233e-08	-4.972348258318261994e-10	3.251340183419237956e-09	9.351262592110375956e-09	1.199097448498885887e-01	8.932461927450249987e-10	3.334747429248894998e-09	1.354455544793025441e-07	-1.140832616611621263e-09	1.747702881040591640e-09	7.545264643065011931e-09	5.015353122288959609e-10	5.502018153143773599e-08	3.266823718446979280e-11	5.617899759658517068e-09	1.480240128471102189e-08	3.761366799487745882e-01	2.175289411657121010e-09	5.851058660126137685e-09	4.667252448527665909e-02	-5.248260059542452994e-10	3.297541584671167270e-09	1.275781973058563140e-08	-9.462623558325825608e-10	-4.542261294442023733e-10	1.775259586185298368e-09	-7.406632804464861787e-10	-5.308726187966283318e-10	-2.763922946206887836e-10	-9.379018264450987993e-10	-5.986679286243034570e-10	3.196891489606600169e-10	2.444323835705599037e-09	1.108847538040945119e-10	9.910590156151340458e-10	2.618530196297584469e-10	1.423372778303447057e-08	-9.657224061530892695e-10	2.278968046539242827e-09	5.350499791983077606e-09	1.500109782349858443e-08	9.904238530592447415e-10	3.809352490196912423e-09	8.579944357783503284e-03	-1.506049470752329558e-09	5.626106240795642205e-09	1.001958294501541918e-01	4.874348987082335533e-10	1.858777986416131229e-09	-4.944735603849144227e-10	2.834384130631098359e-10	6.268413650519185695e-10	1.787000900394017155e-09	1.733892924521103627e-10	1.783647850557018332e-10	9.474004015323206304e-10	-3.519986236125435410e-10	3.796975526380758285e-10	7.612873406235994742e-10
-4.552400515576449280e-10	-8.675036094207299724e-10	-1.118308132055851928e-09	-8.717486734348580674e-10	-8.359153594920521194e-10	6.659797627774353554e-11	-7.848044691423867686e-10	-8.365384329380063876e-10	-7.925520404718282747e-10	-1.071826272602562641e-09	-8.377918016308223676e-10	-6.809184034802215674e-10	8.991661032811047565e-10	-7.383417217711537162e-10	-3.944195301458755435e-11	-4.653249806246289552e-10	-6.062750958914790852e-10	-6.544771164509157076e-10	-3.205168315329873990e-10	-6.457208999388482919e-10	-7.413167364168351889e-10	5.009694117428892463e-11	-3.242919143469042254e-10	-5.428696018520558246e-10	-4.452474573422257766e-10	9.680047110746379732e-03	-8.422837989845022937e-10	6.958034956903340996e-10	3.148763945047745163e-09	5.942877921985062484e-02	-2.114178533124226277e-10	8.447977588994355415e-10	1.161283924238929316e-01	-9.641229154517961603e-10	1.096578012141877674e-09	2.227738174401099405e-02	-2.786169050820053224e-10	-5.750274343870187146e-10	-7.866671990706862293e-10	-5.681337140987461772e-10	-5.064518594125351471e-10	-5.573570973415950902e-10	-5.344577959098293284e-10	-5.506161052576467288e-10	-4.763077981779056793e-10	-7.336043051621685287e-10	-3.744419171248512197e-10	-3.476928092977370728e-10	-3.404420752432098199e-10	7.692959713459970798e-09	-6.684400567884064188e-10	1.081846023309627794e-09	3.987877900727266953e-09	1.441158009587109046e-01	8.584186659503458593e-11	1.441234294225017999e-09	3.349911253080737014e-06	-8.372382833112953806e-10	6.371719923639021305e-10	4.956720341095446542e-09	3.472086219446095063e-11	1.152910804547702677e-08	-5.153512649299270838e-10	1.991517338389563621e-09	5.866425392536202259e-09	1.126774244657428592e-01	6.503277285110211174e-10	2.167329297620398645e-09	2.636658638853902050e-07	-5.381337337322217099e-10	9.965504539002806399e-10	4.326621328199932591e-09	2.428946195790562960e-10	1.936774317575534549e-08	6.165112962066411916e-10	3.505535499604437772e-09	9.399966021192281809e-09	3.973239335368587977e-01	1.337272264687303739e-09	3.760587787934050262e-09	2.880232796395887362e-02	9.709014550963132358e-11	1.757240150899938044e-09	5.796286058822239848e-09	-6.859998218792737362e-10	-3.479160479545708454e-10	1.435596634636632056e-09	-4.706207163890618151e-10	-2.348099825635977435e-10	-4.316673929228502809e-11	-6.804196461037686999e-10	-2.929315025351471254e-10	6.101986556285051961e-10	1.447689492575326536e-09	-2.701799079958069339e-10	1.532025140753095622e-10	1.221838267707634408e-10	1.083143959979997848e-08	-4.760663175273728289e-10	1.358214485915087195e-09	3.194383642598164344e-09	8.909270519029082308e-09	5.739788122896820407e-10	2.416026827572431824e-09	8.493089635872844503e-03	-1.195061598002827522e-09	3.754855005031445662e-09	1.010690998657967771e-01	1.557591783066687246e-10	1.205614469934422977e-09	-8.932508054846371179e-10	2.732909597477223004e-10	4.995722707268351695e-10	2.135980912112066336e-09	1.850294047495074724e-10	2.176919417632666697e-10	1.119947651373400148e-09	-4.687411054361596575e-10	2.276078827744729822e-10	4.836631406834853719e-10
-4.697794255006519216e-10	-7.550421614243427863e-10	-7.865674106224228524e-10	-7.349696734052062182e-10	-5.048497883613136037e-10	-3.785112689811549088e-10	-7.283284074423921390e-10	-7.654525179485510687e-10	-5.068803233480429871e-10	-8.282417288326105266e-10	-6.997773384515844574e-10	-5.788225545980199807e-10	7.685743090096997149e-10	-5.889469141836837089e-10	2.261112268393137803e-10	-3.305302222894440223e-10	-4.848226512727424874e-10	-5.475368876290447186e-10	-2.644790793504497415e-10	-5.532392664275870522e-10	-6.443817100234814543e-10	1.976391527912084959e-10	-2.286225098971971625e-10	-4.604850946805082577e-10	-3.096028501512861380e-10	1.143065730890158345e-02	-8.168255655607149803e-10	7.814768897027149846e-10	3.227566925953708748e-09	6.657880283937726851e-02	-1.288706454263635719e-10	9.028351639631914779e-10	1.070677617542854648e-01	-8.858706433841260839e-10	1.095343997114869811e-09	2.292654044683490461e-02	-1.986152157823458646e-10	-4.932324647477978856e-10	-4.020749621658273748e-10	-5.093545430111945418e-10	-4.556373668561944711e-10	-4.966336167543098151e-10	-2.258988889847760397e-10	-5.487675595549072914e-10	-5.476389477439597562e-10	-4.311024237007542752e-10	-2.054274477543615652e-10	-2.933831545156216106e-10	-2.603962681657800143e-10	9.296813731538049853e-09	-5.590779938868092402e-10	1.162722448982843761e-09	4.033806606005651679e-09	1.416907515072479973e-01	1.389240488342209867e-10	1.338758271760206619e-09	2.498592734746332694e-07	-4.853268124649891002e-10	8.536172721275343161e-10	7.153524946000479014e-09	1.465257123400524409e-10	1.491491606061577998e-08	-1.453094138312891708e-10	2.048466969343799280e-09	5.911199676736384783e-09	1.217371231645019980e-01	5.985914423282495556e-10	2.103843134424535465e-09	9.292528742161582644e-08	-3.624248934876745935e-10	1.253394990391176037e-09	5.726409897899808533e-09	3.780078532049318674e-10	3.109922680618490115e-08	-5.638487089667582684e-11	3.511965751619672281e-09	9.279049369551545283e-09	3.563530370061647190e-01	1.410551781471881793e-09	3.760869360432341770e-09	6.743772417099221095e-02	-4.169162763213619836e-10	2.192452488205208674e-09	8.604597992959105655e-09	-5.081512990059321303e-10	-3.079238810026654532e-10	1.194946560101118770e-09	-4.166996579053983156e-10	-3.012676725774803094e-10	-1.565157448554650891e-10	-5.364495055884747037e-10	-3.536049835183198890e-10	9.565173155953999041e-11	1.478073265875103333e-09	4.724872120435681534e-11	5.038808518268849239e-10	2.560225215278538951e-10	1.170091357984910333e-08	-4.985068016474529037e-10	1.515195407588450179e-09	3.408798289597147416e-09	9.767716987555887554e-09	6.924946948403602233e-10	2.585695020538724555e-09	8.000339920225540274e-03	-8.237242576021780203e-10	3.712868066353494734e-09	9.677677733433294460e-02	3.925709646106152498e-10	1.136650746906934940e-09	3.096929541533390371e-11	2.760085876995965888e-10	4.575210957482332082e-10	1.285187233502861172e-09	1.559368639538556834e-10	2.269429488441385026e-10	7.946454988710395537e-10	5.142515191784779166e-11	3.368121534503567204e-10	5.184980409059605435e-10
