8.549799669744943164e-10	-3.033965097463477750e-10	-5.592535611082438097e-10	3.580794640039233371e-10	2.228945636807029231e-10	-9.710980435387930880e-11	-1.405577577003653151e-10	2.625860966460242228e-10	-3.158239060772354766e-10	-6.246678026451623985e-10	-5.685472202960053689e-11	-3.104499704953651944e-10	-3.078000944147320502e-10	1.511671260035203195e-09	2.378279162077728479e-02	1.024990293915893951e-09	8.647020428807300517e-09	8.876127736756263731e-08	1.102418487304323951e-09	3.561790966399771596e-09	7.498021353495515351e-02	1.742517771571693574e-01	1.533801378841276933e-10	7.529084451801069348e-10	2.540413433820234910e-09	-1.015529969147221640e-09	-1.038468729291193856e-09	-4.062426867338783073e-10	-7.985073971688662665e-10	-8.247680104762128034e-10	-6.019614378490658766e-10	-4.924025883719388108e-10	-8.507495466077833294e-10	-9.067222131883793231e-10	-3.701019449946564376e-10	-1.552980244484976054e-10	-1.073299323044535749e-10	1.638167120327346111e-09	2.521237896854035612e-02	1.835742879700062779e-09	1.233752641267430183e-08	5.522090916909573599e-02	1.829668730166856060e-09	5.105913471798009152e-09	6.358438340245570659e-07	6.702342822625559360e-02	3.769956351138639292e-10	9.882095189441225334e-10	4.944533136755147488e-10	2.952545776632548474e-09	2.438024670696405623e-07	3.204976386962402205e-09	1.803079242331288561e-08	1.895388688198128557e-01	2.977202084593631911e-09	8.027720844138009565e-09	2.523731655404030192e-07	5.252293114958473575e-08	9.644382437161484498e-10	1.629047814090783296e-09	1.386072242382347995e-09	4.310340017959695236e-09	3.110365469717382749e-08	5.227326736317491522e-09	2.801521787928295521e-08	2.557602077364820037e-01	5.589728266312877820e-09	1.813757175956016474e-08	2.946383525496520245e-02	1.213328853046835695e-08	1.618459509881021341e-09	2.073489963549358668e-09	-6.345554046492735923e-10	-3.861478406319646949e-10	1.372507651964300139e-09	-4.526156179036571112e-10	-4.381425438549551917e-10	-4.339966482691850742e-10	-5.312055669199893528e-10	-5.151984887597230464e-10	-4.556724375986820170e-10	-2.199615151852102478e-10	-5.766164558189334640e-10	-4.951258825646914548e-10	-7.618601750149758439e-10	-1.113692492339093928e-09	5.072990618185601397e-10	-4.945841078726422899e-10	-1.012245371087186378e-09	-1.007677355955867875e-09	-9.234778176007921096e-10	-8.867284281856398486e-10	-1.036265194975207927e-09	-1.006887851605983734e-09	-1.008343224777865039e-09	-1.055707062355266514e-09	4.858892595269021923e-10	2.616251855382368404e-09	1.135237837632579427e-08	1.890705633149222746e-09	8.096955281713776565e-09	1.447891587443274374e-08	3.151526166468427517e-09	1.426085251750838484e-08	4.159760719198691420e-02	6.316645135707958658e-02	1.567892378446416489e-08	4.826497403834826927e-09	6.628905357813445476e-10	7.351027648509957039e-10	1.002591011638572932e-09	2.108522714433773231e-09	1.113755659968615310e-09	1.442008910512048344e-09	7.671291352291328453e-10	1.819675906890783428e-09	9.466242734702126947e-10	5.067040221898756139e-10	3.490157794346223815e-10	2.355014796305964824e-10
1.417211847770622394e-09	3.875242151681182880e-10	1.330201978141796861e-10	8.102909285296434556e-10	7.476533522532926498e-10	3.955137152846021577e-10	7.090284552390541886e-10	7.040347336913926169e-10	3.465966073972656739e-10	1.512582917031496670e-10	6.591668100988200274e-10	3.461198006825663098e-10	4.994547147250619981e-10	2.242636028790124606e-09	2.190202102538164886e-02	2.345584849093934869e-09	9.864959354959657928e-09	6.608892365842002039e-08	1.926604886786574560e-09	7.841212611654295361e-09	6.447610944863745031e-02	1.804312978770132025e-01	1.069744834767252469e-09	1.534379718590114717e-09	1.076612824324027112e-09	5.432784198183594377e-11	-1.636807007864298576e-10	3.356831347756535005e-10	-2.915600608052688000e-11	-6.064737686293217544e-11	1.247601821978825203e-10	2.092056716260479074e-10	-1.078398803228357535e-10	-1.600586500897828529e-10	1.558856559495163826e-10	2.374657561632951345e-10	6.902840227281784945e-10	2.423600337534380614e-09	2.489949394491658072e-02	3.276756724425855544e-09	1.379890286633994680e-08	6.843058995272437162e-02	2.639546407518572709e-09	1.056747582677474858e-08	1.297858057449219511e-02	4.549829509431765895e-02	1.216869501296133913e-09	1.744317459459803174e-09	1.296179923196297666e-09	3.542214136236621603e-09	6.682235721443791725e-08	4.936889630494915917e-09	1.984973364266540377e-08	1.902079509157259263e-01	3.917709881211446117e-09	1.583179923156200067e-08	6.242891469777937771e-07	2.912694141805719515e-08	1.754859967967071242e-09	2.301184708207218992e-09	2.253015987044552602e-09	5.044977442504724666e-09	2.715167835306947179e-08	7.342701008752133979e-09	3.067285033551725915e-08	2.308568465652348634e-01	6.154227267709674396e-09	2.583451454117856478e-08	6.468229948736033130e-02	1.315983048384225654e-08	2.422932266044950886e-09	2.842081177638114445e-09	2.484119804896498777e-10	2.468203288514637555e-10	6.504973929513703266e-10	3.572978022330551981e-10	3.904553651918120119e-10	4.650358918344158229e-10	2.242111576718232039e-10	2.781054258036614107e-10	4.072459460433717565e-10	3.536552387921833771e-10	2.087362331356283957e-10	2.078962496298855773e-10	-1.729165380051813179e-10	-3.153218752566848260e-10	3.656678806164511880e-10	-4.583046319020502561e-11	-1.603971371049986153e-10	-6.280534124063475618e-11	-1.272226198402808731e-10	-1.476082088395901773e-10	-2.409456727041521933e-10	-3.059386387890286463e-10	-2.237822470322243845e-10	-1.375743059876954693e-10	1.240776304885542513e-09	3.101114108095793175e-09	1.010749896851682200e-08	3.256734708392403301e-09	8.022014713752210562e-09	1.253574210858790433e-08	3.700809233588563696e-09	1.414319396783928590e-08	3.670776870582317708e-08	9.563535699214456565e-02	3.734693730777827216e-09	5.031417305752205242e-09	1.539408223213849686e-09	1.254894499889135654e-09	1.268494167128075438e-09	2.197517844778466445e-09	1.855095209191762131e-09	1.913810582266924172e-09	1.603543769963571864e-09	2.280693104821665637e-09	1.665716312985607521e-09	1.224817891903194963e-09	1.333599490639717321e-09	1.139945874811572916e-09
4.491492703021546227e-09	2.875663992960001885e-09	2.406722145259055266e-09	4.418643123337199587e-09	3.473665382131054819e-09	3.254983925809635981e-09	3.844250315730704566e-09	3.382411971351434857e-09	2.968725661590562073e-09	2.286873612255717949e-09	3.731093773633925435e-09	2.976308038463677850e-09	2.875798627192535180e-09	7.342387874492753472e-09	2.648708428783233190e-02	1.398403393112737115e-08	3.491697702917286377e-08	1.241856993132502928e-06	6.971957328318884735e-09	3.162377171115894522e-08	8.472145073200219867e-02	1.672962298843863604e-01	5.045039316140293839e-09	6.181726465765609200e-09	2.784862119289127776e-09	1.510851893497050746e-09	1.193957030852262057e-09	2.285427560810896243e-09	1.678439760970394748e-09	1.565836086794179849e-09	1.988617767324889934e-09	1.275203338983513201e-09	1.440600834141672590e-09	1.168266635828944308e-09	2.197102654799820359e-09	1.744245965830899167e-09	3.494008486581422700e-09	8.332127764932502602e-09	2.389807250452529591e-02	1.958287244346728215e-08	4.046727535766810515e-08	7.665436780662426841e-02	8.938770131814070464e-09	4.129971103662634298e-08	3.788517435367660215e-06	4.522105121634668878e-02	5.460698388407562380e-09	6.872265850126440977e-09	5.107721408466616930e-09	1.121961630093589762e-08	2.372204823524222231e-07	2.968619407918281794e-08	5.881569470369583868e-08	1.959898924589843772e-01	1.264928570445958187e-08	6.483702271870021682e-08	1.718972274381599973e-06	8.903505874339973818e-08	7.075557545853897347e-09	8.511045847922699478e-09	7.657262971025826672e-09	1.466567617605777642e-08	6.268022705436987261e-08	3.918388548482209958e-08	9.006250205236303146e-08	2.149983445802386428e-01	1.897319101315215046e-08	1.235436292605967423e-07	6.642730184040192276e-02	3.498436035835506253e-08	8.905416441122226741e-09	9.830586235124844244e-09	1.833145375240221518e-09	1.943005169606054494e-09	2.542016211627592159e-09	2.812601245619423087e-09	2.829745896363638764e-09	2.966006496062274004e-09	2.279552904033043304e-09	7.061150479575630735e-10	2.706194039562375076e-09	2.554231292360857361e-09	2.244792184312373208e-09	2.032259830656250396e-09	1.039276184366029564e-09	8.293423256630350665e-10	1.314002780477045594e-09	1.159055451607364673e-09	1.122866250600418886e-09	1.095484718099969814e-09	1.085176249695583487e-09	3.514454716126318705e-10	9.379337915044211061e-10	7.814636069569263564e-10	1.083550630624836891e-09	8.960295659156140600e-10	4.970312129771392663e-09	1.042255679222012424e-08	3.823518022115312498e-08	1.818860375419192986e-08	3.416899649320092640e-08	7.140212546694026274e-08	1.339969413609765005e-08	6.878056682440514986e-08	1.062104881034430653e-02	8.767676467434697141e-02	1.283960861024197545e-08	1.240194643910522346e-08	6.164165705573557545e-09	5.393450289491811325e-09	4.147645169783565746e-09	8.958453151030972673e-09	7.607697999219802301e-09	7.808651053205248194e-09	6.875505727053910815e-09	6.970707745902860605e-09	7.410554335204253012e-09	5.626000150395406660e-09	6.361683454294606102e-09	5.599780970258783301e-09
3.191958510006785764e-09	1.204363293020409103e-10	-4.013093929614841831e-10	1.142307114654526806e-09	4.374322628089127769e-10	6.470048871551679148e-11	6.058156682873501776e-10	4.018867369232094807e-10	-1.043227974717700422e-10	-4.741056428417367518e-10	5.430229791300843327e-10	1.033892371113902449e-10	2.829831352126292533e-10	3.881229987078819115e-09	3.200861151758408601e-02	2.130989559393344916e-09	1.404219039094439434e-08	8.107033003620291938e-08	3.026554924878826287e-09	7.631486093226904604e-09	7.331517268237362772e-02	1.623074723704919509e-01	9.311108898983128651e-10	2.181226472848657948e-09	1.814672783761148346e-09	-1.018561494345403526e-10	-7.779515342060243819e-10	4.201056894902034612e-11	-7.005082393127825976e-10	-7.323454849236458602e-10	-5.823833872661901138e-10	-2.412601131199963091e-10	-8.462055633030312284e-10	-8.749935273463961195e-10	3.883024682937201734e-11	-3.046648356127763192e-10	7.300649392975463773e-10	4.733149893371564254e-09	1.789402637254225784e-02	3.057412820303427055e-09	2.479718544731099864e-08	6.659687500765085200e-02	5.041056281291314482e-09	1.025579331507273584e-08	1.181623994001424803e-05	6.450014897898938282e-02	1.367520344466166414e-09	2.485777079879394887e-09	2.123315659786722818e-09	8.407785361501718264e-09	3.910914410136474453e-06	4.031112250241339088e-09	3.308088778957069262e-08	2.078210120884804724e-01	7.476406015165611035e-09	1.610695270358811731e-08	1.316594024241373207e-06	1.617740235884493070e-07	2.660202906938962218e-09	4.092242866484975075e-09	4.141539976046863387e-09	1.192978346548055736e-08	1.466142264043717996e-07	7.556684954250236724e-09	5.169069294647279268e-08	2.110036144902898703e-01	1.146855159991717705e-08	2.631362897742887559e-08	6.479641090106236234e-02	3.338459571572992064e-08	4.065062126941933746e-09	5.208829807292084341e-09	-8.097208884530675966e-11	3.423386510940530793e-10	1.357010378572844494e-09	-1.796835837913880169e-10	-1.001871711060706209e-11	-6.054843982639880799e-11	-1.470605611033861396e-10	-5.896566449958446110e-10	-6.513451962967099159e-11	6.340691338969950161e-10	-2.610166794250611263e-10	-4.043476422766787970e-11	-7.945118266226410636e-10	-9.323676050434935068e-10	6.207043729139274083e-10	-4.501174014722577660e-10	-9.695765621661217972e-10	-1.037038184637500762e-09	-8.494276145424229758e-10	-1.154269991087739758e-09	-1.155080946269556678e-09	-1.182398603464747469e-09	-1.058118106327396372e-09	-8.822025120308165270e-10	1.915642698249299785e-09	6.044838942594226809e-09	2.387420704455091452e-08	4.017960355111648371e-09	1.341602451731034286e-08	2.506296987174745046e-08	6.604748312443403937e-09	8.283448624654286425e-09	2.568897245439796112e-02	7.404978216956963066e-02	3.338933371600028453e-08	1.103698242764034358e-08	2.046602432815290825e-09	1.287369297494422006e-09	1.349674276886066996e-09	2.237915950938857454e-09	2.081266090850781259e-09	2.177738072335171664e-09	1.775234749360508059e-09	2.005935705796709759e-09	1.890262736571772957e-09	1.153473340396231237e-09	1.323513584018063261e-09	1.051420783924900078e-09
3.231631785752600692e-09	-2.464928008397992807e-09	-2.653955593233845446e-09	3.484222313978564771e-10	-1.681383315892572984e-09	-2.247585680179067106e-09	-1.858619832963360489e-09	-1.515310237904024671e-09	-2.490254334440463740e-09	-2.629951521128790258e-09	-1.858987326376293899e-09	-2.151931283145052303e-09	-2.114206043647087319e-09	1.942241560044890163e-11	2.606227999860345063e-02	-1.400812750334258404e-10	5.808625933656751553e-09	6.155089161838080181e-09	-5.185801890279394276e-10	-2.519231513840565360e-09	7.367607286240068776e-02	1.718290895835989096e-01	-7.894142275761787124e-10	-4.777074992097765008e-10	-1.339074542719132272e-09	-1.721570890994986314e-09	-2.243081677086431769e-09	-1.944024946120150282e-09	-2.386697999769554742e-09	-2.370756021353101470e-09	-2.061149165019574778e-09	-1.717407246655293869e-09	-2.506505984425862688e-09	-2.431237051428381130e-09	-2.212336974176087269e-09	-2.343721608815871189e-10	-1.946337163174799310e-09	1.508367947552959906e-11	2.207997175964134320e-02	6.746588814744001207e-10	1.098416588238502927e-08	6.776429207923544140e-02	2.451375523512671860e-10	-2.100484107152721574e-09	2.667782224467938267e-06	6.742084284530514005e-02	-1.017959596790549506e-09	-4.601309098930765276e-10	-1.123710909885352933e-09	1.905060233216950511e-09	4.941126624225389562e-06	3.896795614451412198e-09	1.724212971339617989e-08	1.884395699022206605e-01	1.983992055615824845e-09	-4.553944585847776527e-10	8.936805974521250521e-07	5.479175087552221050e-08	-3.860525136903834706e-10	1.263770587661965688e-10	-1.219554619186064768e-10	3.211950186126962607e-09	4.257672949361521403e-08	3.514576903092999868e-09	2.784491090758117508e-08	2.475289712169941869e-01	4.149845875046482612e-09	2.235954377421930722e-09	4.178754601005023328e-02	1.466770241251587842e-08	5.182272539190366035e-10	8.126684437702392144e-10	-1.906958719022759192e-09	-1.604031379056773017e-09	-1.490836083633170143e-10	-1.984509991301360205e-09	-2.189572864226704168e-09	-1.994515759396833947e-09	-2.429013928739050840e-09	-2.144972494324542444e-09	-2.094217276325982714e-09	-1.466424090550927527e-09	-2.176085879772303574e-09	-1.910073059802344143e-09	-1.323089596787828454e-09	-3.220026099348088715e-09	-8.232900331897256811e-10	-2.503649177831045787e-09	-2.884025514850584292e-09	-2.892856288119749908e-09	-2.495779431899284837e-09	-2.378648152020145125e-09	-3.116450591159126816e-09	-2.319089873961518647e-09	-2.820983738386157417e-09	-2.920093494055568968e-09	-9.200963679276365126e-10	1.947283425706176679e-09	1.621009729971267102e-08	9.430932216738683877e-10	6.303382940303629950e-09	1.162737359615354775e-08	1.714662368983647485e-09	3.831776642813050289e-09	3.103313057960432192e-02	6.236958826025326696e-02	5.741702221258022700e-09	6.785763991949932437e-09	-5.794906827760974016e-10	-7.915451965119944668e-10	-1.014840233251672396e-09	4.411371029341512819e-10	-6.507973208602563809e-10	-2.870228036160297368e-11	-1.181333931658540374e-09	3.849331880496186625e-11	-8.996908924819394599e-10	-1.306941327296695969e-09	-8.490959305888714905e-10	-1.370686092990647417e-09
1.584386471526755936e-10	-2.361861600470804780e-09	-2.641219624300510007e-09	-1.417216881219801581e-10	-1.151863760797205438e-09	-2.343894500897120022e-09	-1.642959781699909856e-09	-1.449293748033227364e-09	-2.455273628169542962e-09	-2.641923204182869653e-09	-2.057098290134331125e-09	-2.250174117566343282e-09	-2.220819784071104671e-09	9.275764108252989052e-11	1.315208535420074598e-02	-1.097681290558155251e-09	5.860424384095238020e-09	2.179664334433197765e-08	-8.082851870492840947e-10	-2.752488233906855974e-09	6.797052185251339917e-02	1.964496959140288324e-01	-2.147052750753595031e-09	-1.338867576916906492e-09	2.016001442634083322e-09	-2.420885714099592335e-09	-2.806785698892600640e-09	-1.782747495390153362e-09	-2.673395093224594602e-09	-2.672982571700387704e-09	-2.303367142356452852e-09	-1.621748868269971643e-09	-2.754870248921376021e-09	-2.669953623189856456e-09	-1.898293602097056685e-09	-1.767249877867062426e-09	-2.042706014200082436e-09	-1.231639611941976027e-10	3.473471410092741213e-02	-9.766271941386665294e-10	1.083185047151502245e-08	7.092729645095423308e-02	2.645441878015151289e-10	-2.369658801760116157e-09	6.693323771652446956e-03	3.549211312465228724e-02	-1.747687137342694347e-09	-1.015156793666441264e-09	-1.293269812639457444e-09	1.556114380784217458e-09	2.734754580718336605e-07	-2.936086744843463842e-10	1.713015606986338532e-08	1.941476134824541566e-01	1.692955681073240274e-09	-2.148383245004039908e-10	2.492343379918397343e-06	2.803121717596119280e-08	-1.193075550354623296e-09	-4.838644134442165180e-10	-1.022697502322479502e-10	3.732761401645014367e-09	4.364988555189032229e-08	1.660580398230394515e-09	2.788729664322573119e-08	2.104008447477185295e-01	3.757420976574751644e-09	6.999056433325871189e-09	7.201482433483134826e-02	1.153431053228543565e-08	-2.730769038693429174e-10	3.263325503872857408e-10	-2.831443963900002481e-09	-4.693731234367612671e-10	-5.370553613816738093e-10	-2.173858559686981181e-09	-2.206763223425644234e-09	-1.891501876780833947e-09	-2.456901564687065484e-09	-2.258626619730707964e-09	-2.081941746167472963e-09	-1.561777188326720794e-09	-2.565386298661735536e-09	-2.332502104623606485e-09	-2.050293985322657750e-09	-3.129682585958435697e-09	-2.616810760381377265e-10	-1.667792550294502843e-09	-3.039155569236698816e-09	-3.034270361720851717e-09	-2.524940549886746503e-09	-2.611798620425339240e-09	-3.165412184932697530e-09	-2.485335782075045681e-09	-3.072093579129758134e-09	-3.283645588778477914e-09	-1.203802307245088486e-09	1.493671294734513851e-09	1.066456791243248270e-08	7.345175207487772580e-11	8.128072392681603877e-09	1.568253184732945669e-08	2.368063563952408685e-09	2.340393764994769470e-09	3.526233205323117161e-03	9.448780162838958663e-02	6.253202153821564399e-08	1.067194458412661423e-08	-1.812997016550166954e-09	-5.846037393302865973e-10	-5.500259788864911210e-10	2.105926018396480644e-09	-1.455701920378106450e-09	-3.635420726606373860e-10	-1.665294827331028915e-09	-1.950125729216362557e-10	-1.332385598865402294e-09	-2.016933742570676025e-09	-2.457528600271131048e-09	-2.491052385110665776e-09
1.411874055279116563e-09	-1.008297803514675372e-09	-1.250359163062178780e-09	1.305092916869385116e-09	-6.591597591618891185e-10	-9.998998594752877261e-10	-5.332187768584609766e-10	-4.392497455837275644e-10	-1.160374387806413908e-09	-1.330259338218331410e-09	-6.833587332860798639e-10	-9.764950865056403687e-10	-7.402898008820701187e-10	1.442153824461175384e-09	2.467482871029938463e-02	1.069664477599779950e-10	6.974035854809261955e-09	1.221153022892402239e-08	7.457569582608481300e-10	1.436433371997689663e-09	8.839572373230812630e-02	1.646188735079580356e-01	-7.361576890662700638e-10	2.135005531198655943e-10	-5.086680994280554536e-10	-7.923576622290244419e-10	-1.171178563018711354e-09	-8.856598517259579194e-10	-1.206535336012068564e-09	-1.206531045842371342e-09	-8.794659207312367459e-10	-6.215768940488835995e-10	-1.329129707855624932e-09	-1.153034513139952509e-09	-1.095974401974612727e-09	-1.132120266569407121e-10	-5.245974919469532204e-10	1.664659436258984386e-09	2.205002725246651973e-02	1.326506958544903798e-09	1.287648704930741775e-08	6.519058768601566911e-02	1.914926109955484825e-09	2.863500981657526958e-09	8.617252090953877807e-06	5.935277511126029609e-02	-2.808996677081137301e-10	5.123023893169837084e-10	2.294763678117666918e-10	3.117044562221206042e-09	1.777683277687162304e-07	2.829646560741534357e-09	1.897180741942125207e-08	1.905156905132739109e-01	3.350787572718657190e-09	6.565803708822553061e-09	7.360669338374044503e-07	6.397840430859942297e-08	3.882978817015108918e-10	1.326775475119321266e-09	1.332679716018477364e-09	4.845449300240871517e-09	3.816095553677624234e-08	4.945314451926061859e-09	2.991161655729778388e-08	2.361197086300821091e-01	5.803022840016826426e-09	1.051848178956486677e-08	4.663799256848436686e-02	1.596069544655651277e-08	1.348602371018210000e-09	2.210197887648923144e-09	-1.058648180929551677e-09	-6.589900627938152106e-10	2.893815925583452864e-10	-8.611382449395757228e-10	-7.981051996555350761e-10	-5.675867638107965174e-10	-9.784064788043296256e-10	-8.523291089836403462e-10	-7.130406591359991941e-10	-4.853166303917548228e-10	-1.103858385879324727e-09	-9.910957018052680176e-10	-8.071656763702322140e-10	-1.585968864946132204e-09	-3.283218833800423339e-10	-1.360507158182588504e-09	-1.535214196348939765e-09	-1.521942871085386058e-09	-1.291732802425465928e-09	-1.337719281053031842e-09	-1.668711008166568928e-09	-1.237608429756098213e-09	-1.575401744699124608e-09	-1.515861401684660445e-09	1.541780865686687813e-10	2.442805721768293490e-09	9.303972520344568014e-09	5.370965564755460705e-10	7.227759033276267905e-09	1.213430078342171524e-08	3.236384774266951112e-09	8.174528655694466725e-09	2.047894648596218503e-02	8.195501172956583258e-02	3.485280618810283553e-08	5.735925881888598831e-09	1.357267385803646747e-10	-1.908398382366742938e-10	6.594609235363931390e-10	1.200248292376498688e-09	4.104348662412854853e-10	7.440644397102266806e-10	1.493834291276100198e-10	1.116948818027081048e-09	2.003995057922149054e-10	-2.321556449848146855e-10	-4.976717470437058511e-10	-4.803436992238917503e-10
-1.398884046478681049e-09	-2.092784484303897640e-09	-3.130275827505644208e-09	1.759267542407775594e-09	-2.305271161576118252e-09	-2.830148416811362860e-09	-2.180988927323986680e-09	-1.801302328381662090e-09	-3.069887761698336611e-09	-3.319668161752841675e-09	-2.342845621940715395e-09	-2.482528846213865868e-09	-2.703859707014076469e-09	3.657875608900374708e-10	1.799789933119811530e-02	-1.154422093850283217e-09	8.171826029902454512e-09	1.233556986137440984e-08	-4.439059254347365212e-10	-3.442551670493962962e-09	7.122990987441747690e-02	1.809856344654781624e-01	-2.069972143180333739e-09	-1.281828438786170547e-09	2.348854470156493130e-09	-2.667692355647766961e-09	-3.389839290151359878e-09	-2.651454899429146830e-09	-3.257507235464636078e-09	-3.269975603287436360e-09	-2.839845475395478851e-09	-2.358511232242840938e-09	-3.488646088297322016e-09	-3.313521867824705454e-09	-2.936587111503858027e-09	-1.627912655602958578e-09	-2.495652753812526116e-09	3.532993880044420047e-10	2.539900013253900898e-02	-8.510777698173266889e-10	1.676128837545962873e-08	5.564053937669443534e-02	1.187062469906419687e-09	-2.645917752551800497e-09	6.298845520242967594e-04	6.062631748205235538e-02	-1.794692563863862139e-09	-9.931012260542662900e-10	-1.270674151517905165e-09	3.234017456212269894e-09	7.903054320760190978e-06	8.608056371452368951e-11	2.528585103282303730e-08	2.018859224300404154e-01	3.019166645887216837e-09	-1.011769610556153884e-09	1.280057773811715336e-06	2.205623901187737642e-07	-7.265147767913727115e-10	2.272388216549920013e-10	2.802288979091993454e-10	5.269999398610613691e-09	6.412328736406217891e-08	2.476847973156253663e-09	4.033597644312957145e-08	2.170069054044316825e-01	6.263250532828854650e-09	3.989961521513145252e-09	6.424922576247668604e-02	2.543615761793500039e-08	5.235781157448489938e-10	1.309442811348092521e-09	-2.961923394386556210e-09	-2.332090827188746177e-09	-9.380827187018024028e-11	-2.632181271832181456e-09	-2.807893942678294691e-09	-2.438675885516530318e-09	-3.045493804269354559e-09	-2.600851904829118833e-09	-2.532010405287273904e-09	-2.095710254936991577e-09	-3.066526762273479649e-09	-2.823690694549847991e-09	-1.994650227613293100e-09	-3.938255074504563571e-09	-1.596105063327891636e-09	-2.623947579807426765e-09	-3.707925389899812271e-09	-3.797452214815818306e-09	-3.239049286168928542e-09	-3.259281839124204190e-09	-4.007263567114019012e-09	-3.485989900607878327e-09	-3.843604993191672611e-09	-3.518205768926226061e-09	-1.312031293139234823e-09	1.982804372157883068e-09	1.397991636530328876e-08	9.383200480841310657e-11	8.925518070772779313e-09	1.419853559115404399e-08	2.819558110240604701e-09	4.265303354079148110e-09	2.946643316960729023e-02	7.487276641239516695e-02	3.935562094592048015e-08	1.242206518974177383e-08	-2.404266138421602680e-09	4.423355337139300943e-10	2.142564207149067692e-12	2.871507004116496597e-09	-1.811581013060083761e-09	-9.071219866327975761e-10	-1.997166428641424149e-09	-5.068790212885973531e-10	-2.210118375434673603e-09	-2.071433402018570089e-09	-2.515011113642425065e-09	-2.750802826749770847e-09
2.446213137248457623e-09	1.431022390877884027e-10	-3.838616097788218742e-10	1.482337858646859130e-09	5.679019928321867463e-10	3.090252774922760547e-11	6.296543497662399306e-10	6.655414365022145260e-10	-1.483121529184480033e-10	-5.160445697988753741e-10	3.740131346221781626e-10	1.796149507585702347e-10	1.830107960983294060e-10	3.489607208216660729e-09	2.502150622427909074e-02	3.435972807167185970e-09	1.527864626398769159e-08	4.892888970520710246e-08	2.894273409410368977e-09	1.223471217008947755e-08	6.455660527912708557e-02	1.800878339424825114e-01	1.061670265812755572e-09	2.101923881828545230e-09	1.412137820951856587e-10	-3.722450523828413604e-10	-6.911581764144802506e-10	2.066566893969845862e-10	-5.410824391701707232e-10	-5.930693181516237387e-10	-1.505510154043320977e-10	2.111600926369118809e-10	-6.911890401035879652e-10	-7.382946174463130674e-10	7.647493675084235120e-11	-8.724011172708487615e-11	5.675153571721076414e-10	3.906774044150549897e-09	1.686738084684651778e-02	5.641645359994141351e-09	2.428271114814757818e-08	6.734438995286061436e-02	4.188699023966230947e-09	1.734447565482109307e-08	1.115012100002550979e-02	5.369882968043755700e-02	1.403085378012032757e-09	2.484125174911457652e-09	1.685360807467628275e-09	6.142742300499142842e-09	3.035089423647631677e-07	9.278907779916334609e-09	3.544525969998804474e-08	1.909045352115497640e-01	6.725708484109659292e-09	2.675875127168513124e-08	2.631261765590732015e-06	7.788952335537338254e-08	2.472971656783758352e-09	3.645131473938619596e-09	3.340974485761001527e-09	8.501758516542766616e-09	4.879759211803141432e-08	1.374437429383309297e-08	5.511187418495926279e-08	2.346037308980348790e-01	1.066864639015076629e-08	4.168282375340738127e-08	5.047310561474193519e-02	2.443799715958642287e-08	3.691110122485701525e-09	4.574573920485988402e-09	-4.244015666772959399e-10	-3.044853421088131922e-10	1.745127071872798870e-09	-1.443486263282196573e-11	3.053548907619725977e-11	2.419782880388908995e-10	-2.876104469349921944e-10	-1.347943153526049392e-10	9.858741012051457671e-11	1.259555201218808458e-10	-3.676044423257179997e-10	-2.730025155396761273e-10	-4.267754526048414789e-10	-3.389149318996067947e-10	-7.073298007733719089e-10	-4.432341739969018173e-10	-1.117247689385365402e-09	-7.299028553496035768e-10	-9.308700270868692759e-10	-9.289071874077097877e-10	-1.207004636361672607e-09	-1.377340007729306258e-09	-1.109263100935628033e-09	-9.205528405163421920e-10	1.717289187294137411e-09	5.746932888991063381e-09	2.529318355177211702e-08	5.374261131139011861e-09	1.643476127528472302e-08	2.933878157318217463e-08	6.754190025011590690e-09	2.898308836094057837e-08	1.845337155708753896e-02	8.683496021130863995e-02	1.038400651006620006e-08	6.888418881821557645e-09	2.170325560504339011e-09	1.661719224701972292e-09	2.189790820182535679e-09	4.389219920896116937e-09	3.161109149184172642e-09	3.643450995348293758e-09	2.366145688371111982e-09	4.273147070395760273e-09	2.820816808597021281e-09	1.861519300167135548e-09	1.559173755573369321e-09	1.335112876887903926e-09
1.371760882844090362e-09	-1.395442998501519531e-09	-1.498735536752612084e-09	2.417336337699442882e-11	-5.804735571354405548e-10	-1.196069447371784995e-09	-1.050516083640010270e-09	-7.981690997569987046e-10	-1.327382581996799871e-09	-1.489939449244022636e-09	-9.856000122894227622e-10	-1.184951777968134012e-09	-1.199986259060500871e-09	3.250975402903889359e-10	3.364107168836173722e-02	-3.841720748431921133e-10	5.047943486121279259e-09	5.179401750680940148e-08	-7.699950413878979509e-11	-9.786501908345780320e-10	6.669298778228446856e-02	1.678988365306438302e-01	-6.334544408561153369e-10	-3.217606893266721443e-10	2.494612250665134923e-09	-1.692384138101358834e-09	-1.667510551568188996e-09	-1.012344309758992460e-09	-1.445298214659747912e-09	-1.447982316556143941e-09	-1.287061042052433189e-09	-9.588081226862955310e-10	-1.508846261565802548e-09	-1.518831352924487577e-09	-1.010148043096653015e-09	-1.306512885902565923e-09	-9.848968926334444394e-10	5.058204490581448115e-10	1.153112643709127902e-02	9.812150965911994111e-11	7.945644146942972433e-09	5.531554358956934647e-02	5.925651892297908618e-10	-6.207887022278262942e-10	1.511394756385569904e-06	7.648365955774481806e-02	-6.036612616438970702e-10	-2.278526245698770450e-10	-5.323779916936079635e-10	1.469943747011259289e-09	2.453656587439668833e-07	9.106124401795337969e-10	1.219018604148405405e-08	2.053481943364672546e-01	1.467785643904385519e-09	8.744135302909050398e-10	3.918653340923019637e-07	6.891111043938821945e-08	-9.145383541027933689e-11	3.412719321822789207e-10	9.421926686280960957e-11	2.300972489110455236e-09	2.652158484779271324e-08	1.857500246160124947e-09	1.937629761125721990e-08	2.069104933714027983e-01	3.080788516777010366e-09	2.810373134128354802e-09	7.633884282754870021e-02	1.074715483108072084e-08	4.700851313486673194e-10	7.753296002043917036e-10	-1.301935616721907927e-09	-1.023873989420751154e-09	3.512519973789420736e-10	-1.198139775252451688e-09	-1.170708367886469535e-09	-1.082314491588731787e-09	-1.333846080345872144e-09	-1.206406125988464267e-09	-1.147888480062525450e-09	-9.493864107090979946e-10	-1.274078448154721282e-09	-1.172549874583776995e-09	-1.615078558784563520e-09	-1.369713820324849001e-09	-2.583742586953048338e-10	-8.996042054360373948e-10	-1.601433040076258626e-09	-1.581139365058377388e-09	-1.729746933193758533e-09	-1.409827041582935759e-09	-1.540253052122912587e-09	-1.830060203393922930e-09	-1.704248317908433440e-09	-1.459502627066630715e-09	-5.234047455759796277e-10	1.155635316701340191e-09	7.918485478465321622e-09	2.148717512401235910e-10	4.799885404539352795e-09	9.078162695115199914e-09	1.549481995806106123e-09	4.437835619970293442e-09	2.946924825077136545e-02	7.036764231031214512e-02	9.860964829865405765e-09	5.759686955154403366e-09	-4.395244899830206108e-10	-7.522002789052285574e-11	1.290481481045253857e-10	1.195192026490502856e-09	-1.326400881137150708e-10	1.431921607820549165e-10	-3.574640516341053015e-10	2.984913442205862397e-10	-5.982708409796934462e-10	-1.475313652927980904e-10	-6.343980312254009869e-10	-8.118928318255471503e-10
