-1.266398761508993898e-09	-1.655033167388805955e-09	4.567612174970819553e-11	-1.464980967161733029e-09	-1.346987016442196799e-09	-1.373978965968413726e-09	-1.338490507095077961e-09	-1.568033868098847459e-09	-1.418569234007176881e-09	-4.987654331196079066e-10	-1.317789581847009570e-09	-1.220605201238135011e-09	1.832343721241231379e-09	-4.776310927749497595e-10	-5.242217770656460988e-10	-5.456322964888239738e-10	-7.366152366142040433e-10	-9.539139962397764190e-10	2.248054057483989752e-10	-8.693970705222606351e-10	-1.116817358889137902e-09	-5.554319946897793623e-10	2.231031377332784025e-10	-4.989587775283690739e-10	-6.031953717960381335e-10	6.920364796787256863e-03	5.285510135947906786e-03	3.344105745640796464e-09	1.103617772678117249e-08	5.520579743549981072e-02	5.318514682661352532e-10	3.763854723853605676e-09	1.191528738819973288e-01	1.008153083849526455e-02	4.187364097469037396e-09	1.111169090886426035e-02	1.688740562774226478e-10	-5.529899227182103348e-10	-6.974651780558508390e-10	-8.157099383106922657e-10	-8.437368433692651536e-10	-8.542074786092255983e-10	-5.857249014395776067e-10	-9.635082680477892981e-10	-9.673527560735143203e-10	-8.814466603046886714e-10	-2.741182378761602862e-11	-4.641679145001494672e-10	-2.314478013332619988e-10	4.125204694276889824e-08	3.011229702354626097e-03	4.537498900359982134e-09	1.361461953496352420e-08	1.428266612834525051e-01	1.248223170949117079e-09	5.013207018908667801e-09	3.827332547739470651e-07	3.489209430132747406e-04	3.749603664511600769e-09	2.769570587499756522e-08	1.205553833160056938e-09	6.109577620426942134e-08	2.185443823405882265e-07	7.288642266821343997e-09	1.959955893240448302e-08	1.069737787210277430e-01	2.694825454887838866e-09	7.594241719834078156e-09	2.420216698207522267e-07	1.249049403122370568e-07	4.633685033553956210e-09	1.777714163634832429e-08	2.323028701384710675e-09	2.623264268763447336e-07	8.121392615169939025e-07	1.188042371898352431e-08	3.014142178284182944e-08	4.069324027945127598e-01	5.450052946114117574e-09	1.332971637703542456e-08	2.118580869521599977e-02	1.124853633572254891e-07	7.241207159250546886e-09	2.281490869035918862e-08	-8.316804356382909630e-10	3.365556520406977737e-09	7.007302788509595286e-09	-9.786799073380767346e-10	-4.819221141800968589e-10	8.347701690065511786e-09	-1.024789647701118694e-09	-1.226174238173734910e-09	5.469373961138153338e-09	6.979598619260739820e-09	-2.554657047324538527e-10	2.304371762588930930e-09	2.204221369745782341e-09	3.507470308983424581e-08	1.934464732859837066e-08	5.374312832788017028e-09	1.093927889208258695e-08	2.760492934177872254e-08	2.941511559063418165e-09	8.579299448709335788e-09	9.845042555483770122e-03	2.078632955419814342e-08	2.249084350496098340e-08	1.011157073179100585e-01	2.219547349071248882e-09	7.208752682164897405e-09	2.525824136546849857e-09	1.533885458945270277e-09	2.096669066536812481e-09	6.560703684815733188e-09	8.536599071042310710e-10	1.418564927118289017e-09	3.243010194943780765e-09	1.134708027379704215e-09	1.548809694309271863e-09	2.172104487824503326e-09
-3.162437894311537081e-09	-3.212744857745147785e-09	-4.360565248306111643e-09	-4.758542035597670725e-09	-4.740021672329941686e-09	6.165397711095941688e-10	-4.243530778423465187e-09	-4.626408138469828300e-09	-4.794381327755256058e-09	-3.150144307848639308e-09	-4.229251081604719121e-09	-4.196028740638878950e-09	1.714085173540097082e-09	-3.053025231428688779e-09	-2.716043472445736922e-09	-2.433937835212027842e-09	-3.680505888603800845e-09	-3.972596477240032629e-09	-2.108338523020447323e-09	-3.869331588797691911e-09	-3.902811915118368345e-09	-3.151179058024899306e-09	-1.175048162481036703e-09	-3.103956348456019592e-09	-2.788570106554579224e-09	6.387408034566821428e-03	7.499123804521415533e-03	2.256045589928574485e-09	1.343117485254936563e-08	6.376597627976175742e-02	-1.665182559287168693e-09	3.148008716988016864e-09	1.051255631621821202e-01	1.098691829279457507e-02	4.363743692095701544e-09	7.966837075999117640e-03	-2.029877981563168928e-10	-3.364053418626078763e-09	-3.567888503527504804e-09	-3.782082859348308396e-09	-4.064797039682667370e-09	-4.068552921033753417e-09	-3.245444284348230764e-09	-4.077727796958946022e-09	-4.060001395758054939e-09	-3.857445889340049918e-09	-2.655104171730684589e-09	-2.641489320105320374e-09	-2.236078745008015059e-09	7.148793159406692728e-08	3.742173699525087167e-04	4.016216747432608200e-09	1.725087822944640324e-08	1.446240481468288874e-01	-5.343803651232254105e-11	6.834825604114849151e-09	2.619185747380174244e-03	2.899734691739620708e-07	2.791509788401602202e-09	2.837347636580331952e-08	1.794238661326000845e-10	7.093339644596524006e-08	4.015458420109514449e-07	8.238523394007244017e-09	2.668602245155176394e-08	1.055109248319345827e-01	2.144891090067957560e-09	1.001336116622672453e-08	1.082460454090333442e-06	6.049239499668366764e-08	4.116911756022999559e-09	2.161643735120664418e-08	1.086684930850635789e-09	3.416745941645812580e-07	1.516013468724798802e-06	1.500668032473360920e-08	4.191808221059911016e-08	3.877657248599459816e-01	5.636157520318774129e-09	1.675734015084591212e-08	4.624680655242728589e-02	1.597304857629102149e-07	8.186132392329882239e-09	3.245351718566028700e-08	-1.351303542295332241e-09	5.991514871180428118e-08	2.403979835378291791e-07	2.024210385065331905e-09	8.062543300762500850e-09	2.381641150867548363e-08	-1.066815583025919946e-09	2.364598344373053192e-09	2.091422003016970407e-08	2.240383175861391986e-08	1.763805514751626933e-09	1.585414095808557996e-08	-2.117263195709432747e-10	1.613658891337364156e-08	1.405744111650229597e-08	3.380566949011222107e-09	7.673045445810863611e-09	1.509090231982940813e-08	1.342513245297005434e-09	6.478950171522627728e-09	2.953762928480892283e-08	1.659810135839562101e-08	2.159973484480969696e-08	1.111225595295656648e-01	-1.099671728889652708e-10	2.132093919333160734e-08	5.442183594794544783e-09	-3.034496704671135963e-10	-1.261370538165809591e-09	1.031927560109051501e-08	-7.151715778435155651e-10	-9.044364724130451030e-10	-1.408927534052071174e-09	-1.127863400708275591e-09	1.730959192107768178e-10	-7.172307304237943119e-11
-2.226398967465983165e-10	-2.486597168474614930e-10	2.429914389577411159e-11	-2.265644812630033546e-10	-2.224372273246158305e-10	-1.876031852339626341e-10	-2.167106480795830788e-10	-2.263432236252718704e-10	-2.248563294004985769e-10	-1.795507532161241524e-10	-2.167270133563412770e-10	-2.017105330941388774e-10	-9.282493158457314547e-11	-1.422645565498407066e-10	-1.272569786243425708e-10	-1.370163889807873459e-10	-2.015732312749290306e-10	-2.050726451148968259e-10	-1.012578483400138247e-10	-2.023427799741310878e-10	-1.965955485460071756e-10	-1.374312029779326957e-10	-1.202477240754059942e-10	-1.627837893193669532e-10	-1.300527698469462953e-10	5.971904714282235023e-03	6.638175734899070916e-03	-4.513938164979186270e-11	2.432859724413315355e-10	7.664693012477397094e-02	-1.479192594630041214e-10	-1.735746335896079239e-11	1.116025104625695957e-01	1.088806527148918936e-02	4.761741752868965917e-11	1.444218904784147824e-08	-7.782635868485076793e-11	-2.205857081557143092e-10	-2.074839121146083038e-10	-1.950050983662771597e-10	-2.165280287954744952e-10	-2.181503067767149952e-10	-1.173085076700803292e-10	-2.216458190900889403e-10	-2.203712026511085434e-10	-2.027379127286853986e-10	-1.423993566754090587e-10	-1.800358008752326829e-10	-1.119656624358764572e-10	9.303871875248558082e-10	1.388254056831966224e-03	3.102844803065547181e-12	3.446132957326807675e-10	1.383868214457576740e-01	-1.087060420760453583e-10	4.161192135864881130e-11	2.502758362018969249e-08	1.582512194819833388e-08	-3.987471451695115179e-11	3.977899420314429017e-10	-3.142591615021062535e-11	7.956927846859371695e-10	5.370941708564682851e-09	1.194099254416432642e-10	5.947501943806513896e-10	1.155602679773077984e-01	-4.596159764199838328e-11	1.457063791570275121e-10	1.600096900709388987e-08	1.391226914644339811e-09	-1.023279434055084338e-11	3.010787109788418005e-10	-5.081485600720849326e-11	1.735691245877628387e-09	5.051703883259958245e-09	2.895955920528700262e-10	9.668263231472975390e-10	3.635538038269400807e-01	4.796076174868007531e-11	3.271599236866195932e-10	6.064058606102003257e-02	1.999273072666653785e-09	8.039955152810924301e-11	4.680862417851427032e-10	-1.093833193832850431e-10	2.144558823382105677e-11	-1.846010498028843977e-10	-9.654652900331992656e-11	-3.021895211934737910e-11	1.554664155817097112e-10	-1.391287325674872400e-10	-9.998375534496961562e-11	1.990242243583955460e-11	-1.202221235321095623e-10	-9.288653887539317726e-11	-7.244931750338235393e-12	-4.926116743964104023e-13	6.708155474376606012e-10	5.011583382373045870e-10	6.592021087774750300e-11	2.979459839074044694e-10	1.096704235882045324e-09	-3.085357908458577057e-11	2.246847773751863053e-10	2.493164021073692675e-03	7.452027770045307943e-10	5.474219936826630235e-10	1.062294275591639664e-01	-1.374426123456866633e-10	3.881707645821815191e-10	-6.045495918788158618e-11	-1.387401120074604104e-10	-1.576778627657956026e-10	1.099814391431857150e-10	-1.156247307142456441e-10	-1.483879224278791728e-10	2.313277952607974498e-11	-3.921186984319723890e-11	-1.221632455564030136e-10	-1.468724177130306947e-10
-3.367719885714969254e-09	-3.210589721505671548e-09	-1.838996481295020104e-09	-4.544280273421801876e-09	-4.559567254362602824e-09	-1.183052721495508718e-09	-4.198267427177405131e-09	-4.510621886170313642e-09	-4.495112299944777535e-09	-3.494699431524973719e-09	-4.086386506035512700e-09	-3.965747511434265166e-09	5.523124088581377671e-10	-3.271008805696097518e-09	-2.530145391834156721e-09	-2.357124151351074940e-09	-3.550528578836230935e-09	-3.621213646196871361e-09	-2.073774283787467297e-09	-3.387378536746058879e-09	-3.958778090164100871e-09	-1.603597094042254210e-09	-2.304241569645028737e-09	-3.917774538688080140e-09	-2.634098748173127619e-09	8.107986873789715249e-03	6.756739673811440992e-03	2.104905445979942931e-10	7.466530700464260990e-09	5.465914757349468051e-02	-2.399074725340869473e-09	8.820260224709847964e-10	1.159111386203679067e-01	1.113647085757690260e-02	1.650183656177280495e-09	8.061849962091466662e-03	-1.563689356880226330e-09	-3.478536760196177365e-09	-3.749965513827451634e-09	-3.808109006280855272e-09	-3.606881137699725249e-09	-3.715163652266829476e-09	-1.877068030253127736e-09	-4.119205032772034303e-09	-3.983981952959194314e-09	-3.429293741014122570e-09	-2.013543572325471920e-09	-3.298328411267103255e-09	-2.652234779951835180e-09	2.279536598652912633e-08	1.442940393357906338e-03	1.416160307894306424e-09	1.006340837765965160e-08	1.455966959874122058e-01	-1.654878509522479756e-09	1.842949757940039133e-09	1.702149368047817514e-07	1.445926101670931487e-04	6.685212425009299437e-10	2.076672023561139600e-08	-6.247644183708254569e-10	4.526665446848091969e-08	6.306885159089011912e-07	4.281526987851187254e-09	1.622856351825945029e-08	1.268343926824679890e-01	-2.343268997649017772e-10	4.285146800718444875e-09	1.157076459241976642e-07	1.200288509213080562e-07	1.659903896684476707e-09	1.404253437163124125e-08	-1.595871834229196344e-10	3.949752679177535185e-07	1.506733487594707698e-06	8.716936984023071986e-09	2.606411314615557205e-08	3.700798302218838431e-01	2.563112460916611711e-09	9.462265174369341321e-09	4.686794628788616690e-02	1.847606258888717017e-07	3.845136046270031896e-09	1.821624368444975132e-08	-1.782102893698935112e-09	1.180481013988099528e-09	-3.246325657173637997e-09	-2.316367119600114760e-09	-1.614563930462923345e-09	1.638350743065068772e-09	-3.056144342985837516e-09	-2.436167645738466349e-09	-5.081350617314767734e-10	-1.629530238468259089e-09	-1.938823586751320727e-09	-8.803519266310252795e-10	-2.499917803628725551e-10	2.271167679830258041e-08	1.400344817059915916e-08	2.654360566327276493e-09	7.695135211127210938e-09	2.323674534403593078e-08	8.210813347056044796e-11	5.669177054676855558e-09	9.445215685056339641e-03	2.210188837633844148e-08	5.321202312003502520e-09	9.495173812341078934e-02	-1.323433889702427160e-09	1.449689181556848969e-08	1.982038804608521745e-09	-9.916257482897684185e-10	-8.249409099370373563e-10	4.893540731282621485e-10	-1.356741747937009640e-09	-1.218581399805310817e-09	-4.368546006468183666e-11	-2.928680751167703258e-09	-8.136519465467733141e-10	-6.785876954983994802e-10
-1.639041088255543973e-09	-1.965605074877096140e-09	-3.412154780489037701e-10	-1.831017680005913468e-09	-1.779931401045036314e-09	-1.534034234297409405e-09	-1.736814856925747954e-09	-1.877269511400947166e-09	-1.803048281977278146e-09	-1.359375071273520523e-09	-1.731324623202020781e-09	-1.593617362923198951e-09	-3.078123771498395967e-10	-7.900780969219716461e-10	-9.526158290858245945e-10	-7.822399517712952651e-10	-1.510914619926901441e-09	-1.580725599691239971e-09	-6.557140691149674485e-10	-1.482781348411904770e-09	-1.570292580442790690e-09	-1.467607349905410909e-09	-6.068110633881294762e-10	-1.025548676199954551e-09	-6.984609811193732794e-10	6.982511543550905080e-03	7.398179641504944171e-03	7.850331848962696374e-10	4.861906734808645257e-09	5.147572535074872863e-02	-6.831013523501134519e-10	1.139249240170110206e-09	1.195637255495982654e-01	9.170360578933160756e-03	1.720393018163326619e-09	1.440136229036214320e-02	-3.893572078926915433e-10	-1.461965955760347254e-09	-1.650154591420146388e-09	-1.429628499338844144e-09	-1.545793001066456480e-09	-1.562213655925598120e-09	-1.315384564210683609e-09	-1.561305948534224591e-09	-1.581432786588691238e-09	-1.663816432786896976e-09	-1.013486660785310997e-09	-1.338451979096403610e-09	-6.004347347245574003e-10	2.721041851760819985e-08	1.060670257720660399e-04	1.414193228945921439e-09	6.210026903894895878e-09	1.546033646697526631e-01	-2.151292225171847918e-10	1.863233455600046920e-09	2.651913130164815201e-07	2.033998467393755179e-03	9.883968555938321029e-10	1.335672801398348271e-08	2.564149667433419094e-10	1.472949866380299914e-08	5.850116525044407632e-07	2.956986894728998327e-09	9.459592142551005182e-09	1.062843599148287632e-01	6.024718457794938960e-10	3.358559601323464483e-09	2.419116006015921880e-07	3.868783179438655853e-08	1.496121030706367820e-09	8.164936441609782389e-09	8.934612468550847670e-10	2.121834907645026019e-07	1.196328395772836111e-06	5.364464804451308045e-09	1.492465602947502520e-08	4.050682133816580488e-01	2.107394757888592748e-09	6.264588627387013448e-09	2.541921698680928848e-02	1.184079004090133159e-07	3.342597085445280999e-09	1.531585132450349209e-08	-3.979671521836648380e-10	2.934214772133203564e-09	1.088237627715743785e-09	-2.131790075993174627e-11	9.136045360903374403e-10	2.562313415499413633e-09	-7.406440129255245326e-10	-3.225735954109576536e-11	1.809001558925096971e-09	1.637496349836092565e-09	1.225265717466257647e-10	1.942816341645518612e-09	7.178077225939765721e-10	2.329836834661783916e-08	1.884394513909858480e-08	1.934306504967485759e-09	4.708395981912702837e-09	1.269288216707299252e-08	7.504797725256342728e-10	3.872259950371311461e-09	7.136101874142830766e-03	1.051981361954985398e-08	8.120137203827908958e-09	9.035393309827784158e-02	-4.379321976127403995e-10	9.171611183358664116e-09	7.973814169294184938e-09	-8.838979674401911312e-10	-3.867714621720744310e-10	7.529993411392409317e-09	-1.437117563403239813e-09	-1.136978680789707728e-09	4.191816177793053225e-09	2.874999029662204790e-09	-6.183173446587817443e-10	-3.647788204870177044e-10
-1.189376924345936434e-08	-1.425977553311878264e-08	-2.132662348500733361e-09	-1.299371757065709926e-08	-1.282802124297698690e-08	-9.795556468175287778e-09	-1.158843262675028468e-08	-1.285025906861218246e-08	-1.253331205046713686e-08	-1.016226435849926524e-08	-1.240813705375165038e-08	-1.217958502911894523e-08	-1.349062030649480543e-09	-8.194030597979427997e-09	-7.374856074562532192e-09	-9.031018163305061119e-09	-1.113191045587758521e-08	-1.130949477103450511e-08	-5.845049095867696327e-09	-1.153195043936498375e-08	-1.253422660095798206e-08	-7.826959211391512616e-09	-8.570423354039376147e-09	-1.047451830698107496e-08	-7.646910525854972822e-09	5.890817558500924776e-03	6.280578498443926093e-03	-3.045357861086237758e-09	1.287060037208823275e-08	6.179461832589492470e-02	-8.786901895620556467e-09	-1.724725506085767646e-09	1.121670634422408386e-01	1.108459297374219180e-02	1.532764880468830062e-09	1.784320325850829655e-02	-4.591738608184518796e-09	-1.235555599294463643e-08	-1.214780826849295757e-08	-1.233776376532288491e-08	-1.220711775466206938e-08	-1.231260077375238881e-08	-7.385737194812597880e-09	-1.299864172462359129e-08	-1.289683468048844703e-08	-1.192162589929726442e-08	-7.408491111945645543e-09	-1.089783510090039247e-08	-7.106465267605488305e-09	7.555863838367820354e-08	2.224219363731240809e-03	-2.738897603402383990e-10	1.856025791943669953e-08	1.387039805365969936e-01	-6.532590091986613897e-09	2.204016769660833914e-09	4.685896113829271600e-06	1.067492289967014374e-07	-3.114260993576241369e-09	2.204716170470448956e-08	-2.112313033958606176e-09	1.670852315179993538e-08	5.269708006707599415e-07	6.023773272788835363e-09	3.216444256551177787e-08	1.135239880672277574e-01	-2.789236264107772370e-09	7.724445942124151263e-09	9.417873027968448934e-07	7.952730160922986479e-08	-9.981734011503467660e-10	1.851135420589849247e-08	-9.867043133883690693e-10	2.725689381580301263e-05	5.589066710086148474e-06	1.552503349887160403e-08	5.252509060799069832e-08	3.739237221870461148e-01	2.464614117883743997e-09	1.836603404583343062e-08	4.587794608926406420e-02	3.198720205002129647e-07	6.400895370389037875e-09	4.514101539716943622e-08	-4.893819602187448771e-09	1.781029039765876314e-08	5.787466524693232171e-08	-4.440151524139462798e-09	2.459152752708778050e-09	1.428909383275531735e-09	-8.097262009329876454e-09	-4.114649048220285923e-09	8.823076201601171987e-09	-7.455121139274567885e-10	-4.906619159888590083e-09	8.507012763368259046e-09	3.913433202296198772e-10	4.376443271387175067e-08	2.427157447563054670e-08	7.973566171674321404e-10	8.765565155421947294e-09	2.492520988771535768e-08	-3.322087085758399090e-09	7.186048521018021146e-09	4.631778055346180406e-08	2.543322821000006117e-08	3.292781983812953313e-08	1.106455263140385253e-01	-7.970533472458299437e-09	4.074601276696684381e-08	9.525744040728836317e-09	-1.035104893408870386e-08	-1.248646858164752135e-08	2.485742006010567008e-08	-9.676220091537782626e-09	-1.135237398174525525e-08	1.114539586600057761e-08	1.618586833109180465e-09	-8.261398768509217597e-09	-1.128740245898194118e-08
-1.163535124651437870e-09	-9.434876018168793398e-10	-1.326348071609325749e-09	-1.517167479743039431e-09	-1.293253185431294740e-09	-1.270745384136250558e-09	-1.388555311635884290e-09	-1.607528864098781491e-09	-1.365518939748391395e-09	-8.735410290543102573e-10	-1.540579006303220038e-09	-1.359457307616133085e-09	6.752775597157951722e-11	-1.191069968954096883e-09	-9.173810380332940012e-10	-9.962956657707414446e-10	-1.355566407564897774e-09	-1.414936532465457648e-09	-3.567751190527098239e-10	-1.388839970505839767e-09	-1.490570545882808716e-09	-8.364034700655841278e-10	-8.919838095178999790e-10	-1.309309761317983748e-09	-1.035367998282556220e-09	6.302799828993849683e-03	6.962169376784766404e-03	-1.334310679158823178e-10	2.178521679846436482e-09	4.893432220748554495e-02	-9.793050745451473233e-10	7.581007226830306014e-11	1.297707892029251187e-01	1.058339808520727260e-02	3.999352229044520113e-10	8.698424397784587994e-03	-4.930789272007787319e-10	-1.267532907727875688e-09	-1.370263623989708793e-09	-1.276072256145359290e-09	-1.475846326690996944e-09	-1.471999749390243818e-09	-1.328536649595443759e-09	-1.410829740349353587e-09	-1.404362238991229822e-09	-1.320016162045566177e-09	-1.169676265899414000e-09	-1.071665600362755017e-09	-9.494908766113516235e-10	7.900347748698286163e-09	7.858518199702913811e-04	2.557749203920908312e-10	3.033589158160784222e-09	1.452045369904923777e-01	-7.176812586368231791e-10	4.162757895522756161e-10	5.400243967837059576e-08	1.069102054045294555e-06	-3.161874227804475644e-11	5.491227018618874141e-09	-4.518935760530980928e-10	6.792312454557291246e-09	5.078897944023797169e-08	1.188739129826107635e-09	5.020929995870893002e-09	1.087475084019689647e-01	-1.837642181964057250e-10	1.162576059018431044e-09	3.631601854319487530e-08	2.034905462318796696e-08	3.565239885573902034e-10	4.168673130695568240e-09	-2.329966374869731825e-10	2.477169384118279821e-08	9.689440799188740131e-08	2.624765158222620239e-09	8.210000657167061523e-09	3.979267039857566357e-01	6.356979919094314941e-10	2.920155636865514038e-09	2.290095816637804579e-02	4.044838266430105580e-08	1.404545104416178907e-09	7.709405683271302809e-09	-7.839991182114279867e-10	5.625032318658216636e-11	-1.300941722975155320e-09	-8.319682753637546809e-10	-5.563875994335415868e-10	3.268842725588287951e-10	-1.128651641893255837e-09	-8.367310398701864572e-10	-3.641887440095266489e-10	-7.539023053961335722e-10	-7.659377459765344091e-10	-3.800882390268656896e-10	-2.635302659891137912e-10	5.571884035844367646e-09	4.267547667119126769e-09	5.919098307585237364e-10	2.370548724591638566e-09	7.381726305081147955e-09	-1.551776639814803789e-10	1.632519656651921122e-09	9.564852541765329202e-03	5.514628410833835034e-09	1.660248348477784622e-09	1.036162573258193331e-01	-7.288781181186482864e-10	6.582016817132650251e-09	1.788309200391454078e-09	-6.684388165175382253e-10	-1.286706581739706269e-09	-1.228961405168711568e-09	-7.055207634742013111e-10	-8.956679096452165126e-10	-1.130004363286148702e-09	-8.108567665127286646e-10	-5.097596082164495262e-10	-1.101592516182452673e-09
-2.855777511624262717e-09	-2.348578620976176339e-09	-2.922945833198757016e-09	-4.253262505182429044e-09	-3.760681854358444482e-09	-2.431471900785307764e-09	-4.212184411160006478e-09	-4.108217756229318741e-09	-3.961224960373300268e-09	-2.561962572309323852e-09	-3.979134058952512220e-09	-3.898220803093865237e-09	1.160612335158654634e-09	-2.696028625921183714e-09	-2.613635137468031107e-09	-2.220619506415322052e-09	-3.461084576397505531e-09	-3.518880873019562959e-09	-1.526389516469765686e-09	-3.345121248913208452e-09	-3.868041673560118364e-09	-2.650459841486492030e-09	-1.537319452471533627e-09	-2.472262577027916708e-09	-2.237948922799531838e-09	4.866522153415315036e-03	7.170237353574694140e-03	7.141480722142801384e-10	8.362242027034533940e-09	5.157893424781186120e-02	-2.105914816403487545e-09	1.319345204400332562e-09	1.156952408226947504e-01	1.066939976502946467e-02	2.100752072340823658e-09	1.619169887963012311e-02	-1.574623859357228052e-09	-3.632523274415420288e-09	-3.472386671006585431e-09	-3.269686189313746864e-09	-3.434788478864041692e-09	-3.487825374900176376e-09	-2.314879359332749191e-09	-3.637808290425154194e-09	-3.305693273337382888e-09	-3.149345952661839127e-09	-2.421074306370236102e-09	-2.213914318603553763e-09	-2.159335788522483551e-09	4.157290014816453076e-08	1.942201880599249940e-04	1.982764105437802164e-09	1.104478895993113245e-08	1.408441869362067056e-01	-1.225202871472064507e-09	2.742720940882604884e-09	1.214937821644713075e-06	2.410554895114655371e-05	8.398358725520612326e-10	1.906910290534469015e-08	-3.702645474840616393e-10	5.845056136508186836e-08	7.460294192344799228e-07	4.966877897115487892e-09	1.752748471032947021e-08	1.201080484524702646e-01	3.076406369270708034e-10	5.046568359382221825e-09	1.806295703277180519e-07	2.400061253533769199e-07	2.143552852230134544e-09	1.630344843585768842e-08	1.780249960399716272e-10	1.248777704608477578e-07	6.694533706590198478e-07	9.635871228684929277e-09	2.799120593695336421e-08	3.756043262537775984e-01	3.063228672363058605e-09	1.041296815143748698e-08	4.698417593993735319e-02	2.358936426172171495e-06	5.486306916679698862e-09	2.956963710326386068e-08	-1.902429957960540129e-09	2.113943248756643774e-09	-2.796424231150453726e-09	-2.243133637950884167e-09	-1.719949955995563304e-09	2.239283526687179649e-09	-2.817525925733497686e-09	-2.365878251995831270e-09	1.590688160006857728e-10	-1.372726581277554958e-09	-1.790059013839984218e-09	-6.487715977370795348e-10	2.140870599330197640e-10	2.451878293223625219e-08	1.696643399740832127e-08	2.942881368969118901e-09	8.804736880968321711e-09	2.620174671876303606e-08	4.641273658381113148e-10	6.318703087307052325e-09	9.188137407758362532e-03	2.177052877019151981e-08	6.539854771324543495e-09	1.008749565025700429e-01	-1.355220790336208184e-09	1.463166177302666558e-08	4.968767027987763426e-09	-1.467368021679849700e-09	-2.123068561690189712e-09	1.717990903233714805e-09	-1.379947331571244332e-09	-1.808700605811605294e-09	-8.891677089608190715e-10	-3.210579979191915478e-09	-9.271760880774659435e-10	-1.852729287917836485e-09
-5.359288532935207261e-09	-5.300362373698801488e-09	-8.215483534869409663e-09	-7.884897816560168745e-09	-6.568154021935388009e-09	-5.164250617081073281e-09	-7.030967104973614176e-09	-8.001014109331898801e-09	-6.858149252809006625e-09	-5.455897142991974135e-09	-7.801948477238976767e-09	-7.050918996570931435e-09	6.661216595389731842e-10	-5.375938041261384987e-09	-5.043060076360155186e-09	-4.936426543926827348e-09	-7.103932170905117407e-09	-7.187820440229416471e-09	-3.025222420605607514e-09	-6.949476328470667810e-09	-7.290003252847632595e-09	-5.172920181555656177e-09	-4.303834344884960099e-09	-5.766912230467422497e-09	-5.522528380564048437e-09	4.919788665592567632e-03	7.577621789869977247e-03	2.182111811721320641e-10	1.384109970554192648e-08	5.265014763017526744e-02	-4.631434624804661533e-09	1.428355303765120975e-09	1.148130390767815173e-01	1.107347918387707568e-02	2.611955768429382665e-09	1.448029297737819451e-02	-5.737145683940518010e-09	-7.532761062472505011e-09	-7.668037968134337738e-09	-6.470929054033229491e-09	-7.218525073029921691e-09	-7.273295644133205745e-09	-6.522032658704080874e-09	-6.916765864150832488e-09	-6.472367662136229060e-09	-7.248450626693921882e-09	-2.008642490037842201e-09	-6.423837018808227103e-09	-4.861202625560939436e-09	2.737859792954860446e-08	1.100827878518866996e-06	2.413388672540639908e-09	1.854462206159588874e-08	1.447979752876066561e-01	-2.924127728926090780e-09	4.722452099452692030e-09	9.408368136904541430e-06	3.797441782849153601e-07	2.026678159458618197e-10	2.789672324883445972e-08	-1.765581188777224958e-09	3.225117157363370782e-08	1.324665955330385526e-07	7.775021499154395140e-09	3.008956345635781681e-08	1.128654598399408404e-01	3.375127579933132871e-10	9.287631916456277174e-09	1.072904264557008166e-06	7.051679164493509965e-08	2.202203617740352775e-09	2.162378985232224235e-08	-1.397790428147004628e-09	6.876845786632984095e-08	1.818221238488184080e-07	1.611476821018411330e-08	4.856992510641108494e-08	3.968236410756045829e-01	4.645581237016826620e-09	1.825451809881028325e-08	2.908357480905537223e-02	1.161814754187744018e-07	6.401005898957074906e-09	2.947736704164629825e-08	-3.829939018225707811e-09	5.458333571483049732e-09	-8.747637005857500911e-09	-2.362484532127041603e-09	2.208248596237030095e-10	1.852642668577742209e-08	-4.682314143398806112e-09	-2.255275271811685098e-09	5.158294736214518356e-09	-1.712950811762782118e-09	-2.777143217832933268e-09	1.648006863535347037e-09	2.896073446690861966e-10	2.805455795646070671e-08	2.477160876111176723e-08	4.440317295977101176e-09	1.383699016227347706e-08	4.072943473547645122e-08	1.148955420318273740e-10	1.081047378123814346e-08	9.107975065598678324e-03	3.412677100106760058e-08	2.101421633085385991e-08	1.017941995337995204e-01	-3.172531891001095694e-09	2.751740745501215122e-08	7.720746769011842724e-09	-3.668613675037356039e-09	-6.741977624335262755e-09	2.511234423075560982e-09	-4.058326147884771372e-09	-4.756006466149763545e-09	-1.262527765926021306e-09	-8.442984044683619198e-10	-3.111715573251396350e-09	-5.013511489461388177e-09
-5.352295360364020085e-10	-5.030684708220025748e-10	-7.550335039277399663e-10	-7.942065783771928782e-10	-7.710027141676329878e-10	-2.556063272517413196e-10	-7.588379440251789020e-10	-8.082314814759831236e-10	-7.285281679021373919e-10	-5.139251159616202680e-10	-7.145572127409546127e-10	-7.147394989558623213e-10	2.215828838694156298e-11	-3.850779063885139603e-10	-6.036791289559734518e-10	-4.088586319186597205e-10	-6.018931369615465157e-10	-6.261148607184667051e-10	-1.618344582432908011e-10	-6.871222139619048170e-10	-6.909569064070644411e-10	-6.005706028096173956e-10	-3.534580072761253283e-10	-4.094754806823925652e-10	-4.480981085559806105e-10	6.728212888987338512e-03	7.511548621939988062e-03	2.108226277619300982e-10	1.836341309988110243e-09	6.281412795233701218e-02	-3.841751974128827548e-10	3.318916549037760530e-10	1.054839054015090233e-01	7.801414142596751686e-03	5.117500795086549855e-10	1.614399383204051172e-02	-3.730330194462146921e-10	-6.825243541502091283e-10	-6.784384191552050716e-10	-5.809687503575725240e-10	-6.718857204723831025e-10	-6.797739482909158541e-10	-3.597727920025241398e-10	-6.945849908719006772e-10	-6.736035104617314450e-10	-6.008185433857683368e-10	-5.302220120649697674e-10	-4.383204572733919719e-10	-4.386752419073836991e-10	5.263427814486842973e-09	8.339838963104732616e-07	4.826850179397156674e-10	2.417010442359060797e-09	1.382708173126435958e-01	-2.148191067138733625e-10	5.793846570992563617e-10	5.414000058940071667e-08	3.849395092099079044e-03	2.627582154243110221e-10	4.454714770038368531e-09	-6.249865244183846079e-11	6.324696452300064607e-09	3.126698761146315563e-08	1.101176895864844254e-09	3.770735480711577030e-09	1.219784984198822725e-01	1.047136457307497807e-10	1.120172995595070086e-09	3.334794283829178887e-08	2.414254995588112296e-08	5.582053100741339663e-10	3.693313073139765604e-09	4.515196921439349181e-11	1.494559838475045027e-08	7.141702368701473955e-08	2.073923939072280117e-09	5.938499433362690878e-09	3.561769150667536965e-01	6.768544120577200249e-10	2.280439535679404106e-09	6.746477826772014075e-02	2.076084244155173242e-07	1.221604839294868700e-09	5.904164414247253577e-09	-3.772645527174128037e-10	1.520130371799238390e-09	-9.766177986219191737e-10	-4.171837160085818441e-10	-4.726109504644824668e-10	2.121688111622329068e-09	-5.358313752325867722e-10	-4.644200607167913885e-10	8.935519156343311364e-10	-6.723746681403406586e-10	-3.016855009741887352e-10	-1.913967586289531204e-10	3.295369310071434405e-11	4.887278173080845790e-09	3.087428455403863284e-09	7.278156918439284875e-10	1.844986517322700765e-09	5.111747234819029881e-09	1.752283671999833656e-10	1.393888064806843189e-09	9.366524058002631548e-03	3.614922398672911236e-09	2.110854220171966492e-09	9.640854384320894643e-02	-1.992181866706296872e-10	3.099919821369276950e-09	1.003149429385690326e-09	-2.881541117445182144e-10	-5.580148440352483877e-10	2.143448265461338184e-11	-2.996872881784951971e-10	-3.768531420180122333e-10	8.058861082201188590e-11	2.758197710563675192e-11	-1.553875780567877620e-10	-5.129681776233621348e-10
