-1.018897896360304409e-10	-1.328708588403679589e-10	-5.820922594362902830e-11	-1.442778595083376965e-10	-1.196391091034809499e-10	-1.152994933017900255e-10	-1.418592572626424002e-10	-1.466895545730811721e-10	-1.199561616718129509e-10	-6.623970294498431952e-11	-1.313443796955653818e-10	-1.158402508975724674e-10	1.283635273156190445e-10	-6.848582804786406587e-11	2.658471597137900025e-11	-6.922796714137253437e-12	-9.600340400795691379e-11	-9.988427118491661229e-11	-9.845398089918713411e-12	-8.216726109757610032e-11	-1.060280195596530913e-10	-2.935506839443797367e-12	-1.371942071470948679e-11	-6.015351220509282045e-11	-3.515558981440495448e-11	1.164864514901270583e-02	5.952976214429793018e-10	2.548590292769890935e-10	9.028124002124272685e-10	5.901761438286007994e-02	2.123614435468088393e-11	2.885756807864935507e-10	1.205116201439371260e-01	7.088286844764951295e-10	3.625447268995136510e-10	1.825190495790101827e-02	-4.074147925332229233e-11	-4.254952746630753750e-11	-8.579293346276866732e-12	-7.997745649622525819e-11	-7.916277191081489722e-11	-7.894513469824280541e-11	2.163327960768017838e-11	-1.007001363392546603e-10	-9.777867785392114136e-11	-4.149097540141701002e-11	3.632675574135228731e-11	-6.697819547501479606e-11	-2.215896467175789729e-12	4.277230941861991183e-09	8.366527993716843228e-10	3.539678916847920400e-10	1.116779514228353352e-09	1.457137791750792444e-01	8.958708936920818005e-11	4.159963795794489323e-10	6.040981177725956008e-08	9.680857795377145355e-10	2.734508470676668388e-10	1.787228733499026278e-09	9.965203420009849046e-11	6.536111419875061194e-09	1.268282797638447484e-09	5.846224784947892394e-10	1.620031906775192611e-09	1.067982351898190824e-01	2.054010816708072683e-10	6.344301808907757321e-10	3.209404959148339340e-08	1.263535178564672682e-09	3.619490780240098726e-10	1.370456066814800544e-09	2.172053572756956215e-10	2.756850370554324750e-08	1.817587907716429700e-09	9.627044260881471613e-10	2.487968541752714398e-09	4.073374720979900943e-01	4.363655023847948204e-10	1.117116732989721567e-09	2.097410635405664789e-02	1.974669911595192146e-09	5.807846812361590738e-10	1.817780922455630060e-09	-5.226520435910434723e-11	-3.667623285315297778e-11	2.702949911337366002e-11	-1.211790735345617646e-10	-1.063572952623306676e-10	6.125963642546525964e-11	-1.127951998661484467e-10	-1.354998945614304627e-10	1.128035767714024122e-10	1.368263390751487453e-11	-6.719362156617341771e-11	1.656273178565294942e-10	1.044824773004676957e-10	3.910445178514542344e-09	6.778141437016465749e-10	4.462531566109455932e-10	9.592035331832242256e-10	2.662398861015844087e-09	2.403340552757296004e-10	7.556243314829597628e-10	9.038481575426074097e-03	5.793302688008894820e-10	1.065166904258566087e-09	1.007079711325634258e-01	2.892982426842851926e-10	3.813486964968364741e-10	1.758544542277664480e-10	1.138921505383022148e-10	1.759256257531963974e-10	3.762150133597166575e-10	8.273215078293629379e-11	1.041634116792863317e-10	2.445333154235343762e-10	1.529986270247105771e-10	1.281734833162490450e-10	1.862025364147374290e-10
-4.251553978287738989e-11	-1.307008061561723831e-10	-1.000863416841037648e-10	-1.736528746529135689e-10	-1.826507526775097045e-10	9.702001441920334690e-11	-1.438981572596272349e-10	-1.648527745301661787e-10	-1.830841890419227387e-10	-1.185584321484107568e-10	-1.629768976162418026e-10	-1.075748941414166112e-10	5.777924001789015550e-10	-1.197496209547886675e-10	2.266194623546793897e-11	1.313165492516438489e-11	-9.550122527450940786e-11	-1.112212495442183668e-10	-4.131964526400334667e-11	-9.073121226125017975e-11	-1.274869294399175217e-10	1.332711753885193912e-11	-1.410284737176141981e-11	-3.084867914443605735e-11	2.774784699894277173e-11	1.126307363747358452e-02	1.450163645198312921e-09	5.363607764365203525e-10	1.648750600512167181e-09	7.049940904539553355e-02	1.286362192091238503e-10	5.890354860505852554e-10	1.060446937502580178e-01	1.527054994346573261e-09	7.055257512586241983e-10	1.600444904113389535e-02	5.945385936700869990e-11	4.152218671973216866e-11	7.117513570607230695e-11	-2.137967558455445216e-11	-5.633200928560027268e-11	-5.651936032969786949e-11	1.808799909621482551e-11	-5.504691513471413960e-11	-4.392041216224010402e-11	7.557153256847732935e-12	7.222464867679489112e-11	1.599835692029905861e-11	7.108387761964741772e-11	5.138321856767192990e-09	1.767674537572166500e-09	7.068941889970908405e-10	2.030123186480079272e-09	1.439536176686486979e-01	2.897305984258791473e-10	9.423899386077725500e-10	2.970816226880386695e-03	1.779674944020725607e-09	5.170208432257718046e-10	2.711766568311800322e-09	2.355083901742193952e-10	6.905998334895080889e-09	2.495521775751291577e-09	1.107427494006667835e-09	2.927747835840753322e-09	1.052408600933714411e-01	4.642745987389219611e-10	1.265109490938899203e-09	1.286177011234583290e-07	2.240147955880516032e-09	6.595782023296182856e-10	2.163480390814926282e-09	4.313563057261337573e-10	2.915486430280823526e-08	3.848849128913392027e-09	1.762422334615806617e-09	4.443392966216999166e-09	3.885966247866053935e-01	8.201258591132031403e-10	1.926271055887409756e-09	4.556447251684329208e-02	3.803851676319458095e-09	1.069066018701632251e-09	3.229791586504916777e-09	-4.885331481530656881e-11	8.477340434286382635e-11	1.962381013156610865e-10	-1.343471713609301099e-10	-3.840854209549023860e-11	8.056980738246069301e-11	-1.565403366215411566e-10	-1.153846523952259566e-10	7.560963488451775459e-11	1.330320922901751891e-10	-4.684355596697769715e-11	1.761142913115129118e-10	2.079107247566236188e-10	2.447130699927166149e-09	1.274266102221906576e-09	6.637488647169669375e-10	1.170152538034845802e-09	2.184048491686396085e-09	4.139224418981120327e-10	9.581602444362860115e-10	4.406659489798918352e-09	9.556192649941507865e-10	1.844734006088824099e-09	1.098617406558497073e-01	4.034110372942684725e-10	5.513103847302359197e-10	5.270160522283174380e-10	2.965433688326328412e-10	4.060717768344596638e-10	7.413609883698683191e-10	2.171103263598360594e-10	3.094880307649828302e-10	5.818333353908430607e-10	3.038788630767077262e-10	3.112732545188353190e-10	4.202460353098726512e-10
-4.329686472494958122e-11	-9.069538940879499967e-11	-6.331823363607055049e-11	-1.115186356389121857e-10	-1.113949841479380576e-10	3.918513548974404185e-11	-1.024049745577295446e-10	-1.154700600529471707e-10	-1.038405132602272522e-10	-8.778827379074760364e-11	-8.650125388365780807e-11	-6.118689250367663389e-11	1.714818162446853762e-10	-2.042749949316070112e-11	9.144660020259414204e-11	3.953701908612655401e-11	-4.720168171470652877e-11	-6.002580434720784037e-11	6.149177474064623935e-11	-5.294454150221240578e-11	-6.873850153539211566e-11	7.160947490977739380e-11	5.913721649200433762e-11	-1.043548574158470708e-11	2.631983684997238685e-11	1.084201883673883114e-02	9.823719224085638923e-10	4.055320650686797632e-10	1.235638824257444848e-09	8.316047292680546488e-02	1.012421030559061874e-10	4.404525190554087725e-10	1.136507435990308373e-01	1.208650818450566523e-09	6.178760381750135205e-10	5.455881018579346493e-03	5.868458628357142961e-11	3.530900565572468915e-11	6.135292709547025549e-11	-2.447868847289128287e-11	-2.219869875936672668e-11	-2.129518237833372396e-11	3.703505246849328423e-11	-3.914321722026444118e-11	-3.658106390527273504e-11	1.903517755098131679e-11	5.794568434634435527e-11	-1.790556526430046655e-12	6.717023012515183481e-11	5.383728270756112899e-09	1.307893399597568326e-09	5.346500902122576442e-10	1.518649849518998482e-09	1.391728094167589691e-01	1.998444494104769093e-10	6.439547641590043994e-10	2.667687756266758991e-07	1.376555147544545118e-09	3.936331834674670070e-10	1.683705446590596193e-09	1.882353887098520618e-10	5.711711628090076713e-09	1.717371035363857514e-09	8.333533918470396384e-10	2.173633172135287266e-09	1.152987030206951702e-01	3.551247332800684363e-10	9.417116833379548950e-10	1.226115257493909435e-07	1.757561611673890768e-09	4.777791496350639572e-10	1.349194776293198498e-09	3.406477916271476405e-10	8.406645734788079888e-09	2.590708112899772728e-09	1.327535898688237219e-09	3.318194994467705259e-09	3.635997452292411003e-01	6.027858163407109979e-10	1.408693296454730405e-09	6.074966194516675383e-02	3.155344660907477579e-09	7.830461114685689534e-10	2.033313850707520530e-09	1.739056755246939513e-12	2.646446750817927377e-11	1.212148535288609142e-10	-6.465541465759543140e-11	-5.718888455254689796e-11	7.786419770899986041e-11	-5.581930600009811873e-11	-8.161012218517580147e-11	1.590726303160247724e-10	8.127199591380542419e-11	2.514759878602027052e-12	1.897133929151017465e-10	2.191831250247940672e-10	6.608351210281695993e-09	1.320829693444657323e-09	8.158781145411351603e-10	1.905586590486292597e-09	7.781088736544758874e-09	4.547963139483719364e-10	1.420792765857532790e-09	4.163227634040477703e-04	9.198240776045706749e-10	1.325096399191055199e-09	1.076531674620569423e-01	3.484397776675200797e-10	5.138341025844319771e-10	3.953214900243134284e-10	2.433896700749503725e-10	3.379713966642065690e-10	6.578032145438574491e-10	1.894622507025736897e-10	2.377437732781265803e-10	4.717974874629157247e-10	2.500948554980187481e-10	2.442051496111186975e-10	3.181129915902384243e-10
-9.683904691580031638e-10	-1.231605054019898554e-09	-9.213776749322248118e-10	-1.298312695979694052e-09	-1.291434416591397764e-09	6.379697718314989335e-11	-1.249840294847264066e-09	-1.287642219215400449e-09	-1.318022730122890631e-09	-4.785263095594936535e-10	-1.142988952247153465e-09	-1.008766340711110478e-09	7.240859768567616584e-10	-1.017581187301618806e-09	-3.735309722213864322e-10	-4.609032187892457631e-10	-9.060379962481271062e-10	-9.863470777263340586e-10	-7.310563753571087999e-10	-9.130792239825789883e-10	-1.050032385086280229e-09	-3.870874466816288168e-11	-4.124802568388169234e-10	-7.610959721845659297e-10	-7.934463033840557990e-10	1.302423018397222583e-02	-8.575110710702050140e-10	1.035226675674584945e-09	4.703182661556410784e-09	6.032532964538341036e-02	-3.359842638282960637e-10	1.215384057345120487e-09	1.173025786215750321e-01	-8.646113323284363988e-10	1.334722166054646126e-09	1.591926297519532033e-02	-8.188408153487866491e-10	-8.914357981647515182e-10	-3.830288713619252729e-10	-8.619720350703137017e-10	-7.406704668921503092e-10	-8.251747767731615532e-10	-8.670661992579285318e-10	-7.978761383500125019e-10	-6.614220911847393392e-10	-6.264116773025142354e-10	-4.322814633493967515e-10	-4.180710741642995472e-10	-7.057881765349331335e-10	1.319557320788408749e-08	-5.628519821083784387e-10	1.616612086142532826e-09	5.907474389126232146e-09	1.465623474803397219e-01	4.053869711757681139e-12	1.766729834527023035e-09	1.927352524455582025e-07	-5.487188624778928668e-10	9.230456889269037234e-10	7.806779869180078560e-09	3.698856225421198218e-10	3.697808290220589575e-08	-1.187214142382249664e-11	2.952775308873583292e-09	8.659257673650526611e-09	1.266042124585467221e-01	6.661616452695582993e-10	2.939492121890401435e-09	9.231166276913395204e-08	-7.165898897979340502e-11	1.501118659720568783e-09	6.705325844237060761e-09	5.094065597075096397e-10	5.007647891476893000e-07	-2.336851698773131143e-11	5.236454951241212605e-09	1.386490958347875443e-08	3.706364682064429150e-01	1.971443992665164516e-09	5.490335791448831191e-09	4.655179263648994564e-02	7.315436100072361675e-10	2.646721903423615689e-09	9.340577051421783586e-09	-9.608022058364119802e-10	-5.705246750005630535e-10	7.219106941165117931e-10	-4.152117141685269353e-10	-1.486442964413113920e-10	1.666522823892225683e-09	-8.975890814146632422e-10	-4.231665435131357792e-10	1.548497388449760273e-09	4.097977269458295532e-10	-1.761684650486708517e-10	4.242232599278675906e-09	8.690482705328951442e-10	1.729502040900286859e-08	2.555354019242492542e-11	2.113972658394103443e-09	4.915032853867941432e-09	1.402668884386449506e-08	8.116159883040071460e-10	3.492017219062596047e-09	8.717541586249497390e-03	1.345691819819042995e-10	3.730191074213832916e-09	9.435528048195930551e-02	1.014416101255385024e-09	2.356120616699979695e-09	3.377957805727932928e-10	3.625940608804920181e-10	6.691313140639655308e-10	2.083018531029258330e-09	2.224114398589759501e-11	2.471238780339392187e-10	1.261357157817983198e-09	2.468028147265167638e-10	3.603951757364928510e-10	6.282435788452301370e-10
1.367244952924505950e-10	-3.797313312241356532e-11	-2.257166448384421839e-10	-1.205645060761748026e-10	-9.384406747694234828e-11	4.539262370937985807e-10	-1.910670557840627426e-10	-1.712309677000450806e-10	-9.067775205637920739e-11	-2.779481041430593858e-10	-2.548908537004853093e-12	8.146261188573847027e-11	2.008428569581863406e-09	1.970947153901775560e-10	5.768126486346615886e-10	5.148045026695710627e-10	1.581185462678415411e-10	1.100426068361875438e-10	4.433899172275626894e-10	1.737216874466413095e-10	7.428541059603845409e-11	6.076346529057663089e-10	6.757545407876058393e-10	3.550993047146361818e-10	6.233627494707105497e-10	1.166724990986297422e-02	6.571931801292984033e-09	2.898470963116588202e-09	7.757036101020407856e-09	5.650616815985469443e-02	1.116561117083049049e-09	3.054780163173135513e-09	1.209817160478383197e-01	5.691570334192296560e-09	3.438200927356828088e-09	2.154272691847371884e-02	7.404142094571716857e-10	5.312320927333744307e-10	4.000926731275057006e-10	4.606398942258297959e-10	4.776678911140739135e-10	4.679733321185077089e-10	7.430946900260324814e-10	3.350642708269135629e-10	3.711996651358734908e-10	3.854199826700066815e-10	8.091412791251634178e-10	7.753861394651634386e-10	7.976113054610960349e-10	2.880275240286802416e-08	9.109012531179133619e-09	3.586825446376818126e-09	9.176786811020232744e-09	1.561739163846116163e-01	1.614942916001201078e-09	4.108927603803360591e-09	8.211148705280344193e-07	6.892521702681741694e-09	2.900308770439320160e-09	1.472056860114676488e-08	1.510192180508597713e-09	6.700967676943683314e-08	1.379524352189451821e-08	5.208163680132373495e-09	1.257517593435193396e-08	1.060970909310385152e-01	2.546867637874334575e-09	5.815967333225739302e-09	6.173700939577431663e-07	7.996791914545531255e-09	3.546701896300991765e-09	1.094190297498336679e-08	2.515269985975563555e-09	3.868390079108615777e-07	1.963676141635542448e-08	8.086869130793152744e-09	1.939506005442254042e-08	4.053214637233647499e-01	4.160050579147895216e-09	9.268622628130241069e-09	2.533275733779865105e-02	1.776235948225647388e-08	5.699134501515909526e-09	1.892277389285529280e-08	3.523974475668997790e-10	5.880084431639388544e-10	1.152747976346773986e-10	3.773861337229738842e-10	5.781418384779899047e-10	1.014254717936255119e-09	1.685797936188006115e-10	3.877208539523606217e-10	1.296452645186886881e-09	1.538978241281510248e-10	6.835186703316049235e-10	1.586009496198872474e-09	1.618282249738931679e-09	1.065313972680117863e-07	5.205235944056620506e-09	4.262204211874657582e-09	8.155639578224987829e-09	2.120188403021342331e-08	2.643124013965466370e-09	6.451417008996527924e-09	6.131269840892478000e-03	2.166492605252082417e-09	7.738898216175389150e-09	9.024325866433907661e-02	1.579134767119822098e-09	3.457057415735935369e-09	1.125403656025083066e-09	1.690757154374899512e-09	1.932267592637852302e-09	2.494338151595928071e-09	1.315410949261459444e-09	1.609328026077194976e-09	2.413479975097527713e-09	8.329548383254871614e-10	1.829445274099081683e-09	2.093343854776018556e-09
-2.698554784357420941e-09	-6.717076552804200455e-09	-3.536059077404856408e-09	-6.728869090184503491e-09	-6.180876881591699005e-09	1.735836446584588601e-09	-6.238709014199373657e-09	-6.462458255124340773e-09	-5.417808048663258891e-09	-3.272803074000707357e-09	-4.631192770631403654e-09	-5.933456037985902932e-09	5.574498469273764105e-09	-2.116272392497493054e-09	2.867254672338650025e-09	8.402868100148763854e-10	-4.142646335366452871e-09	-4.646798250580892115e-09	2.612228739942454551e-10	-4.081525178550999702e-09	-4.904733336538969061e-09	2.417638420445963189e-09	4.765064812815960833e-10	-2.476277090531247770e-09	-1.468071644692765749e-09	1.076158800463367440e-02	9.616830689286735541e-09	1.533351202892374007e-08	5.055759727291817374e-08	6.708078709762851921e-02	2.345399704221627610e-09	1.663838764688886633e-08	1.132632466200011317e-01	1.531347012593627012e-08	2.147477634866791437e-08	2.590111836305067014e-02	4.036317415903605214e-09	-1.936432219357006109e-09	6.416713192811188414e-10	-3.256166906408260726e-10	-3.066419138900915752e-09	-2.951270760375216114e-09	-3.191220074888560254e-09	-2.304651663029344938e-09	-1.049749464966798639e-09	6.290619254416164164e-10	-5.391994743083838439e-10	4.033162997523877419e-10	4.037896048301523234e-10	3.350226391484447300e-07	1.716455333122332856e-08	2.072581257076781063e-08	6.198297557240326164e-08	1.403130181150372691e-01	6.736395387168400663e-09	2.647991883391868012e-08	4.917501796303260756e-05	1.706454374370683001e-08	1.381527269479935588e-08	6.749556587744067037e-08	6.335597409648846281e-09	9.882917527921236858e-07	3.103597717888826639e-08	3.310541068278003313e-08	8.903191921440231311e-08	1.132061435035880276e-01	1.406993612427269764e-08	3.734127952002897887e-08	4.724303751324998468e-06	2.482984734832433868e-08	1.878929863596853240e-08	6.257646820741283299e-08	1.549801279209437183e-08	3.044379035251714685e-04	5.343746479986594373e-08	5.433178131920891838e-08	1.379289154435191300e-07	3.744006880539983984e-01	2.427209834050852067e-08	5.848036184928115549e-08	4.531294558359844765e-02	5.413128005618506524e-08	3.521099515612513120e-08	1.209757599769827138e-07	-3.831773666858710802e-09	1.535384830784697542e-08	1.408468027655662683e-08	-2.051609378207346005e-09	8.604638756774531244e-09	1.571324485791699787e-08	-7.833994328703546806e-09	-7.497005777576136602e-10	2.380147901601121532e-08	1.395065370897694528e-08	-1.553032298231179593e-09	1.953834940425503513e-08	7.669704746888121265e-09	2.075223233303623617e-07	1.453863385444188902e-08	2.216555893864528077e-08	4.393742260736848917e-08	9.638412507431496651e-08	1.272146915009159707e-08	3.470730364101617273e-08	3.133827698549362976e-07	1.522476627711693075e-08	5.817258476711296066e-08	1.093985805421045510e-01	5.502684458761612893e-09	3.502837772881609794e-08	1.026900687204667665e-08	8.693737981204553130e-09	1.159894278600703735e-08	1.425216387710553833e-08	7.551979435341872794e-09	8.191474190924401937e-09	1.228626257540797263e-08	1.017279986969693333e-08	8.918781100983732843e-09	1.226100148212940002e-08
-1.013759924199660751e-10	-1.369547835102869229e-10	-9.784148123013706901e-11	-1.367049811132959849e-10	-1.065143259942929630e-10	-6.319041800161624560e-11	-1.363663466407679787e-10	-1.458578132712637475e-10	-1.137847243682320320e-10	-8.963663702333476903e-11	-1.316771278264877779e-10	-1.058958873667281607e-10	5.493184203482394984e-11	-9.569378132166551758e-11	-2.753513077377236105e-11	-2.660622091302967006e-11	-1.178042801905646919e-10	-1.194268047959972588e-10	-4.849952668340441951e-11	-1.074781524518419226e-10	-1.199515045084630360e-10	-7.318048565152552828e-11	-5.810333854509459426e-11	-9.350901732066755370e-11	-7.839678464471180744e-11	1.103477330114008108e-02	6.195970122670300305e-12	6.955395865247247259e-11	4.189258404688968401e-10	5.489804370242427206e-02	-5.835330959483688892e-11	8.536645079978246895e-11	1.310325113027827615e-01	6.424718243035512435e-11	1.193908793790070328e-10	1.615978821461740850e-02	-8.808477069868430350e-11	-9.214885063504118205e-11	-5.423748206182335497e-11	-1.089747005370744762e-10	-9.995828839563768579e-11	-1.062974231795829298e-10	-4.436833083555379014e-11	-1.214408673752451979e-10	-1.170166802560451731e-10	-1.021816217728718642e-10	-6.367238789470867776e-11	-9.345336962161238545e-11	-6.272468344075920837e-11	1.641220975334742153e-09	5.143982091334446754e-11	1.219085383564020033e-10	5.228622459444540032e-10	1.453633651495132018e-01	-2.012177698438478065e-11	1.607569274282481656e-10	3.424265135864528629e-08	1.046913028010343038e-10	6.675086985807497451e-11	7.371084044959246955e-10	1.310512849230284475e-11	2.479479337698974366e-09	1.087745720402332433e-10	2.454395867521093073e-10	7.838275789569836105e-10	1.085724651281383540e-01	5.553788355100097665e-11	2.732305144404404555e-10	1.492969803572240525e-08	1.986328736889905149e-10	1.264487761639125120e-10	6.742119527619841817e-10	6.863717943792136031e-11	9.891576266458927074e-09	2.048342870524250576e-10	4.543355050229375517e-10	1.260231295130127897e-09	3.984062868198826601e-01	1.745945465881169260e-10	5.568478480066711535e-10	2.264607079621487606e-02	4.028300512765231218e-10	2.860121874637164485e-10	1.329890369008053322e-09	-1.352275542078324420e-10	-4.068274760842737901e-11	4.726139713242656779e-11	-1.658570277882317593e-10	-7.858560131436052816e-11	-1.738461366364165088e-11	-1.812171416527681777e-10	-1.633376887177549166e-10	5.635396247593919102e-11	6.824994275235944006e-11	-1.537705818729637107e-10	4.045659685182647305e-11	3.789158576131931770e-11	1.850320346574130354e-09	9.572627940818974033e-11	1.775388336508767133e-10	4.770372777910465585e-10	1.500885010554679066e-09	5.991827457889182816e-11	3.482612871709557640e-10	8.925041959698492428e-03	9.118713747748939368e-11	4.374515740965081601e-10	1.029615790416848614e-01	1.067639000874999058e-10	1.567414556780836202e-10	4.481732683178967035e-11	9.433864439050314272e-12	5.752853153117211023e-11	2.503102424159351665e-10	-2.058348410637264124e-11	6.755221708306917418e-12	1.195718529154987544e-10	7.937719388483072934e-12	1.222608510944131315e-11	5.876557748322086490e-11
-1.894715893306695331e-11	-8.371743293383125802e-11	-7.205662641652037247e-11	-1.045840769877050558e-10	-1.124877552762432022e-10	1.170468516286830604e-10	-7.891127497933112951e-11	-1.117746766867910830e-10	-1.205103282373956283e-10	-8.931614185358519686e-11	-7.960270211997666471e-11	-4.661580598141041989e-11	2.105053127083192177e-10	9.750450794220862641e-12	1.181940306413166131e-10	8.943895418764773846e-11	-3.506290101058673624e-11	-4.395846445638164655e-11	7.490014794664699523e-11	-3.002317674382130681e-11	-5.035033994904237373e-11	1.035046232812407146e-10	8.863403701179163343e-11	1.815056197171131617e-11	8.368738458955016898e-11	9.463398807206119256e-03	1.200687268582988693e-09	5.601281780054143920e-10	1.607483827345615275e-09	5.795433770544627244e-02	1.708122382433255836e-10	5.947379081117756369e-10	1.169675591722405955e-01	1.349454349710661599e-09	6.743974794096430691e-10	2.370145322651020028e-02	1.863030165248750775e-10	3.663350193476774778e-11	6.943729304196474917e-11	1.115627869097468793e-11	1.372533790929415386e-11	1.299073406952870578e-11	4.902876103886172042e-11	-8.895390087359795890e-12	-5.481311945635168756e-12	4.762187412573092522e-11	1.084429871249663511e-10	4.607161290314118554e-11	1.127226336206030475e-10	5.111601346779963745e-09	1.710967170721441023e-09	7.153275366981022567e-10	1.935865839285032159e-09	1.404175159696363362e-01	2.892778313025410021e-10	8.554094831695503521e-10	6.902493171510801192e-07	1.634117374326086783e-09	5.169437287899919752e-10	2.384581419179116473e-09	2.840868584553530854e-10	9.809532002627145017e-09	2.614036934379934139e-09	1.085389468138810771e-09	2.750918855500330343e-09	1.199098458965762587e-01	4.788560338599795312e-10	1.157239657532906694e-09	5.322265277201912159e-08	2.199871732713419410e-09	7.023885019134951238e-10	2.361371048438922009e-09	4.873459999712468340e-10	2.113092071666364803e-08	3.336875489251213909e-09	1.708858414686374370e-09	4.193915224724483568e-09	3.761363815104533104e-01	8.110733484743337111e-10	1.839860077190519139e-09	4.667285280444267992e-02	3.707065324551619159e-09	1.154153037605761170e-09	4.028340911292478691e-09	4.985741220310025533e-11	8.369365855038831385e-11	1.034442095329285194e-10	-2.965985786395653175e-11	-3.335495553725755341e-11	1.130204033796863648e-10	-2.173448770089073266e-11	-5.202792273394124956e-11	1.815562957955742527e-10	6.813170466948642526e-11	5.387556283052551390e-11	3.028897194046093735e-10	3.422179222836121187e-10	5.057979334229255415e-09	1.272193849247920268e-09	8.801580011859484607e-10	1.795649244499199365e-09	5.095764658520672536e-09	5.039467553676819079e-10	1.333884782649565322e-09	8.579982524270186178e-03	9.951029629127622157e-10	1.681901820146668215e-09	1.001958169060745557e-01	2.618264382225280647e-10	6.613268851909704745e-10	3.666803737924834840e-10	3.024922459714615691e-10	3.920268522919725849e-10	5.736425335808139962e-10	2.459022291411081327e-10	2.828614111297933879e-10	4.363441719686803767e-10	2.671117883762927781e-10	3.289355196481809076e-10	4.379891470966170315e-10
-6.753338221333980214e-09	-9.169327180831372419e-09	-2.252592389260251624e-09	-1.046749328407398440e-08	-1.069032804034167666e-08	-4.820653571463076407e-09	-9.402682956779938484e-09	-1.054971788402713534e-08	-1.077935582949002880e-08	-3.540820437549026701e-09	-9.848468770835005028e-09	-9.020791025408756413e-09	7.778970729385761957e-09	-7.816463795274162565e-09	-2.122082112736079651e-09	-4.363386474526975399e-09	-8.618194657225212369e-09	-8.883801915932861849e-09	-5.920136056240374383e-09	-7.863636556166255188e-09	-8.885191473252368430e-09	-1.578900633526523563e-09	-4.940232427883667377e-09	-7.035691732339039073e-09	-5.333274874179996040e-09	9.679732884573261781e-03	-6.915564921497117963e-09	6.145562905533279659e-09	3.172761331862527721e-08	5.945818640525189075e-02	-3.296915887257004484e-09	7.585890085349822972e-09	1.161016032472087373e-01	-8.252832384713841935e-09	1.018004450120803454e-08	2.227621600141846403e-02	-5.077817696561259479e-09	-5.491183899478808444e-09	-3.271113000688844595e-09	-7.280271315904685670e-09	-6.606203300610292216e-09	-6.729574742906996372e-09	-5.479995679571780060e-09	-6.856639605037511618e-09	-6.078637078322421294e-09	-5.131327071859297164e-09	-3.610975571725254934e-09	-4.510594040466298708e-09	-4.055779404436818180e-09	7.890177250670268684e-08	-7.070234485666144593e-09	1.009814048802923469e-08	4.011743754954633860e-08	1.440649059902255891e-01	-8.722476072893136128e-11	1.443330225497752840e-08	5.171814577192374246e-05	-5.956908073117743966e-09	5.662317107793522697e-09	5.373879800929083717e-08	8.074708266761583220e-10	1.239048899396014105e-07	-4.848367034861020013e-09	1.956031257068442280e-08	5.935469184497407011e-08	1.126744085396973877e-01	4.747396161143386760e-09	2.264061275958380939e-08	3.425741967879714824e-06	-9.652031736834644194e-10	9.523616741143538520e-09	4.564553414636028633e-08	2.155075019509915454e-09	1.940650896312596581e-07	-5.083922356189648885e-09	3.541612955529220401e-08	9.657726768988957598e-08	3.973442926164636457e-01	1.298748983182155186e-08	3.808817291088809289e-08	2.878283167182534019e-02	-8.693300577360754168e-10	1.744019350543006333e-08	6.108664669601993897e-08	-1.393144552735039993e-08	6.957970262722977281e-09	1.415552979087007191e-08	-5.044937267731253882e-09	5.740288789462769377e-09	7.989268938890595590e-09	-1.208295521674106888e-08	-2.294092071262691002e-09	6.178868527102834203e-08	1.390501426891327776e-08	-3.928558321463847767e-09	1.873292180457462108e-08	5.074024473211625382e-10	9.795590531249694383e-08	-6.043615310319360017e-10	1.247542469101057392e-08	3.025656174992132120e-08	7.951060361436283571e-08	4.810733447551046862e-09	2.314353035405607053e-08	8.490225294438668441e-03	2.337915950644659984e-09	3.548478960755655517e-08	1.010712814364533862e-01	9.854596868214146612e-10	1.343469385986706534e-08	3.825015577251694740e-09	2.630304998536588298e-09	5.276585580062725552e-09	1.838458506078726875e-08	1.316672003711047363e-09	1.995812771991741822e-09	9.762304864663910878e-09	3.274713231269310172e-09	2.119501868925814807e-09	4.965596648330312011e-09
-3.885007285448268831e-09	-5.141551876732246558e-09	-6.469374147975351419e-10	-5.723733264910209968e-09	-5.961362814400472733e-09	-1.138801920138450295e-09	-5.484829919788490772e-09	-5.585438504298588019e-09	-5.859643527070147002e-09	-4.453175026300649890e-09	-5.303135473869721547e-09	-4.655584941660311806e-09	4.028011231509218665e-09	-4.987988190541898696e-09	-6.251349843625186489e-10	-1.323162438158481635e-09	-5.006572172546660348e-09	-5.117131478364810821e-09	-3.763721103693026680e-09	-4.525737093396795048e-09	-4.806673974356663105e-09	-1.846353136903474261e-09	-2.815526754685120274e-09	-3.943165138194895865e-09	-2.799782814148430227e-09	1.143050319484804726e-02	-4.864006463742113793e-09	2.280201321425641786e-09	1.496482744781469876e-08	6.658028550398932544e-02	-2.321089429656902480e-09	2.968540823641764908e-09	1.070664973746483506e-01	-6.199431151688609727e-09	3.981188480941609710e-09	2.292653547011689469e-02	-1.527904023210368800e-09	-3.371526487326579264e-09	-2.829830922552847600e-09	-4.514322014656611437e-09	-4.434529601025671974e-09	-4.460413200028549408e-09	-3.566748974380799887e-09	-4.743133768017309263e-09	-4.687829421806228519e-09	-2.994572387515467932e-09	-2.954238292584104332e-09	-3.678744806195915662e-09	-2.841648150393250177e-09	4.891437408341082558e-08	-3.200468409410434837e-09	4.238324259561659886e-09	1.892248150347862395e-08	1.416887746728664466e-01	-7.085330944346334942e-10	5.871568679714261763e-09	2.066673644115307601e-06	-4.439935643597332993e-10	2.664386325234425266e-09	3.913411006196673365e-08	-1.519794991815159480e-10	8.944457201330514103e-08	-3.051982496600125360e-10	8.781552305400103093e-09	2.853187426815105325e-08	1.217363921929860704e-01	1.511540239146649634e-09	9.944079980968812718e-09	6.998395075004899677e-07	-4.667940511910402482e-09	4.720800577001269453e-09	2.950619998873064076e-08	5.704755101093599301e-10	1.826822590618038458e-07	1.986100555754043462e-09	1.634832836780427834e-08	4.600920544558881659e-08	3.563537451539160461e-01	5.715166126812321112e-09	1.803148877797130821e-08	6.743682516589845355e-02	-2.864648615835297075e-09	9.580170508989354049e-09	4.516846464574741277e-08	-7.025414034747958816e-09	1.779897293629060085e-09	4.674507282050940668e-09	-4.521595262830977419e-09	2.406155396726303245e-10	5.326194970773888469e-09	-7.000940090316801291e-09	-3.654293899485432659e-09	9.721746473268789529e-09	3.167220172024740320e-09	-3.149416900663442601e-09	9.339317305453449921e-09	-1.714171858702098869e-10	6.322223033122979463e-08	-2.241584610526240404e-09	6.095648876530621406e-09	1.545444907824091125e-08	4.693849290026469759e-08	2.064672169619886535e-09	1.209556339863538298e-08	8.000307560839244742e-03	-5.646573012443927703e-09	1.943778598113239043e-08	9.677669848259633223e-02	1.597462779171502694e-11	9.012975267398487458e-09	-2.627380034978014604e-10	5.039707004324096823e-10	2.146105577098203575e-09	6.196298710054733340e-09	2.823912664725643943e-10	3.769845059629638444e-10	3.797133750617499895e-09	-1.199455275083684059e-09	5.579595032688314071e-10	2.372025123570946462e-09
