-4.395346916990824730e-10	-4.859817841738135564e-10	7.737506736572813443e-11	-4.165905153911302583e-10	-4.638594209083136303e-10	-4.392479550758363813e-10	-4.320958173258177530e-10	-4.272363186044581711e-10	-4.626065152946986066e-10	-4.287811086839723174e-10	-4.756965177156862773e-10	-4.559826951559719066e-10	3.736054015363641662e-10	-4.881823565976048577e-10	-4.683967348479725673e-10	-4.248888499163564409e-10	-4.218186151751818406e-10	-4.307395470394336455e-10	-3.408343906751164996e-10	-1.954123300997886276e-10	-4.354116494491726314e-10	-3.624478422915358335e-10	-2.295824117869079023e-10	-4.196318856204499781e-10	-3.719914048047366005e-10	-8.828128174892954694e-11	1.507495975547684490e-02	-2.757908801693458198e-10	5.531297457009831808e-10	3.909517070761392804e-09	-1.715336737698060681e-10	-3.344178232842686411e-10	4.824226636231647436e-02	1.500769170247579498e-01	-4.002012812934490766e-10	-2.935327003886727839e-10	-2.377856383876812414e-10	-2.356592796174200114e-10	-1.897600684447532111e-10	-1.303972650253585930e-10	-1.676950361563688566e-10	-9.885020942643149460e-11	-2.478510885413765119e-10	-1.767575552213009376e-10	-1.573944381492404964e-10	-2.469149425650389080e-10	-3.233638090611748436e-10	-3.309662942233999655e-10	-3.415008504176071176e-10	-7.081627321029953736e-11	2.617282934366834540e-02	-2.687505528607183771e-10	1.294944635879254885e-09	5.538101014926895271e-02	-3.304154006618838201e-11	-2.339195687431935152e-10	7.077041901960133467e-07	6.470793268820679289e-02	-3.340657497292610507e-10	-2.454278395577027973e-10	-2.428011162473678216e-10	1.043451114224015848e-10	3.210125329021217073e-08	-1.615113219499313202e-10	1.715281703373882176e-09	1.111576118840419264e-01	1.341263905598057014e-10	-2.233476072217295934e-10	8.459710546972587644e-08	8.232246651241931193e-09	-2.637169108804478207e-10	-1.689008520876417056e-10	-1.066659373246582240e-10	3.637636273394110230e-10	7.310273206124727337e-09	-1.399567894141168601e-10	3.086499539302111088e-09	3.621124314739935790e-01	4.832069502503316218e-10	-1.868436726277092887e-10	6.225894077200283538e-02	1.610412411367168260e-09	-1.611491563912259384e-10	-8.601275607563811580e-11	-4.410379667092956251e-10	-4.017794476777897566e-10	-2.069625307697608899e-10	-3.841298637562990156e-10	-4.170412892177951587e-10	-3.663568372562811995e-10	-4.194368040910034557e-10	-3.937919667517131016e-10	-3.988165665262169120e-10	-1.233896752998834223e-10	-4.055398911195119834e-10	-4.461857943694205429e-10	-2.382546890577118132e-10	1.779029329375599428e-10	1.081384564281849247e-09	-2.023453808733592367e-10	4.195421390918779557e-10	8.767302578650906290e-10	1.174347397354418922e-10	-3.797642071590258292e-10	3.976241198478871336e-02	6.505185446642498814e-02	3.246624633743819711e-09	4.194024962540636270e-11	-1.152695377110803503e-10	-2.927245536117018560e-10	-3.369522643526829026e-10	-2.200270348271886215e-10	-2.838513727406408714e-10	-2.616175971606641170e-10	-2.993555312475918296e-10	-2.782595363732086615e-10	-3.159805233439819741e-10	-3.379029551541333431e-10	-3.048051395493983933e-10	-3.536714191068481639e-10
5.932210280243416442e-10	1.311858679202927800e-10	1.043475395670962239e-09	6.174038779950767095e-10	3.935467963572236208e-10	4.351973056526958535e-10	3.844511105089498413e-10	2.148856164647246438e-10	2.488717076160333252e-10	1.670915889636458720e-10	2.914627803019576004e-10	1.124849752716786365e-10	2.510670628039167210e-09	7.654477856116254468e-10	4.362915046416893302e-10	2.056442214841722740e-09	9.083923285192827434e-10	8.047426524048075713e-10	1.396582159289495545e-09	1.141272331910529101e-09	6.878668681265504137e-10	3.877050199449705616e-10	1.616383624024793425e-09	1.054923061206089610e-09	2.735378916677170673e-09	7.914367409880035733e-09	1.511161978610828759e-02	2.044543808323773525e-08	2.309471896215638020e-08	9.717535482134292300e-08	5.861525661589361191e-09	3.732439400237350255e-08	3.445482921812963867e-02	1.582743942085459432e-01	4.009539235657233662e-09	5.171568677043951869e-09	4.360391286531566998e-09	3.623987012613366440e-09	3.626379217873471552e-09	6.195412679768013638e-09	4.877209228747973259e-09	5.034332701274336210e-09	4.196095386079388016e-09	5.399934621657412579e-09	4.603122959291652232e-09	3.609451834539395835e-09	3.701305128218986184e-09	3.257317065428858543e-09	3.117768604966986775e-09	7.851711303261624824e-09	2.353435578573889048e-02	2.859545738771269110e-08	3.463523644212293659e-08	6.677026465635955976e-02	7.324279220148388036e-09	5.588618946422180557e-08	1.877315497563837587e-02	4.302264836793116831e-02	4.156112307486805460e-09	5.413890786161077741e-09	5.197237983610670083e-09	1.138312073194876641e-08	1.299574881942593570e-07	4.542679243452716106e-08	4.931400060916983071e-08	1.113251557451202106e-01	1.060642206388130880e-08	7.780454214337726083e-08	6.933050284230354870e-07	6.201408800413181702e-08	5.545694169983869431e-09	6.784786226123599269e-09	7.882292554731999675e-09	1.626177792418179205e-08	6.982675970535106283e-08	6.526518531690200341e-08	7.610781232040898129e-08	3.371152118135229969e-01	1.701927957930059747e-08	1.106180010795295334e-07	9.520410820178525080e-02	3.363378749848126864e-08	7.182714793911180363e-09	8.184171122708265740e-09	1.034857606194525384e-09	7.365648120047098626e-10	1.387060929953108550e-09	1.148482407110302982e-09	9.597310374892175700e-10	1.045233945893715314e-09	8.048114246555900907e-10	6.990752239147249299e-10	8.918193920770995280e-10	7.600708248908755386e-10	9.175388662239703923e-10	6.399022071348088518e-10	5.243571492150495614e-09	1.055771014410063098e-08	2.283296590113989865e-08	2.034567864767830914e-08	1.909009786754956625e-08	2.799272348663356942e-08	1.069086706541426195e-08	3.589480681437071741e-08	7.939582219218921598e-08	9.641201150586573010e-02	2.527142271401559529e-08	2.077466184803479554e-08	3.446123548679114551e-09	1.841583481539900683e-09	1.469378514226442869e-09	2.793523625767983850e-09	2.219416248076350351e-09	2.185604775055458585e-09	2.276684096105603592e-09	2.180994593256031777e-09	1.909414650307615400e-09	1.456956793490533515e-09	2.208218530736989717e-09	1.713026902483420439e-09
-7.119475461220976225e-10	-1.818354768006281086e-09	1.833818133648527755e-09	-8.240709555609721192e-10	-1.304983788467488997e-09	-1.205722938338044756e-09	-1.305504515841700157e-09	-1.185496052871554470e-09	-1.399247996948700174e-09	-1.467328807268458551e-09	-1.292568572703474037e-09	-1.568656386942617295e-09	6.978333478388937984e-09	-3.002429414640216987e-10	-1.200237057950747628e-09	1.685263547137733318e-09	-3.116158040663874869e-10	-4.843088580996865915e-10	4.724280406601333975e-10	4.301189922326974059e-11	-7.396381610014155736e-10	-1.007795731323447598e-09	5.443507955867461044e-10	3.876940222338384302e-11	1.782247216363536127e-09	8.773360938625854931e-09	1.843489474624842445e-02	2.908079757945835830e-08	2.977429107538772488e-08	8.042707315652611304e-08	6.345062215882268825e-09	4.340328642321522780e-08	5.751714516586446668e-02	1.428218062411516498e-01	4.448662039964144832e-09	6.233662546499469819e-09	4.367229677277043272e-09	4.091797741439095471e-09	5.008024567707730455e-09	8.736006772662122594e-09	6.235525811647415826e-09	6.824411760514986926e-09	4.790269427000016496e-09	7.774858285653587541e-09	6.041185373513018022e-09	4.593362707015788593e-09	4.136918048137143371e-09	3.490057914880504826e-09	2.489559070615938564e-09	9.166367414736327309e-09	2.421758526093568259e-02	4.043294448846130624e-08	4.669565219755909095e-08	7.556595468171210805e-02	9.107515780498393915e-09	6.572296101464520274e-08	1.966738880755495873e-05	4.345449205479787191e-02	4.488511280510085637e-09	6.329908822673735422e-09	5.110361194775262647e-09	1.362384908869293566e-08	2.391688890785813477e-07	6.458592248091980553e-08	6.863488706993948981e-08	1.196994716423707139e-01	1.397685920469424151e-08	9.222790328124685037e-08	2.868123976829763911e-06	1.045903491703307364e-07	6.626632971202991609e-09	8.488435013480406272e-09	8.175791515071935120e-09	1.809798690157842451e-08	8.212030629371716638e-08	9.213912149105069266e-08	1.062489062671724595e-07	3.184620181804838079e-01	2.220097806807451365e-08	1.127907316223823901e-07	1.016507187696199799e-01	4.549894100756682362e-08	9.043741212231709978e-09	1.046053581025768257e-08	7.434416517603469234e-10	1.145405306421722287e-10	1.039690870068973554e-10	-6.086199325117012686e-11	-4.272363712998209398e-10	-2.131581792390532384e-10	-6.000418681779912724e-10	-5.159756184213563450e-10	-5.479034430021664828e-10	7.184614263895846999e-10	-2.332373707689856980e-10	-8.157225219807907953e-10	5.103663194120491940e-09	1.324304534955343026e-08	3.961833807391615777e-08	3.425608306675568150e-08	3.376178622717411679e-08	6.398482011171208746e-08	1.540504484575650377e-08	6.240916519365492210e-08	8.739737135166973994e-03	8.941170817933041803e-02	4.133416295200600852e-08	2.391262739394584934e-08	3.439841815043926913e-09	1.409404695843014546e-09	9.256348664735694225e-10	3.151146237072508987e-09	2.048124332365742146e-09	2.151880597583356688e-09	1.950287908435740963e-09	2.196699306553733235e-09	1.495429285342210300e-09	1.013993318345563950e-09	2.113352184786125071e-09	1.167832527966816512e-09
5.922540435534599671e-10	-3.670114878835248407e-10	2.666232415497802989e-09	5.774323901276149820e-10	2.408539965032640844e-10	3.454024592857865802e-10	2.750124271638778701e-10	-7.460399934783796726e-10	-6.511623411893635925e-11	-2.646737085707148570e-11	1.026813458519926144e-10	-2.738020822480933606e-10	5.056154182511820543e-09	2.168977545692853319e-09	6.732817181227950623e-10	2.845300110608830947e-09	2.801885247083473103e-09	2.145797637106063552e-09	3.626228381943960899e-09	1.750559613081915235e-09	1.103956071482140825e-09	6.833699006086528928e-10	3.151391018569629572e-09	1.377697832718666560e-09	5.723167747019922097e-09	1.658830862815797762e-08	2.347136667232430432e-02	4.670773073998745493e-08	3.996483720875584103e-08	9.935103412351939180e-08	1.158518579276260524e-08	5.323240318077732110e-08	4.607052994664415091e-02	1.411025973472580242e-01	8.644157542374765497e-09	1.105637192157948217e-08	1.084740558403584898e-08	9.921286268005812199e-09	1.130436934452894566e-08	1.792117606836646306e-08	1.293169709220559520e-08	1.427150026224713757e-08	9.947784979107224385e-09	1.309904639608623987e-08	1.251704239589996428e-08	1.007774685325877284e-08	8.894499694926913454e-09	8.025666522074584966e-09	6.030115365842824447e-09	1.565496413709585792e-08	1.835794007911113745e-02	6.770074280671909806e-08	6.803617289517778692e-08	6.829184967229537384e-02	1.534080142873762205e-08	8.055193511615261697e-08	5.545410001487270749e-05	6.184830575921106133e-02	8.452414911760013621e-09	1.114096246823241305e-08	1.124604039894936636e-08	2.632139689647627052e-08	7.816674593168773544e-06	1.002401540762459279e-07	9.783826881521329274e-08	1.313070164197638334e-01	2.189889646912296720e-08	1.177354540663932160e-07	2.033733321856824400e-06	2.350889717073631127e-07	1.219082842265208432e-08	1.505521400878279219e-08	1.739226716486804157e-08	3.714023565087389999e-08	2.779528471768725248e-07	1.384474432430515658e-07	1.541955824286124411e-07	3.083568335324676224e-01	3.467745259661483492e-08	2.068538863316763347e-07	1.021010767238811900e-01	8.105042925227650346e-08	1.543406973750155174e-08	1.766010382853726525e-08	1.535918885607383941e-09	8.898764614610521979e-10	2.066018148334866501e-09	1.740464958259872320e-09	1.656270975671927094e-09	2.073651780526482095e-09	1.239438587192736707e-09	1.903727671965534652e-12	1.656772038585568764e-09	2.790675472633716194e-09	1.378606202943175711e-09	9.180079285712585931e-10	1.269923829766364651e-08	2.478590144640385900e-08	6.681090812020816199e-08	5.087327911945299469e-08	4.613300053005331997e-08	7.952103984406745548e-08	2.336814706580151470e-08	6.686750585806660157e-08	2.303654296847440150e-02	7.598775205963695378e-02	5.024136703586959627e-08	3.943051807593927251e-08	8.005360485584311846e-09	3.564143893086155256e-09	2.825004205111671535e-09	5.677983789837528079e-09	4.366648084221925028e-09	4.332847806749507704e-09	4.368661112891352208e-09	3.481349293428217085e-09	3.649685550968886025e-09	2.796958582408800515e-09	4.539293160376630182e-09	3.378454448016593590e-09
-7.320315778726524662e-10	-9.785779640188424858e-10	6.841860650175834184e-10	-6.687370588756590353e-10	-8.920046817866501357e-10	-8.326137468517182649e-10	-8.269576688277417297e-10	-7.794398107740333589e-10	-9.154851546294527977e-10	-8.609197877281735277e-10	-8.899183365786150459e-10	-9.628150997064800052e-10	3.350406726645292434e-09	-7.701484183502438608e-10	-9.237109010247808110e-10	3.919498510985223540e-10	-5.099379742693018112e-10	-5.376842825386041558e-10	-2.830435824073296854e-10	-3.790302634702763073e-10	-7.206529704717022091e-10	-6.405270193667737207e-10	-2.856902830681792888e-10	-2.029933838800980799e-10	3.049397258772983989e-10	3.050374467125046453e-09	1.816287038946414259e-02	6.839506044755034754e-09	8.295839200192263574e-09	1.605774601067206823e-08	2.024240237699007976e-09	1.266766808272770426e-08	4.647654434022045755e-02	1.489004371721639464e-01	1.122941594566171503e-09	1.801996424366262067e-09	1.082692591082459788e-09	1.084585416374102736e-09	1.634007227162422558e-09	2.239793913786848997e-09	1.525673689837980199e-09	1.744251593523515923e-09	1.186624581336216927e-09	2.044794721531371734e-09	1.471835808797300384e-09	1.026666519180591721e-09	9.312520835101801440e-10	6.862401435865316827e-10	3.608476565874136175e-10	2.800442862434094986e-09	2.237516244752076056e-02	1.024755826942046451e-08	1.592622437559018322e-08	7.028524843865935345e-02	3.289316622745004041e-09	1.962141530157921601e-08	5.282384120699057243e-05	6.482276309007993509e-02	1.133229933188617193e-09	1.743539048317217331e-09	1.431797637840234720e-09	5.263640238617065341e-09	4.308426715746878649e-06	1.602873946984416344e-08	2.270267027300319781e-08	1.098148432802953933e-01	4.982693929559776357e-09	2.645468524422574735e-08	2.695021753017880079e-06	6.562690084123756488e-08	1.918551661892473549e-09	2.650759919804970364e-09	2.621537749262198458e-09	7.519032248740212748e-09	7.975393487400713445e-08	2.389808017674177468e-08	3.597939728313805890e-08	3.496115944289989175e-01	7.767175451380379000e-09	3.249991150996893897e-08	7.552752088173082801e-02	2.233225019285500386e-08	2.949035880252337477e-09	3.609320100777757949e-09	-5.651211003163554556e-11	-4.265120357499235211e-10	1.157555542914394355e-10	-3.809417045294150629e-10	-5.483045113380456934e-10	-4.248997662060168618e-10	-5.997913160570214511e-10	-5.107269202063208516e-10	-5.354638214632803192e-10	5.842171972583991814e-11	-4.783582328014048926e-10	-6.676092329455758055e-10	1.640924091560528727e-09	5.933875704659469989e-09	2.245539033576222593e-08	8.669752238495099373e-09	9.673358620297435781e-09	1.649199135883743828e-08	5.091567755298075003e-09	1.733087989927178120e-08	3.004692120371725908e-02	6.391568044787901415e-02	1.366669014549769618e-08	6.542930919967421730e-09	1.097869377369759609e-09	2.667971411723263525e-10	-3.600510958011516092e-11	7.701292927486005602e-10	2.750026391083593793e-10	3.612952829868933554e-10	2.622852476275866185e-10	4.565967852871000741e-10	1.131168483977871974e-10	-8.723814300107676440e-11	3.204810143679924840e-10	-2.313600543670044459e-11
-3.232257701339991909e-09	-3.812629175653650157e-09	-7.055406895161481436e-10	-3.279606409846069901e-09	-3.733968803054648663e-09	-3.499554815819386526e-09	-3.401620456285830493e-09	-3.249928894212371343e-09	-3.904841809717861854e-09	-3.310097582620394804e-09	-3.834265343915915370e-09	-3.878806967193232784e-09	6.555481293528857905e-09	-1.637942166121866248e-09	-3.949596177821086772e-09	-1.333916414055928774e-09	-3.222724335679960444e-09	-2.660394708253551078e-09	-2.885586556484171107e-09	-3.272357868401151985e-09	-4.203279992667938451e-09	-3.944620480591321683e-09	-2.284831366312146720e-09	-4.015871923411198114e-09	-3.136452639280665990e-09	-1.131322297902834193e-09	5.361691853332492368e-03	-2.645029215445054016e-09	2.165120675579325737e-09	2.026770196768012866e-08	-2.236309802403446933e-09	-2.641223925302320157e-09	4.146455624766379883e-02	1.732094923351251425e-01	-2.832483159269495024e-09	-2.432715313091630393e-09	-2.451875345042624059e-09	-2.253556647590881536e-09	-1.707435625521391690e-09	-1.641710218994699337e-09	-1.862179792681220932e-09	-1.243088979150740800e-09	-2.386535705394370462e-09	-1.736010896249302916e-09	-1.726594165670515887e-09	-2.439563933582220344e-09	-2.834255467101809331e-09	-2.964283023260425685e-09	-3.103972185825552823e-09	-1.531309192156873105e-09	3.478562770529163017e-02	-2.430099934483426880e-09	5.124730952423146853e-09	6.599173678993953962e-02	-1.717148614753719322e-09	-2.462867500729445733e-09	1.120102911216987532e-02	3.363431941908631706e-02	-2.846016517200534053e-09	-2.496381633408274505e-09	-2.576769781618420473e-09	-7.074640435564618657e-10	1.102052742048666588e-07	-1.825384082073868701e-09	8.775953385610080194e-09	1.194906763845127312e-01	-4.728136716495269287e-10	-2.229737174519288251e-09	1.135662824954719654e-06	1.295022201865517915e-08	-2.659458092204346384e-09	-2.293692015352947780e-09	-2.077458140179769887e-09	2.818976293579851819e-10	3.547484516915097600e-08	-8.943327653628816166e-10	1.602472860782801288e-08	3.154897093839592048e-01	1.262197431699888390e-09	-2.854971088549679636e-09	1.013421079243584100e-01	5.737339781747451938e-09	-2.156783751041841454e-09	-1.757924643292626400e-09	-3.150494805125808946e-09	-2.686271042247332420e-09	-7.056261849703180053e-10	-3.262744268695142893e-09	-3.443434719793614202e-09	-3.062100221746881533e-09	-3.525851697041416800e-09	-3.243473068270236294e-09	-3.367752483487728845e-09	-2.616108777078260681e-09	-3.500081259611374421e-09	-3.711588931174263521e-09	-2.391087585201931080e-09	-4.827565437216963921e-10	8.676095393997358781e-09	-1.044218423689449420e-09	4.533451677090302376e-09	1.352281542535956800e-08	3.035060026224367379e-10	-7.089515483134086079e-10	3.459560763290442874e-04	9.768193068499209097e-02	9.585934703830929484e-09	-4.258783465790898485e-09	-2.933969655391438581e-09	-2.709373842564955006e-09	-2.918461098290755145e-09	-2.022603293730860840e-09	-2.416738349303545318e-09	-2.136140278700399204e-09	-2.691888775473469414e-09	-2.309329480865452281e-09	-2.629393072764251059e-09	-2.703190571957781315e-09	-2.707212794583801121e-09	-3.035803838877388466e-09
-2.087429522741549137e-09	-2.847616826445197809e-09	1.115491133370051389e-09	-2.017095627088504741e-09	-2.276715463797822365e-09	-2.056647947975450733e-09	-2.361873823784372696e-09	-2.909232638648446919e-09	-2.379235398084463866e-09	-1.864755507161501744e-09	-2.628973365993636926e-09	-2.845779361599017168e-09	4.944481533934823999e-09	1.165947069835215456e-10	-2.048106951410266981e-09	1.476363737521231875e-10	-5.767542640864504339e-10	-1.179381615873825041e-10	1.135286975319489188e-09	-7.174930690544184061e-10	-2.109961946670049017e-09	-1.991965725138531639e-09	-1.830410070548432266e-10	-1.489979712963574317e-09	1.054779355229839032e-09	9.822185210010026604e-09	1.749397666484770950e-02	2.765985367872403672e-08	2.514337477891008655e-08	5.514701065440362669e-08	5.936760207332196098e-09	3.473312404758051795e-08	6.016620114292193372e-02	1.415696154896914360e-01	3.508815437592915421e-09	5.671849679907083457e-09	3.939136665036927863e-09	3.235951575037295364e-09	3.445011272707504781e-09	7.625991987758915453e-09	5.567990845808112716e-09	6.281481598242030059e-09	3.919486690209043447e-09	4.290694014010108820e-09	5.270651326265866545e-09	3.489078532330582594e-09	3.051629219354706040e-09	2.438627621781378562e-09	1.570198984318251329e-09	9.295096515396429382e-09	2.117134743607366337e-02	4.518903089058786264e-08	4.729338733941227569e-08	6.911516744360564346e-02	9.992842341337202890e-09	6.161294796544443778e-08	2.765016626941611713e-04	5.726795518473747071e-02	3.463193306832108328e-09	5.716653258536337146e-09	4.751879776412772647e-09	1.518966050378827380e-08	5.231881235704897485e-07	7.322945372818438026e-08	6.915882168963228545e-08	1.122681787414222115e-01	1.498775251334864744e-08	8.709471197949482875e-08	2.881257273518719338e-06	1.798128578559928164e-07	6.557391653143088989e-09	9.063773208040183774e-09	8.939262981600355887e-09	2.257936619194617002e-08	1.523526451958715222e-07	1.023237392093548104e-07	1.131085947954932094e-07	3.351084317284835912e-01	2.379141751697447756e-08	1.467747193911213831e-07	8.022766378894295725e-02	6.599784546304838801e-08	1.042227798829712304e-08	1.250859574457593094e-08	-1.270923685918433490e-09	-1.019741815932290201e-09	1.951470347866561605e-09	-1.049860995236491887e-09	-1.021171472160608616e-09	-5.323421940654076076e-10	-1.411400312746817876e-09	-2.170922982245898165e-09	-8.572503664268262599e-10	-5.091229041639897630e-10	-1.583441812946810110e-09	-1.823821169217037212e-09	5.088010452927731982e-09	1.459656585715155842e-08	5.018711845008398882e-08	3.042763844201643087e-08	3.161371264294955213e-08	5.706442396571548464e-08	1.510240340999603571e-08	4.222593245740582035e-08	2.152724218435151174e-02	8.380251180318225301e-02	2.916725795277987715e-08	2.751942107923958644e-08	3.159620326612802010e-09	2.103721568860171652e-10	-6.676572085791316766e-11	2.706786287955811024e-09	1.615591223008820527e-09	1.978334779639444715e-09	1.352252564007379242e-09	8.861651158618058816e-10	1.026296012322870266e-09	1.761746748022997379e-10	1.234411960611417503e-09	3.499570378076287654e-10
-3.513482161754371865e-10	-9.445897307643101081e-10	1.246961329404285547e-09	-2.836031866518278343e-10	-7.027345563544985713e-10	-6.154658703357081003e-10	-6.657416774940221681e-10	-7.052439322851291126e-10	-7.729608406603727200e-10	-8.165390433614914230e-10	-6.795260003085894431e-10	-9.347980884498462535e-10	6.425287504186009815e-09	-8.665479547076296370e-11	-6.179087719044918433e-10	2.232841962487893302e-09	2.340729912681402378e-10	1.556893776154983502e-10	7.542133251854620092e-10	4.076902065887035041e-10	-2.635249442964579603e-10	-6.137643506852215294e-10	1.442423771945950364e-09	5.192139332487534358e-11	2.270392045469365404e-09	9.605233516265121021e-09	1.070217817120600740e-02	2.258255704529616105e-08	2.558341016887419932e-08	6.333382476170728186e-08	6.728152265126139494e-09	3.730573236559243384e-08	4.281811093102962096e-02	1.579150172198541258e-01	4.599487132798077844e-09	6.211438141787516825e-09	4.317060306459481603e-09	4.020505234997229541e-09	4.884694210598455610e-09	7.170955837317638041e-09	5.492917418640516023e-09	5.780296883012797080e-09	4.537137597136895844e-09	5.995240046891382967e-09	5.097814299069554908e-09	4.111761723018921052e-09	4.000638523307044902e-09	3.419997214532736301e-09	2.494016351970069297e-09	8.693041128276176973e-09	2.492214407512402530e-02	3.306672639660173661e-08	4.452222791282942382e-08	5.557489442953406078e-02	9.547093157046020548e-09	6.131627671160218595e-08	3.865395584444997808e-03	5.786216567904386293e-02	4.413509882679124138e-09	6.082125843422288603e-09	5.211888650857662078e-09	1.502969566874597337e-08	7.307450286853686599e-06	5.164624143690930738e-08	6.351188521014299754e-08	1.247706403565545380e-01	1.355889764750355781e-08	8.212462813105864487e-08	1.227370981035587001e-06	2.797383629220226033e-07	6.912295403835498347e-09	8.952492278953353265e-09	8.372193527644606953e-09	2.035394933827486806e-08	1.445834892372427769e-07	7.656115756937808184e-08	9.978282680643455718e-08	3.184645271689248713e-01	2.184625360582843105e-08	1.165691600757484371e-07	9.916474969811724105e-02	6.549911963555754462e-08	9.651630467669204715e-09	1.141158728876995845e-08	1.696827867483929829e-09	-2.771250154332121436e-10	7.538760169562832009e-10	3.987960821265864561e-10	3.910174787042341107e-11	2.451784418678017448e-10	-5.713023216822742304e-11	-1.013097571264674037e-10	3.814009413452202385e-11	5.220279840389615304e-10	1.685067619528194014e-10	-2.864516599801432503e-10	5.544319973666337248e-09	1.374542582157229638e-08	4.005510415255940563e-08	2.794692389229291267e-08	2.947790795427969081e-08	5.052698929508743189e-08	1.437946631625239901e-08	5.127833882552979781e-08	2.619100136626921135e-02	7.773881441603379405e-02	3.163913642938601487e-08	2.298108666541902491e-08	3.288592924509699668e-09	1.739155985983028080e-09	1.108417015105833235e-09	2.887176071294688640e-09	1.918480438553610667e-09	1.965012200324680693e-09	1.935494340999315038e-09	1.953366297833752018e-09	1.416941272086732813e-09	1.199917513661588601e-09	2.186424834816802774e-09	1.369762593503892399e-09
-1.271330928826383946e-09	-1.546573068863981985e-09	-7.447266073146441336e-10	-1.343063441199858083e-09	-1.671047359322873218e-09	-1.400183159814271723e-09	-1.754677681095311196e-09	-1.462557565611489104e-09	-1.637339691610175634e-09	-1.593924693110671649e-09	-1.740583592575837602e-09	-1.736146861446832692e-09	2.420804900816057169e-09	-1.886097236856124347e-09	-1.811416179579949701e-09	-9.284615291151569463e-10	-1.434706742192514030e-09	-1.355833464990300572e-09	-1.093869888949313112e-09	-1.228146810411066164e-09	-1.700711261423611378e-09	-1.677991064900720543e-09	-6.745103230747816685e-10	-1.828063081150298931e-09	-1.193748643783097999e-09	4.201270241205552302e-10	1.856036171069159676e-02	1.282432403634511697e-09	3.144377686979337512e-09	1.051480145048878492e-08	-3.089391232979688736e-10	3.002577263858919134e-09	3.630764538075505199e-02	1.559471424027988606e-01	-9.041728132305884146e-10	-5.208413836039049309e-10	-5.940917632719348803e-10	-5.734239624408885283e-10	-6.510826650490362967e-11	4.665036476777266373e-10	-2.740827307906304588e-10	3.773343881476994094e-10	-8.186202399533344465e-10	4.849786594050303279e-10	1.201536885681266727e-10	-7.193720884723523735e-10	-1.122248481990990211e-09	-1.193544733219436755e-09	-1.072122002444608463e-09	4.167998103023236359e-10	1.518031490164160023e-02	2.307500308887535629e-09	6.463497127551744426e-09	6.685273679763509280e-02	2.130352661195563069e-10	4.016386625166915724e-09	1.515984980297127582e-02	5.128256919469492692e-02	-8.557444399849967148e-10	-5.381316629935723584e-10	-5.544842759132830317e-10	1.239481925887086209e-09	7.798394457948025387e-08	4.486853664190610553e-09	1.006409593468763779e-08	1.166463858629427502e-01	1.291154158958472236e-09	5.886183102044688929e-09	1.001677116819790965e-06	1.977532868612557116e-08	-5.220244192551254768e-10	-1.571055668599019909e-10	-6.939678452244019757e-11	1.898544424246910478e-09	1.831986544008314560e-08	7.620327468919783586e-09	1.705914009428663778e-08	3.337885901383706999e-01	2.643851981599815132e-09	7.819637598684847508e-09	8.646084835197037632e-02	7.169900465470396240e-09	-1.189136677429132517e-10	1.982811888924201149e-10	-1.020320827807132847e-09	-1.390273647283377695e-09	-1.586409329723578695e-10	-1.392804054090312214e-09	-1.577018429966535204e-09	-1.326766061454060252e-09	-1.555477556279251418e-09	-1.431664305823086321e-09	-1.468865492731587871e-09	-1.241318611248893028e-09	-1.343439281283235852e-09	-1.679272278379609382e-09	-4.263853005342269616e-10	1.467900542904753903e-09	8.416747324584205558e-09	2.275802796352289011e-09	4.498199103119282125e-09	9.568459360523102303e-09	1.437589025533714814e-09	4.963247385261992949e-09	1.320175194769704873e-02	9.061061300031089671e-02	9.221702221499582990e-09	3.030366754060078464e-10	-2.594146256696811459e-10	-8.550381849902176140e-10	-1.140866450718374843e-09	-5.772926887260107158e-10	-8.942403681206570215e-10	-7.792643967709593536e-10	-1.005204683676932765e-09	-7.645294814782774325e-10	-1.023199736138012237e-09	-1.178191887862154793e-09	-1.011974771201776924e-09	-1.230639028653554300e-09
-4.489001064763326459e-10	-6.103349036933961883e-10	-1.040522272265190469e-10	-5.431076262535401752e-10	-7.420535562932803986e-10	-5.811541792179667117e-10	-7.989720510907685541e-10	-6.636829726832659839e-10	-7.673968054994691198e-10	-6.205333932356197760e-10	-7.872355362900562280e-10	-8.865500103075221225e-10	3.717034288709040536e-09	-6.305074593025197402e-10	-8.488342780470750606e-10	8.179807370684359167e-10	-5.771314663672336649e-10	-6.285722948106364574e-10	-2.539499122212095381e-10	-4.028930780774353471e-10	-7.080765479758835978e-10	-8.400440090551612199e-10	1.054603181963219669e-10	-5.403994374351395706e-10	2.699852016857809936e-10	2.870376824197212105e-09	2.587513613106207436e-02	6.860024372628430795e-09	9.424345289789695882e-09	2.772047248310769089e-08	1.941335207177921761e-09	1.294035997680383334e-08	3.910698357083096377e-02	1.451350376117529761e-01	1.178795565560601493e-09	1.811939049037614605e-09	9.960695219742271976e-10	9.838442060902728537e-10	1.446693143034862619e-09	2.250337072847283761e-09	1.613719645777612080e-09	1.846931658304867148e-09	1.179552373574208483e-09	1.972117073113479274e-09	1.543424572277718248e-09	1.064504959589950196e-09	9.235175757415838429e-10	7.051963142547649951e-10	4.039511069507813941e-10	2.886547383450513239e-09	1.172728000722679520e-02	9.944160198349964287e-09	1.573741969661240788e-08	5.848243212398428897e-02	2.902405079142775891e-09	1.937422137486200078e-08	3.172050694457825710e-06	7.309054745077192550e-02	1.150329404607069185e-09	1.792463378911426792e-09	1.306277708274483970e-09	4.591699051226184294e-09	2.602679408767314368e-07	1.606679581586137218e-08	2.329404623567160293e-08	1.268603701524502469e-01	4.537144469653098408e-09	2.704391162224683938e-08	3.898671176283907220e-07	7.327407995354524289e-08	2.046932278080467734e-09	2.807007920977567473e-09	2.335116785463294086e-09	6.299892819078680853e-09	4.295808742784395622e-08	2.419735944063225350e-08	3.612085231645573975e-08	3.051040447438628234e-01	7.609979795981639464e-09	3.708175938385716025e-08	1.138920358933187549e-01	2.060360027833735443e-08	2.978942376356920710e-09	3.595429066898662953e-09	-1.128880054542921121e-11	2.250818393208888163e-10	-4.098059958144585226e-10	-3.214634200265256957e-10	-4.738961895926570504e-10	-3.710491971369135352e-10	-5.305712844766706354e-10	-4.803852203743576871e-10	-4.994043107202218382e-10	-1.889403700263869996e-10	-3.825798155828819582e-10	-6.340974810988124107e-10	1.349254282696621110e-09	4.551746326144259404e-09	1.597084626394167196e-08	8.489639475879414480e-09	1.047571944785735046e-08	1.866547911522583502e-08	4.945972448103396852e-09	1.851428528838975861e-08	2.747636853808962595e-02	7.324537334784554654e-02	1.209218463081500002e-08	6.692047864493608887e-09	9.402806329571008944e-10	2.172794359078956189e-10	3.338123548139686743e-11	8.350943609717232304e-10	4.129873591582180096e-10	4.993349878044227406e-10	3.372205746688193997e-10	4.768794251100734763e-10	1.970596395009171021e-10	1.310079282586040998e-11	4.024494881268499616e-10	6.916018800601624174e-11
