-3.196123597843192139e-09	-3.574180072259637257e-09	6.240749994352729786e-10	-2.965092651418664962e-09	-3.165450986013371324e-09	-2.959819756021463486e-09	-2.428435550719210971e-09	-3.250493677514881294e-09	-3.488059804158258019e-09	-2.656680017362530954e-09	-3.028236964013626724e-09	-3.286021873523596312e-09	8.655464828968569283e-10	-2.450644060392435595e-09	-2.953712327813762020e-09	-1.303765672614247542e-09	-1.594828288369767422e-09	-2.036362692585047750e-09	-2.501818220619436561e-09	-1.585847025325617933e-09	-2.964634234530765950e-09	-2.321549411027145497e-09	-8.746305942934617890e-10	-3.177800358588339644e-09	-2.135390774110919233e-09	1.312339062648800435e-09	1.507514996060058295e-02	-2.553970653168664045e-09	7.327447892032716814e-09	2.506772907825206632e-08	-1.093186593519110783e-10	-2.013000333524095879e-09	4.824182062180022712e-02	1.500770882522009519e-01	-9.671249734232545792e-10	-1.552075989237132581e-10	1.190480722048034584e-09	-2.879857492021786795e-09	-3.040353314790216794e-09	-7.395350486703492337e-10	-2.322306016867374862e-09	-2.390033005545038315e-09	-2.065373092759454036e-09	-7.531842186358064541e-10	-2.701066011332739620e-09	-2.857688989555954280e-09	-1.256847152740586246e-09	-2.267703828548416971e-09	-1.711391779840175564e-09	6.686101911335080809e-10	2.617238469953500624e-02	-2.066501821875945633e-09	1.406770224883862769e-08	5.537982852449788856e-02	8.045731998455586903e-10	-7.885666772752656083e-10	2.747595006554211595e-06	6.470758566375975351e-02	-9.072029083318665975e-10	-4.331677936890100442e-10	-6.331391010869384549e-10	2.564217564939232284e-09	3.451859985176177817e-07	-7.970841802103094410e-10	2.045552908619405625e-08	1.111569002909122555e-01	2.623524306325350655e-09	1.348352064746240839e-09	3.944153945631119783e-07	6.075801196242652937e-08	-2.616921358672637701e-10	4.526689835603812997e-10	1.139965399620591382e-10	4.518951795906895415e-09	5.164398259723275676e-08	-2.627567705386706800e-10	3.530587768595550654e-08	3.621142225693545491e-01	6.114900247375073977e-09	2.950821877305385484e-10	6.225720107269906017e-02	1.703885461782745733e-08	4.918613676869278639e-10	1.162555436638988692e-09	-2.064086674203786784e-09	-2.183387728385453320e-09	-1.880097979775791711e-09	-2.959571172785739976e-09	-2.586212812322771769e-09	-2.142716038820715855e-09	-2.585762119245394463e-09	-3.267247128269757877e-09	-2.591199574089256956e-09	-1.321298844304262627e-09	-2.141982793426726693e-09	-2.842413271932708533e-09	-9.745713420635228573e-10	3.308961325926235207e-09	1.432953463636434417e-08	-1.228097893264442891e-09	8.636713455962017084e-09	1.725366681688678286e-08	2.950883833890668774e-09	-5.833922117343828946e-10	3.976206900944165290e-02	6.505208721012482875e-02	8.088453955962949138e-09	2.719934638404578419e-09	6.674949499577825253e-10	-1.257451134292679746e-09	-1.948253189765623038e-09	1.501312752202661313e-09	-9.644204491074233193e-10	-1.182703536469538460e-09	-4.731259760825121990e-10	-1.908393554243572777e-09	-1.541093343687237703e-09	-1.798549565227688892e-09	-7.768095850817493714e-10	-1.308662611180868310e-09
-2.697763046461307938e-10	-2.771480057868751767e-10	-8.181785698895039736e-11	-3.343026977275884008e-10	-3.056031071059599497e-10	-2.494639387989535611e-10	-2.976884954177745982e-10	-2.978279927127177616e-10	-2.925563196194947638e-10	-2.674038413296398132e-10	-3.053023072608410040e-10	-3.261673847300711194e-10	-1.104043492702657406e-10	-2.753193489711975109e-10	-3.343380134250358646e-10	-8.295694057488934445e-11	-1.778507133011632032e-10	-2.594519780638854441e-10	-2.159486192333989608e-10	3.214098507834896908e-10	-3.299556814130624084e-10	-3.303067695444728299e-10	-2.252759497851461669e-10	-1.025956967384463731e-10	-2.199524246108032997e-10	7.366580921414234597e-11	1.511162800222702086e-02	-2.743853113036686104e-10	9.185655300740151959e-10	4.507427255736475180e-09	-3.790896603690449732e-12	-3.087104525314071809e-10	3.445501737988501678e-02	1.582744293934988944e-01	-1.244883504629474678e-10	-4.382338505684777381e-11	2.069918320614134543e-10	-2.385147413559416100e-10	-3.106785303147893964e-10	-5.167966223564255505e-11	-2.497844374854662897e-10	-2.589220248596491590e-10	-2.221685724747049398e-10	-9.472453389371853937e-11	-2.852746411793889255e-10	-2.948986720268347148e-10	-1.591265756289892148e-10	-2.226208340804665331e-10	-1.866843705105934901e-10	7.052485062628153894e-11	2.353454277024037700e-02	-1.931205759876287101e-10	1.507106187579366743e-09	6.676998898118657877e-02	9.733111403865011585e-11	-2.130765718492458821e-10	1.877343545774069408e-02	4.302258528226427653e-02	-1.088683117599373642e-10	-4.552931761748712518e-11	-9.450102586563384857e-11	1.982151891102205208e-10	7.841495538655036425e-09	2.186469352802511605e-11	2.139580679791042491e-09	1.113262710656322957e-01	2.950339332240562186e-10	-9.081046122375082628e-11	5.687652573123868399e-08	3.134581600543856610e-09	-4.384660488664453953e-11	2.958070492122759291e-11	1.207620224909992598e-11	4.114544150553845314e-10	4.015364081005363232e-09	1.202939253155479128e-10	3.859730183295726454e-09	3.371152305728464804e-01	6.519354930471398104e-10	-3.208749289814979807e-10	9.520452715488295081e-02	1.665725876754674374e-09	4.649512601541050904e-11	1.156386756766055056e-10	-2.251348924799842252e-10	-2.233760213026770238e-10	-1.509572628894886361e-10	-3.367034612387737866e-10	-2.540690941313555980e-10	-2.164361525201507690e-10	-2.727837708383548975e-10	-3.045184044193738321e-10	-2.377383556056717887e-10	-1.770741276922038393e-10	-2.105237096881657786e-10	-2.824126060545490740e-10	-1.022762130756067243e-10	1.556584995030774206e-10	1.019544647798120080e-09	-9.171777214968959007e-11	7.718056500722507154e-10	1.303444763405184848e-09	2.604194471943215422e-10	-2.261625632468646452e-10	3.330741801430399358e-09	9.641226049274019549e-02	8.446189383170373078e-10	6.882723184476227387e-10	8.288328373267563220e-11	-2.094842546956860596e-10	-1.811139605014880112e-10	3.264811385180794681e-10	-2.177767081174465698e-11	-2.412656399863724137e-11	-4.267661469685520364e-11	2.443954896220436764e-10	-8.802888400977057410e-11	-1.735006809096515279e-10	-1.049652090477452857e-10	-1.521488674107147272e-10
-6.332105587166177414e-10	-7.490911388271275366e-10	5.315946385117700001e-11	-7.090481304265109609e-10	-6.748168527046985004e-10	-6.241911643530572985e-10	-5.949102054868111443e-10	-6.758631538446992483e-10	-7.034821726403618424e-10	-5.684391719605897720e-10	-6.813234619528684645e-10	-7.172717729500263011e-10	-2.747346771003555903e-10	-6.629861614615795030e-10	-6.311073090883687095e-10	-9.664402019289676998e-11	-5.093275002259680285e-10	-5.059734718008042581e-10	-4.807497434628005550e-10	5.033151805250047199e-10	-6.531130733281290982e-10	-5.854490119889004802e-10	-4.735167976369485260e-10	-1.822994437983272360e-10	-4.876045377054241534e-10	1.212564362518973190e-10	1.843326112768408839e-02	-5.813770209466930877e-10	1.804876041082120588e-09	2.916446236347860279e-09	-1.563505467879943077e-11	-7.117620995858062430e-10	5.752137022134359845e-02	1.428201661545475398e-01	-3.446030760473306247e-10	-1.525630079280596036e-10	8.754911552571560483e-11	-6.893718890776968341e-10	-7.011921109363932954e-10	4.627434944304164108e-11	-5.209934069095966403e-10	-5.409977153611654072e-10	-4.435592342534660031e-10	-4.627529529782032319e-11	-5.832344467315786506e-10	-6.460727504217667499e-10	-1.696715844516955741e-10	-4.764407512911612025e-10	-4.202887702280483742e-10	1.468410594122763082e-10	2.421965068437989879e-02	-4.241864570942505369e-10	3.202054419107271904e-09	7.557828279696834906e-02	2.845199968937437729e-10	-4.972294704218357098e-10	2.515948195277091519e-06	4.345726410749644469e-02	-2.859191122012808418e-10	-1.121937737120939038e-10	-2.403792587582849714e-10	4.322029724757061427e-10	2.184269634139757054e-08	-4.087507458635237177e-11	4.742034244042283463e-09	1.197024349374468943e-01	7.730774174392137082e-10	-2.694804636552254266e-10	3.767231859172957734e-07	7.956157657659705740e-09	-1.338934649910840457e-10	5.044679868939261825e-11	-8.532868783263449774e-12	8.081119956395474180e-10	7.127242586916768274e-09	1.660825506182038951e-10	8.519696895973956966e-09	3.184467062581621266e-01	1.415690517487747779e-09	-7.925472048752250535e-10	1.016654998962041728e-01	3.538038692652157012e-09	8.040184503526980547e-11	2.423874446353808227e-10	-4.943357932605776776e-10	-4.735624592439738410e-10	-4.759666842983264465e-10	-7.103861803687144209e-10	-5.623211670900541046e-10	-4.741940185752573018e-10	-5.899902586136942694e-10	-6.871147384925626362e-10	-5.503650149747137670e-10	-2.287020706647480753e-10	-4.862847818999454555e-10	-6.219718913602413555e-10	-2.144932995832319429e-10	4.310362511267253940e-10	3.095449885432991726e-09	-1.646828356229429551e-10	2.438538147236195566e-09	5.068606262286781151e-09	8.132152914723155413e-10	-5.081866529430391849e-10	8.742245307511501556e-03	8.941017338514700707e-02	3.134446573361004700e-09	8.051053382138416554e-10	3.388846058964953617e-10	-4.510127046836482703e-10	-4.170768966805598381e-10	9.662222384034051911e-10	-3.871271199946788667e-11	-2.901200867344917421e-11	-6.743368214842468735e-11	5.887765887408470769e-10	-1.491750388259136696e-10	-3.571692812614413002e-10	-2.665994183759021504e-10	-3.459357329569943972e-10
-4.056121920080459674e-10	-4.902970204996920675e-10	5.573805543512336337e-11	-4.893859765332391963e-10	-4.383758346176632613e-10	-4.113579817799234799e-10	-3.602933499389338943e-10	-5.621580347151133978e-10	-4.804246245314426191e-10	-4.249826394145729392e-10	-4.134887436098463931e-10	-4.459342566238137672e-10	-4.649130284417626080e-11	-4.266844523586975974e-10	-4.690233293548354625e-10	-2.034674223136969456e-10	-1.373249096584783744e-10	-3.534025114500025878e-10	-4.137566512998379149e-10	-8.120465648488175994e-11	-4.395058021194220388e-10	-2.935458218637399486e-10	-8.501994310203816363e-11	-4.561197328188390627e-10	-3.049673779965558847e-10	1.097546105601380901e-10	2.346762982981944953e-02	-2.789868977759938455e-10	9.627534685217595474e-10	3.179820375183598529e-09	-5.724197742968076400e-11	-5.696986536775907105e-10	4.608170108837520568e-02	1.410974667322621168e-01	-1.692936521943161570e-10	-4.942203493169534206e-11	-2.067834610962324961e-10	-2.811095752749528640e-10	-3.937197748657682235e-10	-4.928835159769662856e-11	-3.132826852401434519e-10	-3.242921620857163516e-10	-2.722770435411973863e-10	-1.260633654289611051e-10	-3.692219405395800993e-10	-3.984386593243428989e-10	-1.630166222474084785e-10	-3.218096662763271792e-10	-2.627309502243783499e-10	5.292628551864328389e-11	1.836775541746385812e-02	-1.895709201323389062e-10	1.880182868158786305e-09	6.832660963064088322e-02	7.376239196106341650e-11	-4.840406181749740298e-10	9.814041460275332739e-07	6.185725514284608900e-02	-1.652097037031680218e-10	-9.481925298877181524e-11	-8.508540815408816003e-11	3.700078481743247942e-10	1.874059248444647629e-07	2.347590957059006060e-10	2.874099518605826124e-09	1.313176946414573998e-01	3.449627290670967381e-10	-2.767891510743078211e-10	4.325212968348920276e-08	7.171610208109670736e-09	-6.651266050130205269e-11	2.988282278469945814e-11	5.415137161708393429e-11	6.312775921083328683e-10	8.044122121317172282e-09	5.062579385487882247e-10	4.826355761318374938e-09	3.083115114419537339e-01	8.249508940477723082e-10	-3.190234156773949162e-10	1.021440158278023869e-01	2.351925303246728071e-09	3.170166464989697149e-11	1.151160701368569987e-10	-2.975598383306917400e-10	-2.706201985108874416e-10	-3.494224914503973527e-10	-4.747233719804479299e-10	-3.766280984757448093e-10	-2.902292156698553658e-10	-3.873507311466118706e-10	-5.968656032071408154e-10	-3.701191317062093833e-10	-2.221634825802830377e-10	-2.749332626429863958e-10	-3.889992974563057602e-10	-1.100468120685062764e-10	3.258910578579096304e-10	1.711187994454539965e-09	1.108982195350672325e-10	1.142149162425412682e-09	2.275283986032617839e-09	3.582485771906769473e-10	-4.908734883356914292e-10	2.304510144695016277e-02	7.598202385509136847e-02	1.097664112521565405e-09	3.903670027241843540e-10	2.402671737640315549e-10	-1.855997103591352340e-10	-2.450591317575459902e-10	7.170224504260597714e-10	1.666548050077347938e-11	-2.532042945582350042e-11	3.958758009376082028e-11	5.113916915186333047e-10	-6.805477954730608104e-11	-1.834720922277564074e-10	-9.053943201743138385e-11	-1.604732956446241632e-10
-8.328884548253122232e-10	-6.142164754044320602e-10	-8.730976326272688346e-10	-9.130049432250412755e-10	-8.812423906871552155e-10	-7.338080172773405371e-10	-8.339882294701876185e-10	-8.707148033915049952e-10	-8.800890688473192679e-10	-4.084098237902944540e-10	-9.218462515217211803e-10	-9.406268168978737527e-10	-4.458381788173669452e-10	-9.300121443900108756e-10	-9.484771016376101169e-10	-1.974230788222315730e-10	-7.847251868231399780e-10	-6.815686588137298214e-10	-7.377212788216658389e-10	8.904365525934180305e-10	-9.400283737609494189e-10	-6.200158112834666149e-10	-6.197212615615093067e-10	-3.973136333079963771e-10	-6.728074358060087440e-10	1.169970438365666202e-10	1.815944318165838359e-02	-8.044950402214644713e-10	1.823741321381738044e-09	4.621423209965055322e-09	-8.891414162462371235e-11	-1.022683536809512761e-09	4.648554060635399360e-02	1.488965107200847238e-01	-4.121399288407236740e-10	-1.849564059736010025e-10	1.234291225079221427e-09	-8.266230160323088673e-10	-9.580941196787221168e-10	-6.824280321941183943e-11	-7.855911712408607858e-10	-8.073104612340411413e-10	-6.837703441844480928e-10	-1.724261057241457416e-10	-8.590285283046637079e-10	-9.299236229289552762e-10	-4.830080573616463405e-10	-7.632361995984875351e-10	-6.294837040079143603e-10	6.543026920801220146e-11	2.238131548000742502e-02	-6.506396562519949870e-10	3.836632229396252889e-09	7.031445846651618314e-02	3.085157134428261633e-10	-8.570308169981684015e-10	9.679949220652768154e-06	6.482990473796038100e-02	-3.886107611231309873e-10	-1.931081445503573123e-10	-3.643687703979498252e-10	6.385799736204951487e-10	1.010116623021408891e-06	-2.389935026933854787e-10	5.493186380402217540e-09	1.098203022689508424e-01	8.390302235979616555e-10	-7.008234088162920910e-10	5.143677612261463062e-07	1.658280772782605164e-08	-1.843588185425348131e-10	4.356072132195576023e-11	-7.388293939434459672e-11	1.213673780549084448e-09	2.022818738118786252e-08	1.220574145377326773e-10	1.009922110993835931e-08	3.495753508656174180e-01	1.723970766951959085e-09	-1.054069656210374590e-09	7.556129314019909005e-02	5.964386168075264055e-09	1.069071234865121926e-10	3.275730900812871935e-10	-7.476842624581534095e-10	-6.359353093044681517e-10	-4.543429153262111477e-10	-9.248452561288364489e-10	-7.760024420474271337e-10	-6.196501108702907839e-10	-8.149221770109794511e-10	-9.098031594481128664e-10	-7.239673182584769824e-10	-5.458131946116442498e-10	-6.680240875034975214e-10	-7.567106744670514334e-10	-3.683204444631917769e-10	2.368473990861369208e-10	5.212808515003065548e-09	-3.746908038694157362e-10	2.198194055893272143e-09	4.178751042011404585e-09	8.162586091579845684e-10	-8.706041123329734576e-10	3.005405506972076354e-02	6.391057188293615410e-02	2.945991701036391756e-09	3.490033050875024257e-09	5.299230352827652216e-10	-6.218349380023453741e-10	-7.934344728248701584e-10	1.322421557364463540e-10	-2.466970336287724229e-10	-3.031986301063739224e-10	-2.007659308723703277e-10	1.829476607325847729e-10	-3.772138101597958342e-10	-5.439491907962180827e-10	-3.996218340952729804e-10	-5.147860938294692406e-10
-2.672124330481605777e-09	-3.587163689833950880e-09	1.414020457237980475e-09	-2.756040657663888065e-09	-2.991721613907720349e-09	-2.735727457356900151e-09	-2.781503727184837434e-09	-4.602927740826597667e-09	-3.000540460708960417e-09	-2.873064875419393294e-09	-2.827054770704766592e-09	-3.437633063266287911e-09	2.198788234525968960e-09	-1.148760438396997558e-09	-2.886108813557696729e-09	1.482553673893790219e-09	-2.088497900736541602e-09	-6.384372632334775677e-10	-1.189520907105157952e-09	-4.850850645049849970e-10	-2.879706452206915270e-09	-1.761324934140290753e-09	-9.149860821453298033e-10	-1.422918403639063429e-09	-6.226393202225194460e-10	6.425355055111458684e-09	5.362361532490081927e-03	7.059427124630580938e-10	2.263964430009488457e-08	9.235621909718997347e-08	3.499269073926158026e-09	9.966298789692270606e-10	4.138909856484942335e-02	1.732711221722827988e-01	8.625126209916228157e-10	2.475194318553405268e-09	5.977870047739256006e-10	-1.495464826259762790e-09	-2.731090682687966471e-09	2.433997357639756648e-09	-1.723744662558962595e-09	-1.870119888765429499e-09	-1.317113325327540609e-09	9.283569782473457055e-10	-2.406148170324911917e-09	-2.749052278596991208e-09	-8.186103892042410934e-10	-1.935728283824794731e-09	-4.942931271311291253e-10	5.127912492361204486e-09	3.478503664411857627e-02	2.710574853425390044e-09	3.723571839026201916e-08	6.597934496287399808e-02	5.961802129639213601e-09	4.304520925157722896e-09	1.113271188682883779e-02	3.370298564363624627e-02	1.129752833361458672e-09	2.791404453987864895e-09	1.765063870342503207e-09	9.755006375497377381e-09	5.862794119950166577e-07	7.942676807202349203e-09	5.151231303071545497e-08	1.194670918169967594e-01	1.074327671681880152e-08	1.078358998893586785e-08	5.046166719782207972e-06	6.326578859242640145e-08	2.523541457430257180e-09	4.075962403119603315e-09	4.957971993878007965e-09	1.715902557240084743e-08	1.677350120223495500e-07	1.151051461727195347e-08	8.742036824660809334e-08	3.155499132668794782e-01	1.741461582450622559e-08	1.513529103983145930e-08	1.012658088706153842e-01	3.948664934200428827e-08	4.856323852240280161e-09	6.340250800467386563e-09	-1.534531506253331923e-09	-1.239602664529949159e-09	-1.253167367307330852e-09	-2.214475655351356306e-09	-1.942566576637787821e-09	-1.377806251264752400e-09	-1.996299930231530460e-09	-4.339519295493487874e-09	-2.028108719466159992e-09	-8.783469119022762078e-10	-2.031145697119408694e-09	-2.554836222907487693e-09	2.015362016751507734e-09	1.094677949122550749e-08	5.053782358572332816e-08	6.264676321658777612e-09	3.369241648194840801e-08	7.302179172524778083e-08	1.407299781842211194e-08	6.405875353166116074e-09	6.259861100015866493e-04	9.746198210509376958e-02	1.536644381045243548e-08	1.967861239003066300e-08	5.935012262589591786e-09	1.236502448056183852e-09	-4.375480976010963675e-11	1.378897521292319719e-08	3.355026410639427651e-09	3.327675739464948847e-09	3.624355714249684032e-09	1.442988491585124773e-08	2.221387018148356074e-09	2.603580378844729422e-10	1.708413136339429685e-09	7.046476473352598015e-10
-4.724767233553140960e-10	-7.098106363558036057e-10	6.200114383434957735e-10	-4.779633004389395551e-10	-5.466715000780755077e-10	-4.360770682645768164e-10	-2.742180596935734775e-10	-9.014513649838268666e-10	-6.506500875072892696e-10	-4.549609985350869237e-10	-5.143753038312690768e-10	-6.105161962479299436e-10	1.557305359317932801e-09	-4.739891234922010416e-11	-4.575504800234716168e-10	1.092678276451537224e-09	-8.323376018776464070e-11	2.092659693351225230e-11	5.427309448073230417e-11	4.553509479285548476e-10	-4.234038005262477329e-10	-2.244508678086637617e-10	8.132331683444641270e-10	-1.442093557127076382e-10	3.212705318469223591e-10	2.790355706429781756e-09	1.747825450250409945e-02	1.107332566401009960e-09	8.136902673973115157e-09	1.614162461081859861e-08	2.153869930882174502e-09	3.084621268000964314e-09	6.020350161603157252e-02	1.415547219697886883e-01	1.124724661338014164e-09	1.817953747767619924e-09	1.430439245467456020e-09	-2.939301875070753361e-10	-5.633492352356303877e-10	1.229947328413945255e-09	-1.866868779818394027e-10	-2.418115766081406999e-10	2.613441324737789337e-11	7.334527207721598711e-10	-3.541836134534735919e-10	-5.675560764081358636e-10	3.196592997695440119e-10	-1.923978944776138935e-10	5.187621921327011728e-10	2.804143605507237934e-09	2.118892728968876926e-02	1.759218371381619333e-09	1.562238477191880252e-08	6.924509159498651312e-02	3.405522602770205169e-09	5.072059889504996184e-09	9.953922744619333237e-05	5.729643310610821327e-02	1.233731408243796829e-09	1.905065153281382501e-09	1.343752277142377043e-09	4.522500676840315825e-09	1.812178057925870285e-07	3.523480326476387957e-09	2.136514155167190509e-08	1.122679633108721875e-01	4.923527196003475001e-09	9.441776431115703340e-09	7.220384049050510047e-07	6.430907857411161479e-08	2.072840471050470858e-09	2.890359106045330866e-09	2.548597421499048711e-09	6.998569918092540753e-09	5.387409974760498893e-08	5.390393778785667345e-09	3.534316935651163968e-08	3.349677595088844106e-01	7.612661977786238224e-09	9.276157672341431617e-09	8.035879465528686372e-02	2.242916964560885598e-08	3.147295027836988528e-09	3.914793268269941586e-09	-1.367159101160388237e-11	-1.072091799595976706e-10	1.409686054789251878e-10	-1.594885904878505074e-10	-1.125868574944698914e-10	4.326473873202377451e-13	-1.798147681176662709e-10	-4.377268091056861882e-10	-1.147490030217369793e-10	9.244921942231135829e-11	-1.326580962790941993e-10	-2.659092190459234237e-10	1.314956291401982209e-09	4.249367652513177623e-09	1.607119738983015401e-08	3.006383370513146490e-09	9.974086895892894486e-09	1.722540874038781468e-08	4.966444348016841726e-09	6.122176606412286116e-09	2.155661434478761337e-02	8.378107472407399225e-02	4.847526363074681650e-09	5.951693115836328889e-09	2.451065730193712153e-09	9.550856545700166673e-10	5.790675643927181737e-10	2.866435432719756195e-09	1.302239200654030613e-09	1.190899308743703025e-09	1.523892620401182272e-09	1.529433320419803327e-09	9.225663815950303037e-10	4.258849620248180958e-10	1.370397455074892187e-09	8.860995498774241705e-10
-1.109588836719568257e-09	-1.402748225057869135e-09	8.843022217638587170e-11	-1.132206058137188627e-09	-1.278192317432615326e-09	-1.203595651847433575e-09	-9.606951086850404245e-10	-1.008387208594917975e-09	-1.415032518499385057e-09	-1.121765161684458080e-09	-1.277194190264308259e-09	-1.226090374201901784e-09	3.079956596822347661e-10	-1.234618944373471667e-09	-1.288525414128287129e-09	-1.034319228605931094e-10	-4.042518299422150330e-10	-8.310913386485732475e-10	-1.027410660085070889e-09	-3.057621033289711432e-10	-1.220398466899934327e-09	-9.769297221372720067e-10	-1.354939910211751246e-10	-1.261478891893581123e-09	-8.477578843526060230e-10	3.322849799172490269e-10	1.069717418568236732e-02	-1.031376096942609769e-09	3.183328527208901404e-09	8.651644341319595043e-09	5.225912455152070953e-11	-1.179465069489709821e-09	4.283133882277446319e-02	1.579093094997363611e-01	-5.990363467264725402e-10	-2.325144531777834851e-10	4.195128290107291841e-10	-7.628373529357205600e-10	-1.142146851340876585e-09	1.070994469999083973e-10	-9.061917598267005261e-10	-9.458865522213946355e-10	-8.063836958235051183e-10	4.658089080737282832e-11	-1.083621439519298081e-09	-1.144173273674293348e-09	-5.952749372110585485e-10	-8.972383177809414485e-10	-7.903089959598138577e-10	2.892015517168769736e-10	2.493199389550632486e-02	-8.012510200741847559e-10	6.283265828114878329e-09	5.561794987761379400e-02	5.689409479278673754e-10	-8.024763375086260201e-10	3.801213028383230996e-03	5.787252924983717767e-02	-5.013814772047035472e-10	-1.947927718052043208e-10	-3.374293784217219387e-10	1.231226356383698726e-09	1.342516531099358232e-06	-1.440444021354647282e-10	9.004357155960717713e-09	1.247779954672393193e-01	1.330337210924062445e-09	-2.803462492812308806e-10	2.144559067671344746e-07	5.307489100447617750e-08	-1.496617048038425951e-10	2.464202169282359586e-10	1.286431672399059851e-10	2.031541738137912313e-09	2.569439953823433762e-08	4.609038696677096095e-10	1.619803718946370668e-08	3.184124038783283095e-01	2.857208632339336047e-09	-8.731227443998753022e-10	9.921355902922364411e-02	1.065716456833666296e-08	2.947677607726514252e-10	6.646294397953083637e-10	-7.943295078704775641e-10	-8.552806196417120310e-10	-8.837770430781820124e-10	-1.167557411284694716e-09	-1.045425540561102834e-09	-8.775664211279460438e-10	-1.056899199801635155e-09	-1.074996882504281310e-09	-1.011316865239651979e-09	-5.843315001815952508e-10	-9.521148574921656801e-10	-1.114176251691018992e-09	-3.057774542987067518e-10	9.214864207834661497e-10	5.973354643454707261e-09	-3.497020860970046793e-10	3.942540160151569891e-09	7.319641808270510265e-09	1.389515491963096199e-09	-7.152381970110115476e-10	2.620118834632692573e-02	7.773167050494392272e-02	6.894968281852112826e-09	9.294420233441102198e-10	9.997186565447219168e-11	-8.740960868660077344e-10	-8.034709461520326256e-10	7.110698064953280658e-10	-1.731809269977393561e-10	-1.442201711240835243e-10	-1.863433873265987682e-10	1.049869733218452490e-09	-3.989605091569602494e-10	-6.609114151061453072e-10	-5.227332329734105500e-10	-6.689515412154865776e-10
-2.728514927276196565e-10	-3.880621054105453727e-10	-4.113708393141929847e-11	-4.011179438764634277e-10	-3.488338815822732517e-10	-2.910914758926965013e-10	-3.429199219624546697e-10	-3.807946302573040759e-10	-3.446446882366082192e-10	-3.245539190556582695e-10	-3.438184192730063665e-10	-3.676195177335626035e-10	-2.240150298744399600e-10	-3.194876689748615855e-10	-3.802463789523422110e-10	-1.253139725773668688e-10	-3.192179910271667770e-10	-2.868597799613020943e-10	-1.956946139711994446e-10	2.770259866143352746e-10	-3.755811976937609258e-10	-2.573439672691336384e-10	-2.660536211362368711e-10	-1.455243155649753654e-10	-2.585292177704885921e-10	6.496443356854707895e-11	1.856036882565217233e-02	-3.665802705866024240e-10	8.784021811442185497e-10	3.119541216328870925e-09	-1.494777910312577804e-11	-4.021018811748038716e-10	3.630768666819972346e-02	1.559471053658554596e-01	-1.490413147950306926e-10	-6.224928920255868446e-11	1.859729095739747052e-10	-2.741995630289502166e-10	-3.494171493393262853e-10	-2.679751008229967365e-11	-2.812311592503157340e-10	-2.908925899437679766e-10	-2.456395639600327764e-10	-9.401040438915490716e-11	-3.150982270875415779e-10	-3.346385148177732966e-10	-1.686948366168172230e-10	-2.664137954984171231e-10	-2.259465802427861652e-10	7.725255043026915290e-11	1.518033403518046290e-02	-3.005747932417314332e-10	1.619148579137710554e-09	6.685235247696642846e-02	9.537061613926400788e-11	-3.110967796484960283e-10	1.516018005485430392e-02	5.128258260510530631e-02	-1.423794593047376625e-10	-6.211001220176850556e-11	-1.279568486732237468e-10	2.360308221888235502e-10	2.395930158948281527e-08	-9.178049464428987356e-11	2.328434855395627469e-09	1.166473585412228509e-01	3.397140529066253605e-10	-2.291085411649389632e-10	1.591515028960552055e-07	4.551922145025550032e-09	-6.291606535329934504e-11	2.475924299574548330e-11	-1.983545972406310630e-11	4.188802256976479796e-10	4.134154714461920099e-09	9.846339205736130981e-12	4.259837620650505371e-09	3.337881651461067078e-01	7.054087853160021355e-10	-4.117528645651526441e-10	8.646129546025353718e-02	1.827002597689444873e-09	3.112124853620228171e-11	1.085377472572243411e-10	-2.521351957115640465e-10	-3.071157607066006884e-10	-2.092344486999999323e-10	-4.056708293186483123e-10	-2.977621042448697993e-10	-2.386565889693735813e-10	-3.022327808405289571e-10	-3.906154547004134941e-10	-2.817972546484578273e-10	-1.450015432713457261e-10	-2.469137810350387587e-10	-3.414018857691225641e-10	-1.272698746273213772e-10	1.853498307374180522e-10	1.880111136513974431e-09	-1.569583373787089881e-10	1.133184838649957966e-09	2.237099569145820632e-09	3.716750785140730713e-10	-3.359124228181627369e-10	1.320169996752095301e-02	9.061067195862214374e-02	9.214811304999508314e-10	1.106023878752582053e-09	1.055629352422760603e-10	-2.532844974409502692e-10	-2.431293990262950767e-10	3.027986021983072830e-10	-4.495845612735702414e-11	-4.988650565173124940e-11	-6.239316255676072379e-11	2.280554644872437645e-10	-1.128563001090198538e-10	-2.066726132595791748e-10	-1.456815006779566044e-10	-1.947504805412918891e-10
-2.035816807222937304e-09	-2.685416724921310109e-09	2.663710797539773928e-10	-2.402878417813255274e-09	-2.408782658898011262e-09	-2.173592918065384935e-09	-2.239739581707383246e-09	-2.454003965496763923e-09	-2.485800689664791892e-09	-2.181468016684604875e-09	-2.372700888644861353e-09	-2.502181582789694476e-09	-1.447429561187633704e-10	-2.401918626236839216e-09	-2.246548538822920305e-09	-7.323769072692336021e-10	-1.299766682960821913e-09	-1.414758211417139548e-09	-1.912692733937071902e-09	1.020281149430824642e-10	-2.282695552216347955e-09	-1.967483259228778113e-09	-7.171166758587282222e-10	-2.463168848565674949e-09	-1.603120272336127110e-09	6.916873222906324511e-10	2.587513830701414219e-02	-1.732627093479899729e-09	4.829831300926032066e-09	1.072064537894024958e-08	-1.369791315845210769e-10	-2.450984552759371902e-09	3.910705637802148332e-02	1.451350402060979927e-01	-8.866084586410704326e-10	-2.193918055995593840e-10	5.462253614658349702e-10	-1.995598027626957094e-09	-2.275955389948614305e-09	-2.205904595075186529e-10	-1.754034396788922651e-09	-1.811963161092970526e-09	-1.591014036095732195e-09	-6.042323413749973849e-10	-2.078667661916877061e-09	-2.174347330412395382e-09	-1.080747859177642053e-09	-1.765804260772395402e-09	-1.430181364966784044e-09	7.037273794978283912e-10	1.172721421098353069e-02	-1.220488949429942760e-09	1.035833494290237600e-08	5.848267429927996724e-02	7.940421431072126708e-10	-1.788736678967989889e-09	3.056878568523017520e-06	7.309056138549838155e-02	-8.890784409544668279e-10	-4.192733806922727308e-10	-6.101241412817115974e-10	2.256033335039837621e-09	3.824678391283722427e-07	8.274110627958562082e-10	1.461090158468056973e-08	1.268602842437157874e-01	2.259014946290692968e-09	-8.119889669769915935e-10	3.947069473798229755e-07	8.982182393648060757e-08	-2.456056308391066084e-10	4.057677523181911328e-10	1.221296933110529908e-10	3.681271101492583708e-09	4.732203189259768022e-08	1.600803804815314751e-09	2.647759009322044817e-08	3.051040571925165978e-01	4.633840690249440624e-09	-2.521494829550988946e-09	1.138921294866223066e-01	1.722909015396117579e-08	4.684298179691221133e-10	1.070627950587628716e-09	-1.528525277492128961e-09	-1.851739866902812549e-09	-1.416838714577732366e-09	-2.405350246332889813e-09	-2.060189283108351383e-09	-1.649654116724118001e-09	-2.151497137219759462e-09	-2.521193249900542552e-09	-1.929611820124295219e-09	-1.204051291143974400e-09	-1.617863489772498108e-09	-2.260234891275870909e-09	-7.327811058897790433e-10	2.143547087596358898e-09	1.222366492372810586e-08	6.043604948530935527e-10	6.056464319659293614e-09	1.123978321078587810e-08	2.310544345138351732e-09	-1.906782490113352730e-09	2.747643873568191702e-02	7.324538871157584841e-02	6.618180950562141071e-09	1.291825852755114036e-09	8.363946824916304493e-10	-5.037930060864008402e-10	-1.265922582067879591e-09	6.986866113294091411e-09	-7.160826781089925539e-10	-8.186992627088186937e-10	-4.710987989320787961e-10	1.898664978894236943e-09	-1.339981538469264013e-09	-1.457836869413435596e-09	-5.700500038978997408e-10	-9.952530553853587488e-10
