-1.603314751614122965e-08	-1.286331852599720773e-08	-1.082742086841335237e-08	-1.432238234886797794e-08	-1.373015065538909202e-08	-1.075822640322780151e-08	-1.442578821834701811e-08	-1.422876646904520864e-08	-1.317389374127283534e-08	-1.180875929478574733e-08	-1.420433931486274316e-08	-1.363610228334370920e-08	3.904618923954505511e-09	-1.408768600063776715e-08	-1.476987653934721116e-08	-9.441994392562072313e-09	-1.274739541655270320e-08	-1.362822190101404329e-08	-8.175870577470415837e-09	-1.393473547767673331e-08	-1.412134537282734727e-08	-1.369460930897479788e-08	-1.238624325838071916e-08	-1.015612812497360796e-08	-1.606697250395646149e-08	-3.745384374810476682e-09	3.149036688090655484e-02	-2.998528250317269513e-09	1.181475769541378885e-08	1.957816096463740021e-07	-8.720936889337968351e-09	-2.757692901463903085e-12	6.338505958109377780e-02	1.118915680065512008e-01	-3.852921625129159361e-09	9.320478107972732637e-09	-1.778076733527606928e-08	-1.574421660214536385e-08	-1.433563961036381311e-08	-1.388066089303785053e-08	-1.434879805834697628e-08	-1.441647492854963329e-08	-1.161397412315834134e-08	-1.389931180403083562e-08	-1.405563711860831997e-08	-1.528554474903176358e-08	-1.381793709933709566e-08	-1.403883444444276260e-08	-1.490360283860456693e-08	-1.267945833940024982e-08	3.201165776806179364e-02	6.748207115974338397e-10	2.043031156221749489e-08	7.363403045030712801e-02	-6.842532245335252496e-09	2.389130505821078166e-09	4.473093310014147651e-07	4.012939721152105482e-02	-5.537514122355898882e-09	2.284473071818281020e-09	-1.332562257904825473e-08	-3.656413988501319110e-09	7.750611553726352185e-07	7.817404314764910516e-09	3.403788279120229145e-08	1.117136663640968947e-01	-3.120568720627777346e-09	8.430445483386370004e-09	3.071435338058157291e-07	3.734612354739545231e-07	-2.519680793053597752e-09	5.879748907016071250e-09	-1.330938407685891788e-08	-1.618625894498016096e-08	9.167412723785327215e-08	2.035040357642942544e-08	6.250145206090523913e-08	4.001256493920405388e-01	4.496136924429625465e-09	2.454079173594334611e-08	2.899955810239448692e-02	7.325518030892667450e-08	-1.640911497607627752e-10	6.529607435730781403e-09	-1.477492380195214176e-08	-1.962531245092334768e-09	6.241021276016385372e-10	-1.262692009031641546e-08	-1.298432289312346495e-08	-1.443240248625348316e-08	-1.278915155216336589e-08	-1.248331314681588213e-08	-1.359663339631188772e-08	-1.287156759779867273e-08	-1.081695451101317919e-08	-9.686580997034130442e-09	-1.271507814744400129e-08	2.545571199989497845e-08	2.263990105181418108e-08	1.361680684515880395e-09	1.163590344614530254e-08	3.803827022332472276e-08	-2.013545677753347397e-09	1.146353786348672994e-08	6.539543112206701314e-02	1.914651286613775275e-02	5.484734000160506513e-08	2.207518239409844360e-02	-9.784422494307802088e-09	3.415574660376541818e-09	4.924141661877491818e-09	-5.435850078700006615e-09	2.000243635551665230e-09	2.903277579402099689e-08	-8.413882488275866950e-09	-5.510327101605744762e-09	8.719780229880709226e-09	-4.522016921193132754e-10	-6.947236001623076486e-09	-5.082203991277474863e-09
-2.539651523161384380e-09	-2.756278356178004590e-09	-4.633637109625181909e-10	-2.514751135475348041e-09	-2.458233072309709051e-09	-2.189468939372175831e-09	-2.460060529185823458e-09	-2.494229756658274020e-09	-2.389535520170054169e-09	-2.590245566335405155e-09	-2.397741209811149959e-09	-2.410479649839045982e-09	6.888246612960978062e-11	-2.720272933888426939e-09	-2.612180686011006636e-09	-1.460711178762106531e-09	-1.907107984407827254e-09	-2.376508962232480253e-09	-2.036597924549900773e-09	-2.334950072030559440e-09	-2.172206627160819562e-09	-2.401989844925484600e-09	-2.120937315501662760e-09	-1.554426579562992255e-09	-2.327106687143102812e-09	3.056110676711276126e-09	3.144353812737006593e-02	-1.922636408478385417e-10	2.490769838073575125e-09	2.847858660701367138e-08	-1.310375173061231426e-09	4.446070379571098962e-10	6.183693062387088379e-02	1.094218100145459005e-01	-1.161745401395853663e-10	2.587635115800058005e-09	-2.545455026261746237e-09	-2.632923762279595454e-09	-2.568028580644345733e-09	-2.362637439303261833e-09	-2.495433433474669059e-09	-2.511409263626244132e-09	-1.773660533756251499e-09	-2.512842548478123088e-09	-2.531742822312055773e-09	-2.615279362882774202e-09	-1.949866602407131317e-09	-1.858847608216294145e-09	-2.307927289183574840e-09	-3.342681216141872600e-10	3.054577549194902042e-02	5.718072319999516802e-10	4.416875887320630728e-09	9.844998108304540974e-02	-7.461484864585227264e-10	1.778976971351498286e-09	1.078330977107388490e-02	1.314449242426021965e-02	-2.852354558735101282e-10	1.990522966249882874e-09	-1.885967008966467159e-09	9.064214331081646728e-10	-7.519268942149196034e-10	2.127216200058332829e-09	7.543421347953885632e-09	1.138498761030074663e-01	8.437533231666098851e-11	3.098390740369878027e-09	4.578971772792914532e-07	2.484918144195620337e-08	6.656562297201866028e-11	1.836721647754503612e-09	-1.829209863059388842e-09	8.456285371104809121e-10	6.775042252642426501e-09	4.715927453500069057e-09	1.336756215025202329e-08	3.597405169493032018e-01	1.233089508832381644e-09	4.856663577382556401e-09	7.851825179554948464e-02	1.405326228329970592e-08	5.957875852524158831e-10	2.120427364714262074e-09	-2.236550550526041235e-09	-6.566626975522212113e-10	9.588395784970251936e-10	-2.310388774727304549e-09	-2.359157330033724821e-09	-2.121570583688956537e-09	-2.283361021678369994e-09	-2.291018024395485661e-09	-2.059614178872241901e-09	-2.274665430285812900e-09	-2.131856271266503937e-09	-1.964857666628045318e-09	-1.576282080096855840e-09	1.809219482298973195e-09	-5.419157788647476989e-10	3.543801388481602238e-10	1.664526261526736073e-09	3.525500604096856892e-09	9.750889107498599765e-11	2.371680391620693427e-09	4.033191977652323549e-08	6.687669056511134913e-02	9.150131796833287788e-09	2.538828563541225061e-02	-1.109054077483891514e-09	1.140468268256469986e-09	-2.519446950360218421e-10	-4.730227109745920163e-10	8.452891202416120047e-10	4.590563237950020079e-09	-1.101223765867419608e-09	-3.306555707699967254e-10	3.805852674450422100e-09	-2.611260306991497555e-10	-1.061474662208682801e-09	-8.849550485882855761e-10
-3.071974910702232753e-09	-2.648728151384622634e-09	-1.171589344116326014e-09	-3.014728753895835816e-09	-2.907163914931180109e-09	-2.428019318090305829e-09	-3.030130346453532056e-09	-3.101840360064102427e-09	-2.928375466471604908e-09	-2.686321369960623294e-09	-2.843584662825591787e-09	-2.832074510203254565e-09	2.329393076325630246e-09	-2.693231403880256118e-09	-2.955992040223801401e-09	-1.472682219011339142e-09	-2.466183701276363465e-09	-2.616635995691932259e-09	-1.715852778779096513e-09	-2.606085058159294381e-09	-2.654450623578927967e-09	-2.820653109112566077e-09	-1.766972076046515399e-09	-9.430416924595617499e-10	-2.254349114208945325e-09	4.021098793276690178e-09	3.647287892573733425e-02	2.720073746256692213e-09	1.215143024613876201e-08	4.068854277765439288e-06	-7.267510898915251825e-10	2.461126167031891355e-09	7.224842283829037426e-02	1.049315604536219526e-01	1.340866797041821966e-09	5.933883375071917592e-09	-2.304181331535897514e-09	-3.030838451377836165e-09	-2.912610387820173341e-09	-2.633218094756588895e-09	-2.742908299208392153e-09	-2.782702043180781500e-09	-1.599953420028884708e-09	-2.681855705466394908e-09	-2.770463433630299814e-09	-3.090237320027520222e-09	-2.376618526796381058e-09	-2.624629391937075258e-09	-1.887378912757345831e-09	9.678605492339881273e-10	2.802553294027248371e-02	3.182843296637101727e-09	1.087060737523514465e-08	9.505904244205279352e-02	1.897989871095874886e-11	3.646482812054177229e-09	2.242922617122089410e-07	2.092767763592097430e-02	1.206536158434905944e-09	5.321526641834770403e-09	-1.064525045618604742e-09	3.273273343959944995e-09	4.236231066717406253e-08	6.391857555446265033e-09	1.771003411272373888e-08	1.206228936229493814e-01	1.675477710714540143e-09	6.592857058888268071e-09	2.213364471109278560e-07	5.892783768699153224e-08	2.178280376089428470e-09	5.836232150572938876e-09	-6.426934502410799741e-10	9.554688154443697016e-10	1.554910191244330792e-08	1.158835429182885320e-08	2.927531426461395292e-08	3.558969019934046241e-01	4.322257818582198089e-09	1.172289004239099121e-08	7.022096707988408071e-02	2.028515605021489187e-08	3.239925210661536828e-09	5.975007063334835882e-09	-2.803469624363265649e-09	2.759168453030722782e-10	-9.575543613090013782e-10	-2.292080926138411551e-09	-2.239413779366945969e-09	-2.693346875346664618e-09	-2.489421545247907713e-09	-2.323650281573861601e-09	-2.482351350884130168e-09	-1.755099138788764561e-09	-1.673023386599835301e-09	4.431951882168080383e-10	-7.566084896229145499e-10	6.960097762798943792e-09	7.123506579016579867e-09	4.394078548359523562e-09	9.692819156780664771e-09	2.376079265741949351e-08	2.277450716732333140e-09	8.633337459422602440e-09	3.342349408971963254e-02	5.532535950161645427e-02	3.141008417560418559e-08	6.840461419801540689e-03	-3.955073080203962930e-10	2.981923556022687018e-09	1.413499805597460758e-09	-3.366755315532619300e-10	1.106945040442164039e-09	6.226833485462811076e-09	-1.084976607315239433e-09	-4.837635902417429748e-10	2.650408797033467881e-09	3.768763731072964811e-10	-5.222270914848313110e-10	-3.969741257285412859e-10
-2.365133354000096873e-09	-3.334966614348522093e-09	-2.290148979109827414e-10	-3.171230467163362184e-09	-3.076721636863422899e-09	-2.705401501271733372e-09	-3.111839273032392152e-09	-3.211435789452468358e-09	-3.102853399367480773e-09	-3.037224819947993034e-09	-2.943584248855243237e-09	-2.934655602884979040e-09	5.798354255851715174e-09	-3.345884929305210750e-09	-3.272746777359027807e-09	-1.803495939315955894e-09	-2.810676473367895072e-09	-3.071349316476418231e-09	-2.411161815243451346e-09	-2.990610553338443096e-09	-2.970096725636191744e-09	-3.014201688763526361e-09	-2.542521688891615518e-09	-1.266896862708829057e-09	-2.605848265742857074e-09	2.815967967075635294e-09	4.004942262191993341e-02	-4.681486415301824130e-10	2.443984117590876814e-09	9.915222504756248386e-09	-1.666001729001876196e-09	4.028035273066909848e-10	6.277948970521098071e-02	1.031386851230323559e-01	2.576557470319384508e-10	4.172153495093427019e-09	-2.655377885174838657e-09	-2.909987029557931522e-09	-2.713298088909665213e-09	-2.963672108490926487e-09	-3.075963881416958436e-09	-3.099426214875437468e-09	-4.480605916087939064e-10	-3.128748131436235889e-09	-3.159376564840330364e-09	-3.182580991708304206e-09	-9.187948301566543570e-10	-2.980421701584664286e-09	-2.548249323441410115e-09	-5.582136608019157736e-10	2.452114475381785008e-02	5.512740866145855208e-10	5.338491104810966584e-09	8.797644710072290153e-02	-1.152038033977438415e-09	1.352978099094788162e-09	2.150516965447015250e-07	3.689123532235429742e-02	-4.973434207720019740e-10	1.895420390711869915e-09	-2.001062497850931918e-09	1.834106078804410616e-09	3.246305119305092148e-06	2.276686128454326430e-09	8.683440706776472614e-09	1.323555234042288198e-01	-2.441234411323873573e-10	2.676499538214644415e-09	9.723701331293560102e-08	1.022658868131076704e-07	4.444387693578803891e-10	3.266151041849153592e-09	-1.627777586739405559e-09	2.820122219521571598e-10	5.248680995474676624e-08	5.167366476028557553e-09	1.511572750758979437e-08	3.480695027883013437e-01	1.340028742976703263e-09	5.511360311000118660e-09	6.914723102640878138e-02	2.632779255359692387e-08	1.033313253113016298e-09	3.385627270774964071e-09	-2.451093647916748095e-09	-2.504825534022746063e-09	-7.079265131483176731e-10	-2.781234211722914499e-09	-2.496670725493097714e-09	-1.695682834949175536e-09	-2.855661682705290966e-09	-2.728738207616295758e-09	-1.997118604466127826e-09	-1.940924588718843155e-09	-2.157545854251541030e-09	-1.244746649580767945e-09	-1.732060105637244709e-09	-1.079344028239289073e-09	5.262780794771283964e-09	7.643002177465976620e-10	3.016559258783577748e-09	7.538709506129294768e-09	4.449066874325286180e-11	3.777404498366146642e-09	4.712980643473795722e-02	4.549122969661833354e-02	1.583608904966492213e-08	2.446557137907347246e-03	-1.525411408403042714e-09	4.822706071464505960e-10	2.628311563450988020e-10	-1.141967657288547711e-09	5.140366521441338395e-11	4.564080716811199841e-09	-1.561917671969060312e-09	-1.247817976572314539e-09	1.376955556690569732e-09	-2.842202631121137129e-10	-1.186172780268427167e-09	-1.079218038539423077e-09
-2.018522239075720507e-10	-1.943031591310474699e-10	-3.479083313018029501e-11	-1.779093249770277217e-10	-1.729487788628499461e-10	-1.615357871075356734e-10	-1.689224531569753161e-10	-1.808300647851164061e-10	-1.757922620490752767e-10	-1.743119433659127861e-10	-1.621386332293161287e-10	-1.580049523736965868e-10	-8.158802173610585668e-11	-1.746653755339895482e-10	-1.795699238375693750e-10	-1.320725974620957727e-10	-1.500821130228543140e-10	-1.466677063470117567e-10	-1.191803862621603667e-10	-1.580641287040719163e-10	-1.704895777406628767e-10	-1.805778048820523725e-10	9.134398065479616149e-11	-3.690216404727186490e-11	-1.840747032100049998e-10	1.958363662438860627e-10	3.463978375857898473e-02	1.158056701361313042e-10	4.405485555145861827e-10	3.486031436981434321e-09	-2.438581084055169703e-11	1.831680434609546815e-10	6.306540557208005493e-02	1.104273437032144839e-01	8.554222627283255029e-11	4.612730456976112164e-10	-1.711189028329748049e-10	-1.882754005843323551e-10	-1.606332817315138330e-10	-1.420447603933483076e-10	-1.493451412371648176e-10	-1.513738362104214427e-10	-9.349094473814853361e-11	-1.478181733368211326e-10	-1.501377371033185973e-10	-1.690544910610843559e-10	-9.522596386400938782e-11	-1.412573093216341137e-10	-1.704223088835734754e-10	-1.877381467980503538e-10	2.901657616898214997e-02	2.151464905190838079e-10	7.125210862091873131e-10	9.002798460264668789e-02	2.999580167355605975e-11	3.048033357085332275e-10	4.127192574651168927e-08	3.884494138323343199e-02	5.765707420361843254e-11	2.923323628962505234e-10	-1.299049922487509668e-10	-4.410900152462249023e-11	7.910507712458901412e-07	3.606247662868493981e-10	9.578002856227986234e-10	1.107483291092223598e-01	1.229667179818049687e-10	4.620322129124330165e-10	2.499874951915533803e-08	1.522378946537962793e-08	1.496222097095024589e-10	4.192583701585150354e-10	-9.314183755631160484e-11	-1.923769000084291832e-10	7.999362948294042641e-09	7.008256247398935730e-10	1.746569834383224654e-09	3.882884603087146669e-01	3.111548434448674951e-10	8.609961563952966935e-10	4.282801189034744077e-02	5.634435392386969630e-09	2.802160203937847519e-10	5.914934314157185524e-10	-1.837271395716894188e-10	-9.829918726539186678e-11	4.264257540613139996e-11	-1.295535921466218868e-10	-1.274506911071505481e-10	-1.391189973628097300e-10	-1.391879887443736437e-10	-1.304314286236324593e-10	-1.340805884772437874e-10	-1.353974035189877979e-10	-9.615774344224171325e-11	-8.193056611246815365e-11	-1.278825771499334234e-10	1.425652549873334991e-09	1.300634473786495503e-09	1.936873843262254231e-10	3.788441250391923122e-10	7.617314703263602314e-10	1.230888323265787473e-10	4.179963725523611797e-10	5.387089888241985980e-02	2.873479939655972093e-02	4.941348045605501977e-10	9.506567080228876115e-03	-9.344340483179390520e-11	1.522712444725081086e-10	1.187948383621790396e-10	2.519757128328611898e-11	1.223136377591608413e-10	3.846485090931681924e-10	-4.155453552987904871e-11	2.174587459610338714e-11	2.049373227635808510e-10	7.582449808018456368e-11	-2.452660027158052610e-12	2.482354908693604080e-11
-3.664938223372620388e-09	-4.003619685495703303e-09	-2.985710779411892143e-10	-3.589729789963398359e-09	-3.451625512866022476e-09	-3.093382274738630183e-09	-3.364951128144219381e-09	-3.528248064232530718e-09	-3.501620971618196196e-09	-3.704516624173002715e-09	-3.275333526196869535e-09	-3.328648784827543537e-09	1.497300161681133834e-09	-3.437063792123468428e-09	-3.332947184017269651e-09	-7.375301566525598363e-10	-2.563743736388408463e-09	-2.882544690791964909e-09	-2.124831352893510879e-09	-2.882452565844986770e-09	-3.186466134342350785e-09	-3.119525632177151008e-09	-1.996874495751843709e-09	-7.783127615872012571e-10	-3.173536346719857320e-09	4.388518688800014271e-09	2.267255645040703455e-02	2.892819611856112297e-09	9.459647258342441616e-09	4.332286680212620567e-08	7.073891602676202050e-11	4.858764525126555817e-09	5.873010770901313654e-02	1.303721085416548187e-01	3.039140602786362543e-09	1.129224134732310901e-08	-3.675274765149619908e-09	-3.520953686900816899e-09	-3.435168233942218322e-09	-2.886633071560589358e-09	-3.048306443837328969e-09	-3.096566144350754913e-09	-2.103941344702326411e-09	-3.105570210751407936e-09	-3.146386150919394234e-09	-3.450306107949198498e-09	-2.114510506434552501e-09	-2.258071410462210860e-09	-2.863880850686060810e-09	-3.887589815452226689e-10	4.132008518162155059e-02	5.497434808642695703e-09	1.706322437541066073e-08	9.149496559559597286e-02	1.983158109827387323e-09	1.042272433199506805e-08	6.868980510390402855e-05	1.133932793766483788e-02	2.471342679770319049e-09	8.569537294357287910e-09	-1.764393815252033124e-09	3.827505608802238995e-09	1.135693523326372695e-06	9.464052381132365654e-09	2.485523551966889633e-08	1.194431070076143880e-01	4.297693323171852366e-09	1.400731230348642029e-08	1.763771878662108509e-06	2.106993244987859227e-07	4.073263178920418618e-09	9.942999216381562447e-09	-7.531489992855939055e-10	7.312463386673433818e-09	1.694928254858581729e-07	1.704816388992027732e-08	4.213915140007443596e-08	3.485389849252061856e-01	7.583508788317452795e-09	1.919130268989159000e-08	7.173265816180825205e-02	1.038984023708410273e-07	6.883398190686581449e-09	1.320383461819260560e-08	-3.169160903237179311e-09	-8.752569252510488887e-10	9.260521866322280803e-10	-2.455109101415426317e-09	-2.273346371407913074e-09	-2.134925996352609288e-09	-2.630644832570748030e-09	-2.390919469971757746e-09	-2.089504245410429711e-09	-2.674864548377075988e-09	-1.658929510902221060e-09	-1.735206832370300511e-09	-1.509711486045659535e-09	6.944966248710353771e-09	1.296945572575056248e-08	4.843286678605265776e-09	8.744332308876880931e-09	1.325241162725714536e-08	4.144007634880596431e-09	1.286498248712447958e-08	3.298744073765942642e-02	3.390174570703120144e-02	2.975975410710017013e-08	3.739454553822232213e-02	-9.936204300811817595e-10	3.058421550035041386e-09	2.779469070769126091e-09	4.495148786446946615e-10	2.415732238313249217e-09	8.787065135086601544e-09	-4.874266268280156978e-10	6.869636251529194233e-10	5.754822295112281262e-09	1.337505523049894498e-09	6.223633921341639424e-11	4.166318856372526117e-10
-5.748844749785873583e-10	-7.736812421898374243e-10	-2.041102281634932134e-10	-7.146020723953757894e-10	-6.330638975448226688e-10	-4.685548813938041139e-10	-7.223518088930162297e-10	-7.432826975946736265e-10	-6.637918697109059559e-10	-5.411128278576551513e-10	-6.611822330531217729e-10	-5.904821148662666332e-10	7.319368075238745555e-10	-6.884192129809264726e-10	-6.537165407303128887e-10	1.319101333540862991e-10	-3.782502379869322080e-10	-4.430057569621904048e-10	-4.376660469027330194e-10	-4.914243461569710752e-10	-5.868566583832452886e-10	-5.467748356992613655e-10	-2.504410581246842360e-10	-3.231480015397235039e-11	-4.584681044740297687e-10	1.337672214609062693e-09	3.422202009441213666e-02	1.303022641534138266e-09	3.425585546132769527e-09	1.739112288338445065e-08	3.651393860241455440e-10	1.845665149645433582e-09	7.577694865919139267e-02	1.031945989380682743e-01	1.393713627401885850e-09	3.934561806268666948e-09	-3.384000299686979027e-10	-6.178765667391646515e-10	-5.376744804624159514e-10	-4.201893413605058607e-10	-4.843035973251394176e-10	-4.997653878473062557e-10	-3.270158483687715987e-10	-4.531335077006159868e-10	-4.675153256844625023e-10	-6.375955193506264607e-10	-9.185207555546133315e-11	-3.712870970320846713e-10	-3.598320372532351337e-10	6.939066025422645329e-10	2.761698874967845677e-02	2.086125505703693968e-09	5.746173857361458920e-09	8.727983481742490612e-02	8.363067658928875417e-10	3.047209653182816212e-09	4.805626773195779403e-07	3.281394587591753009e-02	1.162024232665150818e-09	3.041064349414266773e-09	-1.543719016224783923e-11	1.471335805386934447e-09	8.830123236536776656e-08	3.358580510411810828e-09	8.414033521321261086e-09	1.130317460623777859e-01	1.546497260326765480e-09	4.243547761981491555e-09	1.351062872147758987e-07	9.598969714287553293e-08	2.034749006918751147e-09	4.422815694641721801e-09	3.919497561714930644e-10	2.158621762073148417e-09	2.450863539031846391e-08	5.710164354172312863e-09	1.372588230658448555e-08	3.742361492746505425e-01	2.870033227044205304e-09	7.022483889082930177e-09	4.661266099882921399e-02	3.012517542973098194e-08	3.125222210936293811e-09	5.645449907910078130e-09	-5.741825631772175924e-10	-2.245546056747757174e-10	4.485151386295036172e-10	-4.569985935611062659e-10	-4.132204307257334746e-10	-3.165889445237762957e-10	-5.118014737694784543e-10	-4.534546065793887386e-10	-3.258261029720030189e-10	-4.290700584057698491e-10	-2.377720403203303304e-10	-2.437766710760341912e-10	6.318142798882306343e-11	1.533429296941947947e-09	5.872072885465876288e-09	2.208877036870329039e-09	3.908523475246362029e-09	6.767486525464239706e-09	1.658560930294069858e-09	4.544831454102510978e-09	4.746071584741445165e-02	4.184052778059377253e-02	1.171813066844426210e-08	1.591286827563200001e-02	1.448269261439758279e-10	6.072803999633080456e-10	7.162043352913885823e-10	5.239350220799604329e-10	9.128354835456283733e-10	2.112358704742190813e-09	3.711441916016182498e-10	4.906454996157804671e-10	1.227520260170464591e-09	5.360683361004605288e-10	5.466634296345323008e-10	5.720670085841349928e-10
-4.229725422523936809e-09	-4.418671439003083795e-09	-1.992989027977814492e-10	-4.083633427606203484e-09	-3.938350417679863394e-09	-3.645747004976146537e-09	-3.776150935887284964e-09	-4.167635912918505861e-09	-4.070535098697118960e-09	-4.109804461519735543e-09	-3.730412209834451242e-09	-3.750856531578189535e-09	6.084308898233606171e-10	-4.041910691737779626e-09	-3.874499029418908340e-09	-5.774755693773076058e-10	-3.222312813231645882e-09	-3.563114639919136585e-09	-1.918047391715064872e-09	-3.433728551685115639e-09	-3.473725620218785640e-09	-3.413948885641656491e-09	-2.502100409793620753e-09	-1.538871341750971634e-09	-3.893403331046110054e-09	4.604566117417997942e-09	2.875526836907938907e-02	2.697057403709518949e-09	9.949256687659980048e-09	4.980216596201351527e-08	-4.687075969773134910e-10	4.564009015357394650e-09	5.952929913786723232e-02	1.166220908567441039e-01	2.531649773116401354e-09	1.131792086795407389e-08	-4.259724232781501385e-09	-4.050482597071790411e-09	-3.709622781722921918e-09	-3.471063001138766242e-09	-3.579957492136013501e-09	-3.631207386540550840e-09	-2.574420102201184602e-09	-3.670657771804179776e-09	-3.746352936568565574e-09	-4.002147157856994694e-09	-2.385896597927965457e-09	-2.999134423418624981e-09	-3.499516093728257789e-09	-4.744686643461970278e-10	3.149594488030398737e-02	5.290649374313361026e-09	1.750020915613053086e-08	7.710995966798055157e-02	9.984769780311213777e-10	7.880168065213168225e-09	2.995717331598535338e-06	3.328526487251249472e-02	1.348024440720981781e-09	6.362377779258327674e-09	-2.270663534955031799e-09	5.267533305714411540e-09	1.060575809918353212e-04	9.132945647132012452e-09	2.451163113823510157e-08	1.251035750165329363e-01	3.035421103427306430e-09	1.087990649365919784e-08	3.584958242450398352e-07	2.169510043392116380e-06	4.085967663266673162e-09	1.140587353080750885e-08	-1.821356763968895552e-09	2.487225827216438532e-09	1.389231211299518690e-07	1.679797519472467348e-08	4.216708505558418826e-08	3.560763550073433037e-01	6.954712745134273326e-09	1.826078939672842415e-08	6.666697657644361785e-02	1.841306215539498309e-07	6.599044731909893623e-09	1.378507409317812021e-08	-3.592314491921725355e-09	-1.236011869938848824e-09	1.205966414913622883e-09	-3.115458100956103047e-09	-3.026219774253000330e-09	-2.750285235958325542e-09	-3.222580160211218233e-09	-3.068099860699382428e-09	-2.776636988350573808e-09	-3.054203026684841375e-09	-2.244249275926972257e-09	-1.893785802534730624e-09	-1.626663249385259477e-09	7.266653472678487623e-09	1.710507827453366670e-08	5.139148587778285629e-09	1.005857351707493250e-08	1.617365184147239866e-08	3.416776776892969815e-09	1.174445160178484814e-08	5.414940017545355477e-02	3.045177640968431063e-02	2.435707270683372881e-08	2.064192237399811725e-02	-9.631954219271033641e-10	2.866359960537196156e-09	2.805277485220906358e-09	3.636002998197492362e-10	2.659780108828995112e-09	1.131821771465048112e-08	-7.740159959719981480e-10	2.615466893541787171e-10	4.462449927526838670e-09	2.759409405910930813e-09	1.334860951559027339e-10	9.075318222183061962e-10
-6.363855619284669834e-09	-5.865052258151671398e-09	-2.914641344121837633e-09	-6.051034430714394149e-09	-5.720972216131807644e-09	-3.915561158170402908e-09	-5.846599036913370496e-09	-6.049038245573844937e-09	-5.701960625522950012e-09	-5.887057238729340818e-09	-5.779655484885025124e-09	-5.526706712701025384e-09	-9.079155693046892631e-10	-6.145180141438428491e-09	-6.332018515168842370e-09	-3.001042858808644986e-09	-4.863805171346053816e-09	-4.979702768550139963e-09	-3.884074761978453812e-09	-5.093295611730342175e-09	-5.792943660038040613e-09	-6.529862504137401501e-09	-3.337015266247275889e-09	-1.126959385685744236e-10	-5.184052486719546271e-09	9.551061013723290537e-09	3.553436159211333795e-02	5.956447152660010566e-10	6.616931496638675772e-09	8.950543858697843408e-09	-2.085238445515799771e-09	3.565337004914200082e-09	5.671336277511416363e-02	1.131835602520895462e-01	1.870600571845386168e-09	1.223159930323964089e-08	-5.513709642906529067e-09	-6.126747376315009711e-09	-4.816471621985614174e-09	-5.257781320417531099e-09	-5.616317576436497931e-09	-5.666055690671168358e-09	-1.645266367504423603e-09	-5.710830012722449981e-09	-5.750845024118243990e-09	-6.026587058148917548e-09	-2.479692886087371592e-09	-5.481827491992447795e-09	-5.041036211688664475e-09	1.036863959527782788e-09	2.276204032642717423e-02	3.936476693490692648e-09	1.688352580215487024e-08	9.720090728991283291e-02	3.691301536655799977e-10	1.094197894344334498e-08	9.257621992498967509e-04	2.779236464179433638e-02	5.855386277356710598e-10	7.265144618772631374e-09	-3.627378712476920981e-09	6.707101708542011553e-09	2.115107292925231097e-07	8.595290941580472128e-09	2.596697638125779721e-08	1.172396688785151825e-01	2.918496258377990315e-09	1.463417541564296663e-08	3.921254056602636241e-06	2.616417514664714248e-07	2.880583017897057286e-09	1.024126177948897601e-08	-2.832127911432088505e-09	3.989938616639501452e-09	6.516897047917947185e-08	1.722797589481272167e-08	4.594777074895696275e-08	3.638781052472113697e-01	6.477480893126584192e-09	1.977809053379390894e-08	6.171538749655922779e-02	8.075172486699879638e-08	4.978807768838836827e-09	1.140840818691134554e-08	-4.892870740094061880e-09	-4.435125132165217410e-09	4.372971931556179813e-13	-5.233689665891442625e-09	-4.742961091651913622e-09	-3.210349434356502545e-09	-5.334342088528448183e-09	-5.075734013601389377e-09	-3.452217664468448089e-09	-3.992313807780324575e-09	-4.314820205115436962e-09	-3.511617947541817005e-09	-2.327455970004025663e-09	1.102408962513865616e-08	1.213239536577663898e-08	3.541159205047834486e-09	8.282543121457484032e-09	1.533679882375464098e-08	2.644808198814430912e-09	1.283488814218674677e-08	4.132054030089201552e-02	4.888185641800495140e-02	3.474600257837937458e-08	1.284740164600989450e-02	-1.851799334296357148e-09	5.917288059774745470e-09	1.101894274893849696e-09	-1.398708486899041503e-10	2.996128244697560033e-09	1.114453459114508489e-08	-1.659979396811047828e-09	-2.365066567824279454e-10	4.987761612546930141e-09	2.377908832461518763e-10	-1.502372583787823568e-09	-1.094702305660110792e-09
-4.489382649236427279e-10	-3.901329932810856303e-10	-2.451720939766747204e-10	-4.930239844326564510e-10	-4.691616717540424405e-10	-3.514376984245997500e-10	-4.816644151579198327e-10	-5.005407458533056853e-10	-4.853324312694768647e-10	-4.606985089308169480e-10	-4.726266392095815424e-10	-4.649846080799081325e-10	8.990649181239270657e-10	-4.476391705622961230e-10	-4.934225561146788623e-10	-1.716141066487892594e-10	-3.939316873088107192e-10	-4.705387757277229312e-10	-3.346916616292936314e-10	-4.643774312957833728e-10	-4.640121191906034779e-10	-4.723521457895256644e-10	-3.955465497562208576e-10	-3.472005054837315269e-10	-3.854119145517281470e-10	6.329778732855246283e-10	4.275538731089671002e-02	1.548556626097012187e-10	9.938987377162960063e-10	2.457352170662436041e-08	-1.787261297698761450e-10	2.586426252450423897e-10	5.559026668781282682e-02	1.056846328463747070e-01	1.620016934045413618e-10	9.052021329631478076e-10	-3.714322373651541729e-10	-4.270460317423204421e-10	-4.185569417537994156e-10	-4.289072370364397324e-10	-4.500080393215813436e-10	-4.519681371756738735e-10	-2.417607325525700746e-10	-4.800546172019832193e-10	-4.602221524995949013e-10	-4.797017054087485633e-10	-1.628126213655541562e-10	-4.532697381243831677e-10	-3.719509235764922466e-10	-7.507828065054093919e-11	1.791896488788134040e-02	3.342278783584828830e-10	1.429924744222893907e-09	7.801496144461232685e-02	-7.958565583784592951e-11	4.286703738999302234e-10	2.815404750823796660e-08	4.737044348835879604e-02	2.818100654023514673e-11	4.824607958082306614e-10	-2.772403678898430876e-10	1.709852052665129019e-10	8.825284094902182017e-08	7.050396489257395763e-10	2.157124863700170610e-09	1.275245892245893409e-01	1.146004287748411199e-10	7.327519132537400719e-10	1.743187816250166058e-08	7.663614589698385199e-08	2.750603988375724971e-10	9.185506005311730814e-10	-1.959962793327403799e-10	-1.357698412088202645e-10	7.111703428341356808e-09	1.342834608423797278e-09	3.614626296659228040e-09	3.460138506788661972e-01	4.783329864337830734e-10	1.441099472271707244e-09	7.876928258604294630e-02	8.614199590851897932e-09	4.668477131256505577e-10	1.026585395806391422e-09	-3.781976729256880495e-10	-3.605094085273797513e-10	2.084498210200342125e-11	-4.320386137097741982e-10	-3.942048945093342787e-10	-2.768173600183627454e-10	-4.496419676391645942e-10	-4.320390661234560397e-10	-3.290998662820340991e-10	-3.277545947480689892e-10	-3.529979799981672452e-10	-2.782980895264364954e-10	-2.899851045577357977e-10	4.137307203980120828e-11	1.587772601635014494e-09	3.770221365661656825e-10	9.722559744141748393e-10	2.280718975807001999e-09	1.948763722392422460e-10	9.849031280919762565e-10	5.383893305737716406e-02	3.120839997954909933e-02	2.813637062817430880e-09	1.531002746177599627e-02	-2.462837891078750387e-10	3.351197277665408090e-10	-2.648470365093312891e-11	-1.167635151012606451e-10	1.085451233478180851e-10	8.463617808679813274e-10	-2.020397740812077520e-10	-1.256937511560490005e-10	3.451816175628870883e-10	5.345100562951891672e-12	-1.314499054866696834e-10	-1.021400905882753639e-10
