2.687715650163318911e-10	-2.400112902540412880e-11	4.676334221159566497e-10	-4.616690291849371596e-11	2.869882600247245444e-10	3.246675907933104034e-10	2.476161000852824418e-10	2.054908796843655303e-10	1.026782188659754026e-10	2.192904020758352067e-10	2.467265046821975473e-10	-4.770554905796809089e-10	3.132869676589006572e-09	1.446219022219873150e-09	9.192550057981172784e-10	1.918362040776329240e-09	1.614984837743510838e-09	1.485973012671226508e-09	2.132746389960273358e-09	1.540538735660251829e-09	1.239207839098065833e-09	7.994333288722318229e-10	1.959327995924118691e-09	1.420461935481526557e-09	1.568700030746684462e-09	4.846887695475279129e-09	3.072650418651127341e-02	3.700619050371397161e-09	3.049041248661239730e-08	2.267208602822446545e-02	4.793046478400638574e-09	1.054816759218605328e-08	6.831442448391389366e-02	1.709914666764529301e-01	3.083293221395598328e-09	6.298280130333019243e-10	2.092175807664188625e-09	1.538290401504108616e-09	1.549647071935998539e-09	1.932089147798539690e-09	2.339623446416116018e-09	2.304087768614759758e-09	2.171809911710999090e-09	2.111792347305495684e-09	2.084212969901341732e-09	1.487311520483161008e-09	1.957372802269527482e-09	1.565241721869313284e-09	2.111894873111406182e-09	5.788096727263706397e-09	1.744946881415459713e-02	4.018754658936521680e-09	3.019308012566100723e-08	7.093044093468324485e-02	5.920076570155409365e-09	1.248895275548833098e-08	2.823344614683255193e-07	5.671339196020910162e-02	3.614426250587266742e-09	1.536168053787056885e-10	3.524956305504043929e-09	8.808969438390411599e-09	3.265825223482480606e-07	6.855153795559049500e-09	4.351919019898456486e-08	2.580360346608832622e-01	8.976873246128485411e-09	1.835969351076819440e-08	2.578714159088630338e-07	8.444992939795853726e-08	5.065703367521649333e-09	1.698985253020619660e-09	6.118940755009943661e-09	1.257801003198615123e-08	5.704424414066152995e-08	6.126346086165264505e-09	6.125662531906369925e-08	1.157840122507542702e-01	2.060490869501844759e-08	5.354104881927907055e-08	5.586731049520463847e-04	2.217655546981864403e-08	6.651583060053711197e-09	5.091562702607934803e-09	9.363248931247858093e-10	9.922361310680380346e-10	2.089715691413158800e-09	1.135850558073703122e-09	1.853294097845525357e-09	1.978140615975752492e-09	1.255628346848597197e-09	1.433036314748602513e-09	1.707043942870546998e-09	1.461332692573736026e-09	1.259008369142453541e-09	-1.477915916112758309e-10	3.513127939947144163e-09	8.750103511590903577e-09	4.230183108664071014e-08	6.286525776461997996e-09	2.586805868690745568e-08	5.371997465257357723e-08	9.153096536405615331e-09	1.853174719655412332e-08	8.761903740992819933e-02	1.002025889197674380e-01	7.919050488276282346e-09	1.180020282914512083e-07	3.956320424610349928e-09	5.463221878198947992e-09	9.738598711591486914e-09	6.840576429361926097e-09	1.110259975637969915e-08	1.428580297520214738e-08	6.387154816111262412e-09	8.602597796256460312e-09	1.170250042373418102e-08	7.791313034027459794e-09	3.996665820567694886e-09	2.949641985205726242e-09
-4.035449880448196276e-09	-4.365593500581794481e-09	1.363417517691837646e-09	-3.332002753994292347e-09	-4.121954368499230959e-09	-3.836217241941408121e-09	-3.906040297885306125e-09	-3.649886252620430985e-09	-4.213247264707268454e-09	-4.261244675701580580e-09	-4.119029548096363610e-09	-3.894349505199936654e-09	3.614334341544792639e-09	-3.464583966426392136e-09	-3.869669033738121789e-09	-1.741250075136539584e-09	-2.932187672194196814e-09	-2.958523933447949941e-09	-2.007529329067754326e-09	-3.247505012479161200e-09	-3.491931764436557097e-09	-3.733936028994220679e-09	-2.955463094729637962e-09	-2.785663528987156510e-09	-3.187734544688916804e-09	-6.522172737766342099e-10	3.134310220060922830e-02	-1.253661470274649528e-09	1.641595750729455269e-08	1.346275796841726359e-03	-1.269280303359618333e-09	2.517358551889393464e-09	8.663882364646732781e-02	1.696308176707010118e-01	-2.555745806536756631e-09	-4.630833212123274873e-09	-3.282457271231049782e-09	-2.627802139417428258e-09	-3.358145741910764546e-09	-2.903259468013490271e-09	-3.150681050081678342e-09	-3.197316440189042761e-09	-2.258815899731219445e-09	-2.894125071849648614e-09	-3.151804772323059992e-09	-3.616697361428469322e-09	-2.935112598311235725e-09	-3.086256404128905674e-09	-2.954420832817544251e-09	-2.673582030093755991e-10	1.410616444074770832e-02	-1.455575581622953394e-09	1.235825675185419036e-08	1.123660941148486164e-01	-1.477711085754465370e-10	5.244488336848211083e-09	9.386127366862229745e-06	2.741806506129735449e-02	-2.384924137979566177e-09	-3.557101553018402040e-09	-1.593315474095670154e-09	7.145377619853101343e-10	3.274755699888904107e-08	2.270039965209086133e-10	2.159096450592875567e-08	2.620642647559230376e-01	1.682749473186798635e-09	8.310398363225886826e-09	5.820543831157203889e-07	1.773220267047789051e-08	-1.740409278794839298e-09	-2.588667805947386457e-09	3.654748456654393550e-10	7.593613110918260850e-10	1.384377298939293746e-08	-1.491104699524725027e-12	3.166688339311078407e-08	8.128521047827132195e-02	5.158688819227897017e-09	1.365822900104529737e-08	4.199675429665594012e-02	5.327792658654304243e-09	-9.973427572898300753e-10	-1.520118489797164368e-09	-3.358344403977686947e-09	-2.291154888459146939e-09	-1.644534739045424813e-09	-2.806924394825653381e-09	-2.773044920047367844e-09	-1.961681511352317567e-09	-3.281455217130635116e-09	-3.058453111997256043e-09	-2.206968558074225178e-09	-1.799052195559100747e-09	-3.265075147179621165e-09	-3.377505180945794473e-09	-5.839464108865799022e-10	2.838002050678173283e-09	1.508653638057389078e-08	-4.941245743812486940e-10	1.319880622932460393e-08	4.090044413558353639e-08	2.232196283162002714e-09	1.029063720539810404e-08	1.032000484171297951e-02	1.614743292039894917e-01	2.114907611305690610e-08	3.369124761631566766e-09	-1.709181584584812216e-09	-1.654698488901064891e-09	-2.776280912687771584e-09	2.435476146391566815e-09	-2.660938804904876366e-09	1.133570855899816861e-08	-7.974148149441314814e-10	-1.204955447421153124e-09	4.847118291005179272e-09	-2.223072489388943881e-09	-2.185118082940376159e-09	-3.414744303111470338e-09
-5.051706190731693475e-10	-5.516088754720994524e-10	2.449624692923661250e-11	-4.404250981596336561e-10	-5.068706559755812090e-10	-4.791596168348133320e-10	-4.712401275620621387e-10	-4.576261917945456804e-10	-5.495896189014950727e-10	-3.835105182373143994e-10	-5.307956045107645771e-10	-4.522350281165305482e-10	-1.355403303545677395e-10	-2.639275597553381989e-10	-3.377392708772741731e-10	-7.380593482962568757e-11	-2.701643153987668844e-10	-2.708329820151077940e-10	-1.876756319568237865e-10	-3.153888494064946836e-10	-3.555560235301883892e-10	-3.940457763208862526e-10	-2.728036098405778754e-10	-2.382399143631387366e-10	-3.621935163698875683e-10	-3.278191066879999777e-11	3.101407100270725178e-02	5.579281110362078226e-10	2.423623651960265723e-09	3.055518126006790541e-02	-7.369368374929078473e-11	5.354398934105073243e-10	7.577999571297559800e-02	1.612367733508535961e-01	-3.891320900112489157e-10	-1.979442628411956194e-10	-3.534685132655791922e-10	-2.383046362050493961e-10	-3.787192242849913571e-10	-2.896941810861583700e-10	-3.167573880656041254e-10	-3.153454275342103312e-10	-1.797901288484981716e-10	-2.764515851282127265e-10	-3.100450799426622519e-10	-4.126218454722892312e-10	-3.454450197820373667e-10	-3.678997067804247606e-10	-3.069732152955084923e-10	7.874719818172860546e-11	1.871948361308299960e-02	6.529534653656234804e-10	2.246191405732155374e-09	8.371618276292640271e-02	4.376796102996155474e-11	7.248262762801002755e-10	4.160824190192132923e-08	3.843332784607348535e-02	-2.935857102664409074e-10	-9.027494863255608000e-11	-4.454001778111737889e-11	2.696915847187575629e-10	1.271823879813848312e-08	1.324613321514281438e-09	3.764288402239574905e-09	2.643142742296077929e-01	3.498651554134817686e-10	1.307956766150544604e-09	3.560302546535230698e-08	5.085268324226249094e-09	-1.756263011479870277e-10	3.648181952743944193e-11	1.982974238908977874e-10	3.266157167634436460e-10	3.251300615177298390e-09	1.315620330205810264e-09	5.438453430698881332e-09	7.730257450744110193e-02	1.008786463220560854e-09	2.521474500295344183e-09	3.815922208006375382e-02	1.305664120722543886e-09	-2.727523002864472611e-11	1.198271874423969223e-10	-4.270792790855474753e-10	-3.621745404161482187e-10	2.212393254522526712e-10	-4.143920330770164933e-10	-3.356624398353944384e-10	-3.806890494982918106e-10	-3.988221316973760136e-10	-3.674968708510492583e-10	-3.763824717062512353e-10	-3.173559442778726001e-11	-4.231849355772025391e-10	-3.836584705829774621e-10	1.344776421954161008e-10	3.283417570291409268e-10	2.966776734593386134e-09	8.839676191893970640e-10	2.129912017571938741e-09	5.956617505278315260e-09	3.734694262495277903e-10	1.393497154810749181e-09	5.819493339908500540e-02	1.225738505278142765e-01	4.015314192188223711e-09	7.315141884097183287e-10	4.210975148927456602e-10	-2.398092221726961836e-12	5.534717756422776213e-10	6.318736852429038479e-10	3.539563261692501460e-10	1.835069070684565313e-09	6.530276577964314696e-11	1.970623736740331198e-10	1.268365592824125497e-10	6.289288307958823500e-11	-2.445010397266462387e-10	-1.463826713429379280e-10
-2.841310697801619249e-09	-3.041712692909891139e-09	1.045764939587132441e-09	-2.398624688998549122e-09	-2.806162728560730671e-09	-2.669933740715876652e-09	-2.394681902586315462e-09	-2.773551963219200256e-09	-3.050634768056365227e-09	-2.969424679321094027e-09	-2.713020044177041626e-09	-2.558904812470977549e-09	3.493116988050995037e-09	-2.580274209558267522e-09	-2.705434495692640202e-09	-1.307834029456498687e-09	-1.977078393087324690e-09	-2.007809660812939512e-09	-1.560030924063598794e-09	-2.172398708070111434e-09	-2.386629240210787524e-09	-2.471238461762203661e-09	-1.825499500087660464e-09	-1.744341911794859946e-09	-2.095835103618225892e-09	-2.736322103448876691e-10	4.095936040283569557e-02	-1.268481885913491914e-09	1.188061662002944815e-08	7.645383967485805399e-03	-7.501786873585632656e-10	2.033615575561918359e-09	7.473597395893950834e-02	1.636017081939159235e-01	-1.342362948834006223e-09	-1.906911756199148065e-09	-1.896925949101290945e-09	-1.842841955106767242e-09	-1.942507534949192112e-09	-1.883621885913100872e-09	-1.988856853215963993e-09	-2.015736569613001206e-09	-1.565042135390858249e-09	-1.627047145347722618e-09	-2.009677408807972222e-09	-2.368788550772325715e-09	-1.953217820276305839e-09	-2.324818889970656656e-09	-1.947826649400777596e-09	1.082953805370522591e-10	7.449067103902280197e-03	-1.134778128007508669e-09	9.550283744554732670e-09	8.821618701683689445e-02	-4.741884148107452786e-10	1.927446028836557951e-09	2.878244682529263813e-08	5.245691661934729494e-02	-1.361339248394111708e-09	-1.889391094385926181e-09	-1.091640727466165987e-09	1.230390821003078565e-09	1.348015614485759043e-07	2.869699953394782022e-10	1.670341840872846784e-08	2.758376242321008420e-01	8.978846031951168688e-10	4.302790724545993246e-09	3.539273085248024721e-08	2.037811986572631303e-08	-7.655113191740448176e-10	-1.510529910372702320e-09	3.340657475296184367e-10	1.272611367195179141e-09	1.595150357899558146e-08	-1.597418476007052051e-09	2.057364579098195691e-08	8.083812317379666934e-02	4.136180502101201126e-09	1.030502063805229200e-08	2.755946305639589422e-02	4.595792929146679582e-09	-3.516646030446241758e-10	-1.189039848879848366e-09	-2.265279129627910493e-09	-1.947512252970607745e-09	7.011241518846591994e-10	-2.191659613678939932e-09	-2.042965831419345422e-09	-1.621660903016633643e-09	-2.347720767785195116e-09	-2.273335726564194621e-09	-1.986985320651746170e-09	-1.100795614694521550e-09	-2.194587533352748235e-09	-2.270923156398021618e-09	-6.161158858619022525e-10	1.695554290084739158e-09	1.418796381488455539e-08	-3.289184805652690078e-10	9.922860442022577463e-09	3.059426751571416857e-08	1.283192473806466217e-09	5.757796715894186851e-09	7.034943104179182394e-02	1.103504698419021934e-01	7.671810424561617780e-09	3.750680154924996727e-09	-5.898097788902588384e-10	-5.112659021972984560e-10	1.292939183028523446e-09	-6.798802420021875628e-11	1.404502918648129874e-09	6.544981184888294305e-09	-1.711110173235648313e-10	2.912122249916378310e-10	8.835617338224024900e-10	-6.205007017649800558e-11	-1.068739224120733617e-09	-1.590200825896620361e-09
-1.022829746787407472e-08	-1.225235220148455517e-08	-2.649149525080534667e-09	-9.834320202988974206e-09	-1.138074106300651563e-08	-1.090313049238668126e-08	-1.055361770208259293e-08	-1.052925907349128606e-08	-1.244478706552514187e-08	-6.455316847181252842e-09	-1.206896847644378076e-08	-1.150843926440681922e-08	-2.018735652033503035e-09	-4.744469379165364406e-09	-8.609527731734351416e-09	8.600856687758143829e-10	-7.049589977644677411e-09	-6.420083029820950218e-09	-3.895606919658496709e-09	-7.531970979230452595e-09	-8.576798545454721063e-09	-9.400299972191495884e-09	-6.055868602103081958e-09	-4.991070626232809724e-09	-7.561843277249134926e-09	2.157207605427461112e-09	3.558210432726845174e-02	-5.379050635746198375e-09	6.858950675422452870e-08	1.163489748923146432e-02	9.856155138091535738e-11	1.558923391456673490e-08	7.272423251774566555e-02	1.713229409803039005e-01	-4.829846704742137951e-09	-1.554822601772408889e-08	-4.610372613435679700e-09	-6.761580085529431159e-09	-6.727102289003847201e-09	-6.862450437461474839e-09	-6.526121637183627099e-09	-6.529545455930208622e-09	-3.822880310477293421e-09	-7.694679150355535342e-09	-7.202254818598241936e-09	-8.573886966067731018e-09	-5.584647923217183317e-09	-9.027117889950751380e-09	-6.399013156929490497e-09	4.497034920648213187e-09	1.164708227650391482e-02	-5.271691077997334809e-09	6.016515487952224512e-08	8.999601014617392147e-02	2.652526816075206706e-09	1.820021639660476473e-08	4.004290041630159176e-07	5.546074033455732077e-02	-3.887645545647652039e-09	-1.319618283042694701e-08	-2.095033967994707872e-09	1.176386094957854304e-08	1.067989975646379245e-06	2.457990907465462177e-10	9.552747332334614644e-08	2.561041923212815652e-01	1.079068608548618277e-08	3.396865775265312612e-08	6.064430113817975463e-07	1.480805910085198408e-07	-7.874975665057452302e-10	-9.567577719671538922e-09	7.241331223984036332e-09	1.705885723432226627e-08	1.298943458034313629e-07	-8.362174709808079183e-09	1.263320576550086103e-07	1.147271314352278360e-01	3.623122755588359430e-08	1.025293802887868504e-07	4.485659121404775469e-03	3.884800869960093430e-08	3.107847372805820052e-09	-3.138069805496549036e-09	-9.427408294087604246e-09	-9.954130506384856176e-09	1.201140047088514936e-08	-8.727219974980052924e-09	-6.817748257790459197e-09	-7.513430173851306102e-09	-8.813018656654645918e-09	-7.988329364513074160e-09	-7.620250788400502799e-09	-7.364680031450359644e-09	-8.917493538645183246e-09	-9.965511051882368778e-09	1.260040830248069914e-09	2.044016766005421927e-08	1.405964577020981593e-07	-2.034513693751060939e-09	5.167622257312728463e-08	1.304851422924189401e-07	1.135058046368354227e-08	3.560839362067073068e-08	7.748064062397062857e-02	9.883117765355477202e-02	4.272436692333166028e-08	7.250481902967774975e-08	-4.096521950706731572e-09	2.767767692886055589e-09	1.765336565965377768e-08	7.279758856952112809e-09	1.809545073972965751e-08	3.743160933185950001e-08	3.721348844247880548e-09	8.121123013903779372e-09	2.476516781262984122e-08	7.198152179212762489e-09	-2.774621367467302606e-09	-6.146432830533327423e-09
-4.943136114062907676e-10	-4.158095062985292721e-10	-9.334914761294569178e-11	-4.669588817847524794e-10	-4.723564921600463966e-10	-4.119157969964030904e-10	-3.368922006288520047e-10	-5.366902941679344781e-10	-5.244665363862781109e-10	-4.778456940447033917e-10	-5.038293492512230876e-10	-5.114675335728808741e-10	2.914706331082970575e-11	-1.097112869729990038e-10	-3.131526769291108412e-10	-1.474862859644736922e-10	-1.253820032835170439e-10	-1.407117235883178035e-10	-9.240409574988225561e-12	-2.242946749036698279e-10	-2.816513953886453974e-10	-3.674296211582176265e-10	-1.727565243357382284e-10	-2.339991910862060990e-10	-2.619423248876233716e-10	3.739428965336651571e-10	2.239268705004327301e-02	-1.003502486424237567e-10	5.298876324416067433e-09	3.215344278210499965e-03	2.156917304041908307e-10	1.157935403195207231e-09	7.575946879483803909e-02	1.947341382388584619e-01	-6.745697104462437301e-11	-1.242088689410530576e-10	-7.446291297089678947e-11	-2.233962301012806214e-10	-3.168263433453076793e-10	-2.569405772086109281e-10	-1.998208571296437701e-10	-2.078277086635696023e-10	5.860580667311577179e-12	-2.319507701993287394e-10	-2.478672773551718560e-10	-3.464743389143870626e-10	-2.541750678761210867e-10	-3.873261222700393333e-10	-1.878029050445883731e-10	4.460181041920129371e-10	2.431789757787102338e-02	5.140277486954014739e-11	4.016181194592961098e-09	9.529262004883919113e-02	3.884867529510587222e-10	1.411934881520617213e-09	4.053660595024230791e-08	2.587163131704255450e-02	-9.417894902706612080e-12	-7.694661200421392842e-11	6.327098039927311715e-11	8.521292557671335281e-10	2.104080750534495603e-08	3.799040410094534347e-10	6.315999603023384826e-09	2.631275601426989463e-01	8.689884073601592277e-10	2.258885876801812136e-09	3.473088226590613869e-08	7.690211010495662144e-09	1.761193945125437071e-10	5.296551186582084826e-11	5.425556255602326652e-10	1.257663371681543721e-09	6.940045504244816331e-09	2.376492826606931103e-09	9.212735032216617975e-09	8.671288393468472300e-02	1.957121064430442771e-09	4.443267460609379365e-09	2.920013057875461490e-02	2.479810238642537239e-09	4.187775798073691767e-10	1.132832156347469142e-10	-3.411730762166456478e-10	-2.009831760820649876e-10	-6.107451238410056375e-11	-3.508738792708092867e-10	-1.612454814348448230e-10	-1.687441272636122197e-11	-3.167396153709387289e-10	-2.648935032354428107e-10	-1.267168413269676505e-10	-5.696536638110012539e-12	-3.355484158210040711e-10	-4.268547318564594996e-10	9.379312315976200583e-11	9.534848080690498673e-10	4.849082326104431170e-09	3.786382389500426549e-10	3.868831603966965341e-09	1.045387861852378488e-08	9.076576588144977382e-10	2.412617037570693725e-09	4.889423164974437963e-02	1.304812277501506135e-01	2.348381564302777685e-09	3.068699436872732385e-09	1.577941201976756991e-10	1.337048930882866297e-10	8.248768070469066960e-10	-3.783245285008198835e-10	4.862104484809006493e-10	2.060432423478943517e-09	2.658563270276687838e-10	2.721533237085693984e-10	1.068226717298484999e-09	2.626165911072593436e-11	1.273541130333276410e-11	-1.751482457145941181e-10
-8.017543441798958834e-10	-1.675831400334880994e-09	-3.134487660299428129e-10	-1.225124478268205059e-09	-1.217281397396227327e-09	-1.070824479550435951e-09	-1.169557431784457886e-09	-1.145932726087974563e-09	-1.530985306884470026e-09	-5.854697740853764460e-10	-1.298952957535854907e-09	-1.781368427480278460e-09	2.806814374536193521e-09	5.635124724788066538e-10	-4.185518047957959835e-10	9.043925677371403030e-10	5.212280376722193791e-10	4.314909822511486155e-10	1.420472619699806689e-09	2.374062981278437940e-10	-1.402701300183150274e-10	-5.788845690841941809e-10	7.935974008417541163e-10	2.814662746465618156e-10	5.502528682761573634e-10	4.789994272860966809e-09	3.565780230616603930e-02	2.648477405203742297e-09	4.142624031011220227e-08	5.315180084251953582e-03	4.096484338373380552e-09	1.095033926695849319e-08	8.973870279974600905e-02	1.646386243492807822e-01	2.481553549828272623e-09	-1.991072540564980048e-09	1.399013952896326105e-09	5.901184244368935302e-10	5.015357909722974249e-10	8.580739496789892296e-10	1.293935584463186520e-09	1.282624176882112326e-09	1.185881724769379124e-09	1.132748246115280983e-09	1.087075213609482526e-09	2.212856170068518624e-10	8.475896196889477563e-10	-3.068625947100966078e-11	1.275503812774048417e-09	6.381470043941880055e-09	9.546568267687812956e-03	3.178812283498367595e-09	3.345499867763495733e-08	9.072341233848396636e-02	5.126135260871521444e-09	1.217200274768021974e-08	1.718679503848483523e-07	4.743091419026695260e-02	2.863121214336429993e-09	-1.639040799690892122e-09	3.019765587311827831e-09	9.398608992328324747e-09	2.076864031631598311e-07	6.612641254573266553e-09	5.070526192485082719e-08	2.572545407002276852e-01	8.762443301765410227e-09	1.891977869569700044e-08	1.990720328343949057e-07	7.904839667793858342e-08	4.676506653422527801e-09	2.048284163613572323e-10	6.173972178327975288e-09	1.328921629266651468e-08	5.460036244568054865e-08	5.183388064617986682e-09	7.129588266445077428e-08	1.093545895970815945e-01	2.132169284073980517e-08	5.477252494630039512e-08	3.352441598463337755e-03	2.219461257393888416e-08	6.751658387450208620e-09	3.923973126107151688e-09	-2.069401612052371011e-10	-1.269503295486542318e-10	1.769964408406571128e-09	-9.157161292162678966e-11	8.524648686812594010e-10	1.413581447834707136e-09	-5.185378529923172191e-11	2.031103186098152282e-10	8.610960437619904322e-10	1.225716639594203086e-09	-2.367404624261210294e-11	-1.073832443580251016e-09	2.963567667819738119e-09	9.017613274190677034e-09	4.513257176193540182e-08	5.652073844328477790e-09	3.130197933739694104e-08	7.635359318582731835e-08	9.120563677094076088e-09	2.016156014213011769e-08	6.885781802327141377e-02	1.181278423762820301e-01	8.803468262953887303e-09	8.918346741069178458e-08	3.479084358600957510e-09	5.545971201657884600e-09	1.257193952312402320e-08	8.733220500988661481e-09	1.479466562457429564e-08	1.628732638871800456e-08	6.165121068132349753e-09	9.148959240656608669e-09	1.948560479576566873e-08	8.711911623948310222e-09	3.502040905334624579e-09	1.878862377378004256e-09
-2.426772636110405743e-09	-3.882836895629541653e-09	-7.389956940108357976e-10	-2.837976154895133858e-09	-3.156128013267750504e-09	-2.789778205784968369e-09	-2.663683836299958866e-09	-3.138201494267237836e-09	-3.723777155534168404e-09	-2.714568553564978887e-09	-3.395611814965993304e-09	-3.977823887797833017e-09	4.620748479305580267e-09	-2.564795608141275285e-10	-1.989069104972009534e-09	8.361238008976766409e-10	-6.144083214239789269e-10	-7.780008741881686247e-10	4.328079566521141549e-10	-1.054397114807301524e-09	-1.633266544087935665e-09	-2.299557806136407104e-09	-1.305553162597000451e-10	-8.146811467562835831e-10	-5.683957954082377294e-10	5.551038057233167637e-09	2.798278815644953538e-02	8.635979765872010575e-10	5.632806029867314695e-08	5.289285333822330362e-03	4.577241633489807824e-09	1.456167518206020183e-08	7.465292993151304013e-02	1.801163751799301216e-01	1.899534287738670844e-09	-2.534150574019197223e-09	5.487737698348677635e-10	-3.890193414398067283e-10	-1.118484330209500968e-09	-1.502481598200006348e-10	1.355211935081063910e-10	6.830024391947371985e-11	1.017615794630962914e-09	-1.575215076639062361e-10	-3.597269562164695816e-10	-1.323750215792009234e-09	-3.325112150111623961e-10	-1.819637544941121758e-09	1.739611368233036390e-10	6.820465016916292045e-09	1.427559878567496478e-02	8.382369682169348879e-10	4.578510746054328184e-08	7.825549816012142279e-02	6.020074399729493775e-09	1.585816053454506945e-08	1.618548265130836630e-07	4.931176274563982970e-02	2.214225716759577103e-09	-2.881428600383570696e-09	2.776009430383213294e-09	1.156043971540704474e-08	4.744211618488783263e-07	4.681523868611394797e-09	7.140638147932578375e-08	2.695201613341952629e-01	1.092935044977374774e-08	2.434712837112024372e-08	1.795055529825197671e-07	1.267803240321197657e-07	4.648976301335084260e-09	-9.674050811482808304e-10	6.959949836257240012e-09	1.589655422885871709e-08	7.583001708060685168e-08	-1.098650474593735073e-09	9.606006922254138981e-08	9.410608269752616939e-02	2.399437682564699363e-08	5.209188350422064783e-08	2.058352038972473610e-02	3.066530521035064499e-08	7.154729639876971166e-09	1.871683497593649472e-09	-1.909448840813815091e-09	-1.989500444898958257e-09	3.688996657829965685e-09	-1.586458031676962935e-09	-5.386353803888277331e-10	-3.737156501874350031e-11	-1.629436269695971048e-09	-1.304164190707868933e-09	-5.291616520695818728e-10	-7.134318709803634427e-10	-1.592435464160373727e-09	-3.197433723785673775e-09	2.803189056867349628e-09	1.067613218444630612e-08	5.566159284524741640e-08	4.445773257669179660e-09	4.720961849657169672e-08	1.304494097659433667e-07	1.195131409815498670e-08	2.792697570518696480e-08	7.485571694258602582e-02	1.110483300978812038e-01	1.077249722472510526e-08	7.385571561618688406e-08	3.329190997348019320e-09	5.035050758186221605e-09	9.581816868025272778e-09	4.308781404826658137e-09	1.343343912900157391e-08	1.598529884986242730e-08	6.178760082871039906e-09	8.684447526263496225e-09	1.247551456395584416e-08	8.375786755285026383e-09	2.967725858444321640e-09	1.605371253152442798e-09
-3.943839323266952487e-09	-5.165800282640942120e-09	1.176079516062635037e-09	-4.397154937290183137e-09	-4.944530328116814258e-09	-4.731981670236538319e-09	-4.277283313689663110e-09	-4.975692315362756214e-09	-5.216501764636661983e-09	-5.217618212863191090e-09	-4.916614964640808951e-09	-4.838664994321835497e-09	2.670379831762822288e-09	-4.611793836243171477e-09	-4.458024605382916399e-09	-1.869335737293178547e-09	-3.228855912227369226e-09	-3.305700105532257039e-09	-1.872035356038039878e-09	-3.455598183201649812e-09	-3.827207972863791837e-09	-4.124855408909761670e-09	-2.925994982064995602e-09	-2.769017044257640956e-09	-3.574053263748444347e-09	-1.649587123107598633e-10	3.658247736168061121e-02	-7.366577538224446489e-11	2.220129097725036746e-08	5.971402812259248228e-05	-9.817264618380414663e-10	4.379242193985786637e-09	7.189745429887446637e-02	1.786550860027388277e-01	-2.965444297426839404e-09	-3.675933992599972938e-09	-3.106008552737273061e-09	-2.031927978303692581e-09	-3.941564837137546698e-09	-3.506762569316851455e-09	-3.361124718315103409e-09	-3.419065104712588107e-09	-1.963804935466432613e-09	-3.451380728868805565e-09	-3.513508961071768943e-09	-4.163364423078299530e-09	-3.472707085681307556e-09	-4.376681042516478956e-09	-2.979703710144509014e-09	1.524728802735667849e-09	3.770278685080843788e-03	-6.098007968270692253e-10	1.899313693037201311e-08	1.022210344099429014e-01	-2.061797039274105419e-11	5.665640160465304997e-09	1.777979948170531621e-07	4.283049328217043011e-02	-2.566023793531015995e-09	-3.627980818136114805e-09	-1.466587979484480049e-09	3.249600163202655062e-09	2.081015996315411687e-07	3.398053488787000328e-09	3.216869568773072678e-08	2.618754022001366644e-01	2.686194040947170203e-09	1.057668679904645309e-08	1.873309474713448686e-07	4.319380587097082319e-08	-1.494707321804291387e-09	-2.756160216854174508e-09	8.562957971058349701e-10	3.515299946243430421e-09	2.667391681292836093e-08	1.614803803282752100e-09	4.304379103929067648e-08	9.759336013509099794e-02	9.224249013470357060e-09	2.459644069706086570e-08	1.850618393875825413e-02	9.922919622340612863e-09	-4.016157680597063536e-10	-1.676286440489980096e-09	-3.919862588587519523e-09	-3.369747724561025971e-09	1.501064864201142925e-09	-3.917052824580254130e-09	-3.308217432234093968e-09	-2.791566695114207968e-09	-3.846657096967643077e-09	-3.627401362223548304e-09	-3.154440877792026962e-09	-2.059830153978825968e-09	-3.909368329494263345e-09	-4.242796379633455047e-09	3.067318526079492058e-10	7.427815370494975729e-09	3.365350595551203577e-08	1.066323858925443710e-09	1.729420399007631888e-08	4.696601449345712524e-08	2.876945835653089526e-09	1.143947250701885328e-08	6.247302082852724397e-02	1.235346762359161438e-01	2.339717056587914297e-08	9.297706819420174970e-09	-1.374735347421358653e-09	-5.409698782161132793e-10	2.427481989884470528e-09	1.486519447621874383e-10	3.014288520455629242e-09	9.921808798279197681e-09	-1.742918431533998602e-11	6.880679157908846513e-10	6.668094356842011221e-09	-3.069083675361998997e-10	-2.182225844875096782e-09	-3.077703593016607647e-09
-4.618126588095503870e-09	-4.045315998563311159e-09	-1.797661041393927395e-09	-4.234110219029841343e-09	-4.940844215024233011e-09	-4.123987630860832732e-09	-3.840594647860138457e-09	-5.258581558378619885e-09	-5.531090399480010173e-09	-4.931556305124060402e-09	-5.101209310931373144e-09	-5.229459885648764018e-09	6.735203319648358046e-10	-1.060938613173400531e-09	-3.668792780780048359e-09	-1.940306112477472661e-09	-1.937580154931875277e-09	-2.026454975997148962e-09	-6.944833924922551395e-10	-3.105187026298808795e-09	-3.452703809580363100e-09	-3.988203298166162252e-09	-2.079393123519623350e-09	-2.561206948780322961e-09	-2.662747642972077689e-09	2.892805272385882829e-09	4.101916429324663216e-02	-1.389561253073160739e-09	4.029339071936043291e-08	1.452127694950467590e-02	1.531728689116485492e-09	1.005773368418977529e-08	6.680254709396202251e-02	1.658821122990730423e-01	-4.899710577122014202e-10	-5.938806811911091354e-09	-7.031153625416510440e-10	-2.157722118449159398e-09	-3.216667947304478931e-09	-2.234722047479898047e-09	-2.302567729873110350e-09	-2.397569990082215322e-09	-8.482959363884774006e-10	-2.431760577950231951e-09	-2.548497429816056504e-09	-3.646282937555538821e-09	-2.795420541808295584e-09	-3.835872972951110874e-09	-1.807620772042950748e-09	5.425625406104666323e-09	3.424416496156421075e-03	-1.304907702914862145e-09	3.585742326570573271e-08	7.253146581934982740e-02	2.646943950009886028e-09	1.105314701544195854e-08	1.530613333141464812e-07	6.592909581010983344e-02	-4.069548262530507908e-10	-5.408183802275557532e-09	5.174602647121447983e-10	8.970904836530655785e-09	6.024848411623982557e-07	2.205105741756557834e-09	5.715209872406098122e-08	2.718747663853172680e-01	7.018044655928870525e-09	1.870064937762103938e-08	1.679422977691678832e-07	1.014579956006871683e-07	1.687951008101331083e-09	-3.805316212375731912e-09	3.981256267068265622e-09	1.176650771371147056e-08	7.286137051026098399e-08	-4.532894776526215149e-09	8.030231287205371177e-08	8.044353245242324979e-02	1.718255489034115208e-08	3.814422205853250312e-08	3.426187207539507090e-02	2.368645422420218009e-08	3.660942387014750325e-09	-4.795695573740905717e-10	-3.675882387779238456e-09	-3.777431946975033643e-09	3.570931593306257083e-09	-3.366821929949562121e-09	-2.618380353692545336e-09	-1.980079254953344678e-09	-3.660600228857466235e-09	-3.312614683314548658e-09	-2.529328735922358332e-09	-2.506351561399099549e-09	-3.444945229001430283e-09	-4.643067200776522946e-09	7.549178132757644516e-10	9.073181206567571970e-09	6.222107089295973631e-08	1.005733498901042662e-09	3.382021355088082047e-08	8.561283213712935321e-08	8.062487553095123307e-09	2.223488564302111790e-08	7.697055226601179356e-02	1.063375167385591097e-01	1.446523221914112851e-08	5.097425671197621652e-08	1.643636377397044309e-09	2.910497798657842330e-09	1.082574477483837362e-08	4.301689845585388164e-09	1.195753922581618181e-08	1.832754420890610545e-08	3.372610367586605637e-09	5.813498737485787016e-09	1.597699317024175317e-08	5.722142262680158230e-09	3.400623848027205647e-10	-1.855110869764450152e-09
