9.673656435657118287e-09	4.788482826957766175e-09	4.045929791083000695e-09	9.780470412870281780e-09	9.554347444393035430e-09	9.023317172356690327e-09	7.868253926673477376e-09	7.494242534526105523e-09	8.177075255787972367e-09	5.868571825343711633e-09	8.808993977737286874e-09	3.816834789671133646e-09	3.813355862379759989e-08	2.158322361431913887e-08	1.873898164665302361e-08	2.791693654565148495e-08	2.684221431589968877e-08	2.530774118767320323e-08	2.961435636964620125e-08	2.616211670407812822e-08	2.330692274664610940e-08	1.760111382791150557e-08	2.881633319750691246e-08	2.239656869721624124e-08	2.255446360283033433e-08	5.539945987978017011e-08	3.094539321454682287e-02	1.771685879138864525e-07	3.116197558766134472e-07	2.443188023987980309e-02	5.356349819888080933e-08	1.108534835331958701e-07	6.996587562892525591e-02	1.714000267009115619e-01	3.766024314952406839e-08	8.334352623503059558e-08	2.543246028738424018e-08	1.426132170969269175e-08	2.162534086109523863e-08	3.374989709418539650e-08	3.206879207143880579e-08	3.128231849898040965e-08	2.339727691976648817e-08	2.682858873726469287e-08	2.761341662250679463e-08	2.171839085477506817e-08	2.144105680127843556e-08	1.989998289239367295e-08	2.796169683315727195e-08	6.489990692557509169e-08	1.747781526930866636e-02	1.912164217281362840e-07	2.919690094741161489e-07	6.818946688727027527e-02	6.257290024175104657e-08	1.220736364530557036e-07	2.234563991108132747e-06	5.721924017737037987e-02	4.202465629876475670e-08	9.365330200439763151e-08	4.224322175757246150e-08	9.224626520174544651e-08	2.811923305374404094e-06	2.790919482737126803e-07	4.323706570839341896e-07	2.615545370896685262e-01	9.121320088172480467e-08	1.752536744630945885e-07	1.753696210886123574e-06	7.368481119932057544e-07	5.610396117052122008e-08	1.126434347705151913e-07	7.054499970623388684e-08	1.299134318215834801e-07	6.610888865791759645e-07	4.137276378468253091e-07	5.434969078594543344e-07	1.149136971234468313e-01	1.629992739325080481e-07	3.211402968070282602e-07	1.535976463328516192e-05	2.781971858931365757e-07	7.960944142341019083e-08	1.316013550513467988e-07	1.497240531250134784e-08	1.598675859803128562e-08	2.063639322632788494e-08	2.742612019706993980e-08	2.659527794522826902e-08	2.810422777690479425e-08	1.953047146768290705e-08	2.173049038620483184e-08	2.479545281461314815e-08	2.315595779088887237e-08	1.895474695623751876e-08	1.789375662231374937e-08	4.143273673840914404e-08	9.386332440479856307e-08	4.081772198796124977e-07	2.064327207489524841e-07	2.795335967567950173e-07	6.845183831568027939e-07	9.542591749207771621e-08	1.873918482044052688e-07	8.470872824453364036e-02	9.915783599849499474e-02	4.610738871156937192e-08	3.130814897751723361e-08	4.018196020511533054e-08	1.172083078916383789e-07	4.935376106634397968e-07	4.011026423884493759e-07	5.237985240844714306e-07	7.777420386059535094e-07	9.049052830339889802e-08	2.064662154543685136e-07	6.296447698147811688e-07	3.017411988464601466e-07	5.447823346802735158e-08	1.196046005960114738e-07
-1.070978848871615219e-09	-1.327527198972118076e-09	-3.027311912550644704e-11	-1.108933383528098790e-09	-1.270528134734810053e-09	-1.151127825410938638e-09	-1.245748567824707519e-09	-1.184058939043586248e-09	-1.305839637393326787e-09	-1.389493914056901081e-09	-1.316581780079112056e-09	-1.232840110948036796e-09	4.460329492732521614e-10	-2.092065197784626804e-10	-8.502431857284477911e-10	1.161596211886641267e-09	-3.805703083386383408e-10	-3.823217118112972358e-10	1.250588609923770531e-10	-4.912230747818994938e-10	-6.945450763309222598e-10	-7.540735872220775181e-10	-1.506883880387740641e-10	1.354491988168047923e-10	-4.547322332937349692e-10	1.388498553865567892e-09	3.101992457048627014e-02	6.275917544296717497e-09	1.284504251425802837e-08	1.427483190092297643e-05	1.010991468965300217e-09	3.989018866023921544e-09	9.442857795968626067e-02	1.703869190585983184e-01	1.617286063767247824e-10	7.775926355120367441e-10	-1.950110872477251819e-10	-6.121390759742258552e-10	-8.217354692377958525e-10	-2.862243021096408612e-10	-4.300530262963358576e-10	-4.507178461075266871e-10	-2.633136770878977786e-10	-4.470984360666946821e-10	-4.930895633178971287e-10	-8.587990506820133918e-10	-4.449531728674881362e-10	-7.090103364812355886e-10	-2.085467497627675642e-10	1.731609629648970796e-09	1.502523841163504875e-02	6.893562271815171242e-09	1.207760502892402002e-08	1.015242151858300190e-01	2.003118323523448165e-09	6.566365069683591940e-09	4.362582638840452158e-03	2.938395690343047206e-02	3.097047784069194366e-10	1.220742477994417835e-09	5.275323151538298592e-10	2.711405921632863493e-09	4.045115045488497320e-08	1.111443559753625348e-08	1.950460640376831580e-08	2.717276084904552969e-01	3.700921233889735741e-09	1.001338820534721285e-08	3.271368711395071658e-06	2.046181531080521934e-08	8.446759933086279931e-10	1.771129011614189404e-09	1.794965775954912347e-09	3.834462032511213796e-09	2.010437158883500914e-08	1.488637186976056597e-08	2.350927650044275610e-08	9.920667992162834903e-02	7.228378516917895917e-09	1.755981920353849835e-08	9.523005477549856615e-03	9.010469705452660567e-09	1.821081328775457757e-09	2.532430793968078575e-09	-8.467992203197453748e-10	-6.825487511910252074e-10	1.565161666331879356e-09	-3.629410759556117984e-10	-3.415369631192631872e-10	-4.149575360455043496e-10	-6.254678737256725939e-10	-4.734012091990473739e-10	-4.231295244387061723e-10	-5.358156219641258332e-10	-7.166154576130911327e-10	-7.688150576351389726e-10	4.621385699725817624e-10	2.463962064370829712e-09	1.291255219825454543e-08	7.240255272613695313e-09	1.062321959274727287e-08	2.542484926515876644e-08	3.643678213580990668e-09	9.522442389639535933e-09	1.401568218927218626e-02	1.593776895235778090e-01	3.859553122720445471e-09	-6.499851623837348585e-10	5.558299843901329362e-10	3.840581664613716229e-10	3.056826877971104461e-09	2.562611256400978444e-09	4.256678830270973809e-09	2.045762101319897882e-08	6.430676349203635424e-10	4.228780870692498857e-10	2.119276850773206142e-08	-1.871674553063007118e-10	2.089484915298147151e-10	7.583816866658386463e-10
-6.373151158996316889e-10	-1.430094716073746800e-09	-3.412236430813781336e-10	-1.043810625941907596e-09	-1.193246290164356658e-09	-1.106950990307495762e-09	-1.189642961834550105e-09	-1.257471569300125550e-09	-1.224290286542501018e-09	-1.184186423680757476e-09	-1.257551281350005888e-09	-1.079149697424614365e-09	3.062140117085120214e-09	-4.565711315344944562e-10	-6.257398987956155376e-10	7.364470332811658378e-10	2.350944454440720279e-10	2.104053346328058428e-10	6.130611524734702145e-10	7.210412995035514767e-11	-1.663669317934780000e-10	-4.517281290898506324e-10	5.856297667264404623e-10	3.385499059547517412e-10	-2.028350250304175878e-10	2.298895889649011638e-09	3.139198983821275823e-02	1.026861594078087024e-08	1.894187010980627423e-08	2.029570970650045741e-02	1.879336832423466715e-09	5.892913793987930585e-09	8.870858047139604241e-02	1.624525227581644915e-01	8.711508393377323746e-10	2.531258973862733662e-09	2.182833088334102306e-10	-1.824625946720526280e-10	-3.009560503900359197e-10	4.670042735913453915e-10	2.429277254074469975e-10	2.294025403128700775e-10	3.308032979085716896e-10	1.866621140602774757e-10	1.427802640181597366e-10	-3.693462608796847216e-10	1.131834821327517841e-10	-1.402032539850692824e-10	1.721522083481614859e-10	2.875712206344156489e-09	1.859128272374891908e-02	1.126885653098748651e-08	1.790849794173212103e-08	7.944873629027261741e-02	2.856704614978315307e-09	7.974563516199233898e-09	7.874414407462741940e-07	4.012398848569614235e-02	1.088714460984916378e-09	3.175739490772061059e-09	1.140546329028206652e-09	4.519696781431164469e-09	1.125867549503287958e-07	1.754471451735998253e-08	2.796407091048767664e-08	2.702381050514081617e-01	5.243755725289791123e-09	1.310738320354778847e-08	1.165727722404824884e-06	4.744323477782152634e-08	2.010399096182255962e-09	4.360142988391527531e-09	2.804803850970113762e-09	6.120115720571697316e-09	3.179742848073576694e-08	2.447782924971415803e-08	3.413798858928036531e-08	1.060531904983706419e-01	1.128618495171332382e-08	2.849538050794674590e-08	2.789404641098747542e-03	1.632322509067734754e-08	3.611072261108425079e-09	5.718028163874517324e-09	-5.805887466426910002e-10	-1.562972395334521972e-10	4.417019459201978629e-10	1.109230946196649261e-10	4.791414306600911604e-11	2.246140178952621774e-10	-4.380037167894684008e-10	-2.459935946879684310e-10	2.080243419801282606e-11	7.865306716552225876e-10	-4.371671921494180111e-10	-3.150409754404170458e-10	1.062050856725557955e-09	3.978098139662049706e-09	1.845739294350109980e-08	1.080013059015430512e-08	1.403309418039257949e-08	2.800537217260573141e-08	4.809295876045903562e-09	1.103948301808158972e-08	6.070355027241825657e-02	1.192002478282224442e-01	5.575868982966397584e-09	2.239759271360361779e-10	1.467898181126649593e-09	2.518870096085337600e-09	2.094523280795762775e-08	1.097739361077046169e-08	1.644631254926087445e-08	4.481796126585530179e-08	2.858152501492986218e-09	5.189861913032948844e-09	4.124216151985927294e-08	6.550422859203985620e-09	1.475650979794352135e-09	3.690175806916336766e-09
-1.425007346089353942e-09	-3.038944333004123434e-09	1.232276358047319733e-10	-2.358191047999151867e-09	-2.695857936666736920e-09	-2.596504696507177883e-09	-2.694580636869166434e-09	-2.789175392881984540e-09	-2.931068549397822280e-09	-2.900141048952789551e-09	-2.725073540521337231e-09	-2.288235474031321205e-09	3.929967931944291657e-09	-1.432124031412536912e-10	-1.476103743535793468e-09	2.549087247707601163e-09	-5.778794205020054450e-10	-8.556563159970906905e-10	3.920269241464448801e-10	-5.630770974624430312e-10	-9.960922651187877667e-10	-1.675732917973944073e-09	-4.315185541048288110e-10	1.028930735338321988e-09	-6.998259833222566061e-10	3.899250318783724309e-09	4.109172571637086102e-02	1.915971443525465191e-08	3.986839968878667352e-08	1.599382383795513486e-03	3.020245768389695411e-09	1.037565165411636707e-08	8.450004373544252323e-02	1.646004117507433584e-01	1.122879315578609016e-09	3.228974052630746108e-09	1.801467726653715903e-10	-7.985712371885531047e-10	-1.125163275826020368e-09	5.466435448309581292e-11	-3.200488847687782472e-10	-3.652117744118134460e-10	-6.663568614218634346e-11	-4.987899997597067112e-10	-5.897303902568961073e-10	-1.375429334494231902e-09	-3.143605816195832816e-10	-9.193911453581754085e-10	-3.173765280392786126e-11	5.344384485241311878e-09	7.666637173582692942e-03	1.883696835759742979e-08	3.178565101589988256e-08	8.389481290673160563e-02	3.986893597942296804e-09	1.107850172628118353e-08	1.434397733901384949e-07	5.389027264199371808e-02	1.405148150925830464e-09	4.187883075085757501e-09	1.900138471975672942e-09	8.700768079238256468e-09	4.192815109015142169e-07	2.993564521020557266e-08	5.080131699229524724e-08	2.824380896798093232e-01	7.888287519846749465e-09	1.840497473041114491e-08	1.992111736797689691e-07	7.427778283267605821e-08	3.069339333757692703e-09	6.336464668891155471e-09	5.039200482075853793e-09	1.122485693118483182e-08	6.828939898307709074e-08	3.985542430423591561e-08	5.948349968815108719e-08	9.963792586744031621e-02	1.732033380075833216e-08	3.874994736079796459e-08	1.320586499410922736e-05	2.711045048232830421e-08	5.599909850796473088e-09	8.595724998421403256e-09	-1.415085335138862245e-09	-8.376004741199993859e-10	3.043338230586734984e-11	-1.590148374672166541e-10	-3.287206155020002777e-10	6.843374276794510471e-10	-1.308613266358597275e-09	-1.026918298228562818e-09	-2.424054430615981038e-10	9.644696727943706453e-10	-1.259757969653782164e-09	-7.434396190301120498e-10	1.850510606773026652e-09	7.662024540636662654e-09	4.095105328109221226e-08	2.074075749607803300e-08	2.990648016267958355e-08	7.387903671019050726e-08	8.242413021170461483e-09	1.969941036228699791e-08	7.262238192963441086e-02	1.080433604128490516e-01	8.867807300294886760e-09	-1.559472564063113053e-10	2.162389675084527431e-09	2.256680408363172185e-09	2.433700331307275003e-08	7.366033182118745951e-09	1.091589907966356533e-08	6.959837181177625438e-08	2.618254622439231999e-09	2.000535941732829552e-09	4.683887214772007667e-08	1.850821657284000618e-09	1.646666458486591603e-09	4.536281506990470721e-09
-4.042739757081721384e-10	-4.510772959707879594e-10	-1.188491953028688621e-10	-3.749329408251627915e-10	-4.461300989349620719e-10	-4.075717627548258743e-10	-4.535716040473808400e-10	-4.917381394633202413e-10	-4.822160411878911799e-10	-4.431375366173094915e-10	-4.833997601827597367e-10	-4.464992734941807521e-10	6.519808340698720597e-10	1.135828582854531072e-10	-1.439598879671530453e-10	6.174481457355628954e-10	1.416031431324676688e-10	1.416195065450230343e-10	2.693205724498316231e-10	4.701142732285385104e-11	-5.554650196177697424e-11	-1.592426277878239619e-10	2.148517582203106706e-10	2.879021794691771601e-10	3.871301683152781410e-12	1.099184740937913569e-09	3.590544194948801920e-02	4.732783373794618461e-09	9.302779538780872286e-09	1.380156117777913728e-02	9.670140759449514963e-10	2.820747551182239049e-09	7.510204432985251310e-02	1.720846985632516202e-01	4.515165592188396713e-10	1.308840389138784711e-09	1.919969459555396534e-10	-6.159824084520274984e-11	-8.343102854587211404e-11	2.604753232852154260e-10	1.755601921057141929e-10	1.638774898729914760e-10	1.407945149933511106e-10	9.040806969319648625e-11	7.913275894897148528e-11	-1.118773923539043130e-10	3.995355386665305509e-11	-7.157141498737201594e-11	1.610371487374806836e-10	1.427322875099872004e-09	1.177168447289021758e-02	4.977670345717118466e-09	8.267308682249815435e-09	8.670567758127067925e-02	1.232284647454437115e-09	3.051685760478347762e-09	4.365523342098998045e-08	5.604365830790389996e-02	5.468608722385199579e-10	1.576978797355024331e-09	6.228504010825717976e-10	2.287230753424396629e-09	1.185798013482742456e-07	7.677748909080645191e-09	1.271654154019156453e-08	2.631897385547398160e-01	2.170042517880039634e-09	4.775361850617684001e-09	4.941618739592460100e-08	1.882758701112265990e-08	9.392301162803544762e-10	2.081021059659326164e-09	1.473539447509441161e-09	3.285216339560079486e-09	2.126781290287502554e-08	1.065480676782968344e-08	1.521703528354635146e-08	1.102171575190797476e-01	4.086302005535195349e-09	8.074787917190022200e-09	2.199715791201179680e-07	7.447873136171666031e-09	1.667391057934366162e-09	2.755373863724672288e-09	-1.811440617952573791e-10	-4.038569617385238715e-11	2.111106223967987391e-10	1.523717198850028412e-10	1.297641264946414080e-10	2.554743124180327885e-10	-1.162938051940807659e-10	-3.257346727123457306e-11	1.121971839943608261e-10	3.760731300722761054e-10	-1.287506203896301318e-10	-1.046826155232849355e-10	6.486917147197985121e-10	2.371561665126755814e-09	1.823295263438512382e-08	5.468563187642630305e-09	7.779262786421650685e-09	1.937232676080885224e-08	2.296459744456122698e-09	5.189985668608827513e-09	7.663831021585337799e-02	9.853928899692156185e-02	2.108803704172604589e-09	-4.447577313255832388e-11	7.854970994174423708e-10	1.866192737606095828e-09	1.069556236643418510e-08	7.034870182709692418e-09	9.617958156288238159e-09	1.994742281916450324e-08	1.472729002037161214e-09	3.405930102137893452e-09	1.189094717781865733e-08	5.361477167907655311e-09	7.292997304507142663e-10	1.950454969704162197e-09
-2.647504848074102783e-09	-1.117151543796269330e-08	-2.708098045057932073e-09	-8.949010674846252874e-09	-1.027438124845558082e-08	-9.075308980477670095e-09	-1.029486392536333636e-08	-1.017932626654788245e-08	-1.060459295339819340e-08	-1.002549951816194398e-08	-1.080698266991042000e-08	-9.674828834849511918e-09	2.012063458538080157e-08	-5.808688521420486403e-09	-6.522907737930032248e-09	1.058485907148994789e-08	-2.020818079349459863e-09	-1.747741076496662484e-09	1.702492860350394021e-09	-2.048890940713849831e-09	-3.699593898374181101e-09	-5.221654035072209083e-09	1.313262429414149684e-09	-2.089412110585709857e-09	-3.863579578088552076e-09	1.437862679514708295e-08	2.228229429411287058e-02	6.037980085750605086e-08	1.308757853041077255e-07	7.414700238366735618e-04	9.225076368990482223e-09	3.471146413712824297e-08	8.433065803521937187e-02	1.953083712295151375e-01	3.744452234352020580e-09	3.592008635451077000e-09	1.119054902286303316e-09	-3.095418413650421453e-09	-5.157565343257812306e-09	-1.339240581770239632e-09	-2.694635957459424254e-09	-2.766738359550989857e-09	-4.898209264765596368e-10	-2.547649726180043766e-09	-3.099234596303306347e-09	-5.846354360031343697e-09	-2.277371657053837757e-09	-4.201136478357506197e-09	-2.066921795888556966e-09	1.550638607795008035e-08	2.500896126682003451e-02	6.076652520504429789e-08	1.088885781568779342e-07	8.935756089309693229e-02	1.595572179969395449e-08	4.999894270982246191e-08	8.292798475948196749e-06	2.795211995520373305e-02	4.468915625467425870e-09	6.689029927266168394e-09	4.361517234406156116e-09	2.687228809782463563e-08	8.145488062444392111e-07	9.565317378717426229e-08	1.669875828152448118e-07	2.727119102473094525e-01	3.076883392884428502e-08	8.072810742501287414e-08	6.411597699227009029e-06	2.637663789784650667e-07	9.754533763313918406e-09	1.344500058547203250e-08	1.445451051967775380e-08	3.821137809386850743e-08	2.755640181237080809e-07	1.427215870394600454e-07	2.666548526566285636e-07	9.880547389942614944e-02	6.869539425448809157e-08	1.839824511400822898e-07	2.157686604096076786e-03	1.070787221265892191e-07	1.910547673647668584e-08	2.213419632024107939e-08	-6.386818856635794787e-09	-1.975975451514367764e-09	5.194271810111556567e-09	-1.999409842250898174e-09	-2.547159087548333031e-09	1.342670330099549427e-09	-5.443902743194003659e-09	-4.503063635459509294e-09	-1.440463457676359408e-09	2.896924874781919067e-09	-5.830648930326496782e-09	-5.421860807054979580e-09	4.036867088725783689e-09	2.295892971540027302e-08	1.201468642447852758e-07	6.035614348419137977e-08	8.593423712417039110e-08	1.936921197044061182e-07	2.811177456282391732e-08	6.943993444043905758e-08	5.267406567440671705e-02	1.286506140664722408e-01	3.353175565223061937e-08	1.843539282409699757e-08	5.341991429624370705e-09	1.303504562006410475e-08	3.895023155852114308e-08	4.362808424735268441e-08	4.341310894273362250e-08	1.823924753938712855e-07	1.607657360945261839e-08	3.133309220225181691e-08	5.762239530900493964e-08	3.057382414951738548e-08	5.435200477847269152e-09	6.590563345687723698e-09
-3.903735342805572811e-10	-1.041865084246869388e-09	-1.623423463154116470e-10	-8.275578830633626382e-10	-9.235231838848822143e-10	-8.838887387633974579e-10	-8.802606665283135648e-10	-9.890038763638824755e-10	-9.952498078233745473e-10	-9.196255723401490348e-10	-9.557436079298980089e-10	-8.501098174602282644e-10	1.682553005794762983e-09	-2.918067839153418414e-10	-6.117203856760796249e-10	2.456954352974286319e-10	3.080315162532686942e-12	1.045055912577613475e-10	-1.450519308870391970e-10	-3.919703996699800770e-10	-5.084299219680323799e-10	-6.682336822538447939e-10	-2.130940094101928090e-10	-6.521241351882221777e-12	-3.561929930423395521e-10	1.057811875858979987e-09	3.603109597818360960e-02	5.399121226277076953e-09	1.134607057724583679e-08	8.287685884815529369e-03	8.063733677473023285e-10	3.041460550197863805e-09	9.137948567603139394e-02	1.655166320025940607e-01	2.828027811508997332e-10	8.143306075701108843e-10	3.696480261372197565e-12	-4.363103254082195425e-10	-5.218405564611510869e-10	-1.362491396663921806e-10	-2.495706916448675390e-10	-2.637030572285877741e-10	-1.173393273133082906e-10	-3.480909419021402145e-10	-3.640845590177046632e-10	-5.602018607494683408e-10	-2.572365128268637357e-10	-4.379977259943031349e-10	-1.378569862900289174e-10	1.487166709618440991e-09	9.682719063374757920e-03	5.404287247021070852e-09	9.395686668816016789e-09	8.763729330579791976e-02	1.071149472844208511e-09	3.159321534440502187e-09	3.639226763646907485e-08	4.796703740469031307e-02	3.636127333868535988e-10	1.111604071407472527e-09	3.816080297283534745e-10	2.247124878082856952e-09	4.863276826324364719e-08	8.702956567481609049e-09	1.507929031887214598e-08	2.651831543718029538e-01	2.194573722643101615e-09	5.126566549480785498e-09	3.743532696357467727e-08	2.022731357621535499e-08	8.952251382787570666e-10	1.775110970015929290e-09	1.334607651099419278e-09	3.077137636746969777e-09	1.654860533129047876e-08	1.134596464657698994e-08	1.743822527374809421e-08	1.015510002407781359e-01	4.462176032522879245e-09	8.972065718381884151e-09	2.449575671572002158e-07	7.532341844853030596e-09	1.696010364414946621e-09	2.432962699290284282e-09	-5.835336034694789639e-10	-2.572021661945057543e-10	8.118101701686327042e-10	-1.695260408367039915e-10	-1.653640891104874578e-10	-1.339618109129546084e-10	-4.630241244928541099e-10	-3.489964849627086205e-10	-2.466816511709035001e-10	-1.316655287672691869e-10	-4.706786507835354158e-10	-5.071745433025188819e-10	3.468131896351359653e-10	2.105515532793896948e-09	1.263871693907178257e-08	6.285429332766281797e-09	9.390037836963944265e-09	2.564282058116657226e-08	2.392678870206274220e-09	5.883145731041073079e-09	6.857604840154374326e-02	1.181872029268427604e-01	2.763160866204278839e-09	-3.618369048726463727e-10	4.142187868984864789e-10	4.977988779428558441e-10	5.680588711300751406e-09	2.944861321358500423e-09	5.014477948442401127e-09	2.124271264784016087e-08	5.664746378992204614e-10	8.117295888822014543e-10	1.150420963353503589e-08	1.368565133085434535e-09	3.316670621462451968e-10	1.120677245712083116e-09
-2.357789639731823115e-09	-1.414964658826679373e-09	-1.567997127063674053e-09	-2.160971659779134697e-09	-2.486371786340166965e-09	-2.189277943883408701e-09	-2.559176122881271420e-09	-2.384805704043454910e-09	-2.422124230685419982e-09	-2.295995357253816140e-09	-2.576435657128220767e-09	-2.237320336626714189e-09	6.783669764171086850e-11	-7.927187034109194028e-10	-1.722883251786258019e-09	1.283106343587023810e-09	-8.236226111530645862e-10	-7.094960511351252335e-10	-3.925896454341712903e-10	-1.241914814996453204e-09	-1.522504328034096417e-09	-1.658203125864337447e-09	-3.268767579188301777e-10	-1.071756069977526637e-09	-1.314954448892449688e-09	1.275018722011444025e-09	2.844181013472151312e-02	8.565526230084634897e-09	2.012020836772075999e-08	2.637262605708587913e-03	6.358892351353833764e-10	4.748022332747236952e-09	8.193951216736460041e-02	1.811980178573460165e-01	-3.498987192920665064e-10	-7.830892345909877619e-11	-9.159222065036699867e-10	-1.331478020921405073e-09	-1.801807624640802478e-09	-1.168027400738520237e-09	-1.417076735259437615e-09	-1.462918194194332157e-09	-9.846386728974210494e-10	-1.401845019462486476e-09	-1.539264849607899032e-09	-1.933540449959848718e-09	-1.255075168242281692e-09	-1.616817822698668491e-09	-1.040755588388975421e-09	1.660913949196028239e-09	1.437034135404142120e-02	8.491206056742695003e-09	1.630758611473837487e-08	7.435760333094307284e-02	1.316855118182948184e-09	5.551229749238949161e-09	1.207397457979814638e-07	5.040739069212357704e-02	-3.454504167125517467e-10	3.533714667954059136e-10	4.875921808121503770e-11	3.416134131699092530e-09	1.771294514867420227e-07	1.416291884541792128e-08	2.612504138840041712e-08	2.786429683637655641e-01	3.432448773116974304e-09	9.405303155820719785e-09	1.229819335678050199e-07	4.962027686867089252e-08	6.097787352016074770e-10	1.553134516312812502e-09	1.608314715027484539e-09	4.237485185253970474e-09	2.844563053112775448e-08	1.860779005953579138e-08	3.248910132966485553e-08	1.008646573965764487e-01	8.295981007457520468e-09	1.955518990921126300e-08	6.028166581848021380e-06	1.483018887809076170e-08	2.024329666395227289e-09	2.636449804823875659e-09	-1.690898828234555224e-09	-1.759238567249179291e-09	1.269000999603364384e-09	-1.235297054506782058e-09	-1.304087857341262398e-09	-1.000818733858857313e-09	-1.753473142343291288e-09	-1.588228693625227975e-09	-1.202987987095802308e-09	-1.104753961053948658e-09	-1.764476273775558808e-09	-1.728150733458277344e-09	7.697265764528109734e-11	2.720204328264186124e-09	1.858147200559122246e-08	9.678728089998471066e-09	1.544156939405915107e-08	4.274321319891161175e-08	3.601314014529260657e-09	1.001921407622821953e-08	7.708290861415770245e-02	1.100506616144480004e-01	4.452069936603664289e-09	-9.477855356296064088e-10	4.114302122340540509e-10	1.260101786964420171e-09	7.792529959489975739e-09	6.753390835044001128e-09	7.968819540739806983e-09	2.860554426224468777e-08	1.169329817962047578e-09	3.402188966206290366e-09	7.823565986337883065e-09	5.022542999849423798e-09	-1.332475208292823186e-10	6.638812856040528020e-10
-1.307650790448761128e-09	-1.764889966518613072e-09	-2.104073409185199278e-10	-1.501607171324802290e-09	-1.806995013840976744e-09	-1.647145452827448546e-09	-1.767554345591169834e-09	-1.807730078984483045e-09	-1.922775988391797910e-09	-2.002932054283333595e-09	-1.889012078814554679e-09	-1.731951573513902290e-09	1.442810786411107452e-09	4.545717294428923103e-11	-1.047726243520763439e-09	1.750704013958186244e-09	-3.055535897226532800e-10	-3.382780576312166174e-10	1.004687734664457404e-09	-4.081263529006479814e-10	-8.228487902422335288e-10	-9.566937709022480536e-10	1.591973048065357335e-10	4.643295887799617137e-10	-4.351025814850732764e-10	3.099667598399016708e-09	3.618531545268636324e-02	1.090185309096614888e-08	2.031377085159908872e-08	1.175659885867859039e-06	2.359262787480228975e-09	7.810023547994639754e-09	7.781976060950623886e-02	1.789579553227519104e-01	9.327215577968414361e-10	2.117939780677509395e-09	4.577089095273872740e-10	-5.651879407386505883e-10	-7.876698752589247907e-10	7.157543354513025416e-11	-1.938745222630177256e-10	-2.191014338853900278e-10	1.250175639637662719e-10	-2.693066756304920540e-10	-3.289407134716981367e-10	-9.680090037893316967e-10	-3.279624696777231068e-10	-6.290193089996505660e-10	1.258865188083918874e-10	4.338050019086070902e-09	4.696011942818747488e-03	1.347441935426537925e-08	2.308621374590499295e-08	9.650095087429813590e-02	3.649055329549324593e-09	1.061049177109247280e-08	2.046020639868609406e-06	4.463905735582850143e-02	1.086841098188412918e-09	2.860156620734965291e-09	1.404892419804348336e-09	6.419117734986636897e-09	2.356002179312771618e-07	2.110521984031271000e-08	3.632053905315317702e-08	2.690105135687616555e-01	6.685629897902262284e-09	1.671134383281512869e-08	9.255382100240643978e-07	6.130484185832078390e-08	2.308971303230908474e-09	4.431845138918607776e-09	3.613058769043503794e-09	8.345411024775629272e-09	4.379766557049846328e-08	2.912466304283588503e-08	4.523297577685368090e-08	1.061811418531028034e-01	1.412643901401973817e-08	3.414499463936765679e-08	2.722295491171822517e-04	2.053791159314889638e-08	4.212183761140968709e-09	6.107228484655120263e-09	-8.263189596968195033e-10	-7.890434506220011090e-10	1.295289873268859811e-09	-2.194334172954588207e-10	-3.192938211313683712e-10	1.992636835810819002e-10	-8.724240722820012726e-10	-6.705660936718489964e-10	-1.386156019308734366e-10	2.799801097764585473e-10	-9.317833050507911654e-10	-8.031630850025219049e-10	1.350818897604511163e-09	5.761159050978984482e-09	3.125149210454149230e-08	1.284854295623049362e-08	1.761025420781443000e-08	3.430160606077112509e-08	6.253540150167764577e-09	1.480136919964233030e-08	6.406068533879495652e-02	1.216713088807474391e-01	6.728340017811392221e-09	3.906626852827984114e-10	1.469644573573511849e-09	1.477157727197212764e-09	9.280436867295948410e-09	4.198502266747390906e-09	6.940828121419905368e-09	4.249977221673236849e-08	2.221881033532510396e-09	1.677940308462507643e-09	3.480243439901760297e-08	4.163985866863056821e-10	1.120526187833498834e-09	2.566711341813850223e-09
-1.351961987204265938e-09	-1.681266769199279665e-09	-9.061397083709449040e-11	-1.366472463164226959e-09	-1.608689882401829376e-09	-1.557818549023634113e-09	-1.598749642081897936e-09	-1.715815237772246757e-09	-1.728135832067405411e-09	-1.751104481359195248e-09	-1.685953181904654348e-09	-1.541883344787203616e-09	5.884092927930978427e-10	7.512342750801535034e-12	-9.862205673983889549e-10	2.048976480920231530e-09	-4.204025347941920740e-10	-4.897622178547980058e-10	4.742517821070723895e-11	-5.726999659196930574e-10	-8.241194468143821607e-10	-9.381320656101643427e-10	1.382974954730053309e-10	-3.109492072826126256e-10	-5.475744879460687111e-10	2.006788332700239768e-09	4.133212180370708644e-02	9.652394035154622684e-09	1.995333140875779772e-08	6.506211685402444461e-03	1.440139531427028963e-09	5.589658481123410287e-09	7.820122097981381526e-02	1.670451763082052010e-01	4.552052230439121360e-10	1.920319327872654374e-09	2.410930758009466723e-10	-7.813865187052653012e-10	-8.930113758880753998e-10	-2.308156483866510814e-10	-4.340063239158368606e-10	-4.583565723689972252e-10	-3.224833343372479783e-10	-4.954775324678714246e-10	-5.568022691245215112e-10	-1.003132764583219508e-09	-5.579677178303763542e-10	-7.795345346530029377e-10	-1.611067486366821162e-10	2.999326206527254762e-09	3.471355308423659195e-03	9.993362702817040033e-09	1.726293560661894023e-08	6.847152725192413858e-02	2.153279988899251309e-09	6.432894938324272064e-09	1.704257092998881737e-07	6.723970404090794106e-02	5.742043939928030458e-10	2.390368646198793519e-09	8.339988756355418565e-10	4.526746463541217128e-09	1.906855042986127223e-07	1.607946117588486217e-08	2.759500618424025248e-08	2.786391377021879556e-01	4.446279931906488329e-09	1.100120892983991769e-08	2.340689519009699248e-07	5.478184743818026962e-08	1.575785178468087798e-09	3.864919011295764226e-09	2.476084472236333505e-09	5.835729503110925280e-09	3.338958297212902207e-08	2.192435843261353464e-08	3.330558420040498471e-08	1.029037746234852807e-01	1.042320871470466115e-08	2.547803068038812978e-08	3.147854638415179505e-03	1.595362037015899607e-08	3.121153275524311255e-09	4.940532317019608380e-09	-9.682158836681812736e-10	-4.755483081306695219e-10	8.471144405523759233e-10	-3.977554723350866285e-10	-4.172086924111109300e-10	-2.888384116712596535e-10	-8.754970928938063687e-10	-6.999286715538693803e-10	-4.968722952621029812e-10	9.863100332342806238e-11	-8.940707745866368933e-10	-8.565150512739939347e-10	7.658654810978496079e-10	4.083511926538870980e-09	2.316386812985101350e-08	1.040775086495841866e-08	1.484307368132623022e-08	3.283046866907191444e-08	4.520538421590355000e-09	1.110074733602455125e-08	7.927070670294063259e-02	1.037700702885850784e-01	5.110517983817919889e-09	-3.906322008149691030e-10	9.568173731386033270e-10	1.382222496378242607e-09	1.327813997277277754e-08	6.564980339292277579e-09	1.015108273815937617e-08	3.719458344609047007e-08	1.497211639977966916e-09	2.604184336733585661e-09	2.365154059358066297e-08	4.023670152973715201e-09	6.603512329711896423e-10	2.503393176836263365e-09
