-3.244333420555916179e-10	3.219099285201864121e-09	2.447274251460937813e-02	-2.660739651035014651e-10	8.625623467709331938e-09	4.585163762727968023e-02	-1.516435857510181136e-10	-2.727175520188877371e-10	3.194413053803436571e-07	4.292348631157173917e-03	-2.434881315110138724e-10	4.586912942526932133e-10	3.635297874849366475e-10	-2.015703906204202145e-10	-2.930840761097470003e-10	-1.211538687253618070e-11	-1.964021761797872191e-10	-2.483094135066359085e-10	-1.044628473583828788e-10	-5.487655927459346715e-11	-2.796982978812017299e-10	-2.902722932820591492e-10	-1.733917431046379724e-10	-2.172220729724728526e-10	-3.109422094849693659e-10	4.847689493283339834e-09	2.747519828983797235e-02	-2.798048286493086836e-10	1.036542724203387703e-08	4.173120562094377595e-02	-1.106320263284664710e-10	-2.612790428615778368e-10	6.549148158675703602e-02	3.881360368784102927e-02	-2.053090402268491662e-10	7.878801952809984372e-10	2.741233834497120692e-10	-3.606387705748373363e-10	-3.092952439901346064e-10	-3.557764763150422760e-10	-3.710855240501788788e-10	-3.629128345435307756e-10	-3.412826318081114207e-10	-7.158089860851221363e-11	-2.590436946765596998e-10	-3.048737252336326158e-10	-3.082071223597091512e-10	-3.280650547951467886e-10	-3.041735787146442207e-10	4.978393050947384380e-09	7.751331386264818067e-03	-2.253237087653283359e-10	1.739930931863682934e-08	1.252408632456626092e-01	-6.446820960533933310e-11	-2.258576411838785645e-10	4.185377463003555311e-08	2.521239117940248919e-03	-1.824102790981007057e-10	9.007767374766934209e-10	-2.492857808041948592e-10	8.363812838952420965e-09	1.273819828961319396e-08	-1.348189409329670494e-10	5.254553543598499729e-08	8.796158041812392192e-02	1.100750865553066658e-10	-1.431434428810633573e-10	5.682696193784168926e-08	1.446637211016347666e-07	-2.948052700946963320e-11	1.884015928865355670e-09	-1.667975006103166936e-10	1.304967501815455975e-08	5.458342259452579035e-09	1.184603824504200558e-10	2.163365459282960424e-01	1.848659737087454957e-01	7.686005670506838748e-10	4.598171977091799627e-10	4.357174338141329289e-02	4.927973011345641229e-07	2.661170421612545625e-10	1.753008222906194505e-09	-2.506032123659316349e-10	5.110118763733301424e-09	1.622888836717885364e-02	-2.631792767973055742e-10	1.399638310286733863e-08	3.561310262932358001e-02	-9.636897948044523839e-11	-2.531645460677954728e-10	6.484706471164528203e-04	3.113083051928304187e-02	-1.779300372523980227e-10	9.573910575285908212e-10	-2.887563432667122994e-10	-1.916556918262088831e-11	-1.848633768189918920e-10	-2.440723174375250649e-10	1.353904317057934673e-10	1.591445213713471471e-10	-3.605714523670825545e-11	-2.090296788379737258e-10	4.070477311908808909e-10	-2.109531711830029387e-10	1.375643982891645386e-10	8.513374511202302232e-10	-2.392359950826267491e-10	-2.769322649026701059e-10	-3.193870637800335788e-10	4.978705716632531339e-11	-2.528066362736539654e-10	-2.802639758531390885e-10	-1.643211799623280659e-10	-7.282511903524527613e-11	-3.073270745665510630e-10	-3.153271056315131204e-10	-1.557666789820134466e-10	-2.166173093460364187e-10
-1.141902267429017952e-09	3.219604363309582180e-07	2.128215172263496144e-02	-9.485696377320643331e-10	2.901057282450901445e-08	5.117762007172563937e-02	-5.346963838255890769e-10	-9.489066170368862468e-10	4.940987274210694065e-03	8.796437963490734078e-08	-8.963357030519242319e-10	2.691416380682768799e-11	2.102289083293897277e-10	-6.831761054803469162e-10	-1.038750773199336782e-09	-5.065007646755279660e-11	-8.749625982656438412e-10	-9.716817753298958059e-10	-5.431701104033755262e-10	1.603391291883548354e-10	-9.889459713771132584e-10	-1.114070369565298860e-09	-7.239033783918160441e-10	-8.092737871521229956e-10	-1.093048719349079530e-09	8.800225920548097446e-05	2.602244726448566317e-02	-1.000642773395121366e-09	3.762612602953096596e-08	4.092838058494704251e-02	-4.065254148164932772e-10	-8.909857534365071011e-10	5.961606303816709834e-02	4.739146716264478615e-02	-7.318018897625306516e-10	3.701668883165261283e-10	1.924456975195441746e-09	-1.386240094758806408e-09	-1.251108575988589188e-09	-1.287454308863997610e-09	-1.263586898439283914e-09	-1.312873610259998365e-09	-1.335260689726310101e-09	-3.780348225641391331e-10	-1.388016794549756723e-09	-1.060272810648648159e-09	-1.034288267133691688e-09	-1.097226994529618883e-09	-1.049235347809894111e-09	6.365515384751896520e-07	8.434813347016447901e-03	-7.826185469008871697e-10	6.922049226145341344e-08	1.216791113538907565e-01	-1.877699348841711746e-10	-7.417002430169806736e-10	5.484556141100510632e-06	6.982350858147769006e-03	-6.543311775904191921e-10	6.738580798087834656e-10	-7.786804318888230840e-10	2.699802894332727338e-06	2.564606238808094961e-08	-4.228044677367845090e-10	1.907665956437232190e-07	8.269358320553463204e-02	4.492025735858339340e-10	-3.388689097256485339e-10	4.582777922040583722e-07	2.047280869405853006e-07	-1.822724148926403697e-10	1.657388646873294906e-09	-4.190013892679727538e-10	2.382844726218010305e-06	1.407327641753853032e-08	5.206774891018460410e-10	2.256680966595282500e-01	1.895580522631545584e-01	2.575934096518823916e-09	1.089797436356769299e-09	3.609412487487151378e-02	6.161723881253317959e-04	1.572255093314441115e-09	6.263119436412107987e-09	-9.610435376573656449e-10	4.481912011713526022e-06	1.959210726883625284e-02	-9.486655142460521376e-10	5.151782602972029097e-08	2.893626868717859291e-02	-3.551932985106286419e-10	-8.669113344670956208e-10	2.897165727394037521e-03	2.538389071334502464e-02	-6.833149832135434778e-10	5.360968875787929651e-10	-1.008121203393471653e-09	-2.126821811767550501e-10	-5.985920261628871308e-10	-1.005775887760194777e-09	-3.182351588079411033e-10	-3.606983546753570642e-10	-6.507677936021189635e-10	-8.289970356374326770e-10	-3.493214453938718868e-10	-9.046248191345902953e-10	-2.563341569992539581e-10	2.814610150366318701e-09	-7.299838120272490864e-10	-1.013151443452408443e-09	-1.172814381027781709e-09	2.252662934272652306e-11	-8.889645552124882479e-10	-1.068662610912175234e-09	-4.554596828718250565e-10	-1.135631205802766457e-10	-1.132207172358660404e-09	-1.144104103662593700e-09	-4.296893484839270278e-10	-8.500497819198082691e-10
-5.290039181924968536e-10	1.534512857516909885e-07	3.660486920057091226e-02	-4.508237661503398855e-10	2.405167035004041195e-08	2.725427202190616044e-02	-1.882205514440174847e-10	-4.422592078654015727e-10	4.004334517452585153e-07	6.257146327616621220e-03	-3.946150419273692487e-10	2.536515569456263018e-10	3.726035194544843130e-10	-3.331385527195653361e-10	-4.900430458700390261e-10	4.353916323987499174e-11	-3.211391683902313720e-10	-4.219270686597535676e-10	-1.525954247477764080e-10	3.224558279786711602e-11	-4.513221339713746938e-10	-5.191874639784032212e-10	-2.915076913259279813e-10	-3.542163389316708802e-10	-5.142029283586725213e-10	9.939075388567267630e-07	2.539191832373631844e-02	-4.582055715780900306e-10	2.566379280987456866e-08	6.985917226530370672e-02	-1.281323452107641767e-10	-4.226540483487203660e-10	5.637864834393410685e-02	2.715238853491166310e-02	-3.337386326786146976e-10	4.471828554795727984e-10	6.732271821683015793e-10	-5.154543539112746759e-10	-6.334518074202707043e-10	-6.132628244701307238e-10	-5.256237962798428370e-10	-6.509968619267539699e-10	-5.078328842226780322e-10	-5.507084288537286653e-10	-5.375018986535038604e-10	-4.659488914654373573e-10	-3.647228805820138079e-10	-5.981259097353682341e-10	-4.980205541834947673e-10	1.224935672973010231e-07	2.157620703922069410e-04	-3.721303553189140729e-10	5.167475279151352242e-08	1.310029469609927388e-01	-5.467259208449625939e-12	-3.553915042959138757e-10	2.536767879128831123e-07	7.437450087204025215e-03	-2.746248178313085146e-10	6.423668959000547575e-10	-3.460399907628683883e-10	2.862855812158610151e-07	2.586398876921246557e-08	-2.254556707426744299e-10	1.217337916896210123e-07	8.170507552192124434e-02	3.438618544620221315e-10	-2.057878032406578330e-10	1.318922986310947317e-07	4.415258846480063388e-08	-5.988852486254708360e-12	1.261742577118322717e-09	-2.591375331538204263e-10	9.662043337469278979e-08	8.381308376075856934e-09	4.302788565138224677e-10	2.199270886782609125e-01	1.635415294185784685e-01	1.606324187958728500e-09	8.722180452332123967e-10	6.760255598200967664e-02	3.549293739343817553e-07	8.247931309245424459e-10	2.638760003242153121e-09	-4.924703942122053421e-10	3.897926914994626314e-07	1.186036241337079869e-02	-4.322268097479615539e-10	4.046790751213858177e-08	2.944668649643507677e-02	-6.905035590175130805e-11	-4.048442537703438572e-10	8.371039988260072125e-04	3.752150770992417061e-02	-2.790960224671488442e-10	6.098156347328009790e-10	-4.584504983629530176e-10	4.841038291888406496e-10	1.190410131230865625e-10	-4.489404806634504680e-10	1.852066132671814598e-10	-1.986697275171626778e-11	-1.546594173875218176e-10	-3.902599672917763210e-10	6.700065971108952080e-10	-7.521182127922502858e-11	-1.365690106306097320e-10	1.085941239568230970e-09	-3.027928139696859805e-10	-4.956742535975182052e-10	-5.778436789201406257e-10	5.266660706289876549e-11	-4.934716576531986512e-10	-5.218932613572360766e-10	-2.953683876577921334e-10	1.563052860248830473e-10	-5.507094476409577011e-10	-5.758789585636445001e-10	-3.060794202802179201e-10	-4.446224178973768698e-10
-8.225743853397139535e-10	1.074175236408556791e-06	3.420131124505140785e-02	-6.794610827804606144e-10	4.351670263751990640e-08	3.846780825013207394e-02	-2.742729137642699030e-10	-7.020383385645866956e-10	9.815599358614834470e-08	3.080488630471053010e-05	-6.247563135999545706e-10	5.581045192048363846e-10	7.369907988985054124e-10	-5.041960737526575097e-10	-8.052806489203976082e-10	-5.406491863658142384e-11	-4.998622709401525446e-10	-6.666550217525721685e-10	-2.034661831364477555e-10	5.133604811896448926e-11	-5.878572519689865333e-10	-7.716012848301043805e-10	-4.724319349328900384e-10	-6.028095442022361525e-10	-8.190814529870255774e-10	1.065535761831499871e-05	1.700466998039891486e-02	-6.955725849548061031e-10	4.802851767666288532e-08	6.458520615703795820e-02	-1.601916257962041648e-10	-6.670274483795039991e-10	6.008099345320695034e-02	4.001657680875363859e-02	-5.268580161962463987e-10	8.791233561675917124e-10	1.121969808487530634e-09	-8.637359596359811304e-10	-7.318043058468311598e-10	-8.874510273006270846e-10	-1.000865311317566235e-09	-9.488267782799271825e-10	-8.376903064730088483e-10	-9.053995013806060516e-10	-9.754311590237852317e-10	-9.692638713481868292e-10	-7.059695698991163707e-10	-5.521255884427042171e-10	-7.856548349960515585e-10	1.518555198352104884e-06	1.355144418375632542e-02	-5.551928088219906131e-10	8.038158769123909918e-08	1.130614171809577323e-01	-1.071645965457759849e-12	-5.620270187068842992e-10	7.761152060036840287e-08	5.681507128915076234e-03	-4.480569650275760571e-10	1.130965752993223733e-09	-6.030143764066371938e-10	2.470441937985455995e-05	3.725290565450995082e-08	-3.264576668028136937e-10	3.411158698658621422e-07	9.303620136178655797e-02	5.681570461214798934e-10	-3.178672271918263299e-10	1.587725621341798799e-07	1.298526271492153771e-07	-3.712498219040636295e-11	2.226161932420319521e-09	-3.700169702727507881e-10	1.550505148818177381e-04	1.703401192304788662e-08	4.190351601752231998e-10	2.362478921753654593e-01	1.486644852366497960e-01	2.480255004352556485e-09	1.314556101031982524e-09	5.584344814382408845e-02	2.215069015286788967e-06	1.113752680710077637e-09	4.251025224339204782e-09	-7.379155389410840735e-10	7.565238592947903798e-06	1.104135913247745147e-02	-6.502561650455287074e-10	7.242323952228417421e-08	3.492299759710029011e-02	-1.453019817477634719e-10	-6.426923623627748815e-10	3.066445410224769003e-05	3.332734037503672087e-02	-4.529569252118047732e-10	1.075321754678137019e-09	-7.470029393909402682e-10	3.261143632201944357e-10	-1.974304738306750292e-10	-6.353546401417388182e-10	3.498885876730544901e-10	1.689272132298834366e-10	4.473038317080212069e-12	-5.573565469788926565e-10	9.683734291554643258e-10	-4.708861292444778797e-10	3.055126941224566882e-12	1.478266162420762633e-09	-4.315354170266268155e-10	-7.828478621781902232e-10	-9.187348277978751201e-10	1.614666679050940543e-10	-7.551261797860399111e-10	-8.116215131460987841e-10	-5.721600954586368320e-10	2.416181809155044230e-10	-8.699124252407151369e-10	-8.984567802080062951e-10	-3.628265469223008371e-10	-6.897742783850196308e-10
-1.294706599679214313e-09	8.824985475772622092e-07	2.420420923559794824e-02	-9.375701260308177331e-10	7.766736406854616786e-08	4.197855531362473108e-02	-2.191994319828522533e-11	-9.545334186486901912e-10	5.461878027400053217e-07	6.294263852046828520e-03	-7.543951672044182067e-10	3.122779490538586652e-09	1.898039300836109590e-09	-6.435948368116934366e-10	-1.180641082815497835e-09	1.127579899062703132e-10	-8.205204754964166476e-10	-1.000048003656614204e-09	-3.126480015791893612e-10	1.849019673660858220e-10	-1.062928267818330900e-09	-1.215238249987783053e-09	-6.723011225043558615e-10	-8.508684022744957241e-10	-1.251614619552746015e-09	5.561611569634087861e-05	3.127083965690653083e-02	-9.608397609534808857e-10	1.032266483744228233e-07	5.225468767967963307e-02	2.141461450934159584e-10	-8.741684045934286518e-10	5.826839642873149483e-02	3.414519657385059470e-02	-5.641209337929198789e-10	5.045085448210507029e-09	1.991799250715733180e-09	-1.258928490534089024e-09	-1.523915927870983630e-09	-1.514063662052373456e-09	-1.509611536446044509e-09	-1.568577113896766517e-09	-1.422204835216872116e-09	-1.335579808381747933e-09	-1.504974563305894599e-09	-1.506749024866605848e-09	-1.039369874093537705e-09	-9.499578169733902928e-10	-1.157392183084071222e-09	1.263338136764305248e-06	1.030721237843464262e-02	-6.463826511791703777e-10	1.707382806178916752e-07	1.246252487619938926e-01	5.698932613977445998e-10	-6.120386223528817955e-10	1.704928870063397278e-07	6.011989932907324009e-03	-3.428943078457117616e-10	5.406777160331853262e-09	-8.072721074481358528e-10	3.775502659721610184e-05	1.306504418280275200e-07	-1.837865406610965610e-10	5.632162184457382000e-07	8.927262462814926358e-02	1.830084649921949290e-09	1.501484657477485835e-10	2.266802898653990618e-07	2.604313401027490885e-06	5.482070067544238253e-10	1.104776691639430040e-08	-4.722887708952620546e-10	2.815577359717198616e-04	4.883089095144283439e-08	1.116104079455575446e-09	2.299510832103850710e-01	1.702452315394705762e-01	5.726768262806447803e-09	2.608394672911507679e-09	4.398932971415508986e-02	1.554718698845276940e-05	3.195411928104669840e-09	2.390263128732332704e-08	-1.100869803027313210e-09	1.092881788510093653e-05	1.112058746720456098e-02	-8.629348963874142486e-10	1.347807076470410207e-07	3.095815322610288162e-02	3.168134817505496722e-10	-8.201405297803691816e-10	6.307796395420645942e-03	2.838622684238838872e-02	-4.586181825424892530e-10	5.716979239804448885e-09	-1.108873048956608291e-09	3.505847217583136106e-09	-1.104395598274492066e-10	-9.654844122163308372e-10	1.881923705182567770e-09	1.269730638575972465e-09	2.191271457703313164e-11	-5.946486420558721609e-10	5.206935963277168825e-09	-4.470233526360141525e-10	3.239144704565284033e-10	3.783530812299439011e-09	-4.634469590811509631e-10	-1.075056870072199759e-09	-1.406833881379711523e-09	3.451191607324496393e-10	-1.082120490334267090e-09	-1.194863197035861900e-09	-7.341263584994534699e-10	-1.877709021368553573e-10	-1.347037059615960997e-09	-1.343925976007995977e-09	-4.769207717719009645e-10	-8.764302855325767940e-10
-1.551383990793951178e-09	4.026937979430682962e-07	3.006618546757144211e-02	4.811104913265507036e-10	3.029336483776778281e-07	4.249929209900456945e-02	5.740426689455376154e-09	5.838626952482508594e-10	2.302948825560846249e-05	7.850450399720575813e-06	1.772859420508410763e-09	2.686173747859166242e-08	5.859885050905888285e-09	1.898718252275761734e-09	-2.088522306447049210e-10	4.889199756877019092e-09	1.428384234313855263e-09	7.164269812724470407e-10	4.157566478507127778e-09	4.942936760410833660e-09	5.173667886909118089e-11	-7.035908055864856492e-10	2.529379425518489659e-09	1.733532188084096202e-09	-1.479219516789968177e-09	3.006006155851246179e-06	1.769848776971709448e-02	4.066420846476682463e-10	3.924772226135570627e-07	4.917051870102116806e-02	6.826580665680954705e-09	9.720721367335331969e-10	5.762090352064656168e-02	5.114280615296844246e-02	3.323086641870376415e-09	5.920130046988664865e-08	9.494852515399905306e-09	-2.527576289293036740e-09	-3.421443745886183984e-09	4.709554488835149249e-10	-2.898954685545379087e-09	-3.135602354477805071e-09	-2.326002886143428264e-09	-3.144890503429511745e-10	-3.297851318444093356e-09	-3.490761315969949727e-09	-1.462656801605772643e-09	-2.572225517353512369e-09	-7.000415008387865319e-10	4.950439774060219527e-07	9.456757428809440744e-03	2.011676415254356467e-09	5.611604975792676014e-07	1.251812359913087314e-01	9.154472223816039032e-09	2.394080685328757268e-09	1.050007159726369856e-06	4.055913865803987281e-04	4.080126255372199448e-09	4.367528734453404720e-08	9.662744978547916618e-10	1.478051587199047147e-06	3.545828746870378855e-07	4.752335044239309305e-09	1.715798131892466360e-06	9.002611474674578063e-02	1.609967382722481731e-08	5.846124857834823944e-09	2.118519034662095516e-06	2.097787623306191557e-06	9.465130549640942545e-09	9.254507290790928026e-08	4.101178230008025173e-09	7.380859319713947838e-04	2.090316939364165887e-07	1.025659224584809961e-08	2.240425424491732376e-01	1.566932483375962637e-01	3.601601047667719404e-08	1.681549231470836825e-08	5.334883162799494705e-02	1.232127856810353618e-02	2.606931125143977816e-08	7.689926177389106436e-07	-3.493077293837021844e-10	2.266449967704957261e-06	1.891550723547295518e-02	8.855767850975664756e-10	4.264728791215885565e-07	3.498580565806077430e-02	7.473314035410527668e-09	1.307228776609215636e-09	5.210822280041667309e-03	2.042686926050030910e-02	3.528008470203910473e-09	5.079486301586828072e-08	-3.371062259489160319e-10	3.704402699806148342e-09	9.356889212677788301e-10	1.171701573059550380e-09	1.659447989539492540e-08	1.728710801069928929e-08	4.509385086758177150e-09	3.032262154204825296e-09	2.443241390474775988e-08	6.783303861194248798e-09	9.694598238990355359e-09	2.725313950428488397e-08	2.211912626857827054e-09	-4.786937361929301214e-10	-1.582043679516233038e-09	4.867025663517317958e-09	-2.750700021094657228e-10	-7.036036549412149384e-10	9.148176988756768191e-10	7.795233969618952922e-09	-1.122904577183245134e-09	-1.601401669061033028e-09	1.941880966135120491e-09	2.695319361996603375e-10
-1.595129546953949077e-10	1.227639140905879493e-08	3.076089736502801014e-02	-1.152833488211120104e-10	5.855419935218119514e-09	3.140207876426079348e-02	-7.183795162468413029e-11	-1.384687382293486942e-10	1.593295132464117162e-08	8.761929978118452450e-03	-1.228056349176374011e-10	3.963354688907475873e-11	-1.480234085670213620e-11	-9.284743903073389189e-11	-1.370546970709544656e-10	6.701462747105620936e-11	-9.527413492926822539e-11	-1.257324875261246964e-10	-4.333334442728378241e-11	-6.262999780520592566e-11	-1.415301264015291952e-10	-1.501632785781889799e-10	-1.025035279574140562e-10	-1.145697438904993483e-10	-1.524800145751467398e-10	6.034495025096660379e-08	2.738092041225450093e-02	-1.339389039667124611e-10	7.071167907229149769e-09	3.793744901539251174e-02	-5.067472172214561515e-11	-1.330668479348178336e-10	6.133521863258899892e-02	4.627102455318746893e-02	-1.009498751774567079e-10	9.284189973239784123e-11	3.092594110217886379e-10	-1.902821968851293858e-10	-1.956994382600011991e-10	-7.246726198828339282e-11	-1.868552417387490605e-10	-1.911836717860643194e-10	-1.624991792049329164e-10	-1.440145481868860440e-10	-1.933945278172218747e-10	-1.909032248128077367e-10	-9.618130967987258986e-11	-1.586256803978992457e-10	-1.495553218443851473e-10	1.380063319298432174e-08	2.821939328352102252e-06	-1.023219869443791011e-10	1.239094702234611010e-08	1.398573896464726796e-01	-2.708348987863982499e-11	-1.160410434247590106e-10	2.941545234249215816e-08	3.552416319517852840e-07	-9.259375168263232634e-11	1.476022150963370006e-10	-1.210157896384073257e-10	4.564509783743085330e-08	9.978349483273334981e-09	-4.724807465077411513e-11	4.617617533933102264e-08	9.147928262925957010e-02	5.816392154853470094e-11	-8.340323922927673936e-11	1.998269108621250405e-08	1.705773547498449623e-08	-2.015305704142074287e-11	2.944142453877293404e-10	-9.356848453427024195e-11	9.300947969182728842e-08	3.278663564799658083e-09	-2.511758794698764554e-12	2.244805192986935316e-01	1.732524361727420803e-01	3.833293366358232222e-10	2.825807800536766606e-10	4.431499351633208517e-02	1.396688078212764682e-07	2.030663269232704766e-10	3.730659110872023711e-10	-1.323274652816068417e-10	2.597897590601007710e-08	1.475021871234377842e-02	-1.255033854364892914e-10	8.407317242907270178e-09	4.326818487600476298e-02	-4.467679019335767791e-11	-1.296173807981134604e-10	5.602127987314872368e-03	1.914158928489487210e-02	-9.873850775296171313e-11	9.745792179295969882e-11	-1.409184292000306325e-10	5.034641266234159417e-12	-1.082716408803469046e-10	-1.066794277218170076e-10	2.015178902963758950e-10	8.799954370245605250e-11	-6.188356240370755304e-12	-1.049563295685324399e-10	1.264670125607409917e-10	-1.005860858404186499e-10	1.675882091937274119e-11	-3.474496269464845784e-11	5.391883687482073396e-12	-1.304548171330484420e-10	-1.483419890699771077e-10	-6.964168617557742993e-11	-1.249402060712616741e-10	-1.383339302438074361e-10	-5.610238963882458335e-11	1.075454920161058414e-10	-1.493590548067029019e-10	-1.563428760532782178e-10	-8.322393158872991548e-11	-1.091894384466846637e-10
-5.213313585128225617e-09	1.400201488901108096e-08	4.050703351565616145e-02	-4.349593610191404034e-09	2.782861361099778032e-07	2.266628333195759223e-02	-1.662011261011615792e-09	-4.315337832599526497e-09	6.778969395914271126e-07	3.726341595929756698e-03	-3.671241124703429464e-09	1.588987896985305829e-08	1.861530733064304669e-09	-3.218611427764136465e-09	-4.816577859680440596e-09	1.032282330587194956e-09	-3.011895713214970656e-09	-3.844880985990905512e-09	-1.067751328978786482e-09	3.699008487910861813e-10	-4.315297955691818159e-09	-4.756359276896518845e-09	-2.354347269063987938e-09	-3.148844277786503657e-09	-5.034972726634199603e-09	1.159556419848409569e-08	2.575983319832635468e-02	-4.426555930417083417e-09	2.823872289527326858e-07	5.813114757168925950e-02	-9.225688224196901994e-10	-4.109252928775421632e-09	5.959741481742029945e-02	3.693865340073562709e-02	-2.835443626482502665e-09	3.380817257540242078e-08	8.523546976047749838e-09	-6.210362993613251401e-09	-4.946181695834012481e-09	-6.118340608147997012e-09	-5.373249791232696731e-09	-6.448849660200998533e-09	-5.878031457680210548e-09	-5.860288043551856672e-09	-5.841236865035978197e-09	-6.351338169214566392e-09	-2.562089687766849597e-09	-6.255767373769912728e-09	-4.801169028284925266e-09	2.658597709385153502e-08	2.578260822738613969e-03	-3.456190221322557142e-09	6.020938114843532592e-07	1.331539488333797205e-01	3.148968855897678322e-10	-3.294948688039165708e-09	2.196308716402075005e-06	1.402684650066063976e-05	-2.383402554691170224e-09	2.641387276339520976e-08	-3.248304197319834040e-09	3.567263302223376454e-08	2.190588615774613518e-07	-1.271309758313779493e-09	2.801542008413931988e-06	9.130857526802789448e-02	3.889078739517850221e-09	-1.608303432728041346e-09	6.885008998783125337e-07	1.078937701894414723e-06	6.999342200505124690e-10	6.713719887995481951e-08	-1.532297826458737252e-09	5.395079727131940591e-08	9.104856593988457373e-08	5.527236215357718625e-09	2.265471230053023310e-01	1.453676662619837745e-01	1.438054678944673478e-08	1.238746336207025422e-08	5.924377054337465198e-02	1.533786868265920970e-02	9.759164323337998695e-09	5.098132602062807963e-07	-4.782827514280489258e-09	2.098843219244391144e-08	3.457166150880558713e-03	-4.118637860598200203e-09	4.438618114015767424e-07	4.663941926646496955e-02	-6.306174442802268587e-10	-3.914166543068898629e-09	1.697758725124999329e-04	2.884553997126399622e-02	-2.443435934750821951e-09	4.238976121604960118e-08	-4.242695199623923121e-09	5.543154638137365680e-09	2.447650274244785760e-09	-3.476010734228359955e-09	2.074018312903033992e-08	2.274740215240253628e-08	1.005317874140382889e-09	-2.841044413139263276e-09	2.707263273532369324e-08	5.482951368030322567e-09	3.289562359261572278e-09	1.111515117806611367e-09	-3.183056166624591972e-09	-4.657262925824303477e-09	-5.505249875917297133e-09	1.045204956785893403e-09	-4.277514728873832293e-09	-4.689548549691129266e-09	-2.282068497158548256e-09	1.552209656479602128e-09	-5.129545457252541075e-09	-5.416064112685176248e-09	-2.221161374756044000e-09	-3.582987781491569895e-09
-1.026440025552200250e-08	6.088866966114767644e-08	2.893974567198201453e-02	-8.166015724417787866e-09	2.361110116445466798e-07	4.533643699686239897e-02	-5.340862014587104610e-09	-9.647079185868857419e-09	2.013720235464139447e-06	1.478310349438087614e-06	-8.200069057792663722e-09	-3.161746119194111274e-09	1.406255077943148265e-09	-7.204901969328332336e-09	-9.152538303536719267e-09	1.428302439507805235e-09	-7.356349043439078257e-09	-8.432037913757867633e-09	-3.923040476207051601e-09	-6.837520535334391676e-11	-8.804462979707377881e-09	-9.889328248875608091e-09	-5.159100060419085638e-09	-7.687827626090645063e-09	-9.558501431876256548e-09	1.349429332232959253e-07	3.528601812773695529e-02	-8.620866719460860322e-09	2.794586004324165593e-07	3.175562728671259966e-02	-4.282001641441460409e-09	-9.429986807232073014e-09	4.944759095947393740e-02	5.405623056851512759e-02	-6.323452775725987236e-09	-8.975537280218858018e-10	1.223443073979435121e-08	-9.377138234804821606e-09	-1.269895945189729878e-08	-1.188421935391904312e-08	-1.123905029082509139e-08	-1.241872896927417253e-08	-1.011388125992935842e-08	-1.110894454858262116e-08	-1.138455819197611528e-08	-9.286116377210247964e-09	-9.243268632547078911e-09	-7.042465920606605874e-09	-9.437505540083209819e-09	8.429489465114163673e-08	5.171936015079555251e-04	-6.269488236915403838e-09	4.484456790244784758e-07	1.188533755195343294e-01	-2.566613740015475933e-09	-8.346561363081623355e-09	8.000543171110530706e-07	7.647216144620681832e-03	-6.081464339131135384e-09	5.739086226158484559e-10	-7.205355337023196124e-09	1.239904909376312385e-07	3.044813017742842969e-07	-2.697669548512976702e-09	1.354222732690920087e-06	8.908671311050074537e-02	2.656462462035205048e-09	-6.747873422971061657e-09	8.780313060922490423e-07	3.074391363330432910e-06	-6.332894287559763343e-10	6.412631296209010587e-09	-6.699665536374775780e-09	1.509994515149943735e-07	1.445626973934953842e-07	2.039206216163371035e-11	2.268715336689504369e-01	1.635928143198049911e-01	2.646270822777798865e-08	2.394363778712880783e-08	6.317864181973813220e-02	4.204808048508192509e-05	6.403353534263412156e-09	2.374837334200071451e-08	-9.225457898060642235e-09	9.516278695166772908e-08	8.841686764261202577e-03	-7.860705672439141578e-09	3.177854734698249080e-07	5.544913963579255894e-02	-3.913420529180340527e-09	-9.165303434986679786e-09	8.303265290239164945e-03	1.278309350059143000e-02	-6.072048437686798118e-09	-7.924734834381359398e-10	-8.718987967463447500e-09	-8.706744493562631751e-09	-1.052714541759350852e-08	-7.287705242991954613e-09	6.396039378074389191e-09	9.935510207882422239e-09	-5.982387876017506809e-09	-8.411762274226494534e-09	1.379914331656439867e-08	-5.838785085288649412e-09	-9.221863341512189174e-10	7.460330507108624518e-09	-3.764117817130667446e-09	-8.805113599158796935e-09	-9.988657848103154351e-09	-6.099780422345092617e-09	-7.694623947041393806e-09	-8.616717215131124774e-09	-6.298406587528181956e-09	7.819432257140282654e-09	-8.978227115611085876e-09	-9.779886318457738674e-09	-6.588176104430939247e-09	-7.530379242585389121e-09
-2.052748467181972130e-10	1.421276188147151971e-08	2.887089625402453411e-02	-1.326218850894469938e-10	2.046767770240417385e-08	4.819756455799716066e-02	9.491697111020179927e-12	-1.494664763962729279e-10	4.754016726933878002e-08	5.164831164701155716e-07	-1.124133173218775975e-10	4.971581615907377394e-10	8.301340250061093983e-11	-7.699401801064660610e-11	-1.691732677552331938e-10	5.436335563908817931e-12	-8.471179809525567803e-11	-1.189095771363073847e-10	-1.617671625630688585e-11	1.801674625493422562e-10	-1.336719665794399412e-10	-1.702367182905365956e-10	-5.574754041738372725e-11	-9.119822298437412610e-11	-1.936537901945246026e-10	2.995373115949502849e-08	2.163676310740956371e-02	-1.408454648201897495e-10	2.422125489540113304e-08	5.193934827561817735e-02	5.642792330801151487e-11	-1.368240866883574161e-10	5.764181942986422447e-02	4.401476560651482878e-02	-7.555947056593478315e-11	8.282329401852852615e-10	5.591638397853633860e-10	-2.540496873818594492e-10	-2.026459475052314095e-10	-2.458218710459653780e-10	-2.332995975812595627e-10	-2.620359640073133918e-10	-1.919247981018532420e-10	-2.401578241793120370e-10	-2.643446694939119887e-10	-2.609570672903722830e-10	-2.050135632974670665e-10	-1.963443142909793530e-10	-1.845966319136451700e-10	1.672445756793764072e-08	5.341670544104660384e-03	-7.648154362440734987e-11	5.660009404735152481e-08	1.322091282309141302e-01	1.249002740004467740e-10	-9.370071679503930455e-11	5.171979643196892646e-08	5.103958683369127581e-04	-3.502010287317691436e-11	9.298284406912400577e-10	-1.166027542023270240e-10	3.859513867964899984e-08	1.928848266586822216e-08	2.535150988747175592e-11	1.742355894969528709e-07	9.366873311810569591e-02	3.326943252867634585e-10	-2.511543303415440367e-12	3.348607381210536466e-08	3.559125902522217291e-07	1.343636919404234543e-10	1.731159824335595496e-09	-2.470873503371502342e-11	3.958823754571078627e-08	6.504219826180165101e-09	2.806739256618710318e-10	2.142528896931356619e-01	1.532543528134214517e-01	9.954034974043833122e-10	3.667209732218306220e-10	6.486887079231133668e-02	8.877445905051978975e-03	5.909462225511291574e-10	3.678852123958542203e-09	-1.795738187470905045e-10	2.678312097175190239e-08	2.016141987882274014e-02	-1.193211860676701540e-10	3.719493446821009629e-08	2.509708905775960910e-02	7.880469626127206482e-11	-1.230903994324820154e-10	3.263831928592667447e-06	2.945206661462791004e-02	-5.130404147571545389e-11	9.340427778442814929e-10	-1.693863390423968668e-10	1.675619226376691387e-10	-1.630761437691962884e-12	-1.224706308116795386e-10	2.721779866158666214e-10	2.430119411708744461e-10	1.151793770356868292e-11	-1.115974288734582492e-10	9.493453558826318254e-10	-6.334531031623573646e-11	-9.824771620149075713e-12	2.696644245182637545e-10	-3.786224251353154175e-11	-1.614857266383116306e-10	-2.071105344936281803e-10	-1.660583435808850773e-10	-1.567298934762221160e-10	-1.711915516631581442e-10	-1.318429821594133006e-10	3.675645614840589193e-10	-1.860628639792984616e-10	-1.979025086977151465e-10	-1.266867730047164246e-10	-1.468977520287239753e-10
