-2.260116781525750434e-10	-2.069185461296677685e-10	-3.318132106681332526e-11	-2.366824156176684897e-10	-2.116755607085632314e-10	-1.836432845903498408e-10	-1.786588031683233388e-10	-1.998953681643519383e-10	-2.440457812403714102e-10	-1.747459867684559981e-10	-2.314757958104316729e-10	-2.851628075864977816e-10	1.569372678120333156e-10	-1.942649741842882329e-11	-1.223407449615331269e-10	4.266665696968472453e-11	-2.955189867630149979e-11	-3.930693747779852153e-11	1.416062404769503640e-11	-5.726718372198784288e-11	-9.163089065329695442e-11	-1.293592812465592744e-10	-3.515372451226217463e-11	-4.897029414066176108e-11	-1.177755430694855223e-10	1.661800240643520175e-10	3.124757252544119179e-02	-1.240212426438967063e-10	1.864168659395653999e-09	3.367227169845640744e-02	1.196305432769723693e-10	5.895979046604452382e-10	6.906887042801580778e-02	1.722649721838853121e-01	-4.744279711554366287e-11	3.514380798623434008e-10	-4.011887616668356592e-11	-8.755619850575338246e-11	-1.075538858185301320e-10	-1.009858130379255702e-10	-6.570720609986850216e-11	-6.620527501985266058e-11	-3.864142093836721980e-11	-7.562811785786229904e-11	-7.813668305448887409e-11	-1.341369583448242261e-10	-9.501703608085797128e-11	-1.723631755020997601e-10	-7.560564643087015286e-11	2.295976704144066300e-10	1.772603418665015529e-02	6.152604531544162154e-11	1.934802655731722229e-09	6.790520693273138786e-02	1.949473419238428381e-10	6.779757316303830927e-10	1.440750760868773660e-08	5.731974806448805054e-02	-1.234375415900778054e-11	3.787867630010875522e-10	3.879270922304933218e-11	4.187533798891469810e-10	1.704496326620738364e-08	3.829715268549928923e-10	3.051867283235387522e-09	2.776826342203134179e-01	4.259856532818419270e-10	1.115768733700189080e-09	1.380571918492531609e-08	4.965406705964828247e-09	8.164174604004026084e-11	5.159570747235747920e-10	3.050621983614785158e-10	6.504583400629984827e-10	2.575982840177254741e-09	2.122141513224890621e-10	4.134731557793789955e-09	8.405118912203339565e-02	1.279060463300564286e-09	2.971172787556634624e-09	4.756101089927595956e-07	1.652171455480878411e-09	3.239304260507410294e-10	7.784410107974444038e-10	-1.608301524678922441e-10	-1.467504428107269760e-10	2.316072210996816039e-10	-1.886849468224829119e-10	-6.005852701860810647e-11	-4.838609464544854826e-11	-1.322652849469362713e-10	-1.024767191939325889e-10	-6.098226936245649876e-11	-1.007589813580547145e-10	-1.514478403384489333e-10	-2.340390846772901750e-10	4.323393992801776269e-11	4.251195057293533153e-10	2.769727910113856556e-09	-1.708860246660472473e-10	1.747863547056603827e-09	4.344033261590791967e-09	4.542539671735518799e-10	1.224275496195099719e-09	8.761127847265368085e-02	1.014496474679669608e-01	1.210234465387926204e-10	1.933330586005056707e-09	9.520071024759760851e-11	4.067074963891770907e-10	1.488791139390617176e-09	1.544333302163081023e-09	1.716568602646438190e-09	4.185282800704053857e-09	3.508460704498398957e-10	8.363078601634823841e-10	1.639089877021559452e-09	9.812592133758919740e-10	5.000585583137756086e-11	5.593283151686378403e-10
-4.650822487317711768e-09	-3.522982489303325219e-09	-1.840949291416947855e-09	-4.055301990034506894e-09	-4.288244860802276074e-09	-3.314011259382970871e-09	-4.085957444950486534e-09	-3.617485557065162108e-09	-4.582160294480515682e-09	-3.965231012410650099e-09	-4.470959438814854106e-09	-4.105326437221762736e-09	4.209287799810980721e-09	-3.210717591922117180e-09	-3.945097631134775110e-09	-1.057182730055281954e-09	-2.826079432526859310e-09	-2.825041004353701275e-09	-2.165168612346413294e-09	-3.110185604666640169e-09	-3.452271079931071830e-09	-3.740078909505337801e-09	-2.590447011870189192e-09	-2.014725124230747908e-09	-3.285704169295375400e-09	-2.776456880097247596e-10	3.207649353903301720e-02	-2.531967567806198342e-09	1.839830268718875827e-08	1.946689278343149239e-03	-1.205486146069858894e-09	3.280693700509791113e-09	9.802304141488836497e-02	1.718724348005635227e-01	-2.502184673903825193e-09	-2.393440007351293854e-09	-1.902066684022006419e-09	-2.659922030776611958e-09	-3.701973577799434884e-09	-3.010097511475932214e-09	-3.350082090056283106e-09	-3.318178800978576422e-09	-2.553814089423571037e-09	-2.926305768273505292e-09	-3.243149445579312863e-09	-3.948436943249165944e-09	-3.276349873748773647e-09	-3.573188281699103769e-09	-2.936301657019864538e-09	1.878993571998944270e-10	1.434236366096218636e-02	-1.754032846779296256e-09	1.522828894533301826e-08	1.043522471349581093e-01	2.276883411139237436e-10	6.776019594041435283e-09	2.895888296860157224e-03	2.913589601005939569e-02	-2.362823238941524668e-09	-2.165073241331474798e-09	-1.715866011239168463e-09	1.387801260780109004e-09	4.537466866399256946e-08	-6.301802904339704740e-11	2.667753634942080086e-08	2.863378380555013925e-01	2.675636746410011196e-09	1.162933698933580324e-08	4.405519783501238396e-06	2.552691580091390604e-08	-1.618532471310046711e-09	-1.494050465605612560e-09	3.533497023334029741e-10	2.306496478686916830e-09	1.509649785368185935e-08	1.670186003748908646e-09	3.711617870216433000e-08	7.882173947334783493e-02	1.119607070411085356e-08	3.281098280914905062e-08	2.513531285157852464e-03	9.955974841543475547e-09	5.246863436915483651e-10	-4.868822513004424193e-11	-3.574657350256267298e-09	-2.610838396372438672e-09	-1.819015117319456929e-10	-3.163223954868330735e-09	-2.748815407490288992e-09	-2.268977984064966797e-09	-3.443120975919238678e-09	-3.083099766989490887e-09	-2.412991369048605460e-09	-2.379042760112442773e-09	-3.625572216321732013e-09	-3.894562231210392761e-09	-1.475543317615212401e-09	1.521798001383898850e-09	1.684684838736438921e-08	-1.933284632624514955e-09	1.284213297219343151e-08	3.312096816810577744e-08	2.661551612893612316e-09	1.100868452907249168e-08	1.688391331126274861e-02	1.607933169444194510e-01	1.528494766053710135e-08	-4.224885328462936250e-09	-1.072421303749726044e-09	-1.311172023089230731e-09	7.887033665751878120e-10	3.948657599320672080e-10	2.939679572293848636e-09	9.308585263861568599e-09	-5.683176323465245944e-11	5.294707524162671171e-10	1.073207589661681223e-08	-7.254323323647172426e-10	-2.108254843679877653e-09	-1.766516264064428974e-09
-6.569867673406263062e-11	-1.530327122377244465e-10	8.906447527340929278e-11	-2.024931945178430960e-10	-8.386411478109264698e-11	-8.034725655203693903e-11	-8.183605233059283325e-11	-7.883743133522774456e-11	-1.215176622408939082e-10	-1.265043975386652635e-10	-9.864096704857304458e-11	-2.629214112090192111e-10	7.338796865893884585e-10	2.629362193958791226e-10	1.264926266909743368e-10	4.951669971006766688e-10	3.163298455021431597e-10	2.828685152816779823e-10	4.262420733756212888e-10	2.993200373065872001e-10	2.250235484849766345e-10	1.130446990726654352e-10	3.940621389421790488e-10	3.578794280777938183e-10	1.891004945285605395e-10	9.010591936266440443e-10	3.167008947179818235e-02	1.262521796100362110e-09	5.577597293885852543e-09	3.077350629569705620e-02	7.967257562893647910e-10	1.997645516855187030e-09	8.650414828476071794e-02	1.631637579123159099e-01	4.542029873930110783e-10	3.348832971633613158e-09	3.340741961262708089e-10	1.990675290020986144e-10	2.303764822228537098e-10	3.201420153083561551e-10	4.005638827201367877e-10	4.002792911528742709e-10	3.486586873780372944e-10	3.468414761416666871e-10	3.580374598299521834e-10	2.020620797067768128e-10	2.554449244584643095e-10	1.080726530078074295e-10	2.978174518266734676e-10	1.067347332563811088e-09	1.886704040020801762e-02	2.281438964975493299e-09	5.758417211199372839e-09	7.941716085497445288e-02	1.056599177983463036e-09	2.495535180881840585e-09	1.469296651894846140e-07	3.999115247479487906e-02	5.372276003784698458e-10	3.465398169106174234e-09	5.762188374736474145e-10	1.570759938911374483e-09	3.699200321412511382e-08	4.035462467436606244e-09	8.703406486570295058e-09	2.857962895558326388e-01	1.694605200274477060e-09	3.815854912587717877e-09	1.722065161632450263e-07	1.340405502860556469e-08	7.970696115762811022e-10	3.996288111636714689e-09	1.234242908878112727e-09	2.197215402576165685e-09	6.415195051026383084e-09	4.736361196321051711e-09	1.264302457999265233e-08	7.045098767987226229e-02	4.068742668536412532e-09	9.503685088617360299e-09	8.544789851538767134e-03	5.218051523650819057e-09	1.536671830665556669e-09	6.075130467260583484e-09	6.119227148873434955e-11	7.859151724002801335e-11	4.640469552344074723e-10	6.683342217957359695e-11	2.859786603013991337e-10	2.931314010202869932e-10	1.319504392464507818e-10	1.899409371189503914e-10	2.571499934074060724e-10	3.038028766245701207e-10	1.123109474498219109e-10	7.150398814816602616e-11	5.500825780118787827e-10	1.462661723829268247e-09	5.963085899075126325e-09	1.112967875931849440e-09	4.834049616822765594e-09	9.938665232569660579e-09	1.663358202787423072e-09	3.610078091903306998e-09	6.275523100344732041e-02	1.220652461402055161e-01	4.408179291283155356e-10	1.534986771139563814e-08	8.642755063190704622e-10	1.545806063513924128e-09	8.279273442382354311e-09	6.868979703241975903e-09	7.661711138455570371e-09	1.543105843469929009e-08	1.502289114005788747e-09	3.242969143329369618e-09	1.261787480415558568e-08	3.944918591917355635e-09	7.621589092588389194e-10	4.003240524288865056e-09
-2.137420905509415092e-09	-2.407475189083124803e-09	2.321447834812161091e-10	-1.813539643429024677e-09	-2.207349597643635104e-09	-2.052078741480539954e-09	-1.579339131568565121e-09	-2.426654066958907520e-09	-2.379303691242429769e-09	-2.373571857290677972e-09	-2.094878725950517910e-09	-2.074222434933488154e-09	7.250548536296645871e-10	-1.106695235734024033e-09	-1.842760861102956279e-09	-4.100656131361435177e-10	-1.431269727119223987e-09	-1.355881572158035677e-09	-1.007998781332699820e-09	-1.500204734061505433e-09	-1.677731813510783808e-09	-1.794608834978438245e-09	-1.273407993696545864e-09	-9.427894800408205030e-10	-1.621079547096746195e-09	-1.961476585443781282e-10	4.139132153837495054e-02	-1.576194599974376562e-09	8.527413800580772188e-09	7.454926858251296161e-03	-6.738604179854561055e-10	1.490458917140227126e-09	8.464045316552185061e-02	1.651765315876245754e-01	-1.097900690589384049e-09	-1.490457718447671935e-09	-1.106672843833164368e-09	-1.432457072226527236e-09	-1.681635467099030524e-09	-1.548173882088465566e-09	-1.638747712204784871e-09	-1.682852644925205430e-09	-1.219965120359926398e-09	-1.470420683500094102e-09	-1.643894359057954173e-09	-1.957737771530003818e-09	-1.883289482046743631e-09	-1.884207984771320201e-09	-1.495994577915863494e-09	9.254123228475591595e-11	7.607032198272857884e-03	-1.364771163635200123e-09	7.330194526836578041e-09	8.433210011033753783e-02	-3.921932718087487017e-10	1.691240339937817844e-09	4.873128771330598313e-08	5.390175993777383129e-02	-1.129757131270576790e-09	-1.292414000815815482e-09	-8.592865846974667811e-10	9.741808626368956062e-10	1.007729099358997391e-07	-7.562359716627685895e-10	1.267659699667580154e-08	2.932031773377757888e-01	7.734173788408523846e-10	3.834450960588689827e-09	6.558432611160660121e-08	1.838998287798805296e-08	-6.721658708994911627e-10	-8.730941032740891167e-10	1.182657569645740732e-10	1.144278307504565479e-09	8.965502696630891028e-09	2.192793835810734252e-09	1.717354883117764222e-08	8.013199296000976524e-02	4.916842887362447765e-09	1.383237771892649858e-08	2.420648874540777865e-04	5.370233468705642588e-09	3.036948573039631479e-10	-3.388004617550709199e-10	-1.727272104148646421e-09	-1.298221313888273243e-09	-1.067747567890883091e-09	-1.632040781995291823e-09	-1.449539193868311842e-09	-1.045707414754956081e-09	-1.809164877578347704e-09	-1.673459446467010853e-09	-1.338721713970468049e-09	-2.120642761243151928e-10	-1.712580381979158171e-09	-1.973741774493671991e-09	-6.047233502020662538e-10	7.945542350912009608e-10	9.444372309508268714e-09	-1.353747906110808517e-09	6.449294682200086532e-09	1.726389378956826400e-08	8.772131475644192996e-10	4.332402491155620718e-09	7.306863226656169774e-02	1.088497262919679298e-01	4.609936402766230103e-09	-1.971931150468467730e-09	-3.548477025480914242e-10	-6.244845203889909598e-10	8.375905564275256475e-10	-9.036864969224420950e-10	8.215104603389025880e-10	5.671711777892507291e-09	-2.967416507269150620e-10	-1.575714621313022648e-10	2.406045802381641875e-09	-4.690618182917064672e-10	-9.556234649187591620e-10	-9.898541134115217231e-10
-1.866654853900890562e-10	-3.124992832600351208e-10	1.921251930782333308e-11	-2.552816624565828240e-10	-2.375900974220066637e-10	-2.293102964849595503e-10	-2.228072800051640734e-10	-2.163523147981255439e-10	-2.596276128799032475e-10	-2.175271446077829781e-10	-2.540635405111702708e-10	-3.837219844134097763e-10	5.790081583783930819e-10	1.184546148408550226e-10	-7.608357139234539734e-11	2.850426250101036382e-10	6.299027285052029779e-11	4.878408503388705437e-11	1.672133049243086038e-10	4.073099909520312420e-11	-2.260311699016067147e-11	-8.742996418316788345e-11	1.389747435873604711e-10	1.358378842886502706e-10	-2.329419831353434985e-11	5.792454921898784810e-10	3.621987866579520071e-02	4.789805949902755590e-10	4.722812656918475123e-09	2.296960759956715240e-02	5.077702450881639606e-10	1.524618381348783827e-09	7.409623675235188500e-02	1.729674684813999330e-01	1.616590286557102027e-10	1.631454476467739524e-09	1.444749113498368511e-10	4.940859312359620522e-11	5.044306026077188509e-11	1.199273619408616611e-10	1.593431468461764366e-10	1.623921939029051851e-10	1.742022843677020517e-10	9.927970195841221625e-11	1.137047391936302581e-10	6.528365663178754502e-12	3.697240263157595275e-11	-1.154752550744240561e-10	6.306798352455113177e-11	7.656428411346613174e-10	1.202205600578441780e-02	1.292502712965059624e-09	4.633393515968029108e-09	8.639892642487986829e-02	6.729568929162389204e-10	1.735469232456486627e-09	3.366466338590087117e-08	5.612443466146477267e-02	2.332906350335200609e-10	1.446811183921330525e-09	3.117406086099021242e-10	1.266946247554961123e-09	8.034014729412352932e-08	2.410674373158619917e-09	7.003168643824788919e-09	2.792464431744938191e-01	1.174800086178902341e-09	2.699594374680031991e-09	3.782909845205235743e-08	1.139228301890127014e-08	4.451797874708366015e-10	1.794152979950298948e-09	9.532142284654350867e-10	2.011409241913203938e-09	7.967271878681712778e-09	2.618349113156094109e-09	9.587584858403060239e-09	7.921883996013374951e-02	2.929852074088125615e-09	6.310074546621469823e-09	5.295004815546065958e-07	4.014034799799361472e-09	1.030054471830214274e-09	2.977063672279654416e-09	-1.203503608339399490e-10	-8.562755969118847401e-11	4.257310892805343125e-10	-1.299667479119015180e-10	8.178470481241041308e-11	1.543701618499311959e-10	-6.732659730177156113e-11	-1.566398727471527480e-11	9.352630634571731869e-11	2.494501369944815327e-11	-9.461499365812537153e-11	-2.375516933143897258e-10	3.444381301738876803e-10	1.235238911160399642e-09	1.142214831441654271e-08	4.931150896138607115e-10	4.134688372512101917e-09	9.904177269103911577e-09	1.223406285451449651e-09	2.868644304989277856e-09	7.976482834253578735e-02	1.009704250613604054e-01	3.379292007657213968e-10	5.657394042630208371e-09	4.838542891385131279e-10	1.376629486353822844e-09	6.582467449396053857e-09	5.289253135434408909e-09	6.317988382648396406e-09	9.198263339627594631e-09	1.167643764757356734e-09	2.632801149560178351e-09	7.511248474022234072e-09	3.659945856453541008e-09	4.505099365293521575e-10	2.255083772225219736e-09
-1.831471836236291829e-09	-1.827299595479911830e-09	-2.152720910422716390e-10	-1.567126024213733105e-09	-1.837371218889416236e-09	-1.694531288814343812e-09	-1.428645788283208027e-09	-1.934809810495308350e-09	-1.891849914893662179e-09	-1.833212000948864192e-09	-1.882226729802514490e-09	-1.861723259682246119e-09	-1.649687719927287872e-10	-8.407416446616145989e-10	-1.435484449159995257e-09	-4.438466147422064108e-10	-9.634745638304033723e-10	-1.014079996152468102e-09	-8.227605975697008072e-10	-1.185291392634978606e-09	-1.338848563056232165e-09	-1.501704791681047448e-09	-1.061693085537054325e-09	-9.613243461848392043e-10	-1.361433617242190920e-09	-2.143082556707854080e-10	2.311453562163451672e-02	-1.519778312485167595e-09	7.305960182637196801e-09	4.288919471058717618e-03	-5.929987969717644138e-10	1.121640482508684667e-09	8.574066615625415555e-02	1.964056554656576359e-01	-9.972456608899921034e-10	-1.312433594412720970e-09	-4.737050779588466535e-10	-1.565358224724533670e-09	-1.521186344891963129e-09	-1.430399737278987744e-09	-1.387595780783670152e-09	-1.377174411709141169e-09	-1.323953869038778943e-09	-1.238289762607106032e-09	-1.265864422859684408e-09	-1.614068926139695920e-09	-1.264969111299787145e-09	-1.708507145042616476e-09	-1.260784859321249919e-09	-8.091365671051532925e-11	2.441050915969210366e-02	-1.310450570447034887e-09	5.874255155735731211e-09	9.090863447900178473e-02	-2.400162760272256782e-10	1.747727385334312030e-09	9.989746924180542539e-08	2.755092163948115805e-02	-1.015066247510599672e-09	-1.198690359646799746e-09	-7.931239054837471864e-10	5.673595574508158788e-10	3.156495487842816750e-08	-6.937227170543696974e-10	1.012286078454034278e-08	2.843119137365601734e-01	7.055403181257265063e-10	3.508159425328197799e-09	1.247719377471904576e-07	1.305818233374542576e-08	-7.047735009197457588e-10	-9.724653204536635781e-10	1.000422550802386009e-10	9.270140335133516820e-10	6.912892085094952251e-09	8.398422804425881463e-10	1.473578582818613631e-08	8.010017104108455022e-02	3.516474503300654280e-09	9.575481427006885485e-09	2.447512695964936399e-06	4.499469346799808789e-09	1.689633539887193645e-10	-5.485321371463881733e-10	-1.510625616102988677e-09	-1.079132654792687356e-09	-1.605357625246526855e-10	-1.506829433984608628e-09	-1.154154092614001383e-09	-8.983583037776468625e-10	-1.473134037682007759e-09	-1.330704521736056311e-09	-1.083750415602984054e-09	-8.791104769353181075e-10	-1.520740613734431667e-09	-1.806910494439681658e-09	-7.689517247980112302e-10	5.238132132279538502e-10	6.524323403595017016e-09	-1.536292084308525562e-09	4.928414591885574252e-09	1.259832634374805347e-08	6.762908347061274877e-10	3.456968467916491180e-09	5.345197342524964784e-02	1.297133501784139831e-01	4.749447682134416298e-09	-1.541102951281218492e-09	-5.754151690110056493e-10	-4.925956393168673600e-10	8.087884635176043950e-10	6.026916131934863169e-10	1.176809774251059634e-09	6.292951176984162509e-09	-2.999124633935735515e-10	1.172517798022067197e-10	2.163560807552859376e-09	4.865343410878922998e-12	-9.739786730194053305e-10	-9.134968181074428104e-10
-8.474340344932075553e-10	-1.004898824458490918e-09	-4.961295347176517788e-11	-7.853390646531823710e-10	-9.573667206945120531e-10	-8.810650194077631692e-10	-6.731635945446066409e-10	-1.036103295028620103e-09	-1.024698949410093524e-09	-9.502474355785788730e-10	-9.717327674163994268e-10	-8.982867229547122840e-10	3.477181179905956559e-10	-4.945915604992491664e-10	-7.883658409538422463e-10	-1.558404088860523537e-10	-6.099931090223989491e-10	-5.716878501597067127e-10	-4.372974457313105572e-10	-6.627065410075091635e-10	-7.317282527646877007e-10	-7.753918921255426271e-10	-5.869951544480980290e-10	-4.580501855982925326e-10	-7.107932224040608180e-10	-1.111839934171022781e-10	3.634196552744672210e-02	-7.045112051545853447e-10	3.261093467324161611e-09	1.696340655298091832e-02	-3.028476934866775288e-10	5.676698671543632472e-10	9.036211907559286993e-02	1.663670765717241984e-01	-5.290964202753081857e-10	-5.555501276222403465e-10	-4.316679207199971938e-10	-5.978369969934662219e-10	-8.043383157668209085e-10	-6.991178833574105363e-10	-7.226183089657092352e-10	-7.190127308739485186e-10	-5.063331847771553405e-10	-6.885622117523485956e-10	-7.156947901591573807e-10	-8.181479474025930927e-10	-7.065884871965314948e-10	-8.818018196637165835e-10	-6.292764122399555254e-10	4.405764826226770764e-11	9.922264021545426985e-03	-5.667990790214414925e-10	2.974615747124440295e-09	8.732183582950331369e-02	-1.986292021450747436e-10	6.611516407853863841e-10	1.700903174697478510e-08	4.801744604548630752e-02	-5.156153625844781922e-10	-5.119335522358791258e-10	-4.002750639372276739e-10	3.121117733063359269e-10	1.633419759163202189e-08	-2.597606922742974874e-10	5.214337609455514473e-09	2.804608956773977368e-01	2.654090665834011623e-10	1.471615495959076032e-09	1.796134310166248713e-08	7.128569346548024470e-09	-3.201237300575466417e-10	-3.194063110888623412e-10	1.515368430045234316e-10	4.301126467672761060e-10	3.351567276554615441e-09	6.378498646342200539e-10	6.750790226901899242e-09	7.186960726532093391e-02	1.633248821189046939e-09	4.150987323908289436e-09	7.303315187408845814e-07	1.832246097018568675e-09	7.939850356761080673e-11	-2.092973926997300041e-10	-7.751719198983010327e-10	-5.836674491602220735e-10	1.158564796565939637e-10	-7.342411925883173786e-10	-5.861901900848794199e-10	-5.161678830850907114e-10	-7.589440378452916699e-10	-6.817721889019987480e-10	-5.683856327108278367e-10	-4.843653019794447613e-10	-7.647116642909580591e-10	-8.950554185954282707e-10	-3.383432011706045257e-10	3.881710222002680236e-10	4.266766960176441185e-09	-6.458807876828671855e-10	2.820094170456678242e-09	8.192310412980402242e-09	3.247675603376922397e-10	1.776427456825672989e-09	7.173072943627938070e-02	1.206418486199724999e-01	2.716349365080630255e-09	-8.853795007315594053e-10	-2.274746746284952553e-10	-3.283107745056970961e-10	2.352631545473577370e-10	-1.569414561871516720e-10	3.423143938505481817e-10	3.342128598809191499e-09	-1.927072128479373585e-10	-1.483365701988404406e-10	8.400595571885598157e-10	-2.437674750829384516e-10	-4.756956198509197724e-10	-4.050100156354943734e-10
-1.307570896661138750e-09	-1.418862634312292018e-09	1.849683151955598678e-10	-1.127746861153882244e-09	-1.299805947353382518e-09	-1.274957982527818464e-09	-1.003834500174097142e-09	-1.196631672988925562e-09	-1.402376942238820046e-09	-1.299201149493903372e-09	-1.293364146527276015e-09	-1.366280335006013297e-09	-4.361649719837334645e-10	-5.997355474823130239e-10	-9.715775474540552383e-10	3.148401564547896731e-11	-6.848809801123995131e-10	-6.031302186991332852e-10	-4.619993526888949827e-10	-7.791459646491996907e-10	-8.802108788807959845e-10	-9.482573888348808966e-10	-6.740611229203926600e-10	-5.619509333396560220e-10	-9.770132687259133564e-10	-2.156718263097220357e-10	2.864084357600100300e-02	-1.251340893397730369e-09	5.634881346959884499e-09	9.187784962092085742e-03	-2.765400829250953172e-10	1.117732307634691905e-09	8.186255560442148860e-02	1.817419366733487307e-01	-1.026486804400974592e-09	-2.783938962591199955e-10	-7.900939922993209781e-10	-8.276107780536240210e-10	-9.250448379917509477e-10	-9.047332254486929891e-10	-8.271237337205836425e-10	-8.356284616929741230e-10	-8.853941559400801999e-10	-8.313985553289009887e-10	-8.133153969765139525e-10	-1.018232518903906657e-09	-8.095553854932800195e-10	-1.178299053555718852e-09	-8.867449095244016855e-10	1.765050936959607038e-11	1.445741914665752380e-02	-8.941544044345679090e-10	4.904712853206622918e-09	7.444920746760437524e-02	-5.900396203843672035e-11	1.335132123738448831e-09	4.469200193390206330e-08	5.052252213670163639e-02	-7.961078795449937123e-10	-5.094451113820233470e-10	-4.956493591674882935e-10	5.141788928850196485e-10	4.966638386480613619e-08	-5.050797578020412602e-10	8.345685649289209297e-09	2.900319669773626097e-01	5.948244297748286213e-10	2.600971211016723443e-09	3.948626777711666014e-08	1.530244365707228864e-08	-5.228466493511600197e-10	-2.115356173463662915e-10	2.515485660171105792e-10	8.763729923020339522e-10	5.300747771182607005e-09	-1.265557161847795174e-10	1.085665879681288432e-08	8.015640273596903731e-02	2.935399960327824750e-09	7.519285722339737391e-09	3.945339379810987421e-06	3.804050092689903772e-09	1.159415284636425842e-10	1.681977995761551046e-10	-1.111525140927417168e-09	-1.068460029477230310e-09	1.146935107853344616e-09	-1.053788608902619754e-09	-8.091496087153446292e-10	-8.174115157782405751e-10	-1.001421613876800294e-09	-9.082427023399065873e-10	-8.210936888187876387e-10	-9.065918280382099176e-10	-1.104628008788494076e-09	-1.333304010346054125e-09	1.406412515752240056e-10	6.743458116911014871e-10	5.761506891836920702e-09	-1.391111013823543656e-09	4.654243218183815902e-09	1.303362739277083828e-08	6.698885448064943111e-10	2.890200572057275177e-09	7.794991883928716059e-02	1.109952949062874977e-01	3.487194124615980472e-09	5.178137033254994663e-10	1.641144716477218578e-10	5.493454515632087444e-11	2.319879522523684196e-09	1.442856068673021752e-09	1.875823670423985746e-09	7.529239758122968487e-09	1.018411449392053294e-10	7.552201902171638852e-10	1.526440898110581581e-09	8.581302102865349690e-10	-6.415453941875702746e-10	1.150978212715158267e-11
-1.359327540841484014e-10	-1.666778726428772492e-10	-2.297730754875040087e-11	-1.723156642224949220e-10	-1.565141781407350157e-10	-1.393949879991557394e-10	-1.149432193284487703e-10	-1.722621173917365133e-10	-1.616582778453157926e-10	-1.680888302974580980e-10	-1.623086289017786966e-10	-1.831880991649483549e-10	8.046461196693787438e-11	-2.412888427168715913e-11	-1.023491047957915128e-10	-1.920843405040218738e-12	-4.879052841286554880e-11	-5.527627739499061857e-11	-1.115072273389246414e-11	-6.212281617474283312e-11	-8.434747729766930153e-11	-1.071687447074747844e-10	-4.596161977903638701e-11	-4.589315080452704867e-11	-9.950640555478674087e-11	8.402021903339210664e-11	3.831715564618051739e-02	-2.531270310387275375e-11	1.439194478997154941e-09	2.423941241276882791e-03	5.318896314999570595e-11	3.483237367382457498e-10	7.920198117805871130e-02	1.813212713596292491e-01	-8.083059124153542597e-11	2.000745596098574102e-11	-3.924935512811219788e-11	-9.489722518429389922e-11	-1.061540649737468939e-10	-1.246376145601973435e-10	-7.804462406477280741e-11	-8.131336947131845395e-11	-5.320734735784019712e-11	-8.416686733698700916e-11	-8.892708319843731991e-11	-1.208192943449899390e-10	-9.822584359931973228e-11	-1.320567441263354130e-10	-6.350470237575010253e-11	1.688897725517716761e-10	2.974094807949934430e-03	2.134437645327148836e-11	1.193174945799435869e-09	1.006223095663650452e-01	9.973108942339259316e-11	4.085347380546031407e-10	8.121038001155019682e-09	4.302428710110664523e-02	-4.824176155253735422e-11	3.989179066576914055e-11	-1.155061714153382287e-12	2.432482195218636985e-10	8.716803079461177855e-09	1.878347508312922700e-10	1.897245148651195099e-09	2.853381485976807519e-01	2.438072292683666320e-10	6.754557747157586760e-10	9.115479664857688226e-09	2.389524811677238930e-09	4.908907570424158167e-12	9.854810816153288164e-11	1.517207565482630559e-10	3.703866532003963425e-10	1.541191242978784580e-09	1.597477022363843042e-09	3.201636084298202962e-09	7.555097828665600923e-02	7.097429108813447183e-10	1.629123920003763407e-09	6.861681095268271552e-08	8.963671941889431978e-10	1.397037607755678693e-10	1.921976530885185118e-10	-1.138515982908692653e-10	-1.016717754718566953e-10	1.325272969778149550e-10	-1.384842445216971678e-10	-6.663343438999835127e-11	-2.831436312470117890e-11	-1.096334624675086742e-10	-9.497011459306032074e-11	-5.168092479971223830e-11	-3.464306496562600686e-11	-1.260683417216051496e-10	-1.450966740383491541e-10	5.624379465554333397e-11	2.653546981588218614e-10	1.904781618345905015e-09	-5.760448754368805702e-11	1.122155983407942000e-09	3.098875207979528551e-09	2.533222679793264313e-10	7.328264882735046130e-10	6.621153183590781921e-02	1.250141767386848957e-01	4.593289354201205525e-10	1.971788640177889339e-10	5.669789274836530575e-11	7.089482031603458032e-11	5.276358517886035089e-10	4.843523144913420959e-10	5.976817532753268811e-10	2.486801865579347447e-09	5.812500098241693210e-11	1.547941380524048260e-10	9.009154279699944882e-10	1.579690648539243966e-10	-3.444751381449400155e-11	9.374518942196179509e-11
-4.963908976476316759e-10	-4.353850171834644150e-10	-1.943161493932145480e-10	-5.846906743658615073e-10	-4.726213964342486478e-10	-3.946070585286826038e-10	-4.732505135606444331e-10	-4.959458531233011780e-10	-5.124026461424583360e-10	-4.701094736865947456e-10	-5.429251408225446451e-10	-7.804839559097039934e-10	7.499848281648886837e-10	1.863759769962965617e-10	-1.991302281437200116e-10	4.093551891548024093e-10	1.366629741251672844e-10	9.710973747932142328e-11	2.784091808680900606e-10	4.114422824294841701e-11	-7.812761801473109223e-11	-2.419815542856708890e-10	1.847621097533110700e-10	1.217629280109653761e-10	-9.941718614009076096e-11	1.011477758594070535e-09	4.152578093331311254e-02	5.665150011541920773e-10	8.680572831894029293e-09	1.442652572192158235e-02	8.355242712679396888e-10	2.669782691369886003e-09	7.739437376218216702e-02	1.675387331149739700e-01	2.363638498792599466e-10	2.309499680903900537e-09	1.651120531140981158e-10	-6.925400478329162845e-11	-5.890924086728713090e-11	-1.721190738276562775e-11	1.510502276142291093e-10	1.513299368263973995e-10	1.088172377775563997e-10	1.001239822841052340e-10	1.025136471497216378e-10	-1.327523881619120900e-10	-2.116151531856504477e-11	-2.511874289800820300e-10	8.502685023874344701e-11	1.511789116625085334e-09	3.606833282009045717e-03	1.488928271638344416e-09	8.146225932710514704e-09	6.859799441731480318e-02	1.142793122812005644e-09	3.093927744749006592e-09	8.668462378195604839e-08	6.729230592839757774e-02	3.436058708445345228e-10	2.031125435580015145e-09	5.125950243464016201e-10	2.224178895739854540e-09	1.132906366761627195e-07	2.848916041801248505e-09	1.272098099157443336e-08	2.909242121881006060e-01	2.106968356982647732e-09	5.014079479328213825e-09	9.756398633162953367e-08	2.679475460068623292e-08	7.755129497980909536e-10	2.813376097037903507e-09	1.470255405617285756e-09	3.067142388334227317e-09	1.106052143846979981e-08	6.864921228460921084e-09	1.814334288073661544e-08	7.735827638263645389e-02	5.911743978128804177e-09	1.447428833730499564e-08	6.230792661527089805e-03	7.202808653752211459e-09	1.796407634035945516e-09	3.770660651301422785e-09	-2.846518766305308986e-10	-2.388941445664195787e-10	9.068889403491638878e-10	-3.107368609028016980e-10	5.603331497991456852e-11	1.598092110815854494e-10	-1.946229402915512969e-10	-1.066807898609376434e-10	5.942572323898621940e-11	-4.607196736210985522e-11	-2.402685500678004705e-10	-5.469145986395671119e-10	5.058514608532925907e-10	1.986883912038730460e-09	1.187134017379309192e-08	4.018625398589146157e-10	7.040110098414722451e-09	1.553490702154872988e-08	2.157519555018041629e-09	5.165249756688893915e-09	7.992821657548079828e-02	1.051753736051424526e-01	4.567700545023047633e-10	4.080579695319861201e-09	6.678991578797622998e-10	1.734402350838409230e-09	1.067561103271278715e-08	6.691531807386303599e-09	9.554867821435197155e-09	1.870208114282930647e-08	1.633760750755789945e-09	3.700407880305297176e-09	1.359824065338196286e-08	5.163879788916940012e-09	6.381668026694430411e-10	3.023648912799026475e-09
