-5.215781478924155175e-09	-6.175716278290619915e-09	-3.730904533503671577e-10	-5.710495013056890601e-09	-5.877202414590702798e-09	-5.737377075145040527e-09	-5.118438536521890882e-09	-5.938161658337050208e-09	-5.894800577792980022e-09	-5.851753736417137792e-09	-5.870116893983606696e-09	-5.155259829326184575e-09	2.575704500395716893e-09	-2.782440945345553595e-09	-4.343357785250550256e-09	-2.078021060993040244e-09	-2.827330053189502161e-09	-3.032053540155302064e-09	-1.275162216486528773e-09	-3.290401867371986797e-09	-3.838586983994283813e-09	-4.544394355397349362e-09	-2.337383020834732626e-09	-3.308615629033792111e-09	-3.963214216336761782e-09	7.445042948041694027e-10	3.163959952108908597e-02	-2.869967882474999906e-09	2.662086536791990170e-08	3.941099569624125637e-02	-9.488283314802412574e-11	7.502474852543254412e-09	6.511333251196192717e-02	1.729954412562771104e-01	-2.684727223280190215e-09	-4.652507640134913083e-09	-1.834590560458011128e-09	-4.293688528613366279e-09	-4.102766468581551596e-09	-5.152517331650334721e-09	-2.945879769427920828e-09	-3.023023744390846210e-09	-1.836510332378320989e-09	-3.046221312806283533e-09	-3.059570226891854376e-09	-4.049959910430354935e-09	-2.509301876969711620e-09	-4.955349187952056484e-09	-3.297061048704318051e-09	1.729727356918472640e-09	1.804933870467324841e-02	-2.154113495464443795e-09	2.845376388045132370e-08	6.713253077215344811e-02	1.047159482625323706e-09	8.556256937942478388e-09	1.727726125008198801e-07	5.658847661791133188e-02	-2.171998428243690193e-09	-4.474026353507918483e-09	-1.417678282724885965e-09	4.788948846635701080e-09	2.524779537080517623e-07	1.647044380569067589e-09	4.642296687268367306e-08	2.923950631326271976e-01	4.649432323736264953e-09	1.505037488751522189e-08	1.678705930881200544e-07	7.262947795811508920e-08	-6.909293715207784810e-10	-3.852347004668846550e-09	5.764562631417362944e-09	6.375271051181964553e-09	4.371099607317596925e-08	9.232669016382721711e-09	8.611379942928578526e-08	5.275651981725477252e-02	1.874168841490068922e-08	4.573581700026130763e-08	1.874657696018426447e-06	1.325218407511277500e-08	1.666279021126464005e-09	-3.454669723497869309e-09	-4.454224891785842842e-09	-3.173264005728849326e-09	4.274076879726765646e-09	-6.014099341506038333e-09	-2.925826245136330676e-09	-2.974725628131570116e-09	-3.998679201102196083e-09	-3.456309228548761776e-09	-3.035882327000030885e-09	-3.985203418905080653e-09	-4.117774336596148715e-09	-6.084336737380185883e-09	-6.291893582711262609e-10	8.267921875767035794e-09	4.747395283179066552e-08	-1.251298352965693754e-10	2.721963831405301152e-08	7.840137380144892110e-08	5.425384983744137493e-09	1.789001250147513673e-08	9.677767981377558004e-02	1.071380639057380318e-01	3.039424885450875453e-08	-4.358622019523081875e-09	5.102262976253257246e-10	9.412389816769150841e-10	4.754988085950844100e-09	-1.590800589318183940e-10	7.497417449577946768e-09	1.567387448643178946e-08	2.328268403475532697e-09	4.338902945278546213e-09	6.892808574467006031e-09	3.143654093571596124e-09	-1.379935170158750522e-09	-3.932790355384848729e-09
3.478438452292841009e-10	-3.035474334459509165e-10	-2.274102509057823083e-10	-2.658030876549315534e-10	-1.964797373935142189e-10	-1.720068775401412459e-10	-1.356386981142350587e-10	-1.903276569158181537e-10	-2.241237453374890768e-10	-2.988745531373659640e-10	-2.119028319101632673e-10	-4.666238456334543475e-10	1.392796061083602894e-09	1.771884343856496687e-10	-7.380788591302242000e-12	7.652527187736387099e-10	3.091629291659366438e-10	2.506380040650911894e-10	6.589222392954437288e-10	2.758592303535841941e-10	1.486031671490118911e-10	-2.300449042707104185e-12	5.369808676841399459e-10	6.222715626241628545e-10	3.886313518484207408e-10	1.802575855150364515e-09	3.258125907249000835e-02	1.347301935803347189e-09	1.205244953331421644e-08	5.411808334771234762e-03	1.551571112506754335e-09	3.843924191055472070e-09	9.561274903370843570e-02	1.725859259356604669e-01	8.494334444383639829e-10	1.774105247955167674e-09	6.891246898333902120e-10	6.660149731701324444e-10	4.155329297401223245e-10	6.394972311030970252e-10	7.430794880359180397e-10	7.345100001932658697e-10	9.462934655991991666e-10	6.774457249502734735e-10	7.058218751426740009e-10	3.461560618133053211e-10	5.291838956188354341e-10	5.279617459411634361e-10	5.662837863205718653e-10	2.074909594775102597e-09	1.444498679327991218e-02	1.661556447938611014e-09	1.107129651435397308e-08	1.062304332590156414e-01	2.331833459314167915e-09	6.075196781481615305e-09	7.954395291825260310e-04	2.834564762895957352e-02	1.019909737147601378e-09	1.801924374424274298e-09	1.134544210248060331e-09	2.994754778981239826e-09	4.032500431839480788e-08	2.658797636175775483e-09	1.657240001257033245e-08	2.998769834868312278e-01	3.482065229307389060e-09	8.253999902630866759e-09	1.845870022848039512e-06	1.752907299378797396e-08	1.412599805122084126e-09	2.013548119932856344e-09	2.986596830880674122e-09	4.984449067755818344e-09	1.369927800077398799e-08	1.287815881001154619e-08	3.024109190676171227e-08	4.905205108660765090e-02	9.580030853447580759e-09	2.590546998163118093e-08	3.761915219021799619e-03	4.819787017569996396e-09	2.138326208036137846e-09	2.720302908098799955e-09	1.172820000648855712e-10	2.222429694197035599e-10	8.067017334579710298e-10	4.379531111411103335e-11	4.994249188590336073e-10	6.809047753117932912e-10	2.478970205853867791e-10	3.447096665356886713e-10	6.273752858429793953e-10	4.704559606478237034e-10	1.965668863053999144e-10	3.217299287608036277e-11	1.151164997048770871e-09	2.997428092749948328e-09	1.152947627396170742e-08	2.456136812992514272e-09	9.050510365185210991e-09	1.960213777648028728e-08	3.427592153219064770e-09	7.691261843807491782e-09	2.516502699212657540e-02	1.661335284678512880e-01	3.942055920160858458e-09	1.654168029410623473e-08	1.357936651321157090e-09	2.401400880292679446e-09	5.249709454626076119e-09	2.219072170093365343e-09	6.513181232991496556e-09	7.825570534204547451e-09	3.185218968635719901e-09	5.000754590080299487e-09	9.071220587989059382e-09	3.681504240264376873e-09	1.375766454674509933e-09	1.783257765170200242e-09
-9.090944034917501115e-11	-2.133058585175699963e-10	-1.546919553457164231e-10	-2.523887490552632278e-10	-1.942091992560776729e-10	-1.888438670892395858e-10	-1.847745498719239827e-10	-1.851668603454040139e-10	-1.750900224243291393e-10	-2.063854328077232539e-10	-2.024657908799730493e-10	-2.321565973104362015e-10	-2.783529638023912357e-11	-1.164733020492156366e-10	-1.506624187565283633e-10	-6.109992903931476236e-11	-9.316584526679834246e-11	-1.012636284714330771e-10	-3.815437376201846100e-11	-1.057568477661047763e-10	-1.242107192855851258e-10	-1.526387872592787872e-10	-8.603235069342173212e-11	-2.130357166974702953e-11	-1.338470495955125563e-10	3.866854178978227629e-11	3.203355835126331375e-02	-8.197449234488513449e-11	9.758594207009957404e-10	3.557327234044024844e-02	8.643823170764590939e-12	2.831064797489655757e-10	8.320969670058771250e-02	1.638049278077313153e-01	-9.702980087293838369e-11	-1.106624290931339539e-10	-6.250949741878125201e-11	-1.388341297347065498e-10	-1.279170503409915325e-10	-2.076116973010575908e-10	-8.465798617968789733e-11	-8.833065481478044790e-11	-3.048198302944869796e-11	-8.672619483499535689e-11	-8.698915860019508587e-11	-1.201072539766413669e-10	-7.077928479424562844e-11	-1.895527652383558359e-10	-1.077376774345327528e-10	7.614593940582112061e-11	1.915493382214202012e-02	-5.941048864227033408e-11	1.091704770204040243e-09	7.869691256693021886e-02	6.216707323802022656e-11	3.642543810041279137e-10	1.650811084529597052e-08	3.929683093159362650e-02	-7.301833698547123163e-11	-1.188660619593293521e-10	-3.800085506067919784e-11	1.703351870070499024e-10	4.944470957613859098e-09	1.029628836393479183e-10	1.765098656206856245e-09	2.992982028266574779e-01	2.007710592577118349e-10	6.335160343169907828e-10	1.902269066956120269e-08	2.382357706132388384e-09	-2.086197825328649453e-11	-1.099239532134134067e-10	1.969681850468039197e-10	2.576000337279016012e-10	1.180005581173927383e-09	9.406672087125268766e-10	2.658416366482276066e-09	4.315497641137391177e-02	7.786696612521555045e-10	1.967996740443514994e-09	7.288464932460573739e-03	5.628300756566161071e-10	8.502479392141619626e-11	-8.311107750806201515e-11	-1.567092933619147759e-10	-1.175477130762850925e-10	4.129106958726698330e-12	-2.586245379311030962e-10	-1.008568473607806243e-10	-3.720875296117660498e-11	-1.432580028284903254e-10	-1.304348817214708875e-10	-6.953686732220148644e-11	-2.572827500285494668e-12	-1.522996310937608776e-10	-2.386215859757911346e-10	-1.830017894649761296e-11	2.061731687932373762e-10	1.291627650425184370e-09	5.479166295894178778e-11	9.795782907609919725e-10	2.526807258253940923e-09	2.066617596762605803e-10	6.697202010583529861e-10	7.131001499641972941e-02	1.271781491821541710e-01	1.036148410758218704e-09	2.616031642139633946e-10	6.119102663398579032e-11	6.908327470994422539e-11	2.521022087238929174e-10	-8.344875321875068286e-11	3.468452691141954621e-10	3.762363534854143917e-10	1.205298487810823401e-10	2.120507122185405019e-10	3.696814976138812234e-10	1.617232739641976081e-10	-3.549320517901249606e-11	-1.026416287602113496e-10
-1.911217327281584075e-10	-2.632396708895732860e-10	-1.141769446522530516e-10	-2.842256813254376086e-10	-2.565291100159383310e-10	-2.535552240786232947e-10	-2.282018723286777793e-10	-2.586496056536135418e-10	-2.687802772901892275e-10	-2.777261548707137548e-10	-2.564815121342943974e-10	-2.990717075435499101e-10	2.388053500473993018e-10	-1.488627438791469457e-10	-1.951674106671818591e-10	-5.762005686879339746e-11	-1.138742879031226200e-10	-1.250129953501008016e-10	-3.338225892158430928e-11	-1.478523251539383151e-10	-1.656521739024420270e-10	-1.887033093969880376e-10	-7.678854664496607614e-11	-1.031173024784083035e-10	-1.270883629927721112e-10	1.226144074209473232e-10	4.186766628371774157e-02	-1.431005597669498393e-10	1.570553764244020034e-09	1.327487760425808370e-02	4.096226151924391432e-11	4.226487151793102133e-10	8.080111219871136119e-02	1.659623914871343475e-01	-5.742561676236357818e-11	-1.055315804167015690e-10	-4.615042139089055836e-11	-1.651430427701379235e-10	-1.380382443804256790e-10	-2.205058077848851223e-10	-9.076031053560134961e-11	-1.071425546274743250e-10	4.955627242067060031e-12	-1.063415534273868027e-10	-1.109297245204931583e-10	-1.560299484100391929e-10	-9.051473190381167478e-11	-2.344440626791689456e-10	-9.983373900641823583e-11	1.668593929717632443e-10	7.891064844146819870e-03	-1.213706205874023168e-10	1.541232966512655814e-09	8.357758591198680143e-02	9.045178065469691297e-11	4.507422776891355179e-10	6.091825388451818142e-09	5.318103685209823323e-02	-5.219630713090019340e-11	-1.127022083041540050e-10	2.734358028161120940e-12	3.342936627274072219e-10	2.066732142041652044e-08	-1.115691474978769356e-11	2.480773370245490895e-09	3.083012758747930016e-01	2.705488042686703502e-10	7.814441173195468597e-10	7.538694609276275498e-09	3.458557232153467493e-09	2.338907519585037292e-11	-6.377907792720144599e-11	2.032422799326700687e-10	5.324988437105419494e-10	1.888366448520691978e-09	1.207417248237503837e-09	3.369581280226192719e-09	4.812105312776835536e-02	1.059647930586982084e-09	2.487929820518035646e-09	4.553600988198233975e-07	7.160936930434277948e-10	1.495052802182706282e-10	-2.367440735754836921e-11	-1.633945519948087517e-10	-1.457200680795552610e-10	1.761230903268179179e-10	-2.700382201681755497e-10	-1.028103777160193218e-10	-7.759130599062318863e-11	-1.638525186723461032e-10	-1.398962227031410344e-10	-8.910287238698326469e-11	-1.200125423911419571e-10	-1.531957200633748654e-10	-2.596933421225050227e-10	5.149532626745163514e-11	3.261591290834742038e-10	2.101392761221277797e-09	-2.539996364898528611e-11	1.493649001336515005e-09	4.251783075321878850e-09	3.060027324714739533e-10	9.464957682073256615e-10	8.233827222714838745e-02	1.146831446200014260e-01	5.793804585441018420e-10	7.867107558799755375e-10	1.268496787298585370e-10	1.707869835870565001e-10	4.617424885953813807e-10	-1.239532572790130180e-10	5.992379867787926703e-10	3.771979961592874889e-10	2.079746473411171686e-10	3.490000356861394786e-10	6.652226797525645851e-10	3.094066085034743634e-10	7.924581794647862318e-12	-7.377738979753297423e-11
-6.844337052362800272e-11	-6.842644571249759837e-10	-5.484282474895358934e-10	-7.050909264597337720e-10	-6.019393004872667415e-10	-5.885312294171610261e-10	-4.296069144147108184e-10	-6.495794658865106999e-10	-6.431092408695355592e-10	-6.827011393880109836e-10	-6.292842316472661314e-10	-8.610004746644184823e-10	3.632449283368867064e-10	-1.328161007418309124e-10	-3.768907425185778326e-10	1.048317256188481010e-10	-1.465714157711049663e-10	-1.875013196696901197e-10	1.365980038608160925e-10	-2.278618240337096731e-10	-3.056683762205297463e-10	-4.133877178025976842e-10	-4.784112692451040922e-11	1.253493758881200099e-10	-2.196872661212030057e-10	7.573930658372602348e-10	3.664154720408732691e-02	-1.864761596267801322e-10	6.439072522496787017e-09	2.866070384965677814e-02	5.793090248536500751e-10	2.119474466469094129e-09	7.027054158605566814e-02	1.737294059575300864e-01	1.461793768150120438e-10	-3.800807308326687901e-10	1.306343651548532497e-10	-2.088147178668260123e-10	-1.319752607044398536e-10	-2.345024067349311275e-10	4.271595048151228131e-11	6.122172733417655184e-11	-1.107670210381579532e-11	5.060587878108422697e-11	5.968593247861699720e-11	-1.399945522185274082e-10	5.507409060125103594e-12	-4.068661065518427671e-10	-1.017233635953137521e-10	9.558077372170067610e-10	1.231810388042216438e-02	4.120851886260883073e-12	6.814240428768686120e-09	8.570151408599481491e-02	8.306896811079883445e-10	2.436035600909540546e-09	4.387839357742118929e-08	5.542368780104803272e-02	2.132043431505306421e-10	-3.463228080635288329e-10	2.888130196805069886e-10	1.741260153026079890e-09	1.212771528564908941e-07	5.676311234426453267e-10	1.042216623843618031e-08	2.936987664695476230e-01	1.583694208033716696e-09	3.822594818717277062e-09	4.727930748967851952e-08	1.655208053690201516e-08	5.170321012954947786e-10	-1.339663324069751162e-10	1.620348438003745561e-09	2.984236412505281465e-09	1.247862000788267728e-08	7.396886377127011571e-10	1.731090188699119070e-08	4.829777430525306753e-02	4.526484710438795284e-09	1.016047076321738666e-08	5.836787984928946958e-07	3.362266471174522854e-09	1.074828515291314195e-09	6.373045231622053287e-10	-3.590429950330050092e-10	-2.697890696726229025e-10	5.687485945365347067e-10	-5.807812363980338301e-10	-7.108614364301532442e-11	2.383439271170803650e-11	-2.774659837358472976e-10	-1.957688447513899736e-10	-3.665548132438684024e-11	3.842478367948119066e-11	-2.871130646395674829e-10	-5.543640579180810362e-10	3.863110484364072748e-10	2.324387575114208958e-09	1.814643319650009455e-08	5.236159033545883054e-10	6.239269856484168378e-09	1.601248844128503260e-08	1.698087096991468406e-09	4.292879179481443611e-09	8.869755298496563578e-02	1.065594270559837436e-01	3.379087054532548215e-09	6.498514619301641636e-09	5.443368115354894366e-10	1.084764705985857073e-09	2.563879308664040929e-09	7.632116793812154266e-11	2.945443250448720995e-09	3.825891006392512797e-09	1.275543339667730762e-09	1.895536915930621472e-09	3.275565953387140871e-09	1.788712564480366659e-09	4.477099473573538113e-10	1.477420050903525885e-10
-1.050141993733752735e-08	-1.453832306727750885e-08	-1.690469188413245917e-10	-1.683917334837422046e-08	-1.377199445042470750e-08	-1.312552171431906975e-08	-1.180169089773671751e-08	-1.428021881975870919e-08	-1.358430982620600550e-08	-1.418535243359612501e-08	-1.414765384005301089e-08	-1.640730143272584193e-08	4.487839604127663889e-09	-5.226547076319575803e-09	-9.794453697692320530e-09	-4.761605199661812770e-09	-5.840280776300008898e-09	-6.407308389627837316e-09	-8.732689657665740873e-10	-7.634900954059138287e-09	-8.756848372835289335e-09	-1.017595728281985826e-08	-4.579033383263696753e-09	-7.070067262135394425e-09	-8.668223075553769114e-09	5.062603643143640314e-09	2.354719583622258416e-02	-5.948301018995962608e-09	8.796618973498871844e-08	1.087602631095921195e-02	1.622312368687847495e-09	2.215627548363523427e-08	8.156134518157483193e-02	1.974767930806169414e-01	-5.786598069722239925e-09	-8.777399606073550261e-09	-2.830251689317707624e-09	-9.340692452492642071e-09	-8.218943343439034977e-09	-1.409333244637289090e-08	-5.286119115211007807e-09	-5.406326710964365528e-09	-4.712989743048579066e-09	-4.008499467493551216e-09	-3.809064269997194072e-09	-7.555644724566550364e-09	-7.066462077981308500e-09	-1.327130207485754472e-08	-6.935424257800846019e-09	6.764694442687936701e-09	2.482235794017043085e-02	-4.646704402817334409e-09	8.409604420099990085e-08	9.008541737806347038e-02	5.551024864154363113e-09	2.824941888568249611e-08	1.660187550718277320e-06	2.667224186960018978e-02	-4.258737251430163092e-09	-1.021542157468914465e-08	-1.969818055533817542e-09	1.497992434818085514e-08	3.926586888690468858e-07	5.673672957041373332e-09	1.342447450638778484e-07	3.004605396550507068e-01	1.600959996589356388e-08	4.795331865470280218e-08	1.276489785772146213e-06	1.638473978623278300e-07	-4.530535289595991195e-10	-9.890138701210427381e-09	1.860890010513660068e-08	2.170279853659269630e-08	9.732781062968758390e-08	5.415550473392855779e-08	2.296549746720005626e-07	4.497976069134230342e-02	6.607161398338730197e-08	1.787364134662767441e-07	1.951093875311913056e-04	3.852383270060431764e-08	6.868749960770262845e-09	-8.336983923591758819e-09	-1.033990400517869272e-08	-9.516190820835707116e-09	1.285922362060578011e-08	-1.640475765502899673e-08	-5.655134107802150920e-09	-4.599303738434906186e-09	-9.048847437941226042e-09	-7.636370946539218241e-09	-5.085906736434185082e-09	-8.213136878068231959e-09	-9.976826835186421936e-09	-1.592430272370958682e-08	-1.915771041632791791e-10	2.052434800494260345e-08	1.011776059079063772e-07	-7.637523158351129106e-10	7.598220807277258272e-08	1.947781534701573350e-07	1.634602674094450710e-08	5.073104370596713054e-08	6.318695887232229913e-02	1.361313769646980421e-01	8.099756420994815560e-08	-8.210259081557088687e-09	-1.125180607469364646e-09	7.534358811598144271e-09	1.957268118010391432e-08	-1.779685671965771594e-09	2.758214912161368476e-08	3.866714819250227182e-08	1.010902643350049208e-08	1.696466584779402203e-08	3.165459855087758384e-08	1.337808383589748725e-08	-1.687354327774798564e-09	-9.561523447503851131e-09
-3.433988587113471489e-11	-1.911900386135344882e-10	-1.967883112050514958e-10	-1.464113592817649660e-10	-1.832349763014604426e-10	-1.774940351676351906e-10	-1.765570849967010483e-10	-1.857873697092358876e-10	-1.705166365896659033e-10	-1.930334173796574507e-10	-1.874355700991958250e-10	-5.806397201377517745e-11	-7.655417959230383951e-11	-1.075250527464571835e-10	-1.473472803015450158e-10	-7.578496975588492174e-11	-1.120804464499907393e-10	-1.164997013717310255e-10	-4.338142888399410426e-11	-1.366961187140307303e-10	-1.431905206919954302e-10	-1.510775799451724355e-10	-9.980891360567578572e-11	-6.823391585342546170e-11	-1.390555553131562937e-10	-1.812176140127765166e-11	3.666686279928804693e-02	-1.430000317269776809e-10	4.674039694785927630e-10	2.141032206870346205e-02	-6.358971606956899255e-11	7.328455596925465085e-11	8.721367177822500483e-02	1.668864686072367154e-01	-7.176562381278888625e-11	-1.678415961220461334e-10	-8.268867642522231304e-11	-1.552053908641354114e-10	-1.459748955055475899e-10	-1.486139253983937853e-10	-1.246433561694697596e-10	-1.160094703398426953e-10	-9.137632254865580283e-11	-1.032047950011255975e-10	-1.093009537165140321e-10	-1.256856870166507120e-10	-1.106894611518089812e-10	-1.311464930383107075e-10	-1.249786251192071360e-10	-6.691773263935759094e-12	1.014341880527770516e-02	-1.321004706057768177e-10	4.736898521283374726e-10	8.681146262484393250e-02	-4.611014529055539988e-11	8.993677026076859590e-11	1.737847310861050517e-09	4.736037001502826221e-02	-8.750798069241405998e-11	-1.598163460696403562e-10	-7.784919491278558069e-11	4.748898743748582779e-11	2.610383053392162616e-09	-6.926318477087304976e-11	8.412746723562578387e-10	2.923796559902018810e-01	2.561162607268995773e-11	2.040465118976811302e-10	1.989848127649626521e-09	1.088902026898251352e-09	-5.433025484747856430e-11	-1.396676180176837796e-10	7.842858780406656194e-11	7.081592439621995458e-12	5.364973133544161853e-10	-1.223505638794907759e-11	1.398069336436193524e-09	4.669402013437125992e-02	2.390869873092696971e-10	5.753503190982625611e-10	1.156093058198717549e-08	1.986520905218015166e-10	-2.165212549716067102e-12	-9.752632703582554533e-11	-1.473372999566514165e-10	-1.103507157245653854e-10	6.588641188615064066e-12	-1.725380928627674637e-10	-1.190050536167631759e-10	-9.393687649337897889e-11	-1.380910681765727209e-10	-1.301229044675505368e-10	-1.072147329383630204e-10	-6.173392888320913127e-11	-1.377638867489066618e-10	-1.725826422126026074e-10	-6.138557736440726517e-11	6.341816787949446865e-11	7.652714025519420596e-10	-1.073292944754575601e-10	4.867615330266318108e-10	1.520542481632305786e-09	4.059971562973780024e-11	2.875446735909485564e-10	7.911553334848323016e-02	1.253181936495479099e-01	3.348815772345704406e-10	-1.576245351840773952e-10	-3.053172579313176872e-11	-1.128204773846325857e-11	6.627394769503878579e-11	-6.768874528737326612e-11	1.367487483132632958e-10	2.751323002486277645e-10	1.325985337148462923e-11	4.306072480794277187e-11	1.302432097779144770e-10	2.306472433380861884e-11	-6.328932759440277405e-11	-1.314161955649673352e-10
-2.950793923118774061e-09	-3.500659024574327776e-09	9.890483123132934363e-10	-2.769442966970174416e-09	-3.224086566819706854e-09	-3.050450188663438429e-09	-3.070840784464553787e-09	-2.733052822505785609e-09	-2.840603946325234734e-09	-3.387936277851678939e-09	-3.167298713066679326e-09	-3.221367534594087473e-09	2.383246311292252074e-09	-1.048938671561303787e-09	-2.249961538506959455e-09	4.712097008936773278e-10	-1.075328866191052461e-09	-1.266831044011182154e-09	1.089681527885604600e-10	-1.421770890175104393e-09	-1.869181957319134514e-09	-2.407608214525752676e-09	-7.518083732412144719e-10	-1.547973703333671429e-10	-1.420880715033823766e-09	2.717523974001391960e-09	2.900803113510920517e-02	-3.222694507640245923e-10	3.105297192844736613e-08	1.470373348921099992e-02	1.948859441940818231e-09	8.784653808375049255e-09	7.805508642008897324e-02	1.824970398228484003e-01	-8.084073595288033151e-10	-3.627351308720168511e-09	3.672727893700690154e-10	-1.727108090154273543e-09	-1.455119426213384064e-09	-1.010134812040550996e-09	-4.889783248951841029e-10	-5.243100425062048421e-10	-2.846334132367556893e-10	-3.205542263042360897e-10	-3.598567031259408350e-10	-1.337593455053585086e-09	-9.174073495530920189e-10	-1.384154414790077632e-09	-9.690104818936918885e-10	3.534969362594398522e-09	1.475639851414965210e-02	5.556672988232849891e-10	3.006867423416580995e-08	7.373742372550833035e-02	3.158587701240947149e-09	1.032425390127827053e-08	2.602868881249002465e-07	4.978380108336202814e-02	-1.188366846036651912e-10	-2.765627594195283370e-09	8.054573316890610639e-10	6.722065398871882719e-09	3.986111341942452795e-07	3.400578203629184733e-09	4.701327860526221698e-08	3.042657140134745197e-01	6.462473396357097995e-09	1.644564337746007208e-08	2.183179964754130659e-07	9.544787536428088408e-08	1.322201226823264911e-09	-1.507077260488989190e-09	4.644449891419133961e-09	1.188860302441854270e-08	4.808497365528678838e-08	6.269535047793452617e-09	9.187091241987366383e-08	4.969612549789860501e-02	2.575221463032419326e-08	7.307664776631805586e-08	2.543022017168555457e-04	1.801030909289599893e-08	4.232121509254529082e-09	2.927723442143089225e-09	-2.012093895208630572e-09	-1.745775086231717084e-09	2.350540307009314813e-09	-2.465866022145866505e-09	-1.087984978356841753e-09	-6.836394368918504603e-10	-1.893460766751205246e-09	-1.575056131981829068e-09	-8.914938512629660116e-10	-1.047426632839372573e-09	-2.114335563635030345e-09	-2.760918270006519385e-09	1.973905579395307416e-09	7.415737126641171198e-09	3.702032613515410700e-08	2.680345811980532087e-09	2.849140586819001069e-08	7.590654113095601383e-08	6.751889838479593694e-09	1.819536465071350920e-08	8.669594333024362165e-02	1.165447347484601937e-01	2.822306175760983631e-08	2.671747045441407947e-08	2.147802518677818403e-09	3.799323563192905796e-09	9.436378207389124055e-09	1.576435562136326341e-09	1.176917685451939590e-08	1.522963260197744150e-08	4.982880201237803537e-09	7.514541682822195931e-09	1.352138222134654567e-08	7.158668516801504822e-09	8.917095389561535223e-10	-5.458677439103505830e-12
-9.053982040443619997e-11	-1.906873854970008459e-10	3.024567413678217431e-12	-2.386722666495416802e-10	-1.715205356050573096e-10	-1.521112633875531332e-10	-1.441426311253897559e-10	-1.782214592164090356e-10	-1.882688014863975408e-10	-1.831486432754762509e-10	-1.755416815844641880e-10	-2.625599364211477751e-10	1.418491732587721722e-10	-3.658136478325628505e-11	-1.158994364052523961e-10	-1.139288662756409229e-11	-4.908049948100373347e-11	-6.063737214726749303e-11	1.135120301686306356e-11	-6.170311452555502344e-11	-9.152954277507796637e-11	-1.262356296784071375e-10	-2.543511968102199702e-11	-4.009232080993689103e-11	-7.194776104557514532e-11	1.948578690052428426e-10	3.867233072912348857e-02	3.018508796369375956e-11	1.968782249274501590e-09	6.953819335325746309e-03	1.402576723644020007e-10	5.573756378242099747e-10	7.587197447735663514e-02	1.819291137937548430e-01	1.169083572831540679e-11	7.902864052556404054e-11	-1.044907394908822268e-11	-3.901434938472261357e-11	-3.192505505042305770e-11	-1.256145880801722113e-10	3.774429035159292253e-14	4.922549216686106233e-13	9.468025563128671907e-11	-3.694051598646201748e-11	-2.538322335685303151e-11	-7.231657856341567358e-11	-3.862275096520434679e-11	-1.757633808486423130e-10	-2.410118867661285180e-11	3.074626873782673651e-10	3.163166395285260495e-03	6.328468122797541753e-11	1.828799636133021400e-09	1.001745201920120759e-01	1.987497697893967093e-10	6.177884100512216535e-10	1.114004984249704932e-08	4.230485915864150293e-02	3.001500158147950379e-11	6.045908505636780820e-11	7.069669431198622855e-11	4.443522745303594415e-10	1.360364877487452403e-08	2.584139489904143348e-10	2.862900952975332683e-09	2.978048820853532730e-01	3.997335299815296590e-10	9.827658469648003593e-10	1.076468866319553581e-08	3.427420004961294628e-09	1.108201064552339983e-10	8.850943816962772961e-11	3.014291778974680585e-10	6.667307400176983775e-10	1.973205000145083872e-09	1.475541434460954246e-09	4.159829124794799058e-09	4.931005007592784845e-02	1.268581244204457641e-09	2.822265418893664008e-09	3.332675708194337472e-07	8.380185014469069173e-10	2.482628672595073005e-10	5.918343987400049322e-11	-1.042600159576171072e-10	-8.129934526073586873e-11	1.343640438878502032e-10	-1.989910689528371011e-10	-2.630783696916822500e-11	-2.273003427160493237e-12	-9.030156638760260517e-11	-6.396749988148574076e-11	-1.758215390210164459e-11	-4.788345245587313876e-11	-9.445949113268674918e-11	-2.179737081218977741e-10	1.187358025466920826e-10	5.037438823683943616e-10	2.975503025947389027e-09	1.996161403288888978e-10	1.788289108872627478e-09	4.873440762995709603e-09	4.351299292387847399e-10	1.129174822335009590e-09	7.389603514879819479e-02	1.299188361414036208e-01	7.738009825816364591e-10	1.254376354671990793e-09	1.262712186414245778e-10	2.689641355525608208e-10	6.566843759556891174e-10	1.575899419485879082e-10	7.927274154699874541e-10	7.355925991094595672e-10	3.181892207487178825e-10	4.909062422652596614e-10	8.474982367431719011e-10	4.084122142222724133e-10	8.776279816583137476e-11	6.833057066690551800e-12
3.638260516940759692e-11	-1.873581506107123234e-10	4.665418063948497485e-10	-3.142645898619654073e-10	-5.846910765570057952e-11	-1.144427838445534654e-11	-5.484750900136798855e-11	-8.236673744215497809e-11	-1.563798209959785069e-10	-1.329171022446664404e-10	-9.092804188695103221e-11	-5.473752367929701193e-10	1.587287031149382775e-09	5.553715145246920352e-10	2.162720251909497258e-10	9.146826875405880132e-10	5.803774743678146408e-10	5.046720517431830599e-10	8.699497676084318266e-10	5.551324030555923252e-10	3.908363315375641552e-10	1.643183577057412535e-10	8.050212207517515981e-10	7.919552578599091186e-10	6.241450469905366417e-10	2.348637845166414350e-09	4.201947024728643065e-02	1.807214021356899350e-09	1.351585473157658101e-08	1.889364720493327821e-02	2.059487259248678554e-09	4.903126618618230812e-09	7.466758524312423762e-02	1.684357582902712425e-01	1.276915065910503767e-09	2.959789531500559757e-09	9.757477074315930313e-10	8.030779613861158510e-10	7.772434152437120264e-10	4.876170976862321283e-10	1.114214263296605676e-09	1.109026508884760986e-09	1.174938173072848170e-09	9.949487513042557660e-10	1.027648062576916905e-09	6.914514405221162265e-10	8.170693357682503913e-10	1.933649316820307342e-10	8.820606789557606618e-10	3.003029476931144086e-09	3.852442506581980983e-03	2.231234856488812786e-09	1.399336419951435921e-08	6.753482190306994704e-02	2.545344719146708352e-09	5.615519620979993157e-09	1.283857106936327419e-07	6.678877093511831342e-02	1.414856851589703662e-09	2.483131197493484603e-09	1.546565359027895871e-09	4.254634537024624904e-09	1.828791832922341040e-07	3.808114705480232283e-09	2.096512450152317479e-08	3.063587558104238218e-01	3.981134042218171758e-09	8.452660149315858452e-09	1.387476078519616168e-07	4.595566206837107956e-08	2.110434889795866909e-09	3.250811668519219794e-09	3.723148935846176218e-09	7.035124648058482026e-09	2.301344509448289088e-08	1.358853165740045461e-08	3.508721142196387502e-08	4.959723264771906392e-02	1.200151815787759166e-08	3.147648110221441833e-08	1.047086226657739910e-03	7.867403774126728376e-09	3.218496662962479133e-09	3.510866809461007823e-09	3.175883032728019380e-10	3.897569368495461760e-10	1.171437981208139199e-09	-2.491505492058054581e-11	7.713912570177411178e-10	8.560945498623090565e-10	4.365864558501288940e-10	5.548737280984344404e-10	7.393414768623109234e-10	6.018558439367619208e-10	4.235085409737524970e-10	1.677106461440408825e-11	1.577355944461072444e-09	4.180674122432261259e-09	2.120250493154127755e-08	3.480290841652760427e-09	1.234424354192107446e-08	2.735546839936661079e-08	4.150938848431100371e-09	9.016803323483636852e-09	9.016238799717302133e-02	1.106411042034931153e-01	4.066571318071004510e-09	1.973305227617081637e-08	1.884788159208468530e-09	3.163688706539621122e-09	6.844778379644149625e-09	2.820934748531843709e-09	7.290654582525786051e-09	1.094552350299187044e-08	3.522239642984694791e-09	5.196572124549968904e-09	9.180021713648065308e-09	4.900172259651270768e-09	1.940564095167115619e-09	2.239633428477951098e-09
