1.803584487956438338e-09	1.442830813878186837e-09	2.560692480946917549e-09	2.299738408204805394e-09	2.268546999022975892e-09	2.270233376348478693e-09	2.037090100287273700e-09	1.386230598276412923e-09	2.039805394529039828e-09	1.743076900002570864e-09	2.318530124265860140e-09	2.211969311159022511e-09	4.152398494013393009e-09	1.784173912422972795e-09	1.289720626598581088e-09	3.419350001482116357e-09	2.016982881483047783e-09	1.829186865777150414e-09	2.494969832631433568e-09	2.662428229745148188e-09	1.659987192239300617e-09	1.289410396276922846e-09	3.179410157311005994e-09	2.525173813314961142e-09	3.909881593485127397e-09	7.346587656644150051e-09	1.012745912407748278e-02	9.180673330364532754e-09	3.742764516985552224e-08	7.608979040596904227e-08	1.038532625000141179e-08	2.684608784466857944e-08	1.860714321695376705e-02	8.386543518411436471e-02	1.236250845747648941e-08	2.493937695938538585e-08	3.355451063780434391e-09	1.664505188476330986e-09	1.330511651180638712e-09	2.711673990389176685e-09	1.897004456992082172e-09	1.747762136537598963e-09	2.347578112779133227e-09	1.761083316998607600e-09	1.567705216691270274e-09	1.388298828275703149e-09	2.945836684221324692e-09	2.393037589314770257e-09	4.565525642977815947e-09	1.022899010618626241e-08	3.237082196832315184e-02	1.368531508497517173e-08	7.333509758315970708e-08	4.797397104344242741e-02	1.372981180698978446e-08	4.007083187442534857e-08	5.989534176325216064e-05	4.967768795555598665e-02	1.133683994638522434e-08	1.936879882669370896e-08	6.958175153702438667e-09	1.424143191417007072e-08	1.151629300713183195e-02	1.538294233354379443e-08	1.037544491279221232e-07	1.998119629917696760e-01	1.821016483258644459e-08	5.393429445333554673e-08	6.543230887775198421e-07	1.923227098358198274e-06	1.633800008702706720e-08	2.819840562544525259e-08	1.055947571987863066e-08	2.165708344474960103e-08	6.356872308932378074e-07	2.953288699081289291e-08	1.642741432059481682e-07	3.758543052966578091e-01	2.828802340184702063e-08	1.069323016079618957e-07	7.511549534711578491e-02	5.381242994072970973e-07	2.409907540373980645e-08	4.002706285004764829e-08	2.988335316579072029e-09	3.066494291378860976e-09	4.612723067825258208e-09	4.144026129632884150e-09	5.889126493235952672e-09	6.181379456265142308e-09	4.368568356578988273e-09	3.602754423522513106e-09	5.824953581073157300e-09	5.307731988259510461e-09	5.378637498051849841e-09	5.865815758822172613e-09	6.764772032817345055e-09	6.769325285433074357e-09	6.609004838013601901e-08	1.277845100501068644e-08	4.505572540589818661e-08	6.882361925627594831e-08	1.861686122601232818e-08	5.032273759111843845e-08	5.867516500457099077e-02	1.054737304879870170e-02	3.874840446967081885e-07	2.579132706184871296e-02	4.485661048295126909e-09	2.610810280351554252e-09	2.186516643964142666e-09	3.883103964638429163e-09	3.068511576085169840e-09	2.895574899639280670e-09	3.470754856050916477e-09	2.835412488572246931e-09	2.594058744409422539e-09	2.228145036759493309e-09	4.267695157759890681e-09	3.590808825130955066e-09
-4.292367930625660020e-11	-8.751438161954834528e-11	2.452478096463449476e-10	4.905964710250891919e-11	7.638453743341884728e-11	1.642771340372642930e-10	3.717239187672333021e-12	3.474225794594229848e-11	3.676304494767430341e-11	-1.359801534595506903e-11	3.195389167099067680e-11	2.031641522337964855e-11	5.426017592274795345e-10	-8.603258784331530005e-11	-1.698006682165223017e-10	7.250548594728394829e-10	-4.542123355615778405e-11	-1.065683409303200553e-10	2.945892736050805382e-11	2.435481993623321427e-11	-1.172094535084309733e-10	-1.729531760630369845e-10	2.603843559255666089e-10	6.931626160762118965e-11	2.656399544457465252e-10	1.012053875095620455e-09	1.631759641197661620e-02	9.532938327048735968e-10	7.143981308596852512e-09	2.967743376560935488e-08	1.305247300500083809e-09	3.678742107356454577e-09	1.209730211501878518e-02	8.421203213610525817e-02	1.798371717404372456e-09	3.832634534988878419e-09	5.202525329360378149e-10	3.983075545361657057e-11	-9.300197743737631069e-11	1.401862114953254698e-10	-1.447755345839869698e-11	-3.761800543191295170e-11	8.180127194096489719e-11	7.206701998080893321e-11	-8.212827510528180135e-11	-9.736019360620923998e-11	1.638325949663667814e-10	8.417309404931502929e-11	3.638771695197192352e-10	1.063657475882980818e-09	3.551765349145128564e-02	1.401231502568050032e-09	1.076092395204382196e-08	5.220353821722615445e-02	1.620274954745868482e-09	5.969911580160186133e-09	2.980477094293642465e-02	1.851914875585481540e-02	1.523933758766525568e-09	2.959818964180413797e-09	7.409654288937288426e-10	1.681522268430595373e-09	7.791047197011363930e-08	2.084703096938856226e-09	1.548891680257927211e-08	2.101252310408474044e-01	2.395237645522146436e-09	7.220359196131873321e-09	7.388566855053150330e-08	2.614683252419311421e-08	2.040428055434574922e-09	3.576345759852817369e-09	1.262982503115434212e-09	2.570767963750350267e-09	3.433796331199803249e-08	3.443886596172579406e-09	2.479027225690165479e-08	3.435944662125006710e-01	4.099421112779106081e-09	1.182038375954085011e-08	1.096082006201042347e-01	3.408755285196335072e-08	3.147788750640905700e-09	5.274930967422750968e-09	1.540118307752843895e-10	2.747297930724231985e-10	6.465986482858772548e-10	3.719344831864710783e-10	6.309349176555099013e-10	7.390095374070740877e-10	3.353197351494379784e-10	5.746022381740041864e-10	5.888663439130071347e-10	6.173852869034357108e-10	5.411583002624344195e-10	6.028104964675755114e-10	7.243698757099426637e-10	1.537784253605201713e-09	7.234518314069473918e-09	1.500793546328717917e-09	6.251982237197819594e-09	9.313002756922094325e-09	2.545618058805301579e-09	6.865180638913984258e-09	7.705327017661213516e-08	6.237041845775743304e-02	1.820527190691083152e-08	2.562908591999317129e-02	5.364859438201251926e-10	1.695885318801825378e-10	4.116859490139864445e-11	3.502115208207535970e-10	1.872942390983998592e-10	1.654388805736740265e-10	2.412901497758127514e-10	2.979780420986667581e-10	9.387964341595399804e-11	5.809350876405063953e-11	3.702876370791960501e-10	2.697592697942158291e-10
1.020516024962118108e-09	7.851604247606280308e-10	1.620534911228272779e-09	1.295439335288785978e-09	1.327998449666669878e-09	1.334751879670861595e-09	1.187920954956993208e-09	1.456749926490844717e-09	1.195256673470960816e-09	9.850799836538252912e-10	1.384249276545867625e-09	1.326191550818003897e-09	2.839037213739374112e-09	9.534606402830110485e-10	6.389736065420455542e-10	2.608155553994119390e-09	1.102271245013793468e-09	9.435217331350165050e-10	1.417036394549631039e-09	1.604477080942237553e-09	9.254886452709815132e-10	6.612452226981030707e-10	1.896869246935591604e-09	1.610817599864501287e-09	2.309181326862083328e-09	4.606039879900208757e-09	1.586023336698554748e-02	5.174689194028705786e-09	2.290539687195266596e-08	3.635847688121256625e-08	6.413617476238245172e-09	1.706893883623013283e-08	2.256341818817913028e-02	7.830962835793782439e-02	8.467987939015339668e-09	1.808302003108098424e-08	2.211040478787831659e-09	1.234875121744748445e-09	7.477126271225116461e-10	1.617163827032371811e-09	1.034114733855314752e-09	9.359267277476972123e-10	1.347338511788284664e-09	1.483673328838610971e-09	8.012706498959145869e-10	7.418016309514225048e-10	1.775160853021404120e-09	1.467261195144916880e-09	2.718781750010646366e-09	5.801343746077570440e-09	3.495381174766305082e-02	7.091131606076970247e-09	4.594266627313961349e-08	6.589064098593078178e-02	9.002788813416747237e-09	2.683382774949426289e-08	1.399060079546462880e-03	2.764693265255921406e-02	7.282279614895557533e-09	1.334533079836369707e-08	4.249848856726034490e-09	8.562175636189552715e-09	2.406297947589439651e-06	9.515294892467080441e-09	6.586657018416901586e-08	2.140792474474540741e-01	1.197901425286789111e-08	3.202095696702092657e-08	1.345611592203499872e-06	3.748140657123646957e-07	9.985527717740950439e-09	1.800135549994265920e-08	6.360127951335640890e-09	1.231108164903752299e-08	1.465753548825410061e-07	1.539932607795068766e-08	1.024205126475409165e-07	3.300593555435344939e-01	1.782136988524374144e-08	6.414306629035756916e-08	1.188287703621320190e-01	1.648747418775120903e-07	1.470098349112659877e-08	2.503036972032244810e-08	1.740748375142068591e-09	1.982685693598070163e-09	3.188997041494171182e-09	2.604048409538412609e-09	3.493978062731232516e-09	3.677769218467013931e-09	2.574776351870865152e-09	3.815175579832489112e-09	3.471807286302927784e-09	3.340375115520675301e-09	3.348112697959616293e-09	3.721899465285661587e-09	4.063454044841631093e-09	6.908088136560701157e-09	3.137966005012043956e-08	7.930002794650172764e-09	2.618357683019645871e-08	3.717742311845871753e-08	1.185523959963609468e-08	3.442434647641459656e-08	2.892112331702903494e-02	4.428250799467441795e-02	5.348369698672157109e-08	1.719985292909657904e-02	3.039743835973647325e-09	1.496578452711805488e-09	1.183440785573797077e-09	2.353107630561263080e-09	1.730963687338428593e-09	1.620562326091401490e-09	2.029919122706776258e-09	2.237344957339156238e-09	1.450081250205560800e-09	1.244866368546649066e-09	2.599283623764845287e-09	2.210197820754621866e-09
-1.134036655920877628e-08	-1.296071853546165868e-08	6.570254969005327870e-09	-8.937269673630291882e-09	-1.021495348721230311e-08	-9.795544918997763841e-09	-1.073161546318583013e-08	-1.003446704926508133e-08	-9.463118261354813064e-09	-1.096400461846738744e-08	-1.002435147604699402e-08	-9.452905687550754823e-09	1.287983448155051271e-08	-1.057289045555870047e-08	-1.295686955068742887e-08	1.039453714211078009e-08	-1.243261082908990354e-08	-1.291017350816167713e-08	-1.127793207043728290e-08	-1.103089947233706600e-08	-1.311006983304034687e-08	-1.303460809056090115e-08	-7.823297124507045825e-09	-8.335956333602789931e-09	-6.963878098082145727e-09	7.009861825248373996e-09	2.016984735521196170e-02	9.088802275354596392e-09	4.771686318150412814e-08	7.207136700084889094e-08	6.591802182064840213e-09	-8.819792745836477220e-09	1.677510460438366019e-02	7.712890576812879428e-02	3.294929637288240112e-09	3.938284651652750709e-08	-1.097263878032278729e-10	-3.714538686608021855e-09	-1.149283034782016776e-08	-4.985178268281958990e-09	-1.050007260272862370e-08	-1.079759795343830379e-08	-9.353543170888480694e-09	-4.263376881718614520e-09	-1.156113687736468467e-08	-1.088073323215115973e-08	-7.576882650819407199e-09	-4.606947649346161883e-09	-5.977581363016246492e-09	1.336797019716939763e-09	2.895357447708741747e-02	2.624044974299532106e-08	1.220489998009620373e-07	6.192389265939411691e-02	1.412384839678913559e-08	2.898081469353762374e-09	1.884880515132065441e-04	4.548803783926404914e-02	5.546547155177261790e-09	2.401603273876607446e-08	1.456192801913855876e-10	1.519608178839432396e-08	2.986867229880358059e-03	4.468256301868045815e-08	1.836662206571875874e-07	2.220125829439053011e-01	2.371385405733359844e-08	-3.288206736627263403e-09	1.467387098993255736e-06	8.192047186825838007e-06	1.628432546880101870e-08	4.664057890835364438e-08	8.614446846792347020e-09	3.195313808177569670e-08	3.810922442019039288e-06	7.121459667154778106e-08	2.953323616357423518e-07	3.233515411513916415e-01	4.596926731973998412e-08	2.811672384437404197e-08	1.084479184602907681e-01	1.579342706215478169e-06	3.019722984756129651e-08	6.948644833189019483e-08	-8.380447021319733071e-09	-6.302867492478294696e-09	1.961901224019495252e-09	-5.496960655267976876e-09	-2.081798056227115519e-09	-9.879846059859824096e-10	-6.166265355020929050e-09	-6.834357422778503449e-09	-2.314235472198607549e-09	9.795036409816798573e-09	-4.178032434724701146e-09	-1.214550555139414881e-09	6.554171715049212294e-10	1.564583130111430238e-08	9.205943832920100071e-08	1.593221738037595703e-08	5.936156823736461228e-08	8.187624350785922955e-08	2.482084279799388574e-08	8.188169352667120288e-09	4.417001128972613405e-02	3.548935858581090536e-02	6.572586655219789965e-07	1.289697107240824446e-02	5.252440807527863412e-09	-5.699760107644154094e-09	-8.981780385700371690e-09	-3.041508891049901467e-09	-6.134964692180233529e-09	-6.478827554736858976e-09	-5.082121355209568856e-09	-2.879598737900006422e-09	-8.085144538244198328e-09	-8.298232920327315756e-09	-3.461937141909746847e-09	-2.022891978202675869e-09
-1.850799996445238062e-10	-1.998421812935118737e-10	6.117879387274219587e-11	-1.664348923703685366e-10	-1.564799801379499191e-10	-1.404507702373747365e-10	-1.666525764710147629e-10	-1.568311083027461746e-10	-1.638659530999982862e-10	-1.509918776631799890e-10	-1.671686089606104552e-10	-1.583226592336774043e-10	-2.360271941374648231e-11	-1.888497296855643880e-10	-2.067076483158603536e-10	2.767679026874919940e-10	-2.001270237104733430e-10	-2.146576606260087673e-10	-1.807297176548617178e-10	-5.669416764004410948e-12	-2.203988275764139187e-10	-2.214779211131716227e-10	-1.682655661840178210e-10	-1.822265307715126504e-10	-1.254835698679813492e-10	4.093194469549487960e-11	9.823150725458803384e-03	1.542621106299532787e-11	6.867623121969011995e-10	1.532342632517305648e-09	5.630725000382746770e-11	-2.218115494582108747e-10	1.885763995573511154e-02	8.658786837196513764e-02	3.448972070759579174e-11	4.820231226095875333e-10	2.123522693538177183e-11	-1.604109907875352494e-10	-1.750133524235289795e-10	-1.142747516547123362e-10	-1.608613369681370452e-10	-1.650157486247978641e-10	-1.405179609877901442e-10	-1.047805703977910969e-10	-1.804665226660935152e-10	-1.854659211827948417e-10	-1.325679001894986936e-10	-1.281997515402483720e-11	-1.140798630850098559e-10	-6.061942983670044656e-11	2.965866482838690546e-02	1.565371345504077080e-10	1.623703113367221993e-09	6.587431669172263971e-02	1.662138759814039478e-10	-5.626672397643887084e-11	2.559303544034586988e-04	4.475391537367279932e-02	5.470746774196316936e-11	3.021332950877668262e-10	-4.259236259466632524e-11	6.399802006330088128e-11	1.564383592179072538e-02	3.669257169087396147e-10	2.427687548765404361e-09	1.956806441490633597e-01	3.055498985470747424e-10	-1.372790218366424345e-10	5.247893279271457834e-08	5.610619132645502538e-08	1.892640594090475320e-10	5.486599109067169834e-10	6.531076845988453803e-11	2.654934741042230587e-10	1.419497851322559112e-08	5.831620246907037321e-10	3.976255765369105084e-09	3.620695799667500991e-01	5.855586734507925426e-10	1.016251828192291861e-09	8.770964947387620281e-02	9.467631289575491806e-08	4.407697458525571389e-10	1.102486729892482544e-09	-1.435174234633774587e-10	-9.899771469812376992e-11	3.800620702365329521e-11	-9.192247654735881305e-11	-4.261295719930984360e-11	-2.038699247287454000e-11	-1.103870220633744873e-10	-1.279330305642633702e-10	-4.305923765841535635e-11	1.213642955877922291e-10	-8.309169858830374273e-11	-3.841488674195664259e-11	-2.795257289542243739e-11	6.558937873745887321e-10	1.376520557060051553e-09	1.037309263801939794e-10	7.794485778455580647e-10	1.101547240532902936e-09	3.049551976963632258e-10	-2.104760666971413162e-11	4.760460053010431847e-02	2.013717355797480305e-02	8.163859687665803470e-09	1.534279036494473267e-02	5.263365850626303563e-11	-8.210489310300419408e-11	-1.388861379313335707e-10	-7.984009497046030979e-11	-1.107324220914133879e-10	-1.143673858444174904e-10	-9.031358898473783927e-11	-7.901568686909988341e-11	-1.399103331706525720e-10	-1.364961056698762062e-10	-7.650773465496584819e-11	-5.569967940945839153e-11
-1.960266983661378996e-09	-2.240850938859403363e-09	6.023488214656355321e-10	-1.299845777338842957e-09	-1.849195289054666451e-09	-1.801332980939561228e-09	-1.902176903193962706e-09	-1.870402331923168363e-09	-1.840677738949647257e-09	-1.848646282074409324e-09	-1.944727309449055500e-09	-1.798022038841053942e-09	1.947018495172842470e-09	-2.133282329226374098e-09	-2.302235547466473098e-09	1.856225616397682653e-09	-1.966052885846993013e-09	-2.263471847756155141e-09	-2.032056160113944509e-09	-2.081740367111704177e-09	-2.258760006465929570e-09	-2.213523626365694569e-09	-1.943930082187598111e-09	-1.554458183582684654e-09	-1.575831403807233142e-09	6.428499752467307097e-10	6.848428403803542841e-03	-1.100990519098791872e-09	4.995243400842937635e-09	2.116781343227281698e-08	-3.977747186590104090e-10	-1.365210426722170198e-09	1.008611743356245191e-02	1.019276585000142427e-01	7.914172565194411567e-10	3.189140707737548600e-09	7.711188520398567463e-11	-5.690656534799228215e-10	-1.745299041385954170e-09	-1.391545780868520863e-09	-1.876081774459079451e-09	-1.895483899231893893e-09	-1.702041435768807645e-09	-1.240565714357895700e-09	-2.087046977420577398e-09	-2.016551336991396257e-09	-1.651739369064966835e-09	-1.476925719029651119e-09	-1.516029422140764402e-09	-3.081813230181963032e-10	3.908839402147828990e-02	-3.238830612106413879e-10	9.352424661222075322e-09	6.348653894655559293e-02	8.780505052848786850e-11	-7.038935666496611800e-10	1.234532787347676630e-02	1.876411879091794202e-02	-5.583749295029278305e-11	1.799787711444511894e-09	-9.610190214556906754e-10	1.254624548881711946e-09	8.248577102929994381e-03	9.325489577133056944e-10	1.439585649143228746e-08	2.040267277304181615e-01	1.071842154824916549e-09	-4.003466280473158920e-11	1.177943077711340615e-07	1.376325044855230173e-07	7.588080012958308233e-10	2.954780306414417657e-09	-3.575058550468435288e-10	2.685066440827659112e-09	2.938108924110832624e-07	9.794985613084996141e-10	2.386047513514891012e-08	3.294509191057297670e-01	3.144069151290296723e-09	2.581898320568882205e-09	1.095757675017187266e-01	1.216494094884212490e-06	3.084921790855336646e-09	7.761773357527892824e-09	-1.647151107333488610e-09	-8.189624441895927146e-10	5.841189872941290485e-10	-1.332016774335874805e-09	-9.479757507337494847e-10	-4.737976038288335786e-10	-1.531570950520071828e-09	-1.656563236025011147e-09	-9.688760390764875952e-10	-6.199971797989802012e-10	-1.264987615386552064e-09	-1.065513411203074298e-09	-7.355598374358689366e-10	3.597437377881787578e-10	8.299704261347084043e-09	-3.837000217997690454e-10	4.991181177241657068e-09	8.352517659947862329e-09	1.403493306844596242e-09	-3.520767956830610172e-10	2.822246334140631266e-02	3.669460776043050043e-02	5.611909505694151025e-09	3.123254078322021746e-02	-9.627547121020401632e-10	-9.355138367011509352e-10	-1.406031815386695638e-09	-1.071209534973479723e-09	-1.176586546475307623e-09	-1.121074624303837727e-09	-1.156450860833502111e-09	-9.852161487995696960e-10	-1.396084545929017592e-09	-1.313755542940523272e-09	-9.501789610218392063e-10	-8.676812733042500063e-10
2.621258930191944049e-09	2.180283946321271245e-09	2.731150675554566524e-09	2.655582767415038851e-09	3.017700402129046011e-09	3.009179800647546434e-09	2.771359670346367210e-09	1.582983051377597746e-09	2.739199830371870707e-09	2.399554193809850285e-09	3.216513332130605331e-09	3.019546074169642983e-09	4.849471672791121213e-09	2.403489732084906435e-09	1.798087351477064909e-09	3.374449334337450767e-09	2.597916521948882467e-09	2.350435209208349240e-09	3.192158877491416637e-09	3.342559041940614881e-09	2.193290749849490158e-09	1.801858178503538847e-09	3.889110745142669562e-09	3.117589840190464018e-09	5.181197658972640205e-09	8.596118750941161450e-09	1.291435516101634325e-02	1.255271319104033483e-08	4.029192307739637131e-08	6.287049410238511921e-08	1.261620095948343776e-08	4.304956280639671799e-08	2.636353513457426537e-02	7.909270992484551677e-02	1.785399466654038431e-08	3.338356348654389681e-08	3.764821462779488285e-09	2.312669233667338870e-09	1.920079245172846522e-09	3.420959326257219338e-09	2.564405716049722263e-09	2.393295437546143433e-09	3.035155413216999821e-09	2.297123033803901384e-09	2.179567132296692600e-09	1.899505057861266733e-09	3.795937731973763003e-09	3.085604661663709040e-09	5.892520389408025420e-09	1.297229349286645516e-08	3.653313841406104906e-02	1.762406299117273192e-08	8.403857174234304446e-08	5.836361520217163423e-02	1.663291647558923073e-08	6.880105037586028692e-08	1.015606647265822598e-04	3.850739808327920816e-02	1.467349169712719314e-08	2.437878690298486075e-08	8.813748273163893088e-09	1.860529678132249882e-08	5.396102743015870211e-06	2.204692329552259296e-08	1.211537759394204771e-07	2.083714349270074651e-01	2.204664194832819486e-08	8.967019131112482289e-08	7.485579570449340140e-07	1.453169778160327214e-06	2.185317648070305311e-08	3.696351967532215176e-08	1.318619177725318466e-08	2.868464426085346827e-08	5.515638004657673413e-07	3.954411783331845235e-08	1.910808714444537756e-07	3.501815472539526186e-01	3.379556516685140602e-08	2.035038067846675836e-07	9.031711045568202589e-02	2.311327862766275832e-06	3.730139404083229276e-08	6.742868326346057471e-08	4.075026571221923569e-09	4.335127552608038997e-09	4.675523751169952220e-09	5.881602320166265404e-09	7.485865060299041339e-09	7.829877095512030836e-09	5.722237475491154104e-09	4.283872329209636217e-09	7.461782401352062480e-09	6.912773667344778270e-09	7.184838089891224248e-09	7.494864980681673507e-09	8.306308223440459610e-09	9.872048288132555061e-09	6.826028519321019253e-08	1.752501754121177962e-08	4.917950165524869767e-08	6.972508804388084516e-08	2.238920628073787927e-08	8.173698887771214520e-08	4.364360353171163609e-02	3.571109880221335492e-02	3.239930855752622661e-07	1.988612517915194777e-02	4.450352402523962122e-09	3.268040203660371693e-09	2.786769355105878296e-09	4.761905981709599550e-09	3.839966336999127040e-09	3.657850568336469058e-09	4.291246258153002400e-09	2.750574737942920068e-09	3.336598086002304557e-09	2.846589917856441106e-09	5.261671722471798786e-09	4.349113824527224163e-09
2.951704127410974360e-09	2.184974240365088593e-09	5.046285106204305452e-09	3.701697762533188613e-09	3.753963244150264665e-09	3.765644084121526471e-09	3.418424747296566274e-09	2.462357722640818713e-09	3.297485704601477357e-09	2.642298674831775717e-09	4.157479334646106113e-09	3.852072191433886522e-09	8.161214718153616780e-09	2.762237188664204496e-09	1.852895949715922430e-09	6.722996976435622736e-09	3.357358266364314169e-09	3.263492700742328736e-09	4.850883719182589766e-09	4.126471291608117566e-09	2.377195324105945329e-09	2.045302887974744440e-09	6.001749544754686582e-09	4.423041805701450955e-09	7.431593226961326887e-09	1.433519873950013854e-08	9.925372602459537133e-03	2.009424651658239243e-08	8.335575641426700328e-08	1.854782755569114639e-07	2.230326104221087288e-08	6.051765078692865459e-08	1.301907395263864758e-02	8.926490566907550883e-02	3.114066443061494009e-08	6.260430113073955124e-08	7.852213883795737066e-09	3.081157170037570280e-09	1.837693650606959093e-09	5.044881315631022817e-09	3.034378140780761311e-09	2.713108883875544580e-09	3.892912329298814080e-09	3.669944706695747983e-09	2.296864640561093006e-09	2.170576874835168134e-09	5.568353301586457064e-09	4.348886145453428104e-09	8.548629974342738902e-09	1.827048335911036729e-08	3.052687721667361048e-02	2.850123354779201580e-08	1.544512834753563776e-07	5.837752862034254614e-02	2.885471084298548585e-08	9.267588149671019926e-08	3.159381649892643775e-03	3.861311216505677185e-02	2.473524905162121142e-08	4.313218261285205143e-08	1.328254372020689808e-08	2.590880456010930877e-08	1.138029240739705378e-02	3.708847850985875177e-08	2.218997281872222213e-07	2.051994392102368114e-01	3.855531347993668377e-08	1.215126735001101054e-07	8.906372999960586360e-07	2.974536362477302144e-04	3.878434897670286219e-08	7.241988753167877896e-08	2.024093386109715928e-08	3.996418248552451133e-08	6.834861623114246749e-07	6.417732277246680681e-08	3.550284834669264618e-07	3.348386105542220936e-01	6.231730151798548394e-08	2.435882903944355730e-07	1.064327758234739629e-01	2.384601713207817430e-04	6.520354808236178555e-08	1.295632427317475921e-07	5.422666724667027586e-09	5.637081678934974537e-09	1.018147557907703026e-08	8.809685541454756742e-09	1.128752094569725813e-08	1.187937771244045362e-08	8.377580954818567186e-09	7.770978387080615380e-09	1.095193765144025731e-08	1.036382564654678816e-08	1.096063120386372217e-08	1.162610153658313654e-08	1.321403963194770657e-08	2.077243716364705591e-08	1.024162983209473261e-07	2.956494959474555769e-08	9.560110088565173597e-08	1.430994864175298756e-07	4.072940317961238326e-08	1.180172938654807240e-07	4.880408191017811953e-02	2.530593570116752844e-02	3.496106620026222398e-07	2.461145213889904398e-02	9.579665168029376254e-09	4.224403769527559571e-09	3.506545210267163226e-09	7.987639082690669197e-09	5.751598115682796081e-09	5.447921727591377023e-09	6.722553408534106712e-09	5.529520596953595479e-09	4.670683849829309039e-09	4.110432297215605575e-09	8.804556405609005165e-09	7.161316575895212892e-09
8.626638187061957968e-10	6.320561140389982624e-10	1.486797075430640745e-09	1.138453544359445298e-09	1.204755797747281952e-09	1.299861545104399347e-09	1.010648060326014484e-09	1.118996859017904831e-09	1.080761831524697337e-09	8.335738018244174808e-10	1.196589647517288108e-09	1.152373638046021657e-09	3.245645165644863517e-09	6.358671949979916185e-10	3.185237121366917251e-10	2.345087399683318673e-09	7.347465900835786184e-10	6.115140643583682038e-10	1.107580651858847940e-09	1.348927959208214678e-09	5.353147908400852732e-10	4.030406780590339436e-10	1.772875878814461205e-09	1.170347657518212195e-09	2.125667040170854372e-09	5.039803212501325452e-09	2.202622187598896400e-02	4.875802761268456599e-09	2.856221377872340579e-08	8.450473367293948520e-08	7.091069978164749174e-09	1.818619301659626081e-08	6.121945874173245240e-03	8.297138316903976407e-02	9.081158230796631874e-09	2.150201232927421820e-08	2.195915280914047054e-09	8.953598017372957348e-10	5.718421159234490030e-10	1.563133012586106904e-09	8.881301492294524726e-10	7.827261278603085125e-10	1.267614622607819472e-09	1.305749248686746690e-09	6.180865325094394684e-10	5.430091243439125979e-10	1.619529718624118934e-09	1.297549417903801732e-09	2.600531360978139599e-09	5.919908583300309573e-09	2.317051561785591837e-02	6.564860255855878415e-09	4.795780293836891506e-08	6.094315418057970335e-02	8.389046679117168531e-09	2.712245207663163133e-08	1.634502069734784097e-02	3.641795715965587960e-02	7.745047087853469114e-09	1.528224187995060455e-08	4.348078890115362703e-09	9.674278983188251266e-09	4.985751009659075261e-04	8.967889592524657148e-09	6.836128250439212214e-08	2.085640039248029820e-01	1.188365510178653970e-08	3.468780119723936955e-08	5.358636727055295963e-07	1.398286813417255354e-06	1.116028238315051062e-08	2.232110356299912769e-08	6.364534197210745980e-09	1.306059024583440235e-08	2.458033437115005761e-07	1.557544005164220265e-08	1.095893737950138673e-07	3.453283440781715896e-01	1.883842331977345867e-08	5.344655617732469926e-08	1.005221776019505769e-01	4.471860990888606450e-07	1.622453323253759090e-08	3.079045988196555595e-08	1.613199674808966021e-09	1.931980013276784205e-09	3.270320738677216111e-09	2.423806351655447109e-09	3.534368076991102186e-09	3.824080227069829606e-09	2.492990916877557853e-09	3.532870320579959696e-09	3.432737940052191997e-09	3.298901829232829207e-09	3.257907383589987727e-09	3.657628791169915972e-09	4.176269786858708613e-09	7.593761396940131609e-09	4.974309255539291950e-08	7.526940181522114525e-09	2.903138695701578907e-08	4.344333831222027762e-08	1.240333979486988647e-08	3.279533254591408129e-08	3.398509117042906175e-02	4.601631535203348083e-02	5.243067206005045650e-08	1.708559071214927477e-02	2.926295762465703241e-09	1.552806264607410512e-09	1.149170870715192581e-09	2.235237945437492593e-09	1.730277535263491586e-09	1.631038856582862165e-09	1.987152994708148255e-09	2.051323725239055873e-09	1.377435993192399221e-09	1.114470163995833125e-09	2.496116849337492941e-09	2.038197288082757858e-09
7.235205566016097365e-10	5.180508502701963208e-10	1.215249582623310572e-09	1.065892291390900264e-09	1.022594284333695101e-09	1.090631658323580286e-09	8.954515886397603103e-10	1.120802790399086849e-09	9.146532168571441299e-10	8.846106986726476981e-10	1.081321431984241583e-09	9.819090765183341532e-10	2.684805344798818716e-09	5.984448185935545438e-10	3.602302391336085344e-10	2.624678069953975219e-09	6.943188118357850017e-10	6.518718999726113568e-10	1.038965897023193611e-09	1.163213549997966431e-09	4.736058687792689667e-10	3.249875307328315545e-10	1.714908122910898750e-09	1.002781382889258200e-09	1.964370755304069177e-09	4.319959198431770811e-09	2.311564440866843359e-02	4.767221998751305747e-09	2.229526484520275083e-08	3.839075307221633516e-08	6.475771059463857954e-09	1.558844004543772091e-08	8.373397664386075107e-03	8.065687967251992940e-02	8.849548566312177727e-09	1.866542591593609490e-08	1.676938648910926546e-09	7.251237236299973333e-10	3.840503033505662344e-10	1.398329852237522340e-09	7.471807943163127075e-10	6.631897839066382868e-10	9.708491168929851506e-10	1.361674871356543215e-09	5.294333326481212762e-10	4.411266859509862069e-10	1.625744581101948241e-09	1.551556065788377066e-09	2.279212115849618345e-09	5.188196976582629156e-09	2.379109026771220048e-02	6.669522330713482755e-09	4.461204977059021739e-08	5.843913899954579494e-02	8.803820968879195377e-09	2.592563109502290707e-08	1.343168876437933945e-04	5.141241489141420984e-02	7.187366044142399229e-09	1.307011275062363226e-08	3.844101390957752499e-09	8.537508198853953322e-09	2.085686233198988122e-03	9.033812157359634892e-09	6.334940966300790092e-08	2.190347379532963656e-01	1.157682933838761610e-08	2.853581387136646163e-08	4.577122617999605038e-07	2.116688176651279358e-03	1.184759351631648738e-08	2.439621845918264765e-08	5.790206878643909519e-09	1.183165170193168790e-08	2.668473702603982296e-07	1.504533729440126115e-08	9.986786808122365915e-08	3.167278541883519760e-01	1.797021082604711592e-08	5.843645632797586324e-08	1.260419159637135578e-01	2.744320790910378260e-06	1.826623128330821541e-08	3.580789275006806057e-08	1.429725455259662027e-09	1.706130376106045424e-09	3.184989983684878381e-09	2.258186770204815627e-09	3.160112024481236557e-09	3.369598787795244596e-09	2.298738383281373052e-09	3.363706243475383172e-09	3.153172096126374431e-09	3.046856150650579594e-09	3.082943247921968764e-09	3.389088561425899032e-09	3.688870049681513044e-09	6.565772480726843240e-09	3.475857318318164801e-08	7.180781144008897548e-09	2.333145831445218644e-08	3.158298349897584983e-08	1.189614082725377940e-08	2.965799580313355729e-08	4.454580951515132309e-02	2.353225445650806991e-02	5.834913991926963410e-08	1.998774408828023555e-02	2.995586064766764163e-09	1.330472798097768232e-09	9.992373698720395267e-10	2.146999878579735451e-09	1.558039153269881426e-09	1.451419904313420890e-09	1.870624526555377581e-09	2.057869780298980607e-09	1.274894130613948466e-09	1.046622252158324264e-09	2.473048200807332931e-09	1.980251295740163426e-09
