-2.655107837251449885e-09	-3.068174956581557349e-09	1.678619452345141378e-09	-2.454670942461709162e-09	-2.649970943263360435e-09	-2.535156637980534576e-09	-2.156259388829315400e-09	-2.711065501606875308e-09	-2.936830369639740380e-09	-3.073124734676710450e-09	-2.642317164603936118e-09	-2.920507063701550123e-09	2.947742317492729942e-09	7.019533113343664063e-11	-5.255039324272081964e-10	9.592830212119627320e-10	1.034634626509156492e-09	9.110853167428756716e-10	1.254099103495511790e-09	6.288446778556614768e-10	2.363453090521334876e-10	-7.176718040894753993e-10	5.540001976212676253e-10	-2.122474462065349043e-10	-1.002362697593207034e-09	2.731279144449621647e-09	3.087532553872473357e-02	-7.985357307744234659e-10	2.740116294041109055e-08	2.375698108006335518e-02	1.898836444629354238e-09	7.716722814339822637e-09	6.868594485253534665e-02	1.712938121232180644e-01	3.196526795297702318e-10	-3.667719906394507520e-09	-1.491698580556505879e-10	-9.295430413559702687e-10	-1.195707757891080642e-09	-1.085800425229931441e-09	-7.399312814807917070e-10	-7.985716481744488592e-10	9.463145342140393749e-11	-8.256673151699486364e-10	-9.292929563744570933e-10	-1.607413814632752147e-09	-8.502205064535551307e-10	-1.645032630761215426e-09	-4.669111574097463549e-10	3.476913013821452947e-09	1.738155386418574824e-02	-3.205319871989674593e-10	2.614883517427849642e-08	6.751445516800529123e-02	2.906794858100669430e-09	9.116074749184934481e-09	1.941806216902042000e-07	5.668752747258588853e-02	7.477150746086076649e-10	-2.465869421993816076e-09	1.172170012554413699e-09	6.484782830980027469e-09	2.501410531543958918e-07	2.035741561585653705e-09	3.935177328480567430e-08	2.650325366177228581e-01	5.864295834301411914e-09	1.445114767903752168e-08	1.787370546217981565e-07	6.890961433930734555e-08	2.103310715815350512e-09	-8.378739069478141422e-10	4.139974676873251378e-09	9.560189546191868195e-09	4.911985604767345565e-08	-4.203388613845798425e-10	5.107935110109411650e-08	1.108546155624525742e-01	1.407561755983283768e-08	3.430149777256140704e-08	6.073832787812927812e-06	1.709848390250960878e-08	3.474497894012747714e-09	1.092599362575518007e-09	-1.536270560271460952e-09	-8.362032771028762104e-10	8.399627393647928779e-10	-1.761173617668809225e-09	-9.168045916194948935e-10	-8.150044989283217198e-10	-1.519137116063057636e-09	-1.284464629021974809e-09	-1.066581781019948975e-09	4.265270504419028918e-11	-1.522801362824380505e-09	-2.353325978171705088e-09	1.324896985326266457e-09	6.444363620389011732e-09	4.141616230327756971e-08	6.550574002878599995e-10	2.282742592215532295e-08	5.646050652279316195e-08	6.291604644264847345e-09	1.562218602092018079e-08	8.755817334401960750e-02	1.003517619410161238e-01	8.848914416404319540e-09	4.591600780659033804e-08	1.524619847158613925e-09	2.891583002585088495e-09	7.369473980113974462e-09	3.766109705034708048e-10	8.825949813598650382e-09	1.109827333329295486e-08	3.358882411266461152e-09	5.202058581630153791e-09	1.115123270093554768e-08	4.658861307048422729e-09	1.286407017958556369e-09	-4.312417824472417291e-10
-5.278316369375311328e-09	-6.057831089675380055e-09	2.222553458381054150e-09	-4.951196772433473864e-09	-5.467606111896314597e-09	-5.098469562781690297e-09	-5.240417390573809545e-09	-4.867406900679831302e-09	-5.700906385299567014e-09	-5.884617639029469117e-09	-5.539801062559064796e-09	-5.678176632589820619e-09	1.472693628412625151e-09	-1.380800922756879857e-09	-2.743946801698518230e-09	-7.737846073338971598e-10	-3.787287481926093367e-10	-4.360805135481229484e-10	-1.318091866272518762e-10	-1.281609070647437239e-09	-1.833494736904089475e-09	-3.076620910278154982e-09	-1.522720366277836637e-09	-2.193812208443406992e-09	-3.291714290254309113e-09	1.904073407332101105e-09	3.167644120300859567e-02	-2.945516137683832400e-09	4.225659000981498845e-08	2.593291717772971874e-03	8.161634190144936439e-10	8.953245062922884250e-09	8.846916940330079582e-02	1.704309073140841124e-01	-2.000247103262732760e-09	1.456829105643636129e-10	-1.973415110732329391e-09	-2.590656946947377719e-09	-3.735527432118305894e-09	-3.380676399513058671e-09	-2.916992190776245219e-09	-2.991642095720442619e-09	-1.885233500159628065e-09	-2.687554759452644246e-09	-2.979994591223056990e-09	-4.169799692561542071e-09	-3.202877549932919015e-09	-4.224842861480455584e-09	-2.634296297777841273e-09	2.953214959813353053e-09	1.411863355665470346e-02	-2.224271490145443614e-09	3.244744954624051657e-08	1.080711731466138387e-01	3.408156662562508712e-09	1.564381643362133704e-08	1.798390950927126726e-04	2.753871342779447284e-02	-1.293660383280410637e-09	-7.687898375285461470e-10	-1.756095393267572804e-10	5.776402245848731977e-09	1.088151172306556605e-07	2.120598650233462093e-09	5.334366815434088869e-08	2.739202430184738968e-01	7.409715025060498745e-09	2.231082391583315230e-08	1.554588832741578666e-06	4.691904453956086645e-08	4.715717892942764679e-11	7.654182871878408311e-11	4.469206736313204799e-09	8.390313658829371433e-09	4.051644273078953262e-08	-4.292281627845222227e-09	7.480141335272590538e-08	7.258902940734167364e-02	1.518965053913219602e-08	3.536418606707618634e-08	3.505943323726725541e-02	1.533153970898321297e-08	1.662349328285923228e-09	5.873314253461383976e-10	-4.194877473562517172e-09	-2.901066850779029624e-09	4.060718339363216163e-09	-4.188337119532027145e-09	-3.196724687471884281e-09	-3.567254577806835858e-09	-3.734569267097263288e-09	-3.401315274964422693e-09	-3.540156762253146461e-09	-3.200817427823574116e-09	-3.766110570491521257e-09	-4.653546611862789975e-09	7.249425216112497480e-10	6.954895795400612696e-09	3.981962850911571986e-08	-1.763786923043827885e-09	3.265876709603962303e-08	9.195429442914536339e-08	8.330854825296187651e-09	2.532632068481418414e-08	1.286398772456247806e-02	1.624868464329034812e-01	2.092564486753671043e-08	2.727581153737568944e-08	4.356969368260170737e-10	1.398682228703123054e-09	8.466823000796972446e-09	2.059570851596577298e-09	1.127148608722208108e-08	3.473213081847642059e-08	2.915890888891577548e-09	4.956757030569972066e-09	3.104688749221621940e-08	2.224299044098328927e-09	-8.629326635319500602e-10	-1.313698804195225926e-09
-5.385836658905590930e-10	-9.290970445805314340e-10	-8.261706258650966533e-11	-6.967560556568632815e-10	-8.756065670484064319e-10	-8.303108671435929866e-10	-8.439104259948506041e-10	-8.188835684513416519e-10	-8.936978142880519660e-10	-6.173486769640959394e-10	-8.913071857963886782e-10	-8.246609905185283920e-10	-5.171051603487731018e-11	-4.626806469305506563e-10	-5.409200196861460817e-10	-2.887146171577613859e-10	-2.808375545416858477e-10	-2.890384965388729901e-10	-2.827276855482986243e-10	-3.699641664347192606e-10	-4.194028059779222376e-10	-5.629103671080952740e-10	-3.923069664054881046e-10	-4.944451505701922313e-10	-6.638744725426204011e-10	-1.597376974260560127e-10	3.124312907454302249e-02	-4.048099288648674584e-10	2.594692724406801797e-09	2.574129679383022062e-02	-3.065985294603495633e-10	4.239457049977462585e-10	8.181900109679893229e-02	1.619096764390643428e-01	-4.702892850385069697e-10	-7.628956398449462742e-10	-5.692869227987296576e-10	-5.421836368627370624e-10	-6.115730419496616905e-10	-6.037335756159984500e-10	-6.376887815243715921e-10	-6.389680857447193563e-10	-4.328673591220973975e-10	-5.698100461419055825e-10	-6.008413058211426983e-10	-7.553050985057494464e-10	-5.817358619416591079e-10	-7.468313845896425862e-10	-5.903381755752380323e-10	-6.361204319554256022e-11	1.858522084636811747e-02	-3.664327854624516519e-10	2.382169443552949431e-09	7.958555085143430297e-02	-1.629190488421771752e-10	6.540593512463364104e-10	5.393509547790303648e-08	3.894017344946365533e-02	-4.720547637699664723e-10	-6.409323959422159967e-10	-3.739172588572077794e-10	1.834659198873965344e-10	1.251769356389885849e-08	-6.938879651426581427e-12	4.232299913862058890e-09	2.725103797045871912e-01	2.305546241985440540e-10	1.412946769656903525e-09	5.786687470774833584e-08	5.633200796161436307e-09	-3.324958486233054292e-10	-5.094617435960699124e-10	-1.899427912824188038e-11	1.859966032176422708e-10	2.642377001301348255e-09	-8.935875667841073961e-11	5.325201326121677366e-09	8.689255265342860080e-02	1.049947188572664462e-09	3.069064468872723644e-09	2.048245407306747978e-02	1.244231463293776996e-09	-1.812538293718284140e-10	-3.654989048188809071e-10	-6.886125765766892314e-10	-4.382564089458603912e-10	-3.836529973241132030e-10	-6.663673837368535140e-10	-6.415662279629184831e-10	-5.819317891360602951e-10	-7.050786220075673092e-10	-6.762638463366677921e-10	-6.329938170601536368e-10	-2.481933483654195581e-11	-7.071860993040446772e-10	-6.701452572280440299e-10	-2.946194854736187964e-10	2.901111907565583317e-10	2.886053666016306015e-09	-2.830977603850467683e-10	2.114014763930943351e-09	5.871591008651714356e-09	2.576171251016956517e-10	1.454776770739414164e-09	6.065128454121963136e-02	1.216391425630123785e-01	2.727899970248429356e-09	1.083040027124575170e-09	-5.396984229118768649e-10	-2.048139272068102106e-10	1.131678648418241876e-11	5.974312669537231866e-10	1.457194219154688962e-13	2.335287294592585997e-09	-1.093044614948539610e-10	-4.050077296704830005e-11	-2.459464022527225910e-10	-2.407778992837890502e-10	-4.144795526456175179e-10	-5.981289314135325234e-10
-3.086583826762175827e-09	-2.511772127970723380e-09	-5.117151140488949320e-10	-2.481545751487680472e-09	-2.893549902752712498e-09	-2.462078522276727229e-09	-2.511307488997730348e-09	-2.820950613277502060e-09	-3.191203590285518727e-09	-1.951507098896849520e-09	-2.833860864207212730e-09	-3.120224293007292963e-09	-8.505862711582942767e-10	-1.658845066796152135e-09	-2.050022503743192336e-09	-9.027401490018033871e-10	-1.030013784102160430e-09	-1.003659635151194713e-09	-1.063286590432156649e-09	-1.471161488243105327e-09	-1.678029373848773918e-09	-2.047385666667172519e-09	-1.500584339044652198e-09	-1.716916164543054759e-09	-2.207286418334257505e-09	-4.308646484414161906e-10	4.108196671198815347e-02	-1.085202222308048046e-09	1.216017638140397333e-08	2.250305295979873610e-03	-1.060631378884600537e-09	1.516336507305772989e-09	8.127875308757467887e-02	1.641940867725396325e-01	-1.366631882882880528e-09	-3.175751510672195735e-09	-1.899636841399419459e-09	-2.248656594322615384e-09	-1.900979869260554532e-09	-2.084707871414873158e-09	-2.293544316662109646e-09	-2.318432149897310168e-09	-1.883135939662246730e-09	-2.025202533618092028e-09	-2.132111445182801660e-09	-2.611100388170167804e-09	-1.910866923983545875e-09	-2.208088915707975406e-09	-2.050628151841933332e-09	-5.582022683320633458e-11	7.400162893067584353e-03	-1.058841148659037647e-09	8.644982714887489229e-09	8.404777870747952295e-02	-7.791521324217571722e-10	1.514987227463521193e-09	2.863139257257135875e-08	5.309036714306077792e-02	-1.487497783565108237e-09	-2.587454111068281118e-09	-1.250738778404469420e-09	9.695099285070376289e-10	1.042642109327434904e-07	2.030556244216011128e-10	1.510981656197514127e-08	2.832676270185146561e-01	5.465331050355670613e-10	3.902005002862809968e-09	4.710059815912803350e-08	1.847653303451596789e-08	-9.367356980477380399e-10	-2.079899540788915901e-09	5.681577681398525991e-10	5.235986422887789475e-10	1.271682450764989630e-08	-4.916306312532756163e-10	1.894299019773105993e-08	9.322138730714828181e-02	4.126678116567116874e-09	1.228895876769216839e-08	8.084045127670622111e-03	4.186214654621740974e-09	-5.149308310779051310e-10	-1.282668210046327662e-09	-2.347220037342079122e-09	-1.730795062547859778e-09	-9.852964004158741411e-10	-2.250221494168614675e-09	-2.421028573414516268e-09	-1.801510923332359012e-09	-2.635195973064268449e-09	-2.620822843742669556e-09	-2.294295267906132124e-09	-2.732720358341900332e-10	-2.581729985686023660e-09	-1.677712214369343680e-09	-6.730430594714008460e-10	1.425046855389187347e-09	1.188349462299619850e-08	-6.110152095551531115e-10	8.629026329324301302e-09	2.697909031807756269e-08	8.496811818353464717e-10	5.050642367173962930e-09	7.295573115380728224e-02	1.091275469207970833e-01	5.056592825997654968e-09	5.778657965601174098e-09	-1.154682545550327658e-09	-5.721223354591253015e-10	1.206505205506711038e-09	1.385788535029715240e-09	5.798898747120871855e-10	4.993355519198974125e-09	-1.457069136329225724e-10	1.116098174042646662e-10	-9.309409460429056604e-10	-5.095548508115997956e-10	-1.185197845081596009e-09	-2.292846082043249343e-09
-4.253262746707010836e-09	-3.591822447440056811e-09	-7.668116422641117295e-11	-3.538528003009358305e-09	-4.157767026404396020e-09	-3.897621451280588577e-09	-3.428699294217569674e-09	-4.418216466049286404e-09	-4.440813944648381432e-09	-3.636468243443480071e-09	-4.287452502354111445e-09	-3.963653689133599193e-09	6.792241848712418804e-10	-1.698616453078749881e-09	-2.412820609706230916e-09	-1.158730230736973237e-09	-9.715784674404476660e-10	-9.228593371687801857e-10	-9.533874137974391551e-10	-1.501356442319384593e-09	-1.813884642306785599e-09	-2.657577283119395821e-09	-1.808014476795571941e-09	-2.230196967121418869e-09	-3.241827233704861343e-09	-4.241256951813409086e-10	3.587525086224625792e-02	-1.400650992479481500e-11	1.790892865884939956e-08	1.426343774638270598e-02	-9.311180422227801400e-10	3.595012690892963977e-09	7.296488350451355021e-02	1.719697595437003068e-01	-3.172425173364240088e-09	-1.758601083958191125e-09	-1.576065130200426210e-09	-2.956587296077985981e-09	-3.061804520175105644e-09	-2.901317653912509850e-09	-2.843975921724839038e-09	-2.898844914041243868e-09	-2.079886456302591056e-09	-2.524008909479177884e-09	-2.740166334821471645e-09	-3.577341637081619780e-09	-2.932226835808468526e-09	-3.516160492713799157e-09	-2.817339093660360643e-09	4.326864281159555872e-10	1.166244356530051970e-02	8.416674246158419754e-10	1.645810414955474537e-08	8.627320511674926862e-02	-1.655560620680486169e-10	4.596793228650382370e-09	1.441086732039067859e-07	5.544280279482513563e-02	-2.543328631921063737e-09	-1.938904216649601890e-09	-1.723912732307912757e-09	2.305016278325707383e-09	2.679798532531172055e-07	5.129759922117376743e-09	2.698554954206749220e-08	2.668241710567595404e-01	2.229057204086684255e-09	9.237701775057639812e-09	2.020682151512901353e-07	4.177340197737151680e-08	-1.729509254241002073e-09	-1.379746040607524513e-09	8.951939891874283043e-10	3.367938315170621195e-09	3.033387187578331087e-08	2.314210169139639257e-09	3.430179919610175640e-08	1.029582558315742385e-01	9.551945124404025861e-09	2.944118341607492935e-08	2.646439999164196689e-03	1.083470807903260466e-08	-5.036484746403365372e-10	-8.222956054470189586e-10	-3.250508829154015645e-09	-2.080807632122714158e-09	2.224620415386934209e-10	-3.426962118790666759e-09	-2.940915326368112864e-09	-3.020813503804912028e-09	-3.353389123512794883e-09	-3.119960981216550523e-09	-3.190626491234384724e-09	-4.733185736103327823e-10	-3.571785552469673405e-09	-3.624917453270714683e-09	-1.232176147662695498e-09	6.958460170876505507e-09	3.891050975388162630e-08	1.562051187257795483e-09	1.395613717507144326e-08	3.743443432615359216e-08	2.264903842961836040e-09	9.576117443381975482e-09	7.912368766780161766e-02	9.999478258237665118e-02	2.342747123777237542e-08	5.057710888015910868e-09	-7.163416851256246321e-10	-3.968980264979417699e-10	4.392797725999788047e-09	2.961761509982521076e-09	3.990772488887687325e-09	1.187148909292796604e-08	2.878527091120873931e-10	1.519351359711747192e-09	3.598462900654222207e-09	1.110318883892363019e-09	-2.204868646319288267e-09	-1.545924929346616872e-09
-8.294148069742495811e-10	-7.527901027161933047e-10	-2.428492054156408031e-10	-9.319113578384436764e-10	-1.065192243338031496e-09	-9.621146462677676247e-10	-9.208875770974205271e-10	-1.104870066899803198e-09	-1.046610384182230765e-09	-9.884334437669928019e-10	-1.056446173862161604e-09	-1.049664506671004907e-09	6.246987286119110855e-11	-5.729078159582063586e-10	-7.329461473791700981e-10	-5.189847646607066735e-10	-4.236819450043200631e-10	-4.147369181824091952e-10	-4.383290585475960850e-10	-5.729204362912703952e-10	-6.384854078301734829e-10	-7.797161247208798729e-10	-5.729851508001778268e-10	-6.920156636530102793e-10	-7.465278166424066994e-10	-6.808639314308425435e-11	2.233522317510357180e-02	-9.796223384639353795e-10	3.641412266800706639e-09	2.453587635686495976e-04	-4.002146469413910039e-10	4.107257895967565851e-10	8.098128459729624085e-02	1.951644824254653021e-01	-3.977307933540626848e-10	-1.220694853117842196e-09	-1.950964193277328469e-10	-9.368102707076262935e-10	-8.986633244716267016e-10	-8.808340336351975165e-10	-7.893337298553433501e-10	-8.462620838165763906e-10	-6.652917854744440973e-10	-7.485775036299850725e-10	-7.311501126223954728e-10	-9.532583781261005889e-10	-7.599932027044427819e-10	-6.237918792599180662e-10	-6.965047662680972986e-10	-1.386204055286477204e-10	2.454169506537787551e-02	-1.018775442174441756e-09	2.762264280447441403e-09	9.037409488899868226e-02	-2.230506839271902203e-10	7.435462426658975273e-10	4.518899490465572508e-08	2.665394762735881495e-02	-4.953395960891577317e-10	-1.010251375208562967e-09	-4.472424056856511572e-10	2.251943397807130216e-10	1.811567966595918551e-08	-7.578840222368511545e-10	4.774456667394151865e-09	2.718555413914280350e-01	2.410667063706619841e-10	1.538448269610257252e-09	5.011254136500445943e-08	6.178037796739769794e-09	-3.323391616430279647e-10	-8.392426524218308809e-10	-1.269494255671247305e-10	3.819961467045480986e-10	4.174710508915483031e-09	-6.667701543768766058e-10	6.346231759199932193e-09	9.410820131243438635e-02	1.260080165186533846e-09	3.798241275480849086e-09	1.236005919247889703e-02	1.392574908824255645e-09	-1.441614249408491270e-10	-5.751185549190600149e-10	-8.921638416806796226e-10	-7.550169276918227262e-10	1.018587447191680988e-09	-9.902474057764085641e-10	-7.676826597726640293e-10	-8.426982439946772894e-10	-8.628333151126228007e-10	-8.095174730702019349e-10	-8.004865227901476221e-10	-9.671654352624419851e-10	-8.254328011129985790e-10	-9.944448640309202660e-10	-3.816348385052024389e-10	1.914512513658996736e-10	3.103099301913770804e-09	-1.048868722779436463e-09	2.362585259060830905e-09	6.660595757072166168e-09	2.429839033165127595e-10	1.641319216851959570e-09	5.173095623414401822e-02	1.296490352803350288e-01	4.182808090749443445e-10	1.777737537841630913e-09	-2.873089814805468166e-10	-3.337531592727724026e-10	2.092023463278011391e-10	-5.584382418696345704e-10	4.085507541390154661e-10	1.154343258837465283e-09	-1.441315958449444913e-10	-4.965905662680899262e-11	9.448829559469908787e-10	-1.787475576274261704e-10	-4.518569993363281316e-10	-8.711097065496943737e-10
-1.908911658812376862e-10	-3.280461128505576142e-10	-6.191202226381401827e-11	-2.729730630335337528e-10	-3.095423807726428907e-10	-2.928831852272580482e-10	-2.395060327462553286e-10	-3.246552970710542064e-10	-3.164154684884283597e-10	-2.662634919793075014e-10	-3.025144417652053416e-10	-2.680881764499045002e-10	1.674694897405912331e-12	-1.806541434111781038e-10	-2.241965590116356357e-10	-1.460373896880161654e-10	-1.229088182847343026e-10	-1.092840272457941352e-10	-1.319633230023423571e-10	-1.746464560199882850e-10	-1.946749729147550891e-10	-2.332829079252751333e-10	-1.771186137864799907e-10	-2.038383912313944956e-10	-2.301170039975679647e-10	-6.974493610236082441e-11	3.595327532070783511e-02	-2.944479778105052883e-10	9.517701010504130264e-10	6.822460148788142206e-03	-1.339065719051268732e-10	8.807743416460099294e-11	9.061671190950953969e-02	1.652622766051558834e-01	-1.846297644849956186e-10	-3.149488622878257766e-10	-1.270682400746799585e-10	-1.819801833999122127e-10	-2.637879873717611614e-10	-2.505761025765085565e-10	-2.417519269297759846e-10	-2.451338135028899416e-10	-1.356719511967671168e-10	-2.302251290916469480e-10	-2.414511020097698368e-10	-2.770400962607152423e-10	-2.245525843162550668e-10	-2.903281199404371744e-10	-2.129686621929971138e-10	-3.830085549216139000e-11	9.505213170645357423e-03	-3.119369142342216961e-10	7.327145651862076754e-10	8.724613037520613512e-02	-1.044762267254278619e-10	1.167833493923076961e-10	3.645391653056882423e-09	4.744108897061065366e-02	-1.688331281539872671e-10	-2.856312138622594512e-10	-1.446839194828812668e-10	2.725281969678097698e-11	5.192462786797737242e-09	-2.318355063771607047e-10	1.280955908236523177e-09	2.669383770083632590e-01	1.922476535759990487e-11	3.228626529519047306e-10	4.778056129685619118e-09	1.816776412437866018e-09	-1.207045657750257368e-10	-2.386314306670304253e-10	4.398164639528932278e-11	-2.169907093106939501e-12	1.080676836905222460e-09	-1.246026542038445307e-10	1.602399754965463982e-09	1.008695637450608695e-01	3.524908808965822354e-10	1.146652450352523822e-09	2.540044650898395549e-06	3.944550359717299178e-10	-6.600004905081044871e-11	-1.683963363719620925e-10	-2.571775240637704323e-10	-2.711726920156057273e-10	2.137118800666828847e-10	-2.702395678401091911e-10	-2.338784361431228993e-10	-2.065328671456702449e-10	-2.639750824643478604e-10	-2.532567556152035676e-10	-2.132222673872103386e-10	-2.348977065116186972e-10	-2.548144332018179461e-10	-2.763426991056038091e-10	-7.291126269317196534e-11	1.663775977406474139e-10	9.864623261259057655e-10	-3.182666366979580178e-10	6.965733070726491351e-10	2.209612622815239185e-09	3.588198664422458412e-11	4.119158424404587625e-10	7.038580594760723841e-02	1.189565426972672979e-01	-2.208226570936040057e-11	4.729537140617012284e-10	-4.913373513909456899e-11	-1.133341688456889080e-10	1.545824209918851378e-11	-2.123143657928808650e-10	1.875473841716519486e-11	4.501329698286329111e-10	-5.457011230270107642e-11	-5.616018809381175051e-11	1.671290041682517055e-10	-1.094505560818905884e-10	-1.514519747269904999e-10	-2.591818718134768967e-10
-1.109357651830225343e-08	-4.333669478355088638e-09	-1.112454033587441725e-08	-1.117393231103576853e-08	-1.287554814408276317e-08	-1.136210924699160898e-08	-1.041123582356263558e-08	-1.394802116747066286e-08	-1.314104960137185186e-08	-1.169102805514457217e-08	-1.328759652500747154e-08	-1.263277425341516044e-08	5.412212225758298960e-09	-6.165269349639881906e-09	-7.778075968665158922e-09	-3.789392102952137429e-09	-2.612014280831549780e-09	-2.626785296818750565e-09	-2.560827655729729775e-09	-4.584232015903078549e-09	-5.618546433542689887e-09	-8.181704383466626737e-09	-4.953173976405161686e-09	-6.562507424401569074e-09	-8.650367956519134845e-09	1.312591493890118889e-09	2.809303907395875599e-02	-4.535451288728629029e-09	8.203133551609033172e-08	3.123309946427065085e-03	-1.508863978864902693e-09	1.395324344783415160e-08	7.866264686547143337e-02	1.806233477723037661e-01	-8.081010918034231287e-09	-1.339475538980259346e-08	-5.522676040581639015e-09	-7.786235404613510500e-09	-9.868197082785144959e-09	-8.638476604284405852e-09	-8.468245812122656854e-09	-8.861557236211283522e-09	-9.739802386102462171e-10	-9.383104511931721939e-09	-9.447581596880540046e-09	-1.061969481951429953e-08	-9.781549142441103347e-09	-1.052845957985009135e-08	-7.829562891684690061e-09	3.108910479333118551e-09	1.431387730678751989e-02	-3.937185380090165813e-09	6.169687849900655855e-08	7.405594019131996053e-02	1.105959632000318536e-09	1.749316890318752638e-08	4.227206228125646843e-07	4.975693537107597764e-02	-6.034609719776800307e-09	-1.173470029640108534e-08	-3.119110430331470760e-09	1.091947802351411459e-08	7.735204984873797012e-07	6.126491496820533690e-09	9.742933185810204139e-08	2.779051541519581559e-01	8.884435825463249984e-09	3.118023865442723881e-08	4.394552095649279133e-07	1.990455726169549266e-07	-2.765532001380869547e-09	-8.763064167889743037e-09	4.918006146780346777e-09	1.369181773608444487e-08	9.771050298878461308e-08	-4.434188555097580680e-09	1.344810770672301297e-07	9.777698837377772623e-02	3.187172472375697035e-08	9.063358521470542794e-08	8.176611491630309675e-03	4.164643184543575702e-08	1.142897948695836462e-09	-4.937695714851678718e-09	-1.025353241829684161e-08	-4.821143240125105401e-09	3.852826241290901396e-09	-1.137394168571216991e-08	-8.831807157644616121e-09	-9.316453607478292932e-09	-1.021429524906149113e-08	-9.450515024116765720e-09	-9.491749234696601348e-09	-5.036908225382763750e-09	-1.058521256380130098e-08	-1.147679803080415234e-08	-1.290427302824112874e-10	1.422926929545956695e-08	8.616873857929731859e-08	-1.655649452419425739e-09	5.836501154134703539e-08	1.774885319023493617e-07	9.386756217244490642e-09	3.387614074178878264e-08	7.690681300627907890e-02	1.106026953029211751e-01	3.418710519847526207e-08	4.501643831981954194e-08	-7.198468887677659491e-10	4.477215139490893737e-10	1.117154837530510749e-08	-2.296217694524680851e-09	1.404599641598889106e-08	2.935193608213838284e-08	1.832061119102139704e-09	5.548229394094886434e-09	1.846685698512923474e-08	5.723300809580504415e-09	-4.801786852142022711e-09	-6.936235402033603486e-09
-2.993904076393422890e-10	-3.436749909594956599e-10	6.988051512997140194e-11	-3.482904764947176315e-10	-3.668566766135253735e-10	-3.342085873499329877e-10	-3.128745138320987591e-10	-3.851461745514396815e-10	-3.629423939333989470e-10	-3.853989860141886334e-10	-3.719054024418689555e-10	-3.633492845080775106e-10	1.089958796764728812e-11	-1.211616901137398720e-10	-2.067188111235251071e-10	-1.377585110187927917e-10	-9.264645844845578358e-11	-9.345175472226613114e-11	-5.515932725579687953e-11	-1.304892933087331232e-10	-1.606583351721162968e-10	-2.316317119956430704e-10	-1.482878889944020314e-10	-1.841189173806727005e-10	-2.559299896448339476e-10	3.266718036280465688e-11	3.606304033675892390e-02	-1.937690536892813418e-10	1.356055671411959373e-09	8.366507574428159975e-08	-5.661262447009509292e-11	3.547730489855036103e-10	7.575096876326470330e-02	1.787409547166686763e-01	-1.629197579941970894e-10	-1.921517589747273747e-10	-1.483693336706879377e-10	-2.426249057896252354e-10	-2.504947558888785838e-10	-2.570710294390836154e-10	-2.392857119808946754e-10	-2.487447390214209155e-10	-4.397856160539051924e-11	-2.479465619056841686e-10	-2.560963623986339307e-10	-3.045386759604983008e-10	-2.490770862657619305e-10	-3.209622065604430307e-10	-2.132386519695494936e-10	1.266813246159179966e-10	4.557464900091050958e-03	-1.533742097847035723e-10	1.501936091839400329e-09	9.611619422514443289e-02	4.310668841197152151e-11	5.779246565520761661e-10	1.196051574797280202e-07	4.401567508756806801e-02	-1.557644020327261425e-10	-2.194260291253418644e-10	-1.007764010100755607e-10	2.967294270787365611e-10	2.232150717786732493e-08	8.342249492565938524e-11	2.469357725286753264e-09	2.713215067989547258e-01	2.691931588536451226e-10	1.011377109073043234e-09	5.822330050785776200e-08	4.372569633149443998e-09	-6.563874681778184282e-11	-1.462623545297158622e-10	7.846299833735275765e-11	3.542477317334501473e-10	2.645647952058490268e-09	-1.957927036249743146e-10	3.268371831634084588e-09	1.014509321218492188e-01	8.716780282513308229e-10	2.618549254933834970e-09	3.303718386925199972e-03	1.007447658709809164e-09	2.536264194913222794e-11	-8.051727663042789867e-11	-2.826174876112644545e-10	-1.720320422589492806e-10	9.777539470180225020e-11	-2.994780505909099460e-10	-2.612956768475530146e-10	-2.546979235232041772e-10	-2.842926333937913984e-10	-2.683451342154304582e-10	-2.633589927733091782e-10	-1.782326341148579022e-10	-2.841797225879089808e-10	-3.240637268140835604e-10	-8.493428763910056361e-12	4.794113547046224262e-10	2.509297119123298981e-09	-1.413448525989754493e-10	1.091107503484205713e-09	2.414413595292577223e-09	2.418167177350234219e-10	9.026588999576921148e-10	6.579978918346926497e-02	1.228794505785499314e-01	1.161481413839075379e-09	9.907951556922882968e-10	-3.057913332700453235e-11	-2.470019402611004800e-11	1.203426715647940032e-10	1.045007576055330294e-11	8.243018862554700043e-11	8.156385715942438341e-10	4.262152152554796434e-11	6.785886848613925917e-11	5.577413649791012406e-10	-7.590634685476214561e-11	-1.233517083960080619e-10	-2.320139231783298309e-10
-5.171126824174885612e-09	-8.941993547715741098e-09	9.932424999271249181e-10	-8.719440091104267939e-09	-8.359572002356125673e-09	-7.731365453286717530e-09	-7.709181884590543186e-09	-8.734953642528136502e-09	-8.806307021935191859e-09	-7.900431336301780488e-09	-8.510749460782735655e-09	-8.554597116576284350e-09	2.019977983373151946e-09	-2.615055397937705605e-09	-4.374290447481873553e-09	-3.847462374967568110e-09	-1.255650352678382709e-09	-1.287766444105259798e-09	-1.127971191178076120e-09	-2.604546500879375076e-09	-3.257553652062778458e-09	-5.018236743881607257e-09	-3.265157606255968610e-09	-4.509727907813078693e-09	-5.964417437467551541e-09	2.291773758563423939e-10	4.114454969799303391e-02	1.505591867938188656e-09	4.562945710023998457e-08	9.799036640904239953e-03	-9.087636198009769004e-10	9.153358283113917805e-09	7.232573466474931378e-02	1.663987501435093552e-01	-5.947195573704711399e-09	-5.075386299244818683e-09	-2.726089002270001288e-09	-6.039349519191870770e-09	-5.696226875163706613e-09	-7.520447141195016350e-09	-5.099998343886966175e-09	-5.312626723205467102e-09	-4.016017159366396730e-09	-4.849710133130758012e-09	-5.041203780249524211e-09	-6.742254578067977910e-09	-5.965579693180284105e-09	-6.966747706998295655e-09	-4.857019046767031114e-09	3.541499036579392362e-09	3.326323415747787279e-03	1.321819616343243224e-09	3.894681542935789923e-08	6.854148755342810706e-02	6.324428712644333556e-10	1.088592879906219173e-08	2.056994319659570575e-07	6.634583808060701138e-02	-4.539965240803765902e-09	-5.062270893446779482e-09	-2.422794149053652589e-09	6.937137218472618357e-09	5.919382284902764039e-07	1.243475700200744539e-08	6.118922926070742685e-08	2.786248051644383272e-01	5.579842578611768371e-09	1.996850747106779157e-08	2.718119490304284668e-07	1.030224393893314931e-07	-2.749070291704846280e-09	-3.600751996093860638e-09	2.016347443391616020e-09	8.492531450242586310e-09	6.610698258897976589e-08	2.415223674416853749e-08	8.389919612180865692e-08	9.101785786703513181e-02	1.768808081202297946e-08	4.716069936040096623e-08	1.876125924879361306e-02	2.357597738954882597e-08	-2.750782193502119679e-10	-2.599036248278476461e-09	-6.598437526420951382e-09	-3.659897417428482244e-09	6.462151377392354487e-09	-8.339067862590799380e-09	-5.309841734755102750e-09	-5.838576173497999173e-09	-6.242276026964034124e-09	-5.737459500552325454e-09	-6.148175768816973046e-09	-4.191390593120314571e-09	-6.752213094689694801e-09	-7.852307565406155563e-09	-1.552755778916774874e-09	1.055171840230295390e-08	6.806059401761710680e-08	1.838074880057167555e-09	3.457883702826571358e-08	9.801573573678639519e-08	6.192645952244327184e-09	2.246881534871463157e-08	7.855261435652377555e-02	1.051600818943546622e-01	3.374195685552504600e-08	-2.468536690213882620e-09	-8.025234095274764118e-10	-7.393653180570224712e-10	3.344698887397998391e-09	1.722356493202136417e-10	4.742585604841381524e-09	1.040842973868015918e-08	3.947096111288374143e-11	1.346143684582754220e-09	5.878409218609738530e-09	3.601871462017933271e-11	-4.046008415470290478e-09	-4.579522054923175678e-09
