-6.189713468550824721e-09	-6.291172200637252684e-09	-5.403987021955088972e-09	-6.479110438029382263e-10	-6.051213793403659998e-09	-5.746064017047963648e-09	-5.438965810499701912e-09	-5.706064904085388747e-09	-6.290866790954249391e-09	-6.130030573616185103e-09	-6.229768993397523116e-09	-4.729447441055795354e-09	-2.380945922364172928e-09	-3.746537193395502240e-09	-5.174695151393675702e-09	1.923921737536602583e-10	-4.145517354583609972e-09	-4.331568323512835601e-09	-2.071381786251193318e-09	-3.818013258897035486e-09	-4.917714059188365689e-09	-5.528317097770788056e-09	-3.720504647938477686e-09	-2.314870935948079282e-09	-4.115361618852897280e-09	6.889483746148378059e-10	3.098174602509201278e-02	-4.756456414780359753e-09	2.437570354367816298e-08	3.512832585742430014e-02	-6.406326809177621998e-10	6.547565386341763034e-09	6.747755982519534901e-02	1.711463743290042860e-01	-2.423582285422865652e-09	-6.333068616565678843e-09	-1.966345038835461807e-09	-2.646503387257471426e-09	-4.588127518629306377e-09	-3.816837088390595925e-09	-3.864024448350039617e-09	-3.856280420287288568e-09	-2.973434233067369100e-09	-3.827212600579563334e-09	-3.974065283600034135e-09	-4.675831613011823246e-09	-2.407529564088410449e-09	-4.687392775943560724e-09	-3.449654604254576796e-09	1.345704762813257934e-09	1.744914877275866028e-02	-4.271759385542150502e-09	2.570859170402106988e-08	6.706333007922976597e-02	4.477493916410769646e-10	7.414225851181272094e-09	1.532578173115843580e-07	5.637478118274019678e-02	-2.240861253382390369e-09	-5.362129212547094213e-09	-1.578841343308725213e-09	4.269770174693160128e-09	2.137453522960619890e-07	-2.698085029644513883e-09	4.293938482947122278e-08	2.697641581271230105e-01	3.886510084133080720e-09	1.348878860643873219e-08	1.474809624474285215e-07	6.509382458201825229e-08	-8.883557346441075538e-10	-4.524577071915662286e-09	5.416721969264476141e-09	7.128171889456882047e-09	4.644357989193136822e-08	-5.757569979047553550e-09	6.404474352478431445e-08	9.300879192279119800e-02	1.545165652314620067e-08	3.646579481495389473e-08	1.334917036599070497e-06	1.376337038334177808e-08	1.395764313115020858e-09	-2.266773066564454887e-09	-4.358769787473724161e-09	-3.172766196450662728e-09	-1.009219879111458135e-09	-4.678951252524067445e-09	-3.362937595852431241e-09	-2.459948598022523352e-09	-4.430836595047477897e-09	-3.954327292821581371e-09	-2.937603928082378413e-09	-1.388210722773891257e-09	-4.386633826824763903e-09	-5.930629994017925579e-09	-1.176099129555868897e-09	6.112625182714811577e-09	4.030456761444514477e-08	-3.178145856056569039e-09	2.453468675371165493e-08	6.773725463521445321e-08	4.760366761857362322e-09	1.651839045260705389e-08	8.975647899419660070e-02	1.018470902478311457e-01	2.205338442074038170e-08	1.060692441090372709e-08	-1.509684448163398193e-10	3.636819243164556538e-10	4.230000638574127598e-09	-8.950234313926062837e-10	5.787761286768669019e-09	1.882364477092598082e-08	1.806498196784915183e-09	3.291939731913631832e-09	4.227153944642818369e-09	1.895813819885195964e-09	-1.655821049338952513e-09	-3.604754238436360070e-09
-7.842886357019885296e-09	-1.487117914400072171e-08	-1.149184481742523931e-08	-1.872465047017751594e-09	-1.385391474448367937e-08	-1.357093704963625246e-08	-1.222475361857353943e-08	-1.386937319730032219e-08	-1.392907124760778265e-08	-1.468744738605127130e-08	-1.332092146564611260e-08	-8.913450492551764485e-09	-6.929381701952016829e-09	-7.413909741350537550e-09	-1.195411796649154065e-08	-3.829369140798388396e-10	-9.682994701863210813e-09	-1.005205419228232252e-08	-5.214966705374321497e-09	-1.053680014582429993e-08	-1.157563254440083269e-08	-1.238373141034203306e-08	-8.730065517695560968e-09	-4.097785620452829791e-09	-9.225890376126595582e-09	8.792534561310594971e-10	3.177934055810199138e-02	-1.335963029230735245e-08	5.483751228953394789e-08	2.396604511369116418e-03	-3.147994579970576085e-09	1.004623111943765448e-08	9.731741797479739886e-02	1.707690758882877136e-01	-4.120151678098253582e-09	-1.654128572038101803e-08	4.615398558318037931e-10	-1.114880249281024473e-08	-1.075559987971665656e-08	-9.023436050621799936e-09	-8.377555468643643880e-09	-8.969967495351401938e-09	-5.216444326020318976e-09	-7.648944663783415692e-09	-7.454843104911956500e-09	-9.968125144317028991e-09	-7.915678451142983725e-09	-1.117973956554840020e-08	-8.074863904765977260e-09	1.570370204539950898e-09	1.407777327063893316e-02	-1.336304744522989891e-08	4.568722144078121372e-08	1.036987427892285957e-01	1.475800480194454734e-09	2.194539984967074725e-08	2.684895394979681417e-03	2.826009362703912550e-02	-5.306437203088642845e-09	-1.513826262779661432e-08	-4.051703622047204988e-09	6.039605670787338980e-09	1.766143408490012516e-07	-1.244542506868067036e-08	7.868680076134598014e-08	2.783227337216839792e-01	8.672138231515626879e-09	3.558842101416858412e-08	1.171297703495435100e-05	7.904370040934508294e-08	-3.218369165932527259e-09	-1.392772212393749831e-08	8.933118336540826951e-09	1.251796314413995375e-08	9.561327902694524652e-08	-7.476447328214644863e-09	1.223257225042389554e-07	9.055195362143210469e-02	3.738544522603827907e-08	1.148000925977738472e-07	1.886905944053893680e-04	2.431834729942127100e-08	1.578216257963398451e-09	-6.704289323922487246e-09	-1.028110664307468142e-08	-5.447862804536736907e-09	9.514573522120380430e-10	-1.153667886182479042e-08	-8.927022898627141723e-09	-7.594597397611761048e-09	-1.006538176154058193e-08	-9.372502716919985303e-09	-8.196414003165854154e-09	-6.833548584601582302e-09	-1.001156282649444135e-08	-1.372068704738515097e-08	-3.963410556366543480e-09	5.131014333423049256e-09	5.476896153146713328e-08	-1.167731320801430466e-08	3.854095349642048927e-08	1.011909722024384527e-07	9.010819817754961235e-09	3.460671013319998116e-08	1.894437803862627709e-02	1.609958453491877328e-01	1.467269739268444403e-08	7.240695544514816317e-09	-1.544194514367866892e-09	1.139451697095244802e-09	1.475708071295208202e-08	-2.284001088961895019e-09	2.302477943366361573e-08	3.551957266521312865e-08	6.029770322465479781e-09	1.419536810110308896e-08	4.274514514738508262e-08	8.039583153900586551e-09	-3.822634490989855613e-09	-1.046016725492910168e-08
-1.309269532691495728e-08	-1.623533122331946802e-08	-5.718437872563632666e-09	-9.713116092828431413e-09	-1.570530214666382198e-08	-1.523254738814830124e-08	-1.243767871368282506e-08	-1.631674545155451942e-08	-1.593434522439904855e-08	-1.632426047036861677e-08	-1.601667653094931487e-08	-9.001314026672524717e-09	-8.578305073802330159e-09	-1.061920922924936405e-08	-1.321036666411441515e-08	-1.556427469526425111e-09	-1.018160019436496581e-08	-1.059526021700887171e-08	-5.477675175778020196e-09	-1.114267487841482930e-08	-1.265483221634775998e-08	-1.382856341169964497e-08	-1.044714623193614093e-08	-3.797352695971781745e-09	-1.227892647006164533e-08	-3.664368337368307387e-09	3.132021754343343456e-02	-1.081062062328997638e-08	4.477719062717352741e-08	3.148484820016436009e-02	-5.007735464767256066e-09	9.006725592750356904e-09	8.514364194113545337e-02	1.618251187663010682e-01	-1.190682220235459765e-08	-1.911141607467575321e-08	-7.688818944555237063e-09	-1.309868912311352622e-08	-1.279257695515736436e-08	-9.480255867089951001e-09	-1.045604662228833306e-08	-1.061168669969430090e-08	-7.171156050887662674e-09	-1.015367894321986243e-08	-1.039732039279067589e-08	-1.197569870405680217e-08	-8.435593352088016097e-09	-1.240572904061024360e-08	-1.085238731323646264e-08	-1.638400882147928770e-09	1.854567917764085583e-02	-1.179064559494993731e-08	4.770165119957596132e-08	7.879324714210521330e-02	-2.346485351313295630e-09	1.314536796601735688e-08	9.591435155563547879e-07	3.902537925100371674e-02	-9.942735220027283458e-09	-1.769422787737135700e-08	-6.989296729257013510e-09	2.521051531350333976e-09	2.296937968251182393e-07	-7.782731053130503482e-09	8.249043657706271475e-08	2.757379789287068839e-01	5.077453256386883483e-09	2.732459922335341581e-08	1.114885771091597148e-06	1.093891622849375620e-07	-7.186884286476585907e-09	-1.607836827938791650e-08	5.737733953302128388e-09	4.028347243320358979e-09	5.632533133918918154e-08	-1.213373482737647989e-08	1.239644880572738872e-07	8.334987910443177050e-02	3.127426216100028720e-08	8.705147219468957796e-08	9.538662050758992331e-03	2.386318631329614236e-08	-2.182201694099132458e-09	-6.812131078282439675e-09	-1.329894958849977344e-08	-1.239870012394836376e-08	8.909604971176150263e-09	-1.054959370755616059e-08	-1.039603352617810911e-08	-7.958817503280427967e-09	-1.283153337394788425e-08	-1.193807527858124490e-08	-8.740168542271703622e-09	-1.085987819525440711e-08	-1.300584966483208955e-08	-1.456474435827794426e-08	-4.207598999216567232e-09	5.940807961453634158e-09	5.373500866228978767e-08	-9.121164332676663839e-09	4.171241823439335677e-08	1.043458867559232877e-07	5.259804525942306544e-09	2.849216382629273042e-08	6.350884169900021525e-02	1.217237194779473425e-01	1.122510374791513370e-07	3.071367419046707925e-08	3.734781355409525477e-10	-1.295709581624706031e-09	2.464482897497150494e-08	6.414980439699931553e-09	2.513325023865409160e-08	3.954067735185230758e-08	1.521462552056282725e-09	8.162229295779181091e-09	3.865009164058733208e-08	8.063184915662329245e-09	-7.940307952441006702e-09	-1.074640404203325775e-08
-6.452772647418042424e-10	-8.662549752772242219e-10	-8.600772867587550316e-10	-6.960992149842700214e-11	-9.922078409646873160e-10	-9.854403033016336709e-10	-9.517634851529139975e-10	-9.856837277889928777e-10	-1.019879486717374892e-09	-1.082676686019050580e-09	-1.020954956058775181e-09	-3.301959220181133094e-10	1.574492403329483390e-09	-9.255249183658098035e-10	-1.004878234636945305e-09	1.208970571990020177e-10	-8.183674723128094395e-10	-8.470145099651735089e-10	-6.336472134608583963e-10	-8.284383310400081771e-10	-9.059125102050637000e-10	-9.753465819608626750e-10	-6.754711172711531522e-10	3.143767428721619163e-10	-6.020237722168931531e-10	2.285416083709550305e-10	4.110726163657581894e-02	-4.295262952289390906e-10	5.035231816708664094e-09	8.091245147316454556e-03	-2.653134597954144142e-11	1.176294351721277469e-09	8.344381916000588595e-02	1.639103635506063417e-01	-3.135707128602606315e-10	-6.357703782486342496e-11	-2.082254187018174543e-10	-7.198750307900266451e-10	-6.348127281598255383e-10	-4.179075558943106863e-10	-4.814717771894808452e-10	-5.412066943850401181e-10	-1.310511489906770929e-10	-4.795979924176384322e-10	-5.347592398272486517e-10	-6.711010498479536697e-10	-3.784531355650242541e-10	-5.462184897292220090e-10	-4.975106367243678025e-10	3.674653408312168890e-10	7.253588569322086052e-03	-3.144140663799568432e-10	4.609143921300328085e-09	8.367299369878695992e-02	1.401408902450529837e-10	1.283521162600618961e-09	2.462753173434954696e-08	5.298476029597564557e-02	-3.061073408327874812e-10	-5.964984578730183766e-11	-1.836092003465408327e-10	8.849614092809604179e-10	6.628046280074425464e-08	2.198263057805102921e-10	7.602932957427667935e-09	2.839402958856325210e-01	7.311107472747545230e-10	2.396205261949503733e-09	3.075086115677384138e-08	1.072417709439558581e-08	-6.462973330877157689e-11	2.498044393251211583e-10	3.316943101395593673e-10	1.839728759035940923e-09	9.159766653538473382e-09	-6.077296966519451497e-10	1.160685873712294500e-08	9.232841299657323919e-02	3.685904109494977044e-09	1.048967724319710665e-08	2.548328999519868226e-04	2.635806393538093913e-09	3.369003881075970034e-10	3.191156500111355976e-10	-6.682876546276921813e-10	-5.291287264022584107e-10	-5.564448912325082362e-11	-6.780753578729356697e-10	-4.966882018742461115e-10	-3.636265729878199930e-10	-6.855072645631961730e-10	-6.109285545284876671e-10	-4.423557327399811481e-10	-1.918346624556304567e-10	-6.261836017755685303e-10	-7.729523986941546205e-10	-2.273265540867612939e-12	8.845691692848878857e-10	5.952529762629219307e-09	-9.239536544772487580e-11	4.279770485374030380e-09	1.119340784482764279e-08	8.313426445257185640e-10	2.833278222633135809e-09	7.430495605709722118e-02	1.087072623368774416e-01	2.859832091091117446e-09	9.497798444903566891e-10	1.310320591722453101e-10	3.227993402766319634e-10	1.553277966649889455e-09	1.082001335060044149e-10	1.732783492403306602e-09	2.823490906694681665e-09	5.024709448500905686e-10	9.333725492143246635e-10	2.418330361848366319e-09	7.815508038643761685e-10	-1.308675080540253554e-10	-6.503905792511598679e-11
-1.445180528688773094e-10	-5.546584487388045936e-10	-4.114145488865786358e-10	-3.634460949072354138e-10	-4.998835931802213910e-10	-4.820077390193282043e-10	-3.464688172098418425e-10	-5.295365996986815382e-10	-5.297764602215111649e-10	-5.304769504156629852e-10	-5.192195756235911575e-10	-1.851277297256489089e-10	3.453551840146452543e-11	-2.734846429782198630e-10	-4.287170542714562876e-10	-1.405070864748585655e-10	-3.533974512823903599e-10	-3.638661079167458304e-10	-1.439322985426097597e-10	-3.879465056315384202e-10	-4.344974051743923367e-10	-4.613237279553806852e-10	-3.103276695294236851e-10	-1.247490472515321646e-10	-3.540643489357966834e-10	4.906343400252747760e-11	3.586818590436911119e-02	-1.860626437786725013e-10	2.143914087874961543e-09	2.314796885009132860e-02	-5.021293281204272239e-11	5.488477430821540462e-10	7.309293668501931629e-02	1.716083343671820083e-01	-1.841620998341440424e-10	-2.691993208073605186e-10	-1.297455528182056082e-10	-3.986380405437323757e-10	-3.473662436761554183e-10	-2.326304443114659674e-10	-2.815078459981150650e-10	-2.658569124591555256e-10	-2.904018883198666630e-10	-2.376153937058871634e-10	-2.568901743263604284e-10	-3.343184097497731490e-10	-2.340520734650029774e-10	-2.921031219716455255e-10	-3.128989450456475793e-10	1.140696354523209731e-10	1.165259613075305019e-02	-1.214070831273253270e-10	2.248976139389065072e-09	8.581119862874596327e-02	4.064992677163014737e-11	6.409214870762536261e-10	1.341193596506784248e-08	5.523069083313477540e-02	-1.807356527250851588e-10	-1.336750387473442829e-10	-1.543849770278823309e-10	3.923102274208559204e-10	3.667141878524324257e-08	2.449155658139685847e-10	3.665303880834004093e-09	2.687404799878659878e-01	3.447104487728502441e-10	1.189028330789822223e-09	1.651086151281361194e-08	5.378702529919894533e-09	-7.085776006266370140e-11	9.039077560905453161e-12	4.211792631472138838e-10	7.700170878785405920e-10	5.325556423994038008e-09	-4.823625237519375414e-10	5.562979892754293355e-09	9.403922806578936255e-02	1.511868797532767045e-09	3.805612132031119071e-09	6.190247119709524743e-07	1.319217230413014574e-09	1.698559350832268109e-10	2.535492838851143772e-10	-4.040634901600227781e-10	-2.945960046696653546e-10	1.304556961831727115e-11	-3.544995543737993563e-10	-2.843729880912366407e-10	-2.238640387776089267e-10	-3.788640563154742129e-10	-3.380882976294625371e-10	-2.515928300738681068e-10	-9.734729455153049971e-11	-3.652961540561363127e-10	-3.947331926746129624e-10	-9.198591257577841618e-11	7.220479126435918955e-10	4.968316803399413991e-09	2.525140484990534517e-12	1.982072117509583233e-09	5.185070592775123236e-09	3.990291920968145271e-10	1.408988000628427821e-09	8.042246702492858446e-02	1.003851879641868561e-01	1.812557785827106323e-09	1.086205085036609737e-10	-4.906010250344921468e-11	1.225545473121572584e-10	6.758590499650042505e-10	8.144038840509349061e-11	8.480316885299837269e-10	1.755029588427582720e-09	2.175682637917925240e-10	4.166700752222320417e-10	6.247147882845756231e-10	3.926236403362876589e-10	-1.107246333853069322e-10	-2.306250670357638178e-11
-3.454622726564169017e-09	-5.894782218763571522e-09	-4.326983090287920267e-09	-1.420464812789683777e-09	-5.036803282707213614e-09	-4.555825246574445019e-09	-4.181610850332935915e-09	-5.213332968589507360e-09	-5.406256580402856778e-09	-5.145132208008551629e-09	-5.269641425188291590e-09	-3.893251872612533569e-09	-4.951466121098644615e-11	-2.288177418240680243e-09	-4.441828160745138179e-09	3.169807855229780223e-10	-3.171741547399823223e-09	-3.414729359765370113e-09	-2.355610474667644664e-09	-3.219394554133001921e-09	-4.032019667983654900e-09	-4.777760323295698523e-09	-2.692641269625003864e-09	-9.932167458615794202e-10	-2.921501294230596684e-09	2.971627783217273125e-09	2.282903597221160388e-02	-2.127092555732720982e-09	4.228759442738333537e-08	6.646591072494272175e-03	1.052973735813879678e-09	9.031608127379566000e-09	8.347599385607197553e-02	1.954226942604056771e-01	-6.434199187287986496e-10	-6.500545574486028938e-09	3.042399386175040055e-10	-3.436834691514075133e-09	-2.997950894877823695e-09	-1.965782778184512456e-09	-1.882507859360082248e-09	-1.942529022851757780e-09	-1.726647507664826635e-09	-1.361855858591797854e-09	-1.417066077778211341e-09	-3.038076645855845071e-09	-2.210907133796744127e-09	-3.642188357750675003e-09	-2.303137904251852405e-09	3.296393041650848939e-09	2.421983980606727191e-02	-2.293977447352614226e-09	3.369002418082076237e-08	9.022869369519381788e-02	2.934435853043910475e-09	1.273155604043926389e-08	1.144070923907300678e-06	2.646769360702806023e-02	-4.783200205008591479e-10	-5.873404127989360502e-09	6.881371410517553617e-12	7.404300562994463481e-09	2.474523638820985275e-07	3.661689987726901323e-10	5.377212436315582038e-08	2.773047775083125610e-01	7.462514695952384777e-09	2.148307501849101573e-08	8.992861480516195155e-07	7.672695357078103719e-08	1.180522282957014969e-09	-5.086473774916079298e-09	8.000237905010448271e-09	1.528735159985807508e-08	8.357471964185966901e-08	2.654175911422158195e-09	9.906480688589196514e-08	8.486612074101033965e-02	2.903516661966437455e-08	9.050695311027591355e-08	2.671348041434738925e-03	2.259148641888157519e-08	4.599273637298555570e-09	1.490701330166139238e-10	-3.751893882679589424e-09	-2.651222217691268017e-09	5.512365670924012449e-09	-3.605955397939072066e-09	-2.301111403733182075e-09	-2.530287377378091267e-09	-3.313279986745686301e-09	-2.856504798667328994e-09	-2.757609153043535471e-09	-3.296284963903907319e-09	-3.377366419537877836e-09	-5.005090483231913146e-09	2.320275200699368433e-10	7.714465712860486360e-09	4.364526159583543884e-08	-8.463733854376728715e-10	2.860897390039779933e-08	6.657030819510939274e-08	7.166467989848124580e-09	2.044008782953472986e-08	5.527096783110460598e-02	1.305931775970977926e-01	2.604296296826380475e-08	2.100502480492837496e-08	1.527757724807869316e-09	3.337448422029948664e-09	1.096275060552379322e-08	4.872573176350711532e-09	1.235097419251353166e-08	2.271038877977481966e-08	4.981445524829387607e-09	8.043916504166115620e-09	1.772884932148768673e-08	6.496201470893619033e-09	4.857995479560818692e-10	-2.338595722579979774e-09
-4.491467023498078115e-09	-8.805579326389267931e-09	-4.925934952191144878e-09	-6.203803533952171596e-09	-8.112054937692724030e-09	-7.622367235478764075e-09	-5.807502606010623606e-09	-8.583117890416331107e-09	-8.261406601158889203e-09	-8.275568147742355711e-09	-8.306910361531733106e-09	-5.883033949765541982e-09	2.128405237675496320e-09	-4.391852354230780484e-09	-7.003495781577767070e-09	-2.747396560059745833e-09	-5.491523525982834872e-09	-5.646758613455603940e-09	-3.553437494255619952e-09	-6.093377379548724395e-09	-6.908339059117831832e-09	-7.579380361510449057e-09	-5.282615939899588764e-09	-3.469795179665434586e-09	-5.677912596269573317e-09	5.571639178837929807e-10	3.593178206777925682e-02	-6.737091742111027627e-09	3.623486222941436950e-08	1.624119908984309607e-02	-1.259617877889895454e-09	7.685437371806152128e-09	8.985321686366591620e-02	1.648844513549100055e-01	-3.064697288795803388e-09	-1.072023807051778660e-08	-2.936916823840715521e-09	-6.470003243193151826e-09	-5.971887562472803533e-09	-4.763546216409917307e-09	-4.931668737985862732e-09	-4.699146186698533616e-09	-3.079434840829664260e-09	-4.716111237293726326e-09	-4.833928563272930212e-09	-5.441021111615617405e-09	-4.130112180516113668e-09	-6.494392953099454499e-09	-4.796198878857504359e-09	2.011275441914096414e-09	9.516733324112371800e-03	-7.008657739196890689e-09	3.290672729204240890e-08	8.689476793751241268e-02	-2.050267477228528242e-10	8.238494966840812122e-09	1.212134549405269028e-07	4.718731591358680394e-02	-3.002481173269041146e-09	-9.765808777242658105e-09	-2.451547809738664944e-09	5.150789147212586513e-09	1.970938099103007496e-07	-5.208770882207217093e-09	5.573498146167986701e-08	2.686285350606983369e-01	4.341101625908096591e-09	1.590279042687156063e-08	1.423038616487846745e-07	7.407150279195642638e-08	-9.320346521222581821e-10	-9.339839999907057861e-09	5.017190231160922463e-09	8.194381710322715783e-09	4.347066290576745332e-08	-8.857102456570829866e-09	8.407490021310082175e-08	9.012526496258541076e-02	1.932886525815841435e-08	4.682479643664136022e-08	2.774355483034021973e-06	1.639750798223526832e-08	2.296844918293106290e-09	-3.428553824082528585e-09	-6.474728090737987801e-09	-4.649805359317724167e-09	4.553736836821192489e-09	-6.548082280924339818e-09	-4.554098169249701003e-09	-4.436856138203253787e-09	-6.041008907738163445e-09	-5.391517963987528803e-09	-4.666855957358167048e-09	-5.388189365585262281e-09	-5.879089385690733720e-09	-8.268683548041971180e-09	-1.671194253684380741e-09	6.192699209775759116e-09	4.882766547431562818e-08	-6.046180639267403208e-09	3.300743001626901190e-08	9.206492631108709766e-08	5.285474003278630842e-09	2.005219150893149225e-08	7.129647460171750772e-02	1.194365720784739404e-01	2.599648965382734622e-08	2.156610235455322698e-08	-4.269086408326019211e-10	1.065018199074117461e-09	9.818931620379928507e-09	4.112640724716150698e-09	1.221174722406465527e-08	3.204897503173854948e-08	2.467403915393274488e-09	5.208751492367335542e-09	1.500480697663446286e-08	4.441368750580915660e-09	-1.829728650659954504e-09	-6.073138724690932222e-09
-2.876244765993862898e-09	-3.311280885685130001e-09	5.624237775960928813e-10	-2.203978476694391807e-09	-2.967606492029417457e-09	-2.687053113291755052e-09	-1.927666932335297129e-09	-3.279111280425477487e-09	-2.849121471257924074e-09	-3.181576035785247008e-09	-2.946441472919693768e-09	-3.208546496521382273e-09	4.427775548799157518e-09	-2.857408475099144927e-09	-2.952872648007154376e-09	3.795407782177564324e-11	-1.843894811135846214e-09	-1.946513090268658383e-09	-9.931474883074253201e-10	-1.930527698287255170e-09	-2.408054692835667969e-09	-2.718135699874341089e-09	-1.153928580119666821e-09	-1.170038358199230866e-09	-1.229077708882013283e-09	2.459247490860959306e-09	2.828706977986199939e-02	-1.462190114624009591e-10	2.896219387984170324e-08	9.633058020756502318e-03	1.402587545489879660e-09	7.109137939159196182e-09	8.074254011615188131e-02	1.804699652762403739e-01	-1.907880701193547227e-10	-4.077164864899552223e-09	3.565259380896930322e-10	-1.867705231110115678e-09	-1.672431932846816006e-09	-3.337370517400186395e-10	-8.162195443666613469e-10	-8.381148135230771416e-10	-6.086617971896647258e-10	-5.299236751310891011e-10	-7.552655035117746434e-10	-1.447235203480621933e-09	-8.806969580446099361e-10	-1.876308156838485692e-09	-8.368418893807565873e-10	3.042006189802203030e-09	1.411725714180857641e-02	-2.087953233778009544e-10	2.509635413967093755e-08	7.377293943500629059e-02	2.437418414480882662e-09	8.609146475318063669e-09	2.214236996930708700e-07	4.960212630313091953e-02	5.497033011355214441e-11	-3.619704568980772565e-09	6.851606577540805425e-10	6.002165105374892498e-09	3.996516008019985769e-07	3.424550412992766851e-09	3.920978987462655491e-08	2.802056219906515766e-01	5.290456380053945362e-09	1.361584189873542467e-08	1.805470190290891742e-07	8.679295286712955794e-08	1.345029241050921163e-09	-2.856219749508499423e-09	4.787202381094692090e-09	1.278454921230365340e-08	5.433777709433910015e-08	2.642954822218926701e-09	6.379211412531719743e-08	9.352180121765514553e-02	1.890751390134102375e-08	4.970323143258788146e-08	2.099312161682575831e-05	1.800115498457395835e-08	3.850425812407192009e-09	1.491529202231059007e-09	-1.820267386526657769e-09	-1.348037792555393669e-09	5.224356013524160555e-10	-1.612722497669376397e-09	-1.244007472332045308e-09	-7.290692344571511944e-10	-1.973466344595618657e-09	-1.700692200598899573e-09	-9.723629944433826632e-10	-6.507510008244565620e-10	-1.941722683713516246e-09	-3.022472605337880667e-09	1.060812004957003067e-09	5.791659911233976920e-09	3.289575976760598437e-08	1.222266531340728674e-09	2.377910000075306804e-08	6.264110055295945670e-08	5.555199965606826890e-09	1.506246356880098236e-08	7.894739358270329299e-02	1.106778098739862465e-01	1.023735769333389784e-08	3.147046715369733430e-08	1.837161513997269658e-09	2.770639411527408354e-09	6.145785599428229160e-09	1.849055214511308836e-09	8.813402220788756160e-09	9.946276731939922396e-09	3.699448779901012561e-09	5.517311724678854136e-09	8.685481791224357576e-09	5.377760928874925649e-09	7.973474885123158009e-10	-1.162492062122288260e-09
-1.393730246517912520e-10	-1.738307808737621192e-10	-7.134557248514617994e-11	-9.607484500222862759e-11	-1.505279855397537442e-10	-1.406717159619382656e-10	-1.413298059161827152e-10	-1.327364540535500769e-10	-1.415016477677318949e-10	-1.545377692777205027e-10	-1.512115497528608608e-10	-1.298054415720305880e-10	1.393167839817258434e-10	-1.526635190474143174e-10	-1.508900501417074628e-10	-2.008822913759965368e-11	-1.143776138338489374e-10	-1.191027295659465057e-10	-5.076007465521873143e-11	-1.180183144384832398e-10	-1.333558982487771438e-10	-1.461231959747984613e-10	-9.765055756977412784e-11	5.891124354183493949e-13	-1.056143402847508081e-10	1.857425577551296714e-11	3.799906130850234237e-02	-6.932897780763015232e-11	1.014238265309485107e-09	3.353825744090041701e-03	5.223704718535207432e-12	2.172297329262358878e-10	7.759196067613188807e-02	1.800420141231297289e-01	-7.893778836655048707e-11	-1.751996345173583388e-10	-7.719477237729439224e-11	-1.099344688772908613e-10	-9.919621935519835921e-11	-6.199860173507365650e-11	-6.957199063837731981e-11	-6.907568377606258713e-11	-4.414864226302476701e-11	-5.979351666280641705e-11	-6.150394059272240126e-11	-9.431487154850268481e-11	-8.501421528169596579e-11	-1.168810609727258645e-10	-8.500210643350689419e-11	8.686283668343297828e-11	2.609770259642742174e-03	-8.284796269547778447e-11	8.437594559612898977e-10	1.001986173107137224e-01	3.927516641091693635e-11	2.599456336764374123e-10	7.205903240413162719e-09	4.204867643869418525e-02	-6.733205626979755784e-11	-1.449854446634400182e-10	-2.356021884081270456e-11	1.580618444316143905e-10	7.749501298409030350e-09	-1.342650764081873885e-11	1.363367605087447879e-09	2.756160646330855224e-01	1.471708022738582575e-10	4.596191810567108540e-10	8.150377902890238426e-09	1.765118882161019872e-09	-2.279600348594214122e-11	-1.681466850950435967e-10	5.460223630972945919e-11	2.577847301230594957e-10	1.261042024070104281e-09	5.418710323154119550e-11	2.330945465878282241e-09	8.670418082127256953e-02	6.560214294591066346e-10	1.911967424808660274e-09	2.387668413487092130e-03	4.650792083030229025e-10	5.327425206317047097e-11	-1.477736891892564305e-11	-1.194866864434046669e-10	-9.769703385036980262e-11	7.801034997359513378e-11	-1.065820234777754570e-10	-7.915231798582330023e-11	-6.012876734541154287e-11	-1.117276232778655059e-10	-9.885301794563770028e-11	-7.064087666235457726e-11	-8.121292617955311550e-11	-1.153679945176313552e-10	-1.550346474132359699e-10	8.147268841753875430e-11	2.906569094164667238e-10	1.381536454899301509e-09	-4.213997395173851603e-11	7.867899069099819754e-10	2.021630642008406247e-09	1.541387698229432286e-10	5.005668645754324411e-10	6.661257865202550865e-02	1.248355407985762000e-01	1.151688050187498663e-09	5.158736429610346370e-10	1.798995074236536622e-12	7.356072529477863345e-11	3.784032463728307551e-10	1.539120828010411508e-10	3.795501835147070417e-10	1.065007841359493381e-09	9.890450268755320049e-11	1.878553514138551295e-10	7.243005330217967130e-10	1.410604920508430199e-10	-3.373693023306163020e-11	-1.167885228503688418e-10
-5.417691808460209939e-11	-2.760641403071141314e-10	-1.890801915209862624e-10	-1.852190663058776112e-10	-2.486208637821195906e-10	-2.376741637651264253e-10	-2.431839273559593204e-10	-2.348957494985903323e-10	-2.331646376594272541e-10	-2.543430259493610880e-10	-2.481131136354055767e-10	-1.331002665122368381e-10	2.305729828757076422e-10	-2.258391289830501647e-10	-2.363052519892619631e-10	-1.201813659863178823e-10	-1.723010581277951061e-10	-1.790164466573072827e-10	-1.009972507829754110e-10	-1.755426909218060267e-10	-2.072079615067972052e-10	-2.309786391806975624e-10	-1.396305518826416008e-10	-2.276033172165861442e-11	-1.651952767372533061e-10	5.466867977755863274e-11	4.129426321655457061e-02	-4.778924949985160537e-11	1.285818343928870157e-09	1.567753358165422176e-02	4.818852868163232132e-12	3.391802450715094194e-10	7.587523129086494456e-02	1.663992244235323326e-01	-8.913492684459498129e-11	-1.653714694051090245e-10	-1.311643212944504188e-10	-1.349863769999404298e-10	-1.368295456834574608e-10	-1.012438831550091909e-10	-1.191178016617581015e-10	-1.264275240777910265e-10	-1.723401981449292205e-12	-1.307948076919813899e-10	-1.252174716202034043e-10	-1.489677077479954186e-10	-1.305155468994751444e-10	-1.335191904352916537e-10	-1.346631746739166469e-10	1.292137479844806482e-10	3.270180278800669752e-03	1.482889886685376832e-12	1.289183617833615924e-09	6.775183032454631937e-02	5.642964607456756158e-11	3.823091517001137057e-10	8.037048840666844343e-09	6.640243938862501472e-02	-7.980207558017475007e-11	-7.571797313797736856e-11	-5.131996223340978074e-11	2.522915619326689188e-10	1.523402682960499056e-08	2.308527061514438271e-10	2.135007931261449332e-09	2.828043041467483421e-01	2.245284934278562007e-10	6.961000822663667761e-10	9.922483053057417107e-09	3.824045597036758308e-09	-7.445794334563675233e-12	1.237518874617228471e-11	2.501981942182671180e-10	3.770375436829326256e-10	1.896314090696248944e-09	-2.523355408193829507e-10	3.321935184292577938e-09	8.699089164829879040e-02	9.320406225348543419e-10	2.407315334592128322e-09	6.086285540630840749e-03	7.583126394344321248e-10	1.192277768546282170e-10	1.621105576518813966e-10	-1.935439635051287799e-10	-1.369196326239126333e-10	5.492753118808357248e-11	-1.803742993655790891e-10	-1.295355045611298740e-10	-9.625840043422283333e-11	-1.790133370695381706e-10	-1.582091081102640200e-10	-1.160314213801206514e-10	-8.763030762124787429e-11	-1.783477570184467489e-10	-1.873718868082437710e-10	-1.977073097266822901e-11	3.419234757681044748e-10	1.923949040772993689e-09	4.557195311770729753e-11	1.170549319990165366e-09	2.894911726208155204e-09	2.550528314001443820e-10	8.244622742434900448e-10	8.199875335020162526e-02	1.054490040146456309e-01	1.130607893620590217e-09	6.701071039646883402e-10	1.886917194279428789e-11	9.392287692038450948e-11	5.080055167949262638e-10	-3.077414522511525453e-11	5.979755417100426005e-10	9.744876245815656002e-10	1.416007569064735041e-10	2.921836392600826515e-10	5.606260964420483975e-10	2.932010700593475110e-10	-3.646559018349300184e-11	2.956309854659427072e-12
