-1.195744226105686732e-08	-1.293236318553661421e-08	-7.168291800213828899e-10	-1.123021012884825915e-08	-1.274301017775966630e-08	-1.183430537434515877e-08	-1.320082350275582024e-08	-1.251119007873035555e-08	-1.261729345642340304e-08	-1.306958290085879707e-08	-1.336233688018919374e-08	-1.319950325133505169e-08	3.176283694573557763e-08	-8.267467476574033934e-09	-1.147440044101472096e-08	-4.091787196370577484e-09	-8.181377907268677872e-09	-8.573870518130898683e-09	-1.933586023672797097e-09	-8.611080314693173753e-09	-1.007253600857435365e-08	-1.148959197403203411e-08	-6.401471230934245619e-09	-6.609843182824941833e-09	-7.456968243968711005e-09	7.246072875616676037e-09	3.042450719857341807e-02	2.352503846555172053e-08	1.098603795874127340e-07	1.734176382721376933e-02	5.040847473724251792e-09	2.920563302005585330e-08	7.285212540362341616e-02	1.701115245937357967e-01	-4.053216008926773686e-09	1.344984943699561779e-08	-4.148026521019303239e-09	-5.791837347400285601e-09	-7.213090442013713146e-09	-4.363421432308869306e-09	-5.142418307596803572e-09	-5.133715829143243302e-09	-3.486606512609249614e-09	-5.563316861088253546e-09	-5.844026170824605424e-09	-8.780281050928249804e-09	-7.729608413534977335e-09	-8.296143345360351066e-09	-5.164316093173736462e-09	1.086585418765358423e-08	1.698355167448990788e-02	2.373594128334725060e-08	9.677105949647236343e-08	6.708412696207922965e-02	8.167816873221477170e-09	3.109519665293199677e-08	5.129201112127684249e-07	5.731075151895907022e-02	-2.039973002118873248e-09	1.585512546114567293e-08	1.362871682812022679e-10	1.918363350673950257e-08	8.273899493137691406e-07	5.267764317633463633e-08	1.518302332205581169e-07	2.438532725818565727e-01	1.973680901662800649e-08	5.183161768457432176e-08	4.997532185984623261e-07	2.148714653686997949e-07	2.536299522009162514e-09	2.081443764365235992e-08	1.065154840720587306e-08	3.024155305615239507e-08	1.923857327959417929e-07	8.487936575304691501e-08	2.075556384472988489e-07	1.526213158518395785e-01	4.409200307955303628e-08	9.580244495490262858e-08	2.800280287242367745e-06	7.649591528685907131e-08	9.793461930368675976e-09	1.398524775071945644e-08	-9.567706010646749824e-09	-8.840220526183112774e-09	1.184847463821202731e-08	-5.985164388218921273e-09	-5.217442424571877448e-09	-8.617174268769457095e-10	-9.365600724128540228e-09	-8.124446346047662869e-09	-3.347473778099320215e-09	-5.151127590257900432e-09	-1.013376418660898075e-08	-1.068352891077476230e-08	-1.252816293485210055e-10	1.866467314465533418e-08	1.450931975073023399e-07	2.825663917470694468e-08	9.558384665829105865e-08	2.785610258815538148e-07	2.193738260189611902e-08	6.044849669776220931e-08	7.730968057208771615e-02	9.410012506750788097e-02	3.115300715834578674e-09	-3.055157919339511442e-09	4.072339463113660539e-09	2.108667911467499878e-08	4.116705220962463097e-08	7.195219809724039971e-08	4.997855522729688499e-08	2.690608585500428050e-07	1.889542039953039282e-08	3.812099365276915898e-08	7.920078493400220690e-08	3.084301256620390257e-08	2.461748714685001214e-09	1.372029829979532465e-08
-1.653056842832094429e-09	-1.629311641062579565e-09	-1.124249236972383348e-09	-1.740632636683682573e-09	-1.992625195830202068e-09	-1.800378240648819543e-09	-2.071877493353280054e-09	-2.086450430062890148e-09	-1.938006671257242426e-09	-2.263190280225032340e-09	-2.222108088859189994e-09	-2.265847718284976828e-09	6.051648909984885537e-09	-1.080605886305944299e-09	-1.852856561950372077e-09	-2.344875483471963855e-11	-9.079071815193118630e-10	-9.983296274796338310e-10	1.972785656769709803e-10	-1.042622665569134016e-09	-1.398680704475395759e-09	-1.794737631738062946e-09	-3.717671834885974239e-10	-5.153855114969437620e-10	-4.131159922591218528e-10	3.893015204899084282e-09	2.893058001333687415e-02	1.137572476743783208e-08	2.613239399106238813e-08	8.032984380358177924e-07	3.140717664051421665e-09	9.930165436046731179e-09	9.290882442433454069e-02	1.678296571640894852e-01	6.765435142626005022e-10	6.090229678612277334e-09	2.026518857077231583e-10	-6.762469189676429719e-10	-7.854564391615120944e-10	4.408261678300719531e-10	1.267595580481432821e-10	9.142539586586315704e-11	2.217489986960324577e-10	3.738898250979274279e-11	-2.257606928664056171e-11	-9.250505874501894652e-10	-4.312558462420794841e-10	-9.396723223376629911e-10	1.529129511065555155e-10	4.734876993231810910e-09	1.610382452175682447e-02	1.381244600486267529e-08	2.961147214161534035e-08	8.998374801655126265e-02	5.076969320405215480e-09	1.480829331782135335e-08	1.154613291339667662e-02	3.036371063630911860e-02	1.188895263136081458e-09	6.598377870173334808e-09	1.818118284205395037e-09	7.434737354032749396e-09	1.192037033337557382e-07	2.558639334381267291e-08	4.605155603914008070e-08	2.515470048591137986e-01	9.179025000253435268e-09	2.396218477706768057e-08	1.040098106685520995e-05	4.719425828881449340e-08	2.375917510346514306e-09	6.393026715454015186e-09	5.361022898009764419e-09	1.327001511527123532e-08	6.336636940110692157e-08	5.497077069614367180e-08	6.436565875788492551e-08	1.467628645334905224e-01	1.875619731875073629e-08	4.736323702184008092e-08	4.692761541918225726e-03	2.504699657284569680e-08	4.798863546261358704e-09	7.782265409992507269e-09	-1.123403743868646984e-09	-6.755224249949085043e-10	1.416687821018382588e-10	-4.248313206597877887e-11	3.597881018029280921e-11	1.039277773606548980e-09	-8.642697805089494520e-10	-5.198189908853726844e-10	7.416642517238300360e-10	6.960842746512708459e-10	-1.188358738227963017e-09	-1.241880160425056421e-09	1.782855618170934004e-09	7.366277610789313344e-09	3.472524067212380546e-08	1.357992744430498792e-08	2.726328212038975355e-08	6.467808313605293522e-08	9.888485095478971292e-09	2.649309021293271083e-08	5.861064525251680722e-03	1.534574214561758854e-01	8.659919715797321756e-10	1.568349679106418134e-08	2.343392406349115420e-09	6.273911666419140189e-09	3.026217450164675874e-08	3.469746487961322116e-08	3.645337678325543903e-08	5.677902904514507043e-08	6.189013388502177245e-09	1.595490629020584853e-08	8.875248236630941787e-08	1.378258843158892038e-08	1.847554250020407378e-09	6.547578851135476506e-09
-1.189588603789210826e-10	-1.197164977836159195e-10	1.691842395591808063e-12	-1.068866955964605305e-10	-1.207050193734106183e-10	-1.119427766141275568e-10	-1.329727245842379279e-10	-1.343338186277751906e-10	-1.281718854890629934e-10	-1.308775973775913740e-10	-1.360256971359287145e-10	-1.545913022128733746e-10	2.854973346387930928e-10	1.764506289121525829e-12	-7.613863894376038215e-11	6.980820538083040641e-11	-5.257858957689156514e-12	-1.455039776436105520e-11	6.316486812404358833e-11	-1.486909990570975642e-11	-4.367947672365418898e-11	-8.609373115866131811e-11	4.038492956305440065e-11	1.132446913078655653e-11	-6.418377332468965173e-12	3.094637244249187397e-10	3.080816643711678168e-02	1.007958418429797883e-09	2.688892827002389483e-09	1.488511579984057136e-02	2.681873233402992792e-10	8.031146675101755517e-10	8.975304339841486123e-02	1.609574259449205180e-01	1.062286574527787097e-10	7.324856294665302264e-10	5.281072945710010718e-11	-5.931038778195839195e-12	-5.422143206201950207e-12	8.532811579747962806e-11	6.514186449729303311e-11	6.522922536503616371e-11	6.274046916729369932e-11	4.807018571989170566e-11	4.930595177052764987e-11	-1.725838315291958488e-11	1.321276192752039937e-11	2.507153906520259362e-12	4.499531532433083905e-11	3.936090000592781823e-10	1.810622923927849084e-02	1.052669682771951371e-09	2.400797601306041551e-09	7.871684524374140957e-02	3.851366039212508079e-10	1.024504377443794564e-09	7.760618198166025307e-08	4.002908128213711336e-02	1.442666040996238372e-10	8.034199229212495013e-10	1.613410751843270299e-10	5.806249218881718941e-10	1.292741309245576528e-08	1.967678155133271746e-09	3.730816445157363594e-09	2.513323752764851093e-01	6.836367234694398150e-10	1.654448012247651387e-09	1.140205485080568739e-07	5.470120146922992112e-09	2.565589281516138752e-10	8.228564078501248348e-10	3.834942860457859892e-10	8.328781572631015051e-10	3.456742736565666867e-09	3.761691545763445747e-09	5.175607166970163649e-09	1.398857323840664302e-01	1.443080256916095795e-09	3.526277873607514326e-09	9.277843197709571832e-03	2.109835442184696267e-09	4.420299809756429750e-10	7.336887822347314300e-10	-5.885262462619720292e-11	-3.439620351453685390e-11	1.957687199094728601e-10	1.750997117552613840e-11	3.911582909718191443e-11	3.677137508940982793e-11	-2.920695095300692533e-11	-8.870540513527158168e-13	2.481977705757659657e-11	1.342870998969271649e-11	-4.003416745930009804e-11	-9.064793215105733259e-11	1.452216188778608642e-10	5.187147001352771273e-10	2.272528081297322711e-09	9.805549679776088555e-10	2.026888151630158796e-09	4.295875280195841133e-09	6.525953268101470028e-10	1.500717001546521522e-09	5.190402591196803528e-02	1.143438266037953982e-01	7.076691134761060538e-11	8.327472795101413926e-10	2.513944135167164952e-10	6.874167010137737123e-10	2.012739202964343973e-09	2.882143503417186938e-09	2.366041582837238018e-09	6.610113155048759536e-09	6.614573134264997548e-10	1.513011096670001915e-09	3.009648085249016823e-09	1.668662458146689744e-09	2.480342239398596049e-10	8.394041523504060993e-10
-1.144702766033138245e-09	-1.263326300431097045e-09	2.351833423337173192e-10	-1.104273545762704289e-09	-1.230003056632067212e-09	-1.204547260752388324e-09	-1.233863145781644492e-09	-1.272460894139060414e-09	-1.291660517207470827e-09	-1.210900573891579430e-09	-1.167265866824271286e-09	-1.179691074089694372e-09	7.271814021894495744e-11	-2.788824347969762872e-10	-8.253990096083802293e-10	7.144244629648309407e-11	-5.708304174745668134e-10	-6.081568361505594916e-10	4.746685867512993270e-10	-6.136963846962308302e-10	-7.368635540857284287e-10	-8.716385162599415565e-10	-5.426480377488737044e-10	5.824261690192694606e-10	-3.575340541597602995e-10	1.501559999823081301e-09	3.831537569251165093e-02	3.176616302750963038e-09	1.112836272212564732e-08	1.726234699641593701e-07	1.131172066630836756e-09	4.171827214967294269e-09	8.522075335908847749e-02	1.612855156341289065e-01	2.441853571754261255e-10	2.165698866842083958e-09	-1.103904596439558219e-10	-5.293343036670638091e-10	-6.242658673301414619e-10	-2.681190509844089917e-10	-3.229398829201028722e-10	-3.472973197166905201e-10	-1.992151817600340857e-10	-3.207416330966750035e-10	-3.914758088714535794e-10	-7.199396814896087869e-10	-5.066394657413010825e-10	-6.345627098823152608e-10	-1.242952461627515422e-10	1.988213744240482490e-09	9.359356422808931195e-03	3.982467293181373781e-09	1.263248629333278337e-08	7.799445502515976736e-02	1.723680323975707715e-09	5.263218691579358385e-09	3.325726023700997521e-07	5.598237027818533246e-02	3.391223491901340746e-10	2.379514960149035566e-09	6.670372591596864472e-10	3.371382924096651869e-09	2.989150523458765108e-07	7.633413971257704664e-09	1.964685995140680065e-08	2.600114045067757895e-01	3.359462742053583924e-09	8.541867199786743253e-09	2.759664452159233333e-07	3.691439246867951078e-08	1.018252793369319732e-09	3.061939249375654873e-09	2.081017551263006320e-09	4.879396063650064888e-09	3.221176412685563960e-08	1.347472351753391893e-08	2.626381699641711088e-08	1.460731828408827759e-01	7.587361485620174576e-09	1.911113530341603754e-08	5.675079948997979349e-04	1.222909444655223942e-08	1.927743654833565936e-09	2.775956082881917012e-09	-6.420576707119729806e-10	-5.258186057517009398e-10	6.425218734043318387e-10	-4.316742124398731388e-10	-3.445892431338714840e-10	-3.226705570033689651e-10	-5.887348935736597774e-10	-4.883271171618098323e-10	-4.395412909909677730e-10	3.284603334152933943e-10	-6.343052728889389148e-10	-7.169455650734625133e-10	6.372787074782016993e-10	2.801807143686102867e-09	1.450814317735425744e-08	3.564641228352738162e-09	9.725744589713046429e-09	1.965196265128298200e-08	3.250020997147016244e-09	8.026826957779527721e-09	6.447684995443818401e-02	1.007117593191241833e-01	2.827448950993612938e-09	-1.801139663919425638e-10	1.000981301009581787e-09	2.530738581903205042e-09	1.269200881825198167e-08	1.031056732423748865e-08	9.905816418312303602e-09	2.778511521293992776e-08	2.038537660070232796e-09	4.999876512651125723e-09	1.124496418191884522e-08	6.256792084552254107e-09	5.995728204900304575e-10	2.665755437511564087e-09
-9.516391406054001299e-11	-1.626283303217198441e-10	-3.488115170120945683e-11	-1.422915636517181932e-10	-1.575842927211946678e-10	-1.524005549921283964e-10	-1.510961943246998109e-10	-1.591911529734529388e-10	-1.588301529538516585e-10	-1.559495067849059973e-10	-1.536988854559818578e-10	-1.389513026544831991e-10	1.513361986614730780e-10	-1.505079100479160924e-10	-1.462947211118727377e-10	-3.999574311498266988e-11	-1.197485411022837823e-10	-1.227138246606329848e-10	-7.485340244289790148e-11	-1.194213879314739407e-10	-1.256441224231783441e-10	-1.428241710582247924e-10	-1.195269428823606215e-10	-1.524786454581786430e-11	-1.015536483378000765e-10	1.586531572604390723e-11	3.531389216729941688e-02	8.035769411997354677e-11	8.415843421395850636e-10	5.730209576991109402e-03	-1.901253630151628464e-11	1.502670902935634805e-10	7.831816557822011970e-02	1.706419021381688494e-01	-4.770765035358476003e-11	-1.870966476974699703e-10	-5.236269442609034788e-11	-1.090058366341759242e-10	-1.268020673659389404e-10	-1.021155506404865641e-10	-1.068979030874521565e-10	-1.074770873416461872e-10	-9.296654414793190648e-11	-1.053787026799823128e-10	-1.112490170379666320e-10	-1.319034466813153413e-10	-9.587177286882053833e-11	-1.320529768970302100e-10	-9.010530583974739592e-11	4.052896004089144276e-11	1.123731033480365217e-02	7.374470339560057825e-11	6.292365408409621486e-10	8.570139482996583236e-02	5.608910162082255485e-12	1.705692451309814739e-10	2.572377357242217049e-09	5.616780974019816575e-02	-4.858558425948978342e-11	-1.705306640100589559e-10	-4.340234766061328605e-11	1.183968383780945611e-10	8.749679872230384949e-09	2.247563419727868462e-10	1.002403128894208679e-09	2.435822614660823893e-01	9.462214683648833635e-11	3.295267440107552925e-10	4.487719531815276457e-09	1.454849590447343649e-09	-1.604417302265156438e-11	-1.380759594092011081e-10	4.132895142644216266e-11	2.104358343262763373e-10	1.759007887777906689e-09	4.850759100640197707e-10	1.272907939809440982e-09	1.520683192253704796e-01	2.875088689199210172e-10	7.223926117558130341e-10	5.673900776970578910e-08	4.833163106903536112e-10	4.180581766415966150e-11	-3.700998358731717596e-11	-1.121992814818566590e-10	-6.587466309344765166e-11	-3.613705971994938275e-11	-1.106752123050707252e-10	-1.162375210768476003e-10	-9.571077672538167273e-11	-1.269311414320829637e-10	-1.264665951875294021e-10	-1.166886608535418652e-10	1.248689355581548557e-11	-1.262546608595831435e-10	-1.208878008012089043e-10	-3.582399063722778233e-11	1.374316167589708466e-10	1.520053395171914462e-09	1.292850834056599823e-10	5.577923929347962721e-10	1.515138763801831138e-09	1.063438401832153469e-10	3.694547792046756067e-10	6.835849675759723965e-02	9.288015311209320279e-02	1.257877326376051322e-10	1.187416731797356281e-09	-4.018070201223737640e-11	-2.773244131448760118e-11	4.657137215697910698e-10	3.832146296293435321e-10	2.170826555955682859e-10	1.004996924421943229e-09	-5.010737896627283611e-11	-3.490793740281260523e-11	6.606580406885711229e-10	8.135935574999789605e-13	-6.065487754570077879e-11	-1.405549810647871846e-10
-9.027320348399519371e-10	-5.027354260532085964e-10	-7.697148695764192170e-10	-7.469306252933745112e-10	-8.909917872164383422e-10	-7.724870580820668965e-10	-8.293449983806139292e-10	-9.095643625688106273e-10	-8.744465914058195313e-10	-8.306741662167023730e-10	-9.561272518847746987e-10	-8.178667898522533002e-10	-1.950845177949443533e-10	-2.030380814837643817e-10	-7.828463753461065574e-10	-5.644927846778945050e-10	-6.166790258548712940e-10	-6.071534311029069954e-10	-2.374907143406561476e-10	-7.521748406394104595e-10	-8.075964619615648668e-10	-8.677317215293633481e-10	-7.710469814601382131e-10	-3.536914589397010062e-10	-6.785709896997183726e-10	-3.522602908233853977e-11	1.999701537742842525e-02	-2.878405244563601937e-11	2.430173486433998872e-09	9.442907456743236934e-08	-2.908945219261590628e-10	6.327868279970867709e-10	8.449459754260869870e-02	1.924660360284830563e-01	-4.634563111643670090e-10	-8.233899762137805111e-10	-1.906691932398189871e-10	-7.815030576461232777e-10	-8.067485198075931928e-10	-6.757049929329576159e-10	-7.302594552498998152e-10	-7.180777751301495073e-10	-6.696578160524538720e-10	-6.496427786189962414e-10	-6.774987611247701548e-10	-8.132625925614124335e-10	-7.268153202681146886e-10	-7.278924312961454136e-10	-6.308233993735573528e-10	-4.706719445398841253e-11	2.637731574154919198e-02	1.159184125075239412e-10	2.877529700448388964e-09	8.428104600415460557e-02	1.333098558734039110e-11	1.362045182913466499e-09	2.061704949376949300e-06	2.964914847697021003e-02	-4.754772685589670360e-10	-7.074578924974470368e-10	-3.840739738285698987e-10	3.377705380467744278e-10	3.042364902637428882e-08	7.553941093667568671e-10	4.782485659909303158e-09	2.536800875180440507e-01	5.377782744326503072e-10	2.434487480789654199e-09	6.171551966658785330e-07	9.019641255085201666e-09	-3.025808202050028453e-10	-4.870531298254839917e-10	3.156179293026950787e-11	6.557224575465625382e-10	8.762102695989979557e-09	8.941714080468351842e-10	6.218027704368880522e-09	1.366335963477497417e-01	1.633929398542013497e-09	5.118371386734703876e-09	4.170980809056476675e-03	2.905827068044290737e-09	-2.944327989548573660e-12	-2.532393522760250879e-10	-7.680335221779369286e-10	-5.377174348340114546e-10	2.662457247427784359e-10	-6.858938722243622546e-10	-6.476860136497617518e-10	-5.904132843817918701e-10	-7.361122279866569289e-10	-6.821622281653686749e-10	-6.285283510756848914e-10	-5.475338772021857446e-10	-7.612703444766527370e-10	-7.936664571111648294e-10	-3.912202928055078161e-10	2.195837703855896200e-10	3.193913884477738038e-09	1.984595722671122238e-10	1.802395984906123172e-09	3.841279122551644985e-09	3.860210593392816209e-10	1.837533265472865788e-09	4.563235272707563683e-02	1.226149899177659958e-01	1.782637328191268939e-09	-2.001719086349856446e-10	-3.258794333106919775e-10	-3.019566773911865568e-10	3.772547206833075896e-10	3.360395872991754702e-10	-1.099068054137247965e-10	3.421487766561915324e-09	-1.814819722996596743e-10	-1.191218753112491182e-10	1.482395016212445352e-09	-3.585832214522424746e-10	-4.599397121118039599e-10	-6.993643839648885610e-10
-8.220890819244406973e-10	-1.280209063355299561e-09	-1.962954037513047041e-10	-1.143713249344727345e-09	-1.266187568747543789e-09	-1.227220668839642528e-09	-1.228503628360872843e-09	-1.286349736123727310e-09	-1.285649671788527004e-09	-1.213821526693529181e-09	-1.253141560384339957e-09	-1.003717871008677012e-09	1.244390485142968936e-09	-1.206674471987021203e-09	-1.223034773986629651e-09	-2.462519626582286989e-10	-8.740996529907699421e-10	-8.859289340651375032e-10	-3.425822539823933477e-10	-1.041259463410931010e-09	-1.165776001367293619e-09	-1.221442184079480727e-09	-7.408430623004027057e-10	-2.029664691743985940e-10	-8.605312382668230078e-10	3.588466534576467022e-11	3.526159640363926706e-02	7.453513203910283374e-10	6.592159003292882565e-09	7.415453843558442735e-04	-2.011665386795687266e-10	1.121683781569139374e-09	9.435696005288772559e-02	1.639377532039305863e-01	-4.877376242470099206e-10	-4.376034291114819246e-10	-4.256967947024966657e-10	-8.444626618544961865e-10	-9.648861988106757789e-10	-8.312656899420876336e-10	-8.940680487005882766e-10	-8.805952637552634111e-10	-4.652146460971585106e-10	-9.726782361519206485e-10	-9.675519973355629973e-10	-1.066341025009861003e-09	-9.576269495814525972e-10	-1.013852363503289327e-09	-7.343508111319909216e-10	2.520012096663257545e-10	9.345364455744308713e-03	6.505020262249809734e-10	4.813220711589080658e-09	8.632490544359434914e-02	-7.321161349959401193e-11	1.095765428659110389e-09	1.068414591882866240e-08	4.827516228859767694e-02	-4.814226654312626683e-10	-2.747224901019624039e-10	-4.159363246451990534e-10	6.045950903109348214e-10	1.859313589374713506e-08	1.856416009771620495e-09	8.077759509691649111e-09	2.455590293991365969e-01	5.815691669650565614e-10	2.182007080364059781e-09	1.455017863444326993e-08	8.918460457335864054e-09	-2.029560842472523283e-10	-4.990313623852206566e-12	2.138198372765175552e-10	9.894555651016495435e-10	6.464016233693606007e-09	2.444208638893130102e-09	1.056997496832004132e-08	1.434199692844479734e-01	1.802082731203474593e-09	4.178700132515815667e-09	5.145904786701981743e-08	3.181617737126448050e-09	1.850123717563479167e-10	7.299928163934799183e-11	-9.616709748628420288e-10	-5.801136839288833612e-10	5.688905791931128016e-10	-8.566485632592606996e-10	-7.530918190993577595e-10	-7.674266659071069783e-10	-9.273724645850879560e-10	-8.524066969309827441e-10	-8.217980651816953489e-10	-6.958796181729025175e-10	-9.271984644835216089e-10	-1.032051559914439425e-09	-4.031031866821816414e-10	5.830167636843186552e-10	6.352623449170594058e-09	1.119991588680183936e-09	5.097044659176189410e-09	1.569238861925729467e-08	7.509256098099468766e-10	2.914027065365083786e-09	6.038076910904904837e-02	1.123967753472401576e-01	1.932040767442284544e-09	-7.219253946883701145e-10	-3.149984080364594425e-10	-9.975498382075347617e-11	1.012252940828940192e-09	1.940787388364337224e-09	1.094893718745407676e-09	1.312635598884394465e-08	-8.189282304812951255e-11	3.760007131950487604e-10	8.984187919893823728e-10	3.717540039520168490e-10	-4.496779316247979699e-10	-3.005590874748867582e-10
-6.323768611516706566e-10	-7.783202759887713186e-10	-9.586166797712325939e-11	-7.498982340656902558e-10	-8.066337488269871583e-10	-7.785816448564582118e-10	-8.009440627178891749e-10	-8.276296283967072214e-10	-8.243216793653098384e-10	-8.483959274274144784e-10	-8.464770206542117886e-10	-8.779171731627142272e-10	1.614975446364583743e-09	-5.894350850560672409e-10	-7.357204366676726219e-10	-3.081586314927448122e-10	-5.149595943580899603e-10	-5.410161786831595890e-10	-2.178763034674343033e-10	-5.344714282129836927e-10	-6.219918863762925310e-10	-7.478480895139250235e-10	-3.453426004283949990e-10	-3.878470758941595546e-10	-4.595413820473853323e-10	4.654589675558060659e-10	2.567596461809441497e-02	7.592954726561771780e-10	5.298607822907580773e-09	2.018781241297965522e-07	3.111985573115894591e-10	1.829385461081742000e-09	8.313783346960354481e-02	1.777646456422878329e-01	-2.412723546325427262e-10	1.094293843532601050e-09	-2.336696030387982761e-10	-4.602282365513154772e-10	-4.952348909195343174e-10	-3.141476164127220405e-10	-3.535512800043848315e-10	-3.472715067063757536e-10	-1.943480394148326202e-10	-4.018176869335164738e-10	-3.932803158301074543e-10	-5.492695930474511880e-10	-3.959632369070471002e-10	-5.622578744282050168e-10	-3.645351116444682969e-10	6.128973436331070794e-10	1.597496614294494771e-02	9.514322314395392136e-10	5.912557506077042978e-09	6.856130009554427251e-02	6.667525291808015751e-10	2.577908384957913035e-09	4.815820495875865137e-07	5.251451640129589649e-02	-1.597328672456902530e-10	1.071207328930984825e-09	-1.413845593208999807e-11	1.276093460228558887e-09	1.581432717276839857e-07	2.561561569713150883e-09	9.246499569977651044e-09	2.547052013164131656e-01	1.450299207432912222e-09	4.111748336324037524e-09	1.611036078405310843e-07	2.611128301560414574e-08	1.807122772910521885e-10	1.429357183973552288e-09	6.054942288068403243e-10	1.934240146067367245e-09	1.394818781820995489e-08	5.628932101021341582e-09	1.250582086458970370e-08	1.511323175019402554e-01	3.430952712716280705e-09	8.860184708561832763e-09	2.613813387128607885e-05	6.669100549799655022e-09	7.188592992482507334e-10	8.920722742506538809e-10	-6.085811881676548481e-10	-5.626128092579408120e-10	6.395159997443298950e-10	-4.449441324230276594e-10	-3.850165834411652805e-10	-2.209060773185496514e-10	-5.650858886842197773e-10	-4.945549119102211826e-10	-2.750286394832662386e-10	-3.096997802518840733e-10	-6.272300111485260709e-10	-7.419920617267250675e-10	-1.548704159292564881e-11	9.935866170794092185e-10	6.603209023799244449e-09	8.968766009950266849e-10	4.613031024989468397e-09	9.853669402136573367e-09	1.342502063053836403e-09	3.701668119143300205e-09	6.829393414718439026e-02	1.022120083151242254e-01	-1.103080415110529184e-10	-8.908899510814885767e-11	2.910595766423624998e-10	1.387724842576693968e-09	3.670452676529785241e-09	6.096803229749037945e-09	3.081655211595411629e-09	1.713094199141969625e-08	1.300780610157698218e-09	2.685211638025323775e-09	4.772654667602606807e-09	2.187802846870601944e-09	1.902558696378106497e-10	1.144691826370683218e-09
-3.107072894319292680e-09	-7.997216283647171866e-09	-3.790588438052996663e-09	-5.670404940220936493e-09	-6.583021883990368885e-09	-6.186025902508257212e-09	-6.832279436356627874e-09	-6.691940155246722665e-09	-6.837384872194183636e-09	-7.793652185558755106e-09	-7.135042064882970279e-09	-7.732752274341915475e-09	2.367735903451515941e-08	-4.412794904037047876e-09	-6.209292247315205062e-09	-2.270333713231642184e-10	-3.277538319472370230e-09	-3.727487744902273680e-09	1.461709907674509842e-09	-3.344544181226234999e-09	-4.626736513129645348e-09	-6.137750795645400385e-09	-6.132966598666062199e-10	1.109609365574316717e-10	-3.956401065427099815e-10	1.637987365941051158e-08	3.415424337346978367e-02	5.080950440332640810e-08	9.061410093233239312e-08	5.717675936487306173e-07	1.290174603827514125e-08	3.858624897728550343e-08	7.721352280859668238e-02	1.763743596644831158e-01	4.585267296995253392e-09	4.168257871662057293e-08	1.634643477697432383e-09	-1.839728942185677787e-09	-2.034293659176388446e-09	2.505473131829836134e-09	1.427971220275873252e-09	1.197976062770756293e-09	1.199027484531530612e-09	6.156557250037368958e-10	2.931011267621492158e-10	-2.408646536727722139e-09	-4.749670685278065293e-10	-3.884092701995091816e-09	2.124279772013604978e-09	2.163389283694095899e-08	5.861405115528544284e-03	6.677066648967027841e-08	1.145149002786279919e-07	9.200647547666572501e-02	1.978708919787918740e-08	5.545800551870748311e-08	1.965789078438851103e-05	4.596332741324044707e-02	6.170452538111167472e-09	4.346209459418541269e-08	8.497268150461032621e-09	3.487848949008834990e-08	1.181529891261281230e-06	1.287833719036410508e-07	1.722429021997854040e-07	2.510683731862305978e-01	3.344208302433695653e-08	8.250232578640727301e-08	5.878942277982532485e-06	3.451773660258338154e-07	1.211506510557326722e-08	4.651198920581690253e-08	2.214418940819650336e-08	5.550877453270063357e-08	2.701928716286122121e-07	3.191225246418016406e-07	2.378719256935945105e-07	1.388625566102202336e-01	6.831131136773133230e-08	1.654998807318290097e-07	5.114875835538349944e-03	1.091133385993862298e-07	2.125656418072766754e-08	4.365533237260174281e-08	-3.288613577570372952e-09	5.964734087379285602e-10	4.370817877664976742e-09	2.788489532059157908e-10	-9.862907144346713652e-10	9.359976287425184439e-10	-2.700162147122154042e-09	-2.173910897417873279e-09	-5.355336840368439089e-10	3.303319063129347997e-09	-3.408323446144762149e-09	-3.499566175292521013e-09	8.426974379337417139e-09	2.998257197779354941e-08	1.554061104553629379e-07	5.587067433825929856e-08	7.936800153124754028e-08	1.393582304118348140e-07	3.055406475848769377e-08	6.976834229816597651e-08	5.698008573138977489e-02	1.163688248007205134e-01	3.316580730235391906e-09	1.966929446825956438e-07	1.028906153379988537e-08	2.480176931378645739e-08	1.154265675732153554e-07	1.603163666425982320e-07	8.188452127732601620e-08	4.159888982860022437e-07	1.507145026521433484e-08	1.744510259848599609e-08	3.409212270107911093e-07	6.515433186933973223e-09	1.021804599889645737e-08	2.287644479638159967e-08
-2.790023536598495492e-10	-3.986172480735311641e-10	-2.761286032755613160e-11	-3.133457887110354920e-10	-3.593782369112960858e-10	-3.375541731100292244e-10	-3.931733802405526627e-10	-4.157616932036057860e-10	-4.069737616999459503e-10	-4.346834858955432197e-10	-4.149734351734577211e-10	-4.588049574776925065e-10	1.307030275077565004e-09	-7.089270208411352401e-11	-2.949705998185207104e-10	1.543503238729584431e-10	-6.740917499345404007e-11	-1.079532446873042010e-10	1.610396860127428273e-10	-8.684603574741286677e-11	-1.752519519640017765e-10	-3.035343967847332341e-10	5.655113490296070598e-11	8.175635236500777699e-12	2.115210721610902661e-11	1.089087144400954156e-09	4.041986926432106914e-02	3.858756999551432667e-09	1.012070486818947451e-08	5.444882848129223600e-04	9.302412976804110128e-10	2.688220126849877033e-09	7.979992725347559435e-02	1.652314588640651505e-01	4.030407344216894470e-10	2.710084066973458995e-09	2.247770867010730600e-10	2.833804631412857675e-11	2.832761314765305363e-11	3.283928687955929801e-10	2.618543224386829138e-10	2.527068981220187612e-10	2.253945225528319932e-10	1.675405729148866161e-10	1.863969683230572026e-10	-2.625498453733385490e-11	1.076753047680410117e-10	2.042701489258335627e-11	2.083284938678102980e-10	1.592999397319199653e-09	3.243094456401860066e-03	3.844742916950919909e-09	8.054648588853529966e-09	6.710369051986346534e-02	1.192330770607955286e-09	2.964952927372793524e-09	4.554464385186843059e-08	6.745728460653005465e-02	4.968847559629988410e-10	2.790100136675230985e-09	5.970090583006786541e-10	2.229232117756529115e-09	8.409516405259607308e-08	6.934669008814306836e-09	1.250340004919060592e-08	2.580182636364501958e-01	2.128032856662915660e-09	4.809196194003856999e-09	7.333516648329818750e-08	2.247318773622732858e-08	9.145124993202150622e-10	3.468585662822267060e-09	1.385262792109758534e-09	3.225375943377902864e-09	1.463315819184315068e-08	1.425506171442519186e-08	1.777388289333012667e-08	1.422569709146173367e-01	4.717159065014005145e-09	1.115946504841857067e-08	7.703671668447535648e-03	7.072761720767490119e-09	1.541372651562831250e-09	2.730037248676818903e-09	-1.782527658723117079e-10	-1.337081039300205077e-10	6.956124820903956550e-10	9.236525928090144673e-11	1.349196990430992362e-10	2.696766763273055586e-10	-1.081859436152530047e-10	-3.275748148095288881e-11	1.451999355380424677e-10	8.142815329137470384e-11	-1.339076897936416795e-10	-2.411289886153247516e-10	5.539910732449906414e-10	2.042118322241993163e-09	1.057882579436493037e-08	3.772358759839065236e-09	7.336538749746050583e-09	1.655643263153959116e-08	2.225892687045748268e-09	5.115736052365289398e-09	7.011091946962445809e-02	9.810985338378487575e-02	2.220476419474030946e-10	7.613609266122782361e-09	8.819072339087380428e-10	2.465725972976374475e-09	7.248015135888481209e-09	9.320772077535812435e-09	8.376829282815150407e-09	1.802555644162757278e-08	2.243861946127117154e-09	5.032011191553083303e-09	8.785825921801757023e-09	5.896585437917218938e-09	8.770454882339323298e-10	3.276061077204253410e-09
