-1.069456995766414994e-09	-1.012739526748817407e-09	2.557967410532681825e-09	4.650413129888604369e-09	5.970725259637255552e-10	1.924434772397720413e-09	-4.543620274333567522e-10	4.937758106468503515e-09	1.344721119451035703e-10	-7.423792485182990208e-10	-1.314322386893812478e-09	-1.167017217472565346e-09	-1.759466236175545457e-09	9.007035158959507756e-11	3.863796982519617645e-02	-1.099921602169735440e-09	7.328236504245346956e-09	1.197399382818285069e-08	2.977309954574421505e-10	-1.610914386854661526e-09	8.266303466193464233e-02	1.532762871278993966e-01	-8.539618476942163474e-10	2.586131753799475557e-10	-9.354220106916021136e-10	-1.964009103886792086e-09	-1.770972100840080271e-09	-1.263415423661320009e-09	-1.867228617584238488e-09	-1.812764555033452195e-09	-1.727757554736792167e-09	-1.073888972728760959e-09	-1.939855156339108203e-09	-1.520283827722169945e-09	7.554805446215028404e-10	-1.256402107473107173e-09	-1.416999236692904090e-09	-1.125508696780862242e-10	4.000860262705684817e-02	-1.082891657415133711e-09	1.250562991591320543e-08	3.806430653566665601e-02	8.443818730913628466e-10	-1.707836216295620191e-09	3.070997664836359492e-07	7.211915090201466427e-02	-7.512824496180982284e-10	-5.708414495971085641e-11	-1.996110299178749072e-10	1.431583844428857635e-09	5.116737333450289624e-03	-6.055918293062465760e-10	1.815514772503950678e-08	2.043251251001236002e-01	2.303372147874358764e-09	-7.888382247698544070e-11	4.171845559927067193e-07	2.026202031885115159e-07	-5.675655874479642520e-12	8.215643983438585382e-10	2.310867656202238365e-10	2.499218734677878736e-09	7.256196954758573532e-08	2.634273331416701885e-09	2.655213169530866410e-08	1.579435179158724945e-01	4.666455552665520724e-09	1.177968882778965247e-08	2.158994418918503549e-02	1.764771092759753359e-08	7.147475578033865479e-10	1.214702433879882414e-09	-1.569430748393576847e-09	-8.160436928436178213e-11	3.942759065404742927e-03	-8.724916974012019782e-10	7.318170598453245413e-09	3.945182262289084159e-08	1.684486570585929162e-10	-1.212931730340158093e-09	2.895792866893940347e-08	3.395005267193000609e-02	-9.614766367824845490e-10	-3.319061897562468099e-10	-1.324121549143175356e-09	-2.704189804928376298e-09	-1.460229127731116458e-09	1.063361395729098469e-10	-2.452145192289503517e-09	-2.593808561151213683e-09	-1.935547426172564094e-09	-7.291852734655476881e-10	-2.668828762644164340e-09	-1.696935111043437954e-09	-2.021765930809670857e-09	-2.462370744748197905e-09	-3.683426229541269543e-10	8.600767237375641682e-10	1.442490140621654698e-08	-1.873375882222826881e-10	7.810419712278285106e-09	1.569126755645146592e-08	2.340813362681121888e-09	-8.489671885511940973e-10	4.301086449650720622e-02	4.645054681625260251e-02	2.491159948271056338e-09	1.759242017142277016e-09	1.327190526392869381e-09	3.289240801205902313e-09	1.180315149404122333e-06	1.933132823733900060e-08	2.247976284754336437e-08	5.889759263643799814e-02	4.058907462797314163e-09	1.662781904925198707e-09	7.964236410816536914e-08	9.937258583697981752e-07	1.739130388047579803e-09	2.886896090689253811e-09
-4.607792773445033028e-10	-4.774939449437242854e-10	2.772045934691728546e-10	4.612146210652848486e-09	1.674968776440865991e-09	3.988496301237090057e-09	-2.720725274750952581e-10	4.677527113298286973e-09	8.207090258922069880e-10	-2.128482012058078540e-12	-1.093945331332215954e-09	-1.153205265434973020e-09	-1.269548737025616298e-09	5.452959732410763501e-10	3.565839231406836562e-02	3.326781026177517533e-10	9.171714320283003896e-09	3.540133035685294892e-08	7.453910299489792776e-10	5.133188582491572866e-10	7.328940845471640375e-02	1.658454127618904927e-01	-6.178307402584489777e-10	6.382177035618101309e-10	-5.296681500603928925e-10	-1.964163778814918864e-09	-1.962160214069889996e-09	-1.167014357634288749e-09	-1.764666084945629729e-09	-1.762769361295672909e-09	-1.500649458449495495e-09	-1.206923754986393999e-09	-1.920938072153673159e-09	-1.434393545929320067e-09	1.134671365215998522e-09	7.750980439602610794e-10	-9.722110695445949961e-10	5.419014792461816601e-10	3.463876632411363315e-02	6.894286297973933422e-10	1.535116234921756085e-08	4.885322048848636523e-02	1.403967115198464134e-09	1.264515137746573228e-09	2.058664556560033457e-02	5.156499700577949624e-02	-4.091708471160922901e-10	3.652973760330946743e-10	-7.566244320568825156e-11	2.109964653021592607e-09	8.794604548526535609e-07	1.984483650660972401e-09	2.220109237657413363e-08	2.092011163228368331e-01	3.393587763891601486e-09	5.087085847073655414e-09	4.548611130185491203e-06	1.489091907727154423e-07	4.155523918500709421e-10	1.409048859568176252e-09	1.047721062498649942e-09	3.606107886617354878e-09	7.985511377830912330e-08	6.783516010813594141e-09	3.250688214134716388e-08	1.382807023788551470e-01	5.544929534166141865e-09	9.287795349550953721e-09	4.790452184298484711e-02	2.564105521883672119e-08	1.307861113611018347e-09	2.045957902473471024e-09	-1.185129044114063308e-09	2.956546231288815584e-10	1.162903081694998883e-02	5.847215550069344852e-10	9.833350543180007864e-09	7.560763647287041091e-08	9.670537459448759231e-10	8.682594852331030529e-10	6.587253628625332336e-08	1.936983501905080798e-02	-6.148788697103029262e-10	1.710902088988908042e-10	-7.738670218677005119e-10	-2.311740925148622443e-09	-1.946142269665759933e-09	1.326036858328758888e-09	-2.278932931897157896e-09	-2.342631314458959742e-09	-2.205411406744975646e-09	-7.208282160570957650e-10	-2.076017687615986769e-09	-2.473792119153557586e-09	-2.176570782773524416e-09	-1.514089510302414729e-09	-1.500697862804999420e-10	1.946314992288655904e-09	1.574181150047384950e-08	1.617130364272621056e-09	9.414206484707862822e-09	1.856445885484584061e-08	3.495593132828092472e-09	2.023815631300839451e-09	2.425242524939098309e-07	8.522734790014376005e-02	9.542030890576432820e-09	3.771776892882697115e-09	2.066312322838234595e-09	6.062396902783573518e-09	2.749659188783038641e-05	2.638085227821014429e-08	2.756260370850304061e-08	5.791541342713198148e-02	5.480040390461741224e-09	7.272130413801438122e-09	3.129285301034958836e-07	1.012919950542964025e-06	2.559945649808821494e-09	4.038936384724027358e-09
2.442606510077213039e-10	-3.533363521499862036e-11	4.989982007090989035e-10	2.989128903126993824e-09	4.508300429531103246e-10	1.340525666092004704e-09	5.483096617311345869e-11	3.101060589714511829e-09	3.672395989046582298e-10	-9.266354825344317596e-11	3.930507549794098254e-10	1.114407778426682071e-10	-4.800632204429136185e-10	7.664263694870040083e-11	4.113600744237275869e-02	-5.636300291847872184e-10	2.612806162495173002e-09	5.424854925817730338e-09	1.209987209688099407e-10	-6.154390311191380604e-10	8.507851592062347368e-02	1.533908117224818124e-01	-4.464169728023859818e-11	3.804602752314404640e-11	-2.419534671718325487e-10	-4.663822525297115530e-10	-4.869217358022939374e-10	-2.880243847071262051e-10	-4.372241863119407074e-10	-4.391130679607268442e-10	-3.528355650349679606e-10	-3.225833696809044346e-10	-4.752558667665760879e-10	-4.860693482734575029e-10	-1.676477291485665866e-10	8.140471694042523775e-11	-3.739379768137086043e-10	7.128764028450892816e-11	4.636982354493669051e-02	-5.200652668421234117e-10	4.166261459492985779e-09	5.390775282900991949e-02	4.124225796138120926e-10	-3.557184134066606221e-10	3.589346160277906358e-07	4.746743425005837957e-02	-1.226679043900497346e-10	1.179873005525944797e-11	5.902274597345796045e-11	4.757549254177815834e-10	6.825922185180714749e-07	-1.865824930924976640e-10	6.171793344348780717e-09	2.115434433800571501e-01	8.427670476053700984e-10	4.339324215075757464e-10	9.270802503772761187e-07	4.057977941670686055e-08	1.145233510121773892e-10	2.828151633092709323e-10	1.457607968359292527e-10	8.601862127129480705e-10	1.650459680784944943e-08	1.189259338422664223e-09	8.926697606215781564e-09	1.213488964042393620e-01	1.508293961738055184e-09	4.565258559373845170e-09	5.174961235886198913e-02	6.476026599747306841e-09	3.643007421539616799e-10	4.764767704632489331e-10	-4.344328439799206362e-10	1.663628652175575038e-11	3.116713789956099974e-07	-5.141130963254187203e-10	2.341776062991625635e-09	9.715975646890481298e-09	1.330996435179759681e-10	-5.554089984993753993e-10	8.397482813386041240e-09	3.672008176539492269e-02	-1.517037966445654456e-10	-1.267652299053859779e-11	-4.142540841660789934e-10	-7.398943205648316246e-10	-5.504513643702591045e-10	-3.745968143154596603e-10	-5.065852050000666365e-10	-6.623015757556473398e-10	-6.272565407236338916e-10	-2.664353533852382891e-10	-7.406458657343946327e-10	-3.575934214288795316e-10	-6.817651185287478072e-10	-6.348012208815241827e-10	-1.250013881159354969e-10	4.349086162026454753e-10	5.297203814576214284e-09	-3.409770529675454329e-10	2.912000414494361203e-09	6.434297806549567827e-09	7.942130001652649121e-10	-5.124993494747594788e-10	2.626213961033500854e-02	6.062280173383945148e-02	6.452074203724509673e-10	9.449018057890037362e-10	5.588681689090825378e-10	1.398890101864875533e-09	1.109673437419399718e-05	8.476995616661127146e-09	8.436971588202476066e-09	6.438032676020487288e-02	1.403984518819496446e-09	1.469750866645582092e-11	3.116460861514069320e-08	8.787958936202453246e-06	8.229123477723759640e-10	1.173190525750127622e-09
-1.842596813969175590e-10	-1.805288508078374505e-10	2.846222228396109836e-11	1.799512319286112338e-10	2.187081136080287475e-11	8.448176626360541386e-11	-1.419469010254290308e-10	6.218926024129209364e-11	-8.992589621184405606e-12	-8.360464228193385399e-11	-1.460716557280527080e-10	-1.752407405897489848e-10	-1.722466574655925686e-10	-5.362041968372589804e-11	4.710922976806321966e-02	-9.640018721418193670e-11	2.466927957865844956e-10	5.433025058151561649e-10	-5.229280955855532485e-11	-9.240742260926029902e-11	7.221424489435662730e-02	1.500920068541436447e-01	-1.111342612729445468e-10	-6.036566122996717372e-11	-1.181991237675937853e-10	-1.755555922618087392e-10	-1.725320302375647402e-10	-1.257697541624717100e-10	-1.752644624807597256e-10	-1.739334482531727280e-10	-1.564837630705221294e-10	-1.308008544762581738e-10	-1.809721536485600504e-10	-1.485737082954372027e-10	-9.822009477546307100e-11	1.775500682255758211e-11	-1.530036135686755558e-10	-7.725479122251898861e-11	3.056281333370277145e-02	-6.212565152750974919e-11	6.127179777813600737e-10	6.096667544272454942e-02	-1.908636067653371792e-11	-4.619180394927182922e-11	7.481774474408022160e-07	6.598813195625444217e-02	-1.136475170422644164e-10	-8.468756262048090368e-11	-1.009393573426661341e-10	1.220842596429642102e-11	7.129722839886628791e-03	2.935235344604081047e-11	9.655385165026243090e-10	2.178473731153085513e-01	7.457582350744881189e-11	1.080571433266711222e-10	1.790925788310643170e-07	9.889281674865756975e-09	-6.667178584660204163e-11	-2.943519881688647027e-11	-4.032560676938948515e-11	7.485083213131796681e-11	4.253176458188203079e-09	7.327667212051801417e-11	1.425596704082514036e-09	1.193473501998850717e-01	1.848135345228303281e-10	2.809950191251141964e-12	5.820868209014878891e-02	1.094482853420314292e-09	-2.449860974242381704e-11	-1.686576577209355503e-12	-1.564829658641467821e-10	-8.397776385741607851e-11	3.871192346418929649e-08	-9.367350219995061182e-11	2.948516052681319243e-10	1.471156476780517258e-09	-4.529677340436485741e-11	-8.565120348297386640e-11	2.090140419264147356e-09	3.180158347151434972e-02	-1.171518757846473027e-10	-8.394408680433514069e-11	-6.193761973146178937e-11	-2.039744080491319753e-10	-2.009136240714224502e-10	-2.041875318674704842e-10	-8.759565357827085541e-11	-2.024723084064757138e-10	-1.431510088392313206e-10	-8.137286083876911150e-11	-2.106531937452759468e-10	-2.113455600252351818e-10	-1.983631457330439951e-10	-1.211288849237089209e-10	-8.678218827129097426e-11	-4.740437286550276692e-12	7.852529981918945167e-10	-3.113768706950963261e-11	3.244051846961306784e-10	6.937170667243897302e-10	4.728399301584133113e-11	-2.121223148659040953e-11	3.187736701399394162e-02	5.414564159133796600e-02	2.404225071799378538e-10	1.446893082304469170e-10	7.641371167885003997e-12	1.203202324974680579e-10	6.854764251083408574e-03	-6.148589477290087266e-11	1.406561500655475508e-09	4.585275735017470267e-02	1.740928760983035877e-10	5.349190612420843521e-11	8.971200154232218158e-09	6.596881832662607038e-07	5.710800635440439248e-11	1.231125154851356516e-10
-2.971134027161793928e-10	-9.797354804418121541e-10	9.972326074577337460e-11	1.388942876589003668e-09	-8.363544063647397946e-11	5.729936952872024052e-10	-9.503329226028157647e-10	1.815527414426975799e-09	-1.213430565781344674e-10	-6.929620135635058800e-10	-4.991784889987118492e-10	-7.748685222433156378e-10	-9.605792408332561834e-10	-3.328680896049722268e-10	3.359913055457341285e-02	-9.244972012835754467e-10	2.515218063004846865e-09	1.059109865158231828e-08	-1.853905340420569679e-10	-1.011836551958539761e-09	8.186326023362990034e-02	1.580593971818703980e-01	-4.531929444926219411e-10	-3.306431442103265040e-10	-3.944659749974497429e-10	-9.654284281243364048e-10	-9.918844421206936221e-10	-7.129742984822626411e-10	-9.151936382861367811e-10	-9.213666148156920726e-10	-7.808073480696695039e-10	-7.634271818228161122e-10	-9.834424663008051932e-10	-1.272167361650085930e-09	1.037106206828267444e-10	-2.181186203963615270e-10	-8.850451990914459903e-10	-2.151003624523650967e-10	3.111223377970310372e-02	-8.201085708392699742e-10	4.727505621381481242e-09	5.403660431070991810e-02	1.166758781877521015e-10	-8.924073382387459079e-10	3.197194492575174646e-07	7.324653381990360590e-02	-6.129241155158096857e-10	-3.946198819763036533e-10	-5.155420467949412637e-10	2.272647419179005240e-10	1.676564779226753094e-02	-4.721123270390141201e-10	7.014728085864431741e-09	1.908864599237587723e-01	7.369938595309990210e-10	-4.046753419468035024e-10	2.443074758717954734e-07	7.849033850371535826e-08	-2.914498280024719678e-10	-4.786205093060953556e-11	-2.138667744799708196e-10	7.745443680348545309e-10	3.158691465030544502e-08	8.297480476960694039e-10	1.027065940157513096e-08	1.481442206942910067e-01	1.634969174968414249e-09	4.216866755707630946e-09	2.964404382689889844e-02	1.108861270132606468e-08	6.052880056140025879e-11	2.437124991989495058e-10	-8.822745483587968374e-10	-4.094212783518574497e-10	8.086422265117914829e-03	-8.617005441567974988e-10	2.573853603127185742e-09	1.274470124206105552e-08	-2.705228223998507335e-10	-8.413708755665632269e-10	1.225495367191800702e-08	2.573945333642950473e-02	-6.388569657355814529e-10	-4.395181890288578043e-10	-6.136990666133930705e-10	-1.390873369494682700e-09	-1.012794751873376151e-09	-7.756541394538529571e-11	-1.135017195306251514e-09	-1.160591460096738681e-09	-1.204228159159927116e-09	-3.446150031567613104e-10	-1.410378754003361699e-09	-1.237536726155433631e-09	-1.337421997603051583e-09	-1.027895381990067961e-09	-3.293281662559716379e-10	2.505266717297599949e-10	7.837884890710611317e-09	-6.242015099977825158e-10	2.962092004614229631e-09	6.246548191092074145e-09	7.150135378283157251e-10	-7.266665144765575438e-10	3.807142621406570115e-02	4.646767152421425739e-02	1.166456943772114550e-09	8.638425768553893586e-10	2.288208704176609551e-10	1.580187477618430221e-09	1.011467531711740010e-03	4.406284715836490760e-09	1.097435764465481369e-08	6.308265579115017452e-02	1.387643492771981922e-09	-9.902411178657128947e-13	3.718773176584849092e-08	1.825740758439302477e-04	6.786773774587833777e-10	1.210717617548249360e-09
-1.080335117045277754e-09	-1.938434564547160659e-09	-1.399607651750536030e-09	-2.005846452710212880e-10	-1.010684492818141081e-09	-6.649912522984620369e-10	-1.773464025806209967e-09	-2.486837061389975897e-10	-1.184260367277031229e-09	-1.792986706882440907e-09	-1.682985691606470598e-09	-1.982262736059294131e-09	-2.012031558269689998e-09	-7.768444120243520584e-10	2.131696522758981527e-02	-1.019846431294532456e-09	3.644885148421069291e-09	1.574776853533299054e-08	-7.872142076690703313e-10	-8.488335000871263478e-10	7.031043446386499307e-02	1.837424871547179706e-01	-5.883061719162683282e-10	-5.658647048531319302e-10	-1.151233991104611152e-09	-2.059708510557108929e-09	-1.848298618671493933e-09	-1.176783183510521892e-09	-1.930092006959075164e-09	-1.865960355282053354e-09	-1.853069160125557407e-09	-1.109311696794379298e-09	-1.974040423898014758e-09	-1.979692857625581088e-09	-9.648743724096379488e-10	-9.675827004278996157e-10	-1.867677826461907766e-09	-3.496751223452452736e-10	3.888929404968387293e-02	-4.661166672060532339e-10	7.863316495847342203e-09	6.100701996334277621e-02	-1.924774488221341815e-11	-7.333628551213671075e-11	5.973033929409478837e-04	5.058885988874381456e-02	-1.214238580856964718e-09	-9.721723470355599318e-10	-1.281831152364674310e-09	4.715800349252845905e-10	5.844834574782500382e-03	4.523019195618250084e-10	1.190818326029897716e-08	1.986890240201896474e-01	1.170277687396924923e-09	9.100501805562659867e-10	6.718572743722422101e-03	1.359041926792723865e-07	-6.242530157148887554e-10	-2.746363741675213237e-10	-5.898530465973889576e-10	1.161079041084668444e-09	7.470800560782189744e-08	1.453773508202779883e-09	1.786373404179662068e-08	1.200791677868915663e-01	2.300133510720052575e-09	2.685177227021378751e-09	5.805256920329650988e-02	1.574923521568843304e-08	-9.836213777454092838e-11	1.295121227308634153e-10	-1.872332142854417389e-09	-9.360932476897666702e-10	2.012180640262505732e-02	-9.197161666167184916e-10	4.018493415381133248e-09	2.008612163108242760e-08	-8.371771278324395170e-10	-6.589365529266210877e-10	3.165392792913890807e-08	1.885533210027444048e-02	-1.260968449579389579e-09	-9.319396930050783584e-10	-1.062908405958415951e-09	-2.668200164331284610e-09	-2.412246932994456675e-09	-1.777223801360461433e-09	-2.097499926759534574e-09	-1.705417608237790133e-09	-2.064579132914806604e-09	-5.301158093810107943e-10	-2.712991153280205927e-09	-1.415838768143122052e-09	-2.716192633179504675e-09	-2.198574056482783864e-09	-9.295965754200360279e-10	5.321481896763671309e-11	8.925189272439994338e-09	-1.892880983247836275e-10	4.471809006793311543e-09	1.032536963453588097e-08	9.083925220536014575e-10	1.774500427963129238e-10	1.588460365650807421e-02	6.992250342171157929e-02	3.844740507858886513e-09	2.898809374500432178e-09	9.102001512719736877e-10	2.270757647388357334e-09	2.462900349334731895e-04	4.852010882287149296e-09	2.004575866999318334e-08	5.913007712014034523e-02	2.202680950263060372e-09	2.539628635316586077e-09	9.661941362408886194e-08	2.421948615412259734e-06	7.426462925546731144e-10	1.343710015951663095e-09
-1.226472713414036946e-10	-2.282093634039472482e-11	1.054455492334543226e-09	4.340898235907959626e-09	8.854216214229184765e-10	2.074153200728926139e-09	1.853280910206795779e-10	5.361637643717386832e-09	7.436481772717121194e-10	6.035305853337122701e-11	-3.260676552304454763e-10	-1.864492618021088907e-10	-7.887792040117188438e-10	1.813813841212941677e-10	3.001774448224280717e-02	-3.953541448286772906e-10	4.091899406899355207e-09	6.335837620414774475e-09	3.395493641142645594e-10	-8.900304760736848015e-10	9.105656519521203307e-02	1.580083686623414974e-01	-2.977500547064539364e-10	3.151728477052390985e-10	-3.093862567999571819e-10	-9.075844053960550709e-10	-8.408025577201978576e-10	-4.215487430618482547e-10	-7.873538904084024722e-10	-7.542048922545846831e-10	-7.317556882821622740e-10	-4.248971474025883795e-10	-8.526701312092627546e-10	-9.232782430936057131e-10	-2.479577817874079280e-10	-5.684321964187053550e-10	-6.163109864806190288e-10	1.268063845031793492e-10	3.073703038833288867e-02	-1.619093977844118535e-10	7.761090198186662714e-09	4.669760049274623154e-02	9.176300636949171786e-10	-3.808639175365429719e-10	1.914382412389522059e-06	7.269297171418831471e-02	-2.695119341191017299e-10	1.460164613712290132e-10	-6.849431198999717176e-11	9.502114013924615755e-10	8.237226576658770283e-07	2.730328432766584199e-10	1.121946616079769802e-08	2.095660512444317558e-01	1.762485087048791863e-09	1.579295116439020231e-09	1.245842309369055910e-06	8.492720426997243123e-08	2.113694042288348453e-10	7.092895176179854334e-10	3.529435311882301967e-10	1.768498955085625644e-09	4.635425213219943007e-08	2.139403036602323552e-09	1.633044700719569199e-08	1.358160966666927538e-01	2.957622125735698390e-09	4.928794289348783636e-09	4.739095317882873609e-02	1.426262281480757912e-08	7.765782275391366382e-10	1.159397409669615160e-09	-7.596934284939193445e-10	-2.609518676370480689e-11	2.193012125440471638e-02	-2.640838286565644205e-10	4.138308034610541433e-09	1.856697947105296188e-08	2.348243053704077756e-10	-6.088921370250691977e-10	2.571736027163248474e-08	1.427221472420284881e-02	-3.630654538241633147e-10	4.362172581691287868e-11	-6.727618109071131009e-10	-1.291900868496445798e-09	-1.286595203174830450e-09	1.131692872335108936e-10	-1.111513541297679572e-09	-9.095616899526050235e-10	-1.147463809141614309e-09	-9.989382428470560791e-10	-1.383558232015242861e-09	-6.112518826151435350e-10	-1.177246071559359027e-09	-1.219985082974872402e-09	-2.441606407217450386e-10	7.431361808763224019e-10	7.206787114564580561e-09	2.101135464391756266e-10	4.488887162178624120e-09	8.442934783374815128e-09	1.541575671105536722e-09	-4.462913416497314845e-10	2.040125754508866074e-02	6.216849674349845395e-02	9.421169426534385159e-10	1.550869147719408229e-09	7.891535089223010507e-10	2.190152799789782381e-09	2.836185796583358987e-07	1.444564149466725327e-08	1.401695682491649340e-08	5.923983751618126098e-02	2.666099373129437682e-09	3.573907160408296538e-10	4.845126889966484253e-08	6.234367147567440997e-08	1.073146569203030074e-09	1.587210369976900915e-09
-4.967711871035002771e-10	-7.773850675041927097e-10	-3.966458226847874157e-10	2.398030085060964148e-10	-3.822325694645531214e-10	-8.607141772517743337e-11	-8.606199222192722583e-10	2.867396117445519886e-10	-5.013775346172295743e-10	-6.733109791289018318e-10	-5.790872556898352197e-10	-7.711708577215032308e-10	-7.232167204702787301e-10	-2.187430194778615711e-10	3.537828297970810332e-02	-4.442799413771436697e-10	1.637366891183156449e-09	5.380134209101952807e-09	-2.937157901207684802e-10	-4.119579573793943189e-10	7.698945256069116005e-02	1.664888129195753463e-01	-2.917222514600846186e-10	-2.336523500847558612e-10	-4.531655669820884159e-10	-8.725472164293820078e-10	-8.696379268493769829e-10	-6.607991839592991751e-10	-8.362902240857896300e-10	-8.431546635575809842e-10	-7.471985711021306957e-10	-6.843341553629413699e-10	-8.646504200324298400e-10	-7.188053056363960519e-10	-1.440610325252311182e-10	2.689275473138990495e-10	-7.186613449194528458e-10	-3.231501868510627200e-10	3.491361576223474955e-02	-2.534903504026398601e-10	3.304516528835046522e-09	4.888107041617890253e-02	-1.644995507164692595e-11	-1.659284250627049736e-10	9.775983707863389955e-07	6.660579976482398912e-02	-4.681652380935706206e-10	-3.919179623868753987e-10	-3.688892687969781508e-10	4.599587567458903424e-11	1.376852624758248024e-02	8.197942502227353933e-11	4.902951560138486817e-09	2.067533559369288121e-01	4.092619690654789806e-10	1.901512387239843393e-10	2.466176598206908039e-07	4.613697427622826672e-07	-1.979883063927812571e-10	-6.749799355668378704e-11	-2.148372134949358084e-10	3.981690317185468757e-10	1.716837598891323144e-08	5.867909921765183276e-10	7.286394590517672041e-09	1.208971016075078286e-01	1.039376240217724674e-09	1.367307600032929198e-09	6.033689101372217978e-02	7.375395855551723916e-09	1.266963938826525251e-11	7.372734867345703887e-11	-7.197268414627436379e-10	-3.055745009587681402e-10	5.832121173280337351e-04	-3.477476229246638979e-10	2.003601254485961321e-09	1.283417960500586412e-08	-2.212776813974448616e-10	-2.711410037708372544e-10	1.278839822348144866e-08	2.042153499821726392e-02	-4.807036979341803667e-10	-4.223039541428601660e-10	-4.921746461396564428e-10	-1.013050554988245167e-09	-9.070697069340670560e-10	9.677831548344531227e-11	-9.459693086017064084e-10	-1.056488170906616477e-09	-8.040303969211533034e-10	-1.859828803561679666e-10	-1.098958958973999100e-09	-9.705478212388499278e-10	-1.060436318484501364e-09	-7.024919700551929111e-10	-4.097224129581555421e-10	7.693434351674181523e-11	4.453118966276593490e-09	-1.254389161550786868e-10	2.091515512007704128e-09	5.062698384020717048e-09	3.398838758108921995e-10	-6.721032436523695891e-11	2.820898879443293691e-02	5.856433861040179212e-02	1.858686417851821147e-09	1.012264965489625025e-09	9.328622908757301314e-11	8.994808180830941432e-10	3.546326954956717766e-06	1.510112847837229942e-09	8.434546751902577648e-09	6.119610745407489533e-02	9.459849228276051217e-10	8.704685910934226712e-10	3.575742550104442684e-08	7.564277145091239148e-06	4.016877849548361377e-10	6.712579691018213074e-10
2.600975023442537104e-09	1.753507614018619378e-09	3.321853739295737779e-09	1.565252590119268925e-08	2.116551541626351164e-09	5.732288953855179406e-09	3.012023695603145077e-09	1.874060167906742296e-08	1.504654222660145798e-09	9.764332879559702034e-10	2.319216738359105002e-09	2.293217076940329108e-09	-4.172914309292547769e-10	1.626993038297154080e-09	3.966456812481683469e-02	1.210479118877352489e-09	1.222996418141066206e-08	3.063710552518867919e-08	2.287657317199664813e-09	5.613110483020398654e-10	7.555133444745747162e-02	1.587603483968487716e-01	8.793295910873643142e-10	1.896983434596788637e-09	4.292764758143148041e-10	-9.844839375543587013e-10	-1.023660928286560260e-09	-3.668276717749489466e-11	-6.444713333983672998e-10	-6.427618349889779911e-10	-5.471936722991488858e-10	9.793450172612767796e-12	-7.197504216753378334e-10	-1.091267705074364477e-09	2.524708189174942101e-10	-3.888728954496599768e-10	-2.131807705112685293e-11	1.814227975591219304e-09	2.540461019369859991e-02	2.656140525969777920e-09	2.204868610562062473e-08	5.171538292666954389e-02	3.530199613120099824e-09	3.033965966949087057e-09	7.556506998541824040e-03	7.052637470540616682e-02	9.089461474146348590e-10	1.806498123831751044e-09	6.896122242363966401e-10	3.977388636328831608e-09	4.771341250025184708e-03	5.530156949030663558e-09	3.115251172414930566e-08	2.023352383779616626e-01	6.063724908926994935e-09	9.310425766053292220e-09	1.140093420680509398e-04	3.804427212968146461e-07	2.121602877635663660e-09	3.264281608373906595e-09	1.963405190010673755e-09	5.562690448068726507e-09	9.163122164408156615e-08	1.800393500079614090e-08	4.542251548688559260e-08	1.435363336923871080e-01	8.723032535309552944e-09	3.538715772680027148e-08	3.915989944031441489e-02	3.842904932677635627e-08	3.319113075006245913e-09	4.182119319306184372e-09	-3.560504628469158974e-10	1.437575629065270487e-09	9.514390493315424274e-03	1.702643984039160746e-09	1.189145067928246761e-08	3.874558336578488285e-08	2.319500296019617848e-09	1.328709513878783218e-09	5.969730292382531700e-08	2.257499065780411637e-02	7.339558759096480846e-10	1.578598380763876613e-09	-1.483437310069788617e-09	-1.330317928204275981e-09	-1.453792607184417450e-09	-8.369927832400127172e-11	-1.777550058212866760e-09	-1.766246556026984677e-09	-1.341132512530001504e-09	-3.631350061729590444e-10	-1.736739708172961609e-09	-1.264206293617298804e-09	-1.445968047082151740e-09	-1.593842365828340359e-09	5.912712060728761651e-10	3.355416012871288859e-09	2.713455694397133697e-08	2.858907004814025605e-09	1.357992565345963010e-08	2.476832634270876799e-08	5.153382783638675511e-09	2.407079283200333276e-09	2.153678249950494172e-02	6.772000977732260674e-02	1.529057812181965409e-09	5.756192500674347128e-09	2.842604231932928886e-09	6.725420748220841163e-09	7.389037692500052082e-07	5.315554043007122677e-08	4.071187066134292938e-08	5.955536253890342940e-02	8.844906886668934796e-09	1.153068623204190814e-08	2.834500654239419335e-07	3.326712262145146151e-07	4.428994486928212238e-09	5.795762460899626383e-09
-1.213975046823071258e-09	8.313592364121291537e-10	1.080512885220558812e-08	2.347090411948401076e-08	6.255582575751001017e-09	1.463599901200600961e-08	2.700155203502554474e-09	1.374000914781151971e-08	2.187090427603252235e-09	2.271877121054548377e-09	2.432688915208120842e-10	2.111637420469512605e-12	-2.790467143836712931e-09	4.089254760841229784e-10	4.554945476719512998e-02	-2.765955137460687240e-10	1.565570585028048477e-08	5.560335690219877307e-08	9.857973807099829336e-10	-2.819703894076513513e-10	6.916230580404161832e-02	1.611161202142874227e-01	-8.804266038328912744e-10	9.443558756333951104e-10	-1.262242579854382393e-09	-3.154769675970076223e-09	-3.006156295679062784e-09	-1.741392037142336357e-09	-2.908237675915421720e-09	-2.845084104929090612e-09	-2.683603097027612778e-09	-1.426391107918881672e-09	-3.118738887726903276e-09	-2.823323446860495532e-09	3.298758308602861764e-10	-1.885634916306706216e-09	-2.349346668372117873e-09	7.815910997308968735e-10	2.624114337064138366e-02	4.050742966732670918e-10	2.740588393512302691e-08	4.825156794109074221e-02	2.742286970949926351e-09	2.243936213862334043e-09	2.879127128502439441e-06	8.117205898304735712e-02	-7.403614506347923219e-10	4.512054575357051122e-10	-4.898050379808592778e-10	4.174213623807336789e-09	2.766351832575305800e-04	2.842328463764062435e-09	3.911387245819878784e-08	2.131266126778823822e-01	5.902378153243688964e-09	1.055354720020846043e-08	5.062787286469552591e-06	7.064146668975288280e-06	1.347596128510760472e-09	3.138163451233136570e-09	7.025452842582840037e-10	5.893336144122284371e-09	1.681168413141884503e-07	1.353875708760974597e-08	5.770663703530604247e-08	1.097539607573985998e-01	9.707614165629784698e-09	1.030883273619985995e-08	6.948240230804418605e-02	6.647090191180702413e-08	3.121986422459851990e-09	4.192410068409096042e-09	-2.564305404609798548e-09	1.375709599393895116e-10	9.529426982059170659e-03	-1.894771898691342816e-12	1.498459229480077504e-08	7.320492706767969201e-08	9.188529726505804164e-10	-1.059467713112971874e-11	7.194541093358808598e-08	1.944028956679929449e-02	-1.043750333199122530e-09	1.195272526215219183e-10	-2.135014512685889449e-09	-4.372661440449654014e-09	-3.833750179281632409e-09	5.270475186850860603e-10	-3.703107715474210962e-09	-3.105805213635235054e-09	-3.908414030491141086e-09	-3.033391422978072018e-09	-4.450656891303618049e-09	-2.507248418021026627e-09	-3.870397176937372513e-09	-4.518158023432380066e-09	-4.507078615211028089e-10	2.807111725001133620e-09	4.164960036352733443e-08	2.093051211473409818e-09	1.674637499835241533e-08	3.300329625272755570e-08	5.248173988249350271e-09	2.103603030254583557e-09	3.603977855601907948e-02	5.409487058418959576e-02	2.830356817429408897e-09	4.990169951914164521e-09	3.369064286025053286e-09	8.407078565028905417e-09	4.056901520339274467e-06	3.308184004286259350e-08	5.120027883157225123e-08	5.673166219501807328e-02	8.505584757304048827e-09	6.771791352357979931e-09	1.737478342962075889e-07	1.156240151926639159e-05	5.648772740573730333e-09	8.157929289849215019e-09
