2.723161003000464001e-08	6.475338027647000508e-08	2.548670092868014993e-07	3.295647255192530426e-07	5.608085763113617673e-07	3.774497546363841542e-07	8.424322030286200301e-08	4.545832054568490903e-07	4.283120397848676507e-07	1.424929016236745834e-07	3.839013002443153716e-08	4.517646314336027903e-08	6.478032322749107685e-09	1.832656431332976511e-08	2.757577061310809152e-02	3.453424555854221288e-08	7.824247444316148939e-08	2.147531522836739938e-07	1.904353110390304783e-08	9.172848460698102537e-08	5.272069157859447103e-02	1.718971587766773002e-01	1.356976083995171013e-08	1.854441555617147852e-08	7.419215268505353051e-09	3.661357002895264632e-09	2.902405784478979043e-09	6.608890756674876615e-09	4.382618587118802163e-09	4.074108209702341739e-09	5.133741985860275849e-09	5.045349227043375081e-09	3.741467101291872701e-09	3.019394318173586515e-09	6.139447908649642463e-09	4.750309193699010064e-09	7.582850631406978640e-09	1.909299028989710008e-08	2.549604739480814536e-02	5.207969971939286470e-08	1.454396778302392521e-07	6.120257688822550689e-03	2.501061946034483659e-08	2.056829871333016864e-07	6.612905305489118570e-05	8.229083737752317107e-02	1.415896095252071667e-08	1.911137574092172061e-08	1.159700077983300560e-08	2.906203417328771098e-08	1.209641527230091024e-02	7.166929788030891132e-08	1.765078024257625712e-07	2.134024659075964003e-01	3.398194940099730841e-08	3.011395417784792203e-07	1.932105367474488909e-05	9.338345843572517461e-04	2.160451221999365412e-08	2.973913076615808021e-08	1.734732297932246345e-08	4.101967599454994053e-08	4.662430599142488799e-07	1.084057132604461829e-07	2.761003390307652454e-07	2.819500145487740528e-01	5.057155913478489150e-08	6.693835317454229541e-07	1.160632327968532662e-01	2.469664871954158569e-07	2.709672090253985782e-08	3.422564674731795019e-08	4.850063783812091203e-09	6.396337558863900255e-09	9.956590564272130049e-09	1.141588069487573139e-08	1.026341297820790355e-08	1.087149309340606214e-08	7.590893682926786164e-09	8.475350611806994791e-09	1.017246684802654802e-08	9.723841397386270387e-09	7.234961950675887837e-09	7.390817944982818392e-09	2.663604870056066887e-09	2.078146906201538229e-09	4.485163202829607895e-09	4.351382183266989651e-09	2.882922279393322196e-09	2.944572992991613435e-09	2.770757245356932244e-09	3.594013474460270804e-09	2.385025453344149956e-09	1.868180801721421896e-09	2.727104401792097115e-09	2.283331713783020142e-09	1.154951344235270906e-08	2.462547112895946431e-08	6.977751694182166056e-08	3.790276916263285487e-08	5.251694005557446737e-08	6.739687355243662906e-08	3.019509329261084028e-08	8.880723831305898216e-08	3.448392006499775274e-07	9.360320142719454409e-03	5.191659311338900540e-08	6.973262848571940385e-08	7.603683737505892526e-09	3.696060370377704676e-09	2.807680456754655248e-09	6.144584284247357308e-09	4.119622772529207315e-09	3.824629680311500582e-09	4.797018901290093327e-09	4.855477704973670304e-09	3.365494759742757825e-09	2.778097955206620454e-09	5.549163956576932813e-09	4.240994980517627406e-09
8.339665288556779849e-09	1.300784687704758650e-08	1.890956316120574376e-08	2.949725496874664939e-08	2.878758612340735995e-08	3.172286682998565071e-08	1.790135190703509894e-08	4.820030470663378767e-08	2.391483480011131835e-08	1.874296599106861683e-08	9.877555697467258819e-09	1.117608762767574119e-08	1.755087557237569002e-09	6.688320346701995770e-09	2.845396088510421945e-02	8.822981811148678901e-09	3.713825878715382672e-08	2.033235039857729455e-07	6.619761254324585323e-09	1.782151946892035250e-08	2.509154630497242855e-02	1.906055873163491343e-01	3.962325800082178544e-09	5.988430289418710011e-09	2.640172954100619780e-09	7.189308706818170266e-10	1.356503704022839219e-10	1.764415964830654528e-09	7.803810889518572606e-10	6.291064885799509077e-10	1.111854137220611598e-09	1.416891519533461246e-09	4.005789584818033490e-10	2.341260676954168751e-10	1.184244358787844382e-09	1.480928086828862237e-09	2.224265384053139412e-09	7.043797670384788474e-09	3.096415892261919836e-02	1.283257389848100986e-08	6.052999364210799105e-08	5.123268837497698845e-04	8.233490482789467614e-09	2.946370075558011217e-08	1.804510046417803770e-02	6.687085390109352712e-02	4.255647893426004038e-09	6.218149281340517916e-09	4.118515127940945602e-09	1.129421332032271286e-08	1.176287824710777693e-06	1.797646678758431832e-08	7.124352304954984192e-08	2.253343743207858463e-01	1.146147238456365426e-08	3.757385334822102060e-08	1.922103616301521045e-07	6.125285903319972241e-07	6.408658561393802507e-09	9.017551335585165350e-09	6.359640653722502153e-09	1.592868384552757922e-08	1.809311268981435252e-07	2.733019951863784789e-08	1.115498863718837139e-07	2.723547528018965824e-01	1.907271988527283320e-08	7.759922559854869971e-08	1.315552085456642151e-01	8.900684964264721148e-08	8.769684258235173156e-09	1.147205622346284057e-08	1.122352582261730452e-09	1.773744970002214911e-09	4.285825441857820596e-09	3.025699483693013776e-09	3.487832351975262495e-09	3.833161799320466765e-09	2.070019231637215772e-09	2.960437451340352896e-09	3.294812449904627393e-09	3.163535760268467826e-09	1.829955271331586435e-09	1.918716099894660788e-09	1.786321354275363704e-10	-1.249017380882922357e-10	1.511626028344675292e-09	1.298052354573647047e-09	3.018469747104158180e-10	4.479982828013136740e-10	3.434501275164726683e-10	5.381095129040409875e-10	1.301890715614980113e-10	-4.151454106308760311e-11	1.062271928347042716e-10	1.928707561569144033e-10	4.180628425691942974e-09	8.939387970250010311e-09	2.315867982560793313e-08	9.867562486840064926e-09	1.919062798069325390e-08	2.401669789071539781e-08	9.897484607296826377e-09	1.579848622768990051e-08	3.210560726564002775e-08	1.020850017712910361e-02	1.524304549970232336e-08	2.466086677161839970e-08	3.168300023285149452e-09	3.199383214867870429e-10	-2.304112479262204514e-11	1.684396507321870272e-09	7.323677812278414248e-10	5.822634561739164225e-10	9.561797879112252264e-10	1.337478871516221389e-09	2.825562453396963252e-10	1.317955976210028571e-10	1.182235174494375879e-09	7.761566297210576543e-10
1.297302225554381186e-08	3.326981726222638287e-08	9.074898410450854867e-08	4.662290306662253490e-08	1.442788984665729765e-07	4.602426128908584809e-07	5.296578031044137553e-08	4.025827987516879881e-07	1.180315089676712406e-07	1.019879984285584959e-07	2.306249900070965998e-08	3.204565471529302965e-08	-7.948734739871818162e-09	3.070809296270441815e-09	3.393279416655040764e-02	3.304995860073556029e-09	4.855043819503978039e-08	1.894977443169884403e-07	5.565812286364024324e-10	1.553717116081154464e-08	4.982253091812253315e-02	1.703724065116981323e-01	-1.376449588682772127e-09	3.636713030559911941e-09	-4.433517288916964497e-09	-8.368471039112630245e-09	-8.726313556728908857e-09	-3.927251657934858412e-09	-6.770748155658450412e-09	-7.271239282904714934e-09	-4.337387509120682528e-09	-3.465587192615422174e-09	-9.128587122977008758e-09	-7.844019344758713325e-09	-6.824112328166717086e-10	-5.823780615358031763e-09	-6.380690299858449451e-09	2.375220970666865123e-09	2.890170758216043662e-02	1.107443320487759081e-08	1.123597139198368711e-07	7.742489830096288550e-03	6.677978102852999643e-09	3.308917903809950244e-08	2.556794143840621349e-05	7.074522367897466413e-02	-1.699466416855753627e-09	4.599859941770638332e-10	-1.861566061094961558e-09	1.436818657321097164e-08	2.189678596195871341e-04	1.614686331507500273e-08	1.130958309072505852e-07	2.362727023825590411e-01	1.261256778290270420e-08	4.460233443944286874e-08	1.023141139118799591e-05	2.699786581322920274e-05	2.656802877310695802e-09	8.306811930222500309e-09	9.177919114064143748e-10	2.044415402049738048e-08	4.598074911221392296e-07	3.827375281229523554e-08	1.862377293390150898e-07	2.501558609662514754e-01	2.388621493830830279e-08	1.202088339519093815e-07	1.421220226420873145e-01	1.877975208893885694e-07	7.286761780061506504e-09	1.197249301237704189e-08	-8.980024017176568589e-09	-7.558389979156310008e-09	9.483087739931182336e-09	-5.789037723327736722e-09	-5.173563219263612326e-09	-4.164107542812034208e-09	-7.009632264350578409e-09	-3.520802535549378107e-09	-5.450143147337738359e-09	-9.739489124180450097e-10	-7.234780497173586987e-09	-6.004739581505092222e-09	-1.070308372257651856e-08	-1.277784561863158065e-08	-2.362491175232865548e-09	2.596315359727002682e-10	-1.081989302175224043e-08	-9.962878820788420942e-09	-1.017230101320101016e-08	-7.860077352103366025e-09	-1.168173896579050432e-08	-8.463020227401084948e-09	-1.091977041667827637e-08	-1.205222281405252892e-08	5.459789053351903273e-09	1.218568229223118623e-08	6.491943975433382511e-08	1.145912298132100089e-08	4.773948829942055337e-08	6.809342872906262257e-08	1.524734526637330488e-08	1.040871310637268245e-08	1.702091878948961941e-08	9.647213396500875504e-03	4.624769136064904875e-08	8.584548780598019032e-08	1.416496138709077523e-08	-7.843994420820700648e-09	-9.493918251684455802e-09	-2.058716309469909993e-09	-9.040923098876203997e-09	-9.412220154592597790e-09	-6.544462650952930241e-09	-6.393022574612166349e-09	-1.043621610895988739e-08	-1.059788499648497183e-08	-7.325974442699269023e-09	-4.485589047205516012e-09
-8.058803838777700303e-10	-2.934366932102158184e-09	-5.256520470559969206e-09	1.988025627171452413e-10	-5.861144034316177409e-09	-5.637998495915535275e-09	-1.246923199126849505e-09	-5.590655085897398870e-09	-6.396844228950158530e-09	-5.237842310954811615e-09	-1.615564121129771245e-09	-2.362681077776556097e-09	-5.002052980035732288e-09	-1.193482202955900530e-09	3.449385069602901865e-02	-3.045307476531341812e-09	1.182894454449931934e-08	3.522100773010506535e-08	-1.872862690273096442e-09	-4.296257696955856542e-09	4.644858258898398873e-02	1.693274216914201213e-01	-2.971625495604364104e-09	-8.214151625899228574e-10	6.718336474005075739e-09	-6.350194072196491370e-09	-6.718467471287784518e-09	-2.711808477607323641e-09	-5.407925992076761089e-09	-5.609588007535598470e-09	-5.087588528402837148e-09	-3.609747850291058808e-09	-5.943527635052170653e-09	-5.617149171069980466e-09	-2.773576787618615488e-09	-8.977107242683813079e-10	-5.001098775393223517e-09	-1.393827425461592776e-09	1.141572261685053213e-02	-1.005041006912399912e-09	2.685875143446087966e-08	2.325702730873792715e-02	-8.087244157284598078e-10	-3.037536944180727002e-09	4.523367448685640393e-06	8.102587619191363444e-02	-3.290258789848800851e-09	-2.202669087555573430e-09	-1.285465038157051044e-09	1.162411959543900846e-09	2.360372244972644418e-02	2.070724360757842244e-09	3.854844779457860131e-08	2.169032704446036686e-01	2.061531313603795412e-09	-1.092477289401262746e-09	1.070014939994832368e-06	1.397422819079118886e-05	-1.498939489976448099e-09	2.958501259407138456e-10	-1.807508417392773330e-09	4.991570106220571492e-09	2.837624261754982985e-07	6.023939263062760497e-09	6.249241989377389212e-08	2.404005738567509265e-01	7.238057277493636546e-09	-3.844685951032462685e-10	1.437231789447465657e-01	6.857492966185772526e-08	-1.094887162853818318e-10	1.247756403138253483e-09	-5.778466026294571342e-09	-4.697525618284318160e-09	2.985597263992277112e-09	-4.359576770578082035e-09	-3.579121593556174971e-09	-2.478547676866645105e-09	-5.060824955383316480e-09	-4.242064707393700945e-09	-3.633108822229297861e-09	-3.549487555068259646e-09	-4.885547421785111217e-09	-4.074275074126792782e-09	-7.049788680625537373e-09	-7.221075102757098588e-09	7.911334777828291907e-09	-5.605568318760028212e-09	-6.967941565634857887e-09	-6.749947358280823867e-09	-6.522005467483729175e-09	-6.406610931627459940e-09	-7.403816535444550178e-09	-7.246840858442149943e-09	-6.734418894862535542e-09	-7.338522801458530837e-09	-3.059909317992760945e-09	4.592813906768302778e-10	1.140433713386266232e-08	-2.228884801331380428e-09	9.715226983718197896e-09	1.521432431947147652e-08	2.168647468590616226e-09	-4.195360892794444319e-09	9.161991960393677755e-10	9.380913076578418358e-03	6.296338283188602987e-09	-3.642984099727610077e-09	-2.639456677157645287e-09	-3.223061051330803487e-09	-5.315336754347296273e-09	-2.884712985097134185e-09	-5.240703373218202242e-09	-5.356667021462031633e-09	-4.890304151750116105e-09	-4.174664010233324088e-09	-5.949861917802061005e-09	-5.741976426695075629e-09	-4.170448018362320192e-09	-3.750487637905178100e-09
6.580923381793227210e-08	6.710160710562110892e-08	2.150781942927984359e-07	2.293472923446446791e-07	3.853157771274109532e-07	4.657005861278520027e-07	1.030273071606817550e-07	5.402529204256742252e-07	3.702543373231316670e-07	1.723557854856618509e-07	6.581986225909466525e-08	7.035874279191028510e-08	2.412434631758555976e-08	5.852171584284188581e-08	3.051938736657495294e-02	7.685947761382444484e-08	2.520326883523402661e-07	8.729273590840713790e-07	6.353354455511866435e-08	1.062388745445369367e-07	4.736610913468988077e-02	1.712723277208656192e-01	4.228545423123283809e-08	5.418265263520891758e-08	1.669986395139258450e-08	1.575542999286046770e-08	1.361017261796410590e-08	2.200944398573987740e-08	1.730201425243193128e-08	1.633230636671352621e-08	1.930069090889696705e-08	1.903492441654492956e-08	1.539460640188892332e-08	1.328171227477796811e-08	2.062575813981617618e-08	1.633863533526818493e-08	2.771538052854004480e-08	6.282483860793570602e-08	1.400092228174245994e-02	1.008283456362416933e-07	3.701349722443027544e-07	2.493097859077374884e-02	7.655865229068971578e-08	2.464297949775881579e-07	7.025937451467905435e-05	8.477868176855322957e-02	4.573679095872730461e-08	6.019588316077702201e-08	3.842296765557378099e-08	8.860825546088070527e-08	2.434980390205253309e-02	1.352666266217962286e-07	5.359158284097381633e-07	2.017303943989310344e-01	1.050904612764226260e-07	3.700282646554346120e-07	1.777733183587235796e-05	1.894506340905483080e-05	6.296326791563932890e-08	8.214603962818588744e-08	5.598927600239270388e-08	1.231192184368337396e-07	1.142623886089650085e-06	2.102521467655069219e-07	8.276596238166906356e-07	2.703761056301964283e-01	1.593402798882547873e-07	1.116103162978085703e-06	1.269384110877901095e-01	7.296518512504879878e-07	8.315127628543621640e-08	1.034207867615564584e-07	1.946402626595882274e-08	2.462737520940642322e-08	3.176369253497391296e-08	3.401846494655770683e-08	3.734300417333145580e-08	3.891318114258046762e-08	2.899079929167360182e-08	2.848266579715100503e-08	3.643173643887069956e-08	3.456397121079855347e-08	2.664232809393488838e-08	2.710289102515044263e-08	1.414310249009799218e-08	1.269011114870146012e-08	1.271864516681273363e-08	1.600200788260788324e-08	1.554103471150385172e-08	1.526696610624025495e-08	1.461471312819860367e-08	1.208982487449334798e-08	1.413102824648695320e-08	1.278192584774207843e-08	1.456007560843486357e-08	1.339582021476301027e-08	3.505373510368911703e-08	8.014821929864511407e-08	2.526290394892550855e-07	8.998363828786711574e-08	1.644232710545618851e-07	2.191876794426837876e-07	9.225423647313686397e-08	1.230919617972279845e-07	7.277464741703068360e-07	3.615680713918684609e-03	1.106250969206858804e-07	1.190515397987506348e-07	2.416936660969465666e-08	1.378288865709500123e-08	1.197178373465230661e-08	2.217475617469885132e-08	1.558582333545907523e-08	1.463820944777378719e-08	1.777922760446760548e-08	1.703035831888397192e-08	1.390530011642094548e-08	1.189599317410044291e-08	1.951563661288118818e-08	1.571932855895939969e-08
2.182426002849532414e-11	1.312328520135792947e-10	4.492596968165902583e-10	5.315258909203436041e-10	5.434110994589189590e-10	6.768678608426755052e-10	2.665549600374874572e-10	2.114825816998530756e-10	6.534972067821655161e-10	4.031414849714319873e-10	5.443792251369634124e-11	9.076809175939622793e-11	-2.094688844158794545e-10	-1.183143030147071539e-11	1.925465435815808604e-02	-1.380285486330871045e-10	5.113346893402491571e-10	1.317444397067376421e-09	-8.941615201866093771e-11	-1.803759057163139664e-10	3.231567665259876126e-02	2.037952696284343057e-01	-1.325675156997669141e-10	3.158162449900689198e-11	-1.055046965861949641e-10	-1.611205101068526377e-10	-2.171247773311760081e-10	-1.264322716531846916e-10	-2.163975370227049869e-10	-2.227140305016595402e-10	-2.254756600114034943e-10	-1.346568927513553368e-10	-2.347997809808764138e-10	-2.133775568453248212e-10	-1.218969705411427548e-10	-1.767837890444830775e-10	-1.818684096707977431e-10	-6.084492861626707717e-11	2.977359811873559262e-02	-6.171416966956827001e-11	1.201152992765777656e-09	1.931097034816584013e-02	-1.342140015552257466e-12	-1.048571910190874907e-10	4.756136320058151207e-03	5.861898229487097489e-02	-1.356403222348527072e-10	-8.937555418322261065e-11	-1.038416649569258605e-10	8.534114179432985081e-11	1.699568374244414190e-02	2.613410820318139901e-11	1.672615273434138522e-09	2.143874260067617221e-01	1.394621592612096414e-10	2.563878114246647902e-11	6.171350323495097331e-07	1.507238659691062646e-05	-5.846397674941203048e-11	7.331371400274403124e-11	-6.822149361340573572e-11	2.858201060332918463e-10	1.779473136810985997e-08	2.261896786610944856e-10	2.779609176567990154e-09	2.419906018726923902e-01	3.079775132921496568e-10	3.310160632028094544e-10	1.454801101744057357e-01	6.709301797778516444e-09	2.696871103022544522e-11	1.541800036242010492e-10	-2.381500008889199255e-10	-1.639015079182742086e-10	1.064369092248473382e-10	-1.928028463680973604e-10	-1.459984612080546875e-10	-1.070750370631354177e-10	-2.018411514732012030e-10	-1.894577456057467873e-10	-1.461504874977915644e-10	-1.049441547861228263e-10	-2.047764675934459435e-10	-1.906296827708465908e-10	-2.715536749888868192e-10	-3.100112699571614216e-10	7.332551924782780789e-11	-1.385782157705795496e-10	-2.740564391284714898e-10	-2.503863452073653948e-10	-2.539986376798648735e-10	-2.296024128193631455e-10	-2.843857740803297740e-10	-2.400113521937001460e-10	-2.947190273107339434e-10	-2.954102474765939761e-10	-5.633376519853947353e-11	-2.677089652535277130e-11	1.912908085586786069e-10	-1.088216679848026876e-10	1.536575616872833522e-10	2.048809459204229611e-10	4.014391975401837144e-11	-2.863153843793691957e-10	8.075586488922758453e-10	1.330517147640407523e-02	3.988883931394163306e-10	8.638301210050455591e-10	1.245086411823168131e-10	-2.552513273034326165e-10	-2.627055249911166344e-10	-6.389339740925483442e-11	-2.227522513392944626e-10	-2.289598575783147094e-10	-2.070781922801957362e-10	-1.408255317379922203e-10	-2.466843441813708217e-10	-2.440168354596457223e-10	-1.898123050732490350e-10	-1.608924390355529647e-10
1.485513143501943094e-08	2.558197797967094455e-08	5.678925292272143651e-08	8.553674079367491745e-08	1.067595046525494430e-07	1.074987743472312730e-07	3.512516210438794723e-08	1.354475882146548486e-07	9.306969881972455402e-08	4.831272927326945863e-08	2.020018006572711307e-08	2.182866721536596803e-08	4.497921802740653547e-09	1.598775681102355398e-08	3.111744376345245561e-02	2.169643123795401740e-08	6.760672259779199561e-08	1.797211075250101479e-07	1.583102641844425137e-08	3.598410836994598191e-08	5.630422382978086254e-02	1.683210395689431760e-01	1.047278782416613857e-08	1.558299429403508924e-08	5.618885871231569597e-09	1.711908538427284237e-09	1.002742033519120325e-09	4.435693139700931961e-09	2.480981525993355736e-09	2.186254440320151470e-09	3.103645268483706749e-09	3.067304333050618939e-09	1.775218274581822218e-09	1.303980163554454823e-09	4.143091674652039989e-09	4.061812771056914096e-09	5.471332057625179807e-09	1.656620223049945201e-08	2.446506841990478409e-02	3.293828171676496479e-08	1.302504953449295647e-07	5.986995885382288482e-03	2.134629834288879744e-08	8.302120544573290565e-08	1.136176610745559404e-03	7.930848806079469904e-02	1.091857237725444498e-08	1.594712907613855273e-08	9.698299025130788835e-09	2.737607979422469318e-08	4.782092408318512622e-03	4.657229605901495939e-08	1.613524466029149593e-07	2.283747560314330349e-01	2.887586966108849071e-08	1.074292518285350175e-07	3.647905405329945869e-06	7.575983761765513408e-04	1.806464715363213268e-08	2.642550907540225441e-08	1.508945767449070180e-08	3.829077693399637399e-08	4.835392832814658658e-07	7.226865591979667998e-08	2.536622609704855132e-07	2.618524010829400006e-01	4.468954321620771583e-08	2.495020403517180361e-07	1.266399006464856147e-01	3.703061811960963880e-07	2.544980673619110975e-08	3.419638028394079572e-08	3.044387148194238244e-09	5.109395109806388129e-09	1.058334176970012035e-08	7.995149712865040341e-09	8.717719506555868549e-09	9.504787754263794201e-09	5.769288955579214650e-09	7.399929365622010527e-09	8.701635856878605332e-09	9.199981981740433544e-09	5.039859272290946460e-09	5.492450927577560008e-09	9.549102862651891785e-10	1.854852270855654641e-10	2.927276307942936388e-09	2.392748897901971866e-09	1.486159037662493084e-09	1.308646969122235815e-09	1.377338117031213443e-09	9.378185069314506344e-10	8.143421314520669467e-10	1.171145091804259256e-09	9.508163941939083562e-10	6.203907593934341844e-10	9.332327131871671505e-09	2.111438076884833376e-08	6.069056407212746665e-08	2.559498680384460412e-08	4.600340143635364557e-08	5.833332379338520633e-08	2.472912870021183991e-08	4.186805823986644289e-08	1.364829081850381349e-07	1.094606009106230231e-02	1.364316055833802941e-08	5.475686551286195083e-08	6.367269347705734206e-09	2.112557476600210688e-09	9.457455295140639690e-10	3.879836017278543698e-09	2.071552502636341573e-09	1.799710393688768993e-09	2.620210175625813053e-09	2.952453321448540054e-09	1.247872097493430780e-09	7.756491330093286216e-10	3.427005615059823921e-09	2.359117814941377610e-09
2.478914793634987414e-09	1.916095388733253097e-09	5.284598085998607777e-10	-7.369668436285647541e-09	7.734972450444903821e-09	2.346077406522066827e-08	5.665077024416053425e-09	3.021392536095222563e-08	4.551056018586113260e-09	3.529847582123173840e-10	2.358669097576471861e-09	1.919175158382299763e-09	-5.127063300496356026e-09	2.260760511961065687e-09	2.349302047686785064e-02	-3.238886031157125966e-10	2.174601693319868087e-08	5.928427314107115461e-08	-6.122772747199879259e-10	2.981767515000742732e-09	4.710106220477161543e-02	1.792466655210420423e-01	-1.946339233103420983e-09	2.612553931172601694e-09	-1.795692963173533616e-09	-4.665876526364255077e-09	-6.405060699213475751e-09	-2.749496818553470765e-09	-5.294259936805701049e-09	-5.809546557633239028e-09	-5.054947161338770281e-09	-3.604085103165706851e-09	-6.598889129586388807e-09	-6.721610135930666487e-09	-5.522065591762090890e-09	-7.080794353516630833e-10	-4.753619596526417400e-09	3.667863482008132602e-10	2.465710213255681293e-02	3.199077719810660278e-09	4.571428706862826086e-08	2.158413973788948434e-02	2.141779471997330095e-09	1.010384832975188864e-08	1.470773571272892362e-04	6.502391909669227865e-02	-2.560834237620355237e-09	-1.425631022034153099e-10	-2.167689485410550902e-09	5.558479953961731918e-09	1.212465050653235496e-02	4.953195542668634585e-09	6.390464701591906322e-08	2.036610987349986024e-01	7.360007778024546842e-09	1.535818093327550144e-08	2.401665474759880170e-06	2.169125546047514022e-02	1.277653007481346803e-10	3.627918776384623461e-09	-6.013654758648282570e-10	1.014437430864873074e-08	2.173531138916694003e-07	1.832191364313833167e-08	1.059237191284031299e-07	2.440025208213896790e-01	1.371874359188162888e-08	3.712935863513791738e-08	1.465698942352932632e-01	1.496320635696983623e-07	3.352937506252097663e-09	7.000136973346577677e-09	-5.871177932245065032e-09	-5.288825858759894123e-09	3.845884846361244743e-09	-4.113462031603057546e-09	-3.378595914309243388e-09	-3.415193063020669266e-09	-5.037797012469358949e-09	-3.350929910887159003e-09	-4.020318461494114207e-09	-3.363806283203210354e-09	-4.773098944839458454e-09	-5.168129079550393893e-09	-7.538069194059403865e-09	-8.614447346801120257e-09	4.706636767285333930e-09	-5.807404681394798347e-09	-7.918674120119406483e-09	-6.190816803800504634e-09	-6.666775648858792539e-09	-6.093017333616908040e-09	-8.034558885912289133e-09	-8.361179211241163278e-09	-7.263307006176473769e-09	-7.052036592563070712e-09	1.791672244665948641e-10	4.216230463289576538e-09	2.158176093562107311e-08	2.368477277515424018e-09	1.756799437608567289e-08	2.581152540620981430e-08	6.173510916318805232e-09	2.616416272229836234e-09	5.371119695511214766e-08	1.069437561785777265e-02	2.204816289180451347e-08	1.835735239569152063e-08	6.694860725634297399e-09	-6.927131955801315881e-09	-7.118920094145082543e-09	-1.887393191542439115e-09	-5.913689923631522376e-09	-6.346499672973205103e-09	-5.932124365148341908e-09	-4.640610660304796005e-09	-6.698984673754483342e-09	-6.987148221218651014e-09	-6.430362570261549324e-09	-1.766552063087142623e-09
2.527346585062729522e-08	3.903468673183742361e-08	8.321417697095517412e-08	1.940716596967230592e-07	3.284558272576948131e-07	6.275599095815571284e-07	4.405236579498505257e-08	6.451535263889624617e-07	2.992544458504211456e-07	6.210000033048501221e-08	3.805545466279776039e-08	3.637480280184196229e-08	1.219587213294636830e-08	2.896608868249758906e-08	3.197572374097322478e-02	4.558849172281002542e-08	1.230667826388231725e-07	4.285330726943888351e-07	3.052734379065530726e-08	1.374627810131421309e-07	3.135974192142688272e-02	1.845206295052950751e-01	2.182485327066728521e-08	2.856474019282214810e-08	1.195657885111201832e-08	7.474250189658634278e-09	6.763029921485391405e-09	1.124181525701740544e-08	8.783763382015422703e-09	8.302335913635276681e-09	9.920550360506760191e-09	8.934538946726046969e-09	7.822621495731140974e-09	6.739167843074042933e-09	1.071129200715575703e-08	8.160998081637365116e-09	1.432787784180169310e-08	3.123468629526780463e-08	1.882502829948434070e-02	6.348329997055255855e-08	1.862988195007607148e-07	1.880484163522633256e-02	3.627709134753984213e-08	2.969779499241012734e-07	1.090200095704970708e-02	6.798002839900468830e-02	2.305436316616174759e-08	3.050800453106903688e-08	1.985121058961100641e-08	4.425837603234718810e-08	6.108505474872630986e-03	8.842243197406428923e-08	2.609011645328503755e-07	2.167755004661019724e-01	4.999274722583949630e-08	3.998988609779094586e-07	6.276977612542615125e-06	5.591540585963345432e-03	3.212751099313736010e-08	4.332480596792125114e-08	2.772573676791827480e-08	5.995398918702804635e-08	4.795103046824077807e-07	1.371232399059333385e-07	4.069097842462737105e-07	2.567995809759944237e-01	7.585405383754025481e-08	1.076730525324222063e-06	1.354292066857841481e-01	3.222266588471900132e-07	3.998395746829983223e-08	5.010533684243406019e-08	9.826830989544341082e-09	1.197424358006196288e-08	1.445950408830931002e-08	1.734431900421804088e-08	1.725728797179111892e-08	1.789752106349621556e-08	1.356054446172945683e-08	1.542088663371436951e-08	1.671793776699844948e-08	1.572759104536081357e-08	1.278873550597921679e-08	1.316051939835053421e-08	7.185913658779558929e-09	6.492574631037512164e-09	5.967178793938325857e-09	7.685568790196460514e-09	7.803687638992549225e-09	7.653308436452415077e-09	7.394977022164636535e-09	7.589518022059499750e-09	7.051243664158820423e-09	6.327120262050889572e-09	7.340818799965334845e-09	6.594476955069379713e-09	1.871905750466708589e-08	3.729197309552090007e-08	1.045047125937351386e-07	5.138158382565012911e-08	8.110610910181244388e-08	1.033781366132994908e-07	4.419397896849035630e-08	1.283351855116562870e-07	1.888004392536690573e-07	1.491244629044719515e-02	5.394315462706482191e-08	9.353912117373433576e-08	9.145463562490890335e-09	7.671159958229833526e-09	6.503266377512924764e-09	9.344402079652015325e-09	8.165549857389032098e-09	7.714808427075366866e-09	9.226160484196889004e-09	9.038254142806091658e-09	7.315412406632272538e-09	6.297221192647230686e-09	1.003873328472572033e-08	8.004493251771851618e-09
3.356312013171548632e-09	-2.766472491121138671e-09	-8.522289116385727943e-09	-8.141113113764159226e-09	1.571105626652327619e-09	1.050425120059230099e-09	9.286400822389848545e-11	1.603481423814648081e-08	-4.097974381394363609e-09	-7.817747161979481649e-09	-8.586784716933854190e-10	-2.672051107225974825e-09	-6.973825655004843017e-09	2.774576390445722132e-09	3.888540048997422144e-02	1.544586627127883556e-09	4.439197689677727023e-08	1.571302783311050541e-07	2.454709085201825507e-09	1.182165059439079707e-09	4.133074566481471923e-02	1.685224259707103767e-01	-1.653981203654275166e-09	3.309854004373234140e-09	2.818476137236187474e-09	-9.923850388880515774e-09	-1.021405900966662483e-08	-4.245621374488780968e-09	-7.739394790507199985e-09	-7.948543095014104846e-09	-6.564425797476639375e-09	-5.486744467399260480e-09	-9.034668089620050880e-09	-9.281199834635698028e-09	-5.266127172785528540e-09	-3.895134225378106401e-09	-7.030719759080535046e-09	3.520925011700938175e-09	1.811962457471162635e-02	8.197051497861450673e-09	8.717325432732781319e-08	1.876764591889077891e-02	6.442713639756375517e-09	8.283545405998380223e-09	1.774981800792659186e-05	7.560031373350718786e-02	-2.039944133655584802e-09	1.650921023233257023e-09	-2.596065099069482402e-09	1.728878743354972291e-08	1.933270113821292189e-03	1.839333728321970621e-08	1.167582900954710808e-07	2.136384036905470685e-01	1.349822619400465991e-08	1.843958970602270030e-08	4.815909237586142850e-06	2.744805502898989280e-02	2.632469176522290110e-09	7.842391327314373034e-09	1.381911896769052197e-09	2.095012097786708320e-08	4.845304790788658634e-07	3.379111558928622279e-08	1.905444388184755651e-07	2.289837088955961053e-01	2.713671557486600334e-08	2.951724886485643474e-08	1.577701489234777932e-01	1.723089104266721766e-07	7.372044899381345852e-09	1.219389937734339983e-08	-8.413933078221314137e-09	-7.170164993839188910e-09	6.701644185828415966e-09	-5.247389530509782506e-09	-4.057180502004587013e-09	-2.678132787524104450e-09	-6.740420154702671730e-09	-4.687096796258576362e-09	-4.212930236316777817e-09	-2.335347931286661128e-09	-7.002383230069824470e-09	-6.563661891321172047e-09	-9.825695740445577113e-09	-1.224863455247776278e-08	3.594181338434683799e-09	-9.278601752478585009e-09	-1.040947000378529598e-08	-8.691606499805001741e-09	-1.075380207477123251e-08	-8.751035598490942820e-09	-1.128601527871310005e-08	-1.074203909137682118e-08	-1.096531056099580434e-08	-1.097881781628478254e-08	-1.686775902652917920e-09	6.923953516136151084e-09	4.968599170675855995e-08	2.386023376906340538e-09	2.764496782520041475e-08	4.202638250457172774e-08	1.137316801790916265e-08	1.690283348669155432e-09	2.568202130908564840e-07	8.976093870966090141e-03	3.012257364338788716e-08	1.917219460776786822e-08	9.451304918356652500e-09	-8.806250956731366858e-09	-9.808995654164548120e-09	-7.853311082784335745e-09	-7.919966692263237541e-09	-8.154780083326828383e-09	-7.520838197813455273e-09	-6.005106725349053207e-09	-9.711207264409994947e-09	-8.795120326040511550e-09	-6.173106270547809177e-09	-7.510906837389205871e-09
