-1.787423773926624205e-10	-1.531157180008551822e-10	-1.266087863472103545e-10	-1.467302009358187202e-10	-1.685440153845599032e-10	-1.479191211258270390e-10	-1.386029064737732038e-10	-1.819702583344407020e-10	-1.727771927877829608e-10	-1.179985787233769673e-10	-1.735773342287924275e-10	-1.635455723301555154e-10	2.274174561785524475e-10	-1.833758930593172689e-10	-1.815975931520548460e-10	-3.606889583716207808e-11	-1.396804250285788405e-10	-1.333009189181866822e-10	-5.764028708980640946e-11	-1.580048201276278818e-10	-1.729908062174754267e-10	-1.549087004321365071e-10	-1.171809401915919379e-10	-1.210160314460007442e-10	-1.243018204039570291e-10	2.240323379703256450e-11	2.421348913160364935e-02	-1.340017680169029080e-10	6.281659653155751206e-10	6.270921159029030633e-08	-3.170108762380047948e-11	1.527469687064413724e-10	6.608964223171845398e-02	1.606316526514656451e-01	-5.954616981576817849e-11	-2.282453420800687306e-10	-6.984636489503738330e-11	-1.108980829327093722e-10	-1.526479378082260554e-10	-1.258001848190292104e-10	-1.426983543269825853e-10	-1.451296876946680370e-10	-6.519804685790679355e-11	-1.408728563694765523e-10	-1.470512868252092389e-10	-1.619583676941413513e-10	-1.212031131572393954e-10	-1.623500232772337253e-10	-1.052259351585094225e-10	2.889768481303818849e-11	1.890502387796276149e-02	-1.189572872909268788e-10	6.773363221971564248e-10	6.660114824728612104e-02	8.149340100197433781e-12	2.294814522999514616e-10	1.451223266691642096e-08	5.946770602172158499e-02	-5.932064921011112786e-11	-1.630154923274275080e-10	-5.418625283161573892e-11	1.228499674704160712e-10	1.524844458043087679e-08	-3.818311017160606558e-11	9.457276071814928053e-10	1.795565665549145873e-01	9.227260703515161613e-11	3.619346566745319885e-10	8.254894946239586212e-09	2.400739047841038161e-09	-2.228212451295323293e-11	-1.302987369235313849e-10	1.170514384580050798e-11	2.442152714861508754e-10	2.365270623789056629e-09	-9.909872764622112191e-11	1.623028680301164717e-09	2.639294495294914333e-01	3.257759692599997506e-10	8.770079706229879848e-10	3.999224061614433529e-02	6.498993886855265353e-10	3.018784056635220744e-11	-5.297913366110687391e-11	-7.853821732151373605e-11	-1.260509508939810428e-10	8.397986695439652266e-11	-1.600685263762595532e-10	-1.627871034273809086e-10	-1.563782882827054672e-10	-1.596312353807149089e-10	-1.631888030667394598e-10	-1.645355862304788133e-10	-1.207882577809781284e-10	-1.546909976807264092e-10	-1.484990742999883707e-10	-4.397480984387329335e-11	1.029982218618694464e-10	9.912823934868134127e-10	-1.091369264655011824e-10	4.546563001372509966e-10	1.089389351583478979e-09	1.129489346917992318e-10	4.196083868409402947e-10	4.579841149825653046e-02	7.481456039338779673e-02	3.463266066705777450e-10	9.182202361527887544e-10	-2.143603087154863049e-11	-3.802560260308646102e-11	3.872409101932167190e-11	-1.929473554630531751e-11	4.456402275012662624e-11	2.147900308911625872e-10	-4.396155960985380006e-11	-2.835192753802650625e-11	7.951897291470363828e-11	-3.244807018522673440e-11	-6.919753688484521172e-11	-1.070774625140536426e-10
-7.761929055636066451e-10	-8.081797181486923325e-10	-4.398170520095659728e-11	-6.751339569498184183e-10	-7.380725134328072244e-10	-6.942106485312728125e-10	-7.245952099445753041e-10	-6.835283705697493849e-10	-7.434036611923181998e-10	-7.652408310381455957e-10	-7.553352253572991428e-10	-7.443618557304309769e-10	1.270491915290925185e-09	-6.394210519485357824e-10	-7.777603808303862969e-10	-5.541429878522312192e-10	-5.740854620983857499e-10	-5.703752538006601863e-10	-4.881329520182835317e-10	-6.545507812336189492e-10	-7.104444037795280493e-10	-7.522825156835004227e-10	-6.349829481175506722e-10	-5.800109866307989746e-10	-5.627990145643085824e-10	-6.395887821578470955e-11	2.185194413505920849e-02	-8.001145379487854348e-10	1.452670989412945757e-09	6.408514794428088760e-09	-2.048514587928147450e-10	5.290527406809800094e-10	6.169215276373343770e-02	1.644446698565954768e-01	-5.130551629958414170e-10	-9.645873707473503884e-10	-4.710237265294329037e-10	-4.976261880151545318e-10	-6.666104636391751270e-10	-6.186133957537699086e-10	-6.417976289655456957e-10	-6.444519320123485516e-10	-4.966468488783530829e-10	-5.868573267500826207e-10	-6.431641995866403477e-10	-7.104947192972821826e-10	-5.719370082026316651e-10	-6.450357232502869357e-10	-5.224442158259723774e-10	-3.414228789064800294e-11	1.893660877962585753e-02	-8.090901518698874672e-10	2.348664426117659765e-09	8.308342728145337586e-02	1.254454257178558629e-11	1.080525474731076960e-09	9.342558711152587278e-03	3.894488814813867883e-02	-4.620001180295983684e-10	-8.179173698583434316e-10	-3.253566041379162169e-10	2.494565899366637044e-10	1.368479802324663883e-08	-7.800698323868574129e-10	3.622471918312373370e-09	1.820110889024695033e-01	3.589434369787176156e-10	1.671182771264556442e-09	2.160007744955053311e-07	5.361444574845650431e-09	-3.311561028463651109e-10	-6.555662363838950032e-10	6.149145559178180479e-11	6.205737031405840311e-10	7.245265760333229582e-09	-7.097839428644733958e-10	6.001571909437939476e-09	2.361266022410158649e-01	9.997771515877276457e-10	2.721819278338822097e-09	7.171908360892015333e-02	2.476833248785316103e-09	-1.240680481001494470e-10	-3.899259400991748454e-10	-5.169420012658264182e-10	-5.335620302604333820e-10	2.365445535377771833e-10	-6.851767618065415165e-10	-6.969580098092866512e-10	-6.279821505788041235e-10	-6.961594162785762602e-10	-6.997933698962337478e-10	-6.364029473251507103e-10	-5.448274315809480121e-10	-7.033902198690878482e-10	-6.905228723769722233e-10	-2.253915135271269951e-10	2.851865446969711604e-10	1.796049175397476169e-09	-6.986999524942518411e-10	1.107130190057396305e-09	2.072486881877766892e-09	2.531718088071725351e-10	1.113027377459662107e-09	7.886334578224573998e-09	1.118467214564345252e-01	5.024491118692291053e-09	6.712532430024945958e-10	-6.230015394111261454e-10	-1.211181097343656792e-10	-2.060037201074805544e-10	-1.606237936513669364e-10	-2.088897599227534597e-10	7.061987357092967785e-10	-2.768292333165373911e-10	-2.544567129025451751e-10	1.192719074438195583e-09	-2.019659603223534954e-10	-4.914073234409274349e-10	-5.543841279867286182e-10
-2.750728775003115260e-09	-3.968748466110090917e-09	3.861284460895714174e-11	-3.172361846366922416e-09	-3.425689646414183085e-09	-3.175426930907619209e-09	-3.289361110365778113e-09	-3.297755772002102134e-09	-3.725830527092024873e-09	-2.993043359448973957e-09	-3.518265073550785535e-09	-3.584566762003300956e-09	3.775347152744516324e-09	-1.558577160538007962e-09	-3.087080308538320148e-09	-2.355349777984138090e-09	-2.149445517812099996e-09	-1.832447110937265494e-09	-1.022958691568551481e-09	-2.476003619289983448e-09	-2.865854498756626121e-09	-3.022690058153945345e-09	-1.845804331415983934e-09	-1.956744910332765828e-09	-1.825352430906681332e-09	2.315834927400717372e-09	2.548296474773499576e-02	-1.262395953225965982e-09	2.632855513926834404e-08	4.940974038814235675e-06	1.337402807135477116e-09	7.447304950919411296e-09	7.900286361721929607e-02	1.518450476130334958e-01	-4.345913513886994140e-10	-3.324658403989940303e-09	-1.108551541508655943e-09	-1.856554010949811835e-09	-2.083311328567543463e-09	-1.778879255852509765e-09	-1.965462683131807025e-09	-1.987221977841628342e-09	-1.130917560274444410e-09	-1.638316866610799390e-09	-1.947131362616363112e-09	-2.701305622584086571e-09	-1.653621248355685409e-09	-2.483460370784027652e-09	-1.282758073957073138e-09	2.998553168284034093e-09	1.910422009086225684e-02	-8.092918219561938940e-10	2.627275808135009182e-08	8.121843414594405453e-02	3.056640759613039096e-09	1.145386588349727343e-08	1.744699737652524746e-06	4.065914202706761432e-02	-2.721108548595119230e-11	-1.731225205999575463e-09	3.694005491563437652e-10	5.758978711946454563e-09	2.134170024064497310e-07	2.074172871678881183e-09	3.824051736486977814e-08	1.865767799460441856e-01	6.281432278706668488e-09	1.737877212634865534e-08	1.191071590240556068e-06	6.267329383062390624e-08	1.257742863954520514e-09	7.334868579452345178e-11	3.195891452560915877e-09	9.746829290170447057e-09	5.356798768796174742e-08	-2.745468388046960084e-09	6.606791647071637158e-08	2.367986233166388121e-01	1.298918615107796059e-08	2.980758069873106687e-08	6.515690416715788635e-02	2.383296677552915370e-08	3.244607982691606550e-09	2.183344439774487362e-09	-1.864473368917229050e-09	-2.002369492359855284e-09	-8.676933435462681655e-10	-3.057159481666423977e-09	-2.957989357808092642e-09	-2.784865532136648739e-09	-2.925043544604554765e-09	-3.041959784374057420e-09	-3.110042295400491625e-09	1.878329383889252481e-09	-2.950609287864153432e-09	-2.516820472791116483e-09	5.433341824768667504e-10	5.393486278553216986e-09	2.833872394799597004e-08	1.041887934148305332e-10	2.183576741068697475e-08	4.979847317963712836e-08	6.948993009879545935e-09	1.965981410219059660e-08	1.734606049974519310e-02	9.680034992283201301e-02	9.779114489502882337e-09	4.321360196260623291e-08	1.426288427382313621e-09	1.915385469300114857e-09	3.418960760613353622e-09	2.102863814365023541e-09	3.714703107203781289e-09	9.868137436160615932e-09	2.046387997664128169e-09	2.936992489314376807e-09	4.202173914146127038e-09	2.218424247041220017e-09	-5.298685560777247676e-11	-3.852057803320311514e-10
-2.826122466657241445e-10	-4.532922251077037021e-10	-4.410800861753818464e-11	-3.646046504447538146e-10	-4.138224437650308823e-10	-3.895428384322234574e-10	-3.854458112882614732e-10	-4.201026520630192539e-10	-4.346344972227206359e-10	-3.857598484733409583e-10	-4.092356166429303473e-10	-4.193634175488446130e-10	1.808475846925586658e-09	-3.708142676811237788e-10	-4.480180334234859355e-10	-2.340873832511285292e-10	-3.695454632933029466e-10	-3.276462230320325675e-10	-2.638368697738058132e-10	-3.787345389875327436e-10	-4.159807657668805837e-10	-4.431835622967358867e-10	-3.224484561102337550e-10	-3.514755754025721529e-10	-1.934924591864881533e-10	2.742340900740594593e-10	2.997271096160372336e-02	-1.732233655910285816e-10	1.696582907314480061e-09	9.995306104161240731e-09	1.299698373705426068e-10	8.090633109637396080e-10	6.746163396164052417e-02	1.496079396032777009e-01	-3.121988725846586499e-11	-5.839165868029111513e-10	-1.416838142711686621e-10	-2.719457937628235018e-10	-2.489452131269718102e-10	-2.339359913546789050e-10	-2.774674175979888991e-10	-2.843306017237033875e-10	-2.153918658343459898e-10	-2.402642156150158837e-10	-2.632339436803813733e-10	-3.414242573055032010e-10	-1.821759346401253007e-10	-2.840747593092645767e-10	-1.675405988282162363e-10	3.063931307997332592e-10	1.372176462520992464e-02	-2.650283531740486307e-11	2.723785466433711337e-09	7.309128889952477837e-02	2.962203060745306224e-10	1.196348715631252414e-09	2.127608290286329398e-07	5.936675022763795301e-02	-2.294950216563379510e-11	-3.946486566410523877e-10	1.958458092895202892e-11	7.204567297701487628e-10	1.583659561777804657e-07	4.686241916055065244e-10	3.946081721162347885e-09	1.956399054657028402e-01	6.259538414454268157e-10	1.747181768713323023e-09	5.861413217391492266e-08	1.058295518122555458e-08	1.397514306323481911e-10	-2.628656426856238993e-10	3.417976489335937643e-10	1.387713290938359201e-09	1.460565651752871810e-08	-1.391024943703631868e-10	6.634119164270763096e-09	2.320349802190624922e-01	1.370739642603238938e-09	3.185251821714500749e-09	6.504968145058917517e-02	3.507198564275839940e-09	3.547548465304417772e-10	8.723411914338211586e-11	-3.386928916929795446e-10	-7.095352643388937444e-11	5.663385478746753335e-11	-3.709047989451615100e-10	-3.585521892004642316e-10	-3.630892677288567100e-10	-3.399435484672789525e-10	-3.529358097201321991e-10	-3.814422264111393271e-10	-8.199605023415855495e-11	-3.258578248885562093e-10	-3.330437021624569271e-10	3.137625894478455478e-11	6.102467489518339870e-10	2.992655177179141972e-09	1.611681577484738474e-11	1.711134207219699552e-09	3.208171492801409185e-09	6.610958475458692142e-10	1.827918366879300882e-09	3.131743625038287127e-02	8.273540329167809737e-02	6.415780055049989093e-10	8.309516622196239699e-09	5.089913907151919957e-11	1.003835689754462344e-10	3.123523393892976132e-10	8.786421599044081479e-11	4.219169951697418359e-10	9.022291918727642100e-10	1.584844344053685887e-10	2.294327997599062684e-10	5.718365549959051666e-10	1.809578449255460979e-10	-7.280783124578194623e-12	-1.081385980523360333e-10
-3.541894702576212769e-10	-3.715791907605437006e-10	-5.577944270645567132e-11	-3.145962789197538213e-10	-3.485685945907302273e-10	-3.397919289357488420e-10	-2.976717078026782832e-10	-3.569052848895971315e-10	-3.536660955539779067e-10	-3.567583126041314370e-10	-3.304053089569178480e-10	-3.135121529897135766e-10	9.411538442292571629e-10	-3.364045473638534005e-10	-3.737482568298367961e-10	-1.062474426975426874e-10	-3.174587515854942747e-10	-3.146756974380079381e-10	-1.952183140872839641e-10	-3.300859223934576663e-10	-3.614113035339396877e-10	-3.733289492820646847e-10	-2.768591687772133189e-10	-1.663117722602983913e-10	-2.366011648445006524e-10	1.280173423276330750e-10	2.625356778988579068e-02	-2.186588683779465930e-10	1.010326543083851600e-09	7.006020531136638238e-09	-5.356450097263532163e-12	4.171326860087094860e-10	6.613021202953300870e-02	1.586753800555805172e-01	-7.517488668765354488e-11	-4.702730013719899867e-10	-5.195909193151937794e-11	-2.546986889699372799e-10	-2.846675060254971242e-10	-2.320159010975822088e-10	-2.644831569517252555e-10	-2.731021958360351412e-10	-2.299417461526489146e-10	-2.328769498775262798e-10	-2.531793612751836394e-10	-3.173251312942737857e-10	-2.148766915705796690e-10	-2.828548869867860430e-10	-1.935165279967679017e-10	1.295089281088891273e-10	1.617552099819003983e-02	-1.423683733280426989e-10	1.577163538294205110e-09	7.874573014322579223e-02	1.097064611630111593e-10	6.889689537315441193e-10	8.663413646377817017e-08	6.075895562083069579e-02	-8.535374599160487813e-11	-3.002338607899653808e-10	-8.026405554322736771e-11	3.823771005459676726e-10	1.093188833340494922e-07	8.539507033821828858e-11	2.263414633721893263e-09	1.773517399152479690e-01	3.239552811137996263e-10	1.062358309129487282e-09	5.380501099447444467e-08	6.442925809407417269e-09	5.904962253007351230e-12	-1.997115626434501610e-10	9.880458807250330765e-11	7.631031667616651799e-10	8.956163930734926553e-09	-1.329975527990583992e-10	3.877496207301990550e-09	2.603376242046782640e-01	8.043600715811434399e-10	2.048707831697968224e-09	4.597232593577423726e-02	2.168249393806445509e-09	1.642036584397596294e-10	1.052691060111222993e-11	-9.471363307671920397e-11	-2.659592820242230189e-10	1.192135537489905093e-10	-3.032953899496358323e-10	-2.924313788885569479e-10	-2.623159357768808624e-10	-3.069265499602982054e-10	-3.047694669389572832e-10	-2.792713963492005126e-10	-2.018332554685214976e-10	-2.898570030824735549e-10	-2.869363255966492643e-10	-5.233726971984147899e-11	4.096127608153224469e-10	3.238018874283299703e-09	-1.279098373671948609e-10	9.245803393285862762e-10	1.840350564490601388e-09	3.366177363751834396e-10	1.072239404672026555e-09	3.720375586884518831e-02	7.239489794021393421e-02	3.134438952760547646e-10	4.280013649143838612e-09	-7.021739988250861245e-11	-2.838663313442235213e-11	1.151451390450709548e-10	-4.522796525042973494e-11	1.877803845439928858e-10	5.414375833082258499e-10	-1.107270758751340271e-11	4.290673496289744626e-11	2.682418052546351673e-10	4.194260398743820592e-11	-9.123556543177271065e-11	-1.651648052252876316e-10
-1.643822427200976819e-10	-2.207833495074419602e-10	-1.169902935673158382e-11	-1.707096267804445735e-10	-1.876795168692114141e-10	-1.772376774521863695e-10	-1.468031694412307664e-10	-1.935924782190584122e-10	-2.020782381747282227e-10	-2.081498670134446647e-10	-1.886173965925447957e-10	-2.163780067156106007e-10	7.171757213965885431e-10	-1.440044759680389230e-10	-2.004105176542527318e-10	4.826111045360027412e-11	-1.081028669834085673e-10	-9.549140605432080405e-11	-8.038343416727308346e-12	-1.375773314673327432e-10	-1.743351233858906365e-10	-1.883338717648804733e-10	-5.804500626849507382e-11	-5.367359044930399573e-11	2.763048800945104558e-11	5.826264642455365800e-10	1.138526796056531058e-02	3.102156147857895843e-10	2.100088246644589608e-09	3.098744772230998284e-09	4.323300501451641079e-10	1.198904996720797772e-09	6.512461851008433111e-02	1.807853396130687240e-01	2.539134325292786712e-10	-2.194437773481198361e-10	1.578588156643333901e-10	-2.073959800305829822e-11	-8.415034274505897943e-11	-1.521695409042252002e-12	-2.772323071626766957e-11	-3.292442539177688430e-11	5.256743155627230176e-11	-3.243368319196668505e-11	-4.557219259779197363e-11	-1.009018258272849233e-10	5.654582512340279906e-11	-5.956126128637229002e-11	6.710615996797555525e-11	5.628616228789099303e-10	3.073601633914636172e-02	5.438373383692628419e-10	3.535963289160031416e-09	7.810931305310955808e-02	7.055066867613704736e-10	1.997770827531207492e-09	2.018106557958935544e-03	3.241383211878789972e-02	2.618751507070962534e-10	-2.814791420273478602e-10	2.792064946921150628e-10	1.028159342355608398e-09	6.150077558938959269e-08	1.086361724911479982e-09	5.079847566003819861e-09	1.848168057161336808e-01	1.108140434858187158e-09	2.715710824251761139e-09	7.438085095559442838e-07	8.996896036948772631e-09	4.356056483984202052e-10	5.408989645547308005e-11	6.819500404820435136e-10	2.004391530563123400e-09	1.486363609520980014e-08	1.656034784365888340e-09	8.595939182106857621e-09	2.288289646163755575e-01	1.899413833660649399e-09	4.007603955226915117e-09	7.228335632304963565e-02	4.558412942118335563e-09	7.685763770518087187e-10	5.116236802992182059e-10	-5.389385141686323457e-11	-9.129992154192970189e-11	2.735509682280258208e-10	-9.644105696032302955e-11	-6.317967024347292182e-11	-3.939202375552585664e-11	-8.734244709504522653e-11	-8.211556272072339211e-11	-5.961351790110885482e-11	-6.484925225082678707e-11	-8.453891401644597221e-11	-1.481024006655138231e-10	2.885114650779340943e-10	9.695349227120680352e-10	3.406287897476870813e-09	5.349473091383433361e-10	2.347123180757249272e-09	4.147019297002178553e-09	1.135885314323839002e-09	2.739381244957988499e-09	9.406007406469471879e-03	1.040914574804065601e-01	1.436476402923327708e-09	1.373171152776389291e-08	2.919913559383007779e-10	3.585696237571680240e-10	5.552367278622500891e-10	5.087986659138754368e-10	6.597097085407422887e-10	1.059858764422887127e-09	4.795385513047310399e-10	5.805537141570892364e-10	6.653881212455577253e-10	4.423844983420016244e-10	2.518237717173483996e-10	1.212346460818098019e-10
-2.691894255854455062e-10	-3.290012273540489333e-10	-4.851011093715979503e-11	-3.274151836419107250e-10	-3.052195257060071937e-10	-2.915745492877058410e-10	-2.654220558116209349e-10	-3.235955221461206143e-10	-3.172501428373825487e-10	-2.570720567910696503e-10	-3.169229937736385477e-10	-3.305041165857112570e-10	6.381740859055286570e-10	-3.167017889976220313e-10	-3.232144782804187007e-10	-1.770552317187512192e-10	-2.674485635577195701e-10	-2.680276717945823136e-10	-1.248911299937659412e-10	-2.731884950226313830e-10	-3.074153039210542313e-10	-2.958487451763336688e-10	-1.783231862368050866e-10	-2.173644079157359620e-10	-2.113010958489472778e-10	7.920682911812521909e-11	2.365336515673900977e-02	-2.694768415275035344e-10	7.782356315295246425e-10	3.225172257643209072e-09	-7.276048095145488116e-14	4.095877433794424555e-10	8.273281132869612919e-02	1.499768378680829128e-01	-1.476705944330399715e-10	-2.247301708795589203e-10	-1.206040088257919985e-10	-2.198322372524474553e-10	-2.268836850877920878e-10	-2.744143772338057268e-10	-2.199299311194874825e-10	-2.247848547896499762e-10	-9.018450172377914510e-11	-2.342015071386063647e-10	-2.367501253238850740e-10	-2.683013162795772798e-10	-2.242297646256615827e-10	-2.865637406434989061e-10	-1.825489165743959494e-10	9.799038120610714173e-11	1.696504757945052622e-02	-2.476554736577197055e-10	1.456183025217466779e-09	7.260710579700124789e-02	1.272415921876726821e-10	7.624595923452780025e-10	6.562620113353162206e-07	5.552800590577140760e-02	-1.276347348025548080e-10	-2.220191719139203411e-10	-8.832256792619295617e-11	2.646617293324055826e-10	1.604660893760491519e-08	-3.120724823263537833e-10	2.133231773391799829e-09	1.778692891356555561e-01	3.269651604579799786e-10	1.109983214636335501e-09	7.993033526455043806e-08	6.146378886172351835e-09	-4.077722517290279216e-11	-1.733107429250323008e-10	9.281781408110004486e-11	5.424535280939169939e-10	5.013019672640656751e-09	9.580251234231986893e-10	3.606537331337966020e-09	2.639852245777112860e-01	7.583311850323471167e-10	1.965819322516533243e-09	3.529103061685272269e-02	1.707471755420466617e-09	9.138192907665081504e-11	-1.246722511729788026e-10	-2.048866239031915818e-10	-2.316712842851644200e-10	1.791180516380606453e-10	-3.165833702313328722e-10	-2.290975012538255547e-10	-1.995526859114194881e-10	-2.517895458853286756e-10	-2.413472745714505034e-10	-2.082862479305305976e-10	-1.835987695082600141e-10	-2.607373911474683853e-10	-3.125439908248703781e-10	-9.339774735684441755e-11	2.522692097957122328e-10	1.629935363669278555e-09	-3.171517783188389032e-10	8.771931403148529365e-10	1.740848955545490085e-09	2.971456430678883169e-10	9.820522721805768402e-10	3.163658193585076883e-02	8.975392283705203866e-02	4.621043867365535392e-10	-1.971492806049536912e-10	-9.129085895311090554e-11	-2.411822405237207340e-11	1.864405304381694744e-10	-2.167183426634466096e-10	1.159128309298705448e-10	8.746490517189609094e-10	-2.263300771101297745e-12	6.320104880350869023e-11	1.048594760859924379e-10	2.980032942350049137e-11	-1.376911969358683554e-10	-2.147027138589678983e-10
-9.202639974183017045e-10	-1.133466017897004619e-09	-1.094190973355428662e-10	-1.026762546342216911e-09	-1.091152210133570046e-09	-1.056829546361851031e-09	-1.000490150405254571e-09	-1.063944469174813313e-09	-1.130812053341151630e-09	-1.055926308727016181e-09	-1.083558197055059562e-09	-1.061810402576474048e-09	8.534408610327813240e-10	-7.256993125196093239e-10	-9.781986929924833913e-10	-9.132787626263731306e-10	-9.489293025687921600e-10	-5.948775400044868539e-10	-5.599913273435767506e-10	-8.377486967281501868e-10	-9.144179932311857164e-10	-1.019128900096564482e-09	-8.137835374720849774e-10	-7.214969060947579341e-10	-8.073204870659718289e-10	-9.790242148540230230e-11	1.718253767012327751e-02	-1.117511364967553408e-09	1.575396260430310982e-09	3.378860132010172980e-09	-3.222801936920114931e-10	6.593439170349239538e-10	6.413451105697655363e-02	1.660398309972071218e-01	-7.313094232803746933e-10	-1.271440669083836252e-09	-6.862679211887442442e-10	-7.063457212710533873e-10	-9.144632022538974426e-10	-8.398341212696117438e-10	-8.777024213420496772e-10	-8.873164945707448492e-10	-5.603601586376577322e-10	-8.365583698349193910e-10	-8.666373085409652015e-10	-1.003308209283145026e-09	-8.139496390651742546e-10	-9.998580517435723414e-10	-7.733846192025675686e-10	-1.416921673863144597e-10	2.025654529494734513e-02	-1.105489732504607678e-09	3.092966127100941900e-09	6.422500105966384709e-02	-2.727944998653188167e-11	1.449912854989199721e-09	3.414595170613863774e-06	5.560638531116608718e-02	-6.794648988669104808e-10	-1.034547720881786410e-09	-5.000013078838186421e-10	3.994053679268421128e-10	2.283140869601354929e-07	-1.153224241831373060e-09	4.745607978449944814e-09	1.879121146447657598e-01	4.078762564052276152e-10	2.119047413740589601e-09	1.211588821967168394e-07	2.488372026892922497e-08	-4.827438549233919479e-10	-9.234331247815707050e-10	-1.068529538467777910e-10	8.107395997023352422e-10	1.142891010363274276e-08	-4.290035707756121547e-10	7.977026086193261325e-09	2.374719371489930064e-01	1.316450565198908061e-09	3.576496590550644739e-09	6.981725736986464648e-02	4.453732784911196354e-09	-2.013879285080205549e-10	-6.327729651039956817e-10	-9.433001800741160189e-10	-2.508488651652125018e-10	-5.917237567538186069e-10	-9.497452401656187697e-10	-8.482757505015531896e-10	-7.035992966570797467e-10	-9.460187863838171977e-10	-8.892467702284908488e-10	-6.914187601567805403e-10	-6.092857848931869044e-10	-9.564243835811832971e-10	-9.053339514811117956e-10	-6.056648222427317148e-10	4.319228360983023527e-10	3.145847442802189737e-09	-1.113887877443394658e-09	1.798354838147270680e-09	3.821007505913999600e-09	3.879489835202900166e-10	1.954191755082905740e-09	3.337453201058864644e-02	8.397555261036004914e-02	3.423338110187987905e-09	-3.904381954857408473e-10	-6.512333900200282545e-10	-2.046269622091710350e-10	1.124273205893938218e-09	1.281697187042404163e-10	-5.371035032144171553e-10	5.476710516515928125e-10	-4.245689377358639709e-10	-4.505584613644820437e-10	-3.033804313896274399e-10	-4.583733281351292052e-10	-7.380818342689712803e-10	-6.776847347166946525e-10
-1.814992941706665791e-10	-2.191413285165383842e-10	4.856395433758372312e-11	-1.797544221226777411e-10	-1.833522001644007466e-10	-1.659585136318362264e-10	-1.534051774419469022e-10	-2.006271145288913326e-10	-1.879842186253743910e-10	-2.056290988002603826e-10	-1.853223112719272600e-10	-2.260683656875088727e-10	4.559801725805088214e-10	-1.910656942387424208e-10	-2.055085120847966533e-10	3.906479541159201326e-11	-1.264276506395016264e-10	-1.280362444936244326e-10	-7.507251216728005826e-11	-1.556897643949336097e-10	-1.845444338529836167e-10	-2.034078940891935779e-10	-1.116174096788478791e-10	-1.037019605307330447e-11	-1.410392655497776461e-11	3.970765704347329501e-10	2.514748847732822118e-02	2.047455215818390270e-11	1.501606702749282346e-09	4.330499819200285828e-09	3.008563091111852662e-10	9.054591537559467804e-10	5.919587469536830016e-02	1.642623894500646609e-01	1.346306341162712943e-10	-1.919954817205815415e-10	7.016259620369981022e-11	-6.102841172331073063e-11	-8.423304681333078196e-11	-3.736959252710530305e-11	-4.402396252974009953e-11	-5.363400155769479388e-11	5.137097340482702449e-11	-4.026754697765746987e-11	-5.836938535359832300e-11	-1.175417222159367793e-10	-3.776368919120118709e-11	-9.447617544439201960e-11	3.163955067424661941e-11	4.617032588913563083e-10	1.064336450462587125e-02	1.534866912959148564e-10	2.682434989076084243e-09	8.370339395280178285e-02	5.208457772863023076e-10	1.565258199384033624e-09	2.458929394390795952e-03	4.966170318737551242e-02	1.497117059067976137e-10	-2.985190497461479130e-10	1.856146773911248284e-10	7.863261366239370685e-10	4.252058042127653388e-08	5.070587919175879750e-10	3.826458890786982795e-09	1.832913907056889224e-01	8.305553916521524594e-10	2.096560079467142234e-09	4.797758833429781656e-07	9.348637209452775222e-09	2.944708232197896780e-10	-9.701865160975292644e-11	4.673325043835367938e-10	1.300156431234713687e-09	7.394149629907574929e-09	1.528684648610423396e-10	6.585646959851005750e-09	2.364880293140884937e-01	1.465110130931942499e-09	3.194264906102205264e-09	6.519042050152007439e-02	3.075913297195340113e-09	4.905827134495944633e-10	2.691329988358557896e-10	-1.308497155397438439e-10	-8.830940405206031307e-11	8.697601410058944639e-11	-1.248133604317455063e-10	-8.197117766955252247e-11	-5.090957241993071058e-11	-1.090788075176291312e-10	-9.905008467086359391e-11	-6.520134959348394493e-11	-4.931268290590382383e-11	-1.030791317304157225e-10	-1.971350680467500253e-10	1.862614932111289211e-10	7.135624317362796447e-10	3.077944700438907070e-09	1.733382441833678087e-10	1.637752820364090376e-09	2.764100040791547503e-09	7.982605624629144589e-10	1.911371738979654603e-09	2.272089734169782313e-02	9.723552065840447567e-02	4.684057764420385782e-10	8.398157422906182000e-09	1.995867797089455751e-10	2.795795690714427452e-10	4.683840644787960840e-10	4.605836375508675206e-10	6.392457226932145652e-10	8.494918762263646461e-10	3.717933187444093328e-10	4.880525266412162534e-10	6.898287218251432820e-10	3.730983173930809969e-10	1.587354002913103353e-10	4.454062631357263001e-11
-7.153038659716871554e-10	-6.940689841750059257e-10	-1.816446756148905727e-10	-5.942956220935682136e-10	-6.854679919024318140e-10	-6.138064760591834603e-10	-6.256448553128085222e-10	-7.067493907944585227e-10	-6.948907209113606827e-10	-6.264832533101567748e-10	-6.925251557266982401e-10	-6.678176993297449242e-10	-4.734320373370674596e-10	-4.746938140822549781e-10	-6.730567999174484746e-10	2.339779384144855110e-10	-6.801246487711393013e-10	-6.836916578834553252e-10	-2.302491699308799403e-10	-6.358103674932665770e-10	-7.203669522250681038e-10	-6.851221170623335480e-10	-4.362616306583807844e-10	-2.826169042206505562e-10	-4.459751098454168252e-10	3.968648246482235698e-11	3.229652912358457750e-02	-7.624343265736557522e-10	1.356836274150403715e-09	6.722503119798895995e-09	-2.102757046005132964e-10	4.402471613329866359e-10	6.156869831015443495e-02	1.536653907169381883e-01	-2.768225974064083624e-10	-9.189173566923226854e-10	-1.392752524927524039e-10	-6.003117054603716234e-10	-5.774256134440560507e-10	-5.644722567703215359e-10	-5.845166574022497027e-10	-5.979647081584087832e-10	-4.684518783386031593e-10	-5.372949166176130935e-10	-5.598869518100714374e-10	-6.675377574930405585e-10	-5.678513846584807261e-10	-6.769036145692654282e-10	-4.234417008289179627e-10	4.620766374111131583e-11	7.265190901045389706e-03	-7.628975862085454279e-10	2.235666873616168847e-09	6.279595909486758443e-02	-4.055321107511283063e-11	8.195477684577869095e-10	1.458181912973808209e-07	7.072345437825078296e-02	-3.314941767121205042e-10	-7.599698159301269785e-10	-2.079408178365318195e-10	3.488919704188781195e-10	5.761012353939306951e-08	-7.154884201333224589e-10	3.101717774496862461e-09	1.928614652489956116e-01	2.694748628879240294e-10	1.316942076422653712e-09	6.094733186107494633e-08	1.334389620596038911e-08	-1.742713761100658436e-10	-6.810797062089545730e-10	-6.763281993112420630e-12	6.804510356675182330e-10	8.935759745872721213e-09	-7.997064545142656366e-10	5.194871562464692781e-09	2.281535362688835167e-01	9.114361467964601005e-10	2.484024281309854055e-09	7.429825954992327897e-02	2.713088755504471939e-09	2.539983896280927624e-11	-3.846121322239583689e-10	-6.783167830788800991e-10	-3.935740994270599461e-10	3.089192834818616946e-10	-6.924073945215567354e-10	-6.730029255325252858e-10	-6.529740052589587393e-10	-6.504365011734037794e-10	-6.650572882799295130e-10	-6.923019462802912898e-10	-3.693523842755554230e-10	-6.416782994848718020e-10	-5.388378507243932984e-10	-2.109961323603467435e-10	2.731095991636489298e-10	2.577871813807419208e-09	-7.204121240543835144e-10	1.196076968015131125e-09	2.665195979034247754e-09	3.159988414733323314e-10	1.430473796826402151e-09	3.631218589934525481e-02	8.005903991193302760e-02	1.059886609503585487e-09	2.466529150115588874e-09	-1.617401884126955107e-10	-2.074935334108983661e-10	-2.957129973414801745e-11	-2.204964903052653611e-10	-1.740850215634148470e-10	5.277772461875096298e-10	-2.439622278815876189e-10	-2.690633483017540850e-10	1.322626931819217944e-10	-3.357007388177376100e-10	-3.336383158411189556e-10	-4.805379208197361068e-10
