-2.091256103607342170e-09	-1.735847757127016555e-09	8.002648302525590181e-10	-1.750145673399278611e-09	-1.841505614400207399e-09	-1.576091718423841767e-09	-1.954026505711136029e-09	-1.846771516623861887e-09	-1.962729043524096881e-09	-1.879565309348563781e-09	-1.948600931656863321e-09	-1.510932638137948454e-09	-2.604801389500738318e-10	-1.914475980905809580e-09	-2.055948618938032208e-09	-9.167722723842296314e-10	-2.694855987248751438e-10	-1.713051350474286969e-09	-3.545849371076122477e-10	-3.836434193879454023e-10	-2.130458336847953159e-09	-1.838338883494268013e-09	-1.426543297159870337e-09	-8.454721164016933125e-10	-1.487746872048568489e-09	5.975765608184703983e-10	3.561492897976594602e-02	-8.736157853786048252e-12	1.673625156161226756e-08	2.279611999647461473e-02	7.275990555589251940e-10	2.604251118882670074e-09	3.816612407485597130e-02	1.006523411697796827e-01	1.538237425418805536e-09	8.635248460352047759e-09	9.796256349337579564e-11	-1.669568051150299749e-09	-1.435987759737475280e-09	-1.497588588608016351e-10	-1.257006379408823104e-09	-1.201561761547189965e-09	-1.114878397832887388e-09	-6.144366454106730942e-10	-1.539782959326124683e-09	-1.256076099584605475e-09	-8.730585459819783793e-10	-9.032840754079037121e-10	-1.161592880369434501e-09	1.007536981088697699e-09	2.252272182181409843e-02	7.890775545111456619e-10	1.769847559891900410e-08	8.307962866010284997e-02	1.432638440360762423e-09	3.810819124783898247e-09	1.126229596235517336e-07	2.285218304541251910e-02	1.162763253655038598e-09	6.416840993266934533e-09	-3.026342172438736444e-10	2.581506257462723145e-09	4.469068305489000195e-07	2.676945325615161094e-09	2.595199164233292365e-08	1.509146816100300770e-01	3.517704777236166809e-09	5.610684029807631981e-09	1.299002825053266304e-07	1.799023805273262845e-07	2.531329469398511587e-09	8.435709575672194975e-09	8.426855160215101434e-10	4.766174101508891957e-09	6.343896761407101662e-08	5.234583135859686265e-09	4.314968481965637697e-08	3.507527922990767988e-01	9.627745673759510154e-09	3.213115868766676448e-08	3.759787673797980630e-03	4.114088586807389153e-08	4.382881274265157621e-09	9.920310991307106365e-09	-1.780022731046123309e-09	-1.215760587799680431e-09	-2.161395256658155563e-10	-1.316955624051600640e-09	-8.724544752009452293e-10	-2.085193678055096928e-10	-1.397363393234262987e-09	-1.307246487880531130e-09	-9.338551397822585392e-10	-2.075207572287978620e-10	-1.008133928046630606e-09	-6.677431271344047147e-10	-2.974971148265935032e-10	4.715511227656448312e-09	2.551131032839713748e-08	1.380017311630840931e-09	1.476860439179075625e-08	3.254429025222684051e-08	3.908098987435977943e-09	6.458988169795074442e-09	1.014286357338653050e-01	5.495635928180612334e-02	1.024800565754342512e-08	1.250245875720641317e-02	5.128290682143269231e-10	-4.311032337421620472e-10	-6.617848654131478925e-10	8.195430047962274593e-10	-7.050998150587056834e-11	1.800281657790102066e-10	-2.182129789990694308e-10	2.507964373706886685e-10	-5.362344717565155246e-10	-8.650998361047226932e-10	-1.968728141476731267e-11	-3.162748302659459018e-10
-2.644650496437438998e-10	-2.846178985224348769e-10	2.876853573899522169e-10	-8.738294029554477354e-11	-1.778298360774932044e-10	-9.053227574295521939e-11	-2.200808946822531828e-10	-1.027101795022705625e-10	-2.106118931229264425e-10	-2.214770624299572809e-10	-2.032020926053210780e-10	-1.822683800587103877e-10	4.425389075593837069e-10	-1.378564646832380839e-10	-3.297668682347540812e-10	8.029818925817938479e-10	-1.725859782941745194e-10	-1.856167921926025537e-10	-8.381863418787039906e-11	-8.169153522513385579e-11	-2.001886085719750566e-10	-2.993200476260108964e-10	3.114838164626908580e-12	4.972958041901848743e-11	-4.595274165261793423e-11	9.652463033028242498e-10	3.772709212520561350e-02	6.814815576406094009e-10	7.433355109536163429e-09	1.612681403419776588e-02	7.623301067264617463e-10	2.241223748154855561e-09	4.823343018087083989e-02	9.656331083385893965e-02	1.044593933729877468e-09	3.419764458564652835e-09	6.267785716363300524e-11	-1.433319890728769017e-10	-1.768642162698455489e-10	1.656032026449141843e-10	-7.658917429437460855e-12	-1.550875198513053999e-11	5.449602538201245892e-11	1.121623295049433421e-10	-1.017245213073264626e-10	-5.725519754264882613e-11	1.934532306420372787e-10	7.300971693378288648e-12	4.163849146915310642e-11	9.843962024543857678e-10	1.941776679172091055e-02	9.941805125763697930e-10	7.431896487450986102e-09	1.173465132077877865e-01	1.074786377716827211e-09	2.937513817335887180e-09	2.943376184715596685e-07	6.888805033287302515e-06	1.122144518837926101e-09	3.628152819182479903e-09	3.095027327354406646e-10	1.511684668647253864e-09	1.868520520973074837e-08	1.664981797501813974e-09	1.098729358669322523e-08	1.507236649696720165e-01	1.823009945419215297e-09	4.237912111836368660e-09	8.623550779248021753e-08	1.689534138029776190e-08	1.371294335901701835e-09	3.106601419732703329e-09	7.383829490911382979e-10	2.360535076877558832e-09	1.356846414678945829e-08	2.754648961195898971e-09	1.781609739008218730e-08	3.030501272526924805e-01	3.098700146320403375e-09	1.968229051225872282e-08	5.410912236574618589e-02	1.107813582447745913e-08	1.963507861369688212e-09	3.599081490347990089e-09	-1.485160073106864758e-10	-5.548782219977880532e-12	3.949793625615526480e-10	2.287524902232265802e-11	1.455881399958031672e-10	2.562154463089357153e-10	-2.798369430397024393e-11	1.454439920597176012e-10	1.370763287527342345e-10	1.184817020517643693e-10	7.097286020950182842e-11	2.650708600852164061e-10	3.071302284763864003e-10	1.667284668370930210e-09	6.659256317085489251e-09	1.259960831519713216e-09	6.439598551696316163e-09	1.420638778896854845e-08	1.951779339001909410e-09	3.753666679051347109e-09	3.844722806077494753e-02	1.035192173981753505e-01	4.931244648329403553e-09	1.472822670921285909e-02	4.726659308236390880e-10	4.084620048162733032e-10	-5.106677309585060626e-12	6.019103109262813770e-10	3.051417504008513965e-10	2.364863345733536686e-10	3.657263861033219489e-10	5.549732981075547033e-10	1.893049809880520558e-10	8.614795991053863920e-11	4.572714061495374126e-10	3.551760889639617239e-10
1.031437212635144611e-09	1.012443713598871823e-09	1.302594623186363465e-09	1.309085626676501465e-09	1.370654679521634400e-09	1.373010432743237847e-09	1.192054631322428308e-09	1.352934217148242086e-09	1.203478248277640522e-09	1.062650402308990896e-09	1.374676880671581540e-09	1.373851128246746267e-09	2.607418819632498330e-09	1.520427493638154240e-09	1.204203801453017616e-09	2.253032406404008277e-09	1.727307367886144260e-09	1.605783321431029609e-09	1.997903500754720601e-09	2.021067307034083263e-09	1.439343986195458155e-09	1.178676481841974000e-09	2.332515186485240924e-09	1.869496131514343673e-09	1.842477137872175180e-09	5.664354387674653127e-09	3.566515301003579663e-02	4.679504512330929879e-09	3.044253818827658596e-08	3.713384434696939684e-02	5.185139142334944381e-09	2.305341532887954175e-08	3.650116506182721904e-02	9.577384481376535752e-02	5.539391956896351217e-09	1.706135742126212954e-08	2.219974016879623945e-09	1.490662436127375924e-09	1.285410467813878516e-09	2.213413397949464714e-09	1.753380934991920024e-09	1.660813765886875029e-09	1.934434155744009163e-09	1.957555035090065410e-09	1.509978614451694567e-09	1.304994612020029567e-09	2.314482630977175739e-09	1.959578402473302164e-09	2.216895974200317792e-09	6.453230199677498532e-09	2.293705485870033145e-02	5.720704942295252479e-09	3.402635819362355065e-08	9.806770418610204210e-02	6.110528898889273094e-09	2.859642146903183732e-08	1.409542491171435807e-07	7.767870741427622926e-03	6.106141687134940886e-09	1.520311236969548716e-08	3.205336446486906990e-09	8.584978972186247483e-09	2.129277829610575208e-07	7.597543478283289210e-09	4.821944350491609050e-08	1.556008764543500844e-01	8.831993081391349936e-09	3.955571383649274534e-08	1.720589303755007466e-07	1.074820961744866696e-07	7.649881907050307937e-09	1.592929821636382189e-08	4.822387360331797196e-09	1.133320978590237440e-08	6.090186434148922861e-08	1.222336661115731392e-08	7.728073607024978674e-08	2.946143952810081346e-01	1.421382387517746212e-08	8.914173184086618546e-08	5.431389914750414660e-02	4.943346146206966267e-08	1.035320800009155426e-08	1.849336746099420416e-08	1.386328700484685558e-09	1.652308359027566047e-09	2.107808877324905300e-09	2.106290845965115578e-09	2.532063781503830408e-09	2.624697102561014197e-09	1.967227637430701197e-09	2.539462525557273456e-09	2.344584000087152387e-09	2.182791671943330839e-09	2.388690643156215478e-09	2.683129276091257397e-09	3.193450226744914381e-09	6.860761534114767550e-09	3.438568677376177183e-08	7.230946008971262299e-09	3.137364944340956270e-08	7.267915203387559445e-08	9.272420157389903550e-09	4.189521350419521440e-08	7.751816645545010764e-02	8.046186844434825847e-02	1.222835228348342681e-08	3.642496713275653226e-03	3.190910424027397548e-09	2.321984939990333528e-09	2.481370497469189877e-09	3.351865952040913352e-09	3.311582370168522607e-09	3.193959997475931154e-09	3.277632892414519356e-09	3.938946582001911495e-09	2.923657334228613580e-09	2.411662602802237616e-09	3.667755740285642635e-09	3.362188081210365079e-09
-7.228387054629224053e-10	-6.310451431873885675e-10	2.935591611192964976e-10	-2.523092990297910341e-10	-4.691556343347174056e-10	-2.284537569679132125e-10	-6.823994819438739232e-10	-5.163644908962294188e-10	-5.816286964294788002e-10	-3.466138146644648774e-10	-5.827105560077231603e-10	-4.784353005148082672e-10	1.218574321454419546e-09	-6.200189818964452482e-10	-8.676742383500301014e-10	9.894482957746323975e-10	8.186298514599122583e-12	-5.474511702197599140e-10	-3.448928829910861735e-10	1.950920818637021369e-10	-6.751911920725736604e-10	-8.351312329707826593e-10	3.711863700450885793e-10	-1.090151359188901576e-10	-2.218946927660260802e-10	2.043016706960866742e-09	4.712587063552580585e-02	1.559946014127807224e-09	1.726187078684835550e-08	1.882410634388999304e-02	1.897213184274168791e-09	6.591241717957241794e-09	3.627828121206081585e-02	9.234709334785570767e-02	2.104090480961522176e-09	1.194342137574300312e-08	4.406667166924142077e-10	-3.010992154122881093e-11	-4.270984522257429290e-10	4.894414903690032413e-10	-1.772063824523726887e-10	-1.778237138659323997e-10	-1.023521419901883807e-10	1.894681290536343831e-10	-5.024743905143855068e-10	-2.012366647960655236e-10	1.024338789018936381e-10	2.008389951509092504e-10	6.770882248145234894e-12	2.143469467220051266e-09	1.000918534489136577e-02	2.473683161219535638e-09	1.865991522919767148e-08	1.039293663262802342e-01	2.322297212701082101e-09	7.766457899197328989e-09	4.840495613979231405e-08	2.411681362850296231e-02	2.008468721135335457e-09	8.073513976706096611e-09	7.351790713239338295e-10	4.122118145197389424e-09	2.837874043073823516e-06	4.331754402658248931e-09	2.724735035445531132e-08	1.620179018978340491e-01	4.068218950493423074e-09	1.093583123623221507e-08	5.511830284894012261e-08	6.678949328616890832e-08	3.081874078566317541e-09	9.329996013110721933e-09	1.784828683943967631e-09	6.267214033348627167e-09	6.309541541288121409e-08	6.779456155117111829e-09	4.413747994532369990e-08	3.039428864902316563e-01	8.156991518837771662e-09	4.784719046063839986e-08	3.810044155878594685e-02	2.904157168597820704e-08	4.541624798116856084e-09	1.002188265951173017e-08	-4.892296046241626029e-10	-3.051362798189139471e-10	9.146140269423617839e-10	-8.340633517711985171e-11	1.730164618438928984e-10	4.473939483684478776e-10	-1.911306123345041959e-10	-2.856097221970010285e-11	5.595392115470886276e-11	6.101938985305099624e-10	6.584000671495610684e-11	5.336123391199580612e-10	7.105931791638792444e-10	4.150813378182438338e-09	2.551653048699978168e-08	3.156833049878354701e-09	1.814858112837406822e-08	4.763473399401302286e-08	4.647784573362941803e-09	1.148315084210292019e-08	8.867144356523411208e-02	7.076807198156050138e-02	7.915152789864181214e-09	3.865029150447561821e-03	1.514642409415462104e-09	8.596016875178385939e-10	1.012293682994315293e-10	1.783663566702252170e-09	7.391258858837596443e-10	8.412171271123581334e-10	7.006915018470495877e-10	1.077788334207039833e-09	2.079472490373316933e-10	2.159922797425057255e-10	9.126854219345373766e-10	7.594603661928603635e-10
-2.974163326761643366e-10	-3.348005741017199042e-10	3.098845736585266964e-10	-1.770564662832055963e-10	-2.432572090113052130e-10	-2.194672306027951887e-10	-2.655306868412963543e-10	-2.067046325529915453e-10	-2.836073911676747477e-10	-2.352989276255590206e-10	-2.495878980970728268e-10	-2.299177472207064611e-10	6.530153549481846548e-10	-2.283170423050673941e-10	-3.470743784966950782e-10	4.098333264374824770e-10	-2.686743288506845671e-10	-2.915753212329984479e-10	-2.141738196038421151e-10	-2.176554390930150301e-11	-3.071111519067920793e-10	-3.465581457566285673e-10	2.308411532424496436e-12	-8.242880018707033220e-11	-1.396082985363307870e-10	5.459740657497599615e-10	3.879046900000400477e-02	3.399729178151457166e-10	4.913082874521499427e-09	2.020076867740827967e-02	4.418294667251751321e-10	1.502927704473732921e-09	3.842819757989152096e-02	1.009206546037951097e-01	6.210628004929548605e-10	3.314226297121059606e-09	9.561449417084715310e-11	-1.282692780819169079e-10	-2.166575123144012338e-10	2.789027187864616886e-12	-1.287572367823717320e-10	-1.386124772685693908e-10	-6.912013026663575119e-11	6.142114075505804200e-11	-2.054626896235420342e-10	-1.589307041827807364e-10	-4.520353792726601673e-12	1.059158617879785099e-10	-7.781633416728826974e-11	5.934287985375547243e-10	1.836195095815974440e-02	5.593835182523684233e-10	5.153916318807830563e-09	9.736234840966828674e-02	5.832955489320936681e-10	1.850503910130065068e-09	1.597224687302724493e-08	2.139747854138158989e-02	5.664612959370762154e-10	2.280608714992342593e-09	1.033214630344645800e-10	1.145652108185300524e-09	5.142608566640060502e-07	1.022720651934933610e-09	7.516950517446016187e-09	1.499779360627689073e-01	1.112924574461250577e-09	2.615859606249804455e-09	2.348735239307802722e-08	2.158849837497340692e-08	8.589719999432848771e-10	2.531727069875639061e-09	3.643956967929511034e-10	1.625957305634053303e-09	1.788561832765562034e-08	1.774174426577979005e-09	1.224357275511121248e-08	3.382738215856390673e-01	2.318625560672352623e-09	1.375427848954831956e-08	1.882835472746339014e-02	1.058001420860905329e-08	1.436518901493056641e-09	3.312662266797593414e-09	-2.115897838829106919e-10	-8.926398152543628037e-11	1.148054626624800278e-10	-1.154541941883596919e-10	-5.269487937208174978e-11	3.093082100074612241e-11	-1.467246266179404750e-10	-7.323803618380584029e-11	-8.545727440190858835e-11	1.974832541832024666e-10	-5.379772563735042604e-11	6.484014679348186838e-11	1.367219121554633093e-10	1.628000011669899199e-09	1.512200180756363225e-08	7.555163744337726146e-10	4.868886714411674069e-09	1.254335531878253803e-08	1.268062516332988941e-09	2.599025809764820989e-09	9.125988927320505262e-02	5.896115088209469279e-02	3.207867322147748468e-09	7.236259938749896488e-03	3.508542716592628179e-10	2.954879534276712789e-10	-9.180769503236921700e-11	5.010299207512054495e-10	6.882945332059047788e-11	7.032956886487232546e-11	1.350861987877531114e-10	2.291975952885716844e-10	-6.691750052960346434e-11	-7.434595469097981652e-11	1.974921682714824015e-10	1.329795267806997186e-10
-4.118163501221596927e-09	-3.294516827540774312e-09	-9.067729802747559000e-10	-3.031797996933188999e-09	-3.810288835750929824e-09	-2.977430887173782506e-09	-4.091472330612914752e-09	-3.748291074587436659e-09	-3.932023976439356986e-09	-3.795818317482425545e-09	-4.138083447849900859e-09	-3.512095364274566151e-09	-5.982655856503983863e-10	-4.305618943372073835e-09	-4.492914737909325372e-09	3.024068790397577815e-09	-3.080015419143090669e-09	-3.674130400331642073e-09	-3.624402157564504537e-09	-1.693436485860005468e-09	-4.363160940919134255e-09	-4.473421122499393710e-09	-2.357719128437582850e-09	-3.971670375380546418e-09	-3.450001807568662520e-09	-9.087957269250068497e-10	2.981129193230584729e-02	-1.796753908347497315e-09	1.844781094856351081e-08	1.804878945415685360e-02	-1.033440873839237682e-09	-4.487768296107651148e-09	3.727906329182188727e-02	1.167163968824792425e-01	5.652578783923578703e-10	7.397507814520767446e-09	-1.914490397489291150e-09	-3.972801003186195991e-09	-3.320377527786208692e-09	-1.490203530520313037e-09	-2.920802435418524310e-09	-2.813433503343433587e-09	-2.943933793697715626e-09	-9.269219339774865555e-10	-3.541613560777569083e-09	-2.797500919024806864e-09	-2.626135533066929216e-09	-2.726345919762298300e-09	-3.185518264854854620e-09	-8.436303708494566956e-10	2.859800438095703654e-02	-7.706562051971318785e-10	1.791971467278642062e-08	1.031045500132650727e-01	-2.077473650573237496e-10	-4.547336793369890084e-09	1.487470824467009381e-07	2.661514156579223610e-05	3.126076769460985753e-10	7.183128643325257304e-09	-2.047899961475508810e-09	1.156932795258132253e-09	3.222623878452529655e-07	1.275888232905112492e-09	2.794242195577779471e-08	1.527522929214493452e-01	2.105787506104464349e-09	-4.698451008768090455e-09	1.234317933373251603e-07	9.053081016741416031e-08	1.162558358605214565e-09	5.558366064169723927e-09	-4.690734086888150272e-10	4.400884279053245307e-09	7.495698897776611364e-08	4.224515798005158116e-09	4.774065615943594626e-08	3.063272121923721891e-01	7.760817614080566737e-09	1.403849947641168598e-08	4.408354293626316756e-02	5.655427024691719613e-08	3.796673275715030318e-09	9.485958311951429397e-09	-3.586214195345150560e-09	-3.237842228862010270e-09	1.486802561142934481e-10	-3.240561523640343680e-09	-2.619324891680941925e-09	-1.632365510084968897e-09	-3.369554146652045088e-09	-3.327753351379118576e-09	-2.683434207507646958e-09	-2.162068694656170630e-09	-3.022517187267270826e-09	-2.320292488621487571e-09	-1.878310891735684592e-09	2.605035431001881202e-09	1.811957263637137526e-08	-2.110964652073957846e-10	1.470283537067748607e-08	3.384036881091242046e-08	2.914141709501021076e-09	-3.533564458758796013e-09	6.920968563689315622e-02	7.354174160511849079e-02	3.809657738937407877e-08	2.049989574293926975e-02	-4.166912033418297910e-10	-2.505122765084406690e-09	-2.298703187215407596e-09	-6.877967614515694028e-10	-1.320194003585290496e-09	-9.418687619591322337e-10	-1.915348557171652976e-09	-1.096633454723075804e-09	-1.950635777171763210e-09	-2.476323203474176949e-09	-1.662430536146595188e-09	-2.012395033541221607e-09
-2.924263858815305849e-10	-2.475030473074996166e-10	3.366132925486675579e-11	-1.616624176801896160e-10	-2.343113731587679360e-10	-1.461969428422901283e-10	-2.700486732119897088e-10	-2.209238468351099482e-10	-2.871654515922809057e-10	-1.798987696155709329e-10	-2.529357713934123493e-10	-2.422682781847964740e-10	3.514174592213325163e-10	-2.718236411823726194e-10	-3.175239518346366300e-10	5.969447655874744630e-10	-1.528505784393093209e-10	-3.021139868663165094e-10	-1.717574166865980794e-10	-1.877538480225062623e-10	-3.208424579353396640e-10	-3.103903361016986902e-10	5.460014551703999249e-11	-2.591252127159885807e-10	-1.473021068651787684e-10	4.549872208247967508e-10	4.125691721892588842e-02	3.036408144118418686e-10	4.950619821455839570e-09	1.884827208483500979e-02	4.362526151552129810e-10	1.385526127309843831e-09	4.757019755048691456e-02	9.546741212387716002e-02	5.920152223487320916e-10	3.161910904552293138e-09	1.193543300196660757e-10	-2.610017742959451963e-10	-2.408674549564789280e-10	-2.345163478482327852e-11	-1.333422359344839609e-10	-1.374225319053770940e-10	-9.297915040286473237e-11	1.182388431338435693e-10	-2.029946322819582379e-10	-1.248608516931262257e-10	-8.380654769230970756e-13	3.828269823939459563e-11	-7.611874890250046635e-11	5.466783385955791171e-10	1.433374245227166111e-02	5.260002170250996151e-10	4.937432563547377507e-09	1.015038116396491108e-01	5.718370197586793863e-10	1.606286604571210163e-09	1.598449662981795414e-08	1.578192927463407599e-02	5.436069046400734633e-10	2.319863963939803925e-09	1.108678342705432399e-10	9.146263767007281693e-10	3.012822095560084024e-08	1.002216985066274527e-09	7.301048617988776294e-09	1.521476945170516515e-01	1.083499735232003678e-09	2.332461266479742755e-09	1.756348760602040224e-08	2.068440267716802453e-08	8.794570809316508362e-10	2.695256688156460083e-09	4.088426994942555582e-10	1.516547268333580072e-09	1.155098462453374226e-08	1.799931595621383018e-09	1.184808918484029393e-08	3.243132052900428164e-01	2.413827094119950668e-09	1.304317165084034339e-08	1.964685545341761722e-02	1.005679639514859723e-08	1.491283063030664888e-09	3.482872979300377698e-09	-2.179234940442558909e-10	-1.188472717938558225e-10	2.568023636425911569e-10	-1.124517069345000457e-10	-2.884923413259114211e-11	7.466692595067792952e-11	-1.426958411253497146e-10	-4.056449919217748160e-11	-5.549875338298954761e-11	3.084787721210228367e-11	-5.937643959236542582e-11	2.924764169161456775e-11	1.129935018923052148e-10	1.580104660992434993e-09	6.204275127412517028e-09	6.925729858318659478e-10	4.713715583812781387e-09	1.221581580849701020e-08	1.241140839659969972e-09	2.459277523252925319e-09	8.769945875544044034e-02	7.148107139477880012e-02	3.042949657049153372e-09	9.949222896908025901e-03	2.713487407876589262e-10	-2.325732215057272496e-11	-7.500920457756879498e-12	2.689397092119556332e-10	2.046210268773392142e-10	2.309677772693699523e-10	1.421072036848382954e-10	3.123343617692505945e-10	9.070828963150428271e-11	-1.753232973361766427e-11	1.866031639331054109e-10	1.392928295969967104e-10
6.520689279462670761e-10	6.167226239720317634e-10	7.691405708671934574e-10	8.155694994508089968e-10	8.591181877320410859e-10	8.741969221725906759e-10	7.551989808351502324e-10	6.380830515502890551e-10	7.630696662031817527e-10	6.736610876017724390e-10	8.590394047750493693e-10	8.737135761862393235e-10	1.680457467341071871e-09	9.581251697379482203e-10	7.538549356705435191e-10	1.438021797122285714e-09	1.148194161099768538e-09	9.693326437744050507e-10	1.226863445466982522e-09	9.960095579539735741e-10	8.908593485858809372e-10	7.360157151601161588e-10	1.471454657938743873e-09	1.183585674368549874e-09	1.167714470450745141e-09	3.509473479170088526e-09	3.426843560425559682e-02	3.174687711385645666e-09	2.071235171306217620e-08	2.166784262069130704e-02	3.451293778354890238e-09	1.111751633609384441e-08	3.783885816686912568e-02	1.022003145658092055e-01	3.666698835567823555e-09	1.131349812719565880e-08	1.468674999791752729e-09	9.472938427651095747e-10	8.162540241564931064e-10	1.362427854701784099e-09	1.087623263765659149e-09	1.032061423495588722e-09	1.199275418545733234e-09	1.128320745612582248e-09	9.302352445524640618e-10	8.205698004226067082e-10	1.461756681982075318e-09	1.244074306048592743e-09	1.398583874836073004e-09	4.060107786267673635e-09	2.007078819823575333e-02	3.856279278611843635e-09	2.186444441279764460e-08	9.058445974960153968e-02	3.991649461547906428e-09	1.334496461756671557e-08	7.640034297394105391e-08	1.968265391774699086e-02	3.705515707310641398e-09	8.599765359708223184e-09	2.085020455606241460e-09	6.057911957813625430e-09	3.284369520802305188e-06	4.971802238119575882e-09	3.069577213133346349e-08	1.573247885043215777e-01	5.657150249911180374e-09	1.839670593688848316e-08	7.307013292053957242e-08	3.228384465060099375e-07	5.192593258741039173e-09	1.147868293759371399e-08	3.099462498978002158e-09	7.961784337495238046e-09	7.718144743080201736e-08	8.293729733535139048e-09	4.947222767208283566e-08	3.122637303972307654e-01	9.465212252999381432e-09	5.556199724633562441e-08	3.486258424730105665e-02	9.930206495845976615e-08	7.614235020201593538e-09	1.526062060424039744e-08	8.742756225921963047e-10	1.014211080109474054e-09	1.287384565318342239e-09	1.273989964718358868e-09	1.495030515676187554e-09	1.548886334401827157e-09	1.206513101796594889e-09	1.158714808020136324e-09	1.377234647940062239e-09	1.261472472456992595e-09	1.435288723143401718e-09	1.590376331094232597e-09	2.043284552769012126e-09	3.735497931292253251e-09	2.958930784498882817e-08	4.883555609781654639e-09	2.144582667768234773e-08	5.577735206181897595e-08	6.061927413019835220e-09	1.878000675966512379e-08	9.096767636371848320e-02	6.577260274195709244e-02	1.070683981499249614e-08	1.249074314385173121e-02	2.088231459573415746e-09	1.643183717757119345e-09	1.583864760262491763e-09	2.157451366746410308e-09	2.077997635318603058e-09	2.003953692345540513e-09	2.086464726694795578e-09	2.229714435566613088e-09	1.826349207814526992e-09	1.545998972871196224e-09	2.375557379630043809e-09	2.150331746661847805e-09
-2.346537356640416149e-09	-1.632999590921450127e-09	-1.325144856201926986e-09	-1.740268054246954157e-09	-2.202140828447850778e-09	-1.053922717112552710e-09	-2.396358650024710954e-09	-2.125821558235218360e-09	-2.361361234081805969e-09	-2.216979097024170651e-09	-2.336477062874976145e-09	-2.177756292319909041e-09	4.142625046710379908e-10	-2.043987762670435189e-09	-2.590858654996229081e-09	2.226578984824565233e-09	-2.552997695698698725e-09	-2.653715061755453584e-09	-2.004613266868704541e-09	-2.440090608107320209e-09	-2.705605577767866232e-09	-2.596826661933160410e-09	-5.497326881295939975e-10	-2.569625876380258257e-09	-2.143783661301208439e-09	1.256051289175802333e-10	4.299602584566447616e-02	-1.278710937534307018e-09	8.947987264249162316e-09	4.342789526855898863e-03	-9.894163351302681166e-10	-2.333311478814385129e-09	3.977488707980796762e-02	1.057580880855770178e-01	-5.929955062027260429e-10	5.200496081524154614e-09	-2.752266101997191241e-10	-2.381492034251575544e-09	-2.348956922203212160e-09	-1.088813329068731770e-09	-1.919101533263408785e-09	-1.930195172443673514e-09	-1.544330639760107012e-09	6.748861330964828562e-10	-2.190187930222482576e-09	-1.960202827366672491e-09	-1.618262641524876572e-09	-1.631364026353880506e-09	-1.987136320923180269e-09	-4.982552804297851159e-10	1.026033840885411282e-02	-7.821799539669751692e-10	7.406075547472541736e-09	1.132217214799946386e-01	-7.311425106044899783e-10	-2.195121043812460808e-09	2.398265152029284494e-08	7.788959044122329735e-03	-7.258562037494347083e-10	3.194808560344953185e-09	-1.697442018250606461e-09	3.394861904343690508e-10	3.169303693265141760e-08	3.176197665326058977e-10	1.213783282715836829e-08	1.576843648379769591e-01	6.270065071601594547e-10	-1.413279451170683838e-09	3.450662534040713159e-08	2.536029753616942253e-08	-2.694873192560849086e-10	2.931207711270481372e-09	-1.195572511220012875e-09	9.297312846568582781e-10	1.226331393790937265e-08	1.831936239029869327e-09	2.082608642224517143e-08	3.219744326995687134e-01	2.765604814836417267e-09	1.394919432139151476e-08	3.094013659556282131e-02	1.204293827599258411e-08	5.706479893915156321e-10	3.482247385009990562e-09	-2.290573174019533369e-09	-1.818953714402427888e-09	1.148241341767226225e-09	-2.087789268506480880e-09	-1.898820751164473119e-09	-1.635426284882048906e-09	-2.124460580148097198e-09	-2.087207653003155260e-09	-1.931498369078201275e-09	-1.570001406603452715e-09	-1.856597317445417735e-09	-1.579143166446893495e-09	-1.539727816408218438e-09	2.031054778141106504e-09	9.791875649630361274e-09	-4.832855629827943300e-10	7.736373180027074380e-09	2.391342428277812451e-08	9.294263520153425752e-10	-1.694276677444258988e-09	7.899899612080464595e-02	7.751351809203461951e-02	5.271967195726372483e-09	8.745584344044493239e-03	1.794514419747222427e-10	-6.695561022866646092e-10	-2.139754407707924066e-09	-4.550784293500831899e-10	-1.240367452673673500e-09	-1.099333033305394725e-09	-9.145908894532307995e-10	-9.950539015701916626e-10	-1.785536194654087880e-09	-1.631440964839241337e-09	-9.889645001162660796e-10	-1.047765048081775258e-09
6.890374672367891335e-10	6.746992354029690599e-10	1.306999243810867053e-09	1.069986730101916153e-09	1.045934923581086269e-09	1.086939436166410523e-09	8.592081826979492765e-10	1.032932747936629929e-09	8.528670807757689515e-10	7.842104234143952216e-10	1.026844938508114858e-09	1.023890497744115744e-09	2.253780409239485195e-09	1.026592122938603382e-09	7.216839407554105022e-10	1.808583268360694560e-09	1.724136575181798115e-09	1.029670799294591818e-09	1.487157285937327015e-09	1.601225777272059339e-09	9.091777239889625278e-10	6.767679930091454164e-10	1.749978820681518145e-09	1.458885249736300043e-09	1.451076128032234356e-09	5.477164004239757418e-09	4.435404588285277866e-02	4.968433517705892265e-09	2.732264509285647178e-08	3.334785236105260869e-02	4.735790536473742870e-09	2.151035514802753681e-08	2.808540164150151799e-02	9.298610234376304684e-02	5.637569974271223683e-09	1.563475008365958512e-08	1.942032339132416830e-09	1.102635158856519146e-09	8.816256352311044185e-10	1.810495232463028453e-09	1.305135432681222839e-09	1.232770398039334412e-09	1.491634639287264104e-09	1.570759999194382189e-09	1.059036171454572286e-09	9.178056755259276625e-10	1.865140946798535088e-09	1.510217559841138381e-09	1.772724901672039074e-09	6.116033923868778020e-09	1.237539269310774896e-02	6.227907967803369468e-09	3.117980010156276528e-08	8.527138265393124916e-02	5.496310653453285308e-09	2.663714920951936668e-08	8.319987968100077993e-08	3.141408338057830735e-02	5.315514576540250616e-09	1.183199082025453147e-08	2.678535230512490280e-09	8.611094293181825262e-09	2.254140315705043932e-07	7.880771907649822198e-09	4.463168746676382033e-08	1.589774377132984473e-01	8.084148826305535525e-09	3.638844233757519056e-08	9.771013065309934210e-08	2.132522871265213559e-07	7.336824467924278514e-09	1.517304018640385646e-08	4.221779521089510404e-09	1.165985463432938326e-08	7.815586745595090950e-08	1.375780671372386713e-08	7.150574646730634021e-08	2.970726588344686503e-01	1.365777183624370667e-08	1.016017047942363617e-07	4.936110882519643972e-02	6.577271709625516499e-08	1.029168169006688919e-08	1.811689335502800175e-08	1.001105896501590979e-09	1.288601048012080675e-09	1.808254678482383103e-09	1.732023924947149147e-09	1.964837003094683558e-09	2.091010543341795743e-09	1.507770544738007605e-09	2.087730755349231456e-09	1.783516606000081971e-09	1.742344993164659125e-09	1.911048273666549078e-09	2.106476427573193911e-09	2.687721278737947186e-09	3.514909622357271368e-09	3.969856701595286759e-08	7.701619693639807889e-09	2.886974513420260766e-08	6.774692592791416164e-08	8.844780519943462179e-09	3.713520336507293720e-08	9.363293969434134667e-02	6.279145643225902962e-02	1.933242323039595258e-08	1.032850293829603791e-02	2.894286827639033885e-09	2.243917187910614912e-09	2.015700738406031610e-09	3.322271186525261235e-09	2.856696360884743891e-09	2.790417140976317601e-09	2.904792705575867643e-09	3.325599902797087400e-09	2.439655515272891648e-09	1.995302412901848136e-09	3.326755279145801872e-09	2.924946738486306909e-09
