-4.030586446370879625e-10	-8.874079768517806117e-10	-4.543052272212113832e-10	1.222025286333068511e-09	2.159211051362605840e-10	1.125190274321621325e-09	-8.480285217282281855e-10	1.852938223243533116e-09	1.167151510077004262e-09	-9.530374631317280358e-10	-7.273938784333163256e-10	-9.372279337253596356e-10	-1.079675064425883898e-09	-1.575590818555913223e-10	2.018234261886624192e-02	-4.074129619879859600e-10	1.792655196479072027e-09	3.573681460556351236e-09	-4.420636618461629438e-10	-1.300702497648476517e-09	4.604029172342075787e-02	1.442670055286387754e-01	-3.183775795540448715e-10	-1.127117054802056681e-10	-6.353578710304102961e-10	-8.824718409280919748e-10	-6.896247948546377943e-10	-2.563930186280583383e-10	-7.043152568329167019e-10	-5.950462329070133376e-10	-7.251807736913140487e-10	-5.528911828778676689e-10	-7.711876840477321299e-10	-6.146976437221312829e-10	-6.067119943477172793e-10	-7.571820013080297828e-10	-9.779706627667714231e-10	-2.117667739306872228e-10	4.282850943207544558e-02	2.689993850155610271e-10	4.048906909588278623e-09	8.864907556970305635e-02	-1.426462975101549263e-10	-1.060768938753474470e-09	8.546458456720617836e-07	7.055032226635653270e-02	-5.397410894086822209e-10	-3.800252005558137762e-10	-6.578545890481563756e-10	4.878860400455081652e-10	6.481106112181084867e-07	1.016925222984130501e-09	5.580207431032209357e-09	1.047142836678501276e-01	5.054351559556556069e-10	-8.893305453880704577e-10	5.478824498839685034e-07	4.114298347080457384e-08	-1.601338377874123331e-10	2.025313646539392232e-11	-3.653748905735507189e-10	1.004546023830367839e-09	2.582016404037157377e-08	2.200170165047725503e-09	1.022469403233427571e-08	2.838882291019073634e-01	1.282901714698603172e-09	2.909606376363733310e-09	6.255290645282420015e-02	6.574516388716376995e-09	-1.423783307277060394e-11	1.646019947853156897e-10	-9.841138929817792465e-11	-1.150882628593278650e-09	-1.111962993827098586e-09	-8.733534183949096046e-10	-1.051965387842152937e-09	-8.582251642183524874e-10	-1.159187483197271597e-09	-9.713730088151368693e-10	-8.457339344017675619e-10	-1.028453482891981096e-09	-8.591437323755461515e-10	-6.849248482980636306e-10	-1.356279465437980956e-09	-1.289414622992049278e-09	4.117380601888644456e-11	-9.374630972770582627e-10	-1.259485290776188514e-09	-1.005052482518591715e-09	-1.203263866564612533e-09	-1.034536615018700427e-09	-1.394482017885206295e-09	-1.138849841723684712e-09	-1.408097714215479142e-09	-1.117578592811245801e-09	-5.670931264952267883e-10	8.651476004356555721e-10	6.768552647508169459e-09	-4.383433463935089471e-11	2.710918260467532911e-09	5.275110177503478719e-09	6.187458867974442700e-10	-1.059160015945010687e-09	6.204965174624202384e-02	7.427525472329811473e-02	1.250976140652658662e-09	2.198130527307410702e-09	5.790975709500890293e-10	-1.118932590910450549e-09	-1.145780278169445121e-09	-6.330048943415003069e-10	-9.169832237343328739e-10	-8.841030484969421213e-10	-9.435872021935630251e-10	-7.836370879092740746e-10	-1.031462677890887568e-09	-1.111724842745935661e-09	-7.225706241518555396e-10	-9.604341377391178942e-10
9.718651296887384431e-09	9.709905171150327627e-09	1.127471686972317205e-08	2.155088471061005400e-08	1.677389744921404252e-08	1.864396959661344147e-08	1.390718937652348185e-08	2.706982834510958339e-08	1.787866000510524125e-08	9.429956895878248569e-09	8.792956450112704917e-09	8.098337804421119174e-09	2.248280853376685964e-09	8.425621520298900324e-09	2.060148233805808582e-02	1.199932093300585325e-08	3.507170476600217192e-08	1.666288872602900117e-07	8.040812172791601409e-09	3.435130162773453665e-08	4.068981542537057627e-02	1.453970427965743939e-01	5.054586198223020875e-09	7.546331328567509570e-09	4.869400346904805814e-09	3.473835531788790702e-09	3.631937559299768926e-09	7.004942285886017713e-09	5.141982167644390217e-09	5.296069399868671541e-09	4.647207428847555065e-09	5.831623989714420815e-09	4.603931346122304529e-09	3.611411738765384895e-09	4.440300389740061326e-09	3.828502721830025314e-09	2.935008653606601112e-09	9.140749995240515559e-09	3.988610220666286704e-02	1.831544761358446556e-08	5.187486895917946484e-08	9.477665422669978579e-02	9.875655053427545570e-09	4.736205236427898712e-08	2.820852517553631630e-02	4.237153350228532039e-02	5.373249489982471042e-09	7.873718724742372930e-09	5.158044612383746514e-09	1.310025915687729102e-08	2.484562644522371800e-07	2.623821945692421416e-08	7.070131096221626448e-08	1.082419633654310293e-01	1.520912260347140913e-08	7.554621565050340266e-08	6.588085610409397040e-06	1.048843419773764758e-07	7.677210905777220560e-09	1.019403643555988095e-08	8.311526292893165064e-09	1.898142102715870680e-08	1.341218550851028213e-07	3.906517278729511615e-08	1.120579516721937971e-07	2.690782623547397501e-01	2.373345294128700167e-08	1.374547778945708126e-07	8.792095871998578671e-02	6.309268500868970115e-08	1.023490927176939891e-08	1.260979680343422047e-08	1.092744780417353033e-09	9.651722611449917008e-10	2.388176518280895064e-09	1.475031847538142365e-09	1.424820197821250840e-09	1.485255089361790395e-09	1.016534092736515117e-09	1.752494724380958886e-10	1.298150249853051350e-09	8.980962498019995081e-10	9.620270430430346053e-10	1.153564403456925559e-09	1.523673962454269003e-11	-3.567685430892810594e-10	1.543821419578052551e-09	4.213468525291402158e-10	9.361110693400431212e-11	6.256743166565697577e-10	1.201568302648816053e-10	-7.805200895759012915e-10	-1.857600179414537177e-10	-3.386976625863675389e-10	-8.123789648485520773e-11	-2.305486592184855185e-10	4.898798829409933645e-09	1.247445562620403397e-08	5.876245141349314418e-08	1.701657227126444739e-08	4.206288244590667749e-08	8.737552172801928320e-08	1.608988131595834295e-08	4.746825265559718768e-08	1.833727133228529250e-06	1.228170868240867908e-01	8.416392030975438959e-09	2.033769813188573598e-08	4.003813741159368245e-09	1.264060354763544948e-09	7.579916235204039298e-10	3.089635570630957249e-09	1.822908510208603003e-09	1.692892950654744518e-09	2.166074341349665571e-09	2.057565174251068266e-09	1.348505225469018497e-09	7.315363564089861977e-10	2.407373716898537328e-09	1.649153463824969121e-09
1.052263089703093180e-11	-5.502652255856891940e-10	-5.259296188567937165e-10	1.591250424056659853e-09	3.374508530658461648e-10	1.085164871107528444e-09	-1.075174242836466491e-10	4.476560349786186018e-09	1.390332771426853500e-09	-7.044701442301949849e-10	-1.610413847980965977e-10	-4.946661597550247386e-10	-8.217812086929486936e-10	3.788620905347440664e-10	2.285459166017173027e-02	4.101130772360722208e-11	3.909229606893088808e-09	4.587917696801083816e-09	6.265824092730630064e-11	7.023634790445581422e-10	5.393590873254942158e-02	1.382635044247620959e-01	9.935198410647566385e-11	3.624178551245949424e-10	-2.872256210296862442e-10	-7.773256649945685940e-10	-6.594039023257224344e-10	3.761963103881360392e-11	-4.040692138414014095e-10	-2.868722579781894817e-10	-5.231550854210547898e-10	5.613158649311468988e-11	-4.328668763034806824e-10	-6.221438740329986485e-10	-3.024857085009021518e-10	-5.655841067602526588e-10	-7.944102118428336603e-10	6.559935729701282744e-10	4.095516654902705417e-02	1.187603340921914613e-09	8.567611731049661594e-09	1.091303653127545792e-01	8.449096758528747356e-10	2.112401232632580638e-09	7.232455765244866436e-04	4.939515451992958911e-02	-1.739270836382661738e-10	1.968926177491256106e-10	-8.693047652522141318e-11	1.454430628867951453e-09	7.232470751301179176e-07	2.355039543096297283e-09	1.171147347375809559e-08	1.104948498549456204e-01	2.200192788766994497e-09	3.946069510010082392e-09	1.798850564755457735e-04	4.391384002768183144e-08	4.407072154128553279e-10	7.945849519622164317e-10	2.822357577457458696e-10	2.483929422847051883e-09	3.530323946342975992e-08	4.313956842394558261e-09	2.019737409265775358e-08	2.477012056026482445e-01	3.199790613638935638e-09	8.104692312368227825e-09	9.702793216620154981e-02	1.285722980583754697e-08	8.487357776938434338e-10	1.184093327547495448e-09	-1.019933366379926490e-09	-7.605677802484195293e-10	-3.390127203636719409e-10	-1.078214509879379047e-09	-1.240960206111822360e-09	-1.260005031971170017e-09	-1.319231886759233069e-09	-1.105029990415991834e-09	-1.222531020816585370e-09	-4.342690877747024001e-10	-1.072245249517558726e-09	-9.030462942820167789e-10	-1.568618007125468100e-09	-1.403674406957735144e-09	-1.316678413564882291e-09	-1.010227618948257099e-09	-1.387170337321463386e-09	-8.266926418062187022e-10	-1.245356351627552925e-09	-9.805002687039341651e-10	-1.644693591402799782e-09	-6.551736530560639042e-10	-1.546052061367571220e-09	-1.525600850077026694e-09	-8.759537873675706093e-11	1.334144257053848245e-09	1.018398900367709430e-08	7.981776499775891996e-10	5.352594456375591964e-09	9.973935954912719070e-09	1.855396895972779234e-09	2.032540583005871975e-09	3.208290823778642276e-02	9.725437768845773823e-02	2.805071882107174174e-09	4.152493318884688704e-09	9.898271111748645097e-10	-9.999983375544679281e-10	-1.173979659812167599e-09	-5.618233859769270971e-10	-9.261539845600408513e-10	-9.033689798715341561e-10	-9.037610523920515592e-10	-6.957877794097839566e-10	-1.101409484856603387e-09	-1.130097167063650959e-09	-8.655356320700305093e-10	-8.962858485757481523e-10
8.861722395174583394e-09	8.915580308598628939e-09	1.009904020730421115e-08	2.235804884314270311e-08	1.650088196810297467e-08	1.970748960120064565e-08	1.335672393826890365e-08	2.974650466766473980e-08	1.959995508655503021e-08	8.563339310663174633e-09	8.262067913027199576e-09	7.510854802186496698e-09	1.140113344322833365e-09	8.011047591735249746e-09	2.796752109293217797e-02	9.228676984306104791e-09	2.876029987275367193e-08	5.365217778124786518e-08	7.116690539011622654e-09	3.420456530521198196e-08	4.228820108490907725e-02	1.362654089844527738e-01	3.950038589504215925e-09	6.569960572235187373e-09	4.106874776508333424e-09	2.482818999152208120e-09	3.125973928025105504e-09	6.674164291670638817e-09	4.235473345744126682e-09	4.650193783269962764e-09	3.598539645632249126e-09	5.437150494178365860e-09	3.685317053958949007e-09	3.238038591083905052e-09	3.430546688219435257e-09	2.774027842293710708e-09	1.419623623621011567e-09	8.345949210917460043e-09	2.852962451792362408e-02	1.581203517278049123e-08	5.418942363509371229e-08	1.113647736682127215e-01	1.050392511876677453e-08	4.695300861773675384e-08	1.089967253577797494e-03	6.646512064563535327e-02	3.996076223106366602e-09	6.584045995606365856e-09	4.562653867610334178e-09	1.492519952306483822e-08	8.921426393532013929e-03	2.303881565578263471e-08	7.289496945267996223e-08	1.058091671827456198e-01	1.635978209189180088e-08	7.689845606753035474e-08	1.173230367106394735e-05	3.642557288196385472e-07	7.192331842917905301e-09	1.026750345090027466e-08	8.032759704801126042e-09	2.224698167154272351e-08	4.479834648035413898e-07	3.558170105413342028e-08	1.180819834081221025e-07	2.412381251466071130e-01	2.407467232924246117e-08	1.343070073732821376e-07	9.731762732552423634e-02	8.862830504799506976e-08	9.843044846181738691e-09	1.263478698372684131e-08	-7.337379851125799124e-10	-3.315163266259061353e-10	1.796215513521566034e-09	-8.887150241849486396e-12	-1.117156201191163295e-10	-3.358309425135149323e-11	-5.357134537970290525e-10	-1.151678447932753454e-09	-1.276581456127295252e-10	1.750495753919047112e-09	-2.107806322888358547e-10	-9.440082567994401174e-13	-1.549259896834443130e-09	-1.768610469479392976e-09	-1.357152479726338768e-09	1.105618859522937739e-10	-1.243444949909904238e-09	-7.755328474587990144e-11	-1.421657212039400989e-09	-2.045410224878700933e-09	-1.724443891998870630e-09	-1.672935333977189949e-09	-1.681141539839525599e-09	-1.458894603700764839e-09	4.284878859561765587e-09	1.308219813388253838e-08	6.317163220480807337e-08	1.491663127350643773e-08	3.818957788650269803e-08	6.740916804175362118e-08	1.540888025815683621e-08	4.958157502673799166e-08	4.780425034328045913e-02	8.492475430320080287e-02	8.762063659699712348e-09	1.704420098295241126e-08	3.012395173204447907e-09	4.828899262923626401e-10	-3.792225838201554791e-10	2.253510364806128178e-09	7.535247398623102250e-10	6.674259387444938390e-10	8.626721914141761149e-10	1.043607368113584573e-09	5.455743385073606181e-11	-5.731849410347182251e-10	1.558104379453392534e-09	5.870200762776745775e-10
8.649310638435443441e-09	7.639820230659052205e-09	8.128915935371721189e-09	1.281291623727064751e-08	1.127033769637718660e-08	1.115936789352145098e-08	1.078515534201654177e-08	1.498922473236469538e-08	1.030283184344370014e-08	7.120101342273637873e-09	7.772583651316408294e-09	6.710326402683550943e-09	1.535914157129664504e-09	8.926723360046821358e-09	2.320585301415323265e-02	8.378996574538749470e-09	3.057163140765477143e-08	5.977523710380751770e-08	8.272658641652933915e-09	3.165615173250099110e-08	4.635724464591153837e-02	1.395242216482336373e-01	4.906337327229852089e-09	7.759624944771239206e-09	4.207456372659768268e-09	2.498128516623387486e-09	2.723769719940990577e-09	5.582412746005887282e-09	4.024819115020124116e-09	4.228621360360509385e-09	3.769881716696904057e-09	4.900975097311746405e-09	3.641693050772746550e-09	2.938247368232028342e-09	3.949562160713724378e-09	3.076320318345676164e-09	1.948963783648197109e-09	9.114976687725180763e-09	3.375983309526411208e-02	1.328093032342226348e-08	5.744597046596005125e-08	1.011137809834381784e-01	1.208073961045307527e-08	4.614280717378273191e-08	4.141913749411914140e-03	7.066246613870812154e-02	4.900988740627027948e-09	7.681734516039216013e-09	4.961877513692457021e-09	1.606111683285748488e-08	6.650564254911802038e-03	1.894627139433261194e-08	7.553513378781342005e-08	1.018545432107014204e-01	1.846290672003253401e-08	7.609933038024335170e-08	4.114036200630500229e-04	4.273093998646944013e-07	8.297056339055788757e-09	1.154796363363916595e-08	8.464687007325752558e-09	2.356887642804334294e-08	4.262742409181436856e-07	3.010924247967682883e-08	1.233118784387751834e-07	2.774649238787522121e-01	2.669440078283303376e-08	1.183060778641402223e-07	7.055950672543569169e-02	1.187235787364070059e-07	1.192516770491087180e-08	1.520190942854460697e-08	-1.922422114273227614e-10	2.849486677478092417e-10	3.713895724073944057e-09	4.973294410592261419e-10	7.809952380319321656e-10	5.517422177440320356e-10	3.063923269830156237e-10	-7.140628416003756430e-10	5.139441845044604098e-10	4.489076417975109163e-11	3.731044841202503603e-10	1.017020561205825731e-11	-1.321021964277355599e-09	-1.671980668109063193e-09	1.470534407101577836e-09	-2.643281599678315446e-10	-1.269799024095493095e-09	-1.050190258149428628e-09	-1.330020670086978052e-09	-1.710046195513036659e-09	-9.942692259903691628e-10	-3.092843560009520828e-10	-1.335621895125521814e-09	-1.742338358197743573e-09	4.801711532685517906e-09	1.634938243972185738e-08	1.237313135384581913e-07	1.374978136799546443e-08	3.920688589220586419e-08	7.003187110287459653e-08	1.736785158529084547e-08	4.754689673497575131e-08	4.689147805552159459e-02	7.739985511317080957e-02	1.224416895034164254e-08	1.957247950936076010e-08	5.172921541528738334e-09	4.649117052062783679e-10	-1.748440846430930594e-10	2.484679388965734429e-09	1.092727191618300600e-09	9.323501969344387192e-10	1.404027711046994445e-09	1.406210269826105966e-09	3.545668192814101036e-10	-2.870496352759328565e-10	1.814641806512893827e-09	8.918129007594704393e-10
-3.114941811879104954e-10	-3.553819236799454331e-10	-3.088777069905232745e-10	1.991391092689249146e-09	-1.000666352585620798e-10	5.399908545022867150e-11	-1.445055266448412249e-10	6.061545921637525869e-10	-3.076137331795029373e-10	-4.920132816673082261e-10	-4.473762068706933673e-10	-6.399722785382999307e-10	-1.026702597845249080e-09	-3.278991430806216265e-10	1.266903698733424372e-02	-6.600645234270796575e-10	2.007893779170387959e-09	8.972033816739961825e-09	-5.988130485332070074e-10	-1.618917804767090003e-09	3.319457895409970438e-02	1.682875326034808383e-01	-5.365103462046333909e-10	-5.198531201090856434e-10	-5.243862087297485267e-10	-1.019275487550828831e-09	-9.638247740670293555e-10	-4.400540171039110301e-10	-6.811327815125473969e-10	-5.590518449453577895e-10	-9.231558625100955008e-10	-6.370121244636172244e-10	-7.159513564223631522e-10	-8.285529478152806624e-10	-7.742034099006838004e-10	-9.197196933832781711e-10	-1.015624984969108972e-09	-3.726059625094385690e-10	4.947216550055244522e-02	-9.187834134451793565e-11	4.283147610296396126e-09	9.485640709988761576e-02	-3.525329805722717343e-10	-1.385819235241247931e-09	1.865280332592781157e-02	3.903023527855467578e-02	-7.510629242182279753e-10	-5.455879356239527567e-10	-5.112494874294942364e-10	4.879181348245476214e-10	4.184054652431909264e-05	5.589985714528319784e-10	5.976847413832683812e-09	1.124321187738869243e-01	3.736367435356331563e-10	-6.193577863332412085e-10	2.066256112996364915e-06	2.985459430572653138e-08	-3.935426402511643370e-10	-1.983324512986555777e-10	-2.941645987983122936e-10	1.331515397871169786e-09	7.019635470230266663e-08	1.255002971776500961e-09	1.088494499199425672e-08	2.489981739693767626e-01	1.303033750880376136e-09	4.348346815126573275e-09	9.569148512415788510e-02	8.529254216752817585e-09	-9.538566328190082976e-11	1.198452525826993991e-10	-1.247735766437984559e-09	-8.948780136504025511e-11	-9.579489778463587519e-10	-1.070052073597565606e-09	-1.267565283810056211e-09	-1.031251055175024569e-09	-1.397127804210593786e-09	-1.227601546756961127e-09	-1.204455286793392896e-09	-9.308275557164770113e-10	-1.318840279322142832e-09	-1.067964968000968241e-09	-1.340413550300246111e-09	-1.674329503330042196e-09	-6.557016417917718333e-10	-8.734067978113924918e-10	-1.382850663132821749e-09	-8.660247660201055006e-10	-1.297979372203301839e-09	-1.088469780573586391e-09	-1.578576882956736937e-09	-1.350582422872938402e-09	-1.549841629984528743e-09	-1.337187104390848314e-09	-6.058978349570176470e-10	5.999776881170769616e-10	7.013807347771801024e-09	-2.591833322937564582e-10	2.772454662283952742e-09	6.313357346055502174e-09	4.596763821875655834e-10	-1.528433750648768322e-09	2.691100632475078303e-02	9.976043959187327892e-02	2.371373400301516949e-09	2.785742447697743660e-09	-1.940727400766878501e-10	-9.521169362752309646e-10	-1.214327351497746639e-09	-5.483287628466018352e-10	-1.082147636506407505e-09	-1.061782824579931524e-09	-1.096965478120914186e-09	-9.504090762497850613e-10	-1.226183353060034974e-09	-1.314540907241268918e-09	-8.695551013814066500e-10	-1.068127607810570600e-09
1.173298749714382378e-10	-6.858188039558820354e-11	-5.598525500127321412e-10	7.226411761670015671e-10	-5.653642616127600923e-10	-6.953080701126184027e-10	-1.364744002339978941e-10	2.290955477342910060e-10	-6.984392239391705193e-10	-6.767826280447561124e-10	-1.392874113839451640e-10	-4.189759162740406249e-10	-8.493553848303677645e-10	-2.551839210523261785e-10	2.086305411444416835e-02	-4.822563276832860340e-10	9.338736592222646984e-10	2.251056616060437063e-09	-5.490664372897747862e-10	-1.390131528922942629e-09	5.591151018611522500e-02	1.384269887510171659e-01	-2.705770404859036842e-10	-3.459364259359452931e-10	-6.254493255751818360e-10	-8.364596581836200039e-10	-6.583580599274163810e-10	-2.046409144009141267e-10	-5.662321753332918398e-10	-4.005132622907156032e-10	-7.908216357712046893e-10	-5.005966921533180674e-10	-6.167970471913136797e-10	-5.309647953463902081e-10	-5.330200587156747590e-10	-6.850648583274063167e-10	-8.316313748157966750e-10	-3.544618553900806712e-10	3.997987364523337278e-02	-1.650301259701823549e-11	2.776392727253525577e-09	9.601902797619926710e-02	-3.127561519996135672e-10	-1.225250306206174810e-09	3.009209343193432109e-03	6.098233531314141420e-02	-6.038827950195803255e-10	-4.631348100456331299e-10	-5.376133273186235419e-10	1.111682274149997508e-10	3.241890139906782071e-07	5.791173073188471478e-10	4.034249542785773304e-09	1.112555415363682410e-01	3.121230802626775347e-10	-5.762920315567291265e-10	1.294140193251575381e-06	2.459372836560023625e-08	-2.885788950230660240e-10	-1.636657178645209329e-10	-4.423844190577070404e-10	5.131288679754519763e-10	1.797112100319545639e-08	7.315535456041478985e-10	7.459939801513261714e-09	2.623787977054672926e-01	6.652460497074961508e-10	3.424629511033630087e-09	8.116285359154486179e-02	5.877636505356426775e-09	-7.312756922730055603e-11	4.192916114542544533e-11	-9.154147816443483479e-10	-5.906413775310136110e-10	-4.797366499811514562e-11	-1.013195832514789960e-09	-1.055363259800078106e-09	-9.735856702419065822e-10	-1.049011135287040430e-09	-1.005443572279702711e-09	-1.041413006528793628e-09	-7.614338098038209248e-10	-1.043161908694441579e-09	-8.561317818482645497e-10	-1.242150992804819284e-09	-1.264413773250791913e-09	-4.375539738998602069e-10	-8.316572869453572418e-11	-1.094631409201271968e-09	-1.132351123950363503e-09	-1.184198721119565581e-09	-1.026121180881749979e-09	-1.139547260805057103e-09	-1.126851538397606114e-09	-1.167828983993691581e-09	-1.028665266503435118e-09	-5.869439433232616140e-10	1.828469428842430980e-10	3.554612434774629040e-09	-1.472289370349390416e-10	1.558351569711174446e-09	3.189969570521494202e-09	2.402340320521369952e-10	-1.174045796443633322e-09	4.052862382273314523e-02	8.948053498157992891e-02	9.279907127236694695e-10	1.912562035644513003e-09	2.130895942647347308e-10	-8.910542142817816133e-10	-9.878633018690298516e-10	-6.367204872242875701e-10	-8.188183257114829171e-10	-7.877842161907195667e-10	-8.964661114212495769e-10	-7.288445233763617444e-10	-9.082207143390858682e-10	-1.021758852513592854e-09	-7.351740720940726445e-10	-8.809147823380830816e-10
4.494688246790285048e-09	3.985669774676733143e-09	4.234860482961818682e-09	6.584077604024076862e-09	5.699115865301864414e-09	5.731818246281219743e-09	5.324843166151372468e-09	8.791858756702777566e-09	5.341835120250203117e-09	3.862076698203044985e-09	4.254610563125544613e-09	3.765455605712113696e-09	1.005367888213611777e-09	4.390436720173019567e-09	1.715528549635991773e-02	4.726658060364018131e-09	1.506079934791626229e-08	3.582959763053117817e-08	4.023625079473359017e-09	1.637543758625236071e-08	4.070716036290552425e-02	1.508822185656601977e-01	2.614776130481100516e-09	3.893335523557681086e-09	2.267453462513368614e-09	1.499792502430575330e-09	1.537209914658314481e-09	2.887718063415777482e-09	2.132334271637930951e-09	2.166229317155822331e-09	1.977055334591141784e-09	2.993246447632538243e-09	1.828736771767145770e-09	1.554660440175164575e-09	2.068356281183543724e-09	1.690662171460790395e-09	1.242120438777600290e-09	4.342752186211033191e-09	3.939447730746217791e-02	7.204387897182267899e-09	2.653122564780480933e-08	9.224639644001179917e-02	5.429848602825012239e-09	2.220615560476962640e-08	7.124492150690098051e-03	5.935004791415437325e-02	2.578768811457426118e-09	3.758960074202035445e-09	2.630251603258909410e-09	8.188968532256741412e-09	1.014679299767255391e-03	1.022287363263098579e-08	3.507956146721856561e-08	1.113877751082827106e-01	8.148483799498051855e-09	3.472036627155820711e-08	6.190800600397602917e-06	4.868983640300325527e-07	4.238179395256616069e-09	5.778028039845460852e-09	4.205325984725955266e-09	1.116065732153732123e-08	2.056863060227933965e-07	1.545204867028344282e-08	5.674052408862845745e-08	2.514623106479418335e-01	1.200372236574508632e-08	5.286114901910968915e-08	9.268154817342309781e-02	6.447246197293833453e-08	5.889286214174295730e-09	7.413550640903862181e-09	7.062416964422110452e-10	5.569154421703707913e-10	2.076117754825498381e-10	6.641969153448003645e-10	5.032967109212415273e-10	7.016482997825140829e-10	4.145421801542445132e-10	5.143914490691539761e-10	5.896523503438373191e-10	2.250035550009549434e-10	3.468154135310103577e-10	8.523289259678851318e-10	-1.707082850476451216e-10	-2.555513756907979015e-10	9.134859604041104139e-10	2.734041824567628313e-10	-2.022867709264132992e-10	-1.984648577564114447e-10	-1.804864913002643769e-10	-7.480311910099870137e-11	-2.478492321799768704e-10	-1.704269063888481037e-10	-2.567524020273356268e-10	-3.389320974547302907e-10	2.456715398880326206e-09	7.280907897499292790e-09	3.961247536708244706e-08	7.366641752658012393e-09	1.985690317661164286e-08	3.753976006126337869e-08	7.912750447239281539e-09	2.669027071817370867e-08	4.641817204656704249e-02	9.016778412156824241e-02	6.658049607197496263e-09	9.586852244228296126e-09	2.523034657985837335e-09	5.379677093420432613e-10	2.983554829480665002e-10	1.573206850555107279e-09	8.227310144140002155e-10	7.569969336549806117e-10	9.783905660874171171e-10	1.263431271142483376e-09	5.411092816003982407e-10	2.719914117836132967e-10	1.222458585747132007e-09	7.616045083852010316e-10
2.133165221538679058e-08	2.162295547150650500e-08	2.507579335947875047e-08	5.339220522717867850e-08	4.012790350601329972e-08	4.620662177529157907e-08	3.264821478115686327e-08	6.498441848555895264e-08	4.531054678011634726e-08	2.103760939109681096e-08	2.007758204070759806e-08	1.812533918340085823e-08	3.272369599938592819e-09	1.942300512382319332e-08	2.787642365356077581e-02	2.627143138345738632e-08	8.166115448515917254e-08	3.193014310755732424e-07	1.775403755229818493e-08	5.748973362016420337e-08	3.286168952850782032e-02	1.477217162667346373e-01	1.100050460411482281e-08	1.765451021312812822e-08	1.004466273943869606e-08	6.917005120725075565e-09	7.880087295508463658e-09	1.657107903569752394e-08	1.146242717275553683e-08	1.239555964154241742e-08	9.906608026276389490e-09	1.121216894233401583e-08	1.032038176112651646e-08	7.700775910663476745e-09	9.420975466704584977e-09	7.841262293071371179e-09	4.921095488501847557e-09	2.113103325597902419e-08	2.699960576772262449e-02	4.120512117144899722e-08	1.285058232958656894e-07	9.378190138669782738e-02	2.236636139187330050e-08	7.945246152538804794e-08	2.199009301132529015e-02	6.131025062920467117e-02	1.145195592757460975e-08	1.800347762877420141e-08	1.079748567666036281e-08	3.295995727609818602e-08	6.494692830152223130e-06	5.970503659760005062e-08	1.738665749437175703e-07	1.094072253010562462e-01	3.646003015936795188e-08	1.459238317425388064e-07	6.728515454530818165e-05	5.636414917992419112e-07	1.851329530053139231e-08	2.575905998795566647e-08	1.804164714334378304e-08	4.560497887252974078e-08	3.612410025480337109e-07	9.127434359291734634e-08	2.787195898301738566e-07	2.679328987915221005e-01	5.700568712679843391e-08	3.460722520468147610e-07	7.928410912294822643e-02	1.781416677428346774e-07	2.454733762257907583e-08	3.079165260189072360e-08	1.935137026982040819e-11	4.655920775519400071e-10	4.220234940752098770e-09	1.333179205532012602e-09	1.489471440044694461e-09	1.496250603660241809e-09	2.582464383395367410e-10	-3.605136061013611455e-09	2.018297321830693801e-09	-8.543139290682621568e-10	2.546077921263949863e-10	2.031496333837108731e-09	-7.754541336631948182e-10	-2.125158261905299941e-09	1.584909543954676970e-09	-5.896568962396206533e-10	-2.195409465020587249e-09	3.749390382312946663e-10	-2.156700442181601291e-09	-4.228092956977559361e-09	-3.122359375149918387e-09	-3.779415091104154193e-09	-2.778359125049738411e-09	-2.020763694164586023e-09	1.024508324196180390e-08	3.193653077803828793e-08	1.842559162493303605e-07	3.945307435389210549e-08	1.024515707337625251e-07	2.119695686342659532e-07	3.678633959381489763e-08	9.799805040163495024e-08	3.674035309768125535e-02	9.401523789213524218e-02	1.763616782198193480e-08	4.548219305838605571e-08	1.002883566052422197e-08	1.016659170737717831e-09	3.304593394227125591e-11	6.615742289063439861e-09	3.223996022381028728e-09	3.018604821534866987e-09	3.443170222928822755e-09	3.171839070673708698e-09	1.714695513357509500e-09	-1.038239732550166381e-10	4.223070158779935755e-09	2.241175417332314997e-09
-4.716935626874095034e-10	-1.060002957692927110e-09	4.664543135828942001e-10	4.382017834703977809e-09	2.002572445295155493e-09	4.280426398050507726e-09	-9.771549683487496914e-10	4.661135499921902267e-09	4.193455551141640292e-09	-6.525047852498071863e-10	-7.953964774541222239e-10	-1.062793600478883102e-09	-1.116322351105881183e-09	-1.305853031372066917e-10	3.010474845330511628e-02	3.819740010108584545e-11	2.405016035092651106e-09	2.390864732523253590e-09	-2.768811014468673819e-10	-2.020245389851977546e-09	3.668313685246872569e-02	1.397162107555537935e-01	-1.829159291343774768e-10	-1.200756638590757901e-10	-6.597784622734281956e-10	-1.098183427882065464e-09	-9.312069350011888943e-10	-2.586863671381158368e-10	-7.485192005628506736e-10	-5.987060244687339127e-10	-9.472784474948047078e-10	-7.422001888688218267e-10	-8.214680323809231435e-10	-8.233125123935775252e-10	-7.128772746764250214e-10	-9.147644595224024248e-10	-1.146881789704162975e-09	-2.946497992374285256e-11	2.916159548739049104e-02	1.465644670080856529e-09	5.845146511336631006e-09	9.539127090343559046e-02	1.271092950617170517e-11	-1.652414253095977588e-09	2.492670267843177622e-05	7.655524203258888549e-02	-6.478022368937881422e-10	-3.643946277013199482e-10	-5.591106031863786436e-10	7.446683957377509724e-10	1.553931141133314994e-06	2.817470625197398778e-09	8.079592653634731111e-09	1.168632662163499175e-01	9.021107212256905913e-10	-5.195039757500821480e-10	1.910066258522487967e-06	1.615253923351906354e-07	-4.316068018872218836e-11	2.873718281319022275e-10	-3.293910673819932620e-10	1.442543354851168720e-09	3.836023672725552349e-08	4.846215553551734123e-09	1.439832957099928278e-08	2.333149667099690405e-01	1.942805098353186306e-09	2.506205183244295634e-09	1.081842283756875855e-01	1.331229648934754052e-08	2.568282486920044661e-10	5.515793540212828905e-10	-1.160869650022317370e-09	-1.270914239703156906e-09	6.807595132683661934e-11	-1.311937855403801016e-09	-1.412437639903152833e-09	-1.317434256494578366e-09	-1.319071366228429236e-09	-1.376042849974338805e-09	-1.456878037343039411e-09	-1.365609961844017020e-09	-1.317396833368820599e-09	-1.015896414695886460e-09	-1.602704827763125642e-09	-1.532471983133983145e-09	5.774284369291141361e-11	-9.591486053802551670e-10	-1.711428693099093076e-09	-1.590093844515010257e-09	-1.558967329460838446e-09	-1.419261342267195654e-09	-1.798065560588262776e-09	-1.764866151173549197e-09	-1.732082785980171366e-09	-1.424751346966226888e-09	-6.726394658215947245e-10	7.369424345190621284e-10	7.439966782999062870e-09	6.225538925644475088e-10	3.288605691609415447e-09	5.953538804635413579e-09	8.133214663110843225e-10	-1.638869160557854460e-09	5.080493161530628271e-02	8.319177364681354381e-02	1.473514557570024455e-09	3.265432645852977128e-09	4.827643027327913534e-10	-1.250458661586453697e-09	-1.407775954212048785e-09	-8.705748844476739993e-10	-1.167978557132524153e-09	-1.149293296488784859e-09	-1.150130173569154031e-09	-1.053311894720851999e-09	-1.314096714288752667e-09	-1.439384762240827889e-09	-9.312716958202601438e-10	-1.188900606961415844e-09
