-4.978775085441780591e-10	-4.440143908642626681e-10	-1.101415390731568844e-10	-4.423463603948742545e-10	-4.819556532790236856e-10	-4.347263070668971738e-10	-4.213344333655777972e-10	-4.541538329122314965e-10	-5.333371273375189959e-10	-3.999950858705378932e-10	-5.115245060284866122e-10	-5.448195310141455183e-10	1.129855633832746086e-10	-1.746333709950589494e-10	-3.039589504084989880e-10	-3.368338931073261223e-11	-1.529909056295769405e-10	-1.677104377061420866e-10	-3.859870420186661333e-11	-1.892076046957787313e-10	-2.461179889550577471e-10	-3.221236264280611405e-10	-1.916347838218611594e-10	-1.788552727585342646e-10	-3.641235996319673275e-10	9.247699195203132986e-12	3.095097190132869297e-02	-1.934751980988203927e-10	2.311684052925979852e-09	3.160636788858939283e-02	-2.820009059834272506e-11	6.124148876050987402e-10	7.079839697106621310e-02	1.715196505402835636e-01	-3.691848956668222935e-10	-9.811897661673872678e-11	-1.961225128500407243e-10	-2.867631076448043648e-10	-3.319012119480501243e-10	-3.160746026553380612e-10	-3.014268621518102067e-10	-3.059737538525259106e-10	-2.347753084090846487e-10	-2.920170341844042759e-10	-3.078539490648994538e-10	-3.862487275220187752e-10	-3.232611250680383198e-10	-4.399229651008799912e-10	-3.022793868900834683e-10	1.174827128509569171e-10	1.752729944470985887e-02	-3.121913586291484222e-11	2.352184875457493270e-09	6.742424049675084519e-02	6.674667719205925685e-11	7.047106773095475662e-10	1.747064784231455821e-08	5.752066912000768778e-02	-2.713253329634618255e-10	-2.636099107259863296e-10	-1.511379412845277725e-10	3.647494587672338427e-10	2.112385738867578025e-08	3.227258757922868353e-10	3.870710940626659020e-09	2.684285128844490220e-01	3.691402855869897555e-10	1.252895532855810694e-09	1.515555849932547730e-08	5.952403114772611525e-09	-1.548178046819713700e-10	-2.571530478367412111e-10	5.140856746314643571e-10	7.418197960454565624e-10	4.428619089346634679e-09	1.951350757896399840e-09	5.486929002597110018e-09	1.025661896277917651e-01	1.278889041962544505e-09	2.825533205948844788e-09	6.037418080749831936e-08	1.942566228333051362e-09	1.392874605552344383e-10	-5.640272349097627148e-10	-3.938233613059561287e-10	-3.400337176535343681e-10	2.271560069657491612e-10	-3.965111910866928501e-10	-2.505992406255255274e-10	-2.096831668449971770e-10	-3.618043017413524573e-10	-3.126991234189339523e-10	-2.315096365502098929e-10	-2.687743767682751543e-10	-4.136472813636031504e-10	-5.452181071487500589e-10	-1.356614234253194954e-10	4.679475044740675784e-10	3.566938910729938907e-09	-1.456318273688663115e-11	2.171366031299807642e-09	5.734950368446749327e-09	4.202909420706627225e-10	1.456316711000151749e-09	8.313840333886757250e-02	9.851913360042854895e-02	2.248128818653346951e-09	1.109394425587583195e-09	-1.112704805151243094e-10	2.320606341612248575e-10	1.146485904842661661e-09	1.457160272272274371e-09	1.601207935070130749e-09	5.384663517929052275e-09	2.031209285416570823e-10	6.664836480463851814e-10	1.410345353961545137e-09	7.395320802744808512e-10	-1.990373678528503829e-10	3.203608916737952675e-10
-3.529341412695608745e-09	-4.116775577070053977e-09	5.551502120735328247e-10	-3.381672582577176203e-09	-3.647430459316140908e-09	-3.222549687007293907e-09	-3.350671329835541502e-09	-3.051378817893391402e-09	-3.867200611623467759e-09	-3.890191961954286399e-09	-3.695024063948314441e-09	-3.834971118766639449e-09	6.452180949423578816e-10	-8.379908883008601307e-10	-2.442944122896956484e-09	1.080584737897454976e-10	-1.170598204933639887e-09	-1.337347441978351440e-09	-3.722739097248696787e-11	-1.455674910107320019e-09	-1.929165051220491699e-09	-2.561274624503578736e-09	-1.266671739362593260e-09	-6.867041844242648679e-10	-2.335463593672980310e-09	1.264177716290001739e-09	3.177866657415762131e-02	-2.355080442525487663e-10	2.688805843525974594e-08	2.096275319030498508e-03	5.694676113663261848e-10	6.299382026456710181e-09	9.791175071686682163e-02	1.710264370358966224e-01	-1.522843951351378309e-09	-2.076288477095124417e-09	-1.084442588338563267e-09	-1.789115863518317283e-09	-2.516661500060720367e-09	-1.746853651086928091e-09	-1.882804261953351143e-09	-1.870711618134045379e-09	-1.413839133357297600e-09	-1.680885180212224774e-09	-1.875447596087115410e-09	-2.729956934389214432e-09	-2.010101504406452313e-09	-2.761204828468787922e-09	-1.888395127130406056e-09	2.001997088616352631e-09	1.419337848168972585e-02	2.041151412755329524e-09	2.263635680695374966e-08	1.042329691628277738e-01	2.369489686392926239e-09	1.101476680871037213e-08	2.772000477430638585e-03	2.914001237835921534e-02	-1.063270408484754999e-09	-3.112293120812038714e-09	-2.995957579973069311e-10	3.925042546377490627e-09	7.950488851460112954e-08	1.092639061566937016e-08	3.681128735038016823e-08	2.775036762904726784e-01	5.341970119232640290e-09	1.668375772813538674e-08	3.419017685800249510e-06	3.440790027766047790e-08	-1.209099384375577633e-10	-3.951936697026256836e-09	4.841950868510835183e-09	7.477938357861126067e-09	3.317162743479947301e-08	1.165963619813561565e-08	5.502245195897998747e-08	8.930464605564179814e-02	1.580874583837781331e-08	4.043750235134147904e-08	9.669871637540326109e-03	1.596684168911755641e-08	2.649588862053372511e-09	3.658701753828703078e-11	-2.882315909596044909e-09	-2.782852765645649182e-09	3.532932396913412416e-09	-2.492685015614255457e-09	-1.762544858827110556e-09	-1.837902049970669069e-09	-2.483330560445016922e-09	-2.110799786632528169e-09	-1.816533619383555775e-09	-2.678094440145288207e-09	-2.615702781680714735e-09	-3.585441764455727442e-09	2.360494501301324232e-10	4.436558817609255242e-09	2.667012193679317636e-08	6.228675019830937297e-10	2.068478359651185556e-08	5.388610694595199357e-08	5.655283699289434770e-09	1.747297249790820568e-08	1.180365621296798617e-02	1.585625481388789060e-01	1.684895049336210385e-08	3.051924719732139353e-08	5.945230253814179053e-10	2.084709851870578673e-09	1.443677962321784614e-08	1.728971791534456338e-08	1.661670696819667073e-08	5.551518135938139468e-08	2.954010879934238737e-09	5.975484876966000725e-09	6.363461831504637843e-08	3.302990118698936406e-09	-4.989718160474486810e-10	-7.089146699955697294e-10
-4.625808688338524225e-10	-3.987506486383477950e-10	-9.818168803468922365e-11	-4.643885342747586181e-10	-4.245442261890867786e-10	-3.825914960212500160e-10	-3.882278330175880274e-10	-3.876486299355065350e-10	-4.990980938000744904e-10	-3.575679361182260138e-10	-4.641803931752626734e-10	-6.086545109596232846e-10	4.733214354483511835e-10	6.849178553009305115e-11	-9.223961441205001164e-11	3.864588910621861867e-10	1.683681533043728898e-10	1.324753753076559898e-10	3.630321678507308092e-10	1.488540695131327025e-10	5.021009337633611005e-11	-1.086183302182807249e-10	1.944129772699359012e-10	1.562048051202387564e-10	-1.705659596629865136e-10	5.909311134752215284e-10	3.134149471846562479e-02	8.103296167517408290e-10	5.795478737501004341e-09	2.543330094577819084e-02	5.008957001798325512e-10	1.788791710290212130e-09	9.066548663818707610e-02	1.624929775834232648e-01	4.907348079074276760e-11	7.912130734712240740e-10	-1.414505674506461925e-11	-9.630443974616031666e-11	-9.633002308095760002e-11	4.794895415127220413e-12	4.954152547977137190e-11	5.131033485010220801e-11	8.335132299359924696e-11	2.639301703727460223e-11	2.723427172985678028e-11	-1.539651499511603011e-10	-5.092098002376840218e-11	-4.074178720106267762e-10	-5.490878796342188509e-11	7.764852789371828643e-10	1.858017798359446263e-02	1.579822339274048418e-09	5.742262562481149143e-09	7.866883410157873846e-02	8.101396147836463588e-10	2.447624698590653933e-09	2.385157027983438200e-07	4.057726854397390726e-02	1.638518790441740173e-10	1.021073693849659118e-10	2.741605514691056813e-10	1.294933757499404050e-09	4.065286748132444147e-08	3.111217382868484776e-09	8.888040988501317385e-09	2.751793448042073043e-01	1.522723884695718229e-09	3.977002066765065510e-09	3.421499085974546500e-07	1.446666023347949570e-08	4.402525686352255846e-10	-2.201113319061660494e-10	1.116958589445674180e-09	2.271154727062130058e-09	8.731975205297231960e-09	1.036979581142366433e-08	1.271508795381856758e-08	1.005957824359096781e-01	4.305033263807280766e-09	1.094210408211224050e-08	1.299707026386948340e-05	5.357780494427103303e-09	1.162864644714662772e-09	-8.757632172275291052e-11	-2.878377048751388682e-10	-1.904838441270860585e-10	2.934596249318134572e-10	-2.495632097552583955e-10	-7.529650563419091619e-12	9.109071184545919321e-11	-1.971966919684434004e-10	-1.245374402539452616e-10	2.370186665768278198e-11	1.559172776917311457e-10	-2.408497833575040856e-10	-5.089087069781945499e-10	3.058742446745843948e-10	1.181655789871521577e-09	5.805587244669499199e-09	1.305519781525347424e-09	4.483143869661548674e-09	8.713839588878764748e-09	1.422650968814828670e-09	3.488268487357097647e-09	5.873326815403136225e-02	1.177182418965611738e-01	1.062916962793620114e-09	9.528747131476104254e-09	3.924895144442288408e-10	1.107809621834247041e-09	8.463213325668840048e-09	5.765850489654734615e-09	7.258630552525770726e-09	1.392167921334851050e-08	1.235707035023944596e-09	2.837831624939228707e-09	1.238453229417121344e-08	3.460202934772436046e-09	3.929733123685104494e-10	1.737469939186904143e-09
-6.015228243172529372e-09	-6.305569992993565736e-09	1.134971843929386657e-09	-5.674691086098080350e-09	-6.002265052617514478e-09	-5.561201373176750218e-09	-4.569230248872686855e-09	-6.508155068838471073e-09	-6.536290425458676725e-09	-6.103578945190533076e-09	-6.358080525217869645e-09	-5.464055371838299829e-09	-1.323283454863250904e-10	-2.352229466702856186e-09	-4.370677632608353626e-09	-1.250997479515428152e-09	-2.898313820967696421e-09	-3.064993565136357663e-09	-1.745440640322804422e-09	-3.405057522730448282e-09	-3.942432870716204580e-09	-4.424219157538086157e-09	-3.307322582117979028e-09	-1.912416363899696073e-09	-4.765857293382585177e-09	-1.502708940020320216e-09	4.111590606254047348e-02	-3.203474313352838754e-09	2.731143594155627068e-08	5.989130653099352004e-03	-1.607981365476476552e-09	4.607218697315083958e-09	8.606019545256814174e-02	1.645776975005546761e-01	-4.816291675305212935e-09	-6.604126125527225926e-09	-3.142531059369170631e-09	-5.026472653107102895e-09	-4.540359198949517822e-09	-4.049747573297739281e-09	-3.915224231175099886e-09	-4.245198930937375310e-09	-1.624691156413499235e-09	-4.029484783186125412e-09	-4.328437501855673438e-09	-5.162420366333656599e-09	-3.653890169293848956e-09	-5.054537645538715803e-09	-4.469186560310487961e-09	1.697391195446098883e-10	7.480091999364659079e-03	-1.825944402565324646e-09	2.209001111601784948e-08	8.374106509446901936e-02	-8.443256191244133454e-10	5.180257092454154839e-09	9.111035037577935007e-08	5.408981801416268276e-02	-3.978292335829856625e-09	-6.751204142645099690e-09	-2.787753674144973952e-09	2.353120613354921589e-09	2.877316087669142773e-07	7.473998263027313685e-09	3.700064011263155188e-08	2.854068962047233704e-01	2.211663555639896176e-09	1.057531141968909101e-08	1.250519031184260777e-07	5.427173783944817425e-08	-2.732282068975298498e-09	-6.692268674978603817e-09	-4.927721293246148073e-10	5.981252667043512460e-09	4.411756699417041751e-08	-2.792685210077758042e-09	5.209579108804895738e-08	9.563072799111151101e-02	1.204228048753974629e-08	3.041007945882379236e-08	2.103377747851290041e-06	1.825405538264855356e-08	8.469820556084951608e-11	-1.917387739641521012e-09	-4.932900080519115536e-09	-4.335609707543894208e-09	-8.131404679825168994e-10	-4.416659218523808688e-09	-3.746492840435032679e-09	-2.673679774024801357e-09	-4.920399256618861298e-09	-4.488484928686691580e-09	-3.275665110458258115e-09	-1.863499353604336355e-09	-5.071756544003635397e-09	-5.719441655973929774e-09	1.782116299248946374e-09	2.597275437320019502e-09	3.350190788361079251e-08	-1.455060383603587291e-09	2.064266441480719522e-08	5.789197821743581209e-08	2.504095157901221530e-09	1.241522917009097143e-08	6.948948116360609273e-02	1.064159992700392660e-01	3.161264571345304162e-08	1.990090536651925287e-08	2.715750514096968346e-09	3.854601708232942730e-10	2.080188921206381812e-08	1.148908060830027807e-08	5.144184307946036385e-09	5.541429057788003808e-08	-8.457338262857128964e-11	4.411536620289586406e-10	2.904048792467013468e-08	-1.473169095761055786e-09	-3.204788152928888851e-09	-5.387160584970864896e-09
-9.023834187946067426e-10	-8.543783777666092660e-10	-2.197154622001994953e-10	-8.464101869452348137e-10	-8.784899002799743767e-10	-8.391766222416483234e-10	-7.976013881131106582e-10	-8.145756368736990086e-10	-9.923128781515835130e-10	-7.527142789429281301e-10	-9.167038621923227671e-10	-1.085685173617379511e-09	3.689683200793394739e-10	-2.092930935201223065e-10	-5.362500699869448003e-10	8.028296301437153043e-11	-2.362264978954510939e-10	-2.385918243888976400e-10	8.431343882034503583e-12	-2.815352535436081165e-10	-4.080085637997458227e-10	-5.710274546256130682e-10	-2.122981171049612307e-10	-2.038381893274279931e-10	-5.868309677129052751e-10	2.792443013688482924e-10	3.586290875755490659e-02	-2.665757998575993364e-10	6.094926534785755398e-09	2.032584401965203263e-02	1.927066274813608494e-10	1.677977730376017126e-09	7.607974344374195119e-02	1.721160862031897998e-01	-3.966881481252923166e-10	-4.810884050581159195e-10	-2.929589113621127245e-10	-4.410908012989849647e-10	-4.816252440605927275e-10	-4.771554088870106594e-10	-3.913501486646498643e-10	-3.782431609716682754e-10	-3.274362483674403114e-10	-4.917018807169472851e-10	-4.411708102381489972e-10	-5.832887108192836239e-10	-5.352680942295038477e-10	-9.269279815722590210e-10	-4.750755459591742198e-10	5.325837336141319101e-10	1.180799058582958361e-02	2.662734165100073148e-10	5.948323905366758146e-09	8.597811570921082280e-02	4.104732977575315548e-10	1.879110037277274950e-09	3.700864553536033193e-08	5.635880433016821067e-02	-2.749228246786322037e-10	-9.912419442458479182e-10	-1.105449046684237287e-10	1.180704741612248517e-09	9.070203786305231465e-08	1.442866820616867359e-09	9.407506765956864621e-09	2.688828638867441501e-01	1.113600500594034086e-09	3.191410301353728570e-09	4.068998407506941720e-08	1.381930855000581619e-08	9.371810481331975198e-12	-1.098382894683577626e-09	1.172985146967901020e-09	2.353354805985355482e-09	1.262929910144658621e-08	4.823668062590095017e-09	1.350409533952238390e-08	1.003571362783762383e-01	3.164890348898345480e-09	6.523127691511346910e-09	9.491206949601854525e-08	5.487627215211680588e-09	7.816325923837506607e-10	-7.101185926442636183e-10	-6.980466835304448841e-10	-6.714530075416781153e-10	7.453725827910257739e-10	-7.036080204936293184e-10	-3.864191856732641528e-10	-2.640690914995920914e-10	-6.237041768514844801e-10	-5.327898940226721737e-10	-3.376050139186557971e-10	-5.370731214222695749e-10	-6.762115999463083040e-10	-1.099007869465105865e-09	9.789608299672008664e-11	1.657472069137089718e-09	1.339523164106284327e-08	1.306714846215729321e-10	5.358811488936249708e-09	1.379359111585775510e-08	1.236774890176230962e-09	3.625249822840590845e-09	7.463858300418692304e-02	9.759149875764651372e-02	2.941710858068271750e-09	6.219294622383285437e-09	5.969921063790692277e-11	1.026032230854187056e-09	6.363992661946365001e-09	5.001228674584444413e-09	6.343393646919049876e-09	1.145576394064830810e-08	8.464999075461352484e-10	2.384148813458587886e-09	6.440588641241421215e-09	3.346448152364124365e-09	-6.826139628673693457e-11	1.451489650859649738e-09
-1.647212287090635808e-09	-1.980928442232769111e-09	5.704077934825831763e-10	-1.684314758774552866e-09	-1.669366967214678710e-09	-1.585119933361633162e-09	-1.297452675880814927e-09	-1.844176133232429578e-09	-1.904298988646503780e-09	-1.846774861337685221e-09	-1.792015991312765933e-09	-2.110472427736743600e-09	1.315811019152255701e-09	-2.611033912754530128e-11	-8.253867200412936308e-10	5.979088466839276381e-10	-7.361557574637605106e-11	-1.821993179089420280e-10	4.912809155832417674e-10	-2.171447198737932768e-10	-5.137287937088798916e-10	-9.873380161785065242e-10	-9.881894535809093918e-11	3.977022146808634830e-11	-8.961785069690131408e-10	1.440475563485851644e-09	2.278555306430554706e-02	7.673350749062262986e-10	2.029712351807479407e-08	2.398359107103183608e-03	9.844718426537229360e-10	4.606600561732250421e-09	8.737117511559784611e-02	1.955455763159194560e-01	-5.157923631105825034e-10	-6.939384233727629566e-10	-9.297025899134352010e-11	-8.972780447436670727e-10	-8.355247339246821871e-10	-5.339024802977650353e-10	-3.649939605311128282e-10	-4.133248153332617838e-10	-2.443934198571478781e-10	-3.993739636078430035e-10	-3.981352644805773446e-10	-9.348304745801021451e-10	-6.566547267864990459e-10	-1.307641572803167040e-09	-6.087117425214375408e-10	1.752148839893885337e-09	2.424739150018165659e-02	2.067470978620533142e-09	1.625052714425559962e-08	9.028020736352551645e-02	1.753911482474620788e-09	6.060618933494675232e-09	2.299209318120144867e-07	2.788595705379735140e-02	-7.129875084400610366e-11	-1.685812449522041754e-09	3.095166143980825872e-10	3.405796126456893330e-09	9.125537770648607722e-08	6.998965465988536913e-09	2.525661565496771904e-08	2.750241135019403371e-01	3.672705900789808347e-09	9.749118201589860764e-09	2.638722947600822125e-07	3.239623696476558717e-08	6.485258723607058874e-10	-1.498133494081915167e-09	3.275794955401805634e-09	7.067202202400423994e-09	2.836816843951413701e-08	1.668306552651458361e-08	3.712297603800679839e-08	9.873612002193124515e-02	1.095052988827987373e-08	2.650336849507385407e-08	4.893133020872571552e-06	1.477027758866387357e-08	2.786943528216197523e-09	6.191103249868313317e-10	-1.234896748790549803e-09	-1.105176836630653988e-09	1.982876853667806425e-09	-1.051918920695907845e-09	-4.146682566698527237e-10	-2.872729308647781995e-10	-9.955890983968009241e-10	-7.705818825465303579e-10	-4.241399654375827778e-10	-8.860099825733680237e-10	-1.211353989763424638e-09	-1.871012786120483175e-09	4.801177247273409950e-10	3.605999987992536375e-09	1.761352151398550270e-08	1.697440405688216263e-09	1.361999771565125953e-08	3.050517818734669237e-08	3.582367545960473768e-09	9.454557609769172329e-09	4.906779555198322734e-02	1.266517703573329379e-01	5.937451612999570667e-09	2.206409876768970651e-08	9.939514571105679117e-10	3.177876820744237238e-09	2.179923959864666879e-08	1.588758379027769899e-08	1.967404727760944988e-08	3.196866788692734177e-08	2.927722649361457425e-09	7.220032853704730220e-09	3.202679086756406512e-08	8.873581944932113037e-09	5.565953260091612570e-10	3.222264996849523341e-09
-3.556939778656447728e-10	-3.930147413405592394e-10	-4.343451213843368304e-11	-4.156573611476398592e-10	-3.761372497095322791e-10	-3.427266951953814312e-10	-2.888640378697510966e-10	-4.143183613851465645e-10	-4.137569682286719435e-10	-3.765872767350156250e-10	-4.025821323649847958e-10	-5.727214063449090458e-10	3.183250173692671128e-10	-7.828576360776962256e-11	-2.134758177436491013e-10	4.215419423448801179e-11	-4.905227384708789810e-11	-6.582832020434979394e-11	5.437576803627180878e-11	-8.328814671769651825e-11	-1.429705578792598297e-10	-2.330715236665874610e-10	-5.941734426094432669e-11	-1.078496927229352124e-10	-2.164061636660084710e-10	2.274161382164204933e-10	3.593325984121949895e-02	-6.035788965071141451e-11	3.461032788506069431e-09	1.362876244126549202e-02	1.708832865231773449e-10	9.257035903461431212e-10	9.259083809883271454e-02	1.654229458595356528e-01	-1.204803827580775899e-10	5.354626234764706640e-10	-1.405454722468475410e-10	-2.075516382469519531e-10	-2.440602091293239950e-10	-2.731327918076172547e-10	-1.560892463253032694e-10	-1.578901982635840570e-10	-1.251809085925645660e-10	-1.779348780090432664e-10	-1.875118884458230644e-10	-2.618569693216286206e-10	-2.053256107927306233e-10	-3.512281520591341641e-10	-1.485017505298375066e-10	3.960807418934032693e-10	9.679581450286673869e-03	2.253171794395155010e-10	3.086726226433577400e-09	8.704502760578615439e-02	2.588852563440968714e-10	9.661662972601212234e-10	1.416516012999664897e-08	4.831237052108380836e-02	-5.621688336006667797e-11	2.377063436874882777e-10	2.681308960967628022e-11	6.447203422722535493e-10	1.654379370107522018e-08	6.160350745415616734e-10	4.960098335412096822e-09	2.688959369446251579e-01	6.156533965634888851e-10	1.594312191582674531e-09	1.301273453178501245e-08	6.400702029339867870e-09	1.021351289062916115e-10	3.400767207825567486e-10	5.849336960405947457e-10	1.204990047172835434e-09	4.545718813511142818e-09	3.582111611749755918e-09	7.148684733720802270e-09	9.591672831243895636e-02	1.656487032675685200e-09	3.320115530912118464e-09	5.150192130873927229e-08	2.395364004045505375e-09	4.800031478610909181e-10	-2.628167850398958795e-10	-2.757559450679420480e-10	-2.542862261964262252e-10	3.740432397605014256e-10	-3.219554407115810848e-10	-1.015710855402689626e-10	-5.064693662639416682e-11	-2.312047699341945650e-10	-1.811877076874980067e-10	-9.034523515742402444e-11	-1.699677772759051483e-10	-2.652249188945833714e-10	-5.572207785623227952e-10	5.487802691501806865e-11	6.433283784868832880e-10	3.985126104988710007e-09	8.384514721520146327e-11	3.045859939030457682e-09	8.261887827669501286e-09	6.875644473408863941e-10	1.894448019517030000e-09	6.587891733766876312e-02	1.166954558158405514e-01	3.304912026048640582e-10	2.416550624767579812e-11	5.625176037979531346e-11	2.108442474491072396e-10	2.438873934933694163e-09	1.463786810335494763e-09	2.146295109483758497e-09	9.541184477416053647e-09	1.700250788646855975e-10	4.726366262534294633e-10	3.582164569617124826e-09	7.412974629458987732e-10	-1.207455731821879906e-11	5.068819613683607939e-10
-2.745498730776890522e-09	-3.598065911347257543e-09	1.920934294905870318e-10	-2.864962053756286131e-09	-3.434391176126274366e-09	-3.259871770336268419e-09	-2.723158307559430126e-09	-3.702559238272743078e-09	-3.699838445670004629e-09	-3.538596630327699431e-09	-3.490051008687782711e-09	-3.276558105749085086e-09	6.479253232622810071e-10	-1.483156736988314830e-09	-2.465111814360440390e-09	-6.094513810354491243e-10	-1.586157711853699722e-09	-1.693994756247548470e-09	-9.601760667397380869e-10	-1.818993322559457542e-09	-2.151202411717341473e-09	-2.591332274756871234e-09	-1.696548320062515272e-09	-1.257808977091166258e-09	-2.522864997445018642e-09	-2.564894389017646027e-10	2.839550209930485902e-02	-2.126233379808008660e-09	1.492466150165422484e-08	7.669764001636411414e-03	-7.491195327459944462e-10	2.932678371430281127e-09	8.328362360879572324e-02	1.810839008350615120e-01	-2.106697343578924217e-09	-2.441131933366134928e-09	-1.641823201551763335e-09	-2.873442902922543720e-09	-2.801261570882249403e-09	-2.262761540602549776e-09	-2.267083860342432324e-09	-2.333092368452763488e-09	-9.111929586337567283e-10	-2.416526232282868033e-09	-2.452690422771842471e-09	-2.847646002126164937e-09	-1.970839681755994851e-09	-2.852082628332211017e-09	-2.313243592624379213e-09	1.098213053873448467e-10	1.430131953643113893e-02	-1.399231339060412272e-09	1.282161555926531420e-08	7.392241604801673416e-02	-1.738560494509353864e-10	3.519467637534348177e-09	8.666535137864594040e-08	5.071077734802734160e-02	-1.896757857916635564e-09	-3.695072515941519179e-09	-1.301054847079859979e-09	1.660070686402437463e-09	1.433957184950133652e-07	-1.938395199323192361e-10	2.177014042903367965e-08	2.820400727379914207e-01	1.585086997473620453e-09	6.617040282009829416e-09	8.548219888123570190e-08	4.114800280604450635e-08	-1.145916466942953145e-09	-3.234283604340990121e-09	1.792044909339206251e-09	2.668070564436459017e-09	1.906704039823674962e-08	3.962946571515307689e-09	2.913130026218628801e-08	9.588479773883480661e-02	6.912704885419678427e-09	1.639319475247306654e-08	9.585846719007621544e-07	1.089062734571239784e-08	5.276192469513461873e-10	-3.801130037424214018e-09	-2.965953077442049989e-09	-2.188499230744957747e-09	2.201200106573416392e-09	-2.742142981400890175e-09	-2.130780179786665501e-09	-2.171235833385005331e-09	-2.660364682121400909e-09	-2.380639525070156098e-09	-2.139593725912771472e-09	-2.850946034150307854e-09	-2.751455024406038406e-09	-3.287407827329499479e-09	-7.828572286217571325e-10	2.152012028938844363e-09	1.572038300239668053e-08	-1.385110375858401203e-09	1.231475357867175237e-08	3.351597604544019363e-08	1.827674806587912316e-09	7.664502337070806868e-09	7.420370535846901316e-02	1.085026627896125001e-01	1.407794922063008705e-08	6.784233396826989453e-09	-6.355928314839498870e-10	-1.353784242856167512e-10	3.920314740548526730e-09	2.712556943731896477e-09	3.785638150699300556e-09	1.631000868986024429e-08	9.924751865246355752e-11	1.416123886805497571e-09	3.119482858317994799e-09	1.507158888942089776e-09	-1.576878417027461773e-09	-2.138050846494785796e-10
-1.629609966106893670e-09	-1.722268633152276113e-09	-4.759420169222510012e-10	-1.931570960835243882e-09	-1.717884897025915511e-09	-1.406691063704069697e-09	-1.291591597861766630e-09	-1.968563080632183684e-09	-1.877748679747395550e-09	-1.887046225586587324e-09	-1.895154270045211430e-09	-3.022312650124331549e-09	1.938413512149301696e-09	3.289370093241897913e-10	-6.716839786676326296e-10	1.045059436996184073e-09	2.761382496262662544e-10	1.101879998996533291e-10	1.107588220727594921e-09	1.648762196155757388e-10	-2.325876795044245661e-10	-8.211932151015042486e-10	3.586995914029678492e-10	2.214183617738202513e-10	-6.396316219715823764e-10	2.527125531606378009e-09	3.780276804983125072e-02	2.602375683102035297e-09	2.639332881512986703e-08	9.639423689878708242e-04	2.039273238419559035e-09	7.209363139063344038e-09	8.067165921611751944e-02	1.804113478534463133e-01	3.166396100338877019e-10	6.490421358056501792e-09	-1.337530425498344900e-10	-6.536816819624257213e-10	-6.607433821618860556e-10	-5.069467336766361572e-10	-6.005368713541519619e-11	-9.270549572891337764e-11	-7.226811672891505610e-11	-2.274687264483470062e-10	-2.712109667137616798e-10	-8.729923772482107652e-10	-4.608556647958744920e-10	-1.754164324939221460e-09	-9.479700043850609630e-11	3.834075615189347916e-09	3.031916921912892766e-03	4.548218790732429579e-09	2.263156539197551181e-08	9.967987525854415942e-02	2.850698542862478568e-09	8.200678280356894153e-09	8.837137338697643259e-08	4.342744890128215351e-02	6.193695279768009845e-10	4.912067076261341943e-09	1.076955288607435110e-09	5.619639612040703337e-09	1.601147959190884243e-07	1.001732180814770055e-08	3.548906468718646289e-08	2.761481959632709482e-01	5.370029374207136755e-09	1.277124651431312949e-08	1.336157822376918447e-07	4.353247637108641980e-08	1.648789916125068394e-09	4.375451130139726202e-09	4.522922704185145500e-09	9.509148217091654388e-09	3.123857486168348971e-08	3.746212462255965538e-08	5.201201766166392754e-08	9.403384214925067375e-02	1.306475256373330704e-08	2.609880500447435065e-08	3.957348939457320042e-07	1.750444205978915173e-08	4.137580003197971750e-09	2.332799712035928268e-09	-1.116302312683516300e-09	-6.917716704204685979e-10	2.354490768288498090e-09	-1.209639766718542024e-09	-1.069238158349300438e-10	-1.396210882375030827e-10	-8.018138900056670189e-10	-5.079965176501150313e-10	-3.163315958234540649e-10	-7.507796770656285667e-10	-9.399753277254423003e-10	-2.573589622871536780e-09	1.253076311447540514e-09	5.472222091556375844e-09	3.223847385603304533e-08	3.672648231461384852e-09	2.104295956693443663e-08	5.203237117402400573e-08	5.691766012085184487e-09	1.395602585877580909e-08	6.190224853209505551e-02	1.219252671588718639e-01	5.333577040666074107e-09	3.301020230969977704e-08	1.355869152893728967e-09	3.099213093162979849e-09	1.606135709956574047e-08	1.188856103186286862e-08	1.290900377327727804e-08	5.730057124835946049e-08	2.681352434808021968e-09	4.025384366211468372e-09	3.686484444518195130e-08	2.963971399450668615e-09	8.985666196522243894e-10	3.380241701833488042e-09
-4.780563006146485076e-10	-5.891648697125441304e-10	5.617751321497180675e-11	-5.923787757121596987e-10	-5.287134036756468199e-10	-4.744189702591251464e-10	-4.503239548194243954e-10	-5.801458673013802383e-10	-5.910230682785288039e-10	-5.791743858800172587e-10	-5.619749364683425076e-10	-8.409780885895429010e-10	4.332478974878822381e-10	1.128654001068111677e-11	-2.262001156224277166e-10	1.648296261759668733e-10	2.902172913211502561e-11	-1.416890921377173163e-11	2.121971956348598448e-10	-1.290165640718460173e-11	-1.042516528226827395e-10	-2.633976133886579208e-10	3.680313393696306443e-11	-7.184751594951316390e-11	-2.628637122114670512e-10	4.560649222050321834e-10	4.136987406833140396e-02	1.185965330484170702e-10	5.660884484263942452e-09	1.221482789765961086e-02	3.598445526003590152e-10	1.588446616224602171e-09	7.983462006867919625e-02	1.672668476077437127e-01	-7.775229475973279248e-11	1.010082194356442365e-09	-1.205141949533499125e-10	-2.793281456441774116e-10	-2.632027159520194116e-10	-3.071722905339929596e-10	-1.282985180602630510e-10	-1.330201655576699516e-10	-1.122844278922946438e-10	-1.488262446443759926e-10	-1.552338206142974859e-10	-3.079789851475176663e-10	-2.371872123818343807e-10	-7.167655022713199956e-10	-1.499799499327311835e-10	8.033739200574742424e-10	3.506863154911164446e-03	7.041950660608629062e-10	5.162718292280591715e-09	6.764989633439623395e-02	5.560106327498973646e-10	1.833506592477645526e-09	4.982496621457013496e-08	6.758813498365165429e-02	2.153376953751520265e-12	5.234457236187577543e-10	1.357257455919278603e-10	1.245673478490240176e-09	6.791947549019455331e-08	1.511210126246609816e-09	8.230283256597630656e-09	2.854544815787321554e-01	1.195175153037593849e-09	3.096305842955638451e-09	6.152769688125649539e-08	1.590142106015179307e-08	2.762339135061742177e-10	1.054865010519601360e-09	9.093853667806582949e-10	2.095316880173891063e-09	9.115384008049017481e-09	5.713853377943083714e-09	1.154663135006732742e-08	9.351978919750576769e-02	3.569143130239179716e-09	8.590031109219564338e-09	5.696909828738416333e-06	4.676004481411335648e-09	9.037242927250258014e-10	-4.015092212317389664e-10	-3.772067017838034785e-10	-3.294188455221044186e-10	6.368108531293263709e-10	-4.384304055743244236e-10	-1.179680782641555755e-10	-6.595578591277175718e-11	-3.016203621260549100e-10	-2.283316609384546321e-10	-1.113130532143460450e-10	-2.596759359339694885e-10	-3.425273692701285262e-10	-8.144598358760164119e-10	1.754956950097375098e-10	1.160543014527245906e-09	7.171757359483369337e-09	2.252419988261090959e-10	4.476937417324299573e-09	1.021454056490993958e-08	1.246250536761476480e-09	3.267373919434250386e-09	7.850356175749075016e-02	1.030850636879974275e-01	5.448789065195271319e-10	4.616593060663837321e-09	2.363973090801303269e-10	7.494439303761069070e-10	5.839858510627241871e-09	3.747781101408057027e-09	4.920238740567261161e-09	1.488328155989148490e-08	6.711777622037960966e-10	1.672891242788691517e-09	7.673962822737856146e-09	2.391049564604050515e-09	1.321015055783831643e-10	1.485017670917570844e-09
