2.389536498806558414e-09	1.363813519455739800e-09	2.428271618384292212e-09	2.840101631858761450e-09	2.396951931356620247e-09	2.467093115177718439e-09	2.287538520888264764e-09	1.932675674177343089e-09	1.793391547179436353e-09	1.906106826163622645e-09	2.651828810345391959e-09	2.160789711951669057e-09	7.387433536811981035e-09	6.386976063653142289e-09	4.239143503541320865e-09	9.632904806859923362e-09	6.676017337774581000e-09	6.055285380837108206e-09	8.669375158532910034e-09	6.852556734733238177e-09	5.616420649285937710e-09	4.139690130642655810e-09	9.611335774787637838e-09	7.649635721885971822e-09	9.758666509882061553e-09	2.634786656095947647e-08	2.350142144085410473e-02	6.106730812293286194e-08	1.076473081462687495e-07	6.232375788403662320e-07	2.397153890573347812e-08	4.958368096049397642e-08	6.843783696016332574e-02	1.615247849870279084e-01	1.552659044021540625e-08	4.240714408482533702e-08	6.587451673366639392e-09	6.082340900659965003e-09	5.667425538300857415e-09	9.166397497949842918e-09	8.248587271468134318e-09	7.901305236099499074e-09	8.172718361802390175e-09	7.956611360294018608e-09	7.379891313910084910e-09	5.554282958134812281e-09	9.465672381907566486e-09	8.332401927994977068e-09	1.214584072591076652e-08	3.036681393976087313e-08	2.111620646091697667e-02	7.734902123620251915e-08	1.464200977923443094e-07	6.544602128152611498e-02	3.221370080473630091e-08	7.131142727513408522e-08	5.885939086075415111e-06	6.166316903818294670e-02	1.897874934594797578e-08	2.119334927265779674e-08	2.077028758292484056e-08	4.887291984175587337e-08	1.965113433141945316e-06	1.034445363075360325e-07	1.692844792987649180e-07	1.772035195950608100e-01	4.562675890432475148e-08	9.479554465101770204e-08	3.169773597046798106e-06	5.776339809396504973e-07	2.702141631337288958e-08	3.809973756900193538e-08	3.410308775557673760e-08	7.291318405343072407e-08	5.016810841899502001e-07	1.726019089901919806e-07	2.968088603214516665e-07	2.688071645492521866e-01	8.494848808183935468e-08	1.991863396707856203e-07	1.500188322458392322e-02	1.685532665006513695e-07	3.598214215595699976e-08	5.192301297574246728e-08	5.113487178325372167e-09	4.523379304739959492e-09	7.291514872939406741e-09	6.847978571011192526e-09	6.318928320928535236e-09	6.496544114751289345e-09	5.607054148073131637e-09	5.588499311784417502e-09	5.772159404020166294e-09	6.040331243296588236e-09	6.652710819615822796e-09	5.404255993293108416e-09	2.286851743348461483e-08	4.699329598556692689e-08	1.237524449751665109e-07	6.356599525522852019e-08	6.594499664861580819e-08	4.451832077650168975e-08	4.264890476158914997e-08	7.702686121816106887e-08	5.893324720708960351e-02	7.834730132153237825e-02	9.759177845140885171e-08	1.121458890188311235e-06	2.343748480059885135e-08	2.287539911127234873e-08	2.859688143755627934e-08	3.262107237498189060e-08	3.331809691916263192e-08	3.660703744041143917e-08	2.451192449956800871e-08	2.891691001303674156e-08	3.587091212037003479e-08	2.467590283053315301e-08	1.818687253807902132e-08	2.163467052267300804e-08
-5.466134260149694231e-10	-5.739161166017383536e-10	-6.766064436354568439e-11	-5.020756826425485893e-10	-5.254661589856009133e-10	-4.954265333759805726e-10	-5.048982935239660297e-10	-5.248042816102138997e-10	-5.069120415640226063e-10	-5.438081258825031020e-10	-5.490499553589092087e-10	-5.294102003354988694e-10	1.204429689980210336e-09	-4.620986729589798442e-10	-5.609890658108522897e-10	-2.139031481448418204e-10	-4.937719117441828764e-10	-4.966385837526838668e-10	-3.850094142161762421e-10	-4.984275633782825413e-10	-5.261512452046914794e-10	-5.271245867494697169e-10	-3.742929817600946519e-10	-4.881898754388681269e-10	-3.996856340674772503e-10	-5.021878190703506134e-11	2.311159102106483121e-02	2.169866842659933842e-10	9.232461801702282216e-10	8.846063993534626452e-09	-1.921370080838778976e-10	3.011087650620255557e-10	6.323970147154081567e-02	1.642627585438610482e-01	-3.412010896412299685e-10	-6.487574802436539949e-10	-3.809645463028177127e-10	-3.761623636625441382e-10	-5.317975384025240533e-10	-4.682539836065484763e-10	-4.889182846711212751e-10	-4.926131056031078227e-10	-3.878856698745042278e-10	-4.708913495235378983e-10	-4.945640708543768956e-10	-5.375789428553567008e-10	-4.183788442419844879e-10	-4.839322206285426671e-10	-3.568175367421680957e-10	-3.738628352856068833e-11	1.907104202126098241e-02	4.319387155190142926e-10	1.414529385559914137e-09	8.972624114211626145e-02	-3.618619910302489582e-11	6.853846299185896207e-10	9.955523491657720589e-03	3.648285312479299797e-02	-3.210074387702436442e-10	-4.888452015876674541e-10	-2.474125555277289104e-10	1.058500607429841831e-10	9.254974743835878412e-09	8.699802395196099608e-10	2.046418811711967659e-09	1.808682684526065065e-01	1.895236655894860221e-10	1.059274559818492429e-09	1.644718805620821502e-07	3.203518903019019582e-09	-2.386724981948384601e-10	-3.064130163902634651e-10	-1.108693384211637844e-10	3.103532736455876773e-10	4.352540602962784900e-09	1.575531448512561635e-09	3.259290150861707408e-09	2.196781491056035984e-01	5.578050535104937570e-10	1.661060186195781338e-09	6.777461003277393536e-02	1.343950762917306344e-09	-1.309510613090063808e-10	-1.212151778336538408e-10	-4.425476883164710783e-10	-3.624016698754900388e-10	9.921279550440097620e-11	-4.696095169584439905e-10	-4.871652851731205997e-10	-4.309132023628535177e-10	-4.970195926627081847e-10	-4.903211988884057295e-10	-4.364270175671654237e-10	-3.878225599769114142e-10	-4.982988556941631384e-10	-4.409065618019142817e-10	-2.712084830529582447e-10	2.420605969218854552e-11	1.284417991211079826e-09	3.595852905119369670e-10	7.304678735756433817e-10	1.561573291178721816e-09	1.534942009108113117e-10	8.039941078913761416e-10	9.066502860507917425e-09	1.258290576041009023e-01	-6.233239814016136260e-10	7.770624035390275474e-09	-2.848973176437298294e-10	-2.786792252179944283e-10	6.220580178947718742e-11	-6.629268497764584811e-11	1.789196859279643825e-10	1.322894927558871114e-09	-2.960125407344470355e-10	-1.590738693603138297e-10	8.576814604641429011e-10	-2.824948307832414842e-10	-3.713726844721728442e-10	-5.396566694401856981e-10
-7.218666980549924190e-10	-7.899713708867669971e-10	-1.359022805119805563e-11	-7.218061120716774145e-10	-7.486466521720452444e-10	-7.088225307352256722e-10	-7.160936670810247542e-10	-7.731832626742550234e-10	-7.677087388708394244e-10	-6.664554548328761302e-10	-7.671882110866360511e-10	-7.493057327561652572e-10	6.251584181608894668e-10	-4.763155332732877979e-10	-7.041404280330562820e-10	-1.977799031724823991e-10	-6.223516615311959740e-10	-6.150979858983852446e-10	-5.281936663377606404e-10	-6.435112342690781933e-10	-6.764177969165677880e-10	-6.886577648376324580e-10	-3.926419501597119829e-10	-6.332754450581431298e-10	-5.741024404131276279e-10	-2.266887730521451852e-10	2.721579807659563199e-02	3.263329408240453039e-10	1.875774481178896700e-09	2.927672576026476116e-06	-3.772960126181765030e-10	1.644743449020354452e-10	7.684697136460884315e-02	1.545289339022265784e-01	-5.072370028657471452e-10	-6.148061179311304568e-10	-5.239977170000411462e-10	-5.123368067107834689e-10	-7.128814777437987042e-10	-6.439170187119352848e-10	-6.731809272210446002e-10	-6.937301468456706957e-10	-4.586262525921120433e-10	-6.131507176558795378e-10	-6.578122712672600399e-10	-7.392557233690646033e-10	-7.119863167852696533e-10	-7.284214336806971077e-10	-5.198692953907713373e-10	-1.839170287884712611e-10	1.875108421480940410e-02	3.303456754462396610e-10	1.497966674732075500e-09	8.674262688847143854e-02	-2.530555458267642402e-10	3.820794092317525899e-10	4.803447653850624339e-08	4.002034817335626410e-02	-4.884618950638495037e-10	-6.277741406184095635e-10	-3.962307475345897010e-10	-6.694752278114292218e-11	9.125598482837876205e-09	8.120326460948287886e-10	2.166062055606122402e-09	1.856563491103846719e-01	9.280562376283096017e-12	8.231657898034850722e-10	4.969143811611935505e-08	3.249702743490258673e-09	-4.077666101103834519e-10	-5.026701011756490706e-10	-2.973721422153200623e-10	3.675790330267706888e-12	2.719893544075884755e-09	1.470873461678920440e-09	3.243220145976990486e-09	2.202712117009525405e-01	4.526425460170903365e-10	1.620607238438444262e-09	5.957708728760353900e-02	9.446140169195515100e-10	-3.040790391615047586e-10	-3.371018391622200827e-10	-5.748523748361996968e-10	-5.010244012630465300e-10	8.434058645422368494e-11	-7.379503207182971732e-10	-7.680811038255427648e-10	-7.272031267787037331e-10	-7.376094504311616181e-10	-7.568719065208549986e-10	-7.617902612662748957e-10	-1.193193842022528600e-10	-7.140608059646166521e-10	-5.485091952568541933e-10	-4.217269468619397583e-10	-1.387295445411760823e-10	1.825254583379141381e-09	4.378131136765833270e-10	1.151840741332727360e-09	3.870688505785840048e-09	4.107599738603762260e-11	9.063357401686583443e-10	2.713415183355140370e-02	1.032524083378092150e-01	-8.575442762001148221e-10	3.235820670464561988e-09	-3.769169494318187743e-10	-4.326936090893847653e-10	-8.516892728151370191e-11	-2.525485268024884039e-10	-8.831748663254024001e-11	8.050409221435811790e-10	-4.485898331844022359e-10	-3.780177630939365286e-10	2.048538287224229267e-10	-3.775284238646088436e-10	-5.394412458607861838e-10	-6.732350836055776646e-10
-5.712012497403236429e-10	-6.104793918847621660e-10	-1.501841062598055627e-10	-5.579346804755707619e-10	-5.859053846107819640e-10	-5.614633655489056190e-10	-5.430271796816390541e-10	-6.035208861971636250e-10	-5.984726711213728831e-10	-5.954373376820924821e-10	-5.820712546791522989e-10	-5.714891418887303956e-10	1.351932520296358300e-09	-4.660534593732556571e-10	-5.838132492866051895e-10	-2.919744586018072954e-10	-5.025779420405101872e-10	-5.123354046375740347e-10	-4.022448628347940093e-10	-5.062027029813366699e-10	-5.457293897034670293e-10	-5.710735591811974980e-10	-4.127794146366684382e-10	-4.619846853624100315e-10	-4.320183993787249387e-10	1.101801899195002102e-12	3.194266546872255585e-02	3.637963707732859036e-10	1.223666018607471245e-09	6.144381177024281147e-09	-1.392642801818229917e-10	4.726140123412471056e-10	6.571052430225111929e-02	1.526019549663574781e-01	-3.348140913296001654e-10	-5.420497097232905647e-10	-4.056778383923952450e-10	-4.609460366161923852e-10	-5.222515745408964756e-10	-4.909173139583688108e-10	-5.101691166428986673e-10	-5.146727982083062226e-10	-4.333590273494479595e-10	-4.699777980497134488e-10	-5.027197775357828908e-10	-5.651317420669400839e-10	-4.616478627889172765e-10	-5.416571738824639978e-10	-3.822667406116449720e-10	4.089633298725501296e-11	1.320368484982975023e-02	6.549733040832064682e-10	1.960449358221576810e-09	7.887650779222635244e-02	2.518148208518625329e-12	7.807515819173388211e-10	1.282297965151203128e-07	5.846230972619954891e-02	-3.104947092634433537e-10	-4.591349520162403061e-10	-2.305126703206793288e-10	3.454347238155664626e-10	1.020066549837301918e-07	1.209209800669506280e-09	2.775848691990959877e-09	1.968279426291270617e-01	2.865234151367824020e-10	1.241383097153904223e-09	4.537391292193655875e-08	7.790143411528890992e-09	-1.871683085432076639e-10	-3.383634458541050830e-10	-4.498759435419763813e-11	5.735935183202584403e-10	9.518023279773469051e-09	2.021032219854996028e-09	4.100122818026581411e-09	2.124264712538990185e-01	8.167806007977510061e-10	2.242960464511925161e-09	5.856368676668003564e-02	2.072778006936666446e-09	-5.814543007376403728e-11	-8.902716443951474724e-11	-4.546030325523404495e-10	-2.489195728155693136e-10	-1.626859046817838677e-10	-4.541154702437378797e-10	-4.630870518525430922e-10	-3.939226751590086656e-10	-5.238646078552517277e-10	-5.016905185176238846e-10	-4.344433436841643662e-10	-3.016838308000911064e-10	-5.109867565186307404e-10	-4.360499860201411638e-10	-2.468519885274493554e-10	1.924804488448049273e-10	2.516158129222965008e-09	6.052819359976694014e-10	1.119503764286001716e-09	2.615810476562652159e-09	2.749033468791761596e-10	1.164526844231177824e-09	4.166005388598950643e-02	8.972388669463741973e-02	-7.208775142614824891e-10	8.355795015568579403e-09	-2.867738535699605842e-10	-3.549335506067101767e-10	4.835359698192794457e-10	-3.560179209676267461e-10	-2.381317455242287652e-10	1.037650512445029079e-09	-4.112321846709870494e-10	-4.892177985664948754e-10	4.773393021978227257e-10	-4.602521583565541404e-10	-4.288472704119976332e-10	-6.856646002536261967e-10
-7.900707329957105726e-10	-1.068923418576578710e-09	-2.109607290157767529e-10	-1.011319383952249432e-09	-1.045624053810040226e-09	-1.014338654939110346e-09	-1.001203654521991828e-09	-1.052227758063707027e-09	-1.043911537788907553e-09	-1.011084456025312993e-09	-1.029823013468289555e-09	-9.930373531841795507e-10	2.366909720346948543e-09	-8.988534802586405033e-10	-1.025322448362533408e-09	-4.777387991647051349e-10	-9.042310208634513280e-10	-9.033769270916895355e-10	-7.594719697836373160e-10	-9.136697084160278747e-10	-9.709121388179402209e-10	-1.006464709913613960e-09	-6.160449952940858631e-10	-8.572049278153439725e-10	-7.685478689695095821e-10	-1.583113712769147273e-10	2.694224160526752579e-02	3.104991807937526209e-10	1.507695600298024198e-09	6.237458329489829628e-09	-3.789645523644593386e-10	5.163902313832512318e-10	6.622938095734731689e-02	1.606410183816707193e-01	-6.152426907664737515e-10	-9.926349535422016640e-10	-5.613495993708046606e-10	-8.755673819836522307e-10	-8.842646485546873111e-10	-8.410147514476391106e-10	-8.819191080762204206e-10	-9.094553722779073760e-10	-8.680988907994807622e-10	-8.622269219111985924e-10	-8.444887167791107222e-10	-9.727203673737618581e-10	-8.377662879417437588e-10	-8.477386951987298200e-10	-7.307026846256941941e-10	-1.288851735888018480e-10	1.698197230157619947e-02	7.366085267436775491e-10	2.532977504628889580e-09	8.127404164813810394e-02	-1.487160427595278182e-10	9.858260127478920370e-10	2.098359054454640766e-07	6.131543620101740505e-02	-5.955614321441239262e-10	-7.442480940067105418e-10	-5.280911472740711016e-10	2.586669650565943238e-10	1.393779197885727083e-07	1.502795764127727782e-09	3.708853848264752149e-09	1.765177508932292416e-01	2.710632445785859332e-10	1.720997298561357263e-09	1.270559093243060824e-07	1.056298661076222433e-08	-4.384544156049574468e-10	-5.465353141916806278e-10	-2.777852700800624506e-10	6.059252803717325480e-10	1.384869066577828684e-08	2.720915844084259516e-09	5.693348655486389951e-09	2.520570281970460624e-01	1.061681434602824970e-09	3.337757591193358661e-09	3.134925544742937081e-02	3.081971577826383864e-09	-2.225930865460456666e-10	-2.246921999515626089e-10	-9.546316977993297845e-10	-5.354786034482387276e-10	-7.761809631925034322e-11	-8.069857630263280087e-10	-8.170521087932462394e-10	-7.234354514059923188e-10	-8.988186462434891030e-10	-8.550171201833350728e-10	-7.574663778354232009e-10	-5.244523849276333377e-10	-8.548106262545151046e-10	-8.504171712685285704e-10	-5.257267236587484469e-10	1.535381694161153431e-10	5.266114399901208870e-09	6.214456144310099269e-10	1.259236803724825834e-09	3.120181776105758934e-09	2.342249449861549593e-10	1.486399250026509199e-09	4.883872686495169951e-02	7.785263589121138583e-02	-1.231467892881533085e-09	9.191299588155151412e-09	-5.398348595123762270e-10	-4.441746877090287711e-10	2.409985601914128416e-10	-7.726618924058849160e-11	2.125129727892511581e-10	1.382332170000110089e-09	-4.628292820633585503e-10	-2.494248371035516102e-10	6.405194199972924083e-10	-1.920407142324416572e-10	-6.632027455401000033e-10	-7.028981880257221488e-10
-9.484433328711840565e-10	-1.126885568723346956e-09	-1.694721012421616756e-10	-9.524887077882906078e-10	-1.005902870760243478e-09	-8.717621902370859196e-10	-9.774131870137876007e-10	-1.024226128384443901e-09	-9.851043481741222349e-10	-8.893916216813741998e-10	-1.065185354622056016e-09	-1.023948473505067183e-09	6.859604274747006488e-10	-7.996337636539580224e-10	-8.847074577366061576e-10	2.937334658923080642e-10	-7.368947596838747655e-10	-6.829600737034082556e-10	-8.203450496052398805e-10	-8.526561378156256928e-10	-8.960537087886195385e-10	-9.444517848519123066e-10	-6.326331754779503294e-10	-9.277524728024877789e-10	-7.438751255248165442e-10	-2.627772001565113368e-11	1.289938199999852639e-02	2.845286347666200043e-10	1.357542933699318243e-09	3.486621454153745916e-09	-3.435179187142754415e-10	5.841098196554787441e-10	6.441172827814445334e-02	1.832336594283126285e-01	-5.702174619674845301e-10	-7.157159457054849897e-10	-3.842568682971284987e-10	-9.680487332751907303e-10	-9.555559880967493107e-10	-8.335457317923725722e-10	-8.670254670448086879e-10	-8.735986504431094316e-10	-4.691983463643292266e-10	-8.764779309169745201e-10	-8.791957700766953588e-10	-9.816168660825709321e-10	-4.870242477201070627e-10	-9.477852182012729050e-10	-7.033885888543807146e-10	-9.958681069196700293e-11	3.072092089085276534e-02	8.140828655716804326e-10	2.739474622830811568e-09	8.370283776943117371e-02	2.972036194013891406e-11	1.719656362863571639e-09	6.586482105203596759e-04	3.239627003103368735e-02	-5.810387017162286384e-10	-5.826489988059275014e-10	-4.529462275639161107e-10	3.386935118729951092e-10	5.333951789882005997e-08	1.676557231234822782e-09	4.162339395150310519e-09	1.856728580271258811e-01	4.716859656323654828e-10	2.408498373527173905e-09	1.206209769814438651e-06	9.573804333993745685e-09	-4.022927073848704982e-10	-3.606108436915099232e-10	-1.483023086845847906e-10	8.613311115888723481e-10	1.568776550706231350e-08	2.953602972676938454e-09	6.308258607879432028e-09	2.125063155108264934e-01	1.112937721053476406e-09	3.245449836915914479e-09	6.262389535030922494e-02	3.384919082584520827e-09	-1.556209100927470801e-10	-9.492234703854693766e-11	-9.606900344973721477e-10	-3.847568099787144503e-10	-3.178144643437686151e-10	-7.818268307361291415e-10	-7.734054019045902899e-10	-6.199420674836102319e-10	-8.898960133564492287e-10	-8.271792224916946225e-10	-6.670841337684160085e-10	-6.228910563795834599e-10	-8.903763980567902730e-10	-8.254636220262512445e-10	-4.563539870839215967e-10	1.976562278467418755e-10	3.503122095276167609e-09	7.403010162823950510e-10	1.542028799701869145e-09	3.506498575429364847e-09	3.970807885989694460e-10	2.027579680489311209e-09	2.089310644034952924e-02	1.102790819797660193e-01	-1.133350995510683533e-09	6.106603025315310618e-09	-4.104964487683630520e-10	-3.315502002561374790e-10	1.533053564882419796e-10	-3.065285355586462635e-11	1.801820016350565448e-10	1.009885851600576323e-09	-3.323610353793555104e-10	-1.406817027620869390e-10	5.453108338533962002e-10	-2.259789569662000206e-10	-6.021117810413844821e-10	-6.093190214522136885e-10
-6.340287318490068114e-10	-4.115187506846549179e-10	-5.176734070431557605e-10	-5.704675588258106928e-10	-6.312079193100871911e-10	-5.831008449185278000e-10	-6.244229723559663042e-10	-6.314334465668965970e-10	-6.436318251740452550e-10	-5.017471188637492880e-10	-6.605791436486787955e-10	-6.189338958353466768e-10	1.084640563427682088e-09	-6.736260411290332093e-10	-6.832728757771518455e-10	-2.099522617934264632e-10	-6.147191876482938098e-10	-6.188391046578356532e-10	-4.695455512585121076e-10	-6.131806045920105881e-10	-6.608040229949039319e-10	-6.374387891457878592e-10	-5.066499451504043544e-10	-4.192442888296665341e-10	-5.229486368786933906e-10	-1.841760016068849826e-10	2.594199724754938860e-02	-8.903399978505615866e-12	5.912692035758822663e-10	4.207486565095063128e-09	-3.368623384055196144e-10	1.562356738978180610e-10	8.028178449466509548e-02	1.531234735156524751e-01	-4.202973471454969715e-10	-6.036640089968948610e-10	-3.795250702313119506e-10	-5.333927616695146016e-10	-5.908818823353146380e-10	-5.998969404131091799e-10	-6.196676006367311186e-10	-6.200438738884056959e-10	-5.249246456618440567e-10	-5.790926289371756319e-10	-6.023719554669097295e-10	-6.594156436984148877e-10	-5.257792675505021807e-10	-6.114823574188846514e-10	-4.749612809881090106e-10	-1.615304849062048261e-10	1.613736454075532373e-02	2.122803707205565757e-10	1.188108477265727805e-09	7.934536892412197284e-02	-1.863207784298498912e-10	4.709593131968122777e-10	2.136722259658866034e-07	5.420896613944359288e-02	-4.204955193528885878e-10	-5.293318155766847743e-10	-3.785653304736558165e-10	-2.640679491331178247e-11	1.576716793522979807e-08	5.896666755427521462e-10	1.679484846610718399e-09	1.789490989631292162e-01	3.599012103557646492e-11	8.259362062650064769e-10	5.080738749123395251e-08	5.556188491950078413e-09	-3.200881199538371990e-10	-4.474135115420108462e-10	-2.651759324550140764e-10	1.064757064745317456e-10	5.295406585412708123e-09	1.076293822489797379e-09	2.422558417894553561e-09	2.399824754483202982e-01	4.492041936108457348e-10	1.691147822904489526e-09	3.368546574498679225e-02	1.406329859865848302e-09	-2.065986859567961177e-10	-2.842536148742088867e-10	-5.435415426913821544e-10	-1.777757100791780360e-10	-2.021645789409020713e-10	-5.395737888994017196e-10	-5.467956368065291722e-10	-4.641813713935696821e-10	-5.946443762621944571e-10	-5.747422936205438867e-10	-4.987593272809764238e-10	-4.276885371456218646e-10	-5.941471772191386301e-10	-5.573650378024790426e-10	-3.866175318143658350e-10	-1.185487174634357153e-10	1.629177944381264145e-09	1.683292864433240017e-10	5.648809630866705229e-10	1.797362352066924597e-09	1.007650727350156382e-11	7.266613516458760760e-10	4.109918915615654728e-02	9.724453555773164559e-02	-7.453051949408230673e-10	1.765635488765762241e-09	-3.985832649118736762e-10	-4.292689948548480289e-10	-1.048132521316747986e-10	-3.357873584794449704e-10	-1.700871716817278613e-10	6.279027331639826292e-10	-4.311568687399182944e-10	-4.033910757608262220e-10	1.725748929619020309e-10	-3.936380923761752802e-10	-4.813239688760860779e-10	-6.071710079810497533e-10
-1.041505026368770523e-10	-1.164569551041944206e-10	-1.969186811892573842e-11	-8.749417611893490422e-11	-9.643058789096049612e-11	-8.897185645721254448e-11	-9.370739627383767776e-11	-1.060271382905997777e-10	-1.049149913676611109e-10	-9.791334430774452630e-11	-1.019918827301384348e-10	-1.102400731091801334e-10	1.385452834856702821e-10	-3.313473786093406047e-11	-7.301668900412012703e-11	7.662610523382406006e-11	-2.369603761146319808e-11	-2.849351720879277920e-11	1.026223625030893778e-11	-2.904947921334762777e-11	-4.901707447609890402e-11	-6.435647810912767043e-11	1.611186796730182720e-11	-9.484329926291208130e-12	1.283726364307641896e-11	3.283875564367787646e-10	1.882363641770206167e-02	7.234612429282912754e-10	1.353280662021299525e-09	4.455313439312636914e-09	2.476380085403386981e-10	6.836530959111138496e-10	6.411038880867679646e-02	1.688961177893389121e-01	7.999722973597012528e-11	-8.447503819908026610e-11	-5.082153720709604033e-13	-3.619161700721623593e-11	-3.892470130665664821e-11	1.478576113231066390e-11	3.100025396552881953e-13	-4.908873805725900141e-12	9.418127453157651845e-12	-5.119878057667122432e-12	-1.347311736886073693e-11	-4.559873897843672486e-11	-1.993234290621210168e-11	-3.425474221081686837e-11	4.484144332779242192e-11	3.522617756269289531e-10	2.027977462549231807e-02	1.005319231063118043e-09	2.070131348742959453e-09	6.843426393186272105e-02	3.927506955432052251e-10	1.094957953115783068e-09	1.302262841868939759e-06	5.542703374517304188e-02	1.232484205302200391e-10	1.165665151988649491e-10	1.733982313899193280e-10	6.470872679098144992e-10	7.720716300357105792e-08	1.460309443733934523e-09	2.664498972617155425e-09	1.911393870116474270e-01	5.948581536790929634e-10	1.401487418801248999e-09	6.516007326724010842e-08	1.450831208967299268e-08	2.418490898989581581e-10	2.890472433049163945e-10	3.689788768825337805e-10	9.839295505141870433e-10	8.867952916524124147e-09	2.438592251494327674e-09	4.361262062000612378e-09	2.207550426739610383e-01	1.051271006899158565e-09	2.335765456716413635e-09	5.517510330470377228e-02	3.023506121610726744e-09	3.895069855522426231e-10	5.305695888604046362e-10	-4.451995818688750085e-11	-3.525761902046851155e-11	1.112635360482781489e-10	-2.315931572276345132e-11	-2.823618916952169165e-11	-1.754418553757783054e-11	-4.378955281923045497e-11	-3.825113307018586635e-11	-2.425030094921590823e-11	-1.925144172667869762e-11	-4.363349269921663941e-11	-5.536675702707695656e-11	2.100206624336662606e-10	5.206472380684817418e-10	1.884721254578895987e-09	8.837109848225658143e-10	1.135698606911980430e-09	1.712125508843206129e-09	5.470022535761164071e-10	1.167580934189509765e-09	4.613678857357559476e-02	9.082093526308948617e-02	7.476327818996595773e-10	1.171102445025142995e-08	2.204059616654833781e-10	2.812133072163363003e-10	5.111118337586022972e-10	4.972115370020991614e-10	5.721743843174437408e-10	8.123191232732222900e-10	2.680086103874313908e-10	3.965826971517375349e-10	6.578730140463658195e-10	4.182934429200900758e-10	1.401258968728982850e-10	2.299487263919780861e-10
-1.321275748409142776e-09	-1.432254166452312368e-09	-4.540103161231917560e-11	-1.287260901787425879e-09	-1.337387408267688905e-09	-1.279121756550598950e-09	-1.228842884701925257e-09	-1.372479310324727149e-09	-1.341472523338150411e-09	-1.387234156586511091e-09	-1.367886437627034284e-09	-1.328533152993915638e-09	2.842770497713444331e-09	-1.280611152070768227e-09	-1.402395576090078125e-09	-7.167826402502434911e-10	-1.230592832357415714e-09	-1.238242530304476040e-09	-8.930638942161349031e-10	-1.239058912598181091e-09	-1.313216448809838520e-09	-1.315040329484104887e-09	-8.906453835436371079e-10	-1.220893975873158966e-09	-9.712650846207172391e-10	-2.531707437051339250e-10	2.638242853358764572e-02	-2.449483486064928973e-11	1.114533258194613299e-09	5.272332865888013102e-09	-5.656880597677517546e-10	5.333141718048479786e-10	5.840332919488184366e-02	1.665576661747712184e-01	-8.712512856991212678e-10	-1.318354856817497908e-09	-8.409087591331978520e-10	-1.207173727205440765e-09	-1.289487445116821015e-09	-1.263002566135531658e-09	-1.302766261938205902e-09	-1.314318758925307845e-09	-9.542518910541106143e-10	-1.256546717095451684e-09	-1.296724654363747976e-09	-1.394304024629561095e-09	-1.171382810122029870e-09	-1.299489261435855509e-09	-9.595930168771531018e-10	-1.916495481971533059e-10	1.089222695927058449e-02	5.379175680465757296e-10	2.687365147966194175e-09	8.879233939531806785e-02	-1.302225559727687418e-10	1.883601574009160540e-09	1.283769473187817197e-03	4.970404865622977952e-02	-8.580230120379887422e-10	-1.150490695217041769e-09	-7.471801336175181325e-10	9.926948467400034322e-11	6.197392228080467466e-08	1.356316637852032858e-09	3.765216902392354185e-09	1.828631362357595602e-01	3.581045957213594802e-10	2.617004483109161055e-09	1.328139919541000688e-06	1.278256082668777313e-08	-6.554792617023463930e-10	-9.103149897475664296e-10	-5.532302663670644443e-10	2.560813073058055392e-10	1.018268738969076088e-08	2.475674460050276873e-09	5.531393391345959206e-09	2.224606996183157992e-01	1.055406030703310186e-09	3.631521378616393015e-09	5.585375241427022880e-02	3.201718090474308211e-09	-4.515034865096678523e-10	-5.443049892217550519e-10	-1.148695120313497677e-09	-8.423815543236518844e-10	6.262244468005573695e-11	-1.156964304472393963e-09	-1.174190235653697023e-09	-1.036657090642839979e-09	-1.216466951423453652e-09	-1.183920524913793867e-09	-1.060077183943957636e-09	-8.884995510945486964e-10	-1.238224375872910713e-09	-1.113823720730765488e-09	-7.691325803235484144e-10	-1.481888006442392929e-10	3.733019640600077397e-09	3.311154230272981400e-10	1.098047447267887951e-09	3.114107158475828191e-09	1.825569714032914718e-10	1.840700256402322664e-09	3.370111693373532141e-02	1.031040959066021334e-01	-1.298765275507952172e-09	1.447445614972986565e-09	-8.073689489127657462e-10	-9.462167657231012618e-10	-3.582460195300886528e-10	-8.446092728582397823e-10	-6.281535378429806572e-10	2.080248032772643901e-09	-9.576342269517504741e-10	-1.025455155510618302e-09	9.786072691685141533e-10	-1.183672477254426446e-09	-9.933187567365444880e-10	-1.426102742091396179e-09
-4.872381057078030445e-10	-4.900010843800594997e-10	3.680476084328601899e-11	-4.553027249263503296e-10	-4.780301069757677372e-10	-4.518655329744215972e-10	-4.667439594770418832e-10	-4.866237547806413159e-10	-4.821947805037288603e-10	-4.739211135537981112e-10	-4.811944890386469845e-10	-4.731786594945438840e-10	1.005894195719627178e-09	-4.259952085697707450e-10	-4.883170049727049235e-10	-1.948058775252939025e-10	-4.176457081725788053e-10	-4.232510312891404592e-10	-3.406684439192604302e-10	-4.356492519717101102e-10	-4.665629726271991261e-10	-4.759538439695764176e-10	-2.870721186600348806e-10	-2.978261443231056824e-10	-3.617664504410052827e-10	-8.990204893960404859e-11	3.440585880517289807e-02	2.033362615508134427e-10	9.193390603867598778e-10	2.583632010080026912e-08	-1.694760611597661743e-10	2.483326716966479003e-10	5.946944282860548714e-02	1.567620976392173349e-01	-2.684566009660046527e-10	-2.857706586739640068e-10	-1.839728713781370047e-10	-4.151838022235107337e-10	-4.343662743245498219e-10	-4.000193407426815141e-10	-4.238742391958403125e-10	-4.252667992273323312e-10	-3.889563871551219900e-10	-3.930964486140861524e-10	-4.037713690739012988e-10	-4.596008384675197684e-10	-3.965722360995039649e-10	-4.103917350836521460e-10	-3.053209619666152602e-10	1.970790578051824078e-11	6.629036794848441015e-03	3.614379322223966225e-10	1.288987718184319622e-09	6.911064621005737207e-02	-7.243721871823332035e-11	4.436389290458877164e-10	5.842327150764907673e-08	6.960365893761252809e-02	-2.702264627761622256e-10	-3.605358053463413027e-10	-2.213215400402937271e-10	1.490287242776498044e-10	3.917932358311771376e-08	7.045981862306148028e-10	1.709965542219718313e-09	1.938447525652574055e-01	1.139313783774021836e-10	7.354123362447624859e-10	2.908255107449526614e-08	6.664169745527895661e-09	-1.855006405809761843e-10	-2.919989838919806113e-10	-1.304064956912052171e-10	2.518021348543198945e-10	5.428178363288857190e-09	1.225094972413181944e-09	2.584942661632377483e-09	2.076967847197182804e-01	4.589045686332382307e-10	1.368077005917786142e-09	6.867372868105584005e-02	1.375740275427850003e-09	-9.906122857650919178e-11	-1.226257445783127460e-10	-3.720851618921275219e-10	-1.859567623130675460e-10	-4.953333875240961503e-11	-3.822469327773595868e-10	-3.899110347321050060e-10	-3.368529808808275856e-10	-4.326833834121170913e-10	-4.156852738171821634e-10	-3.659367827122714692e-10	-3.300565844796262941e-10	-4.163482603363995879e-10	-3.703224472005811052e-10	-2.444115905247194231e-10	6.005538890915883576e-11	1.893181032072183086e-09	3.306841877582020300e-10	6.881859077797700576e-10	1.791905842125906644e-09	1.241870387829845293e-10	7.311498005063858484e-10	4.654394858827802517e-02	8.725987783109129259e-02	-5.596403492876202183e-10	4.249827530314304597e-09	-2.461646373282083238e-10	-2.430389082066497613e-10	5.801632773005362374e-11	-1.097860348427459686e-10	3.083451231981021530e-11	5.812454699575439388e-10	-2.518075593401568567e-10	-1.907963751990349946e-10	2.594056621725106646e-10	-1.636298635135757755e-10	-3.202352663896278838e-10	-3.913342316461078818e-10
