2.184817909373530115e-09	1.757303423163601734e-09	2.604038963606245207e-09	3.131407584262576694e-09	2.731952558038760238e-09	2.761475486832831966e-09	2.629687290987583309e-09	2.296116324330292443e-09	2.145473398718961395e-09	2.115122487974902793e-09	3.016844915282055945e-09	2.508382404105576054e-09	8.128509809274245242e-09	6.626756991383730898e-09	4.585918350489370092e-09	9.491821090678214588e-09	7.001984903149968871e-09	6.477590478264426008e-09	8.742591978710366105e-09	7.074984335089351100e-09	5.937495805938165552e-09	4.438973177080442997e-09	9.697167916559521909e-09	7.667321483636195319e-09	1.016058459434923879e-08	2.589976468771928264e-08	2.350145838334174661e-02	5.856697926176575924e-08	1.036715215998934689e-07	6.127464899078013674e-07	2.335005839667693364e-08	4.774966320117054586e-08	6.843784756191007013e-02	1.615247704790744310e-01	1.526036328012353545e-08	3.670275081612277036e-08	9.056814235215659449e-09	6.341685500467041539e-09	5.881343111027619584e-09	9.252720395195293699e-09	8.458707187023841520e-09	8.119846040447399634e-09	8.597056854019874350e-09	8.105905343116754204e-09	7.609033413140724785e-09	5.850087352970187196e-09	7.991513247689978245e-09	7.104286562484994138e-09	1.220761937602233060e-08	2.928333907195847678e-08	2.111629475701879213e-02	7.420172272842129811e-08	1.401604379119333291e-07	6.544615045271190423e-02	3.129793012367523854e-08	6.871824588555756310e-08	5.629769773965852416e-06	6.166321581146253644e-02	1.863915778659469414e-08	1.722156896396079806e-08	2.030022137185212990e-08	4.625495581962504076e-08	1.823591434839719718e-06	9.791051551999950516e-08	1.613047693579619038e-07	1.772038615928457905e-01	4.407815501737493453e-08	9.103950991208614195e-08	3.047922028443806237e-06	5.546762015902969676e-07	2.619223038456082726e-08	3.420325044803734182e-08	3.240397655820586510e-08	6.898821575345732101e-08	4.762090598490069857e-07	1.625824068809781731e-07	2.831296902568992251e-07	2.688067100527390396e-01	8.174491093006730867e-08	1.914674731315045105e-07	1.500238487266293899e-02	1.628142300839814160e-07	3.463144424194607097e-08	4.954958811862914605e-08	4.525912371425584728e-09	4.741067377851098464e-09	6.674946739906192701e-09	6.985620891299294516e-09	6.582814754841779916e-09	6.834227008133335842e-09	5.821339661707580594e-09	5.827015453268110159e-09	6.083177569169604766e-09	6.315133182241975845e-09	6.754168675812936609e-09	4.938277738369402324e-09	2.244400927517235621e-08	4.298780480167974393e-08	1.181264282839067687e-07	5.835897337630285184e-08	6.147046830475860057e-08	3.913011734032568980e-08	4.054206289311073217e-08	7.154178193130598166e-08	5.893328576823889109e-02	7.834727746918246361e-02	7.145684646667366232e-08	1.158208512666598566e-06	2.243475993938477545e-08	2.246999383168907755e-08	2.884725477148168643e-08	3.213378180632347319e-08	3.352242257138808041e-08	3.779853447473329706e-08	2.402221819231193693e-08	2.882498136318121724e-08	3.642908001981016224e-08	2.508888447977060836e-08	1.802235853157952998e-08	2.212885652582031518e-08
-9.733020788222048441e-09	-1.156021014506512213e-08	-3.318908843060685179e-09	-9.541575878631674002e-09	-1.013884739987264065e-08	-9.398865430119024613e-09	-1.024248943546401599e-08	-1.046679925390703878e-08	-1.007432275787993020e-08	-1.137329636447969538e-08	-1.076121749532927774e-08	-1.131298424017250295e-08	1.425062499500538347e-08	-4.419002994202626784e-09	-9.061469965111704007e-09	1.852323324511443860e-09	-5.322503708863029865e-09	-5.534712020628480364e-09	-2.599722445487053692e-09	-5.857624095450727847e-09	-7.305781224283019234e-09	-8.661224771450418139e-09	-1.547262580052831205e-09	-5.874377105989422538e-09	-2.899654412918439623e-09	1.815667174619234088e-08	2.311255251067767177e-02	4.696811604243085621e-08	9.494647554954409497e-08	8.426609459255639028e-07	1.301032583608161666e-08	4.230594328743807646e-08	6.323533636723391305e-02	1.642644600964331958e-01	1.216557896970962553e-09	-1.072098583204174360e-08	-5.650567361813818161e-09	-7.163778192649399377e-09	-7.006615807375480918e-09	-3.052531529238080625e-09	-3.926269010654532574e-09	-4.189631109408982264e-09	-3.454953961290610006e-09	-4.262357130935857657e-09	-4.816649836823037929e-09	-7.425090133121006641e-09	-5.205960835320459467e-09	-7.682712938082893643e-09	-2.903154253889854322e-10	2.071904322648201425e-08	1.906918587724895295e-02	6.313698654163795146e-08	1.308967090436174726e-07	8.972232397082167965e-02	2.289636732012703308e-08	7.020154454569415612e-08	9.962415785034216958e-03	3.648168228047339590e-02	4.386192478479757025e-09	-5.702155095737249590e-10	7.778754565458195828e-09	3.459366068987639587e-08	6.814236343711553554e-07	9.208101699412004081e-08	1.689071377909148033e-07	1.808552884174032538e-01	3.782560403564268670e-08	9.580531312168579920e-08	1.103652670047265709e-05	2.384827914929153272e-07	1.058778632521793765e-08	1.100649050265698050e-08	2.078102256386125976e-08	5.626651793066945534e-08	3.619840477824886983e-07	1.554145861920231891e-07	2.867333210184878213e-07	2.196921442970478089e-01	6.558211801695900493e-08	1.468104492907372729e-07	6.776008143347919677e-02	1.230180856406971647e-07	1.865103378139792918e-08	2.511602264490114569e-08	-6.854088111694660134e-09	-2.266706443632452182e-09	-2.259799709644167315e-09	-3.978300877244196912e-09	-4.010842638727713449e-09	-1.622414588175536898e-09	-6.135387233969481471e-09	-5.256418615354586752e-09	-2.593155704997920016e-09	-2.481378406695071121e-09	-6.404710670485001832e-09	-6.680062259482688612e-09	6.272299735296817736e-09	3.034420138326336179e-08	1.036322928694017225e-07	5.609445982735178266e-08	7.957947324769871429e-08	1.401204439678634733e-07	3.604592890352178049e-08	8.187998784171192116e-08	9.074288192266338533e-07	1.258270404330576742e-01	-1.680076380424553403e-09	9.264889703226350109e-07	7.882649892146900539e-09	1.167493221001246897e-08	4.004967293201806502e-08	2.840633782154232246e-08	4.636968438012636668e-08	9.598007454795260849e-08	8.828873987725554952e-09	2.213636491590819130e-08	8.818616668814154357e-08	1.564649552421213313e-08	7.567567735656484344e-10	-3.606871228998157589e-09
3.081855980077019020e-09	2.275092733566181393e-09	2.161537611537135945e-09	2.886250665159912625e-09	2.700525303307584799e-09	2.633084402836121003e-09	2.657043978354341651e-09	2.494907406158467627e-09	2.395269766294243005e-09	2.226585743765770662e-09	3.001176684877053859e-09	2.913561809638967939e-09	6.964665027504291959e-09	4.238002717693807388e-09	3.417169829506494085e-09	4.886263158604359419e-09	4.437915325441413843e-09	4.175295929514957533e-09	5.182032386940806755e-09	4.439837451220051552e-09	3.954724049704804279e-09	3.364402562718852421e-09	5.878446874316944379e-09	4.989921700581057359e-09	6.150669040119332056e-09	1.313644908702588073e-08	2.719195042324833514e-02	3.718715591495338975e-08	8.022564229229388283e-08	1.236012990012920530e-04	1.180966967215116817e-08	2.212578889348693498e-08	7.678519298754700462e-02	1.545087508006234012e-01	1.028101886221604128e-08	3.065123038456806055e-08	5.984811632852880748e-09	4.596022064277790689e-09	4.289818014143777414e-09	5.844938470563867816e-09	5.440674175028701180e-09	5.276228662095616085e-09	5.589955789425094648e-09	5.282215591586057598e-09	5.025533530766864591e-09	4.255235518623066239e-09	5.625482273417262894e-09	5.795423530319752910e-09	7.203827736598021407e-09	1.473487375070886356e-08	1.877676915697946286e-02	3.646819585086235542e-08	6.542486257866504438e-08	8.668599720994196733e-02	1.554454401889939761e-08	3.193145010426849952e-08	2.130517776127817141e-06	4.003921881849091535e-02	1.150476880582304070e-08	1.916708936630274060e-08	1.071210737263344219e-08	2.195960056917641266e-08	4.769515884413677816e-07	4.736262372783114633e-08	7.196224859206589791e-08	1.856511862466773133e-01	2.122030579124510944e-08	4.165715163290301708e-08	1.779919095287512859e-06	1.666466530988988077e-07	1.462939482987961988e-08	2.597432650739239538e-08	1.616272315474883146e-08	3.002005894992744459e-08	1.292604241851626565e-07	8.123128218432401606e-08	1.398779838825032144e-07	2.201849272562562410e-01	3.484993929237136309e-08	7.265278926755216243e-08	5.965633978786388791e-02	6.207623602711016488e-08	1.836268970114587253e-08	2.910193018673675350e-08	4.252704088028649338e-09	3.388919953490372453e-09	3.267490759069169447e-09	4.412754384482703661e-09	4.190591353716879542e-09	4.153795382670630324e-09	3.878805106725156491e-09	3.793219968385375630e-09	3.777493685768192013e-09	3.684420581537774336e-09	4.642875094047319303e-09	4.533370864183593888e-09	1.086745678634561283e-08	2.013840010184951453e-08	3.920316501847175045e-08	3.320497262133200175e-08	3.819624331635268557e-08	5.619440071629796655e-08	2.105505533337412551e-08	4.006101356237365321e-08	2.713975559045023536e-02	1.032492528119787201e-01	5.005329027337808186e-08	5.272125727475821538e-07	1.176667893135880312e-08	1.250404444493402741e-08	1.624773919429965410e-08	1.785585414871688426e-08	1.852219739407971822e-08	2.100704145513846077e-08	1.324855836009406422e-08	1.581157591303519686e-08	2.066790933480106271e-08	1.380563582047999047e-08	1.103156852648458502e-08	1.396105275182966513e-08
-4.888955510496668290e-10	-5.297850377280638875e-10	-6.425573777833022807e-11	-4.894064433160856304e-10	-5.111549358174349767e-10	-4.912630096971366957e-10	-4.788587238352084594e-10	-5.295881431254518121e-10	-5.226957028554959637e-10	-5.210990728631237521e-10	-5.066415412629058116e-10	-4.993638389414784397e-10	1.152450010770032078e-09	-4.195524027587100573e-10	-5.085040418738485934e-10	-2.131080297056515157e-10	-4.290929573252414545e-10	-4.363786992276578388e-10	-3.448766658884447975e-10	-4.410667040170182772e-10	-4.762937985647832050e-10	-4.998924149205699011e-10	-3.235384648511253653e-10	-3.623117671617266370e-10	-3.573166586137173335e-10	4.269094394620019773e-11	3.194266648832263383e-02	4.337622108355093708e-10	1.201373211956045977e-09	5.995258133230634924e-09	-8.407543084292155642e-11	4.818578916487044866e-10	6.571052482044803522e-02	1.526019525395010124e-01	-2.662574762710024990e-10	-3.749523796793357702e-10	-3.440776603832509586e-10	-4.010377906150070497e-10	-4.384940799913009348e-10	-4.100468178811242783e-10	-4.292373040932935171e-10	-4.355881437335886022e-10	-3.306909481928005774e-10	-4.042717397983662339e-10	-4.294782754486989718e-10	-4.835986170705233371e-10	-4.060705609928131775e-10	-4.663143967303907562e-10	-3.144677644899662987e-10	8.302730591197970342e-11	1.320368933335221324e-02	7.199067326998466512e-10	1.888308641953227999e-09	7.887650718726758881e-02	4.700491119278618754e-11	7.753740524519359372e-10	1.202404850855181759e-07	5.846231190605311046e-02	-2.424903053518680754e-10	-3.885549200949943668e-10	-1.699086207677840712e-10	3.764535057630798312e-10	9.238910888023791165e-08	1.261411018280557119e-09	2.653536599862228180e-09	1.968279555654094681e-01	3.127855947733925108e-10	1.207119808017676599e-09	4.253568090503553515e-08	7.394074598818324213e-09	-1.260577112052057569e-10	-2.745274823456886151e-10	1.260062920783362188e-11	6.113586552374666500e-10	9.010021667523464331e-09	2.058047182519955890e-09	3.948690472821983491e-09	2.124264606740486061e-01	8.150137709713447551e-10	2.164046322976518375e-09	5.856369647861257161e-02	2.003306946400808985e-09	-3.921508939638715168e-12	-1.863759846186264683e-11	-3.953191782203132120e-10	-2.247536901710895629e-10	-1.410311608088535220e-10	-3.831406629919279671e-10	-3.873294787400560221e-10	-3.233330069086682942e-10	-4.443885098867784992e-10	-4.234410817659312332e-10	-3.627558858842665881e-10	-2.549853885490177281e-10	-4.324733172894060193e-10	-3.605211704155296857e-10	-1.845961358413397856e-10	2.319667885277936617e-10	2.359386094086719536e-09	6.358060679104574705e-10	1.081226096686601286e-09	2.438765656287847449e-09	2.978108166337687598e-10	1.119244851393498910e-09	4.166005415093884667e-02	8.972388543501413904e-02	-6.074815689075757755e-10	8.879610731007448344e-09	-2.247297821846458922e-10	-2.810438166271438082e-10	5.702385269779079925e-10	-2.979807168039036090e-10	-1.339862779468556144e-10	1.059133156551748162e-09	-3.425294665392374846e-10	-4.045860558332053304e-10	5.572614013433659529e-10	-3.611443781698727446e-10	-3.624028355879237630e-10	-6.025232088732380753e-10
-1.753585435658961723e-10	-2.416130827413224333e-10	-2.750127156905670094e-11	-2.066671136295952136e-10	-2.169941189298018324e-10	-2.103515658060587830e-10	-2.135771030870051983e-10	-2.246295279346345753e-10	-2.236640206188354009e-10	-2.131259856205650035e-10	-2.198944617508568766e-10	-2.207604197080351052e-10	4.814024069220693110e-10	-1.196125454310730820e-10	-1.884239708053476049e-10	-5.674935919823636327e-11	-1.032203284092139024e-10	-1.145192348772020397e-10	-6.813670291965495187e-11	-1.357380504095611483e-10	-1.622214362428120300e-10	-1.734418569055184774e-10	-5.429309459804907218e-11	-1.294404316664437978e-10	-8.120432882180276772e-11	2.894782042243179813e-10	2.694223754713846730e-02	7.417507179376089315e-10	1.497780331510845382e-09	5.837175743177622125e-09	1.889100406724556977e-10	7.113237730898936003e-10	6.622938874913292251e-02	1.606410055125154779e-01	2.188273687109598895e-11	-1.950733096037315175e-10	-7.601493106836236846e-11	-1.386451384659903162e-10	-1.455481951878706332e-10	-8.953432554947471213e-11	-1.009871252990632791e-10	-1.124577386017236362e-10	-7.694333208849053370e-11	-9.399752124508656719e-11	-1.063251088521351422e-10	-1.647212444566703590e-10	-8.750030981080133683e-11	-1.338657788557648770e-10	-4.257440514602259872e-11	3.329908671984942098e-10	1.698200879316056483e-02	1.039296999564480716e-09	2.190378695625522785e-09	8.127402915651280035e-02	3.368205324032728340e-10	1.074503559695894181e-09	1.570781772073511299e-07	6.131544797813109210e-02	5.784966082668133484e-11	4.072101707245704891e-11	9.958403456031898556e-11	6.395508752243135965e-10	7.981878119085565530e-08	1.537119443606176753e-09	2.855524626888921425e-09	1.765178418168608099e-01	5.983812138773010384e-10	1.550475556404920316e-09	9.447393959380199860e-08	8.279817258756321385e-09	1.780072661772166216e-10	2.481693749876104779e-10	3.108216172056483339e-10	1.009455996340457548e-09	1.078607287532089091e-08	2.550766486004028755e-09	4.608426153083127127e-09	2.520569637907084659e-01	1.168955659840500724e-09	2.817368867249879952e-09	3.134931147825195663e-02	2.747188675228773646e-09	3.397518003204073197e-10	4.959531996376363844e-10	-1.644787308320452495e-10	-7.661364477807652604e-11	8.363030405994585077e-11	-1.208265317944419981e-10	-1.279922509110342979e-10	-1.146080428406483274e-10	-1.477147760379864251e-10	-1.401702554010566242e-10	-1.270799569105342225e-10	-3.265314490797245191e-11	-1.418817354527511613e-10	-1.353742565801348198e-10	1.350298777388262182e-10	5.445182958913478579e-10	3.517643743380621792e-09	8.332219621951075834e-10	1.081026618253885189e-09	1.588945593339250769e-09	5.392431156668385902e-10	1.233977690743183896e-09	4.883873415571187565e-02	7.785262198803864775e-02	5.489844406432131932e-10	1.174692930533942425e-08	1.374452191378197289e-10	2.215598161873951108e-10	5.905538305406343849e-10	4.498331688107871391e-10	5.768174966148022297e-10	1.013057146340558694e-09	1.918615006123592584e-10	3.518907154492617900e-10	7.764550655889160589e-10	3.432294144123519632e-10	5.010023347889282188e-11	1.180487018177858976e-10
-8.605699953364757064e-10	-1.041442675891167684e-09	-1.577153228315415863e-10	-8.831699313620922170e-10	-9.389560099609618748e-10	-8.125179177272551351e-10	-9.105817420747678815e-10	-9.485291330037426985e-10	-9.126093558920843428e-10	-8.477480948393978035e-10	-9.791180935087876589e-10	-9.391101519826058511e-10	6.795505779327224081e-10	-8.375355217941249532e-10	-8.356408458965562109e-10	-9.159322002426778741e-11	-6.037452863804789274e-10	-5.110101712721711175e-10	-6.424676806142064823e-10	-8.131606486267085562e-10	-8.478321274395151819e-10	-9.166147638956748298e-10	-6.502429797862129570e-10	-6.796844899111867739e-10	-7.101089294049352955e-10	-5.826715669375536759e-11	1.289745450025382018e-02	2.352635817289060140e-10	1.118625981389494450e-09	3.270660549727418888e-09	-3.586835653901694164e-10	4.479990437350743623e-10	6.441630593289768281e-02	1.832317951765474462e-01	-5.471507726076845392e-10	-6.984254286932338693e-10	-3.080337936131711847e-10	-9.265024069377412232e-10	-9.199919704324786982e-10	-7.967504505564657008e-10	-8.216788497851229255e-10	-8.251733060784950337e-10	-4.213486036428196824e-10	-8.060340502313835163e-10	-8.226203769566872751e-10	-9.158518593413198106e-10	-6.438445983559066091e-10	-8.977952742795508998e-10	-6.659287746849427424e-10	-1.397790759177051360e-10	3.072303311836125164e-02	7.180495205299765302e-10	2.297454406931086889e-09	8.371796718399387993e-02	-3.091692183374067308e-11	1.441961243693883794e-09	6.378133290842153769e-04	3.239970023096612473e-02	-5.570392470941778292e-10	-5.604719192087189238e-10	-4.456881764834667196e-10	2.350988263433227369e-10	4.472253367573699411e-08	1.515660655730242115e-09	3.553627683185654793e-09	1.856726137914732067e-01	3.559874935293094589e-10	2.041623150994591627e-09	1.055964914815588039e-06	8.207085541071879272e-09	-4.055574750490709545e-10	-3.688762556002869221e-10	-1.859134759237254149e-10	6.616439548199728681e-10	1.326079506143404360e-08	2.623561136921948958e-09	5.344807200864221563e-09	2.124900227558064181e-01	9.080971732208900395e-10	2.750201844341031242e-09	6.263906518164895354e-02	2.848974889161777357e-09	-1.936994948382469895e-10	-1.483809354211811998e-10	-8.727881464681558901e-10	-4.399139577360831721e-10	-1.069798590358429423e-10	-7.469097005624318064e-10	-7.384423099355007344e-10	-5.936166999740860300e-10	-8.430374950488656163e-10	-7.900403674985897881e-10	-6.438485739634586978e-10	-6.070322843282992189e-10	-8.434693041362664724e-10	-7.585009851554474621e-10	-4.563316323769770963e-10	1.101099691128930638e-10	3.000816718757511702e-09	6.161851400931724669e-10	1.290925696462014602e-09	3.044830409809914398e-09	2.850389053123576810e-10	1.711405125126730775e-09	2.089655802594105743e-02	1.102765447497619650e-01	-1.026177484571474050e-09	4.329158607757246367e-09	-4.175981215709084576e-10	-3.539849988139475887e-10	1.055370125389158710e-10	-8.511654974845072899e-11	9.734154904692663388e-11	9.340214262142327789e-10	-3.615077424544991206e-10	-1.973211026102363925e-10	4.495113600662007027e-10	-2.502022010775790952e-10	-5.820969605373255541e-10	-5.987705376115410218e-10
-6.148714454242392154e-10	-3.920813195073694755e-10	-5.049358738297129798e-10	-5.495206139768052208e-10	-6.000146121738158023e-10	-5.678990799914014676e-10	-5.818592010672113120e-10	-6.195922189058292590e-10	-6.268308768327913886e-10	-4.733250414729614360e-10	-6.393747555585156807e-10	-5.918217391614465080e-10	1.119259950688197421e-09	-6.493184304044926879e-10	-6.575443989839015124e-10	-8.243277549901311809e-11	-5.976043379240762902e-10	-5.904771396329902918e-10	-4.625480489700997728e-10	-5.824550854596220775e-10	-6.241385156354189291e-10	-6.195417717588964217e-10	-5.335426105517314794e-10	-3.975623038917767102e-10	-4.891061570014324728e-10	-1.479382349824405880e-10	2.594199638611488501e-02	7.262993551253774823e-11	6.384450497643245354e-10	4.172936444669963258e-09	-3.054824022334209000e-10	1.909419372640893938e-10	8.028178617211267909e-02	1.531234723183986790e-01	-3.920292972985792080e-10	-5.869515204606579929e-10	-3.567165801726536872e-10	-5.043753437250153549e-10	-5.704398889771349997e-10	-5.703913724953589948e-10	-5.914646684537588935e-10	-5.882699099544137544e-10	-4.938994993295186901e-10	-5.542985381467125378e-10	-5.766962908186497957e-10	-6.311438579367857156e-10	-5.062140177569883806e-10	-5.895798740964581124e-10	-4.476769432285997358e-10	-1.257572974027045295e-10	1.613736473355332351e-02	3.166740835610214615e-10	1.243430145196496383e-09	7.934537448158378303e-02	-1.608125832452607673e-10	4.962584434975778960e-10	2.055791471255634970e-07	5.420896781543192711e-02	-3.916920247511601281e-10	-5.054230273703395335e-10	-3.496135780593587191e-10	2.067338276226249141e-11	1.571230273743906890e-08	7.334622950480892367e-10	1.774901330262712430e-09	1.789490994407359203e-01	6.290688070130179309e-11	8.568976165401016637e-10	4.919722032180922184e-08	5.633210239901287640e-09	-2.884059866736372134e-10	-4.175212918776531300e-10	-2.254876453800692182e-10	1.739460918581571595e-10	5.355545976427551339e-09	1.292677163597261961e-09	2.613786662642578536e-09	2.399824673915420814e-01	4.896142771539320403e-10	1.746054479946516037e-09	3.368547216941598921e-02	1.483435695559399243e-09	-1.674958778310261313e-10	-2.279832396823066617e-10	-5.474327974423331482e-10	-1.535589647150777166e-10	-2.700023958745771483e-10	-5.104555390092465908e-10	-5.078766710267089439e-10	-4.177831057900596480e-10	-5.666554578042675988e-10	-5.413932876690331613e-10	-4.553703095222929968e-10	-3.936699904843483214e-10	-5.635086483703409055e-10	-5.220705987420779279e-10	-3.606708814774586709e-10	-6.675931594188658443e-11	1.653740884566524098e-09	2.439686965573516169e-10	6.106091887219464317e-10	1.804544257910916701e-09	3.972699798579228149e-11	7.602970041218331609e-10	4.109919033951969086e-02	9.724453298783791722e-02	-7.372130570622514740e-10	3.112459643280385178e-09	-3.761430645936779340e-10	-4.043338491505992747e-10	-4.854003300786845302e-11	-3.029067200019095052e-10	-1.304470307845081522e-10	7.117276661055922588e-10	-4.066551423491645379e-10	-3.762269677133887520e-10	2.379830192014016832e-10	-3.624953261939253523e-10	-4.577278594340194094e-10	-5.856066907992084111e-10
-3.261097274276844999e-09	-2.545413822216379435e-09	2.027407636596302910e-10	-9.900113972276874351e-10	-1.399447193354641991e-09	-1.188782081936577740e-09	-1.502640916796645736e-09	-1.917134704680970652e-09	-1.941452443046156984e-09	-1.950615135167178963e-09	-1.559561038134856839e-09	-2.354893072427646211e-09	-2.882748783479812757e-11	2.265346660510388067e-09	1.977937931798527513e-10	6.755824366534483159e-09	3.095325679212692067e-09	2.684927569025391693e-09	4.844595842427962121e-09	2.770298215065072487e-09	1.597879507183221461e-09	4.505018274101250882e-10	5.477260451664769126e-09	3.347548896985331723e-09	4.896838525557235351e-09	2.386888614876758638e-08	1.882997762943026954e-02	5.157353279280126459e-08	8.989266822341944168e-08	3.227460963558117284e-07	2.008949602023629346e-08	4.665069369007869178e-08	6.409340324055458338e-02	1.689031681608184343e-01	1.088861986814586723e-08	2.229415080190536363e-08	4.418774015136123562e-09	1.846698576523855702e-09	2.118104897206363607e-09	5.618686790938100706e-09	4.838806618081603137e-09	4.537570946718394567e-09	4.348244187619247351e-09	4.326781817794812654e-09	3.855000070845329086e-09	2.025455838459470646e-09	3.286584258500154450e-09	2.588733676347626882e-09	7.726670094383749063e-09	2.588518270890814974e-08	2.026945115054872362e-02	7.027943080453708090e-08	1.352073084424661424e-07	6.838261552657658171e-02	2.892448025580531221e-08	7.169289250987202271e-08	7.735599039014597284e-05	5.541376087804088940e-02	1.346193414521979080e-08	1.887049702237305430e-08	1.620215633632623907e-08	4.567246783331461365e-08	4.090025034712393443e-06	1.003958461604109060e-07	1.780137122408618216e-07	1.911305988664344924e-01	4.164924165448241864e-08	9.147606677233913934e-08	3.798228251986274152e-06	9.322677184906661255e-07	2.163922662980851102e-08	3.379508552499037534e-08	2.951014629860349366e-08	6.833769915604241418e-08	5.363646625790514067e-07	1.649833013936097212e-07	2.927296936191846838e-07	2.208166341424422086e-01	7.119973777264213424e-08	1.531116536579287787e-07	5.511621321813155866e-02	2.006699498855989760e-07	3.138685165695318587e-08	4.649531149786634267e-08	2.138415913591451050e-09	1.039010996551859381e-09	6.981846712337240865e-09	2.888807478138451557e-09	2.491536028191659680e-09	2.749147398759666000e-09	1.774217236662739001e-09	1.905925380849053283e-09	2.242814100423277932e-09	2.444297014415115857e-09	2.091864036498756284e-09	7.583041476522024488e-10	1.949587748547403711e-08	3.946043322967324804e-08	1.110518977468156661e-07	6.164649497049694632e-08	7.745516464331202118e-08	1.057041576047077185e-07	3.936332769281317036e-08	7.899945300033052185e-08	4.612412953756420131e-02	9.082898762153911176e-02	9.772920183597207574e-08	7.405727765678415489e-07	1.933940591558856011e-08	2.127205242412002450e-08	3.140632615241591732e-08	3.324396698222106547e-08	3.595334889527904676e-08	4.391996655354069761e-08	2.174553006606323361e-08	2.802501056747813811e-08	3.847099114166617568e-08	2.721566758246101508e-08	1.521284366138544226e-08	2.128464481514629338e-08
-1.628688477844382977e-09	-1.721706849636643413e-09	-1.516845745860606472e-10	-1.546719916948669341e-09	-1.617547307159021172e-09	-1.533043653987811922e-09	-1.499802378097380351e-09	-1.657672533906130926e-09	-1.612004856669741235e-09	-1.677613318757609527e-09	-1.666305606132431737e-09	-1.578757726640654154e-09	3.355987290947777170e-09	-1.578726860849560458e-09	-1.717807925037212215e-09	-8.642263931874144175e-10	-1.491186742195900916e-09	-1.498746836727449543e-09	-9.945802063021335295e-10	-1.506317741351910377e-09	-1.614936378311052919e-09	-1.606555852366198122e-09	-9.395751689593031509e-10	-1.446862350986093000e-09	-1.247755481940060483e-09	-3.318541949571359866e-10	2.638349460530524729e-02	1.012547803281031990e-10	1.376315346960578633e-09	4.163683691870656068e-09	-6.828253490424777207e-10	6.537028905211451662e-10	5.840080003520524421e-02	1.665586974188731362e-01	-1.054797216404118636e-09	-1.520623582353307224e-09	-9.658358567092311017e-10	-1.449377613783279190e-09	-1.545623423741285817e-09	-1.530675810120496723e-09	-1.564104801269765963e-09	-1.584922656973466703e-09	-1.094863721358849409e-09	-1.533640985859396437e-09	-1.576825542048558910e-09	-1.681518315815000420e-09	-1.418963052320066638e-09	-1.579212239724308787e-09	-1.205216900938896261e-09	-2.668554537230023087e-10	1.089106491859781652e-02	8.776427160984059781e-10	3.337865208117980614e-09	8.878397734804353847e-02	-1.710044290360673963e-10	2.198427451841317114e-09	1.295283126292537564e-03	4.970215055564720236e-02	-1.042353741603591502e-09	-1.340819457172003904e-09	-9.334293528183010766e-10	9.474950100878189089e-11	6.287308483425265960e-08	2.036043565421903462e-09	4.994025328065734143e-09	1.828632499549520674e-01	4.246539829838277988e-10	3.093080493280705993e-09	1.435142948490914857e-06	1.475593918811321315e-08	-7.937387342806313592e-10	-1.028743162405234964e-09	-6.794277460107930826e-10	2.964639721244582365e-10	1.108282337116905882e-08	3.595999863301052198e-09	7.417213849171085470e-09	2.224697255056108935e-01	1.270864462002586177e-09	4.281296984304301609e-09	5.584534745879792678e-02	3.935121093956592691e-09	-5.372528654905315697e-10	-5.906848250194957773e-10	-1.094244806136970856e-09	-1.144163059733563770e-09	-6.873900034987304032e-11	-1.389403061906573932e-09	-1.402733485207933239e-09	-1.226416295029213670e-09	-1.475532381430781362e-09	-1.427077066086816118e-09	-1.265718382123764788e-09	-1.100025634502905056e-09	-1.499600336460847506e-09	-1.308326531871156392e-09	-9.463160060813355614e-10	-1.510951270163621609e-10	4.215399587366803050e-09	5.870436315321790081e-10	1.491662624161562292e-09	3.842300147983845178e-09	2.306811129768233698e-10	2.244829572917892783e-09	3.369920671372853699e-02	1.031055024610973564e-01	-1.424601314600814204e-09	6.910493933194440334e-10	-9.506167604984958594e-10	-1.022331759937584371e-09	-6.727873666248235439e-11	-8.073996494358149653e-10	-5.408555393017411900e-10	3.756282784547589361e-09	-1.025123779596584592e-09	-1.041095990906028272e-09	2.046182569953469987e-09	-1.292456641455237992e-09	-1.147764942827782745e-09	-1.643838932286453122e-09
-5.125526741154208676e-09	-4.552856319183995092e-09	-4.118417868957033355e-09	-4.491034872915209814e-09	-4.941614123394415476e-09	-4.096572756082504404e-09	-5.117737379854311225e-09	-5.521239855707635362e-09	-5.318354836828338891e-09	-4.714110430920633019e-09	-5.548435899781813182e-09	-5.820437301796953701e-09	1.741845416286886739e-09	-3.173864250214756093e-09	-4.320215594557490756e-09	6.223658559410338705e-09	-1.917616348211225561e-09	-2.219616181046886996e-09	1.169272958420512774e-10	-2.684455111134628328e-09	-3.561511156233820859e-09	-4.807995981659050329e-09	7.116415164019399912e-10	1.024315728848961493e-10	-1.560766898196278311e-09	9.234502284893506342e-09	3.440307888745065129e-02	2.621420931649410175e-08	5.605370994735731301e-08	1.261718734299179989e-06	6.771872323651849893e-09	2.241583192101023671e-08	5.946914902238642497e-02	1.567638664540220994e-01	8.285897231931666870e-10	-2.914888566971481768e-09	-5.169766394538089311e-09	-3.118353825135534443e-09	-3.437646656562121181e-09	-1.538365118900238259e-09	-1.997155010348726587e-09	-2.175278178889840608e-09	-1.782447571361619641e-09	-2.225810685883419630e-09	-2.498764184487489328e-09	-3.802846547512033544e-09	-2.458730092513591814e-09	-3.815597050924738943e-09	3.235868370373959247e-10	1.361850307659292426e-08	6.631812606819813966e-03	3.303803350601403669e-08	7.078778020214874828e-08	6.910706613418804434e-02	1.084862445188304387e-08	3.229180395606822521e-08	3.131825257240142582e-06	6.960112527926184955e-02	2.388726638762480527e-09	-4.381295814391500534e-09	4.106733164241258532e-09	2.091746989650384557e-08	1.122458644312368769e-06	4.874360461144546581e-08	9.148456361265072970e-08	1.938413925655778358e-01	1.843808839371449717e-08	4.491006968836523536e-08	1.461891461156540347e-06	3.729028565981143637e-07	6.427886783061381743e-09	1.438456322505477714e-09	1.025977155973914151e-08	3.009730972087791548e-08	2.576183620652404238e-07	7.994109810482972309e-08	1.475307199440942268e-07	2.077007380752695365e-01	3.401787614147057013e-08	7.571120679215094458e-08	6.866934440473991541e-02	8.581903812080422399e-08	1.113416649456496754e-08	1.321327641850989934e-08	-3.500260754196273908e-09	-2.700399625921766426e-09	3.736453282983085005e-09	-2.526319523242923490e-09	-2.694822038625986823e-09	-2.026935068005998615e-09	-3.453223337578766022e-09	-3.249452463357629898e-09	-2.711829845489608374e-09	-1.142591742650373513e-09	-3.371365287388728552e-09	-3.465232956767955113e-09	3.786035014171496840e-09	1.818943967869403549e-08	7.739767773206484327e-08	2.922241934311985152e-08	4.012612715096855714e-08	6.682058285834777783e-08	1.767687191846840257e-08	3.968176738266326667e-08	4.654330740395609678e-02	8.725973859440348812e-02	9.505913663664399023e-09	4.095437057501434884e-07	5.400220822996592591e-09	8.410659844070820595e-09	2.732514848803647111e-08	1.613442623111162036e-08	2.392322142634078540e-08	4.573816753234133371e-08	5.331034839589444202e-09	1.127530709162138037e-08	3.475725785681084812e-08	1.323706053882963220e-08	1.398827068247757866e-09	1.406427098099467734e-09
