-2.112775262115265225e-09	-2.680502038772078491e-09	5.712885817106730769e-10	-2.627560488890119126e-09	-2.343991784076911806e-09	-2.210808329509333361e-09	-1.611251906026375528e-09	-2.597945095095137223e-09	-2.426269525492113312e-09	-2.314389988584849548e-09	-2.461794937048069622e-09	-2.448267596279159133e-09	8.190566325203205234e-10	-9.262001288995371387e-10	-1.509531187725664201e-09	1.067911122940150892e-10	-5.936326027181334302e-10	-7.381135935295995413e-10	-3.055942206169944402e-10	-8.199183190865505084e-10	-1.124911500079186888e-09	-1.618611848721240840e-09	-7.456372712759568661e-10	-1.709515200857574720e-10	-1.527229558509764243e-09	5.541644977566028037e-10	3.101875050877605372e-02	-1.939941126797214665e-09	1.206112061397771950e-08	3.889395062456908747e-02	7.902318644578158388e-11	3.452809001219743040e-09	6.771269984862580971e-02	1.714872974397269878e-01	-1.183340786464656298e-09	-2.027272121735819598e-09	-2.583151524119166993e-10	-1.808514050888225964e-09	-1.557353923081362028e-09	-1.945056912376585428e-09	-1.132233171620407307e-09	-1.204607349228451857e-09	-2.613506994187856764e-10	-1.488334081580679229e-09	-1.243306918934126135e-09	-1.832422705329959162e-09	-9.413652310643011132e-10	-1.768447870332394104e-09	-1.258139015756017868e-09	1.065005251170671872e-09	1.765685975562596502e-02	-1.527162695898891008e-09	1.331254292485704181e-08	6.937148529766531957e-02	6.852155828557511036e-10	4.349456162783735987e-09	1.152674306117542935e-07	5.677763802872907994e-02	-9.154255765944743284e-10	-1.874380360979031374e-09	-3.820134542796061219e-10	2.511566859512893102e-09	1.275913273927301504e-07	-3.759492191564074716e-10	2.102989118142321629e-08	2.802893723756607058e-01	2.350306983153805286e-09	7.484396979471382488e-09	1.150122273428117310e-07	3.777975358518434722e-08	-2.771184371917054831e-10	-1.420816642456886877e-09	1.824411507437146738e-09	5.644464145091850885e-09	1.573088404492691187e-08	6.803224197494084561e-09	5.101266730179425045e-08	7.467268085054680482e-02	2.074462073270925061e-08	7.173164897745949438e-08	8.845384760712927735e-04	8.513892818495978440e-09	2.131280695436260846e-09	-8.040359932128333941e-11	-1.757563984177612637e-09	-9.687716352769852534e-10	-8.264037470029487781e-10	-2.541037456048800167e-09	-1.092468390512023678e-09	-5.040065976062296266e-10	-1.691671591207481512e-09	-1.424841039260566597e-09	-7.536153453590084564e-10	-3.515022552692898802e-10	-1.827957618696563439e-09	-2.402788739074727248e-09	-1.564889624832725205e-10	3.358850067041097958e-09	2.091792408265108083e-08	-1.590539709961544291e-09	1.146281030118859292e-08	2.868855330483011395e-08	2.552744691857361710e-09	8.227641494957274544e-09	8.923542830134917336e-02	1.019986202004901227e-01	1.461768658000480455e-08	-9.069979063409344725e-10	5.768050123947461877e-10	1.031870871550189018e-09	2.682266372358635872e-09	-7.895621823534644002e-10	4.518065667777418051e-09	4.679453811774943294e-09	1.486863227804489451e-09	2.897943007567328811e-09	4.121687227134552398e-09	2.207743352867420251e-09	-4.834071462029021647e-10	-1.268430158007220598e-09
-1.068741249630667246e-08	-1.310100815924180884e-08	1.913569186360376302e-09	-1.253497643513341969e-08	-1.153737292716003115e-08	-1.010711821549468808e-08	-9.853507696926155811e-09	-1.006501857969522772e-08	-1.173482787163948761e-08	-1.185085864249419967e-08	-1.140051458599527779e-08	-1.286511851146028740e-08	5.287908115122044886e-09	-5.592052442469898496e-09	-8.205038534464295313e-09	-8.263325045801997868e-11	-3.558229408254785065e-09	-4.265948711236568821e-09	-2.288914250251696811e-09	-4.749073635572076231e-09	-6.191069415872343210e-09	-8.271549150177743513e-09	-3.485419013379240508e-09	-1.817500592471552517e-09	-7.882953914700899064e-09	3.108072399177559485e-09	3.194649155789770767e-02	-1.116811986792503577e-08	6.840221011293960134e-08	5.956001649894993553e-03	8.993823384733212438e-11	1.591523376699404995e-08	9.748242455190955780e-02	1.711982874058955162e-01	-4.701679306783943149e-09	-1.281185535534214438e-08	-6.449095712397143058e-09	-6.008607156722226264e-09	-8.630361151361705054e-09	-9.304295829369484525e-09	-7.112147529791053816e-09	-6.946385163452103441e-09	-6.407448586489029368e-09	-6.970449438676103264e-09	-7.046340850835334288e-09	-9.364395715779721625e-09	-8.006079203261109395e-09	-9.951109062403766934e-09	-6.661809861222486061e-09	4.384763305074096981e-09	1.416534263770114106e-02	-9.520235931222133363e-09	6.008074711566764543e-08	1.064956219204147292e-01	5.129061086139601604e-09	2.931045614305022509e-08	2.424858007058426114e-03	2.853538913760832185e-02	-3.910255063144489892e-09	-1.217738466547063473e-08	-2.312441648133462024e-09	8.940070662655197826e-09	2.109611752314906685e-07	-5.622066021291395879e-09	9.955814382673500683e-08	2.888389279257238540e-01	1.364890394585011459e-08	4.599138659409100437e-08	1.418372283534806296e-05	1.020288434373973513e-07	-1.112954885691290879e-09	-1.159604148715918738e-08	5.420986054923544333e-09	1.743945831134821361e-08	5.575505428055342823e-08	6.924182850278800447e-09	3.110488697466200462e-07	7.055549462374165193e-02	8.873117660803915228e-08	3.114811370763069506e-07	2.642311575604717588e-03	3.003592252681057987e-08	8.351787769395408682e-09	-4.475738636003405149e-09	-9.236009975306268822e-09	-7.966050843833201931e-09	3.616025616112014032e-09	-1.247089510643677801e-08	-5.647459519926022538e-09	-3.993643491794455749e-09	-8.051772654084327749e-09	-6.865410006905159591e-09	-4.322442410828030126e-09	-5.929063242302679907e-09	-7.782014293626456974e-09	-1.312974346317066011e-08	-7.125150789740901133e-10	9.932068048839636216e-09	6.938765921964040068e-08	-1.038812090466449358e-08	5.054304747557436065e-08	1.241672160477333957e-07	1.355928573500424959e-08	4.318001439222356073e-08	1.838883819012334178e-02	1.613542845920903079e-01	5.656776426757312703e-08	-4.916200469655884455e-10	-9.248793813373476095e-10	2.911607629262216961e-09	1.256031264092948073e-08	-5.820291455260152787e-09	1.977274967580633265e-08	3.303952498250450223e-08	8.567903186102454096e-09	1.529537310340964225e-08	3.631129512116332313e-08	8.609940679436614188e-09	-1.831609347206679568e-09	-9.500390388341011101e-09
-3.279437542216073317e-09	-4.389429704689580662e-09	6.011782283486177216e-10	-4.275348416745540721e-09	-3.954637528542321917e-09	-3.569646026722763631e-09	-3.139254412706018690e-09	-4.218741364105295428e-09	-3.573321449865348509e-09	-3.831584759175326391e-09	-3.905186556201796539e-09	-4.180163708466892649e-09	1.313293389311229168e-09	-1.735222536293520798e-09	-2.676976461111759635e-09	-1.146462543133752510e-10	-1.225695102995197740e-09	-1.446148320469784177e-09	-7.913881029830353953e-10	-1.599927895213694363e-09	-2.025877011047530936e-09	-2.793200491669714672e-09	-1.055140646565095633e-09	-6.023356805493586640e-10	-2.565053123628706300e-09	8.321949689713991608e-10	3.141299996401585026e-02	-3.936116555091285490e-09	1.849791408471631817e-08	3.535787133447870767e-02	-3.110665699134980162e-10	4.598993667317610923e-09	8.549127288559135729e-02	1.622563903196423962e-01	-7.616007881754184879e-10	-4.900449952333001244e-09	-1.647265337955540153e-09	-2.164873403176228422e-09	-2.093991876481634645e-09	-3.266386231112049090e-09	-2.038196044769517613e-09	-2.048524809309823655e-09	-1.426273086054809414e-09	-1.588733876509881669e-09	-1.798157570251566152e-09	-2.757555376243976153e-09	-2.047524828861205755e-09	-3.579111754394568850e-09	-2.029850257622706387e-09	1.175590957595777636e-09	1.878573782534482053e-02	-3.448659918923194906e-09	1.873862861551007387e-08	8.104124685297016406e-02	7.861399027265947204e-10	6.649731227526114391e-09	5.949356108633922397e-07	3.938893273937153078e-02	-9.823959692811164340e-10	-4.483393639186268771e-09	-6.275177921864786538e-10	3.097351739760992115e-09	1.230856527699973151e-07	-2.160637959748654664e-09	3.084249660742603907e-08	2.872980765742886855e-01	3.464703318837710057e-09	1.176865146990865571e-08	5.945418964703340204e-07	4.772169794627473679e-08	-2.034050530273483868e-11	-4.159628272468269708e-09	3.379450515776902370e-09	5.213327926641894774e-09	1.698878425399364355e-08	2.844663282847107081e-10	1.000365290172961049e-07	6.130816086382036290e-02	2.069997306968594128e-08	6.318691112681726004e-08	1.187868858625102872e-02	1.050082350774884353e-08	3.185192078525884326e-09	-2.032214638645514439e-09	-2.548453964411250483e-09	-3.368689808069306743e-09	1.320905203297709018e-09	-4.193773605834842700e-09	-2.230224649338671180e-09	-2.193593011684093445e-09	-2.911776560503859316e-09	-2.593265115808790665e-09	-2.189201583294141588e-09	-1.426362513574471839e-09	-2.627823301899975496e-09	-4.439922091325533473e-09	-4.848916593615595860e-10	2.538267892722586066e-09	2.311447584127919166e-08	-3.650282429062756185e-09	1.582119717694916948e-08	3.879538841668188612e-08	3.507311756626941450e-09	1.152595745394373142e-08	6.334694977184432418e-02	1.224320038304679559e-01	6.021294833758090599e-09	4.668676295812013004e-10	1.102787819350375652e-09	7.423612020112126062e-10	4.238542065456469822e-09	-2.636158867448015312e-09	5.532248379327539819e-09	1.008035569846511591e-08	2.071648827445653380e-09	3.630275636683020235e-09	7.664858869605672735e-09	2.442842702301794504e-09	-2.469936893148187325e-10	-3.292615847835203062e-09
-6.112833773226501851e-09	-7.055317506036113556e-09	1.924545332242906867e-09	-6.860628604842987891e-09	-6.178647829477679295e-09	-5.554234364842197581e-09	-4.613659951833736948e-09	-6.180133598692798360e-09	-6.925566109704388750e-09	-5.915735631538190592e-09	-6.029343407131015735e-09	-6.717239447785905598e-09	2.087066877414747155e-09	-2.734385299591607548e-09	-4.334380246299338443e-09	8.141384356711100362e-11	-1.857281546040670735e-09	-2.230743023310686490e-09	-1.376132112366357737e-09	-2.693744918597518417e-09	-3.425023954462448993e-09	-4.483136634153100531e-09	-2.005369245292301972e-09	-8.530739550760280015e-10	-3.362078395702463718e-09	1.604760584212235752e-09	4.116203107409714679e-02	-6.129138683295114197e-09	3.526176945190738105e-08	1.393879065759816467e-02	-2.783770345165534123e-10	7.911973983163277912e-09	8.204340498535721282e-02	1.642101504809315160e-01	-1.353991949839239098e-09	-7.498590981453408113e-09	-2.785292733318234579e-09	-3.938964899981191695e-09	-3.111486740447079882e-09	-5.316388682761129293e-09	-2.959535694512857880e-09	-3.423773352506975873e-09	-2.184380639547325220e-09	-2.573673869915158503e-09	-2.807050865125923945e-09	-4.086584604507232281e-09	-3.226756012561414750e-09	-5.560140047120854577e-09	-3.177772439959158361e-09	2.902533647546384018e-09	7.533207260386250853e-03	-5.371054938749868767e-09	3.130907618570147549e-08	8.616337926466598185e-02	8.047707918471328822e-10	8.630402017566354194e-09	1.377559822175899201e-07	5.313885296696299609e-02	-1.696800299306372521e-09	-6.835485818971419447e-09	-4.974400696428599028e-10	6.993083985491537063e-09	7.667102764293230001e-07	-3.358543829575901776e-09	5.129367378830338937e-08	2.951976217505330458e-01	4.804807416407625903e-09	1.582404698521291079e-08	1.790072801934516770e-07	7.922970303510732863e-08	7.853597709322762867e-11	-6.321934321014033803e-09	6.074940755204181124e-09	1.049384866867722382e-08	3.559377525716078307e-08	3.774191731931435944e-09	1.671780138437225678e-07	6.491810788810428723e-02	3.631695416615533168e-08	1.130649936967375003e-07	8.582576128231008891e-03	1.626330609700344037e-08	4.742461099541667617e-09	-2.474626124183943074e-09	-5.281225281835669740e-09	-5.089164199057462771e-09	1.518032188645910522e-09	-6.532777128045418629e-09	-3.400416529315075613e-09	-3.027188633544208843e-09	-4.648400272445506085e-09	-4.167435640204226188e-09	-3.311327788031487840e-09	-2.304897568894655404e-09	-4.140849328250818998e-09	-7.031107257533164944e-09	1.109211954001705974e-09	6.623463716624317511e-09	4.820946012413250586e-08	-5.474783959951423664e-09	2.933391504069232887e-08	8.148124515456157160e-08	5.590886521897978449e-09	1.870617289431781454e-08	7.325277447950609422e-02	1.098573516403266309e-01	8.111293529916629526e-09	-5.586824355989911244e-10	3.583744414898814092e-09	2.772258224053517973e-09	9.968528672650902701e-09	-4.058853407280241303e-09	1.068163374630669565e-08	1.776622372456351400e-08	3.621107246614647612e-09	6.276094322741836756e-09	1.194868404170747567e-08	5.269788376117977773e-09	-2.544973817650477748e-10	-5.118551332255775918e-09
-8.794179442718409463e-09	-1.036540922987017211e-08	-1.487927916995585808e-09	-9.418110175489380226e-09	-9.710179593027381881e-09	-9.634939564699162941e-09	-9.334458228375337265e-09	-9.071003371018178812e-09	-9.606582780905634669e-09	-8.065272266644678521e-09	-9.685959103382399470e-09	-9.773573027505530409e-09	2.840894498888600012e-09	-4.590230356846918747e-09	-6.955373384676977932e-09	-6.482081746288427310e-10	-3.683331845962589031e-09	-4.165787411208610742e-09	-2.950106382153995959e-09	-4.806255689888985680e-09	-5.781875915610656983e-09	-7.313171008847107548e-09	-3.500621329926234706e-09	-2.131291929111512177e-09	-6.308966535763536460e-09	8.649506038131212451e-10	3.599672773578097007e-02	-1.004283627586132795e-08	4.166360031503817500e-08	2.753610491620504461e-02	-1.189724133231712862e-09	1.039240630470912946e-08	7.305902071517487995e-02	1.722004376026810835e-01	-3.122849464218935762e-09	-1.136230904914732520e-08	-4.468155239667908385e-09	-7.267557044124672146e-09	-5.697944080313650190e-09	-8.335354579480724858e-09	-5.764026815930304782e-09	-5.300332388564335955e-09	-3.732871189236235893e-09	-4.213118755698970886e-09	-5.758103636591050020e-09	-7.304650894440354780e-09	-4.404485858513008143e-09	-9.117675635780016829e-09	-5.944370020370222369e-09	2.311962110180336992e-09	1.192658835280824454e-02	-8.931746139225452543e-09	4.244652313903531621e-08	8.784764917855897304e-02	8.195950948579972947e-10	1.253367656070017371e-08	3.313191841672838019e-07	5.563899422138588596e-02	-3.587640613670751961e-09	-1.031451131185827410e-08	-2.825965232221792197e-09	7.651782109660453432e-09	9.817441594540774759e-07	-6.645925081523848695e-09	6.917554076972654884e-08	2.813015810520267945e-01	6.734939932598848257e-09	2.387744057555883204e-08	4.503223662810173993e-07	1.151250833403079044e-07	-1.279688406188860973e-09	-9.323048684270335930e-09	3.883267613567624062e-09	1.557066922086978145e-08	5.594564886380516951e-08	-2.009555779668581873e-09	1.997728385224782904e-07	7.198120887157911929e-02	5.753822153282558223e-08	1.880243841730058509e-07	1.178803889523207665e-04	2.459694242696287519e-08	6.357329231399293972e-09	-6.307413821149242449e-09	-8.353909313581224468e-09	-7.299714633579704711e-09	2.034914752071332034e-09	-1.030246969952405951e-08	-5.417848435223367735e-09	-4.016900977979745230e-09	-7.309710751143799927e-09	-6.527704541989798751e-09	-4.733086703460455935e-09	-4.549853265399588957e-09	-6.954354328884137215e-09	-1.066537607228892901e-08	-4.703768845034650498e-10	1.542770479182535726e-08	9.907172987069716677e-08	-9.288056526664588907e-09	3.598551629428171872e-08	9.093082706968180386e-08	7.382466644209032828e-09	2.599363071908007633e-08	8.113565668512053020e-02	1.012555626242287732e-01	2.179541886270953048e-08	-6.110828719779963924e-09	-4.346772607327234497e-10	5.114799515211554304e-10	9.850609799824596044e-09	-6.812471023177640941e-09	6.975363513276498300e-09	2.546223390228796511e-08	2.606151941404646254e-09	4.692267182577198059e-09	7.344538544712577882e-09	1.550637811334683523e-09	-2.144050433662760619e-09	-8.047336669879854807e-09
-6.646959665977884675e-09	-9.407262473698457779e-09	1.148729745174027865e-09	-8.581596141609344391e-09	-8.303549111756492697e-09	-7.644391639844836398e-09	-6.466564137000942836e-09	-7.776245698645938609e-09	-9.169736102318589547e-09	-8.175383630752380106e-09	-8.357763373296598272e-09	-8.667442979128343585e-09	9.333780589874765210e-10	-3.598971995388504324e-09	-5.610904186435338751e-09	-3.650605891522815999e-10	-2.485172915833043534e-09	-2.956257024971383860e-09	-1.917206635301643655e-09	-3.466642407498389228e-09	-4.409336963377582443e-09	-5.917277904621797448e-09	-2.743267505679836305e-09	-1.403075707205747490e-09	-5.013592391165961893e-09	2.418505681630432486e-09	2.285776134722553726e-02	-7.626114582858715079e-09	4.435504072728624710e-08	9.096018504544275268e-03	-7.443181598677657108e-10	9.330732945196090076e-09	8.452586095096394081e-02	1.956739468091152900e-01	-1.484831302505204302e-09	-8.647676430479220142e-09	-2.276443292040746826e-09	-5.989788352118422519e-09	-6.374150983543038915e-09	-6.522213450869633821e-09	-4.527353133300675813e-09	-4.746030348820020762e-09	9.681507615746639095e-10	-4.465066327371651551e-09	-4.438997260648780781e-09	-5.655000609221580073e-09	-4.455216679327169577e-09	-7.276925739872776378e-09	-4.443599868028144811e-09	2.590637487022820479e-09	2.434857034070384008e-02	-6.355464028655595608e-09	3.973074750460329729e-08	9.242566856010137055e-02	1.475221323344474733e-09	1.339402394489708729e-08	1.375721833505413249e-06	2.695604500925571564e-02	-2.043364104920072690e-09	-8.189191199466659891e-09	-1.487075626165072156e-09	7.350821539701005115e-09	2.609789213240510905e-07	-3.398140169889330002e-09	6.488847893233034817e-08	2.864242214756761440e-01	7.069379171780777654e-09	2.389270879253668757e-08	1.039871926911829491e-06	8.856854817880320772e-08	-4.469927276010616961e-10	-7.115284899833578882e-09	7.844547496135797433e-09	1.520326620559501926e-08	4.052477009822296632e-08	6.429184313504137140e-09	1.869998395914238861e-07	7.177090079507308928e-02	5.771609297883003143e-08	1.986018133918459420e-07	1.093770508199987286e-03	2.288618983201332061e-08	7.540712080182638863e-09	-2.856489540720684361e-09	-5.999793902002298642e-09	-3.638142619722483902e-09	-1.686195080829690104e-09	-8.614522228526960853e-09	-4.194170640584477715e-09	-2.345915928766144276e-09	-6.045903628102301488e-09	-5.315196495178395363e-09	-3.316983179816968460e-09	-3.089946678296286452e-09	-6.135869598852433420e-09	-8.872245875231809273e-09	-1.078941137732493741e-09	7.002708433683535296e-09	4.745598624656815468e-08	-6.724642592200330427e-09	3.300432384724462211e-08	7.852047314587958717e-08	6.955335621051126552e-09	2.383415512724084926e-08	5.465207211462183579e-02	1.301716748893204101e-01	6.397910174108351763e-09	-3.393262343698574748e-09	2.248827214393584463e-09	2.547665066433532530e-09	8.466743474056414744e-09	-4.680617539377734065e-09	1.400380092956156758e-08	1.658377239443313574e-08	4.231591205228471169e-09	8.484335194804084221e-09	1.710975768593859418e-08	6.230348745382828897e-09	-9.335279419542794474e-10	-6.101470696530104550e-09
-3.365237776584111223e-09	-4.738204793216625890e-09	4.398176002640240028e-10	-4.519265401533195012e-09	-4.207393499798194157e-09	-3.923316755542803955e-09	-2.818877523501935096e-09	-4.558906894421034628e-09	-4.684910540463989628e-09	-4.019534765871532490e-09	-4.292359357133351712e-09	-4.351793638440014712e-09	4.203736724886967416e-09	-2.452071263973944428e-09	-3.223527386045030380e-09	-4.816278543609660423e-10	-1.658989925696159188e-09	-1.879052545115117179e-09	-1.224110930912988846e-09	-2.084090149820026626e-09	-2.563778868431645854e-09	-3.256006861485239062e-09	-1.663940708910753477e-09	-8.821942248619328368e-10	-2.628533079071870152e-09	8.496403447684071723e-10	3.610491022323903537e-02	-3.387961614385320651e-09	1.994317481929487265e-08	2.105733510567714753e-02	-4.042427413486109171e-10	4.914611121783495156e-09	8.941385376069713176e-02	1.655574597774084056e-01	-1.463687709363202939e-09	-3.767682407212071853e-09	-9.906617302323172141e-10	-3.354298714460688220e-09	-2.879384517474978562e-09	-3.428188334512901104e-09	-2.393001295620076494e-09	-2.354767176221463754e-09	-1.857186645154261502e-10	-2.850624537741839719e-09	-2.620590672009417162e-09	-3.246471974570582490e-09	-1.620305053119621761e-09	-3.425347810045897285e-09	-2.249633825092396690e-09	1.841740857654792206e-09	9.814556869321632362e-03	-2.501322703661929228e-09	2.048152166094091439e-08	8.876424298103594013e-02	4.515899225741102698e-10	6.027119458163721741e-09	1.560903129725343882e-07	4.753792531004398525e-02	-1.503121842363202901e-09	-3.575281354526868014e-09	-9.607063561320170177e-10	3.685059073186865391e-09	1.367196714877664840e-07	-5.216019504474762141e-10	3.331055970579910510e-08	2.816535555790686818e-01	3.133853790977602597e-09	1.087524728903922908e-08	1.512749787276334981e-07	5.348787411702424735e-08	-3.296999298751161044e-10	-2.808758726929093274e-09	2.543795977253288175e-09	8.365740072738822102e-09	2.231794816697029277e-08	7.016491536422584749e-09	8.842572579835215938e-08	6.584327954990078224e-02	2.940668450036601772e-08	9.939842252849172509e-08	1.067180939002943798e-03	1.051400581787914588e-08	3.499963827474447066e-09	-8.223335742177092331e-10	-3.231530201152308882e-09	-1.453332937538271259e-09	-1.298305434163181564e-09	-4.409170009367053212e-09	-2.115827877601775711e-09	-1.194654246456922512e-09	-3.123966951370044543e-09	-2.709715889404509078e-09	-1.620528028195307280e-09	-1.179834477031022496e-09	-3.208744408256516501e-09	-4.403299545980617884e-09	-6.638229848967415441e-10	3.993321537795614802e-09	3.120103861899352104e-08	-2.812498716961089847e-09	1.810237600737110204e-08	4.901650700255201742e-08	3.426764326729413387e-09	1.233654317050741610e-08	7.243160172586009249e-02	1.207532046489303845e-01	1.336355545235272119e-08	-1.158609078583395329e-09	2.473404122512439111e-10	1.411119515956150678e-09	5.431314608109631733e-09	-1.266321886694409224e-09	7.956424207273372458e-09	9.927427134712122195e-09	2.376634703663820066e-09	4.581330265796676446e-09	9.513779439272501463e-09	3.701286906214971064e-09	-6.569257497255559637e-10	-2.646028736981256450e-09
-3.612141608574471917e-09	-5.283074132805249075e-09	5.243745117134973495e-10	-5.055703650530288689e-09	-4.738337172444466367e-09	-4.573646023523164343e-09	-3.071133570408056367e-09	-4.726731584918711102e-09	-5.327714882600465826e-09	-4.614913728933002781e-09	-4.727832802800708508e-09	-4.786371582043018956e-09	3.220911730451620193e-09	-2.689439202447994621e-09	-3.522955104282099059e-09	-4.334403528596782133e-10	-1.829283993997623181e-09	-2.097606883944328359e-09	-1.389376809219269787e-09	-2.286614435784393282e-09	-2.804989487373369289e-09	-3.576923337446231315e-09	-1.807857131094578983e-09	-7.444955366847191951e-10	-2.920031999045370411e-09	9.180587636419237149e-10	2.836509201320538617e-02	-4.319448752898641482e-09	2.400888103927558293e-08	1.391449573316419670e-02	-3.958544956138597786e-10	5.447966615093154674e-09	8.065466068033566582e-02	1.808853807069352171e-01	-1.957626975944137187e-09	-4.287537932905913972e-09	-2.261667083291764345e-09	-3.437289492954015647e-09	-3.078592647331277770e-09	-3.817776714971980467e-09	-2.485941263636383195e-09	-2.489839185629907699e-09	-9.014876492919626900e-10	-2.058800671669557206e-09	-2.132215960742874054e-09	-3.180377343734941604e-09	-2.579517315090524096e-09	-3.952448901266142612e-09	-2.665872333416918353e-09	1.490681177572710198e-09	1.435519785412409793e-02	-3.729399898494426992e-09	2.293378325158588389e-08	7.602772470736185451e-02	6.934381689854906395e-10	7.208396481484727244e-09	2.975182958257058644e-07	4.997580381345635009e-02	-1.927174413252809667e-09	-4.148251991534446914e-09	-9.680834091523194966e-10	4.293325780093278593e-09	3.794792040694224283e-07	-2.012030440154797778e-09	3.710098292797144196e-08	2.915431462516027694e-01	3.546670082260348014e-09	1.255977027869025664e-08	2.297178674241393737e-07	8.645475215538332632e-08	-6.548592798979115908e-10	-3.345977220258711161e-09	2.112635326021730613e-09	8.075480513206976248e-09	2.236558325984533880e-08	5.975339292963552085e-09	9.700773757625474149e-08	7.261740812773612164e-02	3.255844885719011304e-08	1.110396746231415614e-07	1.680219765528063406e-03	1.383700319272099866e-08	3.661759158403627403e-09	-1.139443339393157903e-09	-3.861618307653520076e-09	-3.099757920290620286e-09	1.186664254666516291e-09	-5.037308020196098177e-09	-2.766007412573686332e-09	-2.119193603707584298e-09	-3.587942638196730644e-09	-3.222510747088367776e-09	-2.298353395149828419e-09	-2.472296326327525932e-09	-3.617544568563529924e-09	-4.817082943195016903e-09	5.533980913494869202e-12	4.387176296910186557e-09	3.008008864338399571e-08	-3.877528295712039866e-09	2.048074789618678069e-08	5.426781371505429850e-08	3.870115524039076784e-09	1.366627358267469474e-08	7.877329092571201674e-02	1.112061760907964852e-01	1.822948932226359873e-08	-2.150501336327675568e-09	9.006146903920527576e-10	1.209725574502338938e-09	4.410731732826563608e-09	-2.481174300760089803e-09	5.875753695191100353e-09	8.126242636403438576e-09	1.880099351028456352e-09	3.864133599358229733e-09	4.145946170072672199e-09	2.975923071265502403e-09	-1.144265415398496706e-09	-2.882839013892685781e-09
-2.278868735412861002e-09	-3.357577132998467409e-09	1.313408820277472704e-10	-2.970857958646161998e-09	-3.077430683105039896e-09	-2.627043864817130436e-09	-2.274379835254755858e-09	-3.254868047605864838e-09	-2.868594625125734082e-09	-3.076329396179513395e-09	-3.048922853503128849e-09	-2.829917644332687590e-09	5.173843964201684656e-10	-1.557961445636563034e-09	-2.313257898388651014e-09	-3.398627553216855485e-10	-1.396388602456169667e-09	-1.538609137386368192e-09	-1.085363772807518110e-09	-1.685534767694260326e-09	-1.968134270616169426e-09	-2.367508114523999542e-09	-1.400663134507796110e-09	-6.016166739551607800e-10	-2.086838027651303281e-09	5.423024383699853019e-11	3.804466216227723324e-02	-2.178117407622149557e-09	1.268981148144511722e-08	6.293229497956955194e-03	-7.556191290180648283e-10	2.401000673859841219e-09	7.847824828695965094e-02	1.804887448875932554e-01	-1.200479446641407663e-09	-1.811298835923427649e-09	-1.226762590222964848e-09	-2.498576618979794421e-09	-1.975583546714913626e-09	-1.956614566571465626e-09	-1.717784565710244162e-09	-1.912984639993813656e-09	-6.752215273670970997e-10	-1.603576943330119932e-09	-1.628860042090396943e-09	-2.213435191681337277e-09	-2.217757253457251780e-09	-2.305888916020288833e-09	-1.777596716465964937e-09	8.948301811944702864e-10	2.845746133182208877e-03	-1.525543436947997920e-09	1.140519677200252377e-08	1.021607422526467496e-01	-2.197488402112809210e-10	3.091176286265787719e-09	8.450428197666108321e-08	4.253906159052698449e-02	-1.401637904691411592e-09	-1.736373232300778873e-09	-9.715771937775437744e-10	1.835314844250580276e-09	1.122847363480922109e-07	-3.190108372995092306e-10	1.908886023568199563e-08	2.862482563074945086e-01	1.377521323526833333e-09	5.904642382781887236e-09	1.089754223651851430e-07	2.497644736487064370e-08	-8.017120433419370651e-10	-1.143457834868922553e-09	1.604809785043247367e-10	3.693828080109956272e-09	1.101555591356777529e-08	-1.072940324544598111e-09	4.115153369665662406e-08	7.110733368390162457e-02	1.326787971589964697e-08	3.817101232181283259e-08	2.343406688164959492e-05	5.204492876172691650e-09	1.086567404803130623e-09	2.074225159484370999e-10	-2.572446710806154270e-09	-2.126481814491298607e-09	4.493355455758931491e-10	-2.816487959218303642e-09	-1.914727142172369996e-09	-1.514256793331087006e-09	-2.409036561121410582e-09	-2.197174029706818380e-09	-1.685169184018299228e-09	-1.744286906071443684e-09	-2.322996026217254915e-09	-2.790673530453893905e-09	-4.307587178725692761e-10	2.566143485843847998e-09	1.939121622528494346e-08	-1.643714146315701345e-09	1.004031497462396201e-08	2.782511500447166521e-08	1.579522735914287305e-09	6.802243281082043650e-09	6.687563217830494455e-02	1.248944187445499843e-01	7.831809810623620406e-09	3.880576268298567115e-10	2.376144659401346000e-11	4.452378463468421196e-10	3.499696968191508730e-09	-5.994206287552755697e-10	5.260732878251000521e-09	6.416346999574491625e-09	1.146576913110693625e-09	2.577184432259195764e-09	5.656372021578824211e-09	2.016589412638046912e-09	-8.822869158691140883e-10	-1.294898733918957239e-09
-5.137132752488182516e-09	-7.176230822481997278e-09	1.766117648646438014e-09	-7.412675430411241319e-09	-6.266149514168067988e-09	-5.348684226527649029e-09	-4.675969561542014422e-09	-6.718729674126572464e-09	-6.825815390643368102e-09	-5.831406348317299466e-09	-6.292822451793170553e-09	-7.047020396445975541e-09	2.285056901106655381e-09	-2.261861434108748217e-09	-4.095274020991066374e-09	2.572839565237102746e-10	-1.436942815141037221e-09	-1.870898959977216283e-09	-8.753749546614847044e-10	-2.366899626531278456e-09	-3.207753856909726894e-09	-4.348372728719453595e-09	-1.355563290239808340e-09	-8.079444764895805226e-10	-3.152820427004466668e-09	2.893623019807266910e-09	4.131273964457887055e-02	-5.006710097130230044e-09	3.767057971143730092e-08	2.095141776778771531e-02	6.585128023816163486e-10	1.019691247808735905e-08	7.501732580488262858e-02	1.666748676018512954e-01	-3.378061589657527649e-10	-5.918246973198600986e-09	-1.118529864723207564e-09	-3.766513330828173850e-09	-3.168888053069437300e-09	-5.257070370497292834e-09	-3.161438185207532454e-09	-3.124102964740878922e-09	-2.951370531766716338e-09	-2.707552915960367115e-09	-2.746385747821006042e-09	-4.648085507062466039e-09	-4.115745944235891505e-09	-5.158188954797650475e-09	-2.592948311570854803e-09	5.136520742351333217e-09	3.573477738979200565e-03	-3.927545757486914747e-09	3.748628809857964137e-08	7.027106435400413964e-02	2.123447759231223811e-09	1.176539267421845543e-08	2.548424304343544170e-07	6.656061022196797794e-02	-9.443253455373961140e-10	-5.403352795960598746e-09	5.781128040879090825e-11	8.897256587738672927e-09	6.362266392735804295e-07	-9.255072592009552507e-10	6.055683294455373340e-08	2.938435210580802037e-01	6.850993609488779933e-09	2.025415384076283521e-08	2.674797077993333518e-07	1.188685658520274779e-07	1.329434082127859888e-09	-4.126286222611387626e-09	8.030407718721799531e-09	1.364546760789188299e-08	4.059278408012861757e-08	1.796935870044473911e-08	1.722878013316499868e-07	6.056623087465239086e-02	3.690558041152629694e-08	9.720661023799522092e-08	1.398543634743342097e-02	2.120174918255433041e-08	7.076299760789626843e-09	-2.729498220480527690e-10	-5.003819608955949086e-09	-4.139846521190306838e-09	2.771155981476205602e-09	-6.852876567093427369e-09	-3.055272819967800016e-09	-2.444425952341019523e-09	-4.498810292125398757e-09	-3.882599937170290351e-09	-2.803582021604463471e-09	-3.043772040754895072e-09	-4.133799740035883937e-09	-6.799428026679626373e-09	6.111826662768693231e-10	8.657888484755335634e-09	6.439908571913152522e-08	-3.989612667037007553e-09	3.349141502112290583e-08	8.623764832623421155e-08	7.915535895059201069e-09	2.369078827601953495e-08	8.078788135293477057e-02	1.064534380420096848e-01	9.460086648748221292e-09	-3.671627794614144508e-09	2.722845830579448080e-09	3.056748786294233341e-09	9.678084458796540052e-09	-2.573186268665458660e-09	1.091047588434917462e-08	1.987276754967760125e-08	4.498285246258544546e-09	6.712147727630515749e-09	1.321113480108619727e-08	5.134300410520620352e-09	3.416978769712612146e-10	-3.917503192188338271e-09
